180 100
</s> -0.66442 0.18818 -0.25843 -0.40366 0.63582 -0.22282 0.26516 -0.1169 0.27071 0.10476 0.23369 0.036855 0.026752 0.4867 0.074394 -0.07952 -0.093797 0.26496 0.027871 -0.20185 -0.23365 0.31028 0.29998 -0.38312 0.35533 -0.28521 -0.034886 -0.21183 0.093602 0.097777 0.17487 -0.16788 0.10256 -0.035065 -0.65282 -0.35175 0.49492 -0.16298 0.042738 -0.35862 -0.38545 0.09376 0.078877 0.18994 -0.17147 0.15411 -0.11173 0.11331 0.040223 -0.0018021 0.0095799 0.34826 -0.10906 0.37463 -0.24613 -0.33935 -0.28379 0.0057503 0.025074 0.038004 -0.041314 -0.17842 0.029083 -0.1004 -0.10699 0.23476 0.18469 0.23618 0.21797 0.015637 -0.011574 -0.17946 -0.31008 -0.064495 0.11207 -0.030693 0.16964 0.36775 -0.16903 0.12479 -0.44557 0.11395 0.32043 -0.2283 -0.12411 -0.20247 -0.095428 -0.1266 0.081239 0.19452 0.56103 0.078718 0.12873 0.055315 -0.22459 -0.12998 0.36006 0.28574 0.17527 0.20304 
요금제|NNP 1.0049 -0.7699 0.27405 0.42613 -1.0739 0.20931 -1.2302 0.25468 0.04237 0.062769 -0.010388 0.051123 -0.49494 -0.77601 -0.29151 -0.10756 0.18407 -0.33425 -0.16756 0.40328 0.62566 -0.299 -0.29017 0.46121 -0.49259 0.13749 -0.19375 -0.29853 -0.25523 -0.2714 0.061341 -0.3309 0.096984 0.67206 0.54222 0.49043 -0.71851 0.39083 -0.14847 0.21384 0.0447 -0.082925 0.014439 -0.48674 0.26756 -0.13266 0.4076 0.26034 -0.1179 0.017915 -0.19252 0.15169 0.025264 -0.20064 -0.085497 0.5611 0.18348 0.06092 -0.15426 0.33837 -0.019919 0.47845 -0.089295 -0.099482 -0.19682 0.57945 -0.20947 -0.72166 -0.073289 -0.071823 0.47547 0.29199 -0.34096 -0.43232 -0.44108 0.3682 -0.52374 -0.45489 0.52569 0.26178 1.2362 -0.16185 -0.92442 0.54605 0.20506 -0.39696 -0.31711 0.30611 -0.154 0.26218 -0.19776 -0.23495 0.29071 -0.098754 -0.017257 -0.31939 0.013693 -0.026035 -0.21768 0.1135 
바로|MAG 1.0515 -0.83244 0.58547 0.36618 -1.372 0.17986 -0.94659 0.23689 -0.0085383 -0.16325 0.029245 0.024411 -0.25217 -0.65765 -0.27447 0.00032896 0.21665 0.082293 -0.53817 0.28164 0.37631 -0.28857 -0.34677 0.64583 -0.25554 0.17299 -0.51771 -0.079832 -0.35369 -0.28401 -0.043954 -0.29662 -0.0017383 0.32368 0.74344 -0.039697 -0.79911 0.38146 -0.080253 0.10371 -0.10721 0.091822 0.031245 -0.13631 0.22218 0.021355 0.36355 0.18909 -0.062131 0.017842 0.13121 0.23679 0.059441 -0.30763 -0.22459 0.5522 -0.046853 -0.05369 -0.15296 0.028012 0.16426 0.45602 -0.069516 0.1624 -0.019934 0.203 -0.29372 -0.29007 0.071161 -0.18176 0.18942 0.049181 0.013621 -0.36068 -0.46307 0.053366 -0.15133 -0.5296 0.24359 0.14207 1.0343 -0.17913 -0.9307 0.59444 0.086216 -0.35115 0.02382 0.12161 0.15015 0.20047 -0.21993 0.062261 0.25944 0.12057 0.28189 0.038327 0.11022 0.069629 -0.17551 0.11891 
로밍|NNG -0.34156 0.79469 -0.52113 -0.25408 0.41645 0.71526 -0.11216 -0.15268 0.61724 0.82061 0.15065 0.99757 -0.49303 -0.045757 0.19806 -0.34988 -0.074231 0.15275 0.26362 -0.31479 0.87015 -0.28263 -0.10049 0.34483 0.20554 0.63811 0.5907 -0.18324 -0.19388 0.23223 0.99706 0.023933 -0.87291 0.75884 0.041094 0.77027 -0.4356 -0.28476 0.33279 0.58349 0.38042 -0.35065 0.072831 -0.71529 -0.5509 -0.19151 -0.82578 -0.14277 -0.04705 -0.50404 -0.26395 0.57644 0.031048 -0.76024 -0.31262 -0.33555 0.25817 -0.51042 -0.075552 1.0178 -0.16701 0.34119 -0.60423 -0.67177 -0.3358 0.34178 0.35818 -0.59301 0.2782 -0.30573 0.671 -0.30498 -0.25532 0.81906 -0.04877 0.10605 0.52144 0.14228 0.53877 -0.7998 -0.39312 0.36859 0.42879 -0.072816 0.24503 -0.2272 -0.19401 0.34339 -0.15754 -0.54763 -0.15713 0.065584 0.093263 -0.25904 0.32232 -0.13912 0.49359 0.40382 0.14506 0.060212 
문의|NNG -0.057311 0.32123 -0.32908 0.046887 0.24823 0.29876 -0.074583 -0.14199 0.42003 0.5208 0.010213 0.19057 -0.316 -0.027356 0.21113 -0.1245 0.040444 -0.14772 0.1433 0.097555 0.4294 -0.070492 0.10029 -0.13573 -0.033437 0.11734 0.61201 -0.10607 -0.012908 0.40809 0.39901 -0.047607 -0.34231 0.25995 -0.2029 0.55728 -0.14989 0.12136 0.2433 0.17432 0.31484 -0.024633 0.18659 -0.24759 -0.045643 -0.17515 -0.11702 -0.016933 -0.15775 -0.090713 -0.33508 0.37151 -0.18929 -0.16764 0.1109 0.099084 0.25353 0.027527 -0.11137 0.44498 -0.20279 0.21862 -0.050543 -0.11697 -0.05691 0.24343 0.13043 -0.57871 0.042842 0.043549 0.23497 -0.038028 -0.28403 0.34597 -0.066249 0.23466 0.0057017 0.025168 0.51681 -0.186 -0.16426 0.1023 0.10768 -0.095948 0.20314 -0.27277 -0.29113 0.1258 -0.25632 -0.036016 0.14666 -0.034594 0.55805 -0.20685 -0.11577 -0.43622 0.24745 0.24869 -0.080897 -0.093529 
관리|NNG 0.082552 0.023252 -0.21358 0.10002 0.14127 -0.033276 -0.45579 0.16354 -0.78417 -0.41246 -0.18997 0.42679 0.062631 -0.068037 -0.27716 -0.2698 -0.54784 -0.59438 0.78076 -0.34475 -0.21893 -0.069651 -0.29285 0.17484 -0.40149 0.33873 0.074625 -0.15839 -0.038487 -0.7033 -0.45917 0.64823 0.17294 0.45014 0.22616 0.63873 0.18153 -0.68733 -0.51692 0.62641 0.25781 -0.36405 -0.52515 -0.33577 0.10651 -0.17237 -0.082032 -0.099053 0.41296 0.24241 -0.26682 -1.0106 0.22045 -0.12698 0.44522 -0.34154 0.48548 -0.12542 0.25645 0.086882 -0.39392 -0.57553 0.34602 -0.52407 -0.35145 -0.083337 0.13273 0.095317 -0.48551 -0.012401 0.020928 0.5191 0.26583 0.17171 0.53214 0.20079 -0.33622 0.20277 -0.17181 0.007873 0.60456 0.020954 0.49205 0.28557 0.067343 0.79205 -0.088453 0.42469 -0.36233 -0.4416 -0.29399 -0.54821 -1.2388 -0.11627 -0.1242 0.19847 -0.88069 -0.59712 0.094291 -0.12093 
가격|NNG 0.52124 -0.35195 0.34923 0.014818 -0.62688 0.15784 -0.59687 0.13014 0.27296 0.20318 -0.0054937 0.020949 -0.24405 -0.2804 -0.14155 -0.037922 0.11084 0.082066 -0.19624 0.20181 0.36082 -0.10679 -0.1303 0.18372 -0.070567 0.062768 -0.1629 -0.14534 -0.21113 0.058668 -0.014272 -0.2783 -0.17594 0.28557 0.25298 0.092807 -0.4395 0.29399 0.024965 0.099235 0.011235 0.090138 0.15522 -0.048376 0.12826 -0.12842 0.25722 0.025246 -0.28663 0.046163 -0.14893 0.42277 -0.22713 -0.064882 -0.14349 0.31737 -0.059578 -0.0021584 -0.029418 0.14314 -0.040737 0.44812 -0.05591 0.064243 -0.10621 0.2076 -0.25096 -0.39817 0.12238 0.036232 0.10767 -0.097395 -0.24621 -0.18235 -0.30679 0.097913 0.011412 -0.13706 0.28501 -0.035957 0.4842 -0.044716 -0.36463 0.21276 0.25592 -0.46565 -0.10633 0.11831 -0.083233 0.16206 0.12988 0.020272 0.50259 -0.085261 0.057205 -0.24332 0.36595 0.27183 -0.20756 -0.054327 
여름|NNG 0.049051 -0.0012378 -0.14281 0.045757 0.074258 -0.025535 -0.33888 0.1344 -0.56167 -0.32759 -0.12695 0.33612 0.059424 -0.03417 -0.20612 -0.2103 -0.41692 -0.38636 0.55044 -0.27128 -0.15229 -0.066367 -0.25125 0.16929 -0.27562 0.25881 -0.00071227 -0.11113 -0.046545 -0.53855 -0.32736 0.47456 0.11819 0.34876 0.18307 0.4299 0.12949 -0.53214 -0.37343 0.46249 0.1749 -0.26997 -0.38724 -0.23152 0.05694 -0.11311 -0.073552 -0.05722 0.31806 0.17329 -0.17524 -0.71767 0.1823 -0.11485 0.28435 -0.27444 0.32426 -0.12678 0.20258 0.055926 -0.27179 -0.41806 0.23629 -0.40138 -0.28672 -0.081631 0.099972 0.10353 -0.33778 -0.042025 0.013542 0.34893 0.18632 0.13926 0.39428 0.13559 -0.21046 0.16728 -0.14962 -0.026426 0.4501 0.017289 0.36776 0.22088 0.045165 0.58335 -0.026135 0.32237 -0.23559 -0.35188 -0.20988 -0.38511 -0.94186 -0.077805 -0.072687 0.17807 -0.61857 -0.42928 0.090433 -0.071241 
하|XSV -0.20916 0.18675 0.32257 -0.61544 0.23552 0.14549 -0.19799 0.076609 -0.11319 0.090698 0.068214 0.34861 0.020873 0.15177 -0.2912 0.0088002 -0.011234 0.42136 0.10862 -0.37084 -0.10548 0.20869 0.035555 0.099554 0.16842 0.018162 -0.48267 -0.0032427 -0.14296 -0.19154 -0.13059 -0.021271 -0.1096 0.038026 0.016717 -0.18847 -0.090615 -0.33304 -0.1605 0.16399 -0.11449 0.077565 -0.095861 0.0058246 -0.13416 0.061255 -0.20243 -0.35778 -0.17006 -0.064227 -0.10838 0.10357 -0.12228 0.14896 -0.33739 -0.2966 -0.28201 -0.28165 0.22816 0.12916 0.035471 0.042581 -0.22452 -0.05096 -0.052869 -0.13713 -0.23814 0.27582 0.13683 0.0037762 -0.033579 -0.047853 0.14105 -0.20373 0.0053786 -0.3554 0.44029 0.23187 -0.42126 -0.13957 -0.18533 0.12675 0.37786 0.098989 0.055708 0.06028 0.094478 -0.066352 -0.017186 -0.25949 -0.075125 0.019272 -0.38152 -0.14583 0.42159 0.21432 0.19364 0.069246 0.011566 -0.11974 
게|EC 0.096501 0.012759 0.071405 -0.079955 0.048517 0.11588 -0.37282 0.0834 -0.2911 -0.017263 -0.0438 0.16864 -0.090817 -0.14999 -0.22102 -0.018945 -0.002172 -0.13217 0.24915 -0.096593 0.026571 0.044983 -0.019819 0.096917 -0.20494 0.064108 -0.079946 -0.028711 -0.042271 -0.20622 -0.14349 0.077824 0.075734 0.17155 0.11257 0.27334 -0.11974 -0.16158 -0.18444 0.24054 0.1208 -0.035431 -0.1596 -0.24892 0.042718 -0.022817 -0.011691 -0.18132 -0.01236 -0.0093991 -0.17721 -0.25021 0.021553 0.050478 0.052528 -0.053625 0.12632 -0.033064 0.1002 0.16647 -0.07311 -0.046584 -0.050768 -0.11821 -0.024407 0.027715 -0.091533 -0.050561 -0.13554 0.049412 0.088614 0.27396 0.092181 -0.14578 0.050791 -0.014198 -0.11801 -0.0044757 -0.081326 0.088687 0.20307 -0.0070509 0.084294 0.17799 0.039655 0.20627 -0.13761 0.069492 -0.16144 -0.15365 -0.21918 -0.20515 -0.35446 -0.16343 0.12288 0.0052646 -0.22978 -0.21723 -0.034049 -0.11167 
하|VV 0.13184 -0.14289 -0.32618 0.33218 0.13099 -0.10139 -0.21506 -0.009273 -0.11492 -0.011666 -0.089834 -0.19224 -0.14828 -0.17821 0.029244 -0.050219 -0.045516 -0.58826 0.29038 0.24739 0.093723 -0.037023 0.044252 -0.2394 -0.36508 -0.11872 0.37092 -0.16541 0.12581 -0.010912 -0.036933 0.051204 0.27795 0.18125 -0.15749 0.47659 0.12461 0.099763 -0.10004 0.014878 0.15547 -0.10754 -0.04004 -0.21999 0.2176 -0.10986 0.23562 0.19 0.056338 0.13194 -0.28172 -0.28101 0.025256 0.1358 0.33878 0.16031 0.31436 0.25441 -0.054971 0.09249 -0.16289 -0.099192 0.21231 -0.093992 -0.09444 0.29854 0.095905 -0.3563 -0.28016 0.13343 0.1721 0.38317 -0.22775 -0.11974 0.048524 0.38152 -0.56272 -0.045267 0.28703 0.27503 0.3609 -0.0637 -0.15601 -0.0043576 0.031655 0.065581 -0.2965 0.16678 -0.27232 0.14309 -0.021854 -0.31566 0.037736 -0.13369 -0.42948 -0.34751 -0.34752 -0.24275 -0.050372 0.01317 
신청|NNG 0.73814 -0.71778 0.13725 0.85063 -1.028 -0.058052 -0.089918 0.066891 -0.76274 -0.91464 0.037451 -0.14372 0.16157 -0.57238 -0.051201 0.15278 0.13154 -0.20698 -0.5566 0.12987 -0.2434 -0.25386 -0.28341 0.63747 -0.3978 0.11958 -0.45512 0.29038 -0.08035 -0.58765 -0.057825 0.17285 0.5209 -0.26968 0.73358 -0.23445 -0.34667 0.048243 -0.19753 -0.15164 -0.15843 0.014586 -0.28939 -0.053892 0.22431 0.35011 0.13314 0.34377 0.63535 -0.048442 0.60215 -0.67283 0.69111 -0.4085 0.12744 0.34971 0.12367 0.022868 -0.23204 -0.41706 0.41506 -0.34096 0.11661 0.25253 0.30918 -0.18813 0.081174 0.47314 -0.29442 -0.38602 0.016733 0.44414 0.6962 -0.18604 -0.10159 -0.075774 -0.46623 -0.77114 -0.22675 0.4237 0.81179 -0.22439 -0.94842 0.58923 -0.53334 0.57637 0.38527 -0.093849 0.50413 0.0073637 -0.80379 0.074831 -0.72851 0.49114 0.26723 0.64445 -0.91295 -0.67364 0.18892 0.32107 
어떻게|MAG -0.012155 0.031861 -0.26096 0.055398 0.25293 0.017973 -0.2052 -0.0016655 -0.0494 0.10041 -0.09163 0.06103 -0.12228 -0.070109 -0.019417 -0.098892 -0.12843 -0.39298 0.36167 0.040018 0.13867 -0.024006 -0.011326 -0.15839 -0.23167 -0.0036513 0.26137 -0.16131 0.052333 -0.058763 -0.011199 0.10542 0.080996 0.2598 -0.14075 0.45979 0.072053 -0.088063 -0.11855 0.16762 0.18535 -0.14009 -0.042397 -0.2171 0.094077 -0.16093 0.055109 0.045941 -0.0081882 0.083285 -0.32788 -0.18409 -0.042834 0.050897 0.18468 -0.010148 0.20971 0.050162 0.037462 0.18787 -0.18641 -0.046962 0.09554 -0.18822 -0.19302 0.20015 0.026248 -0.27704 -0.17925 0.080795 0.17707 0.24787 -0.1923 -0.020254 0.068103 0.25111 -0.26128 0.10396 0.18118 0.038979 0.23614 0.038949 0.10624 -0.022884 0.10369 0.066493 -0.20174 0.21143 -0.29383 -0.053117 -0.032923 -0.27685 -0.10359 -0.20349 -0.24633 -0.24143 -0.19891 -0.14204 -0.034757 -0.052701 
지금|MAG 0.43172 -0.44315 0.057767 0.55938 -0.61438 -0.048801 -0.00048467 0.022304 -0.49253 -0.59897 0.027566 -0.095077 0.11154 -0.34171 -0.016795 0.10597 0.075092 -0.13834 -0.35148 0.069118 -0.18776 -0.16869 -0.17956 0.38489 -0.2428 0.072737 -0.25646 0.19872 -0.017749 -0.37963 -0.02685 0.13224 0.34715 -0.19582 0.4556 -0.14575 -0.19148 0.0049321 -0.12095 -0.11226 -0.094043 -0.0038937 -0.20107 -0.028056 0.13915 0.2258 0.059272 0.22908 0.44519 -0.041878 0.40206 -0.46173 0.4544 -0.25613 0.085857 0.19822 0.079938 0.022871 -0.16248 -0.27161 0.25829 -0.26365 0.081307 0.16075 0.19539 -0.14083 0.075233 0.3317 -0.19425 -0.25754 -0.0016007 0.29792 0.46284 -0.10002 -0.040937 -0.057963 -0.29449 -0.49256 -0.17326 0.27365 0.48733 -0.13762 -0.58493 0.35878 -0.37103 0.41215 0.26259 -0.071788 0.32737 0.0028246 -0.53456 0.046217 -0.50131 0.31152 0.15232 0.4346 -0.61885 -0.45683 0.15557 0.21357 
되|VV -0.16947 0.007842 -0.058325 -0.090181 0.1267 -0.06789 0.25531 -0.042228 0.16094 0.023563 -0.017167 -0.0045177 0.078849 0.12112 0.070001 -0.015797 -0.1113 0.066437 -0.040945 -0.039752 -0.028917 -0.0074753 -0.036652 -0.1337 0.12235 -0.048907 -0.060644 -0.059677 0.011039 0.0080583 0.072544 -0.0024043 -0.038167 -0.062231 -0.11759 -0.16324 0.097336 -0.037698 0.0065727 -0.10701 -0.094668 -0.019988 0.058816 0.17947 -0.046962 -0.024531 -0.037137 0.076511 -0.021704 0.026804 -0.031693 0.12929 -0.035742 -0.002658 -0.1194 -0.071975 -0.17058 -0.089367 0.053521 -0.064102 0.038547 0.017619 -0.029233 0.032631 -0.11234 -0.052404 -0.031384 0.12759 0.062862 -0.03382 0.0027521 -0.15269 -0.088319 0.005404 -0.049146 0.0010082 0.17353 0.13556 -0.070005 -0.15976 -0.049042 0.083589 0.089383 -0.14183 -0.022353 -0.097614 0.17177 0.052747 0.031892 -0.045592 0.057256 0.094385 0.0079789 0.0082847 -0.075024 0.051289 0.10254 0.10973 0.03351 0.058887 
는데|EC 0.025463 0.02212 -0.28061 0.10065 0.20876 0.062512 -0.16381 -0.035663 0.14744 0.26459 -0.075202 -0.04611 -0.21193 -0.15975 0.055369 -0.040841 -0.0028485 -0.38877 0.2304 0.17672 0.31614 -0.085022 0.0039114 -0.19108 -0.22003 -0.043211 0.31103 -0.16473 0.057026 0.091344 0.16171 -0.046738 0.048972 0.2506 -0.16605 0.45559 -0.033321 0.10424 -0.0014122 0.084353 0.17753 -0.12437 0.081287 -0.2381 0.064697 -0.17365 0.077154 0.11162 -0.11467 0.011021 -0.33874 0.039782 -0.065902 0.031615 0.11214 0.12531 0.16665 0.080603 -0.025735 0.24703 -0.10113 0.11942 -0.041743 -0.12345 -0.1499 0.28961 0.021295 -0.42243 -0.12058 0.093825 0.28801 0.1867 -0.34228 -0.074744 -0.083377 0.29834 -0.28654 0.0038599 0.31578 0.018938 0.20139 0.050111 -0.073804 -0.090377 0.10436 -0.13686 -0.22244 0.18437 -0.25783 0.027624 -0.065367 -0.19884 0.17974 -0.22283 -0.26899 -0.32835 -0.053928 -0.041218 -0.060692 0.00032139 
나요|EC -0.13949 0.05655 -0.017341 -0.23529 0.10698 0.054505 0.021153 0.0057508 0.29714 0.21225 -0.0029455 0.15293 -0.035098 0.079564 0.0030698 -0.084279 -0.11809 0.10312 0.039645 -0.081197 0.17447 -0.044506 -0.079008 -0.054146 0.13672 0.034456 -0.086061 -0.15135 -0.066416 -0.00063507 0.152 -0.083494 -0.17391 0.16423 -0.092142 -0.038225 -0.029814 -0.066093 0.013266 0.041124 -0.061171 -0.083479 0.088392 0.053547 -0.10509 -0.095213 -0.10209 0.033276 -0.14239 -0.023085 -0.13309 0.27014 -0.10678 -0.056553 -0.22814 -0.1017 -0.17289 -0.18028 0.087921 0.12408 -0.0020831 0.16611 -0.13805 -0.10052 -0.24289 0.072416 -0.073991 -0.040529 0.13996 -0.036602 0.12908 -0.20701 -0.22206 0.013748 -0.09144 0.015259 0.25206 0.19394 0.021941 -0.2819 -0.0049152 0.14076 0.15118 -0.128 0.11 -0.21604 0.079494 0.14125 -0.043732 -0.085775 0.07789 0.055273 0.061448 -0.093997 -0.006285 -0.025399 0.27922 0.22077 -0.0011418 0.033649 
데이터|NNG 0.28959 -0.18391 0.19116 -0.019763 -0.32735 0.092501 -0.36418 0.076061 0.2308 0.17539 -0.014112 0.012244 -0.16536 -0.14337 -0.079768 -0.03047 0.068376 0.050367 -0.09676 0.11933 0.24924 -0.068122 -0.080816 0.075318 -0.036881 0.039357 -0.054676 -0.11578 -0.12967 0.075998 -0.00089968 -0.17837 -0.13707 0.19041 0.11817 0.075791 -0.25844 0.19159 0.033615 0.06496 0.034115 0.051906 0.11313 -0.018675 0.073119 -0.11022 0.16116 0.0058692 -0.22018 0.035687 -0.14474 0.30401 -0.1847 -0.030938 -0.080435 0.18685 -0.030234 0.0021432 -0.01658 0.11269 -0.062205 0.29329 -0.018673 0.044619 -0.087765 0.14639 -0.14643 -0.28725 0.084923 0.046622 0.069087 -0.081287 -0.19665 -0.089627 -0.18914 0.072143 0.021355 -0.033583 0.22434 -0.041107 0.25949 -0.020598 -0.17637 0.080079 0.19077 -0.31902 -0.09204 0.080518 -0.084338 0.094456 0.13495 0.0023694 0.37711 -0.075872 0.010472 -0.19614 0.2718 0.20688 -0.15217 -0.042503 
휴대폰|NNG -0.067605 0.18541 -0.158 -0.1034 0.24309 0.12515 -0.20786 0.054312 -0.18513 0.057002 -0.11426 0.33699 -0.046858 -0.032542 -0.12068 -0.15364 -0.24932 -0.25075 0.45765 -0.19942 0.095031 -0.053111 -0.14103 0.041043 -0.15825 0.20174 0.10478 -0.11439 -0.043746 -0.23369 -0.078757 0.26107 -0.086347 0.3194 0.053589 0.44238 0.00030508 -0.35174 -0.19689 0.38988 0.23018 -0.21335 -0.1836 -0.24944 -0.034717 -0.16102 -0.15348 -0.12767 0.045116 0.038045 -0.29208 -0.3053 0.016805 -0.11097 0.11694 -0.20737 0.2083 -0.15038 0.16417 0.22769 -0.20372 -0.11703 0.01219 -0.30881 -0.25379 0.0015769 0.0088553 -0.08368 -0.16645 0.0077574 0.12995 0.1858 0.0073575 0.12771 0.18109 0.099949 -0.019917 0.18936 -0.0060788 -0.18534 0.18594 0.10641 0.35828 0.041941 0.11953 0.26119 -0.058408 0.27317 -0.26692 -0.33209 -0.18487 -0.25584 -0.49876 -0.20872 -0.0010155 0.01225 -0.25792 -0.17623 0.0092481 -0.10477 
연결|NNG 0.059424 0.13118 0.66436 -0.56498 -0.035127 0.25907 -0.54192 0.15822 -0.63571 -0.16192 0.1793 0.36357 0.011594 -0.057443 -0.54279 0.18639 0.31889 0.59338 -0.051361 -0.42219 -0.32291 0.37926 0.16712 0.46518 0.014822 0.026252 -0.77509 0.29368 -0.18654 -0.35186 -0.37673 -0.03367 0.08967 -0.16996 0.3495 -0.28678 -0.30855 -0.35107 -0.25168 0.19066 -0.12377 0.29163 -0.31274 -0.20483 -0.076762 0.33583 -0.17935 -0.64012 -0.03984 -0.19158 0.16498 -0.2213 0.069069 0.22293 -0.29588 -0.25136 -0.18426 -0.17955 0.17911 0.055382 0.18217 -0.10263 -0.28898 0.085778 0.3903 -0.26898 -0.30299 0.47979 0.054647 -0.0044246 -0.18948 0.2929 0.64355 -0.44293 0.042001 -0.67074 0.30336 -0.1027 -0.70304 0.2761 -0.22862 -0.060943 0.16511 0.49849 -0.11914 0.41297 -0.0099179 -0.40568 0.14435 -0.24963 -0.3749 -0.005149 -0.70393 -0.047369 0.86655 0.43002 -0.089881 -0.26053 0.012112 -0.2125 
요|EC -0.10423 0.17551 -0.25935 -0.063082 0.32428 0.12027 -0.06457 -0.04906 0.22524 0.34864 -0.089689 0.094652 -0.17829 -0.070399 0.05302 -0.070846 -0.051907 -0.26087 0.26893 0.064584 0.31836 -0.076352 -0.011442 -0.17612 -0.1089 0.024406 0.29745 -0.16039 0.024884 0.11286 0.19165 -0.0052195 -0.10962 0.26056 -0.16678 0.4122 -0.032043 0.012281 0.029111 0.15686 0.18917 -0.14146 0.075846 -0.21018 -0.018731 -0.18053 -0.049416 0.015363 -0.14826 -0.025062 -0.34501 0.097051 -0.097011 -0.033361 0.022127 0.0081717 0.11577 -0.033151 0.019338 0.27986 -0.1032 0.1531 -0.095415 -0.16077 -0.19823 0.20429 -0.0052119 -0.3538 -0.046141 0.052907 0.26598 0.067175 -0.29094 0.03718 -0.066681 0.21905 -0.072898 0.10534 0.26038 -0.16406 0.056241 0.10237 0.098622 -0.14646 0.14532 -0.12617 -0.15527 0.21167 -0.2493 -0.090426 -0.061321 -0.15015 0.12193 -0.24454 -0.16415 -0.26089 0.046283 0.043595 -0.04712 -0.034347 
어떻|VA 0.0025533 0.10275 -0.1048 -0.071187 0.090375 0.12299 -0.18518 0.055642 -0.046569 0.092869 -0.096176 0.28141 -0.080235 -0.067663 -0.073037 -0.13464 -0.19737 -0.17963 0.31377 -0.11765 0.19484 -0.11126 -0.17328 0.076296 -0.10441 0.202 0.065434 -0.12269 -0.066961 -0.17912 0.031839 0.15534 -0.12932 0.32614 0.092591 0.34349 -0.073642 -0.22107 -0.12337 0.3171 0.16192 -0.2147 -0.1034 -0.21225 -0.0589 -0.16478 -0.13005 -0.054748 -0.00082913 0.0011956 -0.22665 -0.13923 0.014322 -0.16714 0.0083628 -0.13193 0.11442 -0.16316 0.1142 0.21439 -0.1311 0.018378 -0.071794 -0.26575 -0.25307 0.040624 -0.0063866 -0.13399 -0.081577 -0.034062 0.18498 0.059661 -0.066872 0.10962 0.061715 0.11051 0.025765 0.13271 0.062232 -0.23615 0.20326 0.10432 0.21039 0.020307 0.13755 0.10138 -0.015458 0.26749 -0.19457 -0.26258 -0.16397 -0.16899 -0.32014 -0.15704 -0.0033033 0.01217 -0.10711 -0.067941 0.00022774 -0.03943 
고|EC -0.02144 -0.053264 -0.3388 0.26269 0.27511 -0.13655 0.010492 -0.078166 -0.0037309 0.041954 -0.078165 -0.30023 -0.094838 -0.045878 0.12458 0.0040538 0.0020139 -0.48698 0.20409 0.26222 0.023611 0.031435 0.13362 -0.36986 -0.25225 -0.20739 0.4142 -0.10779 0.18499 0.14033 -0.0098063 0.0075474 0.26575 0.011943 -0.3096 0.34234 0.22069 0.16351 -0.00473 -0.11282 0.11341 -0.023386 0.058941 -0.070273 0.1994 -0.094013 0.23544 0.18417 0.011706 0.12784 -0.24396 -0.15589 -0.03704 0.22472 0.32639 0.1657 0.22283 0.29555 -0.082687 0.017105 -0.13252 -0.097766 0.22208 0.0026412 -0.011936 0.24025 0.091231 -0.30051 -0.21845 0.16777 0.074324 0.27987 -0.25064 -0.090402 0.03726 0.32674 -0.48874 -0.019427 0.26121 0.27678 0.12849 -0.057745 -0.10717 -0.10957 -0.0026909 -0.0053749 -0.25461 0.062662 -0.22391 0.21188 0.10322 -0.2186 0.22029 -0.099035 -0.44766 -0.36251 -0.2375 -0.15518 -0.048742 -0.0047516 
상담원|NNG 0.073832 0.064212 0.5973 -0.46167 -0.080327 0.1954 -0.45366 0.13097 -0.55731 -0.16992 0.17512 0.28174 0.026466 -0.052201 -0.46416 0.19098 0.29264 0.52742 -0.096145 -0.35411 -0.31821 0.33703 0.1657 0.39358 0.034832 -0.00049039 -0.70107 0.26351 -0.16307 -0.3005 -0.32813 -0.049364 0.10761 -0.193 0.30175 -0.31284 -0.2568 -0.28024 -0.21543 0.11367 -0.15004 0.27641 -0.26144 -0.14143 -0.057784 0.32471 -0.14248 -0.5368 -0.018136 -0.16335 0.18766 -0.18486 0.064882 0.21534 -0.25987 -0.19589 -0.17948 -0.13685 0.12916 0.0033236 0.18383 -0.10328 -0.23628 0.10669 0.37087 -0.22777 -0.26467 0.4563 0.058763 -0.0021871 -0.18818 0.2514 0.58113 -0.41858 0.018711 -0.59802 0.25583 -0.1289 -0.64322 0.27757 -0.18924 -0.06259 0.080073 0.45281 -0.14049 0.34492 0.0022986 -0.37816 0.16872 -0.17048 -0.31844 0.02117 -0.59704 0.00028912 0.74619 0.38955 -0.085167 -0.22829 0.020304 -0.15902 
세요|EP+EF -0.31326 0.37091 -0.19075 -0.26044 0.4779 0.13417 0.21168 -0.087224 0.28846 0.37183 -0.059911 0.15703 -0.064319 0.13881 0.093185 -0.051977 -0.093908 -0.014912 0.23316 -0.076148 0.19558 0.0050966 0.033328 -0.21632 0.10086 0.047447 0.2361 -0.070391 0.020224 0.20657 0.1691 0.02116 -0.26164 0.10505 -0.21804 0.2174 0.05147 -0.081845 0.089383 0.12876 0.16411 -0.074969 0.10602 -0.035474 -0.11032 -0.16765 -0.16733 -0.11472 -0.19755 -0.049477 -0.27791 0.20772 -0.17964 -0.019343 -0.032438 -0.13775 -0.012059 -0.10033 0.093991 0.21427 -0.10776 0.13041 -0.12235 -0.1235 -0.16067 0.016749 -0.018966 -0.16618 0.051409 0.074448 0.10028 -0.1263 -0.20396 0.17539 0.00077119 0.057108 0.20924 0.23395 0.1076 -0.32854 -0.26278 0.17011 0.35578 -0.25095 0.16251 -0.13562 -0.021197 0.12593 -0.18742 -0.17092 0.05576 -0.014262 0.13737 -0.21538 -0.064151 -0.1604 0.20379 0.16848 -0.027517 -0.10791 
추천|NNG -0.18263 0.13096 -0.1139 -0.0050845 0.32856 -0.12817 0.37415 -0.13162 0.2137 0.12763 -0.067247 -0.34314 0.076171 0.23907 0.20317 0.067229 0.014645 -0.052105 0.0080455 0.1611 -0.12485 0.11817 0.18817 -0.42025 0.058257 -0.23208 0.31155 0.054585 0.11129 0.39467 -0.089051 -0.0018807 -0.0029779 -0.283 -0.36043 -0.037567 0.23036 0.19151 0.16698 -0.1846 0.09683 0.19147 0.20122 0.32111 0.13923 -0.072253 0.20739 0.0015003 -0.18373 0.1725 -0.18211 0.16688 -0.27025 0.26739 0.22756 0.11891 -0.0020693 0.24043 -0.0087312 -0.17479 -0.11678 0.010073 0.26375 0.23657 0.096736 -0.093863 -0.025939 -0.11837 -0.02587 0.21397 -0.22616 -0.072548 -0.1343 0.062773 0.030627 0.09861 -0.035159 0.13231 0.13662 0.030412 -0.30223 -0.022319 0.14413 -0.24176 0.085443 -0.16517 -0.063992 -0.10353 -0.13469 0.17633 0.35879 0.05222 0.5419 -0.057703 -0.29361 -0.3004 0.13029 0.15649 -0.11564 -0.14834 
매장|NNG -0.16996 0.12898 -0.097202 -0.0020454 0.32736 -0.13533 0.37629 -0.13005 0.20427 0.13077 -0.079452 -0.33716 0.072093 0.23954 0.20097 0.061535 0.021415 -0.047921 0.014318 0.15543 -0.13495 0.11907 0.19832 -0.42892 0.0635 -0.22975 0.32528 0.040321 0.12474 0.39766 -0.086415 0.00039699 -0.0073635 -0.28944 -0.35803 -0.040131 0.23098 0.20456 0.16048 -0.17736 0.083227 0.17621 0.2106 0.3215 0.14174 -0.085683 0.20352 -0.0010288 -0.19299 0.17275 -0.17929 0.17216 -0.28229 0.26632 0.22347 0.12794 -0.0033169 0.23014 -0.018717 -0.1625 -0.1184 0.019666 0.26044 0.25529 0.10059 -0.093302 -0.020074 -0.1205 -0.022106 0.21545 -0.21663 -0.087193 -0.1234 0.070053 0.03152 0.09749 -0.035438 0.1317 0.14963 0.042922 -0.30145 -0.021233 0.13458 -0.25747 0.093426 -0.16742 -0.057936 -0.10554 -0.13515 0.18174 0.34803 0.050802 0.55955 -0.046832 -0.28837 -0.29679 0.13109 0.17573 -0.11508 -0.14909 
3|SN 0.29728 -0.31845 0.09053 0.35084 -0.4475 -0.020711 0.003941 0.020765 -0.34447 -0.42935 0.019437 -0.069829 0.10118 -0.23753 -0.034917 0.076559 0.053881 -0.050508 -0.27866 0.028591 -0.15012 -0.099593 -0.11716 0.27023 -0.15665 0.03446 -0.2388 0.13792 -0.03678 -0.27116 -0.032546 0.067668 0.23727 -0.17107 0.31229 -0.16423 -0.15974 0.016067 -0.085495 -0.091988 -0.087748 0.043069 -0.12809 0.027231 0.096792 0.17275 0.058427 0.13664 0.27867 -0.0219 0.27672 -0.28643 0.29683 -0.1672 0.035557 0.15074 0.014385 0.0065576 -0.085989 -0.20449 0.19519 -0.15586 0.052448 0.15221 0.14375 -0.12789 0.010497 0.27216 -0.1171 -0.17254 -0.013046 0.17476 0.33632 -0.091286 -0.053409 -0.066207 -0.16017 -0.33389 -0.13965 0.17671 0.34419 -0.096378 -0.40247 0.25239 -0.26159 0.252 0.19817 -0.059838 0.24138 -0.0039171 -0.3529 0.071216 -0.31356 0.21732 0.13454 0.31273 -0.39661 -0.28255 0.084756 0.13209 
주|VX -0.31399 0.3737 -0.20563 -0.24418 0.49096 0.13155 0.20548 -0.087025 0.28686 0.36894 -0.052023 0.15182 -0.054349 0.14891 0.096113 -0.06349 -0.092703 -0.019541 0.24155 -0.074342 0.19073 -0.0056414 0.040982 -0.22169 0.09426 0.034357 0.2492 -0.073094 0.015892 0.19902 0.18544 0.023405 -0.25582 0.10007 -0.21536 0.20341 0.046913 -0.086195 0.088217 0.11868 0.16327 -0.082884 0.091855 -0.033503 -0.11117 -0.15155 -0.17959 -0.10182 -0.20394 -0.042811 -0.2928 0.197 -0.16722 -0.020579 -0.033913 -0.1416 -0.0093434 -0.094013 0.092704 0.21725 -0.10129 0.12979 -0.10922 -0.10782 -0.15857 0.020473 -0.0047887 -0.16945 0.047553 0.073886 0.11725 -0.11926 -0.1926 0.17078 -0.0031691 0.054395 0.20975 0.24956 0.11972 -0.3308 -0.27197 0.16819 0.34807 -0.24772 0.16514 -0.13688 -0.032882 0.12098 -0.20355 -0.17356 0.052123 -0.0063076 0.14748 -0.22279 -0.067322 -0.16157 0.21161 0.16977 -0.04098 -0.094644 
gb|SL 0.14269 -0.16957 -0.0039073 0.25538 -0.23319 -0.045068 0.12228 -0.0060004 -0.24206 -0.31156 0.0041933 -0.063496 0.10898 -0.11588 0.027691 0.058271 0.015506 -0.055446 -0.17311 0.014551 -0.12714 -0.06426 -0.074371 0.15428 -0.087211 0.021221 -0.13352 0.11575 -0.0033309 -0.16763 -0.00069006 0.08955 0.16802 -0.15888 0.17728 -0.13008 -0.037604 -0.016236 -0.049068 -0.08682 -0.063652 0.0047807 -0.081497 0.045543 0.050562 0.12229 0.0052109 0.1166 0.21517 -0.011065 0.20792 -0.22408 0.23228 -0.12587 0.044938 0.070633 0.0088859 -0.0051356 -0.058441 -0.18062 0.15122 -0.14646 0.046591 0.099797 0.10706 -0.11053 0.044531 0.22674 -0.093658 -0.1262 -0.024446 0.10794 0.24309 -0.02212 -0.01254 -0.040528 -0.10888 -0.21114 -0.10965 0.093745 0.17677 -0.04843 -0.24992 0.12993 -0.19583 0.21126 0.1797 -0.043827 0.18391 -0.023622 -0.25178 0.061154 -0.2566 0.17822 0.068355 0.24069 -0.30436 -0.21337 0.078764 0.10876 
좀|MAG -0.23328 0.2819 -0.14593 -0.22432 0.36892 0.12252 0.13156 -0.070495 0.28725 0.33387 -0.053088 0.1288 -0.052928 0.12074 0.082478 -0.055909 -0.069905 0.0035693 0.17586 -0.052689 0.19359 -0.011686 0.023543 -0.16992 0.084116 0.02762 0.20023 -0.062781 0.0041957 0.18067 0.14925 0.0023644 -0.23025 0.10373 -0.18339 0.17729 0.011619 -0.043986 0.079944 0.10529 0.14685 -0.056251 0.11752 -0.018026 -0.078112 -0.15661 -0.12046 -0.076432 -0.19792 -0.023643 -0.25022 0.21562 -0.17969 -0.021917 -0.045881 -0.085433 -0.029198 -0.086878 0.060488 0.18276 -0.095053 0.15467 -0.083936 -0.07976 -0.14685 0.029608 -0.039329 -0.1813 0.064934 0.05565 0.096598 -0.12331 -0.18895 0.13566 -0.032292 0.049873 0.18905 0.20627 0.13037 -0.27593 -0.19289 0.13468 0.2686 -0.19953 0.16172 -0.16383 -0.030645 0.10552 -0.17896 -0.12048 0.080897 -0.0051439 0.18924 -0.19374 -0.054614 -0.1633 0.22521 0.17591 -0.053979 -0.097264 
할|XSV+ETM 0.10843 -0.05972 0.27714 -0.072237 -0.14755 0.059478 -0.16109 0.058898 -0.39275 -0.24439 0.078492 0.087594 0.059276 -0.079603 -0.21247 0.12321 0.14684 0.20048 -0.113 -0.15246 -0.22721 0.12185 0.037022 0.24938 -0.041391 0.005347 -0.36322 0.1881 -0.050287 -0.22427 -0.17908 0.031088 0.15067 -0.16966 0.23342 -0.18149 -0.12542 -0.14596 -0.12983 0.011384 -0.075934 0.12565 -0.18094 -0.055367 0.011152 0.20133 -0.05794 -0.1989 0.11526 -0.080917 0.18854 -0.23175 0.14023 0.056889 -0.079254 -0.061461 -0.059457 -0.039223 0.020448 -0.087241 0.13756 -0.14708 -0.068638 0.099407 0.22422 -0.16832 -0.094532 0.31861 -0.033912 -0.056404 -0.11934 0.20204 0.39903 -0.20751 0.024839 -0.29778 0.036327 -0.16762 -0.36259 0.20519 0.0027038 -0.065451 -0.080238 0.27606 -0.16855 0.301 0.07742 -0.20712 0.154 -0.080873 -0.27966 0.016344 -0.42044 0.074624 0.36243 0.29525 -0.22106 -0.24105 0.059936 -0.030967 
한|XSA+ETM 0.45114 -0.39176 0.064747 0.3591 -0.45997 -0.0019616 -0.39437 0.065126 -0.14081 -0.14451 -0.0041089 -0.10173 -0.14459 -0.34189 -0.075571 0.014547 0.11521 -0.21645 -0.13268 0.22966 0.099893 -0.088401 -0.067356 0.15605 -0.26855 -0.0032291 -0.031673 -0.045576 -0.031877 -0.11629 -0.037273 -0.070704 0.19276 0.10471 0.22599 0.1525 -0.21251 0.19496 -0.07278 -0.020425 0.0018917 0.015449 -0.039791 -0.15986 0.17922 0.026608 0.2388 0.1533 0.095525 0.032111 0.019058 -0.11699 0.11046 -0.048615 0.093616 0.27601 0.14575 0.12362 -0.11894 0.0067813 0.032955 0.040283 0.060461 0.054428 0.055351 0.17373 -0.025915 -0.18728 -0.12005 -0.028285 0.1027 0.23727 0.0032618 -0.20186 -0.12995 0.1516 -0.34717 -0.27755 0.15466 0.28239 0.49176 -0.13462 -0.46058 0.26264 -0.050348 -0.0047439 -0.10771 0.042199 0.0059832 0.15057 -0.13929 -0.10408 0.036279 0.051838 -0.049126 -0.084439 -0.21127 -0.16693 -0.043906 0.069371 
게|NNB+JKS 0.10782 -0.04961 0.26776 -0.087915 -0.13857 0.059899 -0.17093 0.057634 -0.40478 -0.2402 0.081738 0.073876 0.069685 -0.0822 -0.20359 0.12703 0.13873 0.19259 -0.1107 -0.15627 -0.21548 0.1172 0.032509 0.25764 -0.046431 0.0052092 -0.37679 0.19241 -0.066528 -0.2314 -0.18092 0.038498 0.16261 -0.17108 0.2186 -0.1946 -0.1266 -0.14237 -0.13338 0.024554 -0.084719 0.12922 -0.17053 -0.053738 0.00068005 0.19874 -0.045923 -0.19008 0.11281 -0.069728 0.18528 -0.22956 0.14969 0.049351 -0.06405 -0.05152 -0.054997 -0.050315 0.037687 -0.095458 0.15087 -0.14839 -0.078193 0.093766 0.23244 -0.16898 -0.0805 0.31931 -0.044893 -0.046926 -0.10297 0.20417 0.38461 -0.21332 0.037989 -0.29366 0.024944 -0.16727 -0.35359 0.20928 -0.002283 -0.059976 -0.069058 0.27198 -0.16853 0.28659 0.074398 -0.20846 0.15831 -0.096151 -0.28244 0.016698 -0.42044 0.077402 0.36301 0.29957 -0.2232 -0.24169 0.056018 -0.02508 
서비스|NNG 0.36068 -0.087582 -0.22897 0.78158 -0.8513 0.23249 -0.27677 -0.075887 -0.4077 -0.55539 0.52008 0.53594 -0.18617 -0.25393 0.16544 -0.16917 0.25294 0.27704 -0.61601 -0.16849 -0.096412 -0.15524 0.042452 1.0326 0.041296 0.53216 0.20519 0.26403 -0.10721 -0.23377 0.59222 0.12192 -0.0055268 0.085888 0.56865 -0.042615 -0.25911 -0.11437 0.2536 -0.017138 -0.19178 0.023584 -0.31896 -0.56002 -0.27258 0.58809 -0.46841 0.26472 1.0292 -0.45422 1.0457 -0.26285 0.8248 -0.79254 0.064992 -0.056884 0.53234 -0.041135 -0.54405 0.20867 0.17406 -0.52841 -0.023425 -0.29337 0.48702 0.18303 0.85997 0.22694 0.09816 -0.62687 0.095802 0.12363 0.73262 0.7234 0.29446 -0.16332 -0.19222 -0.72968 0.13526 0.45163 -0.083425 -0.22192 -0.57647 0.70491 -0.54274 0.53109 -0.13646 -0.33823 0.73164 0.062565 -0.17327 0.24107 -0.39499 0.75104 0.49512 0.46063 -0.37811 -0.22657 0.4949 0.46527 
해|XSV+EC 0.048884 -0.0035009 0.055065 -0.057038 -0.0046979 0.021634 -0.24191 0.087972 -0.32297 -0.17259 -0.017714 0.20663 0.018174 -0.033501 -0.18273 -0.048081 -0.10674 -0.056967 0.20103 -0.18828 -0.10743 0.03202 -0.082971 0.14877 -0.10945 0.12044 -0.12907 -0.010839 -0.052152 -0.27747 -0.18635 0.17271 0.062306 0.11591 0.13975 0.11417 0.0026688 -0.26621 -0.19251 0.20551 0.044422 -0.064787 -0.21201 -0.13057 0.007252 0.0081495 -0.058778 -0.12273 0.12632 0.024834 -0.036316 -0.31848 0.087971 -0.025362 0.066092 -0.15694 0.10359 -0.082269 0.10021 0.035404 -0.081873 -0.18988 0.047908 -0.14034 -0.056123 -0.055558 0.0019821 0.13512 -0.12008 -0.018259 -0.023412 0.18844 0.18287 -0.015548 0.15987 -0.064341 -0.036306 0.049388 -0.16608 0.047333 0.16792 -0.0052873 0.15434 0.16653 -0.006204 0.29532 -0.008322 0.062824 -0.053361 -0.18511 -0.14159 -0.15772 -0.48746 -0.025176 0.11704 0.14459 -0.26309 -0.21109 0.038475 -0.043351 
안|MAG -0.16067 0.12461 -0.14796 0.089138 0.33963 -0.17334 0.40474 -0.15335 0.18333 0.12135 -0.092388 -0.45019 0.094442 0.2299 0.23189 0.099913 0.026604 -0.1559 0.025958 0.21738 -0.16694 0.14586 0.23819 -0.50677 0.0044834 -0.2882 0.40514 0.066705 0.17588 0.45134 -0.14561 0.016158 0.062538 -0.35297 -0.41556 0.013175 0.28913 0.24477 0.16468 -0.23396 0.13657 0.20742 0.20211 0.31919 0.19627 -0.089053 0.27128 0.012999 -0.18132 0.20266 -0.18897 0.10341 -0.28635 0.31328 0.33016 0.17252 0.051712 0.31498 -0.033974 -0.21981 -0.13575 -0.030253 0.32969 0.2921 0.1555 -0.099809 -0.015131 -0.13586 -0.068973 0.2591 -0.26424 -0.019773 -0.1315 0.043316 0.034941 0.13861 -0.12465 0.10897 0.18505 0.118 -0.30922 -0.049753 0.12142 -0.28582 0.073791 -0.1527 -0.11628 -0.13887 -0.16277 0.23639 0.37248 0.022704 0.61652 -0.064797 -0.37107 -0.36499 0.063217 0.13011 -0.14239 -0.16638 
해요|VX+EC -0.18897 0.31867 -0.12577 -0.3037 0.33101 0.25828 -0.075533 -0.011533 0.25852 0.42379 -0.065625 0.35461 -0.158 -0.0064796 -0.023213 -0.12855 -0.13147 -0.026039 0.30785 -0.13075 0.38384 -0.09452 -0.10928 -0.025405 0.030143 0.18734 0.12078 -0.14349 -0.069795 0.036394 0.23211 0.032876 -0.3466 0.35616 -0.04457 0.37306 -0.15006 -0.16979 0.018271 0.3262 0.19796 -0.19114 0.042159 -0.22362 -0.16491 -0.2281 -0.25532 -0.13949 -0.22468 -0.10934 -0.34895 0.21309 -0.1437 -0.1628 -0.16266 -0.16728 -0.006505 -0.25886 0.13676 0.39842 -0.10116 0.23346 -0.26608 -0.25802 -0.29022 0.090663 -0.069848 -0.26592 0.062327 -0.0041351 0.27175 -0.11102 -0.23242 0.145 -0.05623 0.073758 0.25024 0.22496 0.14162 -0.44232 -0.057562 0.20732 0.32414 -0.14403 0.22615 -0.13889 -0.027312 0.25511 -0.24238 -0.30225 -0.11426 -0.08006 -0.05536 -0.29977 0.072299 -0.10393 0.22265 0.14649 -0.042765 -0.086473 
주문|NNG -0.2163 -0.43105 0.20232 -0.15524 -0.31602 -0.44792 0.42552 0.018047 0.23677 -0.41278 0.15328 -0.18032 0.36449 0.39664 0.064906 -0.034888 -0.24743 0.49418 -0.50353 -0.14457 -0.42022 0.052892 -0.101 -0.064862 0.49123 -0.20087 -0.62153 -0.14307 -0.051065 -0.22557 -0.032315 -0.1572 0.14832 -0.26395 -0.17986 -1.0206 0.34361 -0.032683 -0.019037 -0.52788 -0.69427 0.083521 0.078939 0.697 -0.093289 0.19601 0.077206 0.39167 0.17491 0.15106 0.46269 0.32424 0.051107 0.10603 -0.43276 -0.15436 -0.62467 -0.15196 0.041212 -0.49183 0.21725 -0.10597 0.1214 0.15575 -0.19561 -0.10201 -0.0015317 0.68115 0.31434 -0.19921 -0.23447 -0.53473 -0.096608 -0.12966 -0.042365 -0.18447 0.41345 0.21952 -0.39696 -0.074021 -0.0079561 0.049053 -0.047235 -0.14952 -0.21313 -0.26203 0.48536 -0.077379 0.46314 0.24659 0.475 0.39243 0.0021186 0.41169 -0.11902 0.37848 0.37248 0.34288 0.17961 0.36269 
알려|VV+EC -0.30391 0.36605 -0.19188 -0.26448 0.4303 0.17382 0.12134 -0.050228 0.26844 0.37522 -0.049162 0.23995 -0.087201 0.099737 0.060157 -0.082706 -0.10641 -0.01692 0.25724 -0.11733 0.24546 -0.026551 -0.00082633 -0.14553 0.080198 0.090582 0.19691 -0.087518 -0.013395 0.12539 0.21212 0.030667 -0.25885 0.19013 -0.15686 0.25103 -0.0072817 -0.1277 0.065469 0.17789 0.15476 -0.12 0.068984 -0.10902 -0.14175 -0.15897 -0.22104 -0.1012 -0.17679 -0.076758 -0.28428 0.18223 -0.13749 -0.078085 -0.083173 -0.16406 -0.00070153 -0.16487 0.093986 0.26443 -0.098314 0.13195 -0.18063 -0.18463 -0.19879 0.036198 -0.016496 -0.17055 0.065612 0.025878 0.17896 -0.12138 -0.20531 0.16733 -0.0010878 0.055812 0.22075 0.23978 0.10432 -0.35801 -0.21511 0.17379 0.34489 -0.20442 0.16252 -0.11987 -0.015256 0.16373 -0.19568 -0.22609 -0.020802 -0.029824 0.029004 -0.227 -0.0096051 -0.10732 0.1847 0.14821 -0.0091275 -0.078082 
얼마|NNG 0.41739 -0.28684 0.29157 0.0039766 -0.52677 0.13833 -0.48585 0.10781 0.15882 0.10399 0.022659 0.058861 -0.17103 -0.23802 -0.12975 -0.042708 0.086778 0.11457 -0.18416 0.12419 0.26727 -0.097116 -0.13043 0.22151 -0.051595 0.078963 -0.19051 -0.097054 -0.18098 -0.022268 -0.0075306 -0.20944 -0.13564 0.23601 0.25811 0.03086 -0.38474 0.199 -3.6886e-05 0.08446 -0.015652 0.05756 0.083816 -0.04873 0.069187 -0.072461 0.16674 0.024222 -0.1741 0.016289 -0.055888 0.29049 -0.12022 -0.10284 -0.14413 0.22775 -0.059593 -0.042226 -0.037294 0.11566 -0.0034095 0.31853 -0.06914 0.045973 -0.070089 0.14098 -0.18666 -0.26715 0.10785 -0.021248 0.099711 -0.073964 -0.13737 -0.14055 -0.23962 0.033606 0.035903 -0.13877 0.17723 -0.027342 0.38196 -0.046177 -0.30789 0.2045 0.17182 -0.30591 -0.058481 0.081036 -0.018951 0.10125 0.047719 0.02245 0.29888 -0.023439 0.11278 -0.096631 0.26765 0.17522 -0.14277 -0.013919 
변경|NNG -0.15923 -0.015721 -0.50664 0.49216 0.49232 -0.39111 0.38898 -0.16087 -0.2638 -0.21626 -0.097629 -0.61988 0.093146 0.10796 0.25642 0.11149 0.029176 -0.64755 0.22273 0.32349 -0.36987 0.16168 0.32709 -0.58322 -0.3 -0.39411 0.62973 0.052412 0.3821 0.23493 -0.18544 0.16423 0.55059 -0.36109 -0.51701 0.22797 0.5903 0.1895 0.008784 -0.3335 0.10752 0.075057 0.0021615 0.077331 0.30735 0.038027 0.3456 0.2124 0.22063 0.22593 -0.073663 -0.5138 0.050649 0.42648 0.63428 0.15575 0.35484 0.5553 -0.1523 -0.28029 -0.13382 -0.45741 0.49328 0.16335 0.23814 0.08084 0.25566 -0.076013 -0.37523 0.25337 -0.17326 0.44807 -0.038071 -0.062052 0.26659 0.33189 -0.73287 -0.052962 0.13783 0.58962 -0.1398 -0.1742 -0.0586 -0.21593 -0.19475 0.29428 -0.29054 -0.1512 -0.15533 0.35456 0.17059 -0.24511 0.15091 0.034402 -0.65071 -0.36186 -0.57351 -0.36577 0.021369 -0.020925 
가|VV -0.27023 0.40585 -0.16493 -0.35735 0.43439 0.2696 0.03388 -0.042616 0.39392 0.5216 -0.069896 0.33755 -0.17543 0.044304 0.042338 -0.10561 -0.093724 0.024315 0.26641 -0.11829 0.42087 -0.072391 -0.06028 -0.11019 0.091697 0.14765 0.18687 -0.13882 -0.068789 0.16526 0.30146 -0.038352 -0.39878 0.30577 -0.13609 0.33701 -0.12629 -0.12139 0.090278 0.25561 0.20904 -0.16373 0.11614 -0.17135 -0.1884 -0.22929 -0.2659 -0.14438 -0.27968 -0.12603 -0.38136 0.33993 -0.1969 -0.15107 -0.18585 -0.1541 -0.033221 -0.24436 0.1224 0.41093 -0.091083 0.29081 -0.29725 -0.23575 -0.28279 0.10026 -0.077963 -0.29767 0.12321 0.024461 0.27353 -0.18521 -0.29862 0.18031 -0.1054 0.05857 0.32509 0.25884 0.17333 -0.48614 -0.17264 0.23979 0.35549 -0.2235 0.24545 -0.23399 -0.026252 0.23662 -0.23693 -0.28871 -0.035367 -0.022353 0.11959 -0.30361 0.037847 -0.16761 0.3404 0.2486 -0.044594 -0.098458 
면|EC 0.093478 -0.34795 -0.074208 0.23227 -0.17605 -0.24304 -0.02539 0.0062344 -0.059578 -0.24878 0.04125 -0.26332 0.023317 -0.026901 0.029373 0.016072 -0.014718 -0.15935 -0.14201 0.15342 -0.14304 0.013908 0.013508 -0.095252 -0.075749 -0.18238 -0.068797 -0.099241 0.069923 -0.10939 -0.034346 -0.077213 0.32594 -0.047633 -0.11002 -0.1542 0.16903 0.11724 -0.054417 -0.26969 -0.2138 0.01955 -0.0075659 0.10401 0.12557 0.083139 0.22632 0.29394 0.15927 0.11279 0.11758 -0.070596 0.10125 0.14549 0.039886 0.12298 -0.043186 0.14702 -0.084806 -0.18131 0.055302 -0.12623 0.17384 0.05282 -0.020433 0.16088 0.063613 0.06744 -0.058464 -0.016614 -0.0036815 0.08897 -0.11883 -0.20172 -0.010682 0.14169 -0.28401 -0.078458 0.0050812 0.29658 0.25989 -0.088353 -0.28236 0.032615 -0.15279 -0.024543 -0.010469 -0.019393 0.091307 0.27116 0.13311 -0.026578 0.029474 0.14879 -0.26503 -0.040578 -0.12264 -0.084804 0.055851 0.18525 
스마트폰|NNP 0.036398 -0.0060001 -0.10176 0.06643 0.037355 -0.029228 -0.14499 0.058299 -0.26191 -0.14645 -0.091162 0.16388 0.027593 -0.022188 -0.082656 -0.12274 -0.23658 -0.24504 0.30097 -0.10611 -0.054906 -0.057073 -0.1451 0.062365 -0.1408 0.14368 0.058822 -0.084415 -0.0029506 -0.26105 -0.15295 0.25409 0.047892 0.20201 0.084466 0.24791 0.078885 -0.2507 -0.19186 0.24674 0.09822 -0.17729 -0.17541 -0.12065 0.036249 -0.093359 -0.035771 0.0018144 0.16349 0.10169 -0.10014 -0.36595 0.087277 -0.079382 0.17166 -0.11861 0.19334 -0.065751 0.093702 0.036209 -0.14524 -0.20637 0.12888 -0.20351 -0.1658 -0.024355 0.070633 0.016614 -0.17777 -0.015401 0.025894 0.1592 0.056454 0.10234 0.20248 0.11252 -0.13173 0.087712 -0.021612 -0.023987 0.26074 0.018954 0.18089 0.075833 0.042137 0.27967 -0.014748 0.18933 -0.14666 -0.17719 -0.099343 -0.20389 -0.44089 -0.040222 -0.079259 0.073752 -0.31353 -0.19946 0.04465 -0.02456 
인터넷|NNG -0.27721 0.22295 -0.17477 -0.071194 0.47395 -0.11572 0.44367 -0.16389 0.32201 0.23756 -0.0966 -0.34698 0.064579 0.29061 0.23433 0.043749 -0.016844 -0.08486 0.072133 0.15866 -0.090842 0.14181 0.2147 -0.54002 0.082936 -0.25344 0.40517 -0.00090327 0.13444 0.47239 -0.061778 -0.014469 -0.050001 -0.27544 -0.47615 0.013215 0.28409 0.20417 0.1786 -0.19825 0.12268 0.18502 0.26843 0.35702 0.13815 -0.14509 0.19725 -0.0064462 -0.26524 0.20331 -0.28055 0.25742 -0.37369 0.31252 0.22246 0.10381 -0.024209 0.24444 0.028049 -0.13412 -0.16638 0.05266 0.27499 0.2441 0.046257 -0.076264 -0.037654 -0.16741 0.0015617 0.26072 -0.21112 -0.12763 -0.2373 0.097644 0.011748 0.13391 0.013809 0.21115 0.19246 -0.032193 -0.35783 0.022093 0.23271 -0.35487 0.13817 -0.25272 -0.088267 -0.074458 -0.19738 0.1795 0.42139 0.059494 0.66595 -0.11262 -0.36718 -0.3805 0.2111 0.23774 -0.14201 -0.1888 
as|SL -0.23971 0.14401 -0.13152 0.016799 0.40295 -0.21447 0.53677 -0.16505 0.27517 0.13729 -0.078536 -0.49361 0.12562 0.33325 0.27758 0.10043 0.019703 -0.058901 -0.011991 0.2047 -0.23333 0.18873 0.27901 -0.59173 0.10615 -0.33614 0.40629 0.068373 0.1675 0.51197 -0.13589 -0.016239 0.032695 -0.4275 -0.49368 -0.12797 0.35964 0.27459 0.21118 -0.30978 0.077712 0.26398 0.25143 0.4626 0.19088 -0.070293 0.28735 0.016063 -0.218 0.23045 -0.18525 0.20732 -0.34581 0.36559 0.28814 0.15072 -0.034636 0.33808 -0.014551 -0.28359 -0.15064 -0.011519 0.37083 0.35948 0.14838 -0.12576 -0.028129 -0.10649 -0.015078 0.29663 -0.32291 -0.11454 -0.15785 0.069234 0.047441 0.11357 -0.041785 0.17204 0.15481 0.074516 -0.40608 -0.032692 0.17978 -0.3444 0.093108 -0.23007 -0.062342 -0.17509 -0.14869 0.27437 0.49674 0.090728 0.73675 -0.036719 -0.40533 -0.37977 0.17311 0.22943 -0.15261 -0.17904 
에이에스|NNG -0.20286 0.10443 -0.13587 0.060899 0.37457 -0.22948 0.50549 -0.17055 0.2127 0.089581 -0.095108 -0.51745 0.13551 0.31539 0.25981 0.10843 0.0090266 -0.11193 -0.015886 0.21989 -0.24648 0.17938 0.25785 -0.5748 0.061228 -0.34232 0.39586 0.058997 0.1725 0.47585 -0.16922 0.0033681 0.087119 -0.42964 -0.49142 -0.11344 0.35393 0.27537 0.18469 -0.31373 0.067604 0.24995 0.24662 0.45146 0.20707 -0.07787 0.3167 0.031732 -0.19683 0.25292 -0.1804 0.14792 -0.32731 0.37427 0.32143 0.16731 -0.011495 0.34907 -0.023816 -0.29808 -0.13616 -0.041854 0.38604 0.35349 0.15873 -0.11527 -0.01857 -0.090281 -0.047423 0.27719 -0.31942 -0.081576 -0.14391 0.038531 0.047128 0.12203 -0.093768 0.14884 0.15158 0.11713 -0.3485 -0.054436 0.13169 -0.31892 0.067346 -0.18944 -0.068362 -0.16857 -0.14641 0.27576 0.47189 0.072315 0.68795 -0.0154 -0.41407 -0.3563 0.10526 0.17952 -0.14737 -0.16314 
상담|NNG 0.036019 0.1248 0.51135 -0.45952 0.0065492 0.22043 -0.42348 0.10736 -0.43651 -0.049444 0.1386 0.28107 -0.0060177 -0.04288 -0.40693 0.16743 0.28222 0.4653 -0.031594 -0.30241 -0.20749 0.31152 0.15577 0.315 0.020974 0.004048 -0.56153 0.23643 -0.14237 -0.20325 -0.28147 -0.056272 0.041383 -0.13997 0.2442 -0.19595 -0.25727 -0.23787 -0.17106 0.15625 -0.059198 0.25212 -0.1938 -0.15929 -0.046963 0.23999 -0.11892 -0.51454 -0.095191 -0.16014 0.080867 -0.11495 0.0087215 0.19064 -0.22129 -0.16701 -0.14476 -0.12599 0.12688 0.071036 0.13325 -0.031115 -0.23645 0.096657 0.31037 -0.19577 -0.26472 0.33404 0.05879 0.02437 -0.1453 0.22209 0.47167 -0.34765 0.0075764 -0.52212 0.24921 -0.071742 -0.52138 0.20257 -0.21265 -0.042702 0.12534 0.37534 -0.065143 0.25751 -0.039199 -0.31087 0.083241 -0.19557 -0.28081 -0.005264 -0.44662 -0.079239 0.67957 0.2773 -0.019008 -0.17659 -0.009317 -0.19358 
해외|NNG -0.26368 0.36741 -0.17597 -0.29852 0.41567 0.22978 0.043814 -0.049325 0.34146 0.4522 -0.066178 0.28458 -0.14379 0.0531 0.047463 -0.097067 -0.096993 -0.007082 0.25687 -0.098795 0.3493 -0.065799 -0.041089 -0.1195 0.071708 0.12104 0.19545 -0.12602 -0.034354 0.12556 0.25398 -0.013317 -0.32283 0.26764 -0.12322 0.31499 -0.089455 -0.12092 0.062173 0.23581 0.19816 -0.16041 0.097463 -0.15667 -0.1589 -0.2013 -0.24324 -0.12638 -0.23755 -0.096341 -0.32683 0.2594 -0.16905 -0.11679 -0.14159 -0.13876 -0.019298 -0.19852 0.092661 0.34533 -0.10574 0.22397 -0.2379 -0.19821 -0.23921 0.082489 -0.043793 -0.26423 0.078754 0.024408 0.23 -0.13167 -0.25475 0.1692 -0.063455 0.065653 0.25327 0.22599 0.15272 -0.40655 -0.15425 0.19875 0.31879 -0.19457 0.21093 -0.1715 -0.032607 0.20268 -0.22016 -0.24399 -0.043583 -0.038695 0.077027 -0.27525 0.019706 -0.15183 0.26009 0.19416 -0.030346 -0.077681 
는|ETM -0.11483 0.19279 0.06112 -0.25798 0.23566 0.10886 -0.15949 0.040601 -0.18104 0.057398 -0.014386 0.23548 -0.021556 0.046075 -0.15989 -0.015788 -0.040742 0.053358 0.2387 -0.19408 -0.04818 0.10501 0.0093119 0.035825 -0.03139 0.067682 -0.083656 0.004895 -0.046594 -0.1168 -0.12691 0.11467 -0.061143 0.074742 0.026917 0.13282 -0.031522 -0.24623 -0.1255 0.20913 0.089862 -0.0068304 -0.12414 -0.10985 -0.036882 -0.01155 -0.11172 -0.25062 -0.041155 -0.018229 -0.15809 -0.13285 -0.043938 0.061903 -0.012816 -0.18435 0.019512 -0.10065 0.13431 0.12185 -0.082874 -0.070753 -0.063783 -0.10753 -0.021831 -0.082732 -0.071195 0.051085 -0.039872 0.042222 -0.017794 0.12058 0.11412 -0.037851 0.094826 -0.11076 0.12096 0.13537 -0.16614 -0.052431 -0.073432 0.05191 0.3062 0.078053 0.06784 0.17739 -0.042339 0.012638 -0.1264 -0.22098 -0.098326 -0.11534 -0.32159 -0.1465 0.16944 0.049301 -0.067159 -0.096907 -0.015792 -0.12934 
저렴|XR 0.39505 -0.30891 0.055823 0.24936 -0.37728 0.03254 -0.45243 0.066585 -0.025969 -0.003043 -0.0070306 -0.095854 -0.19257 -0.30002 -0.070756 -0.0023064 0.11219 -0.22602 -0.055982 0.22246 0.18493 -0.081586 -0.048672 0.1042 -0.25028 -0.015608 0.032416 -0.08173 -0.04805 -0.040526 -0.025688 -0.11046 0.13128 0.18412 0.13699 0.22572 -0.20912 0.20736 -0.048815 0.038449 0.052831 0.0037289 0.018608 -0.17735 0.16569 -0.039284 0.22912 0.1291 -0.019506 0.044843 -0.069702 -0.010286 0.0033349 0.00055978 0.090642 0.26881 0.15449 0.12788 -0.093717 0.08422 -0.028771 0.10874 0.051895 0.0032835 -0.0010573 0.23416 -0.03391 -0.31192 -0.08451 0.028013 0.13151 0.19761 -0.12649 -0.17762 -0.11634 0.17936 -0.31619 -0.20586 0.22398 0.22093 0.41457 -0.095649 -0.3665 0.1924 0.051543 -0.1043 -0.19449 0.060232 -0.082691 0.16264 -0.044249 -0.13252 0.17032 -0.024248 -0.075129 -0.19085 -0.075663 -0.067329 -0.085638 0.018083 
수리|NNG -0.11734 0.072105 -0.07156 0.038706 0.22138 -0.1252 0.30947 -0.10371 0.13402 0.060394 -0.053669 -0.31627 0.079816 0.17848 0.15882 0.071282 0.027204 -0.058023 -0.021766 0.15099 -0.14231 0.11236 0.17959 -0.33837 0.026013 -0.20761 0.25466 0.070112 0.11275 0.31415 -0.099178 0.0057505 0.029234 -0.28355 -0.28322 -0.062613 0.20599 0.18432 0.13028 -0.17395 0.061901 0.17661 0.15266 0.27422 0.13377 -0.035093 0.20367 0.0058608 -0.12054 0.15711 -0.10129 0.083948 -0.2097 0.2267 0.22261 0.12858 0.022483 0.23067 -0.017018 -0.18867 -0.085765 -0.030399 0.2481 0.22579 0.11912 -0.090182 -0.0076073 -0.070463 -0.034552 0.18227 -0.20952 -0.035458 -0.062436 0.037373 0.031603 0.07716 -0.069622 0.073932 0.10523 0.084025 -0.23717 -0.048328 0.069081 -0.18287 0.03694 -0.10943 -0.062254 -0.12366 -0.087248 0.17747 0.28518 0.048261 0.45216 -0.0079991 -0.24108 -0.23986 0.071444 0.10353 -0.097092 -0.11501 
싶|VX -0.04952 0.056145 -0.20498 0.018641 0.19115 0.035366 -0.097725 -0.007609 0.012228 0.1021 -0.02306 0.06903 -0.11011 -0.070197 -0.0082796 -0.041062 -0.031317 -0.22658 0.20085 0.015303 0.14866 -0.030649 -0.01417 -0.061383 -0.12096 0.022987 0.14219 -0.10686 0.045857 -0.037083 0.10898 0.020729 0.028648 0.18703 -0.081163 0.27721 0.020487 -0.05574 -0.046754 0.083587 0.091273 -0.1315 -0.02088 -0.20563 -0.015244 -0.072628 -0.045159 0.041401 0.0075354 -0.03334 -0.1624 -0.079131 0.035716 -0.01144 0.044437 -0.031782 0.11007 -0.011375 0.0084437 0.17988 -0.060803 -0.003586 -0.052483 -0.14902 -0.1115 0.1708 0.051862 -0.15767 -0.070771 0.014558 0.18419 0.13288 -0.14536 -0.02212 -0.0019121 0.13329 -0.14082 0.035374 0.11264 0.0040119 0.10767 0.048458 0.024278 -0.039785 0.021966 0.036256 -0.12136 0.12935 -0.12348 -0.05822 -0.090519 -0.14482 -0.091302 -0.11766 -0.11614 -0.10844 -0.09258 -0.080219 0.020076 0.027956 
제|MM 0.066235 -0.038358 0.058099 -0.024191 -0.089291 0.033972 -0.095325 0.019262 0.085022 0.069878 -0.0081364 0.012257 -0.035225 -0.029049 -0.0096798 -0.016922 0.016524 0.020269 -0.023998 0.028851 0.064961 -0.015754 -0.021462 0.017296 -0.0036958 0.0082836 -0.010924 -0.021543 -0.042162 0.036969 0.0010763 -0.060805 -0.052916 0.05185 0.018759 0.015448 -0.082308 0.047449 0.005911 0.019115 0.01738 0.019789 0.029259 0.007583 0.021884 -0.027285 0.047679 0.0042164 -0.07386 0.020333 -0.04436 0.10467 -0.068708 -0.010199 -0.03212 0.055591 -0.012954 0.0035725 -0.0089097 0.043466 -0.016868 0.086503 -0.0091599 0.0083715 -0.015882 0.036472 -0.047447 -0.085948 0.035106 0.011855 0.007696 -0.034268 -0.052801 -0.018507 -0.054657 0.028122 0.028266 0.0047583 0.057954 -0.014609 0.051939 -0.0039381 -0.03025 0.012067 0.063264 -0.10395 -0.022202 0.023329 -0.019504 0.037469 0.054985 0.0024919 0.12569 -0.033206 0.0073379 -0.064798 0.092345 0.080754 -0.04171 -0.023679 
할게요|XSV+EC -0.11597 -0.25489 0.097765 -0.12393 -0.19714 -0.21128 0.1518 0.04527 0.11577 -0.24656 0.10714 0.020061 0.17451 0.18693 -0.01091 -0.061937 -0.17749 0.2726 -0.24892 -0.13639 -0.17331 0.0021015 -0.12177 0.057738 0.25895 -0.048273 -0.4265 -0.12761 -0.062487 -0.23801 0.045609 -0.087376 0.062618 -0.023986 -0.038354 -0.54007 0.14872 -0.10909 -0.061165 -0.24314 -0.42059 -0.021425 -0.00042714 0.29799 -0.098947 0.11662 -0.036827 0.23724 0.14857 0.029031 0.26577 0.14563 0.10046 -0.016987 -0.32134 -0.15757 -0.36079 -0.16727 0.044611 -0.20315 0.13646 -0.070573 -0.015469 -0.013169 -0.18491 0.0014365 0.014321 0.39777 0.18882 -0.16754 -0.036095 -0.29586 -0.063592 -0.077434 -0.030329 -0.10953 0.25484 0.13125 -0.25396 -0.081596 0.074353 0.053961 -0.021246 -0.034658 -0.14209 -0.11652 0.27989 0.0034108 0.27786 0.070143 0.1879 0.19489 -0.1662 0.22654 -0.0056825 0.28574 0.18014 0.16308 0.14489 0.24864 
어요|EF -0.053013 -0.033771 -0.21624 0.22176 0.22929 -0.19247 0.17899 -0.099498 0.006781 -0.014483 -0.073692 -0.38173 0.018257 0.0789 0.14122 0.051212 0.031494 -0.30818 0.078513 0.2295 -0.13878 0.095234 0.18144 -0.36941 -0.1263 -0.24959 0.33838 -0.014888 0.16898 0.22676 -0.096524 0.021944 0.23344 -0.18223 -0.32228 0.10526 0.26923 0.18763 0.053284 -0.19319 0.065911 0.08646 0.080092 0.12087 0.18481 -0.038044 0.25522 0.11655 -0.0092458 0.16129 -0.12992 -0.10015 -0.097048 0.26547 0.30161 0.15676 0.14383 0.2997 -0.068164 -0.13886 -0.091748 -0.11902 0.28165 0.14589 0.09936 0.071346 0.067432 -0.13808 -0.15798 0.17108 -0.10684 0.15244 -0.13587 -0.057279 0.05702 0.21018 -0.32357 0.014971 0.16322 0.25371 -0.050929 -0.086765 -0.041204 -0.14196 -0.02483 -0.015521 -0.16918 -0.056583 -0.13244 0.24108 0.20717 -0.093346 0.31542 -0.030033 -0.36714 -0.29841 -0.1519 -0.066875 -0.06184 -0.04286 
공량|NNG 0.072127 -0.034061 0.058344 -0.0082989 -0.081462 0.034336 -0.091805 0.017299 0.07351 0.061296 0.0036549 0.0098856 -0.044634 -0.037498 -0.021304 -0.0086114 0.015307 0.019584 -0.023325 0.042336 0.074251 -0.010695 -0.018699 0.019922 -0.001732 0.0017369 -0.012163 -0.037356 -0.044569 0.03257 0.0010891 -0.054969 -0.049258 0.05679 0.020792 0.020924 -0.066269 0.061425 0.0072656 0.01196 0.014399 0.016333 0.047094 0.0019834 0.014071 -0.026119 0.043247 -0.005648 -0.075938 0.012046 -0.051861 0.10005 -0.056845 -0.004508 -0.035731 0.05638 -0.018128 0.0055473 -0.0076085 0.035625 -0.021814 0.099377 0.00065901 0.0080676 -0.025801 0.04156 -0.044171 -0.079489 0.026195 0.021809 0.023074 -0.027092 -0.058879 -0.029968 -0.055248 0.02472 0.013588 0.0046823 0.060945 -0.025753 0.061703 0.0074184 -0.035071 0.014954 0.06765 -0.10018 -0.027911 0.024681 -0.03706 0.021904 0.049811 0.010377 0.12126 -0.016762 0.0047278 -0.05039 0.094764 0.065062 -0.052498 -0.011132 
잘|MAG -0.065111 0.057786 -0.088992 0.091596 0.20327 -0.10248 0.24349 -0.098751 0.079391 0.045292 -0.067761 -0.30157 0.06308 0.13655 0.15548 0.07284 0.045933 -0.12595 0.018459 0.16626 -0.11906 0.082442 0.16525 -0.32468 -0.0096326 -0.19537 0.28469 0.049252 0.11774 0.28613 -0.11072 0.0085575 0.060042 -0.24723 -0.24416 0.012909 0.1776 0.18334 0.099516 -0.14889 0.099911 0.12922 0.12594 0.20786 0.13543 -0.054278 0.18613 0.013859 -0.10337 0.12514 -0.099195 0.024259 -0.17131 0.20249 0.24176 0.13189 0.064273 0.22195 -0.040529 -0.14496 -0.073377 -0.029237 0.23051 0.19553 0.12571 -0.068248 0.0053518 -0.097007 -0.063219 0.16048 -0.16643 0.016632 -0.065448 0.030419 0.040087 0.097599 -0.11808 0.029804 0.11226 0.097061 -0.19047 -0.043747 0.052309 -0.17422 0.036423 -0.082217 -0.071127 -0.099657 -0.097485 0.16245 0.21631 0.0098739 0.3964 -0.029907 -0.22664 -0.2276 0.0056313 0.046298 -0.092892 -0.11381 
것|NNB 0.36533 -0.25264 0.26215 0.01627 -0.47239 0.10292 -0.41821 0.094069 0.1158 0.085107 0.015361 0.050171 -0.13749 -0.20678 -0.12176 -0.035915 0.078635 0.096862 -0.15966 0.090544 0.21523 -0.082131 -0.11782 0.20253 -0.0307 0.074997 -0.18544 -0.074796 -0.16634 -0.035707 -0.0075492 -0.1684 -0.10267 0.19047 0.23188 0.011697 -0.32681 0.15813 -0.010612 0.087566 -0.020399 0.041519 0.066009 -0.042286 0.057656 -0.054818 0.11743 0.00276 -0.13908 0.0087946 -0.030502 0.23287 -0.098573 -0.088852 -0.14521 0.19196 -0.048556 -0.045552 -0.022573 0.081462 0.0033235 0.27979 -0.061385 0.039414 -0.066053 0.12138 -0.16831 -0.20451 0.099271 -0.022893 0.077449 -0.069905 -0.089493 -0.1339 -0.21362 0.0095596 0.049266 -0.12021 0.14012 -0.018649 0.33059 -0.038762 -0.25293 0.19676 0.1309 -0.25777 -0.044045 0.069571 -0.011672 0.084159 0.022937 0.02544 0.22104 -0.013857 0.11667 -0.067775 0.2076 0.14692 -0.11121 -0.0078055 
해야|VV+EC -0.13323 0.18908 -0.074211 -0.18131 0.22078 0.12019 0.0047712 -0.024371 0.18728 0.25289 -0.030864 0.16254 -0.087231 0.019506 0.017675 -0.05121 -0.060764 0.00011046 0.14542 -0.0681 0.20094 -0.031133 -0.025181 -0.048312 0.052101 0.068998 0.086571 -0.078001 -0.028408 0.074094 0.13932 -0.018886 -0.18877 0.16246 -0.072165 0.16226 -0.064085 -0.075276 0.030486 0.13683 0.10773 -0.085651 0.04636 -0.078803 -0.091621 -0.11194 -0.12531 -0.073954 -0.1424 -0.054631 -0.19466 0.15476 -0.093034 -0.063791 -0.096748 -0.073037 -0.025884 -0.11139 0.067503 0.19124 -0.053813 0.1373 -0.14783 -0.12333 -0.14152 0.044102 -0.046418 -0.14768 0.050134 0.018586 0.13151 -0.078833 -0.14128 0.072118 -0.040302 0.035052 0.15284 0.13095 0.076256 -0.24996 -0.07894 0.11852 0.17402 -0.10593 0.12049 -0.10426 -0.011433 0.11641 -0.11682 -0.13961 -0.026495 -0.010644 0.031416 -0.15755 0.019323 -0.078301 0.15148 0.12322 -0.020627 -0.052629 
장애|NNG -0.10342 0.0069386 -0.15481 0.3699 -0.079191 -0.40075 0.35079 0.12754 -0.21462 -0.26955 -0.066195 -0.37361 0.19131 -0.079938 0.10591 0.10053 0.10755 -0.2549 0.10105 0.2139 -0.028019 -0.22619 -0.083691 0.13128 0.04056 0.0714 0.1852 0.13692 0.39544 -0.064429 0.0067923 0.010121 0.22712 -0.040028 0.16865 -0.17142 0.43277 0.15557 0.057844 -0.1376 -0.14016 -0.47299 -0.13244 -0.27994 -0.26947 0.044646 -0.15768 0.20603 0.31635 -0.22063 0.69126 -0.55033 0.4939 -0.11797 0.076716 -0.15777 0.15453 0.15466 -0.15931 -0.24312 0.21795 -0.16599 -0.26742 -0.28262 0.13848 0.034713 0.39469 0.13947 -0.052553 -0.042269 -0.0054137 -0.11029 0.025144 0.10055 0.24278 0.046185 -0.42119 -0.17454 -0.082879 0.18219 -0.29857 -0.21747 -0.22577 -0.30604 -0.19825 0.33575 -0.0075274 -0.088301 0.34035 0.17579 -0.21669 -0.077261 -0.4329 0.2976 -0.20267 0.29709 -0.27026 -0.36478 0.21353 0.23871 
혜택|NNG -0.10542 0.0009937 -0.14472 0.37902 -0.082774 -0.40223 0.33722 0.13226 -0.22293 -0.26012 -0.06281 -0.37567 0.19908 -0.078507 0.09931 0.10345 0.10786 -0.26235 0.099864 0.2169 -0.038316 -0.24349 -0.09325 0.12529 0.036289 0.078372 0.18641 0.13412 0.39578 -0.075445 0.0147 0.016954 0.21396 -0.039349 0.17586 -0.15911 0.43462 0.15472 0.058327 -0.13589 -0.14097 -0.47876 -0.12431 -0.27877 -0.26195 0.044357 -0.1693 0.19844 0.30857 -0.21987 0.69971 -0.55448 0.4978 -0.12118 0.064456 -0.15068 0.15079 0.14378 -0.14926 -0.24624 0.21308 -0.15721 -0.27736 -0.26645 0.13004 0.036396 0.39228 0.15309 -0.041259 -0.037811 -0.016818 -0.11423 0.037857 0.10239 0.24545 0.042825 -0.42203 -0.17637 -0.083837 0.19972 -0.29622 -0.23421 -0.23442 -0.31316 -0.1943 0.32901 -0.0093582 -0.074329 0.33897 0.19201 -0.22899 -0.081515 -0.41994 0.29022 -0.18696 0.28792 -0.26787 -0.34706 0.21523 0.25646 
알려줘|VV+EC+VX+EC -0.10469 -0.0046923 -0.14441 0.37063 -0.089554 -0.39189 0.33697 0.12713 -0.21005 -0.27024 -0.057886 -0.36247 0.19053 -0.096515 0.10425 0.10591 0.11108 -0.26748 0.10206 0.22771 -0.025505 -0.24398 -0.076311 0.13072 0.031487 0.068105 0.18021 0.1381 0.38606 -0.071759 0.016922 0.006344 0.21246 -0.028831 0.18431 -0.17152 0.43209 0.16807 0.055605 -0.14409 -0.12607 -0.47011 -0.13944 -0.2885 -0.26777 0.04962 -0.16625 0.1967 0.31534 -0.23454 0.68746 -0.55252 0.5018 -0.12963 0.066058 -0.15902 0.16308 0.15899 -0.14773 -0.2446 0.22684 -0.15461 -0.2756 -0.28192 0.14687 0.036204 0.37705 0.15429 -0.037519 -0.053996 -0.016367 -0.1033 0.036118 0.095221 0.23822 0.038024 -0.43207 -0.17111 -0.089379 0.1868 -0.28569 -0.22349 -0.2319 -0.31809 -0.20108 0.33363 -0.014942 -0.086703 0.33411 0.18518 -0.21813 -0.083968 -0.41593 0.29598 -0.20042 0.2853 -0.2663 -0.35214 0.21804 0.23767 
시|NNB -0.1783 0.2667 -0.12424 -0.21353 0.29993 0.17761 0.0091023 -0.032993 0.23239 0.32479 -0.040026 0.22197 -0.10568 0.023123 0.015509 -0.082196 -0.070094 -0.01704 0.20517 -0.075504 0.27298 -0.060343 -0.030637 -0.075855 0.047811 0.096186 0.13084 -0.083421 -0.022305 0.086691 0.19674 -0.0075166 -0.23832 0.20006 -0.077075 0.2339 -0.074536 -0.089765 0.034328 0.17422 0.14754 -0.12653 0.051189 -0.1419 -0.12053 -0.13645 -0.18637 -0.092459 -0.1686 -0.079115 -0.25344 0.18217 -0.10723 -0.097334 -0.11304 -0.1074 -0.0024466 -0.1434 0.076167 0.26518 -0.06713 0.16423 -0.19314 -0.16186 -0.17402 0.075352 -0.042299 -0.18712 0.060304 0.01677 0.19468 -0.080817 -0.18352 0.1074 -0.057899 0.04504 0.17623 0.16611 0.10442 -0.29742 -0.10563 0.14372 0.23749 -0.14512 0.15751 -0.11906 -0.018968 0.15977 -0.16424 -0.19499 -0.048968 -0.026128 0.033986 -0.20767 0.012142 -0.10502 0.17379 0.11774 -0.022123 -0.064451 
일본|NNP -0.11455 0.17196 -0.073592 -0.14491 0.21389 0.10743 0.02854 -0.018588 0.16194 0.23724 -0.039864 0.13259 -0.065381 0.019493 0.015527 -0.045581 -0.045652 -0.017937 0.13851 -0.036132 0.18328 -0.032144 -0.017247 -0.069659 0.02687 0.048983 0.098647 -0.067939 -0.026639 0.061098 0.10369 0.00030967 -0.16434 0.118 -0.06377 0.15941 -0.04366 -0.056725 0.024467 0.12132 0.09115 -0.078153 0.050563 -0.065322 -0.075766 -0.10259 -0.10641 -0.059547 -0.13456 -0.038668 -0.18293 0.12793 -0.10039 -0.048599 -0.055417 -0.068774 -0.0036536 -0.082424 0.057241 0.15597 -0.050898 0.12705 -0.1106 -0.086641 -0.11678 0.045129 -0.02997 -0.14031 0.032805 0.02734 0.11968 -0.059031 -0.12549 0.057754 -0.037482 0.046721 0.11225 0.11234 0.079563 -0.20993 -0.069229 0.090259 0.16121 -0.10617 0.10758 -0.096023 -0.01145 0.10989 -0.11772 -0.12737 -0.030906 -0.018155 0.047033 -0.13816 -0.0019571 -0.083511 0.12067 0.086013 -0.038128 -0.048832 
여행|NNG -0.12903 0.18298 -0.098667 -0.13413 0.22584 0.10298 0.037667 -0.021993 0.16137 0.21587 -0.040241 0.12367 -0.052945 0.039769 0.044749 -0.047238 -0.048003 -0.026882 0.13391 -0.032141 0.1663 -0.027703 -0.014221 -0.072921 0.024336 0.044971 0.11551 -0.051823 -0.005095 0.093281 0.12334 0.0082652 -0.15437 0.11893 -0.089726 0.1437 -0.018954 -0.042339 0.039417 0.096616 0.098268 -0.063231 0.061199 -0.064662 -0.067257 -0.10417 -0.10467 -0.049572 -0.114 -0.036063 -0.17648 0.11674 -0.091732 -0.039065 -0.055969 -0.058715 -0.0040475 -0.070016 0.043297 0.16414 -0.043946 0.10319 -0.1017 -0.091376 -0.11497 0.038183 -0.024774 -0.13174 0.027454 0.025142 0.097669 -0.064776 -0.13201 0.08921 -0.031489 0.038131 0.12064 0.12525 0.088689 -0.19215 -0.088791 0.099239 0.17078 -0.10526 0.097684 -0.086373 -0.021122 0.087435 -0.11125 -0.10434 0.00051749 -0.02563 0.06129 -0.13985 -0.0028773 -0.08815 0.11967 0.088398 -0.024879 -0.049347 
방법|NNG -0.055443 0.11302 -0.13786 -0.0089488 0.18106 0.031623 -0.098084 0.018649 -0.12426 0.017434 -0.070313 0.12302 -0.028019 -0.01151 -0.046553 -0.085503 -0.15283 -0.20617 0.27894 -0.084974 0.01192 -0.014901 -0.051218 -0.027488 -0.12395 0.078171 0.1366 -0.066745 0.010267 -0.10428 -0.070306 0.17378 -0.012466 0.16331 -0.0088405 0.28527 0.051306 -0.18089 -0.11193 0.21334 0.15056 -0.11464 -0.10747 -0.13556 0.014004 -0.097079 -0.051005 -0.046106 0.038363 0.061719 -0.17815 -0.22134 0.0028241 -0.037037 0.13121 -0.10431 0.15909 -0.038688 0.069853 0.094358 -0.14656 -0.10477 0.073168 -0.1577 -0.13409 0.010002 0.041342 -0.069264 -0.14184 0.021244 0.046063 0.13768 -0.010143 0.080332 0.13942 0.096181 -0.080678 0.097924 0.02467 -0.062019 0.096985 0.031902 0.20157 0.0068423 0.059087 0.17522 -0.064348 0.14657 -0.18355 -0.15514 -0.075182 -0.17909 -0.26363 -0.11013 -0.077793 -0.028298 -0.20412 -0.13761 0.012102 -0.078044 
기|NNG 0.34177 -0.30714 0.12674 0.27509 -0.4552 0.0013021 -0.14633 0.058382 -0.20581 -0.27813 0.025231 -0.028228 -0.0023855 -0.23232 -0.05127 0.036188 0.067906 -0.034693 -0.21739 0.079291 -0.018481 -0.10526 -0.11696 0.25872 -0.1355 0.047478 -0.19235 0.061913 -0.069847 -0.2012 -0.019495 0.0065219 0.13846 -0.031585 0.30517 -0.061489 -0.20245 0.057659 -0.063076 -0.034461 -0.054476 0.019376 -0.071697 -0.036812 0.086225 0.09446 0.093065 0.11286 0.16679 -0.0049235 0.17582 -0.14892 0.18047 -0.14835 0.0057626 0.16715 0.027144 -0.0059612 -0.07663 -0.11185 0.12921 -0.026202 0.012125 0.091482 0.091066 -0.025255 -0.020947 0.090439 -0.075327 -0.11565 0.023394 0.12346 0.18432 -0.11127 -0.094122 -0.010111 -0.14268 -0.27733 -0.025612 0.14662 0.34694 -0.08902 -0.38111 0.24394 -0.1423 0.11819 0.10022 -0.010322 0.14357 0.02402 -0.24297 0.034823 -0.15969 0.13735 0.10734 0.17082 -0.2425 -0.17434 0.033334 0.096594 
줘요|VV+EC 0.16138 -0.095986 0.10459 -0.011074 -0.18365 0.052794 -0.19163 0.035935 0.12209 0.094253 -0.0092632 0.0001406 -0.081322 -0.073899 -0.03943 -0.01214 0.024082 0.021138 -0.050312 0.068263 0.13825 -0.044969 -0.047436 0.053922 -0.020654 0.009409 -0.023992 -0.05027 -0.075213 0.037606 -0.0040182 -0.087692 -0.06167 0.10802 0.064647 0.050561 -0.14963 0.10454 0.017968 0.049066 0.014544 0.018173 0.066333 -0.020065 0.044833 -0.057964 0.091479 0.018439 -0.10421 0.022949 -0.06314 0.16129 -0.086713 -0.0080776 -0.046561 0.1051 -0.020765 0.0003771 -0.0076711 0.070791 -0.034096 0.15599 -0.015044 0.0071269 -0.047549 0.079095 -0.069875 -0.15485 0.044275 0.018846 0.046035 -0.035797 -0.11341 -0.048051 -0.095226 0.055703 -0.0046147 -0.032191 0.12354 -0.015835 0.13994 -0.00093896 -0.086475 0.058681 0.089508 -0.16439 -0.058296 0.038592 -0.043584 0.04399 0.051412 -0.0038277 0.18201 -0.031825 0.00010653 -0.10335 0.14167 0.093895 -0.078029 -0.014503 
어떤|MM 0.084773 -0.049838 0.075472 -0.012204 -0.11599 0.03669 -0.12711 0.033887 0.084986 0.063707 -0.0030735 0.0078173 -0.052708 -0.054237 -0.036885 -0.014145 0.025564 0.011398 -0.026124 0.032922 0.08415 -0.024186 -0.01539 0.027735 -0.0055948 0.021216 -0.02243 -0.043234 -0.05348 0.018352 0.010575 -0.066981 -0.049121 0.0706 0.030418 0.028929 -0.094312 0.070406 0.016885 0.027498 0.0069438 0.021968 0.03607 -0.011071 0.012983 -0.031097 0.048876 -0.0033564 -0.075906 0.0092088 -0.051831 0.11398 -0.059726 -0.0073169 -0.036138 0.057429 -0.0043688 -0.011413 -0.0069432 0.047646 -0.02902 0.095674 -0.0058256 0.012573 -0.026137 0.043398 -0.046769 -0.09859 0.028344 0.022697 0.035428 -0.039657 -0.064215 -0.032259 -0.065169 0.025354 0.01969 -0.016301 0.076886 -0.02335 0.083359 -0.00029673 -0.046073 0.034172 0.073658 -0.11142 -0.043463 0.02311 -0.033431 0.02841 0.049663 0.0014425 0.13025 -0.02121 -0.0027679 -0.07659 0.095708 0.070668 -0.052135 -0.025997 
뭐|NP 0.23203 -0.15746 -0.094623 0.53694 -0.51547 -0.01893 -0.028342 -0.075862 -0.19826 -0.38225 0.26343 0.033352 -0.035331 -0.073903 0.15338 -0.021164 0.18565 0.13353 -0.44678 0.03109 -0.19181 -0.03079 0.097051 0.41074 0.036408 0.13865 0.17587 0.17386 -0.0032892 0.0026195 0.22243 0.031066 0.10113 -0.13279 0.19793 -0.14358 -0.03052 0.10444 0.19544 -0.18866 -0.14364 0.13882 -0.10003 -0.11847 -0.027344 0.33554 -0.075116 0.21493 0.53125 -0.13529 0.59558 -0.090258 0.3736 -0.27023 0.14673 0.096806 0.25556 0.14848 -0.3489 -0.067333 0.078722 -0.30505 0.15599 0.02774 0.37582 0.067999 0.44681 0.13888 0.034924 -0.25195 -0.098509 0.043435 0.36805 0.34323 0.14879 -0.061679 -0.20333 -0.41879 0.11039 0.38908 -0.082039 -0.19731 -0.40425 0.31202 -0.32251 0.19912 -0.084104 -0.28465 0.414 0.21585 0.097994 0.17976 0.06074 0.45623 0.12387 0.15804 -0.18403 -0.081106 0.21989 0.23103 
이|VCP -0.21938 0.36032 -0.1498 -0.32193 0.36407 0.29041 -0.059585 -0.026784 0.33718 0.49122 -0.04965 0.39585 -0.17446 -0.01976 -0.0082463 -0.11818 -0.10764 -0.0092046 0.27559 -0.1382 0.44049 -0.1155 -0.10672 -0.0082548 0.048383 0.20057 0.128 -0.15251 -0.073412 0.070031 0.30938 -0.018065 -0.37449 0.37412 -0.047162 0.37084 -0.16971 -0.15949 0.038443 0.31205 0.2073 -0.21143 0.064867 -0.25486 -0.2161 -0.21196 -0.31043 -0.14158 -0.23607 -0.15506 -0.33689 0.26658 -0.12728 -0.18983 -0.19741 -0.16125 -0.019638 -0.27587 0.11698 0.43187 -0.069877 0.26225 -0.33454 -0.28484 -0.29268 0.1089 -0.05674 -0.28486 0.09928 -0.035395 0.31416 -0.14191 -0.25974 0.15197 -0.10349 0.052947 0.28408 0.22029 0.15812 -0.47153 -0.091088 0.21596 0.31038 -0.15625 0.22375 -0.16343 -0.034139 0.24899 -0.22108 -0.31603 -0.13577 -0.046559 -0.020372 -0.29949 0.089073 -0.10146 0.25221 0.17966 -0.017857 -0.058347 
담사|NNG -0.042173 0.1388 0.31344 -0.35905 0.10535 0.14146 -0.22454 0.048373 -0.25329 0.017479 0.083014 0.17105 -0.013063 0.032558 -0.2426 0.10156 0.16388 0.29419 0.02869 -0.19792 -0.16364 0.23744 0.14044 0.12534 0.029571 -0.016708 -0.31792 0.14608 -0.076542 -0.076558 -0.1855 -0.015161 0.0090243 -0.099891 0.088124 -0.10718 -0.11615 -0.1561 -0.088111 0.09586 -0.026494 0.18344 -0.10086 -0.067928 -0.028402 0.12974 -0.081208 -0.37206 -0.10451 -0.071072 0.0030719 -0.04199 -0.056659 0.18316 -0.12748 -0.12727 -0.10086 -0.072982 0.11076 0.049239 0.055982 -0.020383 -0.13352 0.064277 0.20437 -0.14524 -0.17036 0.19699 0.047018 0.066567 -0.12409 0.1147 0.26223 -0.20522 0.025668 -0.32736 0.18229 0.011892 -0.32854 0.10213 -0.21995 -0.0014323 0.17287 0.18912 -0.00023877 0.15472 -0.040716 -0.22032 -0.0014558 -0.12374 -0.11027 -0.0062726 -0.23841 -0.086031 0.40321 0.12835 0.036492 -0.07196 -0.025136 -0.15971 
상|NNG -0.042496 0.14618 0.31649 -0.35591 0.10005 0.13986 -0.23304 0.045393 -0.24086 0.022609 0.066011 0.16674 -0.0012043 0.039792 -0.24982 0.10903 0.16035 0.29859 0.025588 -0.2028 -0.15588 0.23178 0.13893 0.12825 0.04244 -0.017547 -0.31825 0.13323 -0.081148 -0.078769 -0.19334 -0.023746 -0.0047116 -0.10436 0.079251 -0.10735 -0.11748 -0.15769 -0.091039 0.1004 -0.017388 0.18425 -0.10117 -0.060411 -0.02855 0.14046 -0.080927 -0.3679 -0.10442 -0.075747 0.00071585 -0.036265 -0.064414 0.18095 -0.13004 -0.12951 -0.094859 -0.068915 0.10897 0.042177 0.055587 -0.02043 -0.12913 0.059308 0.20091 -0.13839 -0.16421 0.18917 0.046133 0.053699 -0.12151 0.12854 0.27268 -0.21505 0.018908 -0.32417 0.19319 0.0048387 -0.31821 0.1082 -0.20723 -0.0082082 0.17405 0.19742 -0.0078788 0.15281 -0.041926 -0.20286 0.0035994 -0.12732 -0.10702 0.0015465 -0.24102 -0.08565 0.39911 0.13386 0.030495 -0.08063 -0.034336 -0.15582 
쓰|VV 0.032774 -0.025906 -0.14089 0.093392 0.055783 0.012091 -0.12518 0.011673 -0.018724 0.047573 -0.036252 0.00063106 -0.10153 -0.106 -0.01151 -0.025779 -0.0059285 -0.23118 0.12871 0.083203 0.12327 -0.03836 0.00050214 -0.053189 -0.14757 0.00032676 0.13056 -0.086478 0.028896 -0.041 0.050776 -0.010403 0.088579 0.15216 -0.034428 0.23976 -0.0041373 0.016002 -0.038866 0.052679 0.067339 -0.075837 -0.021946 -0.16168 0.050261 -0.062675 0.039406 0.077944 0.023719 -0.0016584 -0.1307 -0.073847 0.027053 0.0095057 0.07691 0.057123 0.12663 0.050057 -0.017424 0.10625 -0.050362 0.0022496 0.0021586 -0.099757 -0.072137 0.16273 0.030081 -0.16834 -0.087261 0.013938 0.15272 0.14969 -0.13033 -0.045582 -0.0041432 0.15878 -0.19776 -0.022666 0.1255 0.069655 0.16296 0.00019388 -0.076407 0.00021344 0.023584 0.00016835 -0.11614 0.098687 -0.1137 0.014979 -0.075051 -0.12844 -0.032322 -0.073758 -0.12506 -0.13117 -0.12447 -0.085533 -0.0041996 0.027594 
핸드폰|NNG -0.13345 0.15783 -0.10144 -0.048557 0.26258 -0.02652 0.14954 -0.057468 0.010847 0.073935 -0.0634 -0.068051 0.036012 0.13684 0.064222 -0.02018 -0.081554 -0.086446 0.16501 -0.0014026 -0.07478 0.060057 0.052053 -0.20734 -0.0042911 -0.040125 0.19924 0.009234 0.045048 0.12117 -0.11344 0.099811 -0.039703 -0.065232 -0.1653 0.10304 0.12508 -0.025279 0.0057458 0.032076 0.1204 0.034658 0.029702 0.10705 0.071082 -0.097031 0.058786 -0.060253 -0.066603 0.10885 -0.16019 -0.053108 -0.12995 0.095519 0.17984 -0.023236 0.081546 0.064094 0.047893 -0.027217 -0.1367 -0.064936 0.1516 0.037135 -0.014308 -0.088512 -0.012648 -0.06141 -0.064219 0.12468 -0.1134 0.025647 -0.031398 0.091655 0.089721 0.054667 -0.0042313 0.12685 0.056226 -0.040236 -0.1248 0.018514 0.22012 -0.11033 0.091545 0.02182 -0.048532 0.011634 -0.16431 -0.0233 0.12671 -0.061627 0.10675 -0.078487 -0.13929 -0.13241 -0.020939 0.016036 -0.052965 -0.12105 
자꾸|MAG -0.14677 0.1355 -0.086925 -0.03501 0.2642 -0.066659 0.30979 -0.10903 0.18142 0.14686 -0.070174 -0.23294 0.065055 0.18546 0.16032 0.057989 0.019831 -0.024731 0.0098163 0.11097 -0.075599 0.089207 0.14214 -0.32396 0.058232 -0.16566 0.26003 0.049159 0.078331 0.32788 -0.054879 -0.006724 -0.05107 -0.21776 -0.26077 -0.022658 0.15353 0.15805 0.12932 -0.11975 0.10172 0.14934 0.16019 0.2445 0.096874 -0.077599 0.13473 -0.038072 -0.16395 0.12482 -0.14487 0.14661 -0.2392 0.18198 0.17022 0.091051 -0.0064333 0.17438 -0.0070035 -0.11287 -0.098588 0.030434 0.18357 0.18958 0.086183 -0.087529 -0.043325 -0.093665 0.0053665 0.17098 -0.16619 -0.081401 -0.091165 0.060238 0.0060631 0.060021 0.01541 0.10597 0.12098 -0.017189 -0.26948 -0.0080617 0.13481 -0.20242 0.079376 -0.14029 -0.050408 -0.084455 -0.12038 0.12141 0.26134 0.055498 0.43923 -0.061571 -0.20601 -0.2415 0.12307 0.15417 -0.096165 -0.13454 
통화|NNG 0.033744 0.084859 0.3577 -0.30588 -0.016307 0.15515 -0.27042 0.07271 -0.29284 -0.046316 0.084842 0.16442 -0.017232 -0.036285 -0.25835 0.11528 0.19493 0.31529 -0.044907 -0.18521 -0.15159 0.21709 0.1121 0.19874 0.010819 -0.013753 -0.36954 0.16552 -0.10331 -0.11731 -0.18343 -0.050405 0.035817 -0.1091 0.16452 -0.14746 -0.16449 -0.13967 -0.096462 0.07913 -0.051761 0.179 -0.13857 -0.1031 -0.030145 0.17718 -0.069927 -0.35072 -0.051835 -0.095619 0.052622 -0.069232 0.0049055 0.12791 -0.13935 -0.10547 -0.091642 -0.072778 0.086029 0.037787 0.10298 -0.026512 -0.15679 0.067727 0.22977 -0.14173 -0.18103 0.226 0.04648 0.027762 -0.10844 0.14485 0.32953 -0.23822 -0.0050068 -0.35471 0.17259 -0.060447 -0.34525 0.14544 -0.14777 -0.030796 0.081072 0.2569 -0.051716 0.18448 -0.020414 -0.2324 0.069408 -0.12223 -0.17135 -0.00019578 -0.29014 -0.033985 0.45532 0.18334 -0.0068304 -0.11489 -0.012 -0.13373 
가능|NNG 0.030647 -0.29197 0.11461 0.089196 -0.28811 -0.20669 0.19451 0.0099383 -0.073458 -0.35635 0.081072 -0.14154 0.18984 0.093705 0.019247 0.037096 -0.053022 0.17695 -0.31875 -0.023883 -0.26928 -0.0045401 -0.061765 0.072195 0.14591 -0.078925 -0.33927 0.018953 -0.02686 -0.175 -0.046036 -0.02836 0.17639 -0.20602 0.038077 -0.50415 0.1105 -0.0063773 -0.032902 -0.27349 -0.32369 0.059552 -0.028417 0.30073 0.020268 0.15222 0.065907 0.20337 0.1834 0.066575 0.32067 0.0024618 0.12956 0.0039907 -0.1286 0.001226 -0.24197 -0.034039 -0.034755 -0.31392 0.1655 -0.13243 0.099805 0.13312 0.016791 -0.10458 0.018004 0.39051 0.072496 -0.13974 -0.13272 -0.14853 0.11033 -0.085768 -0.01504 -0.10525 0.092098 -0.053883 -0.23541 0.06751 0.088853 -0.041448 -0.17703 0.039487 -0.20221 0.01361 0.2735 -0.082514 0.28299 0.11516 0.082916 0.18231 -0.11221 0.26162 -0.0069101 0.27715 -0.015236 0.011289 0.10064 0.18728 
끊겨|VV+EC -0.025575 -0.060714 0.011892 0.16606 0.060063 -0.24919 0.39068 -0.10395 0.046605 -0.12103 -0.052287 -0.5006 0.16305 0.20069 0.19329 0.13135 0.07198 -0.028419 -0.17334 0.22513 -0.30962 0.13558 0.19689 -0.33024 0.038958 -0.28676 0.19272 0.13264 0.12953 0.31666 -0.22216 0.0025763 0.1614 -0.45808 -0.23931 -0.24139 0.24192 0.28242 0.13463 -0.30873 -0.0097385 0.25875 0.17147 0.4218 0.22741 0.024495 0.33855 0.057931 -0.072106 0.2326 0.024219 0.04064 -0.17618 0.29282 0.29013 0.2211 -0.0035935 0.32509 -0.07322 -0.39189 -0.045916 -0.090406 0.37082 0.38945 0.2324 -0.16694 -0.012671 0.031146 -0.066986 0.19075 -0.35273 -0.03428 0.022808 -0.008515 0.046042 0.04343 -0.1342 -0.018615 0.060409 0.23011 -0.22838 -0.12202 -0.047278 -0.15217 -0.022978 -0.084903 -0.020745 -0.22275 -0.0009329 0.29269 0.3497 0.096025 0.5269 0.1031 -0.27307 -0.19379 0.0099626 0.084865 -0.095154 -0.10366 
갑자기|MAG -0.055399 -0.043966 -0.017848 0.1848 0.13347 -0.2909 0.4973 -0.1428 0.095533 -0.089502 -0.070155 -0.62531 0.19746 0.25683 0.24731 0.1606 0.073051 -0.05372 -0.17624 0.26357 -0.36688 0.17431 0.25457 -0.47809 0.042044 -0.35202 0.27856 0.15205 0.1592 0.44079 -0.25805 -0.0029433 0.17335 -0.5496 -0.36037 -0.26085 0.32962 0.3419 0.17287 -0.39392 0.014784 0.3175 0.21576 0.52386 0.27675 0.0022776 0.4087 0.073543 -0.10276 0.27825 -0.0024244 0.05965 -0.25424 0.37502 0.34933 0.26509 -0.0076852 0.41452 -0.063414 -0.45476 -0.082865 -0.096918 0.47038 0.46657 0.26428 -0.19669 -0.023718 0.026563 -0.072651 0.26395 -0.42457 -0.037932 -0.012298 -0.0073241 0.042136 0.065162 -0.15715 0.017051 0.08708 0.25064 -0.31504 -0.12552 -0.019017 -0.23534 -0.0096805 -0.1295 -0.037065 -0.24913 -0.021282 0.36291 0.44931 0.12169 0.68754 0.10779 -0.36362 -0.2799 0.031198 0.11322 -0.13774 -0.14761 
요금|NNG 0.30624 -0.37087 -0.1656 0.47021 -0.18712 -0.1703 -0.30218 0.029167 -0.24861 -0.22367 -0.010479 -0.29808 -0.13041 -0.2831 -0.01376 0.023641 0.098051 -0.4796 0.035875 0.29558 -0.024146 -0.010984 0.062115 -0.071695 -0.38622 -0.15727 0.16719 -0.082785 0.10982 -0.1049 -0.081372 -0.025666 0.44694 0.05983 -0.022862 0.26029 0.070253 0.20169 -0.10419 -0.12959 -0.0034285 -0.0083052 -0.074318 -0.19446 0.25324 0.050721 0.32156 0.24346 0.1931 0.094189 -0.026162 -0.33869 0.15068 0.15246 0.2975 0.26557 0.2672 0.31533 -0.15487 -0.053794 -0.036706 -0.16551 0.22369 0.009562 0.066747 0.29568 0.11028 -0.21948 -0.26597 0.065651 0.10659 0.43437 -0.084987 -0.24942 0.0078159 0.29123 -0.66318 -0.253 0.19257 0.52085 0.45042 -0.18365 -0.44292 0.1598 -0.11591 0.12776 -0.26508 0.0086555 -0.064912 0.28463 -0.058434 -0.24732 -0.0063449 0.042813 -0.32539 -0.22011 -0.43273 -0.32335 0.0043229 0.10809 
삼기|NNG 0.29818 -0.26807 0.061109 0.31053 -0.38598 -0.010879 -0.10646 0.028619 -0.26891 -0.30367 0.015966 -0.039666 0.017794 -0.22467 -0.040858 0.047447 0.044982 -0.099376 -0.17677 0.05821 -0.051841 -0.099474 -0.10539 0.23115 -0.16514 0.047156 -0.14055 0.092534 -0.040018 -0.20519 -0.022895 0.056048 0.18157 -0.051911 0.26609 -0.0302 -0.1556 0.026899 -0.06985 -0.022435 -0.031793 0.0040403 -0.11361 -0.066478 0.096203 0.10605 0.068437 0.10882 0.22057 -0.018439 0.19166 -0.25323 0.24078 -0.14481 0.065189 0.14241 0.080412 0.016281 -0.089795 -0.1152 0.11581 -0.10993 0.039603 0.062797 0.10126 -0.035907 0.027418 0.11586 -0.11165 -0.1282 0.03649 0.17747 0.23037 -0.062565 -0.024628 -0.0041226 -0.19469 -0.27483 -0.049112 0.16756 0.30901 -0.084022 -0.32873 0.22043 -0.17267 0.19198 0.090181 -0.022177 0.14437 0.0045009 -0.27902 -0.0061714 -0.24076 0.15784 0.082683 0.199 -0.32699 -0.24315 0.050516 0.10748 
려구요|EC -0.073842 0.098183 -0.046866 -0.067338 0.11788 0.04559 0.013953 -0.019003 0.09069 0.11163 -0.014364 0.072083 -0.022521 0.021689 0.018321 -0.019192 -0.019579 -0.0079281 0.068986 -0.033564 0.086001 -0.0050765 0.0024719 -0.038631 0.016976 0.02781 0.050685 -0.026968 -0.0055183 0.031908 0.057208 0.0032697 -0.083815 0.059449 -0.046375 0.081504 -0.0090126 -0.023575 0.021384 0.058465 0.043479 -0.027294 0.031943 -0.032994 -0.038521 -0.052276 -0.048836 -0.025967 -0.062108 -0.02619 -0.077937 0.055841 -0.038222 -0.015643 -0.030048 -0.028858 -0.0027482 -0.049513 0.024964 0.075015 -0.025165 0.047587 -0.06089 -0.042818 -0.061755 0.016835 -0.014155 -0.054513 0.027307 0.017073 0.061533 -0.038462 -0.071378 0.035073 -0.0083992 0.017075 0.063872 0.068906 0.034102 -0.10331 -0.05138 0.046385 0.087783 -0.062882 0.043562 -0.050068 -0.01732 0.050385 -0.048974 -0.064237 -0.0064265 -0.015427 0.030217 -0.072505 -0.0064453 -0.037833 0.05514 0.043026 -0.001544 -0.023077 
삼|NR 0.069774 -0.087384 -0.01963 0.11941 -0.096488 -0.034063 0.044547 0.0046527 -0.08102 -0.1209 -0.00029246 -0.030179 0.029959 -0.065449 0.016102 0.014613 -0.0033396 -0.037457 -0.076558 0.02055 -0.040335 -0.047857 -0.045257 0.050905 -0.050046 0.011041 -0.030768 0.026765 0.0048312 -0.0669 -0.0030774 0.020086 0.070899 -0.057191 0.07377 -0.039487 -0.016706 0.0058804 -0.0074763 -0.041554 -0.019037 -0.013633 -0.023993 0.017231 0.01857 0.048011 0.0081027 0.057764 0.096458 -0.0081045 0.093072 -0.090623 0.088708 -0.046837 0.016043 0.039719 0.015127 0.01597 -0.044379 -0.059258 0.048643 -0.063436 0.021739 0.040726 0.034248 -0.020207 0.018346 0.06071 -0.030143 -0.051998 -0.0063432 0.037943 0.084839 0.00040763 0.0048478 0.0027901 -0.063077 -0.097039 -0.021189 0.049009 0.0761 -0.019046 -0.1165 0.041586 -0.076303 0.072702 0.059957 -0.010118 0.06766 -0.0007693 -0.092396 0.0040169 -0.077078 0.074809 0.0053617 0.079231 -0.1212 -0.084577 0.041473 0.049824 
알아보|VV -0.073225 0.091892 -0.04933 -0.074707 0.10753 0.045596 0.020204 -0.01951 0.083078 0.11878 -0.022989 0.072143 -0.040364 0.014872 0.0056252 -0.02551 -0.017069 -0.0022216 0.078026 -0.015175 0.085067 -0.018821 -0.01231 -0.03148 0.017848 0.017951 0.054634 -0.038871 -0.013176 0.049389 0.053621 0.0019423 -0.083775 0.063775 -0.034039 0.067298 -0.022149 -0.036421 0.025081 0.049439 0.052306 -0.040346 0.01521 -0.024256 -0.035532 -0.045284 -0.048034 -0.022209 -0.055265 -0.019761 -0.086884 0.06137 -0.047101 -0.021142 -0.020911 -0.031811 -0.010955 -0.046229 0.025759 0.090484 -0.025392 0.052435 -0.059641 -0.052686 -0.053982 0.021306 -0.00037409 -0.071252 0.020774 0.011041 0.05174 -0.03553 -0.057749 0.036114 -0.01817 0.026546 0.065012 0.064399 0.035636 -0.098175 -0.055324 0.047297 0.090763 -0.05269 0.052718 -0.052836 -0.017902 0.048069 -0.061419 -0.064218 0.00038567 -0.0060115 0.035564 -0.062061 -0.0049075 -0.048287 0.062876 0.043384 -0.015048 -0.017121 
려는데|EC -0.069716 0.091978 -0.054536 -0.080074 0.11701 0.049405 0.024986 -0.013917 0.080023 0.11158 -0.02294 0.061044 -0.034773 0.020071 0.010047 -0.014759 -0.026915 -0.013076 0.06899 -0.023149 0.086739 -0.019518 -0.013439 -0.028064 0.010702 0.031295 0.063321 -0.022795 -0.014586 0.047151 0.067495 0.0023096 -0.074284 0.065675 -0.037651 0.083665 -0.021426 -0.018445 0.012485 0.063952 0.058602 -0.044678 0.032873 -0.037341 -0.045633 -0.053475 -0.054236 -0.020095 -0.063659 -0.020399 -0.092249 0.07311 -0.051682 -0.028358 -0.034376 -0.036289 -0.0029932 -0.042385 0.024547 0.07813 -0.020192 0.0571 -0.048773 -0.042305 -0.065408 0.023581 -0.0022754 -0.067972 0.023867 0.0051301 0.052957 -0.031633 -0.074241 0.047914 -0.0099057 0.01554 0.058367 0.057594 0.039898 -0.10315 -0.054654 0.059083 0.089674 -0.053062 0.053146 -0.043151 -0.0024905 0.04319 -0.063043 -0.068042 -0.010566 -0.017682 0.036535 -0.072483 0.0013624 -0.047975 0.056833 0.048413 -0.018007 -0.022184 
주|MM -0.18394 -0.15405 0.075386 -0.16956 -0.050897 -0.20972 0.26224 -0.0014227 0.17718 -0.15378 0.070406 -0.055107 0.19021 0.24876 0.03772 -0.024774 -0.15363 0.28393 -0.20538 -0.11155 -0.18195 0.027423 -0.043591 -0.072303 0.27812 -0.097622 -0.3272 -0.086351 -0.029915 -0.088277 0.020764 -0.08031 0.017653 -0.1081 -0.13864 -0.50855 0.19282 -0.062163 -0.0044185 -0.24052 -0.34286 0.03118 0.049343 0.35779 -0.074639 0.078425 0.0034879 0.1642 0.04002 0.070321 0.17136 0.21262 -0.016751 0.067903 -0.25057 -0.12315 -0.34361 -0.11622 0.05961 -0.21839 0.10124 -0.035184 0.028408 0.052166 -0.14545 -0.045002 -0.015672 0.33878 0.17854 -0.093434 -0.10673 -0.30861 -0.086362 -0.055384 -0.028734 -0.091464 0.27865 0.18161 -0.21395 -0.12003 -0.049711 0.060407 0.059959 -0.12104 -0.083354 -0.16836 0.24842 -0.020579 0.20143 0.074588 0.2582 0.19769 0.0035595 0.17293 -0.052962 0.17082 0.25185 0.21103 0.081203 0.16927 
어|EC -0.11574 0.17196 -0.0834 -0.15669 0.18995 0.12014 -0.011077 -0.019217 0.14131 0.2154 -0.026726 0.16976 -0.070804 0.01428 -0.0060994 -0.044648 -0.049083 -0.01256 0.14182 -0.069613 0.19405 -0.034912 -0.043811 -0.030602 0.035026 0.078736 0.066988 -0.067315 -0.02675 0.042882 0.12237 -0.0067031 -0.1694 0.1536 -0.042734 0.15801 -0.066066 -0.077884 0.016119 0.13955 0.090932 -0.09345 0.02763 -0.098612 -0.08657 -0.094572 -0.13963 -0.053623 -0.10001 -0.069767 -0.1612 0.1151 -0.053115 -0.081241 -0.08207 -0.077332 -0.00028443 -0.11982 0.05645 0.19289 -0.04638 0.11932 -0.13755 -0.11551 -0.13456 0.047737 -0.0339 -0.11453 0.04085 -0.0052968 0.13988 -0.06439 -0.12176 0.063844 -0.042644 0.02175 0.12571 0.10877 0.064911 -0.20629 -0.042377 0.10212 0.15424 -0.087222 0.10463 -0.066411 -0.019049 0.11581 -0.10755 -0.1427 -0.046754 -0.022709 -0.0095681 -0.13328 0.022983 -0.054857 0.1159 0.080843 -0.022196 -0.039794 
사랑|NNG -0.014572 0.098645 0.26069 -0.25696 0.054228 0.13248 -0.18405 0.035239 -0.14606 0.037945 0.056114 0.12064 -0.0089073 0.0053367 -0.18153 0.073998 0.14414 0.25918 -0.014285 -0.14408 -0.10079 0.16225 0.1098 0.11853 0.040121 -0.0090044 -0.24316 0.11161 -0.080824 -0.033436 -0.11531 -0.038299 -0.014796 -0.076142 0.069357 -0.099118 -0.12883 -0.1001 -0.046355 0.068904 -0.009584 0.14756 -0.065219 -0.037153 -0.02917 0.11567 -0.062452 -0.27779 -0.09429 -0.075837 0.0071616 0.019149 -0.055441 0.12369 -0.12311 -0.082883 -0.08317 -0.068557 0.071772 0.041298 0.062654 0.021568 -0.12346 0.073272 0.15911 -0.099656 -0.13952 0.14228 0.051474 0.043661 -0.087824 0.079158 0.19847 -0.15845 -0.015379 -0.25402 0.16983 -0.0052441 -0.23733 0.071362 -0.15657 -0.012769 0.1038 0.14734 -0.012146 0.08045 -0.018039 -0.16317 0.02064 -0.085003 -0.084468 0.022861 -0.13284 -0.066801 0.33117 0.093265 0.044744 -0.024184 -0.036204 -0.12434 
그대로|MAG -0.12274 0.17776 -0.075113 -0.16148 0.17843 0.12644 -0.0021779 -0.005491 0.1529 0.23041 -0.030962 0.17756 -0.079689 -0.0038778 0.012156 -0.049564 -0.052282 -0.013912 0.14129 -0.065496 0.18134 -0.033659 -0.037128 -0.028689 0.024446 0.088502 0.05784 -0.072597 -0.01997 0.038147 0.12479 -0.0062594 -0.16405 0.1487 -0.026085 0.17135 -0.05888 -0.070482 0.014214 0.14108 0.081475 -0.083997 0.023623 -0.10837 -0.085585 -0.08702 -0.13151 -0.059948 -0.1084 -0.06478 -0.16521 0.10479 -0.070873 -0.071063 -0.089165 -0.082523 -0.015992 -0.11407 0.058807 0.19521 -0.040462 0.11242 -0.13064 -0.12265 -0.12825 0.05001 -0.021203 -0.12834 0.031067 -0.01261 0.14498 -0.053221 -0.10789 0.073902 -0.02745 0.034721 0.12571 0.10222 0.058383 -0.20166 -0.048862 0.092689 0.14575 -0.084769 0.10314 -0.076243 -0.0042706 0.10456 -0.10918 -0.14254 -0.057591 -0.034118 -0.013847 -0.1277 0.038072 -0.058883 0.11355 0.071751 -0.0067971 -0.028152 
폰|NNG -0.11814 0.17199 -0.081291 -0.15255 0.18681 0.12944 -0.012802 -0.019216 0.15844 0.22682 -0.037215 0.17718 -0.084865 -0.0048357 0.0081227 -0.050229 -0.056695 0.0015838 0.13741 -0.066594 0.18103 -0.03574 -0.029022 -0.030058 0.025532 0.072453 0.072425 -0.073669 -0.030727 0.025384 0.12499 -0.0069906 -0.16622 0.15311 -0.037176 0.16615 -0.060539 -0.067473 0.020555 0.13676 0.092859 -0.087982 0.033239 -0.10397 -0.09077 -0.09362 -0.13116 -0.064746 -0.11829 -0.065622 -0.16816 0.11194 -0.055567 -0.083826 -0.09236 -0.080319 0.0015087 -0.11899 0.061557 0.18638 -0.030955 0.11736 -0.14515 -0.12886 -0.12257 0.043572 -0.033507 -0.11312 0.039961 -0.0086943 0.13321 -0.060925 -0.11983 0.061618 -0.0409 0.023703 0.12933 0.10841 0.0713 -0.20908 -0.047961 0.10922 0.15723 -0.084393 0.10859 -0.068634 -0.005782 0.12138 -0.11286 -0.13701 -0.043527 -0.029344 -0.012101 -0.13223 0.027947 -0.056989 0.12606 0.085913 -0.0032963 -0.028291 
내|MM -0.11299 0.17863 -0.067334 -0.15217 0.18944 0.12606 -0.019621 -0.014269 0.14041 0.21331 -0.028493 0.17392 -0.071633 0.0067839 0.0092015 -0.061711 -0.043088 -0.0029242 0.13458 -0.067468 0.18781 -0.040133 -0.038448 -0.016528 0.032151 0.083213 0.066208 -0.058171 -0.035079 0.029814 0.12294 0.0041463 -0.16684 0.16037 -0.043859 0.16111 -0.072318 -0.072082 0.0081378 0.13619 0.082224 -0.093237 0.029687 -0.097692 -0.09379 -0.098731 -0.13545 -0.06916 -0.10601 -0.069542 -0.16757 0.10441 -0.055338 -0.069186 -0.093369 -0.086557 -0.0092872 -0.12379 0.056958 0.1908 -0.040571 0.10812 -0.14353 -0.12388 -0.12558 0.039594 -0.022179 -0.1287 0.032943 -0.0047994 0.1404 -0.065537 -0.11415 0.070782 -0.036062 0.029363 0.12905 0.11406 0.059289 -0.20817 -0.046073 0.09756 0.1527 -0.07214 0.1072 -0.074205 -0.020245 0.11157 -0.11173 -0.1431 -0.046183 -0.016572 -0.0018002 -0.14097 0.040992 -0.050333 0.11859 0.081414 -0.0047397 -0.040853 
기가|NNG 0.048743 -0.066705 0.010361 0.10212 -0.08524 -0.015564 0.054891 -0.0092914 -0.10717 -0.13996 0.0066936 -0.025859 0.047159 -0.049692 0.0061312 0.033442 0.0019943 0.0014824 -0.085515 -0.0019762 -0.069037 -0.01605 -0.030951 0.061476 -0.034748 0.003446 -0.0664 0.052755 -0.00228 -0.08713 -0.0019842 0.033146 0.078209 -0.084009 0.081384 -0.074945 -0.018558 -0.011386 -0.01713 -0.036638 -0.033392 0.013595 -0.046378 0.027581 0.020092 0.050693 -0.008083 0.043361 0.089435 -0.0055706 0.092695 -0.097025 0.10322 -0.043101 0.017056 0.015166 -0.010528 -0.00017078 -0.0308 -0.072897 0.062404 -0.06418 0.012176 0.037011 0.04573 -0.049175 0.013527 0.11262 -0.043943 -0.055404 -0.016993 0.043727 0.11856 -0.023103 -0.0036403 -0.035164 -0.029786 -0.095896 -0.068076 0.054948 0.063894 -0.011393 -0.092366 0.055242 -0.097126 0.10412 0.07275 -0.020596 0.08197 -0.015561 -0.10413 0.029868 -0.12335 0.071917 0.033129 0.11547 -0.13318 -0.099793 0.049691 0.057648 
출국|NNG -0.10795 0.17745 -0.085992 -0.15759 0.19076 0.1239 -0.009396 -0.0060989 0.14748 0.22791 -0.027136 0.1687 -0.081632 -0.0024728 0.010273 -0.053881 -0.041773 -0.0055588 0.13253 -0.055482 0.19013 -0.033502 -0.044993 -0.018326 0.020171 0.071472 0.066764 -0.059703 -0.030406 0.041607 0.13535 -0.0083559 -0.16728 0.15237 -0.034749 0.15321 -0.05913 -0.077364 0.015211 0.13964 0.10016 -0.093089 0.027548 -0.10759 -0.090603 -0.09213 -0.12669 -0.072534 -0.1148 -0.061818 -0.16898 0.11167 -0.071734 -0.083396 -0.082618 -0.087323 0.001811 -0.1199 0.057443 0.19551 -0.042189 0.11588 -0.13647 -0.12059 -0.12664 0.041133 -0.034351 -0.11392 0.033781 -0.0058561 0.14651 -0.06544 -0.10843 0.061231 -0.031749 0.035565 0.12039 0.10908 0.075508 -0.20701 -0.045104 0.10788 0.14528 -0.068944 0.092255 -0.081067 -0.020832 0.12074 -0.10932 -0.13066 -0.057777 -0.03493 -0.007459 -0.14612 0.033497 -0.049624 0.11371 0.076582 -0.022427 -0.031041 
안내|NNG 0.098279 -0.075193 0.062208 0.01455 -0.12039 0.024923 -0.10442 0.013348 0.060977 0.039578 -0.00080451 0.001072 -0.052988 -0.060486 -0.024391 -0.0047443 0.013831 0.015962 -0.039843 0.052012 0.064746 -0.017362 -0.01483 0.02427 -0.0079256 0.012485 -0.028196 -0.030907 -0.03508 0.023561 0.0067216 -0.061712 -0.018869 0.056029 0.041187 0.0078107 -0.079137 0.062476 0.0080959 0.015601 0.0046855 0.012305 0.039353 -0.0060591 0.02832 -0.014761 0.063339 0.015951 -0.055246 0.023829 -0.02517 0.072877 -0.051665 -0.010027 -0.016294 0.073884 -0.014651 0.0028827 -0.011196 0.011236 -0.0096881 0.07565 -0.0064757 0.016692 -0.0066671 0.049054 -0.054636 -0.080155 0.015538 0.016446 0.020325 -0.026057 -0.05487 -0.028888 -0.055398 0.030069 -0.0069894 -0.02951 0.06435 0.0029843 0.089675 -0.013339 -0.080139 0.046894 0.041138 -0.098783 -0.022066 0.028123 -0.012864 0.039927 0.021498 0.0030163 0.11609 -0.0182 0.0079754 -0.051916 0.076177 0.052965 -0.042763 -0.013983 
이야기|NNG -0.0015512 0.057826 0.18452 -0.1756 0.032811 0.070869 -0.12761 0.040813 -0.1569 -0.019899 0.043139 0.07936 0.011761 0.018269 -0.15305 0.054659 0.081588 0.17509 -0.01265 -0.11182 -0.10035 0.12818 0.074486 0.079968 0.0087777 -0.024848 -0.2048 0.090019 -0.048749 -0.075588 -0.12625 -0.013801 0.029261 -0.071049 0.053954 -0.082715 -0.062274 -0.098453 -0.06357 0.032436 -0.022221 0.1089 -0.071833 -0.035399 -0.0093971 0.094689 -0.040822 -0.19656 -0.044326 -0.030161 0.02966 -0.047573 -0.007096 0.099182 -0.077448 -0.079562 -0.05672 -0.030049 0.066102 0.0077809 0.033287 -0.028837 -0.055927 0.038115 0.12196 -0.082439 -0.10276 0.14053 0.015837 0.020777 -0.066415 0.083945 0.16502 -0.12388 0.016353 -0.1881 0.10563 -0.01326 -0.20375 0.081965 -0.089669 -0.012835 0.073773 0.1187 -0.01885 0.10434 -0.013741 -0.1218 0.027021 -0.057216 -0.063337 0.0038274 -0.16467 -0.029645 0.21593 0.085823 -0.00069231 -0.063941 -0.013027 -0.07243 
분과|NNG -0.018207 0.047918 0.18801 -0.18041 0.026839 0.055071 -0.1369 0.028674 -0.16408 -0.024183 0.042113 0.089253 0.011375 0.020655 -0.14404 0.06619 0.09544 0.17601 -0.0012892 -0.12016 -0.11084 0.13269 0.065221 0.076635 0.014992 -0.013228 -0.19613 0.078696 -0.041508 -0.060614 -0.11307 -0.0024127 0.027333 -0.06325 0.065972 -0.095535 -0.059181 -0.093207 -0.056099 0.04862 -0.03024 0.092626 -0.064945 -0.033451 -0.016854 0.087541 -0.040187 -0.18921 -0.030628 -0.028901 0.023752 -0.041156 -0.0072728 0.093834 -0.077881 -0.074411 -0.062958 -0.041517 0.056173 0.0092497 0.045179 -0.020873 -0.072486 0.051738 0.12124 -0.079633 -0.093435 0.12989 0.014661 0.028207 -0.078756 0.070718 0.15954 -0.12748 0.020819 -0.1937 0.10424 -0.01631 -0.19868 0.084516 -0.10576 -0.0074066 0.066034 0.12017 -0.018935 0.093105 -0.0034587 -0.13184 0.024726 -0.070175 -0.077159 -0.003263 -0.15641 -0.03529 0.2221 0.10386 0.0032925 -0.047748 -0.010198 -0.076174 
습니다|EF -0.15154 -0.11666 0.073569 -0.14256 -0.04238 -0.16738 0.19575 0.010295 0.11174 -0.12103 0.067772 -0.032404 0.1375 0.18255 0.015907 -0.012338 -0.11486 0.21182 -0.16748 -0.09771 -0.16177 0.044631 -0.04445 -0.041571 0.21524 -0.080577 -0.27164 -0.067611 -0.013398 -0.090745 -0.0020664 -0.057361 0.033682 -0.091572 -0.09944 -0.41132 0.14291 -0.059691 -0.015258 -0.19251 -0.27922 0.014286 0.040452 0.268 -0.07211 0.070205 -0.011667 0.13285 0.040974 0.035818 0.14412 0.14514 0.012147 0.062412 -0.20136 -0.11382 -0.27972 -0.091827 0.05631 -0.15575 0.076783 -0.043675 0.010042 0.0393 -0.10404 -0.038265 -0.009266 0.29105 0.14419 -0.070994 -0.079396 -0.23622 -0.045466 -0.041422 -0.010354 -0.083191 0.21971 0.14313 -0.19778 -0.078622 -0.047479 0.057422 0.061961 -0.093959 -0.071125 -0.0964 0.19045 -0.01877 0.16027 0.055679 0.17639 0.14976 -0.032718 0.12471 -0.032101 0.16373 0.17015 0.15483 0.076883 0.12619 
했|XSV+EP -0.16348 -0.122 0.073245 -0.13766 -0.028149 -0.15596 0.18306 -0.0018229 0.1091 -0.11821 0.065591 -0.024046 0.14547 0.19363 0.022496 -0.017237 -0.1172 0.22679 -0.15534 -0.10476 -0.16559 0.032037 -0.029139 -0.051029 0.21535 -0.077454 -0.26921 -0.066169 -0.020536 -0.08791 0.013675 -0.060631 0.030115 -0.080324 -0.10589 -0.40273 0.15041 -0.066239 -0.025254 -0.19881 -0.27947 0.014863 0.02666 0.27396 -0.072558 0.078027 -0.0089613 0.12965 0.051835 0.047114 0.14049 0.14349 -0.0021017 0.047888 -0.21232 -0.11256 -0.26879 -0.090384 0.042298 -0.15861 0.070746 -0.026734 0.0095199 0.028407 -0.10505 -0.035429 -0.01263 0.28943 0.13827 -0.066852 -0.072489 -0.22437 -0.063253 -0.048729 -0.0039644 -0.10108 0.21719 0.13568 -0.18953 -0.078158 -0.044082 0.057279 0.056083 -0.083237 -0.069413 -0.097585 0.2008 -0.02151 0.17148 0.064097 0.17871 0.1476 -0.046857 0.1285 -0.035305 0.15356 0.18224 0.15593 0.07453 0.13493 
결정|NNG -0.15372 -0.12094 0.059194 -0.13381 -0.034674 -0.15342 0.20233 0.0097407 0.11229 -0.13016 0.068242 -0.021147 0.14143 0.18661 0.0046317 -0.025847 -0.11385 0.22303 -0.1581 -0.10833 -0.16359 0.02977 -0.031517 -0.049292 0.22424 -0.070098 -0.26617 -0.0643 -0.030024 -0.0981 0.0041322 -0.058154 0.041465 -0.094452 -0.092965 -0.40026 0.15073 -0.055271 -0.022158 -0.18405 -0.27797 0.025716 0.026275 0.27081 -0.062659 0.075149 -0.019991 0.13078 0.049446 0.043049 0.15629 0.14704 0.004633 0.052303 -0.20433 -0.11393 -0.2839 -0.095093 0.042381 -0.17349 0.090601 -0.043559 0.0078937 0.037427 -0.10475 -0.045036 -0.012164 0.28732 0.14606 -0.08366 -0.083351 -0.22672 -0.048442 -0.046729 -0.0024356 -0.096606 0.22442 0.14486 -0.19322 -0.075709 -0.056574 0.047769 0.06231 -0.078872 -0.087145 -0.096931 0.20514 -0.015608 0.17502 0.04943 0.19144 0.15521 -0.042978 0.13849 -0.01956 0.15608 0.16838 0.1574 0.074378 0.14491 
인가요|VCP+EC 0.20216 -0.12936 0.13982 0.0040817 -0.24462 0.06102 -0.22519 0.054705 0.076732 0.054731 0.01337 0.024454 -0.069383 -0.10535 -0.060994 -0.021031 0.03701 0.049472 -0.086649 0.054933 0.1233 -0.048492 -0.054036 0.10542 -0.017301 0.03585 -0.090376 -0.042403 -0.083635 -0.0057884 0.0070112 -0.097312 -0.064584 0.090531 0.10841 0.012222 -0.16631 0.099891 0.010576 0.029929 0.0034881 0.019145 0.048328 -0.018644 0.032353 -0.030686 0.073013 0.013494 -0.075732 0.015167 -0.026397 0.12937 -0.064293 -0.047089 -0.062976 0.099505 -0.025709 -0.014139 -0.012312 0.044836 -0.0045008 0.14383 -0.022454 0.018799 -0.034096 0.060049 -0.090831 -0.12429 0.053505 -0.013428 0.045164 -0.047541 -0.056455 -0.069025 -0.12077 0.018556 0.011118 -0.054996 0.09214 -0.018848 0.19013 -0.011054 -0.15157 0.094871 0.082945 -0.14448 -0.02147 0.045667 -0.017967 0.053666 0.03316 0.011482 0.13899 -0.019104 0.050101 -0.047536 0.12705 0.082316 -0.06781 -0.0039821 
센터|NNG -0.0099643 0.010012 -0.0010974 0.029331 0.029275 -0.025844 0.072917 -0.036062 0.015937 -0.0065758 -0.02202 -0.094084 0.019925 0.041152 0.048104 0.020104 0.031184 -0.013994 -0.026877 0.052891 -0.043922 0.028958 0.045731 -0.074013 0.0044962 -0.057338 0.067161 0.0382 0.02348 0.093762 -0.030827 0.0025575 0.026715 -0.094934 -0.055353 -0.021365 0.040721 0.05675 0.037685 -0.048993 0.025527 0.063201 0.030747 0.073315 0.039469 -0.0099702 0.059709 0.0037083 -0.025678 0.04231 -0.017677 0.0020494 -0.049072 0.061887 0.06577 0.055672 0.019142 0.076149 -0.024518 -0.057421 -0.021691 -0.017553 0.066849 0.084363 0.064363 -0.03907 -0.0080987 -0.012453 -0.0155 0.05637 -0.073461 -0.001956 0.0044799 0.00042911 0.0038521 0.016409 -0.035128 -0.0082747 0.032936 0.035339 -0.05192 -0.021668 0.001855 -0.041737 0.01353 -0.021733 -0.02088 -0.043669 -0.014088 0.063265 0.071321 0.015392 0.12657 0.010491 -0.047956 -0.052909 0.0063681 0.019872 -0.021919 -0.032864 
가장|MAG 0.20293 -0.13722 0.12675 0.0098709 -0.25755 0.051028 -0.22737 0.054072 0.087216 0.048668 0.0025886 0.024529 -0.086687 -0.10387 -0.061864 -0.0089287 0.040147 0.046605 -0.090348 0.067919 0.12713 -0.055672 -0.052513 0.10436 -0.031211 0.038526 -0.085439 -0.052282 -0.073208 0.0010628 -0.0024725 -0.093972 -0.059534 0.10594 0.11883 0.0094644 -0.16774 0.098834 -0.0048027 0.033647 -0.00047864 0.017831 0.037412 -0.022721 0.026089 -0.036946 0.084016 0.0031926 -0.082179 0.0032033 -0.02758 0.13128 -0.055391 -0.048963 -0.076555 0.11581 -0.025968 -0.010035 -0.021318 0.049173 0.0052143 0.14489 -0.035894 0.016463 -0.029379 0.070637 -0.088605 -0.12021 0.040338 -0.010968 0.042922 -0.033876 -0.064419 -0.072723 -0.11798 0.025395 0.017543 -0.06063 0.089058 -0.01243 0.1902 -0.019914 -0.15284 0.097611 0.084391 -0.15294 -0.017198 0.027773 -0.0085237 0.04369 0.026675 0.013252 0.14068 -0.016049 0.047023 -0.060605 0.12672 0.092763 -0.05969 -0.011537 
이번|NNG 0.24519 -0.29889 -0.10846 0.36132 -0.17835 -0.13984 -0.22085 0.029434 -0.2183 -0.20403 -0.0045335 -0.23046 -0.068382 -0.2187 -0.026516 0.035017 0.075211 -0.35509 0.015106 0.22705 -0.035956 -0.018427 0.026523 -0.020076 -0.28493 -0.11586 0.10305 -0.037428 0.078094 -0.097686 -0.089972 -0.0094332 0.34365 0.040549 0.015369 0.16993 0.036691 0.13975 -0.083354 -0.084651 -0.00099865 -0.00063347 -0.055722 -0.14457 0.19655 0.038569 0.24432 0.19559 0.16381 0.079766 0.012353 -0.26522 0.13087 0.10656 0.23718 0.1993 0.21215 0.23926 -0.119 -0.056578 -0.014719 -0.1242 0.17921 0.020092 0.078118 0.2035 0.083201 -0.12994 -0.18989 0.032607 0.052218 0.32563 -0.039726 -0.18078 0.014438 0.20659 -0.49185 -0.20718 0.11383 0.38742 0.3478 -0.1349 -0.34128 0.12897 -0.093498 0.11867 -0.18133 -0.0018353 -0.029261 0.20485 -0.068237 -0.17921 -0.021984 0.05248 -0.23309 -0.12789 -0.34224 -0.25241 0.0066592 0.068792 
일까|VCP+EC 0.058364 -0.087716 -0.061748 0.11108 -0.019847 -0.040452 -0.067206 -0.00046109 -0.03446 -0.021283 -0.0084072 -0.055777 -0.049531 -0.062137 0.0016082 0.0104 0.030418 -0.12771 0.028029 0.08419 0.0094607 0.0069212 0.029696 -0.042733 -0.087401 -0.050272 0.049571 -0.039338 0.036835 -0.0076644 0.0091851 -0.024403 0.10615 0.031512 -0.037259 0.089262 0.012206 0.050068 -0.015038 -0.033528 0.0092049 -0.0018558 0.003493 -0.060897 0.058897 0.0041421 0.071069 0.074779 0.028902 0.015839 -0.038847 -0.065339 0.033717 0.05 0.062329 0.057317 0.072674 0.080399 -0.045103 0.015359 -0.014038 -0.034558 0.050727 -0.01475 -0.0044999 0.093673 0.029567 -0.066538 -0.051822 0.018416 0.042769 0.10354 -0.043987 -0.070379 -0.015857 0.082971 -0.16787 -0.043779 0.062496 0.12455 0.096715 -0.026546 -0.09347 0.029975 -0.031811 -0.0011141 -0.082555 0.0090414 -0.037106 0.076771 -0.0075175 -0.069396 0.027016 0.0046652 -0.092565 -0.085993 -0.091512 -0.056572 0.0070053 0.034137 
어쩌구|MAG+XSV+EC -0.093074 0.13977 -0.047906 -0.13973 0.13839 0.10169 0.008491 -0.009227 0.17294 0.20541 -0.01461 0.11303 -0.058761 0.0088571 0.0077987 -0.027043 -0.027929 0.016215 0.082487 -0.040165 0.17085 -0.034554 -0.026221 -0.041845 0.028825 0.046296 0.054013 -0.051888 -0.035647 0.069939 0.11811 -0.023805 -0.14596 0.11521 -0.043542 0.12089 -0.068234 -0.023576 0.026936 0.10029 0.071827 -0.046929 0.058873 -0.061625 -0.073705 -0.079538 -0.088961 -0.056629 -0.12749 -0.052396 -0.14253 0.13936 -0.084122 -0.053405 -0.081155 -0.039526 -0.023196 -0.080197 0.049779 0.14532 -0.032461 0.13385 -0.11865 -0.066696 -0.09765 0.036453 -0.030922 -0.11032 0.059576 0.0019695 0.11432 -0.082724 -0.11081 0.057322 -0.050611 0.016899 0.13182 0.090493 0.067002 -0.18227 -0.053785 0.095487 0.12739 -0.090485 0.091999 -0.10763 -0.0017738 0.094559 -0.093005 -0.10104 -0.016145 0.0061643 0.058631 -0.12302 0.024655 -0.062797 0.14726 0.11055 -0.029565 -0.025933 
해외여행|NNG -0.089002 0.1347 -0.059284 -0.13252 0.14439 0.10385 0.014764 -0.026512 0.17582 0.21584 -0.021848 0.12823 -0.061671 0.0027996 0.021338 -0.036092 -0.033809 0.01907 0.082646 -0.032711 0.16986 -0.040845 -0.01747 -0.04735 0.040572 0.041292 0.061057 -0.045751 -0.026436 0.07614 0.12965 -0.035742 -0.15242 0.10417 -0.051038 0.12436 -0.071167 -0.030774 0.032188 0.10183 0.083864 -0.062149 0.044257 -0.060082 -0.069397 -0.083465 -0.094188 -0.048519 -0.11947 -0.044679 -0.13562 0.1492 -0.083496 -0.055535 -0.075083 -0.048814 -0.026528 -0.087291 0.034214 0.16072 -0.035764 0.12594 -0.10904 -0.071957 -0.092356 0.033011 -0.030499 -0.11212 0.050361 0.011216 0.09955 -0.081658 -0.11177 0.050405 -0.063674 0.028621 0.13166 0.097447 0.074836 -0.17792 -0.065694 0.093783 0.12558 -0.086238 0.091536 -0.1024 -0.014051 0.07717 -0.078305 -0.090711 -0.012874 -0.0029342 0.069462 -0.12381 0.021407 -0.067461 0.14818 0.10906 -0.028067 -0.035428 
가|VX -0.044737 0.07747 -0.029957 -0.08112 0.10301 0.054602 -0.010693 -0.008192 0.089788 0.11398 -0.017438 0.05387 -0.034657 0.0051542 -0.0046604 -0.011582 -0.029835 -0.004155 0.077785 -0.010883 0.09287 -0.0076816 -0.020261 -0.041027 0.0060798 0.016967 0.026452 -0.029654 -0.013861 0.036878 0.050909 -0.0015102 -0.082649 0.061518 -0.035236 0.078087 -0.022828 -0.02548 0.014964 0.053788 0.041213 -0.030681 0.023831 -0.028898 -0.028769 -0.054305 -0.048558 -0.024446 -0.066964 -0.029634 -0.092476 0.061502 -0.043615 -0.020861 -0.039577 -0.034846 -0.016767 -0.052915 0.033697 0.078269 -0.01148 0.058489 -0.057523 -0.045232 -0.064585 0.027941 -0.02267 -0.070849 0.011468 0.0083986 0.059864 -0.026494 -0.063077 0.024702 -0.030974 0.012602 0.063967 0.064575 0.044826 -0.097034 -0.030222 0.043913 0.079802 -0.041862 0.055945 -0.057296 -0.0099768 0.046126 -0.06251 -0.067043 -0.013311 -0.010351 0.026051 -0.078151 0.010814 -0.036509 0.06904 0.047744 -0.010292 -0.02035 
