198 100
</s> -0.39554 -0.0081832 -0.00051853 -0.10075 -0.086237 -0.1593 0.16643 -0.19037 0.29271 0.11307 -0.00088815 0.024094 -0.059029 -0.093995 0.013877 0.036362 0.087195 0.23188 0.13659 -0.13358 -0.028978 -0.12111 -0.12777 -0.21862 0.26309 -0.093411 0.1154 -0.36109 0.052738 -0.14537 -0.13071 -0.26052 -0.2559 0.14586 0.042683 -0.3129 -0.066482 -0.016957 -0.19758 0.15713 0.14973 -0.10865 -0.065002 -0.10355 -0.28208 -0.28077 -0.30384 0.033554 -0.075009 -0.19496 0.12297 0.029617 0.010022 0.2579 -0.11001 -0.27665 -0.064138 0.38763 -0.43176 0.45677 -0.11967 -0.23295 -0.032034 -0.035231 -0.12177 0.049988 0.04534 0.026363 0.095964 0.049212 0.012583 -0.19724 -0.22835 0.045965 -0.064077 -0.30078 0.076838 0.15286 -0.23625 0.13934 -0.27527 -0.17394 0.38787 -0.25497 -0.25457 -0.24318 -0.11997 -0.18963 -0.39988 -0.021491 0.073235 -0.19296 0.074745 -0.18226 0.099794 0.34328 0.31682 0.10503 -0.16189 0.24119 
안|MAG -0.0357 -0.41204 -0.10902 0.35295 0.28291 -0.09615 -0.48053 -0.20349 -0.5367 -0.23533 0.060563 -0.10077 0.49676 0.0093293 -0.25374 -0.61508 -0.19448 -0.098309 0.081348 0.45898 -0.065263 -0.12027 0.070518 0.39126 -0.15096 -0.07875 -0.10676 -0.10465 -0.12177 -0.16051 -0.00064507 0.21631 0.65266 0.35652 -0.18818 -0.24575 -0.61116 0.024775 -0.049115 -0.44792 -0.19688 -0.013788 -0.17895 0.044287 -0.20792 0.39688 0.029835 -0.033084 0.039542 0.10553 -0.077213 -0.17925 0.047285 -0.32848 -0.075957 0.35902 -0.1297 -0.20925 0.063284 -0.37707 -0.20037 0.21893 0.41169 0.63146 -0.27843 -0.25435 -0.20986 -0.011064 0.015314 -0.11527 -0.17761 -0.29802 0.13047 -0.30262 -0.17925 0.052157 0.064055 0.29258 0.50491 0.1101 -0.31435 -0.029745 -0.70569 -0.15372 -0.039693 0.090325 -0.40108 -0.092261 -0.093548 -0.072053 -0.34705 0.54259 0.19443 -0.080121 0.41426 -0.20622 0.027683 0.20471 0.094744 0.27628 
어요|EF 0.1016 -0.23046 -0.21624 0.39487 0.19558 0.30492 -0.23456 -0.5682 -0.1531 -0.41208 0.18994 -0.4518 0.59798 -0.026616 -0.031613 -0.34657 0.010423 -0.17031 -0.063845 0.112 0.26897 -0.35837 -0.22754 0.4773 -0.28444 -0.26467 -0.39396 0.26198 -0.17826 0.12524 0.18834 0.40409 0.64151 0.75003 -0.25349 -0.11281 -0.57004 -0.28553 -0.00031523 -0.20829 0.13289 -0.076936 -0.11557 0.48281 -0.04596 0.35509 0.12699 0.25815 0.2069 0.26363 -0.024119 0.047372 0.049581 -0.30593 0.12616 0.12524 -0.12662 -0.4105 -0.0030643 -0.34168 -0.33995 0.19479 0.18834 0.43272 0.075945 -0.22767 0.33046 -0.40642 -0.12588 -0.022595 -0.29774 -0.17216 0.057738 0.095899 -0.11326 0.27316 0.17713 0.050831 0.24214 -0.087143 -0.46013 0.082829 -0.74425 0.33048 0.010754 0.30299 -0.19388 -0.25858 0.19298 -0.11568 -0.21612 0.38562 0.45973 -0.022181 0.080759 0.062749 0.11632 0.028004 -0.021822 -0.13615 
줘|VX+EC 0.19259 0.032832 -0.33831 0.03421 -0.45568 0.42886 -0.31944 0.39342 -0.00097526 -0.59098 0.24548 -0.37818 0.024555 0.34183 0.47715 0.067939 -0.10252 -0.00043011 -0.4473 -0.35012 0.11887 -0.1729 -0.23745 0.36696 -0.35083 -0.089119 -0.10744 0.72111 -0.27046 0.13043 0.64022 0.19315 0.35853 0.085209 0.27601 0.30367 0.17506 -0.28374 0.55614 0.25605 0.3653 -0.09927 -0.21507 0.14037 0.018781 0.3006 0.040008 0.057061 0.23855 0.20291 0.2305 0.11712 0.2189 -0.36889 0.21058 0.18044 0.037175 -0.47611 -0.050609 -0.1898 -0.079811 -0.17662 -0.045292 -0.19211 -0.22289 -0.41436 0.56776 0.13164 -0.096736 -0.18887 -0.18964 0.21939 -0.14664 0.31931 0.069438 0.16701 -0.10546 0.053354 0.19184 -0.27788 0.1001 0.10734 -0.057103 0.42391 -0.087407 0.72062 0.35991 -0.35455 0.45322 -0.076124 -0.047508 -0.097299 -0.30839 0.18793 0.12479 0.31708 0.18864 -0.21016 -0.20842 0.25521 
다른|MM 0.51602 0.26628 -0.01089 0.19734 0.72806 0.10397 0.42382 -0.43966 0.30362 0.12726 -0.81109 -0.18132 -0.18093 0.65409 0.2777 -0.11147 0.018176 -0.18545 -0.48782 -0.35898 -0.12513 0.23273 0.312 -0.89797 0.36325 0.18144 0.36258 -0.23773 0.42366 0.26305 -0.40442 0.70287 -0.6978 -0.8158 -0.22383 0.48319 -0.24997 0.75786 -0.043673 0.31811 -0.15895 0.012556 0.3309 0.88097 0.53376 -0.6136 0.36172 -0.24768 -0.20131 0.78948 -0.63838 0.077041 -0.40736 0.29634 0.23057 -0.24841 0.26023 0.21093 -0.59504 0.48987 -0.18118 -0.0065722 0.079772 0.32722 0.97977 0.29201 -0.3558 -0.64509 0.17832 0.70972 -0.57193 0.031942 0.75169 -0.54435 -0.39197 0.035201 -0.073177 -0.0688 -0.1377 0.16825 -0.02932 -0.38997 0.32247 1.0473 0.35814 -0.09762 -0.074717 0.23151 -0.01477 0.55545 0.59059 -0.010465 0.43249 -0.25171 -0.47931 -0.33992 -0.54672 0.045699 -0.61025 -1.0956 
나요|EC 0.20071 -0.14023 0.23842 0.04436 0.54343 -0.21068 -0.082404 -0.2032 -0.50488 0.065221 -0.2354 0.056648 -0.16888 0.03159 -0.45027 -0.29039 -0.083438 -0.1505 0.16609 0.23902 -0.24083 0.096158 0.356 -0.22638 -0.094403 0.14153 0.15456 -0.28202 0.10276 0.012832 -0.38098 0.4315 -0.0857 -0.19224 -0.12765 0.13673 -0.39328 0.25316 -0.21749 -0.081969 -0.6201 0.16819 -0.096198 0.23642 0.16101 -0.020509 0.18461 -0.45129 -0.1483 0.31265 -0.25284 -0.18682 -0.13414 0.024164 -0.16158 0.20373 0.231 -0.022006 0.067571 -0.12979 0.060665 0.072984 0.25567 0.48179 0.21666 -0.12824 -0.34181 -0.25027 -0.1761 0.17145 0.094613 0.2535 0.51045 -0.60104 -0.25106 0.092806 -0.13446 0.19652 0.21807 0.25463 0.3212 -0.29238 0.037548 0.22468 0.41338 -0.060608 -0.44673 0.035789 -0.32058 0.34879 -0.21047 0.32099 -0.23298 0.075243 -0.044062 -0.41369 -0.48093 0.16219 -0.26055 -0.14523 
주문|NNG 0.5089 0.36357 0.70866 -0.90212 -0.34428 0.35999 -0.095288 0.69553 -0.38219 0.32503 0.37436 0.24251 -1.0743 -0.45583 0.33985 0.98051 0.036235 -0.14963 0.014038 0.062898 0.24935 0.18682 0.10995 0.36117 -0.080739 0.24426 -0.19909 0.38696 -0.2754 0.26152 0.14016 -0.48767 0.0060378 -0.23571 0.26047 0.39385 0.72906 -1.9492e-06 0.38881 0.24711 -0.17039 0.44338 0.19632 -0.56973 0.39166 0.1534 0.52918 -0.020923 0.0947 -0.4923 -0.1116 0.37017 -0.31115 0.18384 0.0058992 0.22216 -0.32118 -0.046655 1.2306 -0.18437 0.33084 0.21135 -0.57186 -0.86381 -0.22392 0.26025 0.1366 0.80136 -0.51221 -0.2296 0.4345 1.1162 -0.4543 0.0043436 0.76708 0.012816 -0.15012 -0.60055 -0.11534 -0.11924 1.2282 0.87536 0.73965 -0.54096 0.4519 0.015289 0.57682 0.30524 0.83642 -0.080506 -0.13717 -0.65667 -0.84711 0.28897 -0.52211 -0.37549 -0.13188 -0.43095 0.91675 -0.14276 
해|XSV+EC -0.025966 -0.07023 -0.19988 -0.077718 -0.34571 0.23394 -0.33538 0.231 0.1375 -0.37943 0.23833 -0.16126 -0.06867 0.14388 0.42491 -0.05987 0.0072849 0.10282 -0.36197 -0.17419 0.074688 -0.10121 -0.19764 0.19434 -0.21993 -0.14374 0.0054191 0.40171 -0.17615 0.12891 0.42662 0.07183 0.34001 0.25789 0.093348 0.18665 0.15389 -0.22248 0.44128 0.13092 0.23251 0.0016596 -0.34547 0.03243 0.08284 0.18977 -0.034736 0.080859 0.24923 0.090117 0.075457 0.14303 0.073847 -0.17242 0.050953 0.096317 -0.038912 -0.18441 -0.10851 0.012126 -0.099044 -0.12221 -0.015511 -0.17637 -0.25422 -0.25351 0.46516 0.17794 -0.056522 -0.38727 -0.11389 0.24575 -0.20174 0.22609 0.038982 0.090863 -0.0042734 0.0515 0.16059 -0.1169 -0.023848 0.15606 -0.055311 0.17382 -0.041243 0.56139 0.17542 -0.2838 0.42113 0.041803 0.0867 -0.21722 -0.14811 0.15232 0.10922 0.24091 0.32353 -0.1588 -0.0039875 0.13421 
시간|NNG 0.24136 -0.025505 0.13269 0.074501 0.49274 -0.1062 0.050757 -0.21978 -0.19772 0.065827 -0.34636 -0.011867 -0.13263 0.19516 -0.16551 -0.21644 -0.036769 -0.11908 -0.041172 0.049225 -0.17311 0.11591 0.27504 -0.35439 0.04251 0.11848 0.19045 -0.2206 0.17843 0.079513 -0.31267 0.43561 -0.20427 -0.30214 -0.14642 0.19679 -0.27221 0.34318 -0.12424 0.029419 -0.38731 0.088667 0.02628 0.35464 0.23607 -0.18084 0.20485 -0.30446 -0.13232 0.37826 -0.31836 -0.072765 -0.19648 0.11008 -0.045516 0.047929 0.19151 0.049809 -0.11893 0.066547 -0.013394 0.043119 0.16208 0.36474 0.36749 0.0073161 -0.28227 -0.2958 -0.043495 0.25969 -0.09312 0.13784 0.47806 -0.47949 -0.23354 0.066409 -0.091733 0.10624 0.10202 0.2023 0.1516 -0.26559 0.093027 0.3762 0.32883 -0.057726 -0.27186 0.081732 -0.16608 0.34167 0.05062 0.17476 0.017289 -0.025989 -0.14901 -0.33236 -0.40276 0.11956 -0.27476 -0.37395 
가능|NNG 0.1033 -0.29158 0.32914 0.036416 0.59132 -0.34118 -0.21186 -0.21061 -0.75908 0.044466 -0.14635 0.12072 -0.15967 -0.14111 -0.7001 -0.41941 -0.1007 -0.14789 0.35962 0.45115 -0.31131 0.06602 0.40063 -0.11351 -0.2249 0.14376 0.14611 -0.37522 0.066701 -0.053543 -0.43954 0.41075 0.066751 -0.04888 -0.15555 0.032105 -0.49932 0.19198 -0.2981 -0.22216 -0.83409 0.23104 -0.23179 0.11322 0.082769 0.10682 0.15917 -0.556 -0.15505 0.21691 -0.20385 -0.29011 -0.085951 -0.040088 -0.29707 0.3391 0.24356 -0.038334 0.21386 -0.24908 0.1337 0.1139 0.3418 0.61343 0.033028 -0.25222 -0.37935 -0.18482 -0.28598 0.03681 0.3008 0.31567 0.50864 -0.67859 -0.26728 0.11444 -0.16153 0.30063 0.35044 0.33448 0.42314 -0.33558 -0.047698 0.0019596 0.46031 -0.089602 -0.61969 0.016856 -0.45986 0.33258 -0.42439 0.45309 -0.37173 0.15049 0.070023 -0.48676 -0.49875 0.22849 -0.21723 0.079639 
없|VA -0.16 -0.3116 0.31013 0.029831 0.36143 -0.090703 -0.12175 -0.6964 -0.56506 -0.14169 0.27658 -0.19817 0.1127 -0.59527 -0.63239 -0.21781 0.13428 -0.060717 0.59093 0.4301 0.043773 -0.41445 -0.090095 0.31437 -0.29875 -0.13362 -0.32867 -0.31491 -0.16263 -0.0018329 -0.27937 0.20159 0.39743 0.79103 -0.24309 -0.34139 -0.62322 -0.28095 -0.42397 -0.18634 -0.47944 0.08474 -0.26451 0.17471 -0.11875 0.23788 0.024928 -0.1136 0.045742 -0.070702 0.019554 -0.13726 -0.026212 -0.079454 -0.22106 0.15374 -0.079339 -0.12877 0.24892 -0.18021 -0.034707 0.16553 0.16148 0.47121 -0.060549 -0.21923 0.19363 -0.3867 -0.43823 -0.098373 0.37474 0.14345 0.058712 -0.098784 -0.073323 0.15602 0.088262 0.13678 0.10205 0.21303 -0.042284 -0.055384 -0.42187 -0.23812 0.20463 -0.12914 -0.51024 -0.1696 -0.34367 -0.056788 -0.55695 0.31942 0.054205 0.086559 0.038894 -0.053344 0.017514 0.13856 0.013034 0.14204 
다시|MAG 0.7659 0.48802 -0.94778 1.0305 -0.40788 0.26693 0.41423 1.1137 0.78775 -0.11412 -0.69096 0.23661 1.4709 0.81542 0.62664 -0.10708 -0.18028 -0.4129 -0.94417 -0.034636 -0.2475 0.90367 -0.075134 -0.011376 0.062899 0.69325 0.06195 0.99692 0.63142 -0.16449 0.54012 0.3571 -0.070199 -1.3075 -0.24363 0.3731 1.1993 0.33095 0.3644 -0.7179 0.69004 -0.68318 0.92103 -0.18678 0.56969 0.09853 -0.15728 0.89265 0.10704 0.30945 0.1487 -0.56709 0.6176 -0.85722 0.87529 0.041276 0.55963 -0.69312 -0.088649 -1.0026 0.61438 0.34111 0.0061952 -0.33851 0.55556 0.66375 -0.84057 -0.064583 1.1786 0.074114 -0.52862 -1.5305 0.50108 0.83902 0.060809 0.54551 0.016124 -0.91123 0.042782 -0.91375 -0.47538 -0.14225 -1.2138 0.60591 -0.56155 -0.09231 1.0066 1.1647 0.55428 -0.50007 0.7561 0.52039 0.62596 0.30237 0.15382 -0.073641 -0.6887 -0.12625 -0.0034591 -0.36997 
바꿀|VV+ETM 0.42636 0.34728 -0.23723 0.39211 0.13652 -0.047929 0.5417 0.32179 0.42753 0.20761 -0.58799 0.2643 0.39992 0.35812 -0.010217 0.068076 0.016512 -0.23938 -0.24351 -0.073338 -0.21819 0.56451 0.20273 -0.48931 0.091528 0.40805 0.1797 0.19688 0.50738 0.023942 -0.13806 0.31376 -0.5546 -0.88126 -0.17573 0.29703 0.59162 0.30258 -0.11076 -0.20281 0.059989 -0.22511 0.53603 0.070013 0.44634 -0.24731 -0.035628 0.19076 -0.12517 0.27024 -0.024378 -0.33383 0.20845 -0.1718 0.3183 -0.16012 0.48669 -0.15613 -0.12355 -0.30093 0.40013 0.11619 -0.017573 -0.15932 0.59383 0.41862 -0.54106 -0.29683 0.52458 0.247 -0.093025 -0.56801 0.49544 0.2486 -0.099587 0.27885 -0.043781 -0.42751 -0.20171 -0.30549 -0.003988 -0.32165 -0.18271 0.46844 -0.025355 -0.25122 0.35948 0.65068 -0.049272 -0.015794 0.46269 0.17421 0.18878 0.18205 -0.18843 -0.1691 -0.59089 -0.010118 -0.28122 -0.43825 
세요|EP+EF 0.1595 -0.037362 -0.10672 0.12232 0.19569 0.10126 -0.16714 -0.05057 0.072048 0.037816 -0.20822 -0.020642 0.059284 0.34047 0.36762 -0.21091 -0.13938 -0.045969 -0.36752 -0.0056544 0.051909 0.11353 0.13114 -0.089816 0.24096 -0.034024 0.13618 -0.053339 0.030641 0.024657 0.018807 0.078484 0.10233 -0.21147 -0.091672 0.10659 -0.21045 0.34813 0.20514 -0.071467 0.13195 0.052755 0.085276 0.17991 0.081331 -0.055726 0.2005 0.019073 -0.01361 0.21289 -0.3711 0.15825 -0.26904 0.061012 0.075275 0.032041 -0.20936 0.14109 -0.15118 0.17347 -0.31063 0.12083 0.12651 0.18987 0.070216 0.1263 -0.24681 0.11401 0.18475 0.14323 -0.5327 -0.090949 0.090539 -0.33772 -0.085458 -0.11757 0.07983 0.029017 0.16412 0.074645 -0.19758 0.16894 -0.092542 0.14121 0.012816 0.042609 0.0034012 0.10492 0.26625 0.11369 0.25448 0.013989 0.36744 -0.29438 0.0014598 -0.25506 0.046593 0.044685 0.15527 -0.33002 
되|VV -0.0068376 -0.099744 0.14027 -0.027756 0.23057 -0.18737 -0.017901 -0.082454 -0.23507 0.11685 -0.030655 0.12895 -0.15964 -0.052778 -0.36908 -0.11348 -0.035583 -0.034343 0.19982 0.12797 -0.10007 0.07607 0.22514 -0.12395 -0.078252 -0.00096611 0.096466 -0.15575 0.044915 0.011489 -0.21575 0.099708 -0.11425 -0.0067223 0.010427 0.02477 -0.15655 0.006259 -0.17498 -0.061437 -0.27965 0.13136 -0.10402 -0.0020847 -0.026153 0.0062861 0.022205 -0.24552 -0.096648 0.067403 -0.035962 -0.060199 0.00081302 0.074725 -0.17966 0.042408 0.14857 0.049715 0.060318 -0.080135 0.036328 -0.016673 0.099215 0.17874 0.030271 -0.11255 -0.13959 -0.053422 -0.096539 0.034933 0.11877 0.16433 0.174 -0.27587 -0.12682 0.030644 -0.061534 0.18379 0.062683 0.13462 0.19268 -0.18562 0.1701 0.02938 0.20714 -0.040215 -0.26832 -0.081099 -0.26511 0.17927 -0.13503 0.14577 -0.22122 0.068657 -0.0092765 -0.16828 -0.1975 0.098935 -0.13118 0.05864 
취소|NNG 0.58936 0.043986 0.39455 -0.27443 -0.19624 0.3626 -0.53825 0.39691 -1.2449 -0.53142 0.43122 -0.78926 0.12264 -0.020727 0.0033972 -0.022012 -0.19177 -0.2883 -0.24839 0.056109 -0.25636 -0.69059 -0.58762 1.2862 -0.19503 0.64718 -0.31483 0.84844 -0.21053 -0.34385 0.56973 0.70238 0.86461 0.17889 0.18787 0.027181 -0.46487 0.069313 0.13845 0.29212 -0.6813 -0.36691 0.11984 -0.056433 -0.020268 0.18736 0.35867 0.15503 0.42597 0.083411 0.34309 -0.1601 0.23941 -0.3574 0.53263 0.87779 0.1685 -0.95067 0.81228 -1.2187 0.63678 -0.23888 -0.46858 0.41633 0.24133 -0.29528 0.20128 -0.059399 -0.69059 0.23105 0.97739 0.61576 0.27439 -0.53757 0.53572 -0.13336 -0.7813 0.0066019 0.52996 0.065192 0.78294 -0.17246 -0.086934 0.43919 0.2143 0.35028 -0.34649 -0.82187 0.32228 0.071469 -1.2128 0.58359 -1.2061 0.471 0.028483 0.32995 -1.1284 -0.44923 -0.053449 0.18748 
주|VX 0.30886 0.06356 -0.025808 -0.011491 0.13322 0.2188 -0.11345 0.045286 0.0035936 -0.022286 -0.090764 -0.047782 -0.16114 0.26487 0.2716 0.0056474 -0.079609 -0.11734 -0.30848 -0.10088 0.10651 0.13384 0.17395 -0.056646 -0.0063364 -0.035499 0.045119 0.18777 -0.029918 0.19574 0.073423 0.16503 0.032701 -0.17464 -0.014759 0.29673 -0.016886 0.14524 0.25097 0.053248 0.056911 0.15166 0.03649 0.22513 0.22096 0.045026 0.28093 -0.052736 0.017065 0.24652 -0.25442 0.18159 -0.18188 0.014709 0.069337 0.043296 -0.040338 -0.052421 0.081741 0.0093951 -0.16763 0.080747 0.028614 -0.0026371 0.13666 0.010806 2.3174e-05 0.061561 -0.015638 0.075676 -0.34374 0.25474 0.11571 -0.19257 -0.0023629 0.082303 0.005079 -0.056121 0.11105 -0.021632 0.13985 0.17114 0.10085 0.30987 0.21949 0.21684 0.086721 0.032818 0.35026 0.17231 0.18173 -0.061201 0.037882 -0.035233 -0.15875 -0.25359 -0.076803 -0.053859 0.064914 -0.33553 
날짜|NNG 0.29722 0.025526 0.10939 0.097207 0.5985 -0.044155 0.13648 -0.38435 -0.066529 0.057171 -0.4641 -0.1054 -0.18129 0.30104 -0.05237 -0.18756 -0.0046872 -0.12637 -0.14872 -0.090274 -0.12775 0.083362 0.26213 -0.51218 0.14386 0.099286 0.22353 -0.28826 0.21433 0.14375 -0.36566 0.50725 -0.32828 -0.38358 -0.17828 0.24303 -0.36244 0.46396 -0.1168 0.13511 -0.32631 0.093648 0.077175 0.56912 0.29271 -0.31149 0.26631 -0.31564 -0.14857 0.50706 -0.43891 -0.00067657 -0.2901 0.17016 0.03028 -0.049617 0.16907 0.12155 -0.29954 0.24208 -0.13519 0.015003 0.16427 0.40976 0.53426 0.066226 -0.24248 -0.42288 -0.026337 0.41665 -0.26055 0.15358 0.54744 -0.53578 -0.30221 0.016232 -0.073024 0.10222 0.036053 0.24165 0.088593 -0.29898 0.17506 0.57042 0.34935 -0.063304 -0.26373 0.062742 -0.1371 0.40943 0.18011 0.10101 0.15872 -0.12765 -0.24716 -0.31915 -0.39353 0.094467 -0.40409 -0.58031 
하|XSV 0.14003 0.15306 0.18947 -0.31401 -0.09767 0.044781 -0.041812 0.36307 -0.13366 0.20549 -0.085685 0.11605 -0.43707 0.046926 0.39083 0.3994 -0.14386 0.034269 -0.062092 -0.0106 0.060984 0.12579 0.12566 -0.020825 0.27245 0.1327 0.041467 -0.14319 -0.13921 -0.067609 0.012251 -0.43986 -0.1032 -0.5273 0.18706 0.023547 0.22737 0.34704 0.23536 0.14773 0.056591 0.1555 0.26699 -0.27393 -0.030632 -0.049069 0.24991 -0.11228 -0.11376 -0.23733 -0.21596 0.18081 -0.30627 0.13715 0.021889 0.096447 -0.39694 0.23185 0.30619 0.31561 -0.047198 0.10893 -0.11375 -0.26942 -0.24873 0.19858 -0.22804 0.53219 -0.050277 0.17333 -0.17611 0.18582 -0.25636 -0.19967 0.27214 -0.27955 -0.014842 -0.13153 -0.0044939 0.054174 0.32251 0.4456 0.32574 -0.45448 -0.067888 -0.18926 0.35393 0.34727 0.27651 -0.18092 0.092476 -0.32503 -0.087916 -0.2901 -0.091066 -0.29729 0.12938 -0.066035 0.46536 0.0092573 
말|NNG 0.027832 -0.15729 -0.72586 0.43206 -0.49078 0.32452 -0.56207 0.54697 0.19406 -0.45062 0.22513 -0.17857 0.68675 0.63619 0.57826 -0.39734 -0.32834 -0.019316 -0.68264 -0.16977 0.16147 0.051326 -0.13285 0.56258 -0.11646 -0.23651 -0.021675 0.7719 -0.18515 -0.082333 0.77942 -0.027826 0.69551 0.15481 0.17971 0.084828 0.024293 -0.21171 0.60581 -0.26949 0.73667 -0.2104 -0.12989 -0.10744 -0.2527 0.46472 -0.11649 0.37593 0.22448 0.11023 0.20422 0.12779 0.31557 -0.4368 0.24221 0.19712 -0.094584 -0.37698 -0.1544 -0.44563 -0.31951 -0.054246 0.14539 0.0035028 -0.42872 -0.27886 0.15248 0.44795 0.40184 -0.24648 -0.64311 -0.43614 -0.25355 0.22588 0.0030739 0.017267 0.048455 0.17176 0.43302 -0.36663 -0.51245 0.20739 -0.48729 0.20132 -0.40327 0.63661 0.26355 -0.31097 0.5586 -0.17639 0.12084 0.23507 0.17171 -0.054504 0.4869 0.22756 0.33882 -0.06254 0.14962 0.35725 
을까요|EC 0.088249 -0.061878 0.11013 0.030778 0.3156 -0.10138 -0.0098035 -0.18602 -0.19284 0.040467 -0.16319 -0.0084881 -0.088483 0.039924 -0.18435 -0.16078 -0.019501 -0.070047 0.048007 0.079916 -0.093168 0.03474 0.1655 -0.16385 -0.0064502 0.049098 0.086066 -0.18198 0.062925 0.029531 -0.21372 0.23935 -0.077064 -0.08645 -0.091409 0.053999 -0.23579 0.16964 -0.10605 -0.011799 -0.28593 0.081619 -0.030591 0.19324 0.083033 -0.057798 0.095972 -0.20086 -0.06486 0.19612 -0.17766 -0.061459 -0.10503 0.040667 -0.063895 0.059618 0.098392 0.03881 -0.051712 0.013678 -0.029564 0.036431 0.13779 0.25481 0.14558 -0.050381 -0.1477 -0.16821 -0.07348 0.11581 -0.0034714 0.1065 0.26876 -0.31573 -0.14941 0.014931 -0.042421 0.11326 0.081197 0.14879 0.10056 -0.15078 0.039799 0.14307 0.20226 -0.034196 -0.23066 0.012421 -0.15549 0.18739 -0.054924 0.12542 -0.032136 -0.008436 -0.050545 -0.19634 -0.19768 0.086045 -0.16467 -0.13808 
하|VV -0.13643 -0.06148 0.098696 0.0067098 0.21667 -0.069977 0.098889 -0.43282 0.0094443 0.088543 0.029829 -0.033479 -0.030193 -0.15059 -0.26715 -0.059799 0.075808 0.0071469 0.22419 0.0084027 0.08046 -0.11643 0.030681 -0.096299 0.012433 -0.1696 -0.041103 -0.22075 0.0017824 0.069283 -0.21112 0.035617 -0.090324 0.31507 -0.095525 -0.10202 -0.29022 -0.10458 -0.23806 0.023358 -0.052992 0.069897 -0.069867 0.1827 -0.07239 -0.086858 -0.027151 -0.054502 -0.059603 0.023949 -0.0365 0.070856 -0.058032 0.1762 -0.13375 -0.15466 -0.007734 0.15018 -0.10233 0.1413 -0.13995 -0.025898 0.039678 0.14269 0.107 -0.017065 0.08095 -0.22763 -0.10347 0.084262 0.016846 0.04915 0.01169 -0.070722 -0.092131 -0.0049035 0.080721 0.11682 -0.11921 0.10494 -0.11744 -0.10229 0.10473 0.029334 0.093663 -0.11034 -0.26002 -0.16349 -0.2133 0.094939 -0.054915 0.038729 0.15288 -0.081682 -0.079943 0.032666 0.058321 0.077915 -0.1038 -0.09261 
오후|NNG 0.094992 -0.39582 0.40274 -0.083619 0.45594 -0.62011 -0.45882 0.3865 -1.1602 0.13561 -0.082496 0.45777 -0.36017 -0.10735 -0.9446 -0.49536 -0.30143 -0.11417 0.47619 0.68476 -0.57689 0.31979 0.65702 -0.02946 -0.32968 0.33018 0.3467 -0.32251 0.051423 -0.22489 -0.4056 0.26393 0.10554 -0.36766 0.046163 0.09492 -0.2961 0.20675 -0.22877 -0.38176 -1.1201 0.32766 -0.34412 -0.37041 -0.022221 0.29332 0.077669 -0.83549 -0.23311 0.058698 -0.06081 -0.47536 0.075397 -0.16722 -0.48218 0.6382 0.41079 -0.10413 0.48852 -0.572 0.42662 0.055367 0.435 0.60139 -0.33937 -0.42738 -0.68641 0.25083 -0.28594 -0.16208 0.56588 0.46578 0.54948 -0.92728 -0.22302 0.052799 -0.37375 0.47107 0.60524 0.38358 0.87481 -0.40054 0.11431 -0.31476 0.54139 -0.050032 -0.68413 0.062634 -0.61805 0.39772 -0.68073 0.58878 -1.0204 0.35202 0.32647 -0.68112 -0.71356 0.2762 -0.13036 0.5969 
할|XSV+ETM 0.30913 0.11014 0.21964 -0.19729 0.0009924 0.18001 -0.087046 0.13078 -0.32359 -0.030344 0.080098 -0.14455 -0.19719 0.00028108 0.099145 0.18065 -0.041216 -0.13404 -0.10622 -0.010381 0.016487 -0.086459 -0.050846 0.24895 -0.012178 0.1737 -0.080384 0.23042 -0.061266 0.030144 0.087438 0.12912 0.12631 -0.089362 0.056673 0.13184 -0.028824 0.11104 0.1051 0.13038 -0.1801 0.026357 0.12218 -0.0016302 0.11478 0.023166 0.25364 0.0036313 0.077872 0.020861 -0.038619 0.071031 -0.077982 0.0031134 0.14209 0.20791 -0.024952 -0.17991 0.36841 -0.25494 0.13248 0.019214 -0.17817 -0.014514 0.13995 0.024931 0.01879 0.067819 -0.23484 0.10432 0.17116 0.3411 0.065863 -0.20026 0.20448 -0.023032 -0.18488 -0.10913 0.086258 0.014419 0.37344 0.11829 0.13681 0.12614 0.19508 0.082601 0.023629 -0.098958 0.25266 0.067689 -0.21449 0.004964 -0.33401 0.1003 -0.15252 -0.07677 -0.32124 -0.16514 0.10939 -0.13587 
거|NNB 0.25257 0.065417 0.043267 -0.14796 -0.2415 0.27361 -0.19945 0.29495 -0.28049 -0.2306 0.2435 -0.25512 -0.062976 0.035573 0.18221 0.173 -0.077676 -0.084127 -0.17032 -0.090849 0.052046 -0.17068 -0.1766 0.47666 -0.16782 0.10097 -0.17765 0.51534 -0.17944 0.0089702 0.36225 0.10973 0.32405 0.07405 0.17967 0.14668 0.07394 -0.12354 0.25051 0.15356 0.011159 -0.044659 0.0079962 -0.059133 0.038294 0.19929 0.1556 0.086702 0.17533 -0.014142 0.1552 0.070177 0.091023 -0.16771 0.18751 0.25369 -0.024496 -0.38599 0.37012 -0.38474 0.12864 -0.057816 -0.20426 -0.11912 -0.063043 -0.16194 0.27208 0.15643 -0.25426 -0.034517 0.19316 0.33574 -0.076816 0.039527 0.2657 0.048855 -0.20065 -0.10454 0.12511 -0.13075 0.36443 0.15256 0.057987 0.13016 0.070417 0.29475 0.14273 -0.23134 0.34016 -0.048612 -0.29445 0.012054 -0.4529 0.1955 -0.038312 0.12774 -0.18218 -0.23587 0.09747 0.098347 
한|XSA+ETM -0.037415 -0.18714 0.20991 -0.097175 0.0016103 -0.12801 -0.27869 0.11507 -0.60709 -0.098469 0.2348 0.0058261 -0.032789 -0.25059 -0.38792 -0.11859 -0.085033 -0.042488 0.27012 0.30947 -0.14701 -0.13351 0.00099402 0.38771 -0.22859 0.10335 -0.090249 0.029662 -0.13522 -0.14087 0.010279 0.046563 0.31938 0.23131 0.06251 -0.11559 -0.18244 -0.1442 -0.09198 -0.13061 -0.41876 0.038557 -0.17535 -0.24037 -0.13156 0.25328 -0.0080057 -0.177 0.035188 -0.13833 0.16678 -0.16315 0.13459 -0.1545 -0.13887 0.33636 0.063352 -0.21707 0.37678 -0.41261 0.22351 0.0019258 0.047708 0.21009 -0.25308 -0.25132 -0.027319 0.11664 -0.29776 -0.1494 0.45177 0.23788 0.012501 -0.1929 0.084257 0.014358 -0.18108 0.14469 0.23729 0.089623 0.35047 -0.062608 -0.067495 -0.26822 0.11987 0.034236 -0.26215 -0.16954 -0.16598 -0.014459 -0.53577 0.27009 -0.5164 0.20858 0.17509 -0.042038 -0.21097 0.015072 0.067979 0.42483 
있|VV 0.19764 0.023232 0.075281 0.068247 0.42695 -0.030709 0.090278 -0.28118 -0.05065 0.06061 -0.33188 -0.078882 -0.1176 0.20958 -0.031277 -0.14443 -0.0068112 -0.08125 -0.097495 -0.044163 -0.099195 0.066284 0.19616 -0.36134 0.12105 0.055448 0.1663 -0.22055 0.15091 0.08363 -0.25606 0.353 -0.23131 -0.26079 -0.12429 0.15429 -0.26987 0.3328 -0.081589 0.085102 -0.23165 0.069434 0.047258 0.37896 0.1851 -0.20652 0.16798 -0.21156 -0.1052 0.35981 -0.31069 -0.0022828 -0.20524 0.11874 0.014627 -0.029178 0.10499 0.085159 -0.22059 0.17158 -0.090122 0.026417 0.12028 0.28065 0.37327 0.039192 -0.17514 -0.29048 0.00065467 0.28463 -0.18436 0.081191 0.37167 -0.37779 -0.22123 0.0015274 -0.045436 0.067993 0.031045 0.15794 0.033218 -0.20713 0.10459 0.38116 0.23782 -0.055494 -0.1925 0.050609 -0.1036 0.27699 0.12331 0.068828 0.12009 -0.091745 -0.15486 -0.21976 -0.26557 0.0712 -0.26872 -0.39436 
오전|NNG 0.072772 -0.32738 0.29778 -0.041373 0.36398 -0.47499 -0.38636 0.28155 -0.92936 0.060508 -0.060264 0.31667 -0.23083 -0.078102 -0.74625 -0.41647 -0.2213 -0.10586 0.36725 0.53515 -0.44826 0.21674 0.48436 0.012753 -0.2848 0.25994 0.25734 -0.23158 0.035561 -0.17214 -0.30713 0.25554 0.12762 -0.23297 0.030186 0.057332 -0.27388 0.15428 -0.17099 -0.30444 -0.89645 0.22632 -0.29178 -0.26855 -0.021112 0.23939 0.063409 -0.64484 -0.17115 0.075088 -0.048245 -0.38281 0.061094 -0.15645 -0.35199 0.52412 0.32036 -0.10662 0.35505 -0.46655 0.31966 0.038247 0.36705 0.52223 -0.26847 -0.34446 -0.51827 0.16821 -0.23196 -0.13199 0.45189 0.34172 0.42523 -0.72722 -0.19638 0.043469 -0.29377 0.36885 0.49391 0.29658 0.66229 -0.33826 0.058456 -0.23007 0.41712 -0.035167 -0.55566 0.021284 -0.49641 0.29894 -0.55742 0.48463 -0.7764 0.27894 0.27339 -0.51814 -0.5454 0.22763 -0.11843 0.47165 
고|EC 0.19213 0.043995 0.050372 0.065233 0.38328 -0.011736 0.12797 -0.25565 0.02129 0.058649 -0.32802 -0.060936 -0.10028 0.23096 0.01457 -0.11319 0.0031949 -0.077316 -0.13589 -0.07717 -0.087472 0.063312 0.18125 -0.35578 0.13612 0.055066 0.16122 -0.16851 0.15591 0.10723 -0.2314 0.33328 -0.25284 -0.28049 -0.11937 0.18334 -0.21288 0.31742 -0.065648 0.1106 -0.17638 0.048178 0.086655 0.392 0.20166 -0.2352 0.17897 -0.18145 -0.10214 0.34665 -0.29454 0.00065582 -0.19312 0.13437 0.048875 -0.048434 0.099156 0.10167 -0.22261 0.19637 -0.0959 0.0086076 0.090927 0.23384 0.39121 0.079016 -0.16956 -0.28404 0.023146 0.29226 -0.2093 0.059301 0.36873 -0.33166 -0.20544 0.0050234 -0.041476 0.052965 0.0062316 0.13657 0.013931 -0.19223 0.12645 0.41608 0.20733 -0.041859 -0.13943 0.06323 -0.075887 0.26809 0.15951 0.044596 0.14969 -0.11647 -0.18373 -0.20606 -0.25589 0.046082 -0.26381 -0.42936 
수|NNB 0.18555 0.011013 0.075873 0.06877 0.41633 -0.036423 0.10289 -0.28817 -0.045554 0.044498 -0.3227 -0.075983 -0.10706 0.20235 -0.039309 -0.15213 -0.016867 -0.07629 -0.096662 -0.044979 -0.091984 0.066253 0.18876 -0.35256 0.11229 0.061985 0.16149 -0.215 0.15034 0.088037 -0.26222 0.3386 -0.22404 -0.26312 -0.12357 0.16218 -0.26534 0.33883 -0.080073 0.092648 -0.23598 0.065432 0.056501 0.39281 0.18741 -0.21936 0.17483 -0.20651 -0.10787 0.35442 -0.2991 -0.0096131 -0.19832 0.1276 0.013409 -0.024314 0.102 0.09426 -0.20611 0.17323 -0.087997 0.012525 0.12174 0.27774 0.35955 0.046164 -0.19289 -0.29089 -0.009712 0.28431 -0.18046 0.093577 0.38461 -0.38196 -0.22376 0.0063917 -0.052032 0.073067 0.018052 0.15745 0.046409 -0.20141 0.10666 0.39572 0.23854 -0.051589 -0.19031 0.048049 -0.10527 0.28133 0.12831 0.07821 0.12008 -0.10039 -0.16342 -0.22162 -0.26086 0.063334 -0.26196 -0.3925 
싶|VX 0.20364 0.045313 0.056414 0.061153 0.37903 -0.015867 0.1264 -0.25004 0.0086224 0.055112 -0.32013 -0.07846 -0.1055 0.23005 0.028094 -0.12361 -0.0054839 -0.082174 -0.1388 -0.095829 -0.083887 0.071644 0.16278 -0.36583 0.13543 0.073052 0.15477 -0.1684 0.15234 0.097934 -0.23755 0.32427 -0.23969 -0.28888 -0.11436 0.16881 -0.2106 0.33611 -0.054606 0.10658 -0.16767 0.052432 0.084469 0.38866 0.2004 -0.2187 0.17455 -0.17604 -0.10207 0.35941 -0.28901 0.018668 -0.18926 0.11851 0.037076 -0.057611 0.10597 0.10326 -0.22681 0.18149 -0.097045 0.017487 0.089256 0.23834 0.39196 0.065655 -0.17869 -0.28605 0.015766 0.28766 -0.21322 0.067385 0.36724 -0.34631 -0.21057 -0.0018831 -0.0332 0.040827 -0.0066344 0.14406 0.029494 -0.18509 0.11958 0.41783 0.20487 -0.043068 -0.13412 0.063119 -0.079778 0.27027 0.15961 0.050848 0.15047 -0.10766 -0.16999 -0.20076 -0.25169 0.048325 -0.26594 -0.42349 
겠|EP -0.033019 -0.029228 0.12004 -0.084112 -0.12205 0.30369 -0.02899 -0.35988 -0.0069395 -0.11058 0.42418 -0.16714 0.064379 -0.50164 0.013155 0.25745 0.1919 -0.055304 0.21841 0.11614 0.40707 -0.28622 -0.25899 0.44597 -0.23458 -0.25375 -0.48516 0.17141 -0.27486 0.20929 0.12035 -0.1572 0.40596 0.7516 -0.11507 -0.13534 -0.029312 -0.45644 -0.0015836 -0.077669 0.20281 0.093156 -0.048623 0.057051 0.0094885 0.28795 0.09844 0.31382 0.19091 -0.24277 0.075125 0.19867 -0.030564 -0.069474 0.0015491 -0.040365 -0.31981 -0.1749 0.39444 -0.11718 -0.15093 0.22248 -0.14668 -0.19376 -0.12344 -0.006198 0.51956 -0.060251 -0.28885 -0.25588 0.060578 0.17073 -0.38031 0.46085 0.24348 0.21754 0.23466 -0.27128 -0.12623 -0.14527 -0.096093 0.4488 -0.31502 -0.24233 0.034758 0.066387 0.13531 -0.020422 0.32419 -0.30479 -0.15049 -0.12894 0.24097 0.083171 -0.14783 0.10255 0.37551 -0.11915 0.40687 -0.054344 
바꿔|VV+EC 0.29272 0.2499 -0.073727 0.24431 0.26769 -0.14409 0.45364 0.12564 0.36117 0.33679 -0.52009 0.30182 0.19703 0.25801 -0.094666 -0.014845 0.032116 -0.17954 -0.15935 -0.016072 -0.18336 0.49087 0.27626 -0.54555 0.19715 0.281 0.23391 -0.035845 0.45566 0.031113 -0.27473 0.22093 -0.54181 -0.68488 -0.1966 0.22103 0.33346 0.339 -0.18969 -0.17407 -0.040201 -0.085293 0.39146 0.075584 0.35113 -0.30138 -0.0044756 0.079032 -0.15759 0.22469 -0.15901 -0.19778 0.038856 0.055694 0.15446 -0.20464 0.37753 0.088366 -0.14342 -0.10273 0.24767 0.098696 0.0059193 -0.050181 0.56744 0.41556 -0.55561 -0.25729 0.41978 0.24957 -0.10932 -0.39546 0.44981 -0.030938 -0.14616 0.14522 -0.0095234 -0.27022 -0.17394 -0.12056 -0.029484 -0.29589 0.019071 0.37375 0.078788 -0.29024 0.10181 0.4723 -0.11046 0.15017 0.4349 0.13519 0.21777 0.068697 -0.21119 -0.23508 -0.50605 0.072175 -0.217 -0.48908 
일|NNG 0.29473 0.079112 0.056996 0.098808 0.54168 0.010891 0.18764 -0.34336 0.04257 0.067988 -0.46795 -0.11677 -0.15728 0.3421 0.065076 -0.14276 -0.012153 -0.12457 -0.2144 -0.15052 -0.096207 0.10219 0.23438 -0.51652 0.19069 0.083435 0.21319 -0.22914 0.22896 0.14602 -0.31453 0.48502 -0.36895 -0.41367 -0.16973 0.26457 -0.29666 0.47027 -0.081358 0.17638 -0.23743 0.056481 0.12451 0.5696 0.29814 -0.33971 0.24716 -0.24686 -0.12676 0.50267 -0.42834 0.035431 -0.27643 0.18312 0.066953 -0.095322 0.15591 0.11844 -0.33552 0.27523 -0.132 0.012406 0.10393 0.3231 0.55673 0.11006 -0.21549 -0.4165 0.026059 0.42211 -0.30978 0.10976 0.50784 -0.46566 -0.27763 0.01822 -0.059912 0.047007 -0.006745 0.18236 0.036217 -0.26919 0.19362 0.61539 0.29975 -0.056539 -0.17227 0.07656 -0.070428 0.39191 0.2478 0.054956 0.19306 -0.15244 -0.27241 -0.26778 -0.35251 0.071275 -0.38726 -0.61425 
배송|NNG -0.19317 -0.048398 0.16088 -0.40469 -0.4328 -0.015009 -0.17174 0.099208 0.35372 -0.65795 0.11747 -0.17748 -0.39893 -0.34077 0.30808 -0.23408 0.57008 0.35849 -0.39684 -0.16535 -0.53396 -0.24852 -0.66356 -0.23884 -0.49182 0.334 0.32727 0.22005 0.2245 0.18732 0.25724 0.77681 0.0991 0.44717 -0.24391 0.30108 0.53906 -0.23727 0.25325 0.47039 -0.6365 -0.2018 -0.91604 0.17234 0.79148 -0.2985 -0.39611 -0.044313 0.6011 0.28683 0.16048 -0.30654 0.19037 -0.27815 0.021321 0.15118 0.59339 -0.2953 -0.55564 0.20479 0.69967 -0.40252 -0.23493 -0.20395 0.17221 -0.22707 0.90072 -0.48387 -0.31501 -1.0132 1.0229 0.67313 0.23557 0.5056 -0.12434 0.33519 -0.24489 -0.13063 0.041732 0.099175 0.24313 -0.44668 -0.16802 0.50585 0.21303 0.67179 -0.088507 -0.35976 0.19976 0.50367 0.10307 -0.52705 -0.5544 0.89097 -0.037444 0.7286 -0.010807 -0.31926 -0.61811 -0.1217 
뭐|NP 0.16873 -0.15504 -0.8013 0.49258 -0.53886 0.4968 -0.62337 0.54131 0.13085 -0.63378 0.32715 -0.31626 0.78058 0.64679 0.62797 -0.34515 -0.33536 -0.098076 -0.74221 -0.19886 0.2655 -0.026677 -0.21142 0.75417 -0.2976 -0.27375 -0.18279 1.045 -0.28519 0.020815 0.94073 0.10608 0.85766 0.28088 0.20093 0.17375 0.03966 -0.38375 0.71976 -0.24945 0.84238 -0.23209 -0.1322 0.0095299 -0.20002 0.61861 -0.037517 0.47084 0.30015 0.19804 0.28158 0.15441 0.39004 -0.60776 0.34971 0.25135 -0.09153 -0.62093 -0.051492 -0.62658 -0.33362 -0.015799 0.14368 -0.031188 -0.42945 -0.39692 0.3564 0.37419 0.31202 -0.28706 -0.69512 -0.36679 -0.25596 0.37771 0.042791 0.17489 0.042157 0.098007 0.46887 -0.49181 -0.46333 0.26315 -0.62107 0.37913 -0.37697 0.83011 0.3612 -0.36679 0.71391 -0.25265 0.056716 0.28716 0.13345 0.035524 0.4717 0.26617 0.33592 -0.12738 0.10781 0.36103 
게|NNB+JKS 0.25349 0.16185 0.26665 -0.22006 -0.089024 0.10744 0.024884 0.24265 -0.26709 0.074023 0.099342 -0.028975 -0.17265 -0.14879 0.0056102 0.28363 -0.00017455 -0.12244 0.022304 0.043944 -0.02377 -0.0043143 -0.05898 0.26082 -0.01036 0.25993 -0.11544 0.22152 -0.014022 -0.02399 0.070018 0.0039103 0.04019 -0.13992 0.067786 0.072177 0.18167 0.05193 0.021124 0.070646 -0.15917 -0.023186 0.20277 -0.17793 0.11467 0.019489 0.16949 0.082738 0.065295 -0.13308 0.056703 -0.0071719 0.016919 -0.011524 0.14416 0.16174 0.013641 -0.17974 0.46302 -0.30669 0.2775 0.035615 -0.24949 -0.15811 0.095442 0.12242 -0.048629 0.10207 -0.16615 0.060122 0.33727 0.25156 0.010195 -0.024114 0.28824 -0.0088007 -0.179 -0.22308 -0.0023611 -0.059882 0.42375 0.10988 0.12334 -0.04592 0.11184 -0.071217 0.10604 0.056815 0.19137 -0.058587 -0.2153 -0.014507 -0.38044 0.17116 -0.16688 -0.030908 -0.333 -0.1721 0.18392 -0.058068 
습니다|EF 0.0072236 -0.080887 0.099333 0.097297 0.19279 0.19152 -0.028316 -0.565 -0.018096 0.013259 0.049461 -0.1881 0.31417 -0.34095 0.19947 -0.01484 0.099249 -0.062308 0.087434 0.27609 0.28981 -0.24828 -0.22329 0.2874 0.18465 -0.10951 -0.3506 -0.26846 -0.12991 0.009421 -0.10135 -0.1183 0.39008 0.45263 -0.33811 -0.36423 -0.32223 0.086482 -0.10518 -0.20709 0.12744 -0.019297 0.21401 0.14854 -0.025408 0.085644 0.17916 0.36005 0.097585 -0.14567 -0.26999 0.12671 -0.28568 -0.024302 0.1133 -0.023299 -0.53314 0.078329 0.14658 0.14507 -0.30147 0.37981 0.014131 0.13814 0.015278 0.29719 -0.0071969 -0.10196 -0.010465 0.050138 -0.27145 -0.3181 -0.20798 0.10224 0.12875 -0.027477 0.31806 -0.26977 -0.03594 0.048078 -0.4654 0.44918 -0.60303 -0.37661 -0.15276 -0.33488 0.040858 0.32308 0.26415 -0.34584 0.025696 -0.0018788 0.78662 -0.31924 -0.052493 -0.11695 0.33194 0.033006 0.52489 -0.31365 
시|NNG 0.32991 0.11875 0.043317 0.088556 0.4788 0.057101 0.20021 -0.32039 0.074574 0.027513 -0.45696 -0.15356 -0.15785 0.35443 0.11021 -0.099527 0.01011 -0.12761 -0.26496 -0.19171 -0.07571 0.089152 0.19598 -0.50051 0.1614 0.08502 0.18728 -0.13973 0.2069 0.17266 -0.26901 0.49701 -0.36843 -0.41206 -0.14494 0.30313 -0.23375 0.44035 -0.02228 0.22241 -0.17389 0.048589 0.13728 0.58089 0.32688 -0.3259 0.26765 -0.22047 -0.11759 0.51663 -0.40611 0.046635 -0.26658 0.16868 0.10531 -0.097444 0.1662 0.089673 -0.31675 0.26551 -0.11953 -0.011455 0.079988 0.26535 0.59177 0.11275 -0.17703 -0.41306 0.026874 0.4216 -0.3103 0.13347 0.50481 -0.42789 -0.26443 0.034774 -0.066602 0.022582 -0.037369 0.15768 0.053342 -0.25341 0.20868 0.66539 0.30374 -0.008461 -0.12731 0.075994 -0.02541 0.38497 0.26618 0.012493 0.19693 -0.12982 -0.29375 -0.24254 -0.36136 0.033367 -0.40338 -0.65988 
변경|NNG 0.39817 0.42317 -0.39132 0.49935 -0.14247 -0.038283 0.573 0.62708 0.63657 0.22323 -0.56782 0.36914 0.67936 0.35451 0.15473 0.1022 0.0058662 -0.22304 -0.37523 -0.031222 -0.21913 0.66286 0.054381 -0.31769 0.12147 0.51331 0.12368 0.35361 0.52282 -0.066069 0.045432 0.1749 -0.42703 -0.94879 -0.19488 0.23509 0.88546 0.27386 0.01012 -0.35864 0.23633 -0.34468 0.63101 -0.14951 0.46122 -0.16662 -0.1205 0.44577 -0.047945 0.11911 0.060245 -0.40857 0.30571 -0.3321 0.43796 -0.13064 0.45413 -0.21808 -0.042259 -0.43272 0.50526 0.19465 -0.073673 -0.32206 0.5039 0.56127 -0.62924 -0.14718 0.76259 0.12899 -0.0992 -0.91515 0.37915 0.49767 0.01258 0.29873 -0.0046958 -0.61264 -0.22515 -0.46928 -0.1264 -0.18603 -0.46195 0.28509 -0.23248 -0.32974 0.57934 0.89061 0.13293 -0.2192 0.55363 0.18373 0.33243 0.20104 -0.09389 -0.1141 -0.52581 -0.047952 -0.054831 -0.36858 
될까요|VV+EC 0.22074 -0.079053 0.16971 0.047139 0.47429 -0.14503 -0.022354 -0.1882 -0.35025 0.032987 -0.26642 0.016646 -0.1588 0.10042 -0.27242 -0.23111 -0.057842 -0.13261 0.050795 0.1371 -0.19788 0.087278 0.2869 -0.26186 -0.038603 0.11945 0.15479 -0.21425 0.13336 0.051304 -0.31257 0.40092 -0.11909 -0.23418 -0.13138 0.15547 -0.29734 0.2816 -0.13756 -0.022866 -0.48677 0.12244 -0.037344 0.26541 0.18495 -0.077025 0.17048 -0.3535 -0.10491 0.32553 -0.24677 -0.12828 -0.12614 0.01532 -0.088822 0.13172 0.20401 -0.0042465 -0.028214 -0.041366 0.029791 0.047738 0.19875 0.38733 0.25101 -0.071726 -0.25997 -0.25086 -0.11008 0.1835 0.022026 0.19451 0.4492 -0.49383 -0.22182 0.072584 -0.11669 0.14434 0.15779 0.21531 0.24302 -0.25126 0.061227 0.28138 0.33682 -0.030784 -0.33322 0.044591 -0.2135 0.31059 -0.095089 0.23178 -0.14084 0.040766 -0.087752 -0.3268 -0.40228 0.11451 -0.25302 -0.20985 
몇|MM -0.07274 -0.22917 0.19065 -0.025323 0.15914 -0.22593 -0.23055 -0.0037759 -0.52167 -0.016271 0.13938 0.12265 -0.033655 -0.25649 -0.47832 -0.21255 -0.067517 -0.04672 0.34212 0.38022 -0.13466 -0.024833 0.14186 0.18975 -0.22939 0.049293 -0.029214 -0.14574 -0.075532 -0.097528 -0.14918 0.060363 0.23523 0.18514 -0.032209 -0.10773 -0.21221 -0.096751 -0.15671 -0.22573 -0.45326 0.117 -0.21255 -0.17373 -0.084812 0.23311 -0.00031887 -0.24797 -0.028525 -0.080138 0.048804 -0.19801 0.060658 -0.13019 -0.21388 0.26518 0.07595 -0.10564 0.28359 -0.29767 0.13991 0.075519 0.18581 0.27184 -0.24727 -0.21875 -0.13039 0.044421 -0.20089 -0.16885 0.3169 0.16404 0.097772 -0.22998 -0.040103 0.067512 -0.073902 0.1742 0.23552 0.13403 0.2449 -0.080909 -0.15594 -0.28179 0.17469 -0.021524 -0.31842 -0.042223 -0.25862 0.022802 -0.41024 0.27282 -0.32503 0.16068 0.16894 -0.19334 -0.14464 0.12354 0.054903 0.34687 
할게요|XSV+EC 0.25037 0.17735 0.14282 -0.28378 -0.18239 0.26789 -0.0099119 0.29177 -0.094009 -0.027952 0.11071 -0.012528 -0.45852 -0.046606 0.27171 0.49341 -0.018409 -0.052217 -0.071321 -0.1253 0.18121 0.065393 0.064404 0.076952 -0.12452 0.011719 -0.12783 0.24477 -0.19583 0.18425 0.15004 -0.17868 -0.03909 -0.20387 0.17857 0.2315 0.35461 -0.037546 0.30371 0.20303 0.095397 0.20117 0.072933 -0.069367 0.15628 0.1242 0.25729 -0.075289 0.015891 -0.089133 -0.054893 0.1995 -0.12307 -0.013755 0.023393 0.070837 -0.16418 -0.079235 0.39307 0.084003 0.00088531 0.08151 -0.16335 -0.39403 -0.15449 -0.012154 0.1892 0.31575 -0.21907 -0.028387 -0.057284 0.4618 -0.22031 0.1114 0.25465 0.062035 -0.011586 -0.22787 -0.05792 -0.12046 0.48506 0.40565 0.30078 -0.12829 0.12389 0.13332 0.42521 0.18128 0.37408 -0.11263 0.04902 -0.34725 -0.25511 0.046568 -0.20844 -0.1503 0.10447 -0.1602 0.2578 -0.029071 
구매|NNG 0.39219 0.32238 0.38628 -0.57039 -0.2885 0.26331 0.022102 0.59892 -0.14187 0.15182 0.1677 0.16395 -0.75804 -0.18458 0.27886 0.71408 0.046279 -0.098169 -0.076244 -0.096166 0.1159 0.20261 0.090558 0.09685 -0.14514 0.19507 -0.094292 0.40077 -0.13913 0.23117 0.17807 -0.24558 -0.13303 -0.33081 0.24654 0.41333 0.68035 -0.027196 0.34576 0.24247 -0.075129 0.27154 0.12949 -0.32352 0.36106 0.079986 0.33722 -0.057639 0.057624 -0.23872 -0.02565 0.2075 -0.13452 0.055504 0.046963 0.12687 -0.086756 -0.1157 0.74312 -0.12315 0.29372 0.071924 -0.40047 -0.69091 -0.083524 0.11035 0.17968 0.46884 -0.32935 -0.16716 0.30688 0.79614 -0.23226 0.11923 0.47579 0.092592 -0.14838 -0.41786 -0.11011 -0.15198 0.90835 0.49863 0.5643 -0.16901 0.30926 0.13909 0.52182 0.2169 0.56147 -0.018899 -0.0062228 -0.50651 -0.68857 0.30422 -0.39402 -0.19381 -0.14145 -0.31296 0.4252 -0.10128 
시|NNBC -0.060238 -0.23297 0.19613 -0.01271 0.15092 -0.22973 -0.22843 0.00050309 -0.5177 -0.0094264 0.13109 0.11687 -0.029671 -0.26561 -0.46133 -0.20499 -0.058564 -0.038 0.32556 0.38353 -0.14841 -0.028323 0.14167 0.19163 -0.22393 0.047169 -0.024173 -0.15286 -0.075344 -0.09783 -0.14058 0.068372 0.22882 0.19374 -0.037359 -0.11108 -0.21813 -0.10204 -0.16051 -0.22195 -0.44987 0.11254 -0.2164 -0.17251 -0.075735 0.23986 -0.01125 -0.23717 -0.028094 -0.079766 0.054247 -0.20145 0.073669 -0.11494 -0.22788 0.27586 0.076321 -0.10809 0.28451 -0.29538 0.14399 0.081705 0.17993 0.26983 -0.23769 -0.21697 -0.12902 0.057668 -0.21728 -0.16841 0.31693 0.15664 0.091065 -0.22103 -0.047242 0.066051 -0.071934 0.16334 0.24557 0.13447 0.23655 -0.084014 -0.15033 -0.2731 0.16055 -0.025917 -0.30869 -0.036637 -0.2585 0.025291 -0.4101 0.27227 -0.32545 0.17238 0.17391 -0.18652 -0.14407 0.11558 0.040765 0.34802 
사이즈|NNG 0.13405 0.32161 -0.041001 -0.054239 -0.24171 0.030386 0.36512 0.45125 0.45923 0.32934 -0.12211 0.41297 -0.06459 -0.058179 0.14871 0.43878 0.070228 -0.045376 -0.05103 -0.023343 0.063638 0.46764 0.13188 -0.2252 0.049353 0.13372 0.0026713 0.14922 0.15759 0.10445 0.003441 -0.34032 -0.36202 -0.46497 0.010871 0.16365 0.7997 -0.023254 0.073007 -0.12935 0.28439 0.034369 0.31997 -0.33859 0.25332 -0.035083 -0.050151 0.22109 -0.072333 -0.23027 0.055272 -0.015595 0.067405 -0.012379 0.06973 -0.21922 0.048817 0.082635 0.23913 -0.040329 0.2459 0.16583 -0.1724 -0.62852 0.026089 0.38389 -0.19523 0.2707 0.29795 -0.13939 -0.0264 -0.19232 -0.17535 0.47382 0.20777 0.15801 0.12959 -0.48866 -0.32025 -0.31037 0.16374 0.25617 0.086065 -0.23766 -0.085794 -0.22755 0.57298 0.62965 0.21872 -0.21736 0.41366 -0.29936 0.075058 0.11488 -0.18338 -0.12029 0.033005 -0.084395 0.31872 -0.12572 
끊|VV -0.25706 -0.26809 0.096222 0.22679 0.27583 0.14302 0.0070997 -1.0639 -0.068894 -0.17191 0.35021 -0.3538 0.58205 -0.66545 -0.35378 -0.23792 0.28797 -0.069439 0.44686 0.35206 0.33608 -0.55803 -0.39605 0.45975 -0.1564 -0.32355 -0.56073 -0.22351 -0.14184 0.076377 -0.17084 0.13383 0.57666 1.2386 -0.46908 -0.53049 -0.65233 -0.42727 -0.45075 -0.28136 0.021277 -0.094396 -0.10633 0.3252 -0.13345 0.19374 -0.053002 0.43412 0.21388 -0.11961 0.03047 0.026842 -0.033137 -0.081723 -0.018105 -0.10528 -0.3005 -0.11886 0.071275 -0.13027 -0.27718 0.29037 0.061046 0.3747 0.10106 0.043427 0.38153 -0.56816 -0.20055 -0.13351 0.062676 -0.34157 -0.18427 0.34285 -0.002861 0.20042 0.36796 -0.083744 -0.061824 0.043103 -0.75436 0.17387 -0.8769 -0.20722 -0.097384 -0.1682 -0.36759 -0.1708 -0.053224 -0.3068 -0.27261 0.26071 0.8067 -0.083015 -0.0082774 0.19882 0.35812 0.085133 0.23839 -0.16407 
통화|NNG 0.18984 0.091842 -0.1611 0.097495 -0.030414 0.29924 0.13733 -0.13281 -0.34656 -0.53023 0.0065116 -0.59929 -0.20137 0.26011 -0.026846 0.36147 -0.12621 -0.025965 0.12562 -0.46708 0.14428 -0.41052 -0.044605 0.033129 -0.32187 -0.1492 -0.26564 0.20526 -0.34303 0.12814 0.16063 0.20519 -0.17111 -0.19937 0.41564 0.15786 -0.2389 -0.17592 0.1279 0.55089 0.079912 0.017224 0.028713 0.57409 -0.22802 0.16313 0.19897 -0.46782 -0.15888 0.29585 0.20857 0.054088 0.07268 -0.1817 0.052192 0.05528 0.034272 -0.35629 -0.11129 0.2143 -0.19899 -0.22272 0.094986 0.11031 -0.024636 -0.60254 0.48376 -0.28937 -0.45114 0.52765 -0.2259 0.29948 0.054323 0.03598 -0.12498 0.07403 -0.13528 0.28118 -0.055222 -0.034687 0.27331 -0.14666 0.23525 0.40212 0.0056959 0.29374 0.19635 -0.26759 -0.266 -0.15482 -0.31739 0.043815 -0.29492 -0.13681 -0.075099 0.097313 0.069004 -0.011764 -0.6052 0.27317 
못|MAG -0.13202 -0.011203 -0.36165 0.085566 -0.40052 0.058152 -0.16112 0.46357 0.28271 -0.011971 0.20792 0.13876 0.17252 0.3014 0.17545 -0.020919 -0.14477 0.047183 -0.22813 -0.18712 0.11581 0.17181 0.041106 0.16452 -0.040501 -0.20064 0.074727 0.42258 -0.066227 -0.027948 0.37821 -0.28929 0.091499 0.025998 0.26116 0.082938 0.26805 -0.27376 0.27575 -0.096455 0.51736 -0.039719 -0.067601 -0.30421 -0.22227 0.18429 -0.1908 0.16963 0.022411 -0.12127 0.26969 0.12847 0.26384 -0.045559 -0.00056577 -0.062763 0.039137 -0.02704 -0.041436 -0.18546 -0.096138 -0.14026 -0.02869 -0.2763 -0.30719 -0.12432 0.095071 0.39468 0.24848 -0.19969 -0.21699 -0.12569 -0.27444 0.23098 0.053652 -0.035405 0.011257 0.095632 0.052398 -0.25233 -0.1273 0.079323 0.15246 -0.0043824 -0.2175 0.30275 0.20106 -0.23579 0.18263 -0.065779 0.12873 -0.025637 -0.12271 0.02884 0.22027 0.20307 0.22298 -0.038205 0.071122 0.33676 
색상|NNG 0.23148 0.28014 -0.039581 0.0036398 -0.17837 0.04961 0.26294 0.46227 0.32672 0.23677 -0.15812 0.31777 0.0088151 0.012626 0.19763 0.32877 0.038859 -0.10282 -0.13201 0.026936 0.029341 0.39121 0.098534 -0.11505 0.024919 0.20274 -0.0025006 0.21712 0.13369 0.087849 0.046625 -0.16456 -0.20551 -0.46863 -0.041894 0.20676 0.65525 0.08366 0.14781 -0.12993 0.15687 0.018803 0.31345 -0.23944 0.31156 0.0030937 0.067676 0.19174 -0.0087323 -0.11932 -0.042973 -0.045099 0.02087 -0.095471 0.14204 -0.045827 0.0281 -0.053791 0.29058 -0.13321 0.23844 0.19803 -0.14106 -0.43552 0.094447 0.33161 -0.20973 0.20524 0.26933 -0.074906 -0.026038 -0.17684 -0.040711 0.30816 0.19027 0.16292 0.067915 -0.46063 -0.14941 -0.2576 0.19449 0.26536 -0.076026 -0.1122 -0.0083472 -0.13676 0.50401 0.58744 0.33227 -0.18286 0.32049 -0.18017 0.061482 0.13394 -0.173 -0.2079 -0.092677 -0.10221 0.30464 -0.20728 
한가요|XSA+EC 0.1757 0.030851 0.050515 0.054115 0.31725 -0.012375 0.070229 -0.16879 -0.048494 0.031618 -0.26783 -0.037255 -0.086809 0.17509 -0.015074 -0.10849 -0.021097 -0.064943 -0.089584 -0.037592 -0.08044 0.07263 0.14982 -0.26589 0.079209 0.081414 0.12512 -0.15003 0.12079 0.078477 -0.18353 0.2838 -0.17323 -0.24288 -0.090212 0.15323 -0.17168 0.26713 -0.050359 0.061756 -0.18099 0.050882 0.057673 0.28277 0.18214 -0.15907 0.14754 -0.17117 -0.081071 0.28054 -0.23502 -0.019917 -0.14653 0.070021 0.012419 -0.017191 0.095575 0.054893 -0.1366 0.10432 -0.040623 0.030176 0.085893 0.20895 0.28946 0.046697 -0.15574 -0.22199 -0.00070823 0.21322 -0.14036 0.061661 0.30747 -0.28452 -0.15463 0.027117 -0.049628 0.033646 0.018009 0.11046 0.04881 -0.14814 0.064505 0.30934 0.1815 -0.034346 -0.12423 0.066827 -0.06852 0.21393 0.10193 0.066904 0.079627 -0.071328 -0.13479 -0.19961 -0.23786 0.053694 -0.18884 -0.32124 
날|NNG 0.16758 0.088103 -0.0070073 0.067698 0.24456 0.038375 0.14678 -0.17458 0.10568 0.034242 -0.27304 -0.092198 -0.072422 0.22786 0.11389 -0.040156 0.0012343 -0.05366 -0.16963 -0.15913 -0.030819 0.05423 0.10326 -0.29833 0.1304 0.041711 0.12098 -0.079371 0.12666 0.090989 -0.13155 0.23929 -0.2251 -0.25993 -0.072924 0.16386 -0.097936 0.25531 -0.0024736 0.12379 -0.034942 0.0056529 0.096419 0.3236 0.17541 -0.21003 0.13662 -0.097986 -0.07159 0.27404 -0.21354 0.050371 -0.13785 0.12011 0.07721 -0.086457 0.073906 0.078885 -0.22787 0.18296 -0.091345 -0.01998 0.023037 0.11463 0.34289 0.074931 -0.098208 -0.22348 0.049043 0.25302 -0.20429 0.035989 0.26139 -0.18832 -0.14101 0.013454 -0.015422 -0.00043541 -0.046263 0.066645 -0.0089658 -0.12368 0.12859 0.37138 0.12985 -0.017824 -0.029834 0.052999 0.0074351 0.19865 0.19378 -0.019194 0.15493 -0.10381 -0.17838 -0.1068 -0.16269 0.012081 -0.22466 -0.37455 
게요|NNB+VCP+EC 0.048898 0.22957 -0.23414 0.19501 -0.32514 -0.037138 0.31733 0.48121 0.42398 0.14529 -0.10975 0.27433 0.40632 0.034064 0.065982 0.17867 0.02862 -0.047682 -0.092134 -0.0029328 -0.062229 0.34797 -0.06068 -0.025168 0.029056 0.21826 -0.010929 0.27774 0.22088 -0.093657 0.13404 -0.18495 -0.19232 -0.35088 -0.0072607 -0.0072601 0.66566 -0.065402 -0.0095753 -0.23419 0.30357 -0.23253 0.32036 -0.35726 0.093859 -0.018097 -0.23697 0.38428 0.0061843 -0.20107 0.246 -0.21141 0.3204 -0.19141 0.20923 -0.12971 0.19722 -0.11685 0.070746 -0.3029 0.33507 0.059534 -0.13297 -0.4016 0.048707 0.3108 -0.23159 0.10953 0.44357 -0.11179 0.068528 -0.56274 -0.07481 0.54963 0.14317 0.13249 0.044635 -0.36907 -0.20486 -0.35807 -0.12975 -0.010629 -0.22618 -0.1211 -0.29831 -0.19032 0.43758 0.42855 0.070866 -0.30586 0.26943 0.0064125 0.11924 0.16746 0.051494 0.12108 -0.10019 -0.06021 0.10948 0.074955 
알|VV -0.40657 -0.18335 0.21083 -0.082582 0.1558 -0.097511 0.10992 -0.73367 -0.018311 0.080234 0.3249 -0.078092 0.01573 -0.55378 -0.48415 -0.0046266 0.22586 0.08404 0.54868 0.1331 0.19828 -0.36528 -0.15404 0.10574 -0.079049 -0.33348 -0.26145 -0.35828 -0.11377 0.048317 -0.2677 -0.14413 0.079796 0.84326 -0.14155 -0.37344 -0.4003 -0.40761 -0.43402 -0.028017 -0.045124 0.062291 -0.21171 0.082356 -0.2498 0.017929 -0.14509 0.062472 0.017786 -0.23258 0.12117 0.083459 -0.022298 0.21554 -0.24534 -0.23084 -0.13522 0.18071 -0.0071184 0.15508 -0.17777 -0.0019975 -0.01337 0.12158 -0.042066 -0.077902 0.33206 -0.30133 -0.26391 -0.10105 0.25323 0.051153 -0.22712 0.16389 -0.037341 0.016737 0.20661 0.10874 -0.21745 0.15372 -0.27043 -0.021183 -0.024947 -0.27281 0.025867 -0.20208 -0.35756 -0.28685 -0.33648 -0.060822 -0.23817 0.016774 0.23416 -0.047337 -0.036908 0.21144 0.30403 0.10199 0.024502 0.079775 
고를|VV+ETM 0.092341 0.23098 -0.033268 0.071979 -0.10897 -0.082566 0.36183 0.3034 0.28047 0.22744 -0.19617 0.28198 0.11664 -0.02556 -0.05109 0.22427 0.056605 -0.053365 0.022887 0.016449 -0.10498 0.32726 0.050176 -0.20318 0.067119 0.23416 0.055649 0.052906 0.2427 -0.037681 -0.081561 -0.11311 -0.34888 -0.42994 -0.035947 0.055591 0.54629 0.058867 -0.097034 -0.11886 0.078094 -0.11486 0.30524 -0.24155 0.16595 -0.11439 -0.1221 0.16493 -0.069703 -0.13257 0.11633 -0.18472 0.15964 -0.049591 0.10383 -0.14233 0.21021 -0.0026816 0.072822 -0.1315 0.32292 0.065106 -0.11635 -0.32427 0.15641 0.30835 -0.27689 0.0083015 0.27441 0.0099984 0.13764 -0.31521 0.053074 0.31029 0.08602 0.11704 0.0084227 -0.34149 -0.23325 -0.20857 0.077321 -0.077258 -0.019102 -0.068656 -0.11426 -0.28425 0.29827 0.45638 -0.060765 -0.14569 0.22644 -0.03435 0.026589 0.13992 -0.090088 -0.020801 -0.20773 -0.028601 0.02377 -0.047797 
그거|NP 0.66139 0.34079 0.31674 -0.36181 -0.16207 0.41582 -0.052515 0.59074 -0.15376 0.23379 0.047267 0.22535 -0.51818 -0.13402 0.53159 0.70027 -0.066086 -0.24464 -0.21271 0.12136 0.2718 0.3729 0.20488 0.2082 -0.007466 0.20581 -0.1886 0.35002 -0.15415 0.24866 0.13576 -0.33518 0.034951 -0.4778 0.048698 0.35979 0.66739 0.17588 0.42045 -0.040323 0.093562 0.3231 0.41576 -0.29698 0.44626 0.22402 0.52742 0.11781 0.017851 -0.21483 -0.30986 0.24091 -0.29292 -0.078583 0.16703 0.17708 -0.33768 -0.11617 0.93686 -0.17133 0.10901 0.43481 -0.25956 -0.62256 -0.084596 0.38171 -0.17491 0.62108 -0.1119 -0.058355 -0.18243 0.45941 -0.24657 0.08395 0.53155 0.15342 0.068421 -0.64866 -0.001842 -0.24621 0.65238 0.88269 0.032147 -0.34516 0.1974 -0.007353 0.72535 0.69587 0.84918 -0.26247 0.20971 -0.40484 -0.1546 0.04975 -0.39832 -0.57637 -0.039082 -0.2645 0.88304 -0.34558 
해|VV+EC -0.19836 -0.11842 -0.034767 -0.25968 -0.27422 0.1356 -0.32703 0.10377 -0.052885 -0.068104 0.47922 -0.026983 -0.35398 0.015545 0.046714 0.1105 -0.079141 0.11552 0.032389 -0.18767 0.28412 -0.14339 0.066775 0.25492 -0.1782 -0.44158 -0.056006 0.23735 -0.35254 0.13893 0.26867 -0.33211 0.22132 0.42996 0.33579 0.10806 -0.11352 -0.40976 0.25867 0.14393 0.30376 0.22902 -0.3432 -0.11714 -0.3021 0.26806 0.0082644 -0.12061 0.03425 -0.14402 0.16803 0.36952 0.021796 0.15405 -0.23639 -0.032365 -0.18343 0.027911 0.15828 0.036667 -0.30493 -0.15937 -0.046186 -0.20924 -0.43953 -0.38836 0.47427 0.38724 -0.23179 -0.23661 -0.10147 0.50228 -0.41774 0.037161 0.087908 -0.050655 0.020589 0.24156 0.058113 -0.048073 0.18982 0.25279 0.47556 -0.092512 0.10429 0.41412 -0.0078909 -0.51965 0.2134 0.079458 -0.1462 -0.19817 -0.35059 0.000243 0.061352 0.13476 0.41015 -0.081431 0.1484 0.34577 
려고|EC 0.24928 0.13583 0.24088 -0.31563 -0.17259 0.19493 -0.059657 0.27604 -0.18402 -0.0093942 0.16564 -0.019242 -0.35826 -0.14222 0.14683 0.3504 0.026682 -0.080008 -0.04324 -0.0172 0.067081 -0.00089298 -0.034991 0.21885 -0.12936 0.13024 -0.11762 0.30173 -0.11838 0.12163 0.14989 -0.040598 0.070307 -0.048329 0.10238 0.19038 0.28605 -0.059643 0.1967 0.14986 -0.078346 0.12033 0.038051 -0.14676 0.18683 0.10631 0.19775 0.012959 0.10814 -0.11814 0.028779 0.10603 -0.045425 -0.026455 0.061143 0.14665 -0.046371 -0.16229 0.4613 -0.17015 0.18322 0.042937 -0.24239 -0.31305 -0.050018 -9.1107e-05 0.18454 0.21977 -0.25769 -0.10992 0.23853 0.48579 -0.1242 0.063112 0.29494 0.074186 -0.11754 -0.21682 -0.0024378 -0.078905 0.49756 0.2648 0.23006 -0.050485 0.19036 0.14514 0.22548 0.0017901 0.33858 -0.025755 -0.12908 -0.21496 -0.41804 0.20781 -0.19163 -0.051899 -0.12285 -0.21432 0.22107 -0.038895 
냐|EC -0.5382 -0.079077 0.17589 -0.39032 -0.19202 -0.30389 0.080023 0.009829 0.031945 0.38255 0.48756 0.37739 -0.49168 -0.33221 -0.70757 0.21271 0.05028 0.17864 0.61788 -0.087082 0.14695 0.019309 0.24151 -0.052777 -0.14545 -0.41705 0.06034 -0.091194 -0.12727 0.028153 -0.14589 -0.53928 -0.33529 0.54629 0.35607 -0.12437 0.053892 -0.6542 -0.32722 0.087678 0.08184 0.24732 -0.35014 -0.46351 -0.45368 0.022684 -0.32663 -0.22346 -0.17158 -0.41313 0.41439 0.20982 0.2096 0.46985 -0.53438 -0.29538 0.1354 0.35452 0.1367 0.039383 0.007587 -0.33249 -0.11997 -0.32732 -0.37121 -0.25214 0.26094 0.29912 -0.19504 -0.23035 0.4351 0.44011 -0.41827 0.077751 0.046186 -0.13657 -0.025427 0.37081 -0.27074 0.025279 0.2704 -0.12587 0.93249 -0.35874 0.1327 0.010316 -0.30178 -0.60253 -0.48215 0.16907 -0.23911 -0.14465 -0.57448 0.1409 0.024991 0.25352 0.20197 0.062899 -0.022124 0.55919 
들려|VV+EC 0.23731 -0.032235 -0.71416 0.34444 -0.65103 0.5216 -0.55683 0.7207 0.13104 -0.60289 0.31149 -0.28499 0.55807 0.62389 0.70542 -0.15689 -0.29898 -0.075342 -0.76274 -0.28359 0.20341 0.012805 -0.22917 0.67275 -0.279 -0.1561 -0.12782 1.0747 -0.2625 0.030505 0.94688 0.05883 0.71262 0.074431 0.27942 0.27679 0.24913 -0.31442 0.77049 -0.1167 0.77394 -0.21045 -0.082498 -0.089671 -0.12697 0.54858 -0.021507 0.40768 0.31073 0.16015 0.28989 0.15603 0.39184 -0.55348 0.36668 0.2519 -0.03875 -0.607 0.017752 -0.59032 -0.19779 -0.068912 0.025347 -0.19054 -0.39735 -0.34412 0.3573 0.45441 0.26766 -0.2756 -0.55433 -0.23635 -0.26841 0.40592 0.1192 0.15831 -0.043605 0.012261 0.39519 -0.50791 -0.23146 0.27694 -0.43443 0.37256 -0.32474 0.82602 0.49108 -0.3032 0.74498 -0.22364 0.070656 0.15386 -0.074037 0.10195 0.37576 0.28924 0.25659 -0.20173 0.10656 0.36486 
105|SN 0.10251 0.24658 0.083518 -0.14605 -0.14407 0.0018136 0.30658 0.31726 0.3318 0.33915 -0.085487 0.3875 -0.19312 -0.14175 0.073332 0.44207 0.098371 -0.030697 0.053843 0.020942 0.072842 0.38656 0.16467 -0.24045 0.052349 0.090238 0.0039499 0.040388 0.11837 0.12469 -0.073088 -0.34966 -0.34641 -0.35004 0.014163 0.12156 0.65204 -0.0015527 0.02605 -0.090877 0.17802 0.10332 0.25682 -0.31971 0.2134 -0.044821 0.0015679 0.13195 -0.072197 -0.25218 -0.0095257 0.028062 -0.0073289 0.082061 -0.0014801 -0.19263 -0.010962 0.13898 0.26991 0.043459 0.19022 0.16132 -0.17469 -0.54194 0.0034013 0.33502 -0.16269 0.23733 0.16187 -0.1109 0.03493 -0.026423 -0.16924 0.34773 0.19503 0.10532 0.11642 -0.41567 -0.28328 -0.21355 0.20157 0.26699 0.18226 -0.26332 0.0078378 -0.22363 0.44547 0.52642 0.1809 -0.16776 0.32809 -0.31445 0.028458 0.089223 -0.21969 -0.16936 0.038617 -0.063851 0.32035 -0.12783 
확인|NNG -0.14514 -0.042539 0.16015 -0.2287 -0.097406 -0.095968 -0.017316 -0.056251 0.15467 -0.20128 0.0095632 -0.032137 -0.28656 -0.21076 0.022706 -0.12755 0.29914 0.19655 -0.081041 -0.057549 -0.27436 -0.10984 -0.23861 -0.22635 -0.18575 0.13917 0.19604 -0.071755 0.14135 0.085746 -0.0081269 0.35433 -0.065799 0.20249 -0.12628 0.12774 0.17868 -0.058483 0.010654 0.24422 -0.40978 -0.044347 -0.45035 0.1158 0.3643 -0.22809 -0.18382 -0.12862 0.22787 0.13858 0.0087224 -0.14661 0.010935 -0.0095111 -0.077282 0.016871 0.29417 -0.026297 -0.29703 0.21909 0.3198 -0.20323 -0.095377 -0.039632 0.12705 -0.092505 0.36702 -0.28483 -0.20298 -0.41001 0.54384 0.38711 0.1656 0.12063 -0.10909 0.11045 -0.1245 -0.00079028 -0.018971 0.15519 0.16753 -0.27887 0.05307 0.22122 0.17078 0.2218 -0.14966 -0.1773 -0.044543 0.32096 0.015757 -0.26348 -0.29589 0.39295 -0.074798 0.29879 -0.033538 -0.1092 -0.35005 -0.08101 
상담원|NNG 0.54465 0.17237 -0.097629 0.056464 0.00261 0.59986 0.090204 -0.13922 -0.67676 -0.9197 0.010627 -1.0083 -0.38129 0.35528 0.095386 0.53293 -0.13638 -0.14042 0.0016102 -0.64007 0.15571 -0.60822 -0.13179 0.1768 -0.5691 -0.043889 -0.41349 0.48817 -0.47386 0.28221 0.307 0.57967 -0.086301 -0.29702 0.51396 0.37626 -0.29863 -0.17671 0.31038 0.83896 -0.052804 0.018961 0.02689 0.91233 -0.052065 0.25288 0.43021 -0.64165 -0.083034 0.55445 0.1943 0.06381 0.064984 -0.36085 0.18551 0.22813 0.093743 -0.6672 -0.023936 0.17092 -0.1719 -0.26787 0.05713 0.1566 0.086526 -0.83101 0.74552 -0.45754 -0.75317 0.69008 -0.2193 0.63652 0.19118 -0.0087245 -0.10389 0.21843 -0.26206 0.28102 0.011213 -0.079024 0.61303 -0.17782 0.31767 0.7716 0.14467 0.58693 0.30372 -0.40967 -0.14737 -0.14285 -0.4906 0.0099764 -0.567 -0.046092 -0.20459 0.11824 -0.091419 -0.11645 -0.88565 0.22115 
할까요|XSA+EC 0.064659 -0.032993 0.063534 0.028508 0.18278 -0.049365 -0.015165 -0.079565 -0.12709 0.023017 -0.094671 0.012117 -0.030452 0.031535 -0.10296 -0.099331 -0.028085 -0.038337 0.017966 0.058563 -0.064407 0.041822 0.10899 -0.094362 0.0020512 0.039787 0.05335 -0.091214 0.038469 0.0052359 -0.11275 0.14772 -0.027228 -0.065017 -0.054848 0.052677 -0.12932 0.10123 -0.062228 -0.020035 -0.16339 0.038697 -0.013522 0.10727 0.067805 -0.014716 0.058107 -0.12761 -0.047039 0.11382 -0.10404 -0.042375 -0.047348 0.01384 -0.026262 0.054453 0.068461 -0.0039756 -0.016523 -0.0099009 0.0017972 0.021246 0.092831 0.15659 0.10024 -0.030362 -0.10439 -0.10365 -0.026338 0.069535 -0.019008 0.041003 0.16647 -0.1954 -0.089787 0.024165 -0.039091 0.065473 0.066547 0.084413 0.069564 -0.10131 -0.0030166 0.10505 0.11336 -0.031499 -0.13371 0.028259 -0.089577 0.10329 -0.026424 0.092097 -0.025347 -0.00048343 -0.010061 -0.13036 -0.13471 0.048444 -0.098492 -0.074539 
상담|NNG 0.22243 0.095587 -0.088968 0.044727 0.0082519 0.31149 0.13836 -0.20466 -0.39127 -0.5852 0.017733 -0.6609 -0.28492 0.22694 -0.02361 0.37847 -0.089218 -0.027589 0.126 -0.49131 0.12366 -0.45187 -0.068436 0.011612 -0.3553 -0.14501 -0.25863 0.18442 -0.34308 0.16395 0.14083 0.27576 -0.16658 -0.16664 0.4091 0.1834 -0.27463 -0.18114 0.12629 0.61716 0.0108 0.029159 -0.02064 0.64656 -0.18127 0.12353 0.21915 -0.52334 -0.13907 0.34477 0.18033 0.048558 0.054834 -0.17537 0.056514 0.060866 0.047313 -0.36842 -0.11939 0.24328 -0.19576 -0.23458 0.075271 0.12017 0.022152 -0.62992 0.54808 -0.34894 -0.53128 0.53084 -0.17369 0.40554 0.098688 -0.0075937 -0.14192 0.09269 -0.15879 0.28905 -0.069315 0.0038299 0.36151 -0.18064 0.30205 0.49063 0.071857 0.3326 0.15461 -0.32451 -0.26276 -0.098386 -0.3457 -0.0039904 -0.37243 -0.1025 -0.12607 0.1311 0.036377 -0.024579 -0.68749 0.22668 
어|EC -0.27857 -0.17476 0.055369 0.13858 0.086541 0.16457 0.046131 -0.86185 0.016128 -0.1792 0.35977 -0.35274 0.41507 -0.5633 -0.25837 -0.05843 0.25602 -0.001705 0.38324 0.16531 0.33117 -0.54983 -0.40033 0.42136 -0.15189 -0.34052 -0.51042 -0.11824 -0.19722 0.084654 -0.052794 0.016927 0.42624 1.0727 -0.27821 -0.42951 -0.48799 -0.47158 -0.31693 -0.11081 0.12277 -0.077887 -0.10633 0.27714 -0.18007 0.15609 -0.079754 0.33919 0.17837 -0.15818 0.1261 0.080994 0.0068859 -0.044086 -0.013279 -0.13001 -0.27717 -0.11041 0.01931 -0.019688 -0.25027 0.14806 -0.013309 0.19768 0.024741 -0.051598 0.50905 -0.45154 -0.23991 -0.095387 0.086282 -0.18238 -0.25234 0.38711 0.019655 0.13463 0.28618 -0.058268 -0.14553 0.0063993 -0.51932 0.13 -0.5345 -0.1553 -0.090373 -0.097446 -0.22608 -0.23394 -0.062518 -0.27202 -0.27261 0.11244 0.56169 -0.068609 -0.02448 0.30782 0.39309 0.042175 0.13139 -0.037001 
께|NNB 0.13435 0.0014804 0.057302 0.034441 0.30021 -0.028214 0.043248 -0.20187 -0.071854 0.033035 -0.21785 -0.04914 -0.088194 0.1253 -0.038469 -0.10299 -0.0094048 -0.063699 -0.057426 -0.031238 -0.071502 0.033275 0.12758 -0.23308 0.058291 0.049123 0.10636 -0.14851 0.10045 0.064369 -0.18346 0.25802 -0.15266 -0.17173 -0.082649 0.109 -0.20408 0.22487 -0.05789 0.058076 -0.18647 0.060304 0.016795 0.27083 0.13747 -0.14103 0.13551 -0.16577 -0.067428 0.24591 -0.21556 -0.013569 -0.13906 0.086533 -0.0017645 -0.0064427 0.082264 0.054107 -0.12265 0.10546 -0.054659 0.019456 0.084226 0.21816 0.24803 0.011223 -0.11157 -0.21188 -0.02763 0.19867 -0.107 0.091778 0.27489 -0.28303 -0.15795 0.0083819 -0.036321 0.053221 0.032187 0.13136 0.050842 -0.1501 0.08357 0.26835 0.17346 -0.030594 -0.14481 0.025282 -0.085669 0.21486 0.055698 0.061556 0.047806 -0.051966 -0.1039 -0.16427 -0.19197 0.056755 -0.19921 -0.26497 
됩니다|VX+EC -0.14256 -0.028388 0.37104 -0.11994 0.2396 0.12308 0.29369 -0.92785 -0.03268 -0.013225 0.24151 -0.27851 -0.0050084 -0.73301 -0.32778 0.20978 0.38875 -0.021079 0.52847 0.1343 0.25938 -0.47366 -0.31859 0.14 -0.12681 -0.16854 -0.4596 -0.30736 -0.099057 0.17126 -0.29882 0.086936 0.082388 0.84682 -0.3257 -0.2966 -0.33899 -0.33051 -0.44864 0.068194 -0.16063 0.031007 -0.025801 0.34354 0.070028 -0.053475 0.03541 0.19712 0.10354 -0.13242 -0.0096743 0.060094 -0.13485 0.12738 -0.061241 -0.20485 -0.18388 -0.0052979 0.1471 0.15108 -0.070224 0.1595 -0.14755 0.062975 0.2609 0.10846 0.46595 -0.58938 -0.39151 -0.015647 0.33197 0.12456 -0.12323 0.31848 0.074156 0.18627 0.24442 -0.20873 -0.30677 0.098599 -0.22929 0.10917 -0.2815 -0.11504 0.11136 -0.23371 -0.20176 -0.082369 -0.12732 -0.15414 -0.20623 -0.09342 0.40055 0.04103 -0.3203 0.17277 0.18069 -0.026217 0.081866 -0.30621 
하이|NNG -0.25536 -0.18916 0.038922 -0.065241 0.22494 -0.18504 -0.25493 -0.19195 -0.068585 0.14024 -0.23093 -0.010134 -0.14213 0.20371 0.36419 -0.26937 -0.16908 0.20352 -0.11906 0.064145 -0.050958 -0.10651 0.063081 -0.15653 0.51679 -0.071396 0.23052 -0.62284 -0.080758 -0.20111 -0.15797 -0.24423 0.075714 -0.18284 0.00042692 -0.28183 -0.48353 0.5597 0.092426 0.08045 -0.0032709 0.068015 -0.0079587 -0.0084987 -0.31051 -0.22417 0.095363 -0.22191 -0.12077 -0.021088 -0.46429 0.20274 -0.50274 0.30153 -0.14958 0.040685 -0.551 0.57165 -0.37741 0.76094 -0.43647 0.02255 0.18997 0.32274 -0.27165 0.10614 -0.32021 0.31127 0.11079 0.2064 -0.42745 -0.15032 -0.13999 -0.58115 -0.096433 -0.54823 0.078534 0.30337 0.15572 0.40283 -0.27769 0.15513 0.11081 -0.39425 -0.19098 -0.27999 -0.18272 0.066402 -0.058795 0.093084 0.1077 -0.15041 0.42648 -0.68734 0.21591 -0.20199 0.38505 0.18332 0.23107 -0.026286 
할래|XSV+EC 0.081653 0.19112 -0.026752 0.025715 -0.10731 -0.049729 0.25322 0.26 0.21986 0.15351 -0.13095 0.20087 0.071323 -0.025443 -0.032819 0.18049 0.048477 -0.040246 0.010562 -0.018941 -0.068276 0.23341 0.016146 -0.14408 0.017095 0.18648 0.026297 0.087117 0.16594 -0.014893 -0.018859 -0.066787 -0.2519 -0.2966 -0.017197 0.056837 0.42828 0.0091289 -0.04919 -0.073893 0.050378 -0.073529 0.20303 -0.17421 0.14679 -0.079012 -0.096469 0.11928 -0.035781 -0.096589 0.11069 -0.12895 0.13854 -0.033248 0.080634 -0.10184 0.18013 -0.021487 0.077933 -0.11986 0.27786 0.017015 -0.10315 -0.26988 0.1246 0.20619 -0.16226 0.020417 0.18712 -0.0096701 0.1493 -0.18747 0.035943 0.24242 0.077212 0.086523 -0.01371 -0.25087 -0.17713 -0.16635 0.092698 -0.061565 0.01974 -0.042722 -0.057152 -0.16791 0.21783 0.29378 -0.029441 -0.092635 0.14809 -0.030783 -0.035102 0.13918 -0.088127 0.0063314 -0.16102 -0.029023 0.005214 -0.030776 
선택|NNG 0.074031 0.18128 -0.035065 0.031179 -0.10792 -0.040027 0.2552 0.25503 0.21631 0.16799 -0.11481 0.20398 0.064651 -0.025827 -0.040985 0.17776 0.058965 -0.040717 0.0035136 -0.010663 -0.082238 0.22932 0.028619 -0.14564 0.026122 0.18177 0.044506 0.093473 0.16867 -0.021843 -0.021467 -0.060083 -0.26039 -0.30633 -0.01912 0.058733 0.43154 -0.002213 -0.050602 -0.072645 0.05623 -0.080897 0.2066 -0.1719 0.14687 -0.08549 -0.080902 0.12622 -0.037866 -0.083757 0.10428 -0.12722 0.14012 -0.037458 0.085915 -0.095002 0.18214 -0.023738 0.072274 -0.114 0.27905 0.019654 -0.10857 -0.26084 0.11793 0.2066 -0.15643 0.0055381 0.16943 -0.023784 0.13158 -0.17799 0.030753 0.24194 0.080964 0.09201 -0.01352 -0.25629 -0.17527 -0.15349 0.0776 -0.063053 0.027509 -0.028612 -0.063213 -0.17364 0.22321 0.30246 -0.030874 -0.091074 0.15757 -0.036655 -0.043061 0.13783 -0.071334 0.0015073 -0.15808 -0.027848 0.0052642 -0.043699 
그만|MAG -0.034747 -0.12952 0.14749 0.096247 0.17466 0.24864 0.025087 -0.79559 -0.16268 -0.23863 0.36102 -0.3822 0.28856 -0.54865 -0.29214 -0.014398 0.24811 -0.11319 0.34599 0.16451 0.30706 -0.50746 -0.33121 0.42598 -0.31052 -0.2488 -0.51127 0.032476 -0.18318 0.16975 -0.056469 0.23595 0.42989 0.98802 -0.29073 -0.22895 -0.45202 -0.46268 -0.29132 -0.069955 -0.058364 -0.0126 -0.12419 0.39071 0.016811 0.22067 0.068636 0.24939 0.19557 -0.0088627 0.060616 0.061111 0.0085504 -0.10875 0.01949 -0.02594 -0.14342 -0.28928 0.20554 -0.19003 -0.13315 0.18579 -0.033261 0.21732 0.14749 -0.1091 0.52097 -0.52836 -0.37584 -0.088309 0.17655 0.074293 -0.08058 0.3137 0.037937 0.29273 0.20862 -0.10198 -0.060487 -0.025413 -0.29418 0.13957 -0.56829 0.068475 0.10129 0.073641 -0.22015 -0.23544 0.031033 -0.17207 -0.34871 0.15285 0.34394 0.11047 -0.15331 0.17209 0.14069 -0.020914 0.064275 -0.16296 
사랑|NNG 0.12002 0.044302 -0.084082 0.050844 -0.0099018 0.18522 0.077708 -0.13139 -0.23538 -0.36453 -0.0026519 -0.40918 -0.13766 0.14096 -0.02809 0.20646 -0.042077 0.006052 0.08943 -0.28955 0.076155 -0.28406 -0.050961 0.022756 -0.22195 -0.082985 -0.16561 0.10091 -0.20651 0.089076 0.098553 0.15855 -0.10192 -0.092961 0.25052 0.088065 -0.17725 -0.12427 0.066566 0.36268 -0.0041745 0.015337 -0.019847 0.3945 -0.11841 0.082076 0.10777 -0.30569 -0.074711 0.21039 0.13008 0.013912 0.038106 -0.1249 0.029052 0.041014 0.025945 -0.22226 -0.106 0.14143 -0.12704 -0.14204 0.061847 0.095193 -0.0045073 -0.40049 0.34261 -0.23104 -0.31264 0.32553 -0.10865 0.21473 0.047844 0.018001 -0.088625 0.059135 -0.093271 0.17869 -0.040428 0.0059714 0.1898 -0.11551 0.14063 0.27796 0.015218 0.2081 0.086949 -0.18948 -0.19092 -0.068852 -0.21745 0.017285 -0.20426 -0.076681 -0.062852 0.080405 0.032087 -0.01352 -0.43403 0.15054 
아까|MAG 0.13256 0.027269 0.1515 -0.095058 -0.035874 0.063927 -0.10232 0.10538 -0.30145 -0.071561 0.084444 -0.13989 -0.027989 -0.04155 -0.01006 0.017808 -0.033014 -0.075847 -0.030864 0.033907 -0.069314 -0.13904 -0.11217 0.27724 -0.020515 0.16831 -0.056424 0.1523 -0.042845 -0.085333 0.091516 0.11948 0.16273 0.019371 0.031151 0.0081358 -0.093999 0.038778 0.01999 0.05054 -0.18091 -0.068075 0.053211 -0.051906 0.0079757 0.013702 0.10357 0.038623 0.090235 -0.025268 0.063688 -0.023799 0.016649 -0.032997 0.11136 0.18752 0.025415 -0.17339 0.23482 -0.26131 0.16542 -0.039686 -0.12469 0.074796 0.067496 -0.026999 0.0054675 0.0067819 -0.16325 0.04932 0.26021 0.16996 0.054918 -0.15214 0.15326 -0.044011 -0.18004 -0.026928 0.10494 0.02563 0.22358 -0.021941 0.03279 0.050328 0.069272 0.026685 -0.075056 -0.14819 0.082801 0.03743 -0.27544 0.11123 -0.30362 0.10112 -0.016795 0.042179 -0.2792 -0.11296 0.04135 0.013258 
컬러|NNG 0.11605 0.19698 -0.168 0.1348 -0.27708 0.043422 0.2194 0.39764 0.21298 0.035874 -0.029206 0.13927 0.24427 0.00012549 0.0032426 0.21401 0.032183 -0.070935 -0.035373 -0.020031 -0.035432 0.22964 -0.05615 0.053502 -0.1075 0.17678 -0.072473 0.33503 0.11195 -0.028082 0.15511 -0.068726 -0.11582 -0.2564 0.040837 0.063032 0.52797 -0.13429 0.033801 -0.13777 0.20593 -0.15556 0.23377 -0.24155 0.090603 0.068018 -0.13557 0.24502 0.03058 -0.11523 0.24463 -0.16928 0.29327 -0.20142 0.16533 -0.034878 0.19609 -0.21216 0.15144 -0.33183 0.30975 0.02888 -0.12997 -0.32108 0.04741 0.12919 -0.070846 0.053127 0.20694 -0.077069 0.11534 -0.28363 -0.011756 0.45291 0.12798 0.18937 -0.020305 -0.29554 -0.1224 -0.30905 0.0404 -0.016648 -0.16159 5.0808e-05 -0.15426 -0.047905 0.36481 0.28859 0.078588 -0.22889 0.11723 0.037235 -0.067567 0.237 -0.007171 0.10018 -0.14694 -0.088772 0.031498 0.10103 
뭐|IC -0.44079 0.0040437 0.10204 -0.25735 -0.11754 -0.31399 0.22218 0.00572 0.20464 0.37846 0.20193 0.35122 -0.35677 -0.18107 -0.47895 0.17067 0.058335 0.17043 0.43776 -0.12124 0.032271 0.094719 0.19735 -0.25966 0.019001 -0.25557 0.14294 -0.22684 0.022888 -0.024016 -0.21366 -0.43979 -0.4707 0.15205 0.24209 -0.077809 0.11178 -0.33995 -0.29154 0.10226 0.065743 0.14871 -0.15549 -0.30643 -0.31449 -0.14817 -0.28964 -0.16866 -0.19088 -0.29508 0.28223 0.093372 0.13925 0.40904 -0.37647 -0.33047 0.15963 0.36105 -0.060693 0.16949 0.033468 -0.27267 -0.084923 -0.26379 -0.1598 -0.074113 0.084775 0.13362 -0.032238 -0.077721 0.3036 0.18249 -0.22403 0.06849 -0.033406 -0.13877 -0.011481 0.23469 -0.30368 0.048734 0.14766 -0.20073 0.7656 -0.23365 0.048079 -0.14235 -0.18533 -0.30887 -0.44998 0.1366 -0.027609 -0.15366 -0.3175 0.048991 -0.019216 0.1879 0.13915 0.069168 -0.11641 0.33364 
돼요|VV+EC -0.021144 -0.16665 0.15432 -0.00033565 0.18208 -0.1769 -0.13171 -0.029506 -0.38626 0.004884 0.040556 0.066917 -0.048066 -0.13597 -0.36133 -0.17398 -0.039945 -0.05058 0.22704 0.23853 -0.12882 0.0017096 0.14575 0.056909 -0.14709 0.047557 0.01627 -0.13849 -0.018124 -0.05631 -0.14163 0.11649 0.10756 0.084051 -0.039417 -0.044218 -0.19216 -0.02042 -0.13584 -0.13624 -0.36557 0.089719 -0.14723 -0.048017 -0.02889 0.11245 0.015314 -0.23154 -0.050459 0.0039033 -0.0066323 -0.139 0.024524 -0.055098 -0.17335 0.18885 0.10203 -0.053406 0.1538 -0.18688 0.091697 0.036569 0.1347 0.24354 -0.091605 -0.15654 -0.1127 -0.026891 -0.16248 -0.07393 0.22657 0.15475 0.14977 -0.22774 -0.077067 0.061817 -0.07525 0.14759 0.16982 0.12948 0.20809 -0.12206 -0.053227 -0.11623 0.18262 -0.028952 -0.27395 -0.026059 -0.22175 0.098215 -0.27578 0.21721 -0.24081 0.12078 0.093667 -0.16434 -0.17743 0.10295 -0.054883 0.1776 
후|NNG -0.072927 -0.17217 0.13854 -0.024394 0.05107 -0.15338 -0.19308 0.063317 -0.40077 -0.0074439 0.15277 0.10158 -0.0054166 -0.22049 -0.34528 -0.12489 -0.057087 -0.019557 0.26969 0.29461 -0.079386 -0.026532 0.078503 0.1942 -0.1919 0.027225 -0.042459 -0.071228 -0.079434 -0.092916 -0.055962 -0.022703 0.20869 0.15995 0.0015758 -0.096292 -0.12013 -0.12587 -0.098245 -0.18899 -0.29051 0.084756 -0.14734 -0.20142 -0.094086 0.216 -0.018078 -0.13308 -0.0094072 -0.12881 0.094355 -0.14926 0.081028 -0.1158 -0.15674 0.21666 0.035479 -0.11415 0.27545 -0.2646 0.12589 0.067726 0.11065 0.15918 -0.24581 -0.1708 -0.074344 0.09078 -0.14458 -0.17161 0.26825 0.094513 0.0048946 -0.10862 0.021606 0.051666 -0.043261 0.11013 0.17861 0.062291 0.17808 -0.015514 -0.13176 -0.26199 0.089889 -0.015432 -0.20088 -0.027081 -0.16853 -0.025907 -0.33648 0.19961 -0.28019 0.13768 0.15026 -0.11959 -0.071222 0.073946 0.098586 0.32752 
요|VCP+EC 0.14188 0.00086984 0.070207 0.047641 0.29639 -0.017664 0.052321 -0.18525 -0.071842 0.032019 -0.20769 -0.05858 -0.10089 0.13058 -0.043232 -0.099693 -0.0087483 -0.057767 -0.050933 -0.029713 -0.075144 0.021674 0.13009 -0.23242 0.062758 0.053696 0.10396 -0.14523 0.08964 0.063035 -0.17487 0.25514 -0.13603 -0.17562 -0.085015 0.10543 -0.19574 0.22638 -0.07167 0.058026 -0.19527 0.058097 0.024313 0.27064 0.13637 -0.12721 0.13104 -0.1715 -0.07141 0.23857 -0.20878 -0.016348 -0.1312 0.068788 0.004919 0.00081824 0.084025 0.052847 -0.13537 0.10066 -0.062068 0.001103 0.089869 0.20348 0.24873 0.0064191 -0.10888 -0.20809 -0.026885 0.1994 -0.11364 0.08748 0.2641 -0.27544 -0.14042 0.011487 -0.045892 0.062475 0.019518 0.11825 0.0503 -0.15346 0.080003 0.2736 0.17372 -0.018515 -0.14762 0.016233 -0.082964 0.2001 0.061639 0.0576 0.058587 -0.056322 -0.10645 -0.16352 -0.19248 0.045091 -0.20065 -0.26772 
요일|NNG 0.06328 0.010325 0.019993 0.026968 0.13352 -0.020391 0.026477 -0.080129 -0.01017 0.026332 -0.11244 -0.024911 -0.036436 0.074325 -0.010507 -0.052558 -0.0044688 -0.032245 -0.036975 -0.019892 -0.037336 0.026857 0.074527 -0.1195 0.043164 0.019337 0.049918 -0.074197 0.061629 0.038822 -0.080767 0.1226 -0.072519 -0.095684 -0.046006 0.063315 -0.090649 0.10063 -0.034869 0.027586 -0.075442 0.019926 0.010382 0.132 0.062156 -0.064927 0.056648 -0.079667 -0.032728 0.1293 -0.10012 -0.0061711 -0.072791 0.046482 -0.0041981 -0.0020091 0.047164 0.023837 -0.06411 0.056352 -0.017277 0.0052126 0.04178 0.092446 0.11471 0.012025 -0.072914 -0.10335 -0.0050083 0.094031 -0.055871 0.03992 0.12325 -0.11939 -0.062813 0.015654 -0.021546 0.019935 0.013114 0.056561 0.026992 -0.080531 0.040343 0.12304 0.079514 -0.022785 -0.060462 0.011549 -0.032864 0.094127 0.032279 0.018368 0.023904 -0.032288 -0.067252 -0.084978 -0.088895 0.033264 -0.084881 -0.14177 
이후|NNG -0.03856 -0.21868 0.19934 -0.038333 0.1494 -0.21896 -0.22085 0.038185 -0.52406 -0.013615 0.12488 0.13612 -0.056555 -0.23425 -0.48028 -0.19076 -0.065954 -0.042448 0.32575 0.35047 -0.16231 -0.0029991 0.1633 0.14916 -0.24896 0.071309 0.00046732 -0.10233 -0.058493 -0.080219 -0.12368 0.088495 0.18392 0.13742 -0.0094519 -0.066088 -0.16474 -0.099505 -0.14439 -0.19722 -0.46259 0.12752 -0.20109 -0.17436 -0.062502 0.23445 -0.014657 -0.24407 -0.026944 -0.060236 0.074882 -0.1953 0.094706 -0.12594 -0.20281 0.27848 0.12274 -0.11793 0.29095 -0.32516 0.16185 0.062982 0.17355 0.24966 -0.21454 -0.22675 -0.12381 0.054608 -0.21003 -0.16939 0.34405 0.18674 0.117 -0.22105 -0.050186 0.085329 -0.1078 0.16258 0.242 0.12229 0.30862 -0.10542 -0.098053 -0.23266 0.20107 -0.0065364 -0.30379 -0.03675 -0.25038 0.065981 -0.40318 0.2549 -0.3974 0.20186 0.15481 -0.18888 -0.19376 0.10498 0.0051092 0.33086 
라고|VCP+EC 0.080329 -0.015713 -0.25952 0.1576 -0.19547 0.21379 -0.18192 0.17501 0.043182 -0.21689 0.13955 -0.1194 0.26314 0.18584 0.22486 -0.053857 -0.090408 -0.053275 -0.23698 -0.073989 0.13055 -0.013404 -0.083798 0.28801 -0.14363 -0.094374 -0.12073 0.39726 -0.10743 0.037606 0.33423 0.020887 0.30495 0.1304 0.063457 0.078305 0.060196 -0.17687 0.24729 -0.086175 0.31267 -0.06596 -0.012317 0.0014692 -0.041517 0.24755 -0.0093552 0.18936 0.11282 0.045233 0.11416 0.058315 0.14627 -0.22105 0.12757 0.081501 -0.033347 -0.241 0.049094 -0.25447 -0.10357 0.021454 0.028503 -0.054248 -0.13152 -0.11551 0.15567 0.12969 0.083825 -0.10073 -0.22372 -0.10806 -0.12105 0.2027 0.04242 0.098957 0.029549 -0.022731 0.13504 -0.21851 -0.12902 0.13521 -0.22809 0.12126 -0.11697 0.28296 0.18408 -0.092201 0.28374 -0.13242 0.016174 0.089106 0.05335 0.028398 0.11917 0.094222 0.1185 -0.070134 0.079343 0.10823 
지금|MAG 0.024479 0.065641 0.071744 -0.10068 -0.029463 0.023014 0.063919 0.064564 0.07239 0.11048 0.019566 0.12479 -0.17859 -0.07787 0.039645 0.17289 0.033892 -0.0067709 0.033341 -0.00080485 0.060458 0.10539 0.080979 -0.080538 -0.0047702 -0.026183 -0.0019916 -0.01275 -0.021956 0.075808 -0.050268 -0.13943 -0.1009 -0.049598 0.01109 0.067383 0.16845 -0.021683 0.034478 0.015998 0.050161 0.1071 0.036759 -0.079441 0.0648 0.01142 0.042579 -0.011364 -0.038036 -0.094531 -0.044586 0.06204 -0.054597 0.071461 -0.050402 -0.066469 -0.054511 0.077176 0.11801 0.093651 -0.0037702 0.060993 -0.053634 -0.18025 -0.032627 0.063023 0.009553 0.11741 -0.0066073 -0.05686 -0.023344 0.11733 -0.097288 0.072686 0.068252 0.033828 0.06404 -0.10146 -0.079296 -0.037953 0.11579 0.14305 0.13051 -0.11832 0.0577 -0.038286 0.11856 0.13418 0.087796 -0.027418 0.09868 -0.15848 -0.023648 0.014824 -0.085289 -0.077951 0.090518 -0.017098 0.12935 -0.0447 
바꾸|VV 0.073023 0.035374 0.0056212 0.017455 0.12985 0.0039557 0.06033 -0.081042 0.030764 0.012354 -0.12746 -0.026094 -0.040767 0.10106 0.043952 -0.031459 -0.0062957 -0.020552 -0.072141 -0.055685 -0.0249 0.038557 0.041482 -0.13915 0.062315 0.027576 0.063265 -0.051082 0.051036 0.049558 -0.058265 0.10558 -0.10764 -0.11181 -0.033343 0.066825 -0.054489 0.11795 -0.0010038 0.056555 -0.029001 0.007358 0.032841 0.13752 0.082781 -0.086237 0.068437 -0.040242 -0.030138 0.12678 -0.11374 0.010143 -0.071174 0.050828 0.023667 -0.036408 0.029175 0.040814 -0.10112 0.069776 -0.042815 -0.00037916 0.019609 0.070892 0.15964 0.028385 -0.045162 -0.09865 0.022996 0.1078 -0.083237 0.0068246 0.12982 -0.11055 -0.059059 0.0017005 -0.00064851 -0.0078736 -0.022012 0.04388 -0.0024496 -0.06403 0.04346 0.17119 0.064592 -0.019241 -0.036295 0.018477 0.002895 0.10217 0.077525 0.0070649 0.068139 -0.045762 -0.083959 -0.065864 -0.080378 0.0017722 -0.088229 -0.17182 
바꿔도|VV+EC 0.14043 0.068525 -0.010522 0.041664 0.17629 0.044292 0.095834 -0.11551 0.071282 0.015277 -0.19728 -0.069548 -0.04953 0.17336 0.089605 -0.017166 0.01593 -0.053499 -0.13478 -0.1036 -0.012517 0.036069 0.058257 -0.21467 0.069321 0.04343 0.077755 -0.032741 0.088019 0.086475 -0.092382 0.19499 -0.14956 -0.18255 -0.048734 0.14225 -0.052831 0.17448 0.0085996 0.10023 -0.027926 0.0051826 0.067782 0.23131 0.14431 -0.15035 0.11329 -0.053195 -0.039852 0.21274 -0.15789 0.029256 -0.11373 0.075994 0.071705 -0.064828 0.065029 0.047225 -0.14803 0.12234 -0.047765 0.0036091 0.0046829 0.077746 0.2553 0.061967 -0.065594 -0.17594 0.043596 0.17765 -0.14303 0.028752 0.18275 -0.14383 -0.088215 0.015397 -0.021584 -0.0071962 -0.03936 0.041258 -0.0026706 -0.095459 0.089798 0.28385 0.11197 0.0002837 -0.025102 0.044129 0.030824 0.1481 0.14958 -0.01576 0.11218 -0.06862 -0.13494 -0.081657 -0.13384 0.0009841 -0.1507 -0.29256 
은데|EC 0.069799 0.023629 0.0036856 0.036013 0.11789 0.018466 0.04786 -0.085706 0.032689 0.026308 -0.11673 -0.028781 -0.037294 0.096944 0.029956 -0.034891 -0.0021961 -0.020417 -0.066292 -0.055835 -0.018562 0.036301 0.055159 -0.13857 0.049436 0.025975 0.062386 -0.039919 0.053037 0.034603 -0.074331 0.10835 -0.10802 -0.12032 -0.029068 0.077251 -0.052654 0.11788 -0.015542 0.060575 -0.031642 0.016563 0.038064 0.13588 0.078765 -0.099625 0.069056 -0.037872 -0.03763 0.136 -0.10171 0.0056321 -0.064002 0.045337 0.035318 -0.040341 0.043498 0.037674 -0.084737 0.070935 -0.044006 -0.004115 0.010283 0.053498 0.15138 0.043795 -0.043461 -0.10428 0.029845 0.11581 -0.10226 0.011264 0.12925 -0.11093 -0.057537 -0.0010907 -0.0050683 0.0043964 -0.011474 0.039281 0.0038703 -0.065382 0.043943 0.15939 0.071417 -0.016871 -0.037588 0.029888 0.0017682 0.10545 0.082373 -0.00062699 0.076554 -0.04518 -0.078634 -0.065211 -0.073499 0.0089586 -0.097748 -0.17424 
상|NNG 0.2047 0.079836 -0.069711 0.036808 -0.0060267 0.29462 0.10149 -0.16361 -0.32426 -0.50473 0.048188 -0.54864 -0.24513 0.1785 -0.048776 0.30876 -0.052902 -0.046374 0.10206 -0.41884 0.12645 -0.38096 -0.067358 0.055814 -0.3733 -0.12409 -0.24871 0.24028 -0.30137 0.18242 0.15903 0.27653 -0.12166 -0.065985 0.32673 0.2087 -0.19125 -0.22483 0.11754 0.51277 -0.02673 0.047199 -0.060741 0.55211 -0.094768 0.14956 0.19497 -0.434 -0.084351 0.30234 0.17675 0.053992 0.07188 -0.15435 0.035563 0.066917 0.083989 -0.37001 -0.040065 0.12325 -0.14013 -0.20706 0.031542 0.079867 0.036121 -0.56545 0.52844 -0.30429 -0.49649 0.39401 -0.08656 0.43499 0.080201 0.027565 -0.094397 0.1427 -0.15632 0.22458 -0.030076 -0.023272 0.36797 -0.13867 0.25402 0.48167 0.12428 0.4061 0.13036 -0.3503 -0.17131 -0.055807 -0.32823 -0.0068845 -0.39644 -0.0022415 -0.12881 0.13042 -0.011926 -0.05473 -0.61491 0.18042 
담사|NNG 0.20937 0.072293 -0.075681 0.03454 -0.010467 0.29199 0.10703 -0.14736 -0.33741 -0.49853 0.052372 -0.54348 -0.24934 0.16397 -0.061893 0.31728 -0.057904 -0.049606 0.097411 -0.41273 0.11712 -0.36889 -0.060572 0.04797 -0.37807 -0.13273 -0.24014 0.24657 -0.29911 0.17499 0.15021 0.28045 -0.11797 -0.064076 0.33794 0.20593 -0.20417 -0.2281 0.12263 0.5101 -0.027125 0.050808 -0.060153 0.55744 -0.093796 0.13885 0.20991 -0.43106 -0.070559 0.29432 0.16729 0.063103 0.074338 -0.16011 0.045177 0.076662 0.086464 -0.35781 -0.046088 0.13219 -0.13454 -0.20808 0.049053 0.081425 0.026156 -0.55917 0.53295 -0.3144 -0.49353 0.39502 -0.095287 0.43613 0.09206 0.023287 -0.090743 0.13882 -0.14131 0.2234 -0.030019 -0.034097 0.36148 -0.1403 0.24077 0.49657 0.1197 0.40834 0.13382 -0.35881 -0.17625 -0.049862 -0.33011 -0.0054657 -0.39283 0.0068771 -0.12523 0.12594 -0.013042 -0.057169 -0.60285 0.19046 
하|XSA -0.32496 -0.0036135 0.089251 -0.19281 -0.04237 -0.25364 0.14029 -0.021274 0.15709 0.32709 0.12604 0.27956 -0.27939 -0.12797 -0.33372 0.10486 0.039131 0.14805 0.31438 -0.084926 0.033901 0.089277 0.15941 -0.22957 0.069168 -0.20391 0.1421 -0.22103 0.010496 -0.013947 -0.17094 -0.37015 -0.36466 0.094149 0.16684 -0.065058 0.048501 -0.21388 -0.21459 0.0616 0.049365 0.12976 -0.11758 -0.2335 -0.24168 -0.12081 -0.19776 -0.14855 -0.17285 -0.21568 0.15464 0.099596 0.0605 0.35821 -0.29548 -0.25215 0.081842 0.34443 -0.072579 0.18758 -0.016659 -0.19551 -0.054947 -0.17984 -0.12349 -0.047023 0.040776 0.12527 -0.0096521 -0.032446 0.18017 0.14679 -0.18265 0.0025235 -0.038679 -0.13266 0.0096922 0.19964 -0.211 0.064812 0.086506 -0.13547 0.62009 -0.18628 0.049905 -0.11625 -0.16177 -0.22593 -0.3478 0.13923 0.0079314 -0.12575 -0.21515 -0.012298 -0.030155 0.10406 0.11396 0.068211 -0.082981 0.22187 
아니|IC 0.11676 0.1732 -0.063256 0.09967 -0.091485 -0.1402 0.27592 0.39198 0.21525 0.31747 -0.06758 0.43504 0.12416 -0.022996 -0.31204 0.13225 0.022921 -0.12897 0.10879 0.074875 -0.060303 0.43269 0.22374 -0.13162 -0.12559 0.11721 0.055302 0.2321 0.21745 0.038055 -0.053842 -0.08226 -0.28924 -0.27752 0.010616 0.17162 0.51067 -0.15209 -0.11541 -0.25928 0.029486 0.017807 0.17076 -0.2905 0.15086 0.045485 -0.10525 0.092727 -0.091206 -0.10303 0.18795 -0.1688 0.25549 -0.042141 -0.017836 -0.08885 0.34108 -0.085502 0.26359 -0.41552 0.33826 0.066172 -0.069958 -0.29254 0.12582 0.15836 -0.2379 0.040199 0.23138 -0.12186 0.22177 -0.1416 0.11284 0.25762 0.055386 0.24899 -0.028084 -0.2115 -0.10524 -0.25333 0.18136 -0.097337 0.029907 0.038057 0.085223 -0.073216 0.14884 0.24469 -0.048711 -0.0060944 0.12559 0.11128 -0.17163 0.30098 -0.085071 -0.11685 -0.32629 -0.01891 0.021478 -0.0029899 
괜찮|VA -0.1554 -0.1585 0.14486 0.066784 0.16942 0.22558 0.031873 -0.89973 -0.084844 -0.23502 0.34103 -0.41492 0.29496 -0.57786 -0.22401 -0.030893 0.27385 -0.040106 0.3582 0.16881 0.318 -0.57327 -0.39 0.39452 -0.18724 -0.2757 -0.50541 -0.12697 -0.19538 0.13144 -0.086176 0.14275 0.4247 1.0265 -0.31673 -0.34983 -0.50971 -0.38907 -0.30904 -0.042693 0.013559 -0.056632 -0.11084 0.36451 -0.060422 0.13057 0.010015 0.30314 0.189 -0.072449 0.051349 0.084975 -0.055997 -0.063266 0.006172 -0.097202 -0.26851 -0.15172 0.077935 -0.014235 -0.21307 0.18446 -0.034697 0.22063 0.12268 -0.044047 0.52032 -0.51613 -0.31435 -0.070633 0.1159 -0.071872 -0.16289 0.32502 0.04171 0.18826 0.25796 -0.12254 -0.13701 0.021081 -0.42424 0.14142 -0.53012 -0.078136 -0.0012018 -0.10505 -0.21832 -0.16415 0.01398 -0.23419 -0.25734 0.07921 0.5288 -0.013933 -0.099342 0.23783 0.30392 -0.00076297 0.11613 -0.16927 
됐|VV+EP -0.11507 -0.091022 0.22672 -0.017347 0.25157 -0.0027965 0.13254 -0.6483 -0.13132 -0.0037117 0.14125 -0.15084 0.055869 -0.43728 -0.33976 0.011279 0.18814 -0.029633 0.38298 0.16459 0.14874 -0.3065 -0.13841 0.11147 -0.10232 -0.15131 -0.27958 -0.25394 -0.067936 0.081044 -0.237 0.092233 0.1202 0.58451 -0.21606 -0.21602 -0.35376 -0.21043 -0.33467 -0.028808 -0.18582 0.063025 -0.067084 0.23955 -0.024052 0.023428 0.040419 0.041719 0.034072 -0.06282 -0.028331 0.018699 -0.09008 0.079421 -0.10565 -0.076732 -0.10025 0.0098095 0.096013 0.050399 -0.094806 0.11998 0.005063 0.18674 0.12835 -0.010112 0.2329 -0.38198 -0.28792 0.0099521 0.20027 0.079058 -0.012569 0.055677 -0.023072 0.10944 0.13715 -0.018388 -0.11639 0.12235 -0.12324 0.011015 -0.20349 -0.073101 0.13103 -0.152 -0.28214 -0.093126 -0.17695 -0.039115 -0.2286 0.068826 0.22186 -0.011291 -0.13736 0.032084 0.080047 0.055852 -0.002459 -0.13568 
었|EP 0.099594 -0.0061488 -0.44838 0.23991 -0.36804 0.22869 -0.26923 0.4531 0.18811 -0.24187 0.1119 -0.062169 0.4068 0.39094 0.39135 -0.11491 -0.19934 -0.048747 -0.43375 -0.12867 0.11367 0.10912 -0.08286 0.32191 -0.072765 -0.088604 -0.031305 0.57122 -0.086239 -0.022015 0.50754 -0.036637 0.34325 -0.040149 0.13264 0.11255 0.18967 -0.13759 0.39641 -0.15984 0.48607 -0.13657 0.0111 -0.11515 -0.09114 0.28024 -0.03986 0.26253 0.12865 0.046744 0.13802 0.063058 0.21256 -0.29579 0.20247 0.10389 -0.036046 -0.27629 0.0049088 -0.32467 -0.10953 -0.010618 0.034942 -0.12085 -0.22288 -0.098584 0.070481 0.29412 0.264 -0.14171 -0.36184 -0.24767 -0.15962 0.23526 0.062395 0.060655 0.016432 -0.0016432 0.20399 -0.29448 -0.22277 0.16106 -0.27039 0.15936 -0.24121 0.39615 0.28496 -0.10186 0.41856 -0.15631 0.11534 0.08714 0.059983 0.020315 0.23664 0.11389 0.14553 -0.09382 0.12613 0.17999 
연결|NNG 0.18271 0.10191 0.12599 -0.10553 0.11649 0.1638 0.16343 -0.2102 -0.32117 -0.28812 -0.01696 -0.38437 -0.38167 0.018962 -0.12949 0.31971 0.02194 -0.033118 0.1886 -0.28547 0.051091 -0.28678 0.0001977 -0.084415 -0.26572 -0.038907 -0.15883 0.036879 -0.19041 0.17695 -0.049371 0.24908 -0.23456 -0.11646 0.20883 0.18028 -0.14596 -0.089052 0.0061298 0.46718 -0.18429 0.09872 -0.039824 0.44974 0.010531 0.0012334 0.20322 -0.42622 -0.1044 0.23518 0.050325 0.033945 -0.038665 -0.018761 -0.01102 0.024951 0.082464 -0.20588 0.019742 0.17759 -0.028994 -0.14685 -0.015546 0.063432 0.12387 -0.36317 0.37439 -0.29651 -0.46189 0.33754 0.060251 0.47309 0.13676 -0.064508 -0.065948 0.1073 -0.14575 0.13142 -0.091694 0.069828 0.4332 -0.14245 0.32528 0.34929 0.22072 0.19359 0.052891 -0.19894 -0.20262 0.048108 -0.26123 -0.065107 -0.3588 0.020859 -0.22331 0.023794 -0.10742 -0.032255 -0.49103 0.034806 
방가|NNG -0.27627 -0.13854 -0.10375 0.13526 0.097249 -0.25921 -0.085374 -0.048463 0.10349 0.21306 -0.16036 0.18113 0.22221 0.12824 0.062994 -0.28937 -0.11704 0.11017 -0.0055873 0.15811 -0.078832 0.0889 0.087555 -0.13198 0.39131 -0.045441 0.17969 -0.42176 0.074016 -0.24063 -0.16024 -0.28415 0.0033512 -0.12513 -0.072075 -0.29126 -0.21194 0.29544 -0.085828 -0.20933 0.11689 -0.064546 0.088596 -0.18543 -0.28071 -0.11215 -0.11756 0.052198 -0.12851 -0.11393 -0.14719 -0.013638 -0.12292 0.13416 -0.070331 -0.047908 -0.23956 0.37122 -0.26012 0.26719 -0.20371 0.053113 0.17313 0.20321 -0.16251 0.19126 -0.42254 0.19653 0.33928 0.093099 -0.28898 -0.47483 -0.077349 -0.22894 -0.10727 -0.31155 0.11603 0.16102 0.070786 0.14947 -0.44125 0.019899 -0.14599 -0.34924 -0.28861 -0.30331 -0.12726 0.13386 -0.13904 -0.064969 0.1662 0.071879 0.41146 -0.37516 0.24484 -0.10512 0.20415 0.17589 0.20617 0.070709 
잘|MAG 0.019858 0.0078172 -0.22148 0.092439 -0.26684 0.1876 -0.14006 0.19651 0.090641 -0.20582 0.14831 -0.11311 0.21361 0.12159 0.24171 -0.0020757 -0.065819 -0.008052 -0.21643 -0.09005 0.11471 -0.036089 -0.14154 0.25966 -0.092702 -0.07927 -0.091439 0.34541 -0.099954 0.0014402 0.32454 -0.04674 0.25961 0.12488 0.087934 0.039779 0.1148 -0.16644 0.2389 -0.03708 0.31826 -0.097292 -0.013682 -0.062716 -0.067498 0.18725 -0.048707 0.21138 0.12358 -0.0085556 0.1517 0.061391 0.13928 -0.18737 0.11735 0.052251 -0.041711 -0.20106 0.021125 -0.17002 -0.060073 -0.011355 -0.033846 -0.12523 -0.14711 -0.086659 0.19056 0.13323 0.085368 -0.12752 -0.15368 -0.10975 -0.16676 0.25168 0.085912 0.063231 0.033336 -0.044242 0.077189 -0.20062 -0.12176 0.12012 -0.16265 0.049553 -0.15961 0.24175 0.20638 -0.089887 0.24952 -0.14907 0.023954 0.012337 0.033618 0.036054 0.11302 0.16698 0.15742 -0.082812 0.085735 0.12971 
한번|MAG 0.012497 -0.067182 -0.31637 0.21867 -0.18623 0.10945 -0.20903 0.19402 0.10554 -0.17489 0.069677 -0.05501 0.35806 0.2523 0.22546 -0.19492 -0.11613 -0.02342 -0.27519 -0.033463 0.053691 0.037958 -0.071582 0.21708 -0.019838 -0.081413 -0.014944 0.28263 -0.050502 -0.054445 0.29245 -0.003569 0.28415 0.066917 0.023334 0.011536 0.019768 -0.081216 0.21851 -0.16142 0.31846 -0.10721 -0.022592 -0.061894 -0.089156 0.17397 -0.067905 0.20339 0.092544 0.050629 0.072976 0.016658 0.13184 -0.19609 0.1098 0.059183 -0.038738 -0.15186 -0.081649 -0.19189 -0.11456 0.0038032 0.070636 0.020371 -0.14559 -0.060665 0.0037698 0.15982 0.22154 -0.10879 -0.26772 -0.26765 -0.076856 0.11609 -0.0024259 0.019891 0.047058 0.032882 0.16231 -0.15513 -0.27354 0.072988 -0.26334 0.070176 -0.19957 0.2042 0.096406 -0.065392 0.21066 -0.10191 0.079474 0.11811 0.13855 -0.040875 0.20194 0.08409 0.1309 -0.011176 0.075472 0.12783 
더|MAG 0.014617 -0.061828 -0.31039 0.20661 -0.17904 0.1231 -0.20637 0.20118 0.1068 -0.16997 0.073178 -0.049013 0.3492 0.24666 0.21279 -0.1898 -0.12261 -0.014682 -0.27844 -0.040328 0.050713 0.040124 -0.063195 0.2169 -0.028146 -0.076801 -0.018055 0.29275 -0.035596 -0.043612 0.29748 -0.0035721 0.28586 0.061501 0.02912 -0.0015807 0.028358 -0.075957 0.21434 -0.16014 0.30973 -0.1187 -0.0071536 -0.052983 -0.098682 0.17347 -0.067852 0.19544 0.08693 0.037565 0.075571 0.019317 0.13186 -0.20126 0.114 0.072441 -0.037074 -0.14776 -0.083289 -0.18806 -0.1219 0.013654 0.065912 0.011694 -0.15248 -0.07032 0.011502 0.15578 0.21664 -0.1099 -0.27114 -0.26256 -0.089785 0.1143 -0.00548 0.020789 0.048046 0.041205 0.16305 -0.15452 -0.26195 0.076763 -0.26145 0.068055 -0.18848 0.20556 0.10042 -0.077949 0.20923 -0.098874 0.068614 0.12996 0.14862 -0.028666 0.2182 0.087927 0.1274 -0.019441 0.070686 0.12398 
해요|XSA+EC -0.018705 -0.075458 0.078068 -0.02737 0.048779 -0.04762 -0.074329 -0.015153 -0.17673 -0.0091562 0.04657 0.019158 -0.025902 -0.089843 -0.15367 -0.04823 -0.0013573 -0.011206 0.10576 0.10371 -0.036441 -0.027698 0.036788 0.053892 -0.091496 0.016562 -0.022682 -0.014061 -0.020747 -0.0065375 -0.039053 0.031398 0.065231 0.074711 -0.0055634 -0.023147 -0.072311 -0.042295 -0.053176 -0.054951 -0.15686 0.045575 -0.074379 -0.023367 -0.0058373 0.070876 0.00034101 -0.09395 -0.0061527 -0.019147 0.030147 -0.045925 0.01554 -0.035408 -0.07682 0.088413 0.032809 -0.042721 0.094874 -0.09308 0.055829 0.017912 0.040461 0.075637 -0.073037 -0.077564 -0.0098412 -0.0044366 -0.10646 -0.06044 0.12148 0.10447 0.031978 -0.071049 -0.0018115 0.025046 -0.035214 0.049795 0.056959 0.038395 0.10217 -0.039239 -0.025461 -0.063995 0.079462 0.0066158 -0.090524 -0.029716 -0.075849 0.02789 -0.14022 0.07584 -0.14095 0.076605 0.046055 -0.043437 -0.057043 0.020106 -0.016869 0.10599 
한|XSV+ETM 0.11004 0.023524 0.086796 -0.071961 -0.067224 0.10114 -0.096357 0.085935 -0.19081 -0.1065 0.085916 -0.15348 -0.023511 -0.019846 0.035697 0.042725 -0.016919 -0.035202 -0.046728 -0.020322 -0.029553 -0.13044 -0.10675 0.22888 -0.050219 0.11073 -0.067627 0.1866 -0.068788 -0.020532 0.13591 0.10621 0.14322 0.046281 0.050183 0.027853 -0.028267 -0.019966 0.072565 0.094999 -0.081365 -0.052417 0.0095203 -0.0026719 0.011608 0.054019 0.072915 0.026002 0.09067 -0.0049495 0.07601 0.0025776 0.032169 -0.063007 0.0957 0.13848 0.020611 -0.18627 0.16185 -0.19026 0.1161 -0.040469 -0.11707 0.014273 0.026578 -0.060799 0.10697 0.015211 -0.15 0.024978 0.16482 0.16645 0.012457 -0.034446 0.11885 -0.0061405 -0.12385 -0.023723 0.060805 -0.0096883 0.17442 -0.0036971 0.029972 0.070302 0.039944 0.090666 0.0015834 -0.1323 0.10605 0.00070251 -0.18844 0.042328 -0.233 0.095664 -0.01549 0.070519 -0.16721 -0.098444 -0.0046925 0.022831 
그렇게|MAG 0.21992 0.21773 0.26388 -0.38555 -0.19179 0.18157 0.039693 0.36496 0.003285 0.23499 0.11494 0.23052 -0.47964 -0.21922 0.26039 0.54055 0.029452 -0.07213 -0.0032267 0.034456 0.18205 0.22939 0.11349 0.056337 -0.0086009 0.077549 -0.11144 0.14445 -0.10164 0.17498 0.040052 -0.36593 -0.070147 -0.20247 0.095192 0.18915 0.5143 0.0057227 0.2178 0.049047 0.079891 0.24092 0.16285 -0.31707 0.22166 0.096267 0.23215 0.064379 0.012597 -0.27958 -0.10901 0.18988 -0.18189 0.081078 -0.010692 0.0086966 -0.23374 0.061507 0.56541 0.030104 0.093457 0.19244 -0.22908 -0.54074 -0.14967 0.23168 0.017765 0.4425 -0.11901 -0.1593 0.044293 0.39167 -0.28874 0.16065 0.3714 0.05204 0.056741 -0.39674 -0.13552 -0.12852 0.47529 0.52633 0.27308 -0.37345 0.13755 -0.067045 0.4549 0.36634 0.4592 -0.14891 0.13236 -0.41962 -0.19306 0.078498 -0.2527 -0.25321 0.0945 -0.18148 0.5524 -0.11103 
네|IC 0.22452 0.21195 0.2577 -0.37662 -0.18341 0.18457 0.029068 0.35124 0.0088217 0.23141 0.10868 0.23013 -0.48482 -0.22018 0.25636 0.53989 0.025039 -0.056634 -0.007105 0.033357 0.18175 0.2273 0.12159 0.054968 -0.007515 0.0615 -0.096855 0.14338 -0.1124 0.16222 0.040253 -0.36666 -0.072317 -0.19807 0.084101 0.18395 0.51265 0.0087314 0.22414 0.044722 0.091275 0.23694 0.17246 -0.31267 0.21647 0.089667 0.2325 0.059581 0.0027019 -0.28042 -0.11195 0.19704 -0.16659 0.068316 -0.013887 0.0109 -0.21624 0.056591 0.56816 0.021277 0.10296 0.19738 -0.24359 -0.54695 -0.14399 0.22524 0.0054611 0.45772 -0.11011 -0.15539 0.032523 0.38396 -0.30068 0.14837 0.35795 0.041022 0.06037 -0.39055 -0.1226 -0.13593 0.47619 0.54286 0.28456 -0.37307 0.143 -0.059436 0.45339 0.38316 0.45552 -0.14338 0.14643 -0.41484 -0.19131 0.073974 -0.26282 -0.25132 0.107 -0.16732 0.5559 -0.11117 
+JX 0.054813 -0.072513 0.089418 0.0014083 0.15405 -0.16648 -0.11037 0.1207 -0.26259 0.052675 -0.098743 0.13651 -0.092043 0.056231 -0.18609 -0.15224 -0.088459 -0.035428 0.05512 0.13941 -0.16519 0.13481 0.20399 -0.075966 -0.027452 0.10902 0.14369 -0.10036 0.045427 -0.06313 -0.12764 0.097176 -0.034671 -0.19796 0.00078756 0.058944 -0.07645 0.13473 -0.046072 -0.087096 -0.28456 0.076788 -0.055272 -0.062784 0.019356 0.024194 0.032336 -0.23361 -0.080673 0.06056 -0.073858 -0.12869 0.00030781 -0.013601 -0.11203 0.14 0.11755 0.0007812 0.066722 -0.10259 0.091104 0.0051215 0.12387 0.16683 -0.032889 -0.081301 -0.24023 0.053863 -0.024585 0.0073403 0.078639 0.080711 0.1915 -0.28822 -0.089134 -0.004167 -0.097792 0.12956 0.14963 0.10544 0.21268 -0.13446 0.059699 -0.014623 0.14707 -0.025504 -0.16967 0.047497 -0.16046 0.13428 -0.096074 0.15605 -0.21839 0.049129 0.081371 -0.20861 -0.21206 0.084211 -0.056296 0.081053 
안녕|NNG -0.34432 -0.19709 -0.12933 0.23761 0.23664 -0.33188 -0.078058 -0.21933 0.1284 0.24492 -0.27087 0.15626 0.36065 0.13375 0.071137 -0.4555 -0.13661 0.14909 -0.01777 0.22827 -0.12963 0.056826 0.062826 -0.18115 0.5093 -0.02051 0.23477 -0.61817 0.13173 -0.33809 -0.22811 -0.23898 0.030745 -0.13878 -0.17429 -0.42521 -0.39987 0.44674 -0.16337 -0.26781 0.059961 -0.11187 0.11215 -0.1144 -0.31001 -0.21349 -0.15477 0.065823 -0.1504 -0.077949 -0.25061 -0.058656 -0.18603 0.1577 -0.055663 -0.063122 -0.28858 0.47043 -0.43324 0.36707 -0.27317 0.090725 0.24134 0.38299 -0.12449 0.27778 -0.57179 0.11614 0.41327 0.16993 -0.3634 -0.68529 -0.012268 -0.35972 -0.1844 -0.40728 0.15558 0.21676 0.11561 0.25807 -0.65847 -0.03238 -0.27639 -0.3959 -0.36435 -0.42617 -0.27103 0.17501 -0.24885 -0.069208 0.19378 0.16807 0.6503 -0.51825 0.30885 -0.12009 0.21795 0.25664 0.19396 0.028142 
100|SN 0.06553 0.23957 -0.089187 0.072527 -0.11217 -0.12784 0.35743 0.37496 0.42644 0.39977 -0.20021 0.45714 0.1289 -0.012087 -0.012753 0.21187 0.049126 -0.060767 -0.0050634 0.059963 -0.036773 0.49564 0.15466 -0.2682 0.12932 0.16134 0.10028 0.045016 0.27158 -0.01198 -0.091604 -0.27282 -0.38571 -0.45509 -0.059726 0.053193 0.63452 0.050568 -0.083229 -0.24402 0.21084 -0.05 0.33189 -0.35753 0.16288 -0.10851 -0.12783 0.22863 -0.11179 -0.192 0.046204 -0.12165 0.11841 0.021726 0.063882 -0.22002 0.16252 0.12488 0.10972 -0.11286 0.26066 0.12615 -0.10287 -0.40918 0.11563 0.40853 -0.39143 0.15951 0.40507 -0.05835 0.020155 -0.38921 -0.010654 0.32366 0.10208 0.10211 0.084033 -0.35925 -0.23553 -0.23991 -0.006587 0.045432 0.013693 -0.16396 -0.12166 -0.31334 0.33686 0.53249 0.021086 -0.13655 0.37118 -0.091548 0.13779 0.085454 -0.086488 -0.1063 -0.12221 -0.0021388 0.17692 -0.099727 
블랙|NNG 0.064874 0.13355 0.037847 -0.091188 -0.16123 0.038211 0.12548 0.21726 0.12802 0.11023 0.044303 0.15699 -0.096804 -0.096363 0.020219 0.24217 0.03992 -0.02 0.020962 -0.015607 0.03683 0.14959 0.020481 -0.011245 -0.035745 0.069992 -0.038283 0.13714 0.026971 0.057857 0.053685 -0.15194 -0.11195 -0.10207 0.045225 0.078973 0.35758 -0.0944 0.037483 -0.0081664 0.074135 0.021465 0.097283 -0.18096 0.1013 0.025482 -0.0020713 0.087169 0.004428 -0.12478 0.089191 -0.0016232 0.056481 -0.0037958 0.033908 -0.049936 0.043341 -0.031985 0.18995 -0.09756 0.15468 0.019893 -0.13881 -0.30542 -0.0015535 0.11475 0.0071275 0.12442 0.023154 -0.083682 0.11392 0.041749 -0.10341 0.22705 0.14787 0.086065 0.0049233 -0.19297 -0.1136 -0.13464 0.15147 0.1131 0.094211 -0.077738 0.00042392 -0.020958 0.21931 0.14665 0.11665 -0.083634 0.067798 -0.13283 -0.11774 0.12914 -0.091593 0.00037184 -0.01304 -0.079961 0.12301 0.0029186 
할게요|VV+EC 0.14657 0.10582 0.095864 -0.15311 -0.10894 0.12686 -0.0099204 0.21082 -0.00088135 0.072944 0.058747 0.076028 -0.18832 -0.064848 0.15231 0.24102 -0.001115 -0.03901 -0.060957 0.015963 0.09632 0.10481 0.040644 0.062435 -0.026715 0.038518 -0.062885 0.13679 -0.061126 0.074291 0.063738 -0.14538 0.016134 -0.095 0.034343 0.10413 0.25869 -0.0041427 0.14406 0.0043183 0.067443 0.099851 0.086325 -0.1508 0.12324 0.070434 0.11727 0.053878 0.021189 -0.10737 -0.036354 0.088749 -0.060934 -0.0010552 0.022128 0.022735 -0.1038 -0.010071 0.28377 -0.023475 0.045131 0.097097 -0.10937 -0.26253 -0.069098 0.10637 0.0096263 0.23103 -0.045296 -0.085929 0.0091416 0.18047 -0.14346 0.09599 0.186 0.037173 0.028986 -0.20307 -0.033782 -0.083986 0.2241 0.26543 0.096041 -0.15118 0.051917 0.010147 0.22931 0.17259 0.27125 -0.07976 0.07514 -0.18129 -0.092301 0.04079 -0.12026 -0.11723 0.043568 -0.1066 0.26299 -0.05001 
반갑|VA -0.0088234 -0.031304 -0.14043 0.2097 0.162 -0.20594 -0.057261 0.14258 0.094488 0.24493 -0.38701 0.20953 0.24646 0.3348 0.25082 -0.26064 -0.20166 0.024757 -0.21928 0.13374 -0.15203 0.26678 0.1717 -0.21083 0.46397 0.14798 0.26325 -0.33739 0.17452 -0.24298 -0.11025 -0.15441 -0.068785 -0.51521 -0.089274 -0.15642 -0.079364 0.54213 0.028977 -0.21573 0.081165 -0.090883 0.29269 -0.14718 -0.10104 -0.16997 0.006656 0.043836 -0.14951 0.023402 -0.28396 -0.061478 -0.16291 0.054423 0.068476 0.018441 -0.1834 0.29546 -0.22966 0.19317 -0.13101 0.13218 0.16022 0.2112 -0.0073658 0.32068 -0.65347 0.22449 0.43275 0.2461 -0.42679 -0.54018 0.090884 -0.34895 -0.085207 -0.29838 0.059719 0.046625 0.14199 0.11447 -0.35498 0.025073 -0.18168 -0.19624 -0.24837 -0.32246 0.0077464 0.34092 -0.030095 -0.05004 0.27473 0.11232 0.42638 -0.40964 0.18261 -0.26063 -0.013828 0.16708 0.1819 -0.10499 
니|VCP+EC -0.20459 -0.011282 0.17749 -0.2062 0.021552 -0.19436 0.12237 -0.067931 0.0062155 0.25175 0.11958 0.19887 -0.31725 -0.1923 -0.34183 0.12056 0.052323 0.068066 0.31206 -0.019858 0.019879 0.034865 0.14105 -0.15644 -0.022168 -0.13264 0.062869 -0.17867 0.0019139 0.029623 -0.19757 -0.20537 -0.27254 0.12577 0.11048 -0.045299 -0.0011292 -0.17927 -0.20708 0.080262 -0.096184 0.14297 -0.11454 -0.14232 -0.13558 -0.087053 -0.094099 -0.17313 -0.12606 -0.16104 0.089945 0.068958 0.014418 0.28352 -0.25126 -0.1524 0.068377 0.24215 0.052914 0.13829 0.025514 -0.13566 -0.052516 -0.11138 -0.073603 -0.045358 0.048712 0.068109 -0.12354 -0.023844 0.22588 0.24068 -0.097733 -0.050309 -0.0053052 -0.065967 -0.0090953 0.16504 -0.15769 0.085589 0.16707 -0.066931 0.45353 -0.15753 0.12828 -0.059719 -0.18903 -0.19466 -0.29581 0.12626 -0.095602 -0.10164 -0.23971 0.035585 -0.077966 0.034139 0.023904 0.052141 -0.056606 0.13269 
해도|VV+EC -0.13873 -0.023208 0.35794 -0.12974 0.22275 0.09944 0.26208 -0.82554 -0.026243 0.0116 0.20693 -0.22609 -0.04146 -0.66803 -0.29956 0.21072 0.35101 -0.0043622 0.48605 0.1198 0.22131 -0.4302 -0.27103 0.082689 -0.10793 -0.14522 -0.39729 -0.29379 -0.083723 0.17189 -0.28689 0.056595 0.043147 0.73195 -0.28233 -0.26623 -0.27677 -0.27917 -0.41548 0.081437 -0.16471 0.029383 -0.032073 0.29111 0.059769 -0.049825 0.040704 0.15528 0.093682 -0.13688 -0.013604 0.057954 -0.14317 0.12161 -0.064048 -0.18759 -0.15632 0.03053 0.12026 0.16973 -0.052748 0.15033 -0.13427 0.031017 0.23678 0.10366 0.40732 -0.51018 -0.36809 -0.0011455 0.32013 0.1325 -0.11434 0.28419 0.075603 0.14101 0.20845 -0.18311 -0.2928 0.084128 -0.16223 0.10424 -0.21242 -0.11578 0.11569 -0.21927 -0.17379 -0.056322 -0.11782 -0.12633 -0.19231 -0.10417 0.32797 0.036089 -0.30195 0.14226 0.16652 -0.010106 0.054134 -0.26789 
조회|NNG 0.019627 -0.021677 -0.064082 0.0078997 -0.1306 0.082886 -0.053342 0.046131 0.067738 -0.27623 0.029329 -0.13357 0.032248 -0.0054768 0.10916 -0.081003 0.10879 0.049769 -0.15859 -0.078215 -0.11415 -0.09584 -0.19204 0.0084318 -0.16399 0.091007 0.021839 0.17062 0.027044 0.046139 0.14825 0.26832 0.10883 0.094118 -0.042278 0.088963 0.11602 -0.071722 0.10723 0.1054 -0.080313 -0.10477 -0.18886 0.10744 0.1807 3.5862e-05 -0.093319 0.040344 0.17547 0.1291 0.084801 -0.098753 0.10616 -0.1745 0.087203 0.070991 0.15215 -0.18917 -0.16073 -0.046874 0.15763 -0.095045 -0.029093 -0.013211 0.051568 -0.10282 0.24219 -0.15833 -0.041275 -0.21385 0.15369 0.068822 0.087043 0.19176 -0.031924 0.12902 -0.046952 -0.011974 0.067256 -0.052278 -0.038389 -0.11673 -0.18136 0.22786 -0.028559 0.25936 0.035929 -0.10808 0.099708 0.049162 0.028039 -0.048709 -0.079471 0.216 0.033041 0.19516 -0.013893 -0.081562 -0.18137 -0.010353 
합니다|VX+EC 0.043825 0.045453 0.026396 -0.064954 -0.049302 0.045461 -0.00063852 0.079295 0.037574 0.038003 0.030152 0.051309 -0.059529 -0.024979 0.06935 0.091885 0.0037679 -0.0036068 -0.025494 -0.0070326 0.047358 0.050745 0.018179 0.013471 0.0034138 0.0045204 -0.026108 0.046588 -0.020428 0.035821 0.035547 -0.080651 -0.012672 -0.042555 0.010528 0.035085 0.12255 -0.0010665 0.066377 -0.009104 0.064792 0.029904 0.036433 -0.058673 0.040186 0.021038 0.029425 0.036868 0.019175 -0.044892 -0.013073 0.03538 -0.029368 -0.0019576 0.011544 -0.018003 -0.045672 0.012415 0.086437 0.008291 0.0023508 0.029943 -0.037746 -0.12471 -0.038023 0.043884 0.009217 0.090603 0.0085161 -0.051646 -0.01916 0.039616 -0.061175 0.05852 0.057613 0.014302 0.02021 -0.078409 -0.025093 -0.04783 0.065675 0.11767 0.033646 -0.069515 0.012261 0.0022155 0.11243 0.089289 0.10214 -0.032615 0.065638 -0.094922 -0.012324 0.007617 -0.037726 -0.027847 0.052318 -0.039312 0.10926 -0.020537 
