31 100
</s> -0.076747 0.049166 -0.022483 -0.16732 0.14149 -0.02073 -0.11947 -0.097694 0.20473 0.21978 -0.095348 -0.045978 0.046427 0.024513 -0.13426 -0.17574 -0.035562 -0.0018244 -0.021803 -0.0021367 -0.0043979 0.16158 0.13705 -0.022762 0.014729 -0.058141 -0.040721 -0.26307 -0.088001 0.17839 -0.016431 -0.033296 -0.14448 -0.022967 -0.22311 -0.13659 -0.10373 -0.056633 -0.0046333 0.02015 0.018113 0.19758 -0.047457 0.046445 -0.050657 0.038313 0.06144 -0.043582 0.010257 0.23927 -0.10475 0.13027 -0.046422 0.0061386 -0.24715 0.055499 -0.041549 -0.078049 0.10279 0.040444 0.020097 0.27269 0.21597 0.22047 -0.13137 -0.0045062 -0.17124 0.03075 0.074492 -0.020209 0.013782 0.17331 -0.02119 -0.10884 -0.22011 -0.051157 0.10502 0.067807 0.1558 -0.13862 0.0027743 0.039877 0.07868 -0.11978 -0.15115 -0.18098 0.061215 0.021511 0.050404 -0.099083 0.11009 0.03192 0.19941 -0.24102 0.05949 -0.1658 0.076886 0.27392 0.020551 -0.03668 
정보|NNG -0.095169 0.19078 0.19089 -0.27504 0.1119 0.11026 -0.091664 0.19662 0.0401 0.19841 -0.007342 0.10371 0.17243 -0.044301 -0.010618 0.031305 -0.087925 0.19894 0.024614 0.1183 -0.09261 0.098948 0.099395 -0.0059079 -0.13488 -0.25612 -0.17747 -0.022745 -0.00060706 0.010932 -0.13161 0.16013 0.058399 -0.010565 -0.21769 -0.13339 -0.26833 0.015903 -0.029208 -0.090467 -0.15685 0.16518 -0.0683 0.068634 -0.082377 -0.12335 -0.11176 -0.11576 0.025624 0.10414 -0.020893 0.24342 -0.1569 0.062055 -0.10073 0.12926 -0.080735 -0.17401 -0.092607 -0.030643 -0.0034328 0.10402 -0.063792 0.21285 -0.19717 -0.041896 -0.19795 0.016904 0.032418 0.00027876 -0.035779 0.15106 0.039744 0.087297 0.012301 -0.12586 -0.099108 0.077675 0.056148 0.0037984 -0.034189 -0.0093713 0.10627 -0.10383 -0.063807 -0.094297 -0.074595 0.051888 -0.056083 0.011217 -0.01963 -0.0029575 0.17587 -0.064437 0.15145 -0.091615 0.047204 -0.048968 -0.064939 0.070933 
확인|NNG -0.15961 0.024699 -0.17205 -0.36818 0.38844 -0.14529 -0.35418 -0.45194 0.63208 0.58207 -0.3067 -0.22009 0.023695 0.081732 -0.43688 -0.58881 -0.062174 -0.14323 -0.09301 -0.046411 0.046604 0.45156 0.37105 -0.046524 0.11581 -0.012487 -0.020132 -0.85056 -0.30455 0.55566 0.052915 -0.20494 -0.48799 -0.056235 -0.59002 -0.36478 -0.18432 -0.16532 0.021122 0.1535 0.13118 0.54922 -0.10634 0.10424 -0.094477 0.20665 0.28921 -0.033712 0.047916 0.73687 -0.33051 0.25587 -0.023789 -0.036002 -0.76267 0.13387 -0.086064 -0.14869 0.40695 0.1519 0.082587 0.80352 0.72852 0.5456 -0.27839 0.014176 -0.41587 0.0588 0.20008 -0.097521 0.10026 0.48217 -0.080627 -0.42013 -0.72262 -0.056442 0.39054 0.1396 0.48438 -0.44259 0.068628 0.10835 0.14794 -0.29435 -0.42285 -0.49504 0.23518 0.034645 0.21911 -0.30327 0.32968 0.084216 0.47393 -0.68271 0.086856 -0.42164 0.18671 0.86302 0.12784 -0.15163 
결제|NNG -0.044599 0.18512 0.23156 -0.15377 -0.016929 0.1537 0.018777 0.33698 -0.14851 0.02407 0.08118 0.18645 0.16331 -0.076256 0.13752 0.22749 -0.065413 0.23875 0.069677 0.14464 -0.10348 -0.053778 -0.015992 0.0092426 -0.1673 -0.24854 -0.1595 0.2537 0.097407 -0.16716 -0.14323 0.23464 0.21527 0.0083995 -0.019486 -0.022662 -0.20339 0.062648 -0.035357 -0.12496 -0.19839 -0.021455 -0.036817 0.025784 -0.070323 -0.19214 -0.20782 -0.10758 0.014548 -0.13877 0.094386 0.17133 -0.14678 0.069475 0.14532 0.087657 -0.047518 -0.13423 -0.24158 -0.075261 -0.033916 -0.14805 -0.31174 0.034217 -0.11426 -0.047333 -0.056615 0.0040961 -0.021671 0.037678 -0.073677 -0.003941 0.067222 0.23351 0.24296 -0.10427 -0.22701 0.034568 -0.096403 0.14469 -0.063864 -0.039502 0.049843 -0.011662 0.067648 0.05744 -0.13974 0.061444 -0.12115 0.097525 -0.13987 -0.026574 0.029745 0.14766 0.10971 0.036878 -0.013281 -0.33235 -0.10226 0.12694 
변경|NNG 0.0012367 0.33975 0.55086 -0.14599 -0.20653 0.34201 0.21407 0.87508 -0.58648 -0.22531 0.30754 0.45255 0.32831 -0.19547 0.46374 0.71975 -0.11256 0.53619 0.15237 0.28416 -0.21954 -0.32131 -0.2221 0.031471 -0.38124 -0.49006 -0.29973 0.87588 0.31355 -0.56739 -0.30952 0.55576 0.63869 0.057162 0.2048 0.12295 -0.33016 0.20594 -0.071697 -0.33499 -0.44846 -0.28081 -0.0015232 0.0069657 -0.081937 -0.46499 -0.54143 -0.17578 0.0077078 -0.59343 0.30251 0.21896 -0.28492 0.15419 0.63939 0.11153 -0.038072 -0.1924 -0.64774 -0.2169 -0.088382 -0.66109 -0.90767 -0.17066 -0.11083 -0.084952 0.054814 -0.022811 -0.12366 0.10408 -0.17596 -0.22426 0.16623 0.63721 0.80204 -0.18466 -0.60751 -0.0060825 -0.41626 0.46036 -0.13772 -0.12132 0.048522 0.090081 0.31613 0.33186 -0.40037 0.094656 -0.32699 0.34041 -0.4046 -0.10335 -0.16003 0.61538 0.19558 0.27901 -0.11545 -1.0483 -0.25976 0.3346 
조회|NNG -0.1246 0.034194 -0.11267 -0.28435 0.2986 -0.094707 -0.25992 -0.31455 0.45502 0.42996 -0.21464 -0.15942 0.028137 0.056551 -0.31775 -0.43811 -0.060062 -0.099678 -0.055277 -0.021755 0.017718 0.33784 0.28059 -0.039773 0.074156 -0.020724 -0.027195 -0.62364 -0.22282 0.41239 0.033393 -0.14764 -0.35847 -0.040571 -0.44113 -0.27358 -0.14374 -0.13281 -0.00060158 0.10396 0.095081 0.41554 -0.088608 0.083906 -0.084095 0.13475 0.19374 -0.030022 0.039626 0.54845 -0.24918 0.20748 -0.026222 -0.020161 -0.55692 0.10433 -0.062259 -0.10866 0.30285 0.11956 0.05413 0.59547 0.53456 0.40898 -0.22426 0.012723 -0.31365 0.042072 0.14344 -0.069878 0.07688 0.37187 -0.052676 -0.29463 -0.53611 -0.049137 0.27127 0.10478 0.3591 -0.32986 0.049961 0.085078 0.1231 -0.22855 -0.32394 -0.36648 0.17782 0.02241 0.16164 -0.22962 0.2553 0.060084 0.35502 -0.51869 0.069028 -0.3284 0.14429 0.64735 0.095313 -0.11765 
조건|NNG -0.077991 0.16141 0.17385 -0.21924 0.073184 0.096814 -0.0541 0.20374 0.012857 0.15243 0.0081472 0.11555 0.14668 -0.048375 0.019938 0.073642 -0.078189 0.17915 0.037192 0.11139 -0.085252 0.05958 0.06069 2.3729e-05 -0.11804 -0.22818 -0.14384 0.023036 0.025631 -0.011698 -0.10965 0.15127 0.087332 0.00034967 -0.14947 -0.087241 -0.22705 0.021503 -0.030831 -0.088952 -0.13429 0.10994 -0.047929 0.047395 -0.072331 -0.12098 -0.12063 -0.097093 0.025925 0.057318 -0.0039669 0.20479 -0.14151 0.052407 -0.048751 0.11011 -0.062035 -0.15157 -0.10646 -0.035482 0.0022427 0.046876 -0.10179 0.14497 -0.15987 -0.040795 -0.14573 0.0166 0.020225 0.0056069 -0.043614 0.10758 0.028445 0.10201 0.057775 -0.10688 -0.10884 0.056668 0.019783 0.020098 -0.041189 -0.010087 0.087725 -0.079824 -0.034375 -0.06784 -0.079337 0.053445 -0.053107 0.02505 -0.046039 -0.014175 0.13107 -0.025018 0.11154 -0.054447 0.038975 -0.085538 -0.054748 0.078319 
보험|NNG -0.076834 0.15079 0.15791 -0.21392 0.072078 0.080878 -0.063844 0.16241 0.02371 0.14686 0.0093061 0.091373 0.14813 -0.047063 0.00057158 0.038968 -0.064787 0.17016 0.025372 0.10081 -0.076127 0.059767 0.072913 -0.014896 -0.1019 -0.19597 -0.13749 0.0034359 0.010739 -0.00068004 -0.097247 0.13471 0.061398 -0.01067 -0.15382 -0.09849 -0.20653 0.016614 -0.02388 -0.063464 -0.12746 0.11799 -0.049198 0.0516 -0.076643 -0.10679 -0.10818 -0.085155 0.024162 0.053841 -0.0069896 0.19847 -0.12635 0.048735 -0.055687 0.10178 -0.063229 -0.14563 -0.10449 -0.028113 -0.017592 0.049004 -0.10111 0.14665 -0.15218 -0.040791 -0.13976 0.01893 0.028113 0.0075816 -0.032032 0.10502 0.031788 0.10375 0.043054 -0.10886 -0.11225 0.053656 0.028191 0.029834 -0.028697 -0.01342 0.085929 -0.073667 -0.037053 -0.055158 -0.080252 0.051296 -0.061847 0.022745 -0.044266 -0.0047005 0.12997 -0.020335 0.1267 -0.050942 0.031439 -0.10083 -0.060272 0.078105 
해|XSV+EC 0.03285 -0.11296 -0.13547 0.12166 -0.023723 -0.080617 0.019713 -0.17882 0.03833 -0.06032 -0.030729 -0.097006 -0.11293 0.032652 -0.035405 -0.092224 0.057516 -0.14112 -0.031587 -0.083009 0.063102 -0.012241 -0.011199 0.0054935 0.081906 0.15068 0.094492 -0.085807 -0.023322 0.055156 0.075796 -0.11853 -0.080841 -0.0040117 0.073548 0.041988 0.13743 -0.02103 0.013091 0.065603 0.10879 -0.043408 0.023381 -0.034052 0.054237 0.1043 0.10238 0.057027 -0.019871 0.006551 -0.023893 -0.12222 0.09665 -0.042495 -0.025933 -0.068717 0.030301 0.10117 0.11192 0.038912 0.004954 0.022147 0.11948 -0.060169 0.093079 0.024391 0.081829 -0.0021266 -0.0022991 -0.0085144 0.040198 -0.030781 -0.02871 -0.10173 -0.091453 0.07507 0.090936 -0.038388 0.014735 -0.041587 0.038679 0.020508 -0.044849 0.038637 0.0030036 0.015611 0.07118 -0.034315 0.05349 -0.040921 0.052194 0.009836 -0.072104 -0.033794 -0.094452 0.016154 -0.0050779 0.12319 0.059396 -0.074686 
이|VCP -0.029121 0.072144 0.0567 -0.10071 0.050154 0.029788 -0.029508 0.070507 0.029642 0.082921 -0.010357 0.043634 0.065944 -0.011978 -0.011661 0.0099653 -0.026693 0.066248 0.011523 0.047614 -0.040434 0.047967 0.038068 -0.0019939 -0.051889 -0.082744 -0.060809 -0.011671 -0.0024843 0.018215 -0.049454 0.056782 0.013813 -0.010009 -0.088683 -0.048113 -0.094834 0.00072515 -0.0013291 -0.020841 -0.053171 0.073064 -0.016442 0.024824 -0.026712 -0.044827 -0.036406 -0.043393 0.012705 0.042222 -0.017969 0.092421 -0.06004 0.021838 -0.047962 0.046195 -0.021008 -0.053017 -0.032094 0.0036479 -0.0018819 0.038103 -0.017312 0.080928 -0.082029 -0.015481 -0.08319 0.0026188 0.011179 0.00073465 -0.0028248 0.061909 0.0016237 0.032193 -0.0014464 -0.038904 -0.021793 0.035434 0.021499 -0.00039551 -0.013819 0.0082263 0.033107 -0.048936 -0.033357 -0.03995 -0.016449 0.028332 -0.022593 0.0067018 -0.0017617 -0.0055669 0.069111 -0.03975 0.060045 -0.038346 0.018502 -0.0061645 -0.014813 0.022168 
요|EC -0.045892 0.067769 0.068484 -0.096851 0.044666 0.042132 -0.025925 0.069363 0.023514 0.088367 -0.014378 0.032864 0.071233 -0.022687 -0.0038824 -0.001129 -0.030338 0.067027 0.01957 0.049028 -0.022426 0.033543 0.047534 -0.012208 -0.039164 -0.095086 -0.060174 -0.012079 -0.0010638 0.009654 -0.037413 0.048559 0.017391 -0.0117 -0.083459 -0.047518 -0.092848 0.0040294 -0.0013433 -0.035164 -0.050861 0.064881 -0.018684 0.029978 -0.032564 -0.041228 -0.047139 -0.04267 0.0094024 0.04489 -0.0085614 0.10136 -0.064485 0.021168 -0.050621 0.046822 -0.035268 -0.065486 -0.033436 -0.007751 0.0032366 0.045696 -0.019982 0.082868 -0.073331 -0.019862 -0.075089 0.0015557 0.016179 -0.0074861 -0.022254 0.067997 0.01582 0.036188 -0.00033525 -0.038711 -0.023865 0.039097 0.033986 -0.017825 -0.015908 -0.0041635 0.047649 -0.048371 -0.038446 -0.052741 -0.029646 0.024138 -0.008183 -0.010497 -0.0026422 -0.010112 0.066667 -0.031315 0.044529 -0.031008 0.018363 0.00050875 -0.01685 0.027435 
계약|NNG -0.028628 0.0036689 -0.033581 -0.076264 0.069196 -0.032487 -0.060013 -0.075462 0.121 0.11177 -0.057721 -0.03756 0.015249 0.024545 -0.089259 -0.12265 -0.019025 -0.0337 -0.011045 -0.0060914 0.015933 0.096743 0.081791 -0.0036943 0.028157 0.00054985 -0.0095169 -0.1556 -0.057715 0.10564 0.0089632 -0.041324 -0.095422 -0.0023786 -0.11505 -0.073686 -0.044329 -0.040689 0.011826 0.034737 0.014385 0.10032 -0.027526 0.02317 -0.028073 0.032226 0.060997 -0.018661 0.0051252 0.15176 -0.062013 0.053356 -0.0071793 0.0025048 -0.14932 0.022203 -0.02305 -0.038592 0.073002 0.03581 0.023547 0.15947 0.14707 0.11897 -0.06221 -0.00014345 -0.085989 0.019402 0.045464 -0.012115 0.014237 0.090121 -0.021333 -0.080059 -0.14886 -0.018979 0.078815 0.031969 0.092737 -0.082944 0.0063432 0.020585 0.027634 -0.055072 -0.092242 -0.094136 0.050834 0.002237 0.040638 -0.051542 0.074218 0.022001 0.095978 -0.13598 0.019641 -0.076047 0.041481 0.16273 0.015864 -0.037248 
하|XSV -0.020127 0.11716 0.16938 -0.09971 -0.038996 0.12255 0.043292 0.27497 -0.13503 -0.01876 0.082379 0.13244 0.11942 -0.053623 0.11176 0.19303 -0.053064 0.18763 0.046561 0.10817 -0.073215 -0.065427 -0.036 -0.0034988 -0.11489 -0.18184 -0.11991 0.21969 0.081049 -0.13905 -0.10509 0.18404 0.17867 0.020896 0.01422 0.010543 -0.13514 0.056325 -0.024063 -0.10435 -0.15033 -0.040213 -0.0081809 0.018424 -0.028967 -0.15182 -0.16965 -0.080328 0.017768 -0.12672 0.081878 0.10781 -0.099832 0.050397 0.14041 0.056929 -0.035142 -0.091169 -0.19629 -0.065495 -0.019576 -0.1571 -0.26257 0.00010165 -0.074497 -0.026703 -0.026045 -0.0074237 -0.024197 0.037793 -0.050584 -0.033396 0.045495 0.18833 0.20592 -0.064119 -0.17167 0.010798 -0.09621 0.12527 -0.034855 -0.034237 0.034989 0.0011453 0.061454 0.066065 -0.12659 0.028423 -0.10008 0.090148 -0.10897 -0.021606 -0.016167 0.1576 0.084669 0.062409 -0.02515 -0.28523 -0.073065 0.10429 
세요|EP+EF 0.051554 -0.12808 -0.13845 0.13529 -0.040257 -0.084453 0.023738 -0.1725 0.024799 -0.089229 -0.029588 -0.098011 -0.12007 0.033798 -0.043467 -0.08007 0.0612 -0.13212 -0.021908 -0.08602 0.056981 -0.024582 -0.021031 -0.00092282 0.10048 0.16286 0.10017 -0.065684 -0.029335 0.02964 0.094383 -0.11509 -0.073736 -0.0056389 0.083466 0.048811 0.15008 -0.013109 0.02767 0.070705 0.10745 -0.067014 0.033333 -0.040128 0.04925 0.09916 0.10548 0.06579 -0.018739 -0.0045344 -0.0040626 -0.13731 0.092822 -0.043318 0.0032662 -0.069787 0.042254 0.095778 0.10003 0.037095 -0.00039278 0.0091176 0.10739 -0.090774 0.10371 0.032207 0.081819 -0.0053472 -0.0096152 -0.0097587 0.04179 -0.049179 -0.021675 -0.086557 -0.061028 0.077342 0.093705 -0.029412 0.011578 -0.034834 0.020382 0.018058 -0.048874 0.04845 0.016142 0.023198 0.068084 -0.040707 0.044267 -0.023605 0.045172 0.012011 -0.075816 -0.0019435 -0.088938 0.029625 -0.024872 0.095729 0.053359 -0.062595 
주|VX 0.057047 -0.11414 -0.1417 0.14654 -0.027612 -0.081336 0.023552 -0.15694 0.02875 -0.075539 -0.024087 -0.09859 -0.1205 0.03968 -0.033365 -0.074987 0.046955 -0.13769 -0.031979 -0.087678 0.054435 -0.012003 -0.029014 0.0061576 0.10041 0.16891 0.10934 -0.066829 -0.034706 0.033341 0.08769 -0.12395 -0.079942 -0.002431 0.094983 0.053181 0.16261 -0.021762 0.022308 0.069595 0.10713 -0.059636 0.036391 -0.036987 0.043953 0.097561 0.096984 0.06281 -0.0063094 0.000596 -0.021065 -0.14161 0.10468 -0.036085 -0.0039603 -0.062319 0.038724 0.10017 0.096931 0.032216 0.0073626 0.003453 0.10587 -0.087869 0.11658 0.031368 0.081487 -0.018205 -0.014221 -0.01197 0.03395 -0.057764 -0.035411 -0.091031 -0.069901 0.077179 0.092378 -0.031005 0.0086502 -0.030294 0.029489 0.01887 -0.049181 0.055966 0.015994 0.033918 0.068366 -0.036545 0.044351 -0.028279 0.042815 0.017737 -0.083571 -0.0041537 -0.091494 0.027387 -0.018871 0.099796 0.051559 -0.069658 
상담원|NNG 0.22454 -0.30867 -0.22759 0.56161 -0.31001 -0.10679 0.26659 -0.14436 -0.30466 -0.54576 0.12256 -0.092336 -0.29141 0.033243 0.16716 0.16264 0.17182 -0.26677 -0.01224 -0.17157 0.13109 -0.31582 -0.29311 0.045313 0.15916 0.41062 0.27727 0.35473 0.10677 -0.24002 0.19088 -0.17206 0.088557 0.032571 0.56111 0.34622 0.48413 0.038009 0.033303 0.089844 0.17572 -0.44978 0.14229 -0.14489 0.17783 0.12669 0.094285 0.20358 -0.064062 -0.43741 0.15938 -0.49474 0.2757 -0.074355 0.43402 -0.24238 0.13748 0.33073 0.011972 -0.011894 -0.024716 -0.4573 -0.15089 -0.52621 0.41784 0.049784 0.46001 -0.049908 -0.13684 0.024412 0.020932 -0.42316 -0.016151 0.010965 0.24985 0.22667 0.016066 -0.1737 -0.26931 0.17183 0.042003 -0.032966 -0.23115 0.29238 0.25888 0.3367 0.026128 -0.11205 0.011665 0.10908 -0.083077 -0.028698 -0.45573 0.37066 -0.26076 0.31472 -0.15147 -0.24414 0.049005 -0.069713 
연결|NNG 0.22068 -0.3078 -0.23045 0.56859 -0.31817 -0.11711 0.26596 -0.15505 -0.31093 -0.54366 0.13108 -0.091248 -0.30259 0.047705 0.17538 0.16283 0.17131 -0.25203 -0.017135 -0.16082 0.11736 -0.31477 -0.29545 0.041839 0.1581 0.40911 0.28479 0.35315 0.10554 -0.2352 0.18172 -0.18964 0.099459 0.030131 0.55187 0.34194 0.48614 0.049139 0.042796 0.08632 0.19218 -0.45333 0.14215 -0.1463 0.19183 0.12079 0.079323 0.20318 -0.065737 -0.44266 0.15278 -0.48845 0.26833 -0.090507 0.42272 -0.24806 0.15412 0.33624 0.0052814 -0.0090977 -0.020866 -0.44428 -0.16129 -0.53095 0.42809 0.062449 0.45546 -0.068703 -0.13568 0.022192 0.023279 -0.40826 -0.02356 -0.0034857 0.23876 0.22771 -0.0010333 -0.18115 -0.25155 0.16617 0.030534 -0.040311 -0.22893 0.27561 0.27338 0.3494 0.032963 -0.10716 -1.276e-06 0.10871 -0.10213 -0.018551 -0.45873 0.35732 -0.25224 0.31504 -0.14826 -0.23803 0.049816 -0.065429 
부탁|NNG -0.026422 -0.0025737 -0.026424 -0.042933 0.042917 -0.017578 -0.050881 -0.047197 0.079207 0.079465 -0.036764 -0.026937 0.013952 0.0092259 -0.049381 -0.06882 -0.004536 -0.020742 -0.018696 -0.012952 0.011764 0.061501 0.055758 -0.0025604 0.020017 0.0028209 -0.0048264 -0.1068 -0.043298 0.075082 0.0063279 -0.032262 -0.064161 -0.013165 -0.068908 -0.046781 -0.01463 -0.030051 -0.0025801 0.012545 0.0093634 0.059803 -0.021502 0.022367 -0.0061914 0.014309 0.029136 -0.01454 0.011123 0.093052 -0.043294 0.033691 -0.010123 -0.00051106 -0.090056 0.019831 -0.014382 -0.025921 0.056787 0.024447 -0.0011973 0.10496 0.076534 0.058083 -0.030108 0.0043674 -0.059591 0.013418 0.026112 -0.014386 0.0059164 0.067169 -0.0015638 -0.05494 -0.08838 -0.015713 0.050384 0.011239 0.056352 -0.061952 0.0018855 0.0089425 0.018004 -0.041767 -0.054937 -0.056364 0.03045 0.0086378 0.028754 -0.0345 0.041963 0.013202 0.063371 -0.084346 0.010995 -0.049964 0.024469 0.1028 0.0047993 -0.021877 
드려요|VV+EC -0.029367 0.0045828 -0.011117 -0.055696 0.039722 -0.015374 -0.03338 -0.052113 0.081958 0.070637 -0.027257 -0.021996 -0.00055979 0.0030145 -0.043704 -0.075258 -0.01684 -0.0055241 -0.0098025 -0.0090363 -5.5837e-06 0.053797 0.043819 -0.014844 0.0065671 -0.0081973 -0.0011968 -0.10062 -0.03038 0.067669 0.0072282 -0.015731 -0.052684 -0.012789 -0.063458 -0.039173 -0.016141 -0.01323 -0.0062611 0.018067 0.023427 0.064577 -0.019756 0.017843 -0.016317 0.016203 0.04164 -0.00037775 0.014624 0.092913 -0.038137 0.040336 0.0038332 -0.00013158 -0.087425 0.016447 -0.0212 -0.020975 0.038754 0.010935 0.008805 0.094006 0.078723 0.065747 -0.036504 -0.0018508 -0.044964 -0.00085493 0.033811 -0.0044364 0.011775 0.068212 -0.0041614 -0.055348 -0.081121 -0.0090851 0.036771 0.023119 0.05346 -0.051519 0.0086326 0.0049259 0.023077 -0.043838 -0.048428 -0.068838 0.027359 0.01176 0.024539 -0.02727 0.05022 0.00015875 0.058641 -0.093227 0.0066363 -0.0469 0.014625 0.10245 0.011063 -0.0087263 
결정|NNG -0.012504 0.00099975 -0.027536 -0.046859 0.048784 -0.014016 -0.040094 -0.048206 0.076901 0.077567 -0.027842 -0.020649 0.00064599 0.0080684 -0.046233 -0.074266 -0.010482 -0.011912 -0.016128 0.0052602 -0.0052156 0.056399 0.055725 -0.0055327 0.020257 -0.010628 0.0024278 -0.096164 -0.036062 0.072129 -0.0049812 -0.031971 -0.052093 -0.0099317 -0.082302 -0.037615 -0.016661 -0.015025 0.0049624 0.022577 0.011688 0.073595 -0.006048 0.0095381 -0.014066 0.025326 0.026484 -0.014073 0.014841 0.096919 -0.032452 0.032223 -0.0011107 -0.0071497 -0.092787 0.013768 -0.0039609 -0.011372 0.045531 0.017342 0.012887 0.097559 0.085879 0.062366 -0.026056 -0.00066045 -0.060993 0.0057535 0.033783 -0.013081 0.016396 0.051844 -0.0086454 -0.04504 -0.092824 -0.0018874 0.035305 0.024565 0.066855 -0.046183 0.0074489 0.022812 0.014186 -0.045178 -0.053746 -0.067585 0.01884 0.0068223 0.021855 -0.030068 0.040457 0.015344 0.053302 -0.089347 0.0040317 -0.055663 0.030827 0.10032 0.021064 -0.025168 
돼|VV+EC -0.031164 0.014137 -0.01725 -0.038936 0.050284 -0.012369 -0.043051 -0.038244 0.07894 0.061166 -0.030573 -0.024116 0.01068 0.0089279 -0.054423 -0.077726 -0.017362 -0.019046 -0.0067326 -0.0081671 0.011766 0.04643 0.050054 -0.0088358 0.0081198 0.0026804 0.0013093 -0.099262 -0.038817 0.060993 0.0025544 -0.021507 -0.050702 -0.00071283 -0.076114 -0.049534 -0.019016 -0.013623 0.0088974 0.018618 0.006796 0.061574 -0.0086264 0.020175 -0.014446 0.012835 0.028335 -0.01608 0.0064941 0.080128 -0.031464 0.039271 -0.0013753 -0.0015267 -0.083662 0.02043 -0.0052351 -0.014855 0.055608 0.024873 0.0022795 0.096292 0.087721 0.07625 -0.044017 0.006475 -0.052952 0.0011343 0.03144 -0.0049515 6.4189e-05 0.054628 -0.010365 -0.051936 -0.090594 -0.011206 0.047645 0.010916 0.060056 -0.042182 -0.0014789 0.004219 0.01212 -0.030308 -0.043499 -0.057562 0.027233 -0.0025816 0.02397 -0.032084 0.047448 0.0017864 0.061626 -0.073949 0.01136 -0.044847 0.028445 0.10427 0.015475 -0.017898 
안|MAG -0.017504 0.0053547 -0.01771 -0.037662 0.040062 -0.016289 -0.042628 -0.052002 0.079066 0.064155 -0.034108 -0.015528 0.0090482 0.0056126 -0.058256 -0.071082 -0.0083614 -0.012946 0.00056792 0.0012394 0.011174 0.056359 0.03664 0.0037106 0.0029327 0.0029542 -0.0094553 -0.101 -0.040145 0.061692 -0.0035689 -0.030751 -0.06503 -0.015454 -0.076254 -0.034755 -0.022661 -0.014203 0.0043982 0.017723 0.015876 0.06141 -0.0068535 0.012626 -0.015906 0.029965 0.026521 0.00010585 0.014077 0.094754 -0.046588 0.041 -0.01528 -0.010955 -0.079812 0.018704 -0.01423 -0.01786 0.051809 0.020707 0.0004674 0.10027 0.076468 0.076705 -0.04086 -0.0015869 -0.057134 0.01507 0.029801 -0.0011658 0.011727 0.053921 -0.012497 -0.040331 -0.089243 -0.00090964 0.045959 0.019742 0.065314 -0.046109 0.015848 0.014858 0.025157 -0.046229 -0.059964 -0.051268 0.028839 0.004516 0.030323 -0.031938 0.029815 0.017587 0.056622 -0.085201 0.012049 -0.05654 0.014419 0.094763 0.02077 -0.0091912 
려고요|EC -0.017546 0.061183 0.095234 -0.048988 -0.024644 0.054935 0.024889 0.14074 -0.074822 -0.019432 0.050837 0.065277 0.06584 -0.038167 0.069952 0.097724 -0.016257 0.10106 0.02828 0.050283 -0.047294 -0.034325 -0.026214 -0.003975 -0.069999 -0.090364 -0.069205 0.11603 0.053453 -0.076855 -0.060259 0.088012 0.099965 0.0026468 0.005192 0.010077 -0.079969 0.033252 -0.013628 -0.053816 -0.086761 -0.025263 -0.015381 0.01691 -0.018894 -0.085296 -0.080487 -0.032065 -0.0019423 -0.082076 0.042026 0.054225 -0.047951 0.023946 0.08602 0.032408 -0.0084643 -0.041107 -0.10663 -0.040428 -0.0055116 -0.094183 -0.13552 -0.010104 -0.042642 -0.017175 -0.0038966 0.0050861 -0.015758 0.022469 -0.030771 -0.025211 0.024644 0.095114 0.12384 -0.040823 -0.10098 0.015644 -0.059342 0.07312 -0.027245 -0.023312 0.020086 0.001199 0.038915 0.050863 -0.06073 0.021115 -0.061449 0.044893 -0.055341 -0.0059511 -0.001891 0.092802 0.039599 0.028499 -0.021256 -0.16507 -0.037329 0.063715 
줘|VX+EC -0.013955 0.0036435 -0.0069491 -0.046148 0.039154 -0.0066333 -0.02754 -0.05083 0.062981 0.065347 -0.041455 -0.015853 0.0095101 0.0092719 -0.044015 -0.068104 -0.012122 -0.012779 -0.01513 0.00082048 -0.006021 0.057762 0.039092 -0.01159 0.0062174 -0.002805 -0.014723 -0.084581 -0.030883 0.059866 0.0017285 -0.01317 -0.048727 -0.011498 -0.073919 -0.045744 -0.033683 -0.014747 0.0006386 0.012836 0.0016908 0.055688 -0.012077 0.019037 -0.010543 0.02041 0.01883 -0.0079703 0.0099575 0.078206 -0.032097 0.032527 -0.0090186 -0.001375 -0.087156 0.021688 -0.0042469 -0.027467 0.047766 0.0071935 0.0061359 0.084389 0.073274 0.054042 -0.027604 -0.0030033 -0.053526 0.0031087 0.014061 0.00090368 0.00070771 0.058567 -0.013901 -0.044352 -0.071993 -0.00066877 0.037293 0.012926 0.059887 -0.041653 -0.0047578 0.015514 0.027447 -0.035454 -0.045203 -0.060884 0.021484 0.00351 0.027047 -0.029071 0.044877 0.0041242 0.049163 -0.073823 0.008862 -0.057097 0.015382 0.084009 0.012842 -0.020391 
해|VV+EC -0.039734 0.029366 -0.014603 -0.090934 0.08617 -0.010781 -0.07005 -0.0742 0.13074 0.12978 -0.055463 -0.044096 0.010232 0.014205 -0.082377 -0.12579 -0.022186 -0.021279 -0.01297 -0.010438 0.011317 0.097276 0.081826 -0.010006 0.006318 -0.023383 -0.023758 -0.17101 -0.06674 0.10338 0.0090708 -0.032382 -0.087237 -0.0057349 -0.13654 -0.079748 -0.052213 -0.029613 0.008935 0.021098 0.0088351 0.12546 -0.023511 0.016364 -0.029128 0.035397 0.051242 -0.023567 0.01379 0.16041 -0.067334 0.070254 -0.02569 0.0012238 -0.15569 0.026347 -0.019159 -0.03396 0.082456 0.024246 0.010305 0.16449 0.14922 0.12187 -0.065084 -0.0091386 -0.091665 0.0097379 0.04354 -0.01612 0.019126 0.1128 -0.016889 -0.080869 -0.13828 -0.024455 0.069381 0.03254 0.10282 -0.083854 0.01395 0.01419 0.037686 -0.071802 -0.081273 -0.10697 0.043212 0.0017062 0.048781 -0.056547 0.064033 0.011225 0.11152 -0.13659 0.024298 -0.096823 0.033754 0.16982 0.01814 -0.022365 
원해요|VV+EC -0.030984 0.010826 -0.039333 -0.062945 0.064888 -0.027201 -0.058937 -0.081389 0.10815 0.11002 -0.055764 -0.035019 0.0066146 0.014415 -0.082575 -0.10297 -0.013566 -0.025592 -0.022207 -0.012626 0.015751 0.091958 0.066158 -0.0044363 0.013116 0.0049906 -0.0089439 -0.15769 -0.048325 0.092803 0.0031544 -0.038648 -0.091635 -0.00285 -0.10027 -0.058134 -0.028378 -0.027006 0.0025696 0.022188 0.026301 0.088922 -0.017628 0.0089999 -0.015762 0.032259 0.044528 -0.0083413 0.002068 0.12742 -0.068577 0.036607 -0.0065748 -0.0068459 -0.1449 0.021451 -0.008464 -0.019252 0.078009 0.028395 0.011331 0.14202 0.13777 0.09434 -0.040157 0.0088063 -0.077795 0.0049617 0.039073 -0.014597 0.021635 0.093807 -0.012918 -0.076015 -0.12793 -0.0095732 0.069952 0.032248 0.090331 -0.084312 0.020328 0.011998 0.024753 -0.057206 -0.075039 -0.09408 0.041949 0.0049096 0.041805 -0.060922 0.065582 0.014271 0.076158 -0.11786 0.017102 -0.083135 0.031937 0.15762 0.018145 -0.025165 
원해|VV+EC -0.040011 0.017029 -0.024259 -0.066426 0.071262 -0.023185 -0.070329 -0.075505 0.10402 0.098425 -0.043651 -0.030155 0.01005 0.015663 -0.075684 -0.10879 -0.019345 -0.015498 -0.0099067 0.00087237 -0.0028783 0.086685 0.077221 -0.012072 0.017929 -0.0030677 -0.012905 -0.14559 -0.0513 0.098682 0.0064674 -0.036124 -0.074911 -0.001832 -0.10988 -0.068097 -0.044999 -0.033866 1.6625e-05 0.013777 0.030838 0.097604 -0.024244 0.013372 -0.012036 0.034505 0.04048 -0.002417 0.010048 0.13156 -0.055278 0.042472 -0.012401 -0.013336 -0.1435 0.033449 -0.019366 -0.035458 0.072298 0.023443 0.0075787 0.14904 0.11824 0.095979 -0.046796 -0.0018362 -0.083429 0.0061595 0.030526 -0.0079952 0.0083324 0.099403 -0.023627 -0.067712 -0.12427 -0.005356 0.06961 0.03302 0.080316 -0.084171 0.017773 0.026401 0.033316 -0.05209 -0.084852 -0.099362 0.040537 0.003309 0.043205 -0.049861 0.049786 0.0048909 0.085385 -0.12424 0.025241 -0.070878 0.027842 0.1605 0.030316 -0.030838 
필요|NNG -0.014857 0.0037442 -0.016916 -0.056705 0.053954 -0.01643 -0.051266 -0.054663 0.076848 0.077007 -0.040316 -0.017111 0.00021675 0.0035714 -0.049997 -0.075731 -0.018391 -0.012601 -0.0098594 -0.0066452 0.011071 0.062068 0.052637 0.0036211 0.012265 0.0017891 -0.0094674 -0.10745 -0.034844 0.074111 0.002589 -0.016365 -0.061515 -0.0027096 -0.077295 -0.04928 -0.020319 -0.016452 -0.003188 0.012959 0.021053 0.063975 -0.010059 0.016808 -0.014085 0.016692 0.035991 -0.013365 0.0077243 0.084479 -0.030919 0.032183 -0.0083298 -0.010037 -0.09091 0.012832 -0.011131 -0.020315 0.04955 0.024609 0.0089883 0.10592 0.079339 0.07548 -0.041708 -0.0051128 -0.058569 0.014349 0.025841 -0.010279 0.010144 0.063782 -0.0052782 -0.043197 -0.087999 -0.010462 0.035634 0.0084664 0.054562 -0.050237 -0.0011559 0.016353 0.020715 -0.032348 -0.053333 -0.064292 0.028759 0.0099032 0.023106 -0.033228 0.044187 0.00085219 0.062953 -0.081664 0.01507 -0.059989 0.020523 0.10357 0.021833 -0.014035 
어요|EF -0.0049721 0.071097 0.089176 -0.04377 -0.0088444 0.058812 0.018982 0.11939 -0.055455 0.0046447 0.042481 0.069776 0.069126 -0.023707 0.045018 0.092791 -0.0281 0.094035 0.026661 0.056817 -0.037009 -0.036422 -0.010652 0.0041372 -0.06399 -0.093988 -0.064087 0.10576 0.03833 -0.0666 -0.044142 0.091624 0.074811 -0.00025125 -0.0033778 -0.0025479 -0.069226 0.024341 -0.0038249 -0.045721 -0.073086 -0.013863 -0.0091797 0.010658 -0.025662 -0.079086 -0.084781 -0.036075 -0.0013311 -0.0503 0.035267 0.060186 -0.053631 0.030978 0.07245 0.032523 -0.016783 -0.048535 -0.094096 -0.035532 -0.020194 -0.06638 -0.11378 -0.0068986 -0.034326 -0.010001 -0.008655 0.0031049 -0.019069 0.01764 -0.026551 -0.014735 0.030443 0.084841 0.089764 -0.026083 -0.074972 0.013312 -0.033109 0.062002 -0.016167 -0.012802 0.019267 -0.0029731 0.022904 0.028599 -0.058655 0.024546 -0.054508 0.044304 -0.049175 -0.0067458 -0.0045421 0.061822 0.03787 0.015656 -0.0067733 -0.13667 -0.028563 0.048192 
싶|VX -0.018042 0.066546 0.08245 -0.048309 -0.0063984 0.049609 0.0067836 0.12156 -0.065363 -0.0073517 0.030705 0.076605 0.05579 -0.025719 0.057041 0.094671 -0.030879 0.096629 0.022634 0.04262 -0.041653 -0.033644 -0.018661 0.0099571 -0.057897 -0.087132 -0.059784 0.10257 0.033331 -0.071262 -0.062431 0.089888 0.077402 0.011732 -4.4266e-05 -0.0019698 -0.075441 0.03533 -0.0063646 -0.05801 -0.079354 -0.011033 -0.0055536 0.012353 -0.02093 -0.077457 -0.084373 -0.028656 0.0018999 -0.061895 0.032625 0.046553 -0.060962 0.016283 0.065903 0.034537 -0.0172 -0.048515 -0.080205 -0.01973 -0.017816 -0.062683 -0.12475 -0.0036651 -0.036595 -0.018565 -0.010705 0.0055668 -0.011728 0.0039091 -0.02228 -0.001432 0.027482 0.090772 0.09961 -0.042465 -0.079342 0.0007342 -0.045192 0.060329 -0.016225 -0.012729 0.020302 -0.0057554 0.033818 0.02843 -0.060458 0.020076 -0.046574 0.036807 -0.044902 -0.0051453 -0.0076612 0.073888 0.04095 0.017057 -0.0058973 -0.13337 -0.030597 0.049735 
고|EC -0.021298 0.061857 0.089133 -0.042033 -0.017658 0.056413 0.018841 0.12145 -0.072344 0.0066707 0.038155 0.06886 0.06238 -0.024183 0.050995 0.097783 -0.016626 0.0827 0.027272 0.047645 -0.029292 -0.02296 -0.014567 0.0098908 -0.057861 -0.0925 -0.062769 0.10399 0.036744 -0.071047 -0.061941 0.086714 0.086711 0.0036437 -0.0053777 0.0021505 -0.074808 0.034694 -0.016175 -0.043527 -0.064655 -0.018151 0.0019983 0.01738 -0.02668 -0.077491 -0.080872 -0.029505 0.0028506 -0.057785 0.041737 0.051447 -0.051084 0.025102 0.068122 0.034947 -0.003347 -0.041124 -0.092197 -0.028682 -0.0070011 -0.07655 -0.12624 -0.0057764 -0.036805 -0.0063974 -0.016172 0.0046974 -0.008477 0.022566 -0.028659 -0.011678 0.020141 0.079448 0.09742 -0.03677 -0.082063 0.015013 -0.043817 0.062268 -0.01891 -0.020136 0.019445 -0.0098981 0.039593 0.03584 -0.053951 0.025568 -0.052272 0.040556 -0.04762 -0.0091841 0.0054603 0.074571 0.045687 0.014964 -0.0021708 -0.13247 -0.043055 0.045414 
