216 100
</s> -0.48991 0.42982 -0.42799 -0.20151 0.15355 -0.14071 0.35866 0.27915 0.52244 0.55857 0.07286 0.054642 0.23568 0.10976 -0.1219 -0.07766 -0.040524 -0.076024 0.031153 -0.20294 -0.045897 0.17011 -0.059512 -0.14524 5.2026e-05 0.072854 0.23922 -0.011542 0.30662 -0.1053 0.010244 -0.11348 0.02211 0.1132 0.23975 0.14484 0.058913 0.023957 -0.17249 0.0061734 0.19519 -0.39867 -0.004472 -0.21748 -0.37636 0.020999 -0.29529 -0.072512 0.15683 -0.11502 0.15022 -0.12576 -0.10535 0.026568 -0.065944 0.015301 0.24407 0.022483 -0.12574 0.32978 -0.08162 -0.071734 0.25867 -0.055826 -0.23372 -0.14302 0.07439 0.10297 0.25494 -0.11602 0.11463 -0.45751 0.13873 0.27216 0.092599 -0.035237 0.094405 0.025528 0.010297 0.079065 -0.12178 -0.12212 0.011208 -0.0078555 -0.11226 -0.037215 -0.083125 -0.011289 0.059492 -0.070451 -0.10863 -0.19705 0.01557 0.26624 0.048361 -0.027402 -0.056182 0.28672 0.045176 0.20704 
안|MAG -0.23003 -0.0070223 0.1267 -0.25675 -0.017891 0.19117 0.056983 0.091921 -0.26513 0.34764 0.082057 -0.28789 -0.013785 -0.35026 -0.24297 -0.082579 -0.16392 0.3556 0.19425 0.34123 -0.10867 0.39057 0.28529 -0.14056 0.086419 -0.23841 -0.5342 -0.41022 -0.46002 0.40483 -0.21077 0.23233 -0.010406 -0.17701 -0.3025 -0.078603 -0.10106 0.13497 -0.2104 -0.45183 -0.44418 0.53415 -0.53784 0.35635 0.19166 0.31988 0.29273 -0.036268 -0.4585 0.41451 -0.37009 0.26242 -0.23888 0.3713 0.023426 0.01937 -0.8773 0.045488 -0.015398 -0.22396 -0.28637 0.20328 -0.0039811 0.2365 -0.1649 0.16837 -0.13756 0.1207 -0.098518 -0.0050303 -0.04938 0.33628 0.076556 -0.25058 0.0016575 0.0082561 -0.097542 -0.28281 -0.27018 0.30024 0.082374 0.16992 -0.05032 -0.37676 -0.13099 -0.48004 0.086048 0.039969 0.14286 0.35174 -0.21951 0.14786 0.030483 -0.66396 0.01436 0.25185 0.3625 -0.0751 -0.24539 -0.19884 
어요|EF -0.091332 -0.52552 -0.02472 -0.36437 -0.14543 0.071668 -0.12887 -0.17869 -0.56732 0.15745 0.36342 -0.13378 -0.10588 -0.33216 -0.16469 0.065054 0.01465 0.34569 -0.25166 0.34261 -0.051039 0.13634 0.15728 -0.34897 0.26105 -0.28273 -0.50631 -0.1703 -0.049586 0.39268 0.0081534 -0.10552 0.022373 0.34194 -0.17219 -0.078024 -0.043057 0.13937 -0.021182 -0.37917 -0.33061 0.052586 -0.58066 0.10831 -0.11073 0.066511 0.31118 0.057949 -0.11766 -0.02919 -0.30056 0.09333 -0.21245 0.0051809 -0.23669 0.042829 -0.053048 -0.28754 -0.53914 0.33827 0.02135 -0.016816 0.23199 -0.24572 0.23634 -0.13159 0.28619 0.032367 -0.13693 -0.2176 0.3532 -0.1461 -0.081375 -0.29812 0.046695 -0.24997 -0.48265 -0.20143 -0.23128 0.52122 -0.083895 0.01783 -0.28925 0.1621 0.0089708 -0.38858 -0.18115 0.20454 0.17994 0.5937 -0.40566 -0.34023 -0.17247 -0.44811 0.44503 0.49411 0.529 0.22538 -0.13535 0.044121 
줘|VX+EC 0.30328 -0.14877 0.4222 -0.051707 -0.42503 0.22736 -0.33186 -0.07979 -0.87179 -0.80904 0.037439 -0.10769 -0.081069 -0.35735 0.1656 -0.098961 0.29995 -0.30339 0.20538 0.27481 -0.17431 -0.38996 -0.35226 0.30876 0.27502 -0.0097158 -0.58508 0.011391 -0.24779 0.15403 0.1305 0.50314 -0.20456 0.062513 -0.16618 0.034328 -0.12793 0.14897 0.11591 -0.15793 -0.55249 0.37728 -0.35361 0.29196 0.25382 -0.038102 0.50168 0.033439 0.010418 0.084866 0.014226 0.20437 -0.1168 0.41188 0.31659 0.29194 -1.1077 -0.063682 -0.19131 -0.51025 -0.087923 -0.15134 -0.36334 0.24396 0.017418 0.18552 0.080284 -0.20495 -0.38817 -0.43199 0.050178 0.4382 0.40625 -0.035873 -0.15939 0.076805 -0.49465 -0.1135 0.17852 0.11042 -0.14207 -0.030556 -0.47638 0.036075 0.28428 -0.058057 0.29621 -0.30299 0.29115 0.01601 -0.49042 0.40493 -0.11786 0.030222 0.025046 0.68148 0.20687 -0.27741 -0.11367 -0.009161 
다른|MM -0.29259 0.8878 -0.30522 -0.074872 1.0386 0.042885 0.23735 -0.034345 0.91837 0.12996 -0.18813 0.29684 0.46348 0.99418 0.30979 0.34559 0.18249 -0.44565 0.23726 -0.65259 -0.10087 -0.73258 -0.20646 0.41969 0.33079 -0.65933 0.13279 0.59906 -0.096028 0.39788 -0.48496 0.040621 -0.25314 -0.34245 -0.89086 0.00463 0.18199 -0.87602 0.17871 0.41989 0.82524 0.15255 0.81711 0.78724 -0.13259 -0.283 -0.11582 -0.044041 0.21716 0.11127 -0.49032 0.78226 -0.22226 0.37691 0.13346 -0.12879 0.002739 -0.037727 0.49035 0.29043 -0.25055 -0.39076 0.3551 0.2711 0.48351 -0.38352 -0.86579 0.0043327 -0.12408 0.42583 -0.38886 0.54622 -0.44644 0.74144 -0.07998 -0.34295 0.1047 0.74825 -0.051684 -0.7249 -0.46777 0.11219 0.50181 0.20937 0.097239 -0.06368 0.17652 -0.30158 -0.71006 -0.48624 0.95016 0.51962 0.88977 -0.27104 -0.32996 -0.57283 -0.42448 -0.46348 -0.30999 -0.46016 
나요|EC 0.12415 0.10136 0.31945 -0.062264 0.5692 0.25594 -0.30799 -0.049505 0.43281 0.24243 -0.097307 -0.010756 0.013161 0.2726 -0.16803 0.18245 -0.15619 0.063754 0.14332 0.053246 0.10478 0.082969 0.16193 0.05049 0.047635 -0.29182 -0.092724 0.00074008 -0.42612 0.23942 -0.2525 0.10727 0.010454 -0.44654 -0.65086 -0.19136 0.10112 -0.35545 0.164 0.053663 -0.13471 0.79153 0.28128 0.69174 0.65333 0.045623 0.18018 0.10467 -0.34766 0.53135 -0.6003 0.45172 0.025785 0.28612 0.096253 -0.23992 -0.46993 0.17868 0.50205 -0.41371 -0.043097 0.091281 0.014925 0.32581 -0.09056 0.37942 -0.60269 -0.28862 -0.30509 0.35238 -0.29913 0.82005 -0.48456 -0.26245 -0.030844 0.10625 0.33413 0.032814 -0.065452 -0.23436 -0.011051 0.52428 0.39196 -0.33272 -0.066959 0.019831 -0.057439 0.20823 -0.40784 0.19884 0.63883 0.55254 0.302 -1.0295 -0.53993 -0.66965 -0.15271 -0.46572 -0.041012 -0.55323 
없|VA -0.024228 -0.35303 -0.023361 0.04018 -0.023957 -0.028067 -0.039796 0.01149 0.11897 0.4541 -0.0077637 -0.068154 0.0016972 -0.20073 -0.28338 -0.011844 -0.26299 0.41028 -0.16025 0.24273 0.11009 0.60905 0.32204 -0.42108 -0.15094 0.07348 -0.016802 -0.24785 -0.12662 0.16901 0.014688 -0.16761 0.078881 -0.1223 0.045891 -0.046945 0.0010283 0.058492 -0.11669 -0.30924 -0.10191 0.2284 -0.19217 -0.18964 0.10762 0.16107 -0.035801 0.115 -0.32604 0.22916 -0.18847 -0.15232 0.062986 -0.18962 -0.17125 -0.19387 0.17687 0.08794 0.084422 0.0098001 0.086987 0.45056 0.034806 -0.1228 -0.15926 0.14055 0.085046 0.071162 -0.034133 0.12574 -0.035585 -0.13743 -0.20366 -0.46582 0.052901 0.12297 0.17933 -0.19376 -0.14597 0.21892 0.18546 0.25761 0.15117 -0.20097 -0.25747 -0.092335 -0.28049 0.29839 0.030236 0.24455 -0.0079512 -0.082016 -0.15902 -0.32774 0.057836 -0.27549 0.15571 0.22826 -0.024605 -0.087688 
시간|NNG -0.076979 0.30014 -0.032524 -0.11644 0.52004 0.10836 -0.078892 -0.049716 0.45912 0.20976 -0.053287 0.066 0.10981 0.33076 0.0054962 0.16942 -0.039868 -0.040001 0.12046 -0.15189 0.002528 -0.10884 0.029143 0.10845 0.12663 -0.3354 -0.030024 0.16377 -0.17008 0.19977 -0.24129 0.0051727 -0.061174 -0.26966 -0.52015 -0.068928 0.12539 -0.38271 0.1052 0.08756 0.15988 0.36491 0.31846 0.51078 0.1931 -0.06071 0.042933 0.029035 -0.081367 0.23974 -0.38473 0.38964 -0.051295 0.22574 0.042863 -0.12603 -0.15277 0.053286 0.31328 -0.079018 -0.058118 -0.066733 0.12983 0.14595 0.077195 0.032021 -0.47988 -0.12699 -0.1397 0.21504 -0.20747 0.45504 -0.33007 0.057166 -0.019496 -0.074384 0.14798 0.2204 -0.046767 -0.23514 -0.14663 0.24301 0.3002 -0.10183 0.0019492 -0.022455 -0.00071423 0.017323 -0.35385 0.015904 0.52385 0.30332 0.35177 -0.5486 -0.32431 -0.45022 -0.088756 -0.26744 -0.068334 -0.31478 
해|XSV+EC 0.17385 -0.086413 0.31083 -0.2676 -0.28831 0.2737 -0.62108 -0.18911 -0.72619 -0.66705 0.15539 -0.14133 -0.33967 -0.30718 -0.036984 -0.07729 0.33675 -0.028749 0.26076 0.27701 -0.21798 -0.43763 -0.37121 0.037078 0.2769 -0.04595 -0.3675 -0.094819 0.034844 -0.18747 0.17744 0.20488 0.042038 0.30787 -0.061684 0.06571 0.014169 0.25967 0.096878 -0.049141 -0.7059 -0.034745 -0.3567 0.3244 0.19391 -0.09429 0.40625 0.031838 0.20758 -0.15471 0.19983 0.035942 0.0205 0.31696 0.1676 0.28749 -0.84371 -0.078795 -0.42062 -0.30641 -0.028933 -0.30992 -0.2931 -0.0082632 -0.10212 0.20068 0.30791 -0.31872 -0.33536 -0.5298 0.34282 0.18441 0.32342 -0.10013 -0.035588 0.078589 -0.51653 -0.27089 0.24834 0.43693 0.0096321 -0.11706 -0.35228 -0.051271 0.31447 0.029831 -0.10023 0.015549 0.2068 0.37411 -0.45363 0.066484 -0.27066 -0.15719 -0.1822 0.54304 0.30555 -0.091185 0.19091 0.16037 
주문|NNG 0.63998 -0.56786 1.0168 0.93108 -0.43294 0.063982 -0.52885 0.15787 -1.1611 -1.7029 -0.66781 -0.15804 -0.37825 0.51463 -0.10204 -0.31559 0.41117 0.31124 0.24251 0.29229 0.055709 -1.2585 -0.17581 -0.05252 -0.46847 0.36187 0.5387 -0.1582 -0.1771 -0.47807 0.29869 0.51165 0.61222 0.50664 0.49223 -0.063984 -0.15761 0.4677 -0.011978 0.7487 0.036713 -1.0262 0.15547 -0.35803 0.17983 0.1655 0.038901 -0.21313 0.54513 -0.63063 1.0815 -0.62421 0.4514 -0.62587 0.12087 -0.10448 -0.002843 -0.14351 -0.50398 0.068833 -0.43205 -0.20935 -0.51851 0.042713 0.64775 -0.55021 0.82922 0.47303 -0.16583 0.13814 0.18076 -0.45836 0.32156 0.7179 -0.0011771 0.37746 -0.20925 0.052536 -0.23473 -0.16889 0.98704 -0.67244 0.10447 0.79481 0.31432 0.37041 -0.53211 0.26613 0.12871 -0.61653 -0.16227 0.33042 -0.039311 1.0346 0.16687 0.24729 -0.88919 -0.42882 -0.22981 -0.1639 
가능|NNG 0.018111 0.034565 0.012777 -0.15599 0.3493 0.19993 -0.16728 -0.083246 0.36859 0.5336 -0.00504 -0.054936 0.040283 -0.046757 -0.18373 0.059541 -0.3104 0.30898 0.11437 0.17381 0.070579 0.5048 0.29662 -0.14341 0.0089779 -0.26141 -0.19868 -0.12436 -0.40334 0.35181 -0.2146 -0.00065081 -0.087111 -0.49324 -0.55026 -0.15705 0.11912 -0.20353 0.033524 -0.24525 -0.17995 0.86765 0.061956 0.53661 0.44528 0.14792 0.11015 0.061641 -0.57222 0.614 -0.64317 0.33411 -0.082186 0.19439 -0.030585 -0.17412 -0.37205 0.17073 0.42971 -0.38537 0.041671 0.32386 0.08036 0.21497 -0.21085 0.32332 -0.49748 -0.1654 -0.17178 0.2448 -0.29644 0.59792 -0.36243 -0.4588 0.050299 0.074983 0.33071 -0.006271 -0.10113 -0.030917 -0.053178 0.55377 0.37569 -0.458 -0.068437 -0.13104 -0.057382 0.27308 -0.26061 0.31474 0.4348 0.30809 0.21067 -1.0566 -0.43235 -0.65376 0.22492 -0.17711 -0.061887 -0.42226 
다시|MAG 0.21999 -0.052628 -0.15889 0.62331 -0.39526 -0.088712 0.97196 0.099387 -0.42542 -0.17528 -0.38024 0.060906 0.70876 0.16673 0.62693 -0.27744 -0.23729 -0.17404 0.14477 0.024389 -0.019343 0.33053 0.087607 0.43114 -0.26192 0.021588 -0.29144 0.064394 -0.7471 0.90595 -0.22428 0.71194 -0.57423 -0.67624 -0.39675 -0.0093028 -0.17385 -0.13279 -0.018606 -0.1433 0.66548 0.87046 -0.024501 -0.04887 -0.21604 0.38163 -0.10927 -0.18897 -0.7991 0.76572 -0.58455 0.32103 -0.56935 0.012085 0.16579 0.16497 -0.4739 0.042394 0.64073 -0.30857 -0.2832 0.44782 0.11582 0.73988 0.16554 -0.34198 -0.33782 0.65213 0.10437 0.41224 -0.88113 0.33705 0.29684 0.30952 0.13926 0.054285 0.20526 0.51053 -0.14274 -0.73482 -0.31811 0.15307 0.23357 0.097164 0.12579 -0.23964 0.91473 -0.33266 0.11604 -1.0819 -0.014715 0.43011 0.45545 0.321 0.2527 -0.097235 0.015759 -0.17586 -0.78591 -0.49722 
바꿀|VV+ETM -0.040384 0.353 -0.35382 0.34249 0.24046 -0.1188 0.6754 0.13221 0.35368 0.15602 -0.34292 0.21295 0.70438 0.49017 0.41118 -0.048663 -0.15949 -0.23859 0.11574 -0.31432 0.010391 0.072705 0.037814 0.31647 -0.07691 -0.19434 0.027019 0.31974 -0.39219 0.68574 -0.29273 0.34632 -0.43536 -0.57601 -0.4996 0.021444 0.016063 -0.47755 -0.0067389 0.060312 0.85742 0.54537 0.42755 0.14518 -0.2363 0.10879 -0.25008 -0.11932 -0.41094 0.52368 -0.50637 0.40821 -0.41306 0.055044 0.077065 -0.044475 -0.032727 0.034067 0.61403 0.0014202 -0.20737 0.2521 0.29732 0.49909 0.2277 -0.38354 -0.58031 0.40519 0.075964 0.4332 -0.70035 0.27278 -0.061888 0.45487 0.05841 -0.086374 0.30779 0.67679 -0.14332 -0.75942 -0.38749 0.20304 0.42631 0.13676 0.057059 -0.099007 0.49481 -0.25873 -0.24597 -0.84587 0.44702 0.42069 0.64369 0.12421 0.03621 -0.50391 -0.19248 -0.17493 -0.57447 -0.47094 
하|XSV -0.2309 0.44097 0.45476 0.030937 0.015894 0.011678 0.028801 0.68247 0.015812 -0.21983 -0.1892 -0.17759 0.098829 0.22583 -0.37322 -0.27581 0.16005 -0.17196 0.29343 -0.059562 0.0054734 -0.48976 -0.16737 0.038084 -0.041003 0.2362 0.25064 -0.10442 -0.0010874 -0.19071 0.06568 0.55246 0.3408 0.31069 0.3974 -0.0076232 -0.17678 0.20864 -0.27874 0.40028 -0.13747 -0.55328 0.024115 -0.043466 0.14672 0.23524 -0.054199 -0.19455 0.37743 -0.17724 0.61703 -0.093322 -0.035117 0.2063 0.2034 -0.12907 -0.52704 -0.033043 -0.38683 0.10164 -0.55239 -0.37571 0.034234 0.49457 -0.12723 -0.11109 0.19632 0.13273 0.038779 -0.075608 0.27439 -0.19503 0.3065 0.83674 -0.06312 0.27074 0.048414 -0.083581 -0.30228 -0.15646 0.23726 -0.36784 -0.2691 0.27442 0.0054015 0.037936 -0.077043 -0.12208 0.26163 -0.21828 -0.32812 0.41519 0.13317 0.52258 0.17912 0.40239 -0.79769 -0.34131 -0.12339 -0.020409 
취소|NNG 0.51646 -0.039812 0.43919 0.99073 1.2259 0.083676 -0.34717 -0.52531 0.81171 -0.85462 -0.37447 0.25419 -0.72209 1.4249 0.13874 0.59111 0.35508 -0.30143 0.23357 -0.10973 -0.017683 -1.5684 -0.30196 0.3309 -0.083771 -0.43915 0.54528 0.34217 -0.016857 -0.12844 -0.55551 0.19646 0.30738 -0.34738 -0.85644 -0.44649 0.1622 -0.67423 0.55143 0.78516 0.33673 -0.24751 1.0429 0.63848 0.60521 -0.49405 0.23496 0.02759 0.90011 -0.24672 -0.023897 0.44061 0.62989 -0.092954 0.41224 -0.42795 0.13805 -0.03667 0.65426 -0.073608 -0.10574 -0.85088 -0.60985 -0.25494 0.91984 -0.20257 -0.56261 -0.43482 -0.37102 0.95992 -0.3675 0.70255 -0.78452 -0.0041254 -0.19285 0.20513 0.58031 0.4347 0.14697 -0.37701 0.61386 -0.75993 0.3476 0.44926 0.086789 0.28325 -0.053058 -0.24738 -1.0134 -0.63592 1.5125 0.47117 -0.1297 0.49011 -1.0934 -0.88693 -0.89093 -0.96724 0.49022 -0.17067 
세요|EP+EF -0.44058 0.69874 -0.033194 -0.28277 0.35195 0.13303 0.090503 0.27497 0.21252 0.22636 -0.13461 -0.08381 0.2238 0.21461 -0.10894 -0.028597 0.039074 0.0229 0.37001 -0.19303 -0.14374 -0.2019 0.0074286 0.133 0.15808 -0.30989 -0.079548 0.016962 -0.17238 0.090165 -0.20895 0.19807 0.010997 -0.069308 -0.25634 0.078126 0.027183 -0.1357 -0.16368 0.085692 0.1135 -0.017109 0.051889 0.42591 -0.10443 0.10397 -0.0068196 -0.16025 0.018634 0.072085 -0.028517 0.29331 -0.21178 0.4023 0.10947 0.032953 -0.5879 0.032683 -0.033217 0.050277 -0.42607 -0.15336 0.14835 0.3164 0.020051 -0.1592 -0.27635 0.16516 -0.00092339 -0.032424 -0.04486 0.17865 0.11587 0.53733 -0.023857 -0.15022 -0.11301 0.12544 -0.18662 -0.12839 -0.080256 0.041206 0.14818 -0.050835 0.026099 -0.20922 0.015516 -0.13156 -0.090491 -0.087208 0.10351 0.34868 0.50819 -0.26349 -0.093724 0.034063 -0.14369 -0.19917 -0.30548 -0.22976 
되|VV 0.15107 0.16135 0.1562 -0.048572 0.33148 0.1908 -0.25585 -0.1081 0.31524 0.1552 -0.09444 0.022826 -0.061476 0.069314 -0.01717 0.1141 -0.16153 0.054751 0.13436 -0.013021 0.061966 0.13995 0.1505 0.1737 0.013644 -0.18781 -0.033314 0.083283 -0.21809 0.014957 -0.13963 -0.018469 -0.079741 -0.42353 -0.40825 -0.1129 0.12967 -0.20027 0.16429 0.01831 -0.083142 0.63229 0.31565 0.50804 0.41943 -0.033593 0.090051 0.0098416 -0.28624 0.34327 -0.3543 0.28273 0.053275 0.17898 0.085058 -0.080986 -0.26553 0.16956 0.41455 -0.45877 0.092993 0.10873 -0.091512 0.15052 -0.061082 0.28081 -0.52732 -0.23806 -0.1063 0.17737 -0.3189 0.61834 -0.25297 -0.24992 -0.041744 0.0038979 0.26975 0.077258 0.040861 -0.18653 -0.032719 0.4214 0.32323 -0.31439 0.011864 0.077488 0.023786 0.08436 -0.29734 0.1211 0.54614 0.40127 0.27527 -0.70265 -0.48315 -0.5704 -0.03322 -0.33376 0.024904 -0.3688 
날짜|NNG -0.22849 0.60211 -0.24602 -0.17408 0.7186 0.07658 0.085307 -0.038315 0.67755 0.29239 -0.079204 0.14713 0.26401 0.51892 0.097398 0.2162 0.019977 -0.13639 0.2072 -0.3557 -0.078409 -0.2559 -0.042068 0.18563 0.22661 -0.47886 -0.015583 0.29116 -0.13972 0.31799 -0.37477 0.0020443 -0.17848 -0.33166 -0.68041 -0.031728 0.16408 -0.56073 0.075588 0.13202 0.40629 0.32509 0.4619 0.64863 0.0039252 -0.13259 -0.030322 -0.041569 -0.037447 0.22695 -0.46366 0.57042 -0.18999 0.31765 0.062509 -0.10938 -0.13166 0.015698 0.37129 0.060448 -0.15313 -0.1614 0.25081 0.1937 0.19155 -0.1394 -0.64734 -0.037054 -0.094527 0.27366 -0.28386 0.46892 -0.3238 0.29564 -0.029716 -0.20758 0.13362 0.43163 -0.05975 -0.35913 -0.29159 0.2006 0.38055 -0.058736 0.044549 -0.11867 0.072726 -0.11804 -0.4649 -0.14296 0.65131 0.3443 0.56909 -0.47361 -0.31919 -0.48555 -0.1276 -0.28192 -0.17948 -0.33901 
고|EC 0.10317 0.21515 0.063409 -0.19993 0.4006 0.052303 -0.1373 -0.040528 0.3046 -0.053985 0.15454 0.11022 -0.055811 0.35071 0.063313 0.15883 0.090938 -0.27861 -0.018532 -0.21892 0.077026 -0.47688 -0.14173 0.22244 0.2099 -0.23077 0.075151 0.33405 0.1219 0.013111 -0.13236 0.03052 0.030779 0.069872 -0.31627 -0.17281 0.092579 -0.28169 0.19078 0.38812 0.1121 -0.020642 0.45044 0.41611 0.21203 -0.191 0.030066 -0.038744 0.2391 -0.06949 -0.14545 0.32509 -0.049011 0.091432 -0.0025787 -0.15104 0.2278 -0.14856 -0.017107 0.16452 0.04551 -0.47398 0.26024 0.092501 0.22029 -0.068971 -0.30433 -0.28713 -0.059808 0.1577 0.096394 0.26925 -0.36466 0.27665 -0.0045076 -0.1008 0.11693 0.25207 -0.075911 -0.2565 -0.21032 -0.038968 0.010831 0.25171 0.19592 0.11585 0.022462 0.022583 -0.25423 0.11638 0.38381 0.074401 0.20464 -0.19525 -0.1179 -0.19155 -0.30953 -0.33134 0.14541 -0.099677 
싶|VX 0.10152 0.20061 0.078945 -0.18499 0.40609 0.069117 -0.13336 -0.049935 0.30414 -0.052871 0.15301 0.10249 -0.057659 0.34402 0.057699 0.15321 0.090408 -0.27983 -0.030746 -0.2233 0.080781 -0.47224 -0.13156 0.22302 0.20668 -0.23485 0.063167 0.3489 0.12123 0.02487 -0.12465 0.037758 0.030452 0.080505 -0.31633 -0.16871 0.08179 -0.26553 0.19615 0.37346 0.10335 -0.012998 0.44072 0.42774 0.21712 -0.17124 0.038067 -0.0558 0.23871 -0.0717 -0.14265 0.32029 -0.037997 0.085602 -0.00027938 -0.14465 0.2395 -0.15984 -0.01912 0.14572 0.028673 -0.47052 0.24238 0.085423 0.22417 -0.073485 -0.3062 -0.27579 -0.049628 0.16417 0.092548 0.26905 -0.37373 0.26886 -0.0092521 -0.104 0.11755 0.25625 -0.071408 -0.25456 -0.2063 -0.025523 0.0068368 0.25007 0.17791 0.11203 0.013827 0.016438 -0.25342 0.10852 0.38799 0.065226 0.20095 -0.19677 -0.11516 -0.18958 -0.30815 -0.32639 0.15127 -0.097961 
주|VX 0.11985 -0.007686 0.27195 -0.0492 0.031282 0.18099 -0.26645 -0.074874 -0.37997 -0.37335 -0.10755 -0.030177 -0.015472 0.0856 0.054494 0.03745 0.13225 0.068783 0.13991 0.040676 -0.061653 -0.33634 -0.0081286 0.13993 0.1193 -0.25271 -0.17854 0.070612 -0.2226 0.076714 -0.030019 0.11209 -0.0059899 0.023492 -0.29392 0.00081674 0.041708 -0.051785 0.10865 0.095555 -0.020413 0.10699 0.021114 0.3462 0.11594 0.0063217 0.16813 -0.036106 -0.025116 0.0013484 -0.078379 0.15437 -0.047985 0.10997 0.032021 0.042453 -0.33555 -0.039277 -0.087837 -0.069249 -0.14303 -0.056128 -0.032262 0.11285 0.24372 -0.096075 -0.073893 0.040012 -0.19714 -0.056001 -0.046814 0.26783 -0.0038383 0.17462 -0.037965 -0.12709 -0.25884 0.10104 -0.064945 -0.09032 0.010029 0.1232 0.099954 0.10524 0.18536 -0.0084369 -0.060885 0.058967 -0.089084 0.016896 0.094706 0.23839 0.28275 -0.2894 -0.039212 0.037032 0.014523 -0.2226 -0.22073 -0.25709 
거|NNB 0.20824 -0.0085687 0.24178 0.27283 0.084628 0.13064 -0.15005 -0.14286 -0.28966 -0.55892 -0.17975 -0.020435 -0.22768 0.26377 0.11233 0.035329 0.16893 0.015535 0.25368 0.089412 -0.1016 -0.57997 -0.105 0.18719 0.0035257 -0.18128 -0.048228 0.026032 -0.17525 0.013962 -0.12133 0.26589 0.029055 -0.060296 -0.2721 -0.085496 0.0098535 -0.019567 0.10982 0.17253 -0.015339 -0.03117 0.11041 0.27222 0.11917 -0.052988 0.17701 -0.11186 0.16322 -0.079015 0.084127 0.12162 0.067547 0.042779 0.1714 0.044702 -0.37533 -0.054641 0.025455 -0.16064 -0.17998 -0.23255 -0.27578 0.024941 0.3481 -0.16953 -0.048211 0.02046 -0.1232 0.11751 -0.12635 0.23386 0.057146 0.12284 -0.044278 0.01044 -0.067384 0.12379 0.0018393 -0.060373 0.21528 -0.2611 0.047713 0.16708 0.20492 -0.012238 0.06363 -0.10833 -0.13836 -0.22623 0.1962 0.21059 0.027787 0.17265 -0.25566 0.008675 -0.1073 -0.33516 -0.042378 -0.10415 
하|VV -0.1231 0.16811 -0.16238 -0.18613 0.30813 0.031241 -0.0897 -0.13922 0.23789 0.2029 0.022068 0.076443 -0.0026764 0.095691 0.017363 0.16679 0.0041097 0.071227 0.0020522 -0.12752 -0.05198 -0.047603 0.076203 -0.00047456 0.15655 -0.29356 -0.062984 0.13199 0.054172 0.063 -0.13575 -0.22835 -0.067422 -0.069587 -0.26469 0.013704 0.12765 -0.21253 0.040027 -0.060751 0.11734 0.062343 0.14686 0.24685 -0.081357 -0.14436 0.01392 0.017162 0.016381 -0.037638 -0.1756 0.17537 -0.0068322 0.065242 -0.069172 -0.035464 0.12974 -0.015978 0.032727 0.11346 0.055699 -0.0084773 0.10273 -0.18174 0.1678 -0.074004 -0.24307 -0.056931 -0.03981 0.015064 -0.031066 0.089293 -0.19485 -0.044545 -0.044654 -0.2334 -0.060021 0.12574 -0.025911 0.027325 -0.099688 0.14003 0.16795 -0.030151 -0.023012 -0.078419 -0.14186 0.01354 -0.24046 0.16151 0.29413 -0.0067992 0.21008 -0.35389 -0.11547 -0.22019 0.14242 0.023409 -0.029369 -0.09204 
할|XSV+ETM 0.17307 0.080791 0.21775 0.30427 0.35551 0.059499 -0.17993 -0.077924 0.1174 -0.45292 -0.20632 0.057661 -0.16529 0.53288 0.021951 0.095938 0.16341 -0.0582 0.17036 -0.070293 -0.010462 -0.68051 -0.14219 0.11684 -0.029223 -0.12319 0.23001 0.14032 -0.031003 -0.087071 -0.1278 0.16093 0.1577 -0.02004 -0.22671 -0.1189 0.047342 -0.17126 0.13821 0.40086 0.15092 -0.2201 0.40127 0.24596 0.17855 -0.11334 0.03486 -0.072159 0.31951 -0.13645 0.14106 0.10611 0.1709 -0.057792 0.13379 -0.13234 0.014132 -0.049698 0.075719 0.011516 -0.12357 -0.31819 -0.14646 0.0042125 0.34613 -0.19 -0.10768 -0.061379 -0.12411 0.26804 -0.071284 0.15283 -0.17434 0.24724 -0.043314 0.087673 0.12069 0.21268 -0.035285 -0.20555 0.23496 -0.2663 0.1488 0.26968 0.13165 0.12999 -0.11284 -0.025823 -0.28749 -0.25662 0.41346 0.24436 0.082954 0.22945 -0.27936 -0.24054 -0.43681 -0.36046 0.062571 -0.11449 
기아|NNP -0.027685 -0.83361 1.0794 0.49674 0.23744 0.078369 -0.022848 0.13248 -0.13081 0.22767 -0.040148 0.092134 -0.38616 0.29856 -0.26748 0.76724 0.11742 -0.53837 -0.63361 0.18215 0.43174 0.057191 0.38006 0.4566 -0.33826 -0.12306 0.29676 -0.25763 -0.06104 -0.6817 0.28734 -0.41877 0.62348 0.20531 0.022321 0.088261 0.004757 0.090387 0.83421 0.18569 0.035695 -0.43527 -0.43859 -0.49854 0.59014 -0.013642 0.23144 0.55534 0.42656 -0.34554 -0.3726 -0.33126 0.7429 0.0073217 0.17749 -0.14332 0.0086805 0.50685 0.22113 0.19269 -0.020941 -0.10457 -0.27736 -0.21018 0.05778 0.76865 0.10808 -0.29761 -0.15685 0.19288 -0.063472 0.30373 -0.43339 -0.44323 -0.069137 -0.40464 -0.27053 -0.75545 0.47696 0.15404 0.33662 0.21201 -0.075023 0.010826 -0.5243 0.50878 0.25181 0.021064 -0.19295 -0.1173 0.46052 -0.25317 -0.26692 -0.0029013 -0.29781 0.12414 -0.20725 -0.069394 0.19922 0.013133 
한|XSA+ETM 0.19181 -0.30806 0.22259 0.13236 -0.068464 0.071079 -0.18878 -0.055003 -0.06916 0.028618 -0.038618 -0.096662 -0.208 -0.16429 -0.16709 -0.024733 -0.13539 0.21084 -0.0057616 0.27764 0.066542 0.24067 0.15101 -0.14328 -0.13883 0.086537 -0.042477 -0.20747 -0.15635 -0.0097844 0.028159 0.048117 0.09394 -0.13603 -0.018592 -0.10502 -0.0038443 0.13743 0.036398 -0.13453 -0.29345 0.27949 -0.096737 0.021319 0.33682 0.097894 0.1141 0.059675 -0.20083 0.18115 -0.082 -0.084645 0.13331 -0.051466 0.015913 -0.088611 -0.1761 0.096392 0.10204 -0.28534 0.065045 0.17643 -0.18865 -0.0036463 -0.11194 0.24992 0.015204 -0.125 -0.083698 0.08529 -0.064228 0.15214 -0.094315 -0.40778 0.01408 0.18668 0.17571 -0.20527 -0.011923 0.16021 0.23402 0.096093 0.018588 -0.19393 -0.062392 0.029017 -0.065841 0.16557 0.026082 0.17272 0.051054 0.053261 -0.22618 -0.22436 -0.18524 -0.16188 0.060548 -0.055728 0.11974 -0.058485 
을까요|EC -0.021579 0.10571 0.036659 -0.093477 0.28136 0.1048 -0.11397 -0.020616 0.26976 0.26284 -0.022857 -0.0057933 0.028013 0.05946 -0.088676 0.077667 -0.12806 0.1067 0.073029 0.032247 0.030357 0.15849 0.11781 -0.022317 0.051482 -0.17298 -0.078907 -0.020359 -0.18983 0.15359 -0.14751 0.0019198 -0.037967 -0.24031 -0.33643 -0.081949 0.06944 -0.17558 0.042767 -0.057639 -0.065068 0.41799 0.11197 0.35674 0.24511 0.031577 0.062495 0.032557 -0.22997 0.29342 -0.3213 0.23305 -0.027455 0.1532 0.012122 -0.094781 -0.20837 0.076249 0.22507 -0.18649 0.0012491 0.094915 0.057752 0.1182 -0.068864 0.1607 -0.33077 -0.12223 -0.10928 0.14737 -0.15178 0.35931 -0.22668 -0.16051 -0.0047689 0.017838 0.16357 0.020707 -0.04229 -0.065928 -0.050514 0.27323 0.21274 -0.21742 -0.029898 -0.042249 -0.03324 0.10095 -0.18711 0.14137 0.28287 0.20393 0.14632 -0.52372 -0.24854 -0.3296 0.02846 -0.15077 -0.024388 -0.21606 
오전|NNG 0.55104 -0.18077 0.65764 0.095779 0.30507 0.40225 -0.54351 -0.11422 0.36617 0.32237 -0.15079 -0.13974 -0.30904 -0.083485 -0.25086 0.043814 -0.4911 0.28285 0.2222 0.39058 0.2957 0.63683 0.40343 0.10246 -0.25599 -0.021414 -0.073514 -0.22092 -0.68006 0.04386 -0.16687 0.24358 0.087181 -0.80429 -0.60361 -0.38324 0.11973 -0.075546 0.2903 0.027363 -0.58911 1.475 0.29754 0.81243 1.3003 0.24786 0.25633 0.094423 -0.86157 0.98191 -0.76053 0.35006 0.16713 0.24281 0.16842 -0.2797 -0.76706 0.4213 0.84588 -1.1643 0.17135 0.36124 -0.23115 0.54832 -0.52456 0.9252 -0.78819 -0.55411 -0.27507 0.47531 -0.55868 1.3025 -0.55284 -0.83375 0.053934 0.4357 0.80345 -0.21936 0.035041 -0.23908 0.18683 0.82863 0.50412 -0.80872 0.013357 0.23145 0.13056 0.45651 -0.32454 0.39752 0.75704 0.60809 0.063804 -1.4497 -0.98692 -1.0683 -0.010922 -0.65618 0.24797 -0.6495 
수|NNB -0.14084 0.33827 -0.10385 -0.1348 0.42815 0.054061 0.0061153 -0.035942 0.3748 0.15311 -0.019754 0.085596 0.1187 0.28781 0.035483 0.13369 0.030518 -0.083903 0.11072 -0.1944 -0.045255 -0.16984 -0.039148 0.088795 0.14838 -0.27647 -0.020097 0.17197 -0.052174 0.15344 -0.20046 -0.019783 -0.080036 -0.14809 -0.37276 -0.012514 0.092211 -0.3201 0.044146 0.081836 0.19413 0.15153 0.25372 0.36459 0.025247 -0.095915 0.0079642 0.003102 0.037018 0.087881 -0.23704 0.30701 -0.080956 0.18888 0.023381 -0.071091 -0.075923 -0.00031764 0.17841 0.046766 -0.080717 -0.11992 0.12295 0.072525 0.11908 -0.061686 -0.34868 -0.061089 -0.074517 0.11743 -0.10478 0.24714 -0.19758 0.16733 -0.023729 -0.12153 0.038904 0.20937 -0.02573 -0.17059 -0.15872 0.10793 0.18269 -0.014371 0.010854 -0.05575 -0.0051167 -0.046966 -0.27102 -0.022199 0.35145 0.19906 0.30711 -0.28571 -0.18884 -0.24009 -0.069656 -0.16536 -0.065153 -0.17712 
말|NNG 0.068435 0.05953 0.1627 -0.47753 -0.5289 0.38373 -0.18409 -0.30197 -1.191 -0.41546 0.26276 -0.27378 -0.31071 -0.74691 0.26859 -0.080216 0.1342 0.085058 0.38845 0.34913 -0.353 -0.10203 -0.049578 0.40889 0.38626 -0.39318 -0.97018 -0.15267 -0.33953 0.1448 -0.08213 0.33063 -0.33448 0.007944 -0.3677 0.055456 -0.057145 0.35933 0.065111 -0.42414 -0.69755 0.54012 -0.674 0.64273 0.0031525 0.057887 0.58405 -0.18942 -0.29192 0.1054 -0.21641 0.35665 -0.37936 0.60552 0.18634 0.56017 -1.3197 -0.11167 -0.33407 -0.53503 -0.12843 -0.20252 -0.26115 0.10374 0.069601 0.088521 -0.075997 -0.071597 -0.12879 -0.55808 0.0083887 0.55998 0.56693 -0.16826 -0.047099 -0.33285 -0.72056 -0.2096 0.09123 0.42098 -0.22665 -0.0059151 -0.41663 -0.25096 0.41362 -0.42178 0.51498 -0.28931 0.33439 0.39687 -0.53461 0.021515 0.017946 -0.50818 -0.048707 0.87061 0.88284 -0.15564 -0.16294 0.038631 
커넥트|NNG -0.028433 -0.84789 1.0842 0.50384 0.24115 0.065754 -0.027252 0.12996 -0.13995 0.23022 -0.0422 0.097203 -0.3981 0.31161 -0.25945 0.76655 0.11473 -0.53934 -0.63114 0.19142 0.4193 0.050252 0.37932 0.45985 -0.3346 -0.13302 0.31102 -0.26006 -0.069926 -0.67614 0.28365 -0.43112 0.62226 0.22345 0.040625 0.092415 -0.01051 0.10032 0.83367 0.20309 0.025446 -0.43583 -0.43346 -0.50106 0.60112 0.00010348 0.23897 0.54825 0.4203 -0.33969 -0.36752 -0.33555 0.74452 0.016729 0.1695 -0.1443 0.0083467 0.51106 0.22282 0.18029 -0.028312 -0.1146 -0.26939 -0.1998 0.055386 0.76762 0.11868 -0.29621 -0.16709 0.17948 -0.066343 0.28988 -0.41962 -0.45712 -0.08203 -0.40516 -0.2678 -0.75757 0.47171 0.1472 0.32374 0.20052 -0.072326 0.0053434 -0.52588 0.50375 0.25099 0.015651 -0.17816 -0.1192 0.4565 -0.26556 -0.26191 -0.016783 -0.30006 0.11464 -0.21496 -0.05689 0.20168 0.0090883 
있|VV -0.13363 0.33824 -0.11126 -0.12602 0.41939 0.060598 0.001313 -0.030399 0.37424 0.15752 -0.025913 0.071197 0.12597 0.28548 0.0362 0.14158 0.035049 -0.077875 0.11223 -0.18686 -0.049579 -0.17384 -0.029905 0.10265 0.15069 -0.28932 -0.013247 0.17702 -0.054847 0.14805 -0.18887 -0.027113 -0.073118 -0.13923 -0.37398 -0.0076491 0.089226 -0.31099 0.05862 0.083492 0.19626 0.13763 0.25519 0.36168 0.011526 -0.088943 -0.0097902 0.0026975 0.026651 0.087562 -0.23314 0.3194 -0.068019 0.18471 0.020851 -0.066227 -0.082519 0.0047558 0.16542 0.046279 -0.067526 -0.1142 0.12502 0.087083 0.1198 -0.057782 -0.34649 -0.063649 -0.076187 0.12177 -0.099777 0.25653 -0.19758 0.15869 -0.032298 -0.12338 0.043614 0.2015 -0.018966 -0.16873 -0.15731 0.11015 0.19888 -0.027118 0.01185 -0.057557 0.0070403 -0.055616 -0.27024 -0.022742 0.36198 0.18381 0.29752 -0.29306 -0.17291 -0.25308 -0.077716 -0.15717 -0.074565 -0.18854 
오후|NNG 0.37514 -0.20469 0.42012 -0.072266 0.20506 0.3717 -0.44431 -0.15836 0.21409 0.47189 -0.042904 -0.17663 -0.2012 -0.30968 -0.26617 0.010751 -0.4791 0.44708 0.17151 0.44421 0.19056 0.80288 0.43747 -0.070535 -0.13527 -0.11401 -0.29478 -0.27988 -0.65287 0.2321 -0.17104 0.13605 -0.034529 -0.72826 -0.59742 -0.28811 0.099476 -0.038185 0.15504 -0.27795 -0.58808 1.3734 0.040027 0.69368 0.99082 0.22718 0.29087 0.10197 -0.8664 0.87652 -0.74917 0.3363 0.072653 0.24334 0.072463 -0.19025 -0.74733 0.32597 0.64579 -0.96794 0.1624 0.46247 -0.21074 0.38966 -0.43804 0.76676 -0.61731 -0.39855 -0.27576 0.29819 -0.45453 1.0585 -0.40172 -0.85919 0.034885 0.28874 0.53156 -0.2531 -0.021599 -0.029458 0.12163 0.77898 0.38739 -0.76512 -0.05519 0.018414 0.060089 0.39243 -0.21017 0.49291 0.49355 0.49976 0.043704 -1.4221 -0.71444 -0.77452 0.25152 -0.42352 0.10044 -0.55011 
뭐|NP 0.053751 -0.0793 0.36886 -0.28972 -0.47663 0.42985 -0.038412 -0.17827 -1.3133 -0.49218 0.12597 -0.26316 -0.062953 -0.47024 0.27592 -0.062813 0.18652 -0.013579 0.38785 0.41152 -0.31007 -0.16478 -0.07056 0.47001 0.33006 -0.44557 -0.99262 -0.19175 -0.59617 0.39148 -0.10186 0.54578 -0.30139 -0.037836 -0.56721 0.062714 -0.095149 0.27781 0.16241 -0.36948 -0.54945 0.65395 -0.77445 0.64831 0.087819 0.19511 0.62239 -0.12245 -0.38273 0.27378 -0.44096 0.45416 -0.43736 0.6564 0.26167 0.51508 -1.5796 -0.051517 -0.22951 -0.49046 -0.32609 -0.14934 -0.19825 0.36751 0.11947 0.093757 -0.062708 0.056296 -0.26276 -0.42495 -0.12513 0.69021 0.5285 -0.027222 0.0052618 -0.28723 -0.76424 -0.18768 0.060209 0.26048 -0.23202 0.10811 -0.30422 -0.14289 0.35205 -0.41545 0.5766 -0.21981 0.28153 0.1213 -0.47974 0.26622 0.16818 -0.60102 -0.033159 0.81607 0.69984 -0.28903 -0.43838 -0.24897 
정비|NNG 1.0021 -1.0224 1.1428 -0.071704 -0.14746 0.11297 -0.3622 0.10405 -0.54879 -0.44662 0.7323 -0.12466 -0.82631 -0.0055985 -0.21599 0.022965 -0.12811 -0.4512 -0.58501 0.39229 0.6524 -0.64654 0.081434 0.40995 0.048422 0.11978 -0.016285 0.308 0.12562 0.0097322 0.075636 0.60055 0.47312 0.56935 -0.004118 -0.89859 -0.14062 0.35639 0.56637 0.89191 -0.57204 -0.0039961 0.42555 0.28889 1.2203 0.071401 0.35981 -0.22701 0.27373 -0.037373 -0.12361 0.14983 -0.0065452 -0.34958 -0.089552 -0.58835 0.75371 -0.59357 -0.6826 0.21101 0.22844 -1.1496 0.54514 0.34264 0.39343 0.1613 -0.012358 -0.7858 0.052742 0.45513 0.61844 0.36315 -0.88577 0.095556 0.14949 0.19425 0.53941 -0.094582 -0.62797 -0.23 -0.013138 -0.37008 -0.81711 0.96721 0.46239 0.3223 0.28674 0.43932 0.19314 0.70525 0.10433 -0.32405 -0.49926 -0.015512 0.3979 0.20533 -0.92448 -0.92678 0.64253 -0.022403 
될까요|VV+EC 0.049748 0.013619 0.034232 -0.051544 0.29298 0.10073 -0.13387 -0.096526 0.21852 0.16716 -0.022783 0.033095 0.025108 0.12936 -0.048408 0.11205 -0.089006 0.087707 0.019711 0.024867 0.027668 0.067005 0.099843 -0.0067434 0.054035 -0.21448 -0.084667 0.038888 -0.18512 0.19619 -0.14653 -0.013263 -0.040755 -0.22323 -0.3876 -0.090902 0.088327 -0.22494 0.087992 -0.031884 0.018578 0.39797 0.13153 0.34431 0.22097 0.0026356 0.082184 0.051046 -0.1995 0.26081 -0.37001 0.24891 -0.019779 0.088793 -0.013128 -0.10823 -0.11636 0.048756 0.24474 -0.12644 0.02563 0.075822 0.061769 0.086167 0.03301 0.095253 -0.29887 -0.10911 -0.14198 0.17102 -0.16623 0.35717 -0.28581 -0.1665 0.0011582 -0.018653 0.12293 0.087347 -0.043424 -0.081375 -0.067685 0.27678 0.22609 -0.14094 -0.013939 -0.027341 -0.037393 0.10883 -0.21623 0.11396 0.32411 0.19238 0.15442 -0.51422 -0.20922 -0.35362 0.038142 -0.14052 -0.047275 -0.25832 
일|NNG -0.19476 0.59321 -0.16818 -0.15104 0.77602 0.08804 0.018893 -0.077906 0.66763 0.1582 -0.086975 0.18646 0.22953 0.61984 0.12348 0.27373 0.10685 -0.23943 0.16949 -0.39173 -0.076425 -0.45378 -0.11189 0.25179 0.27427 -0.51271 0.035041 0.37748 -0.075753 0.23957 -0.35055 -0.026512 -0.12854 -0.24421 -0.68435 -0.01991 0.16662 -0.60219 0.14564 0.25931 0.43635 0.18967 0.53284 0.66081 0.017395 -0.21157 -0.0031275 -0.00019234 0.12937 0.094595 -0.3881 0.57313 -0.11677 0.31126 0.070896 -0.12367 -0.067324 -0.01028 0.33766 0.13326 -0.13372 -0.26631 0.22131 0.13967 0.29331 -0.15776 -0.63362 -0.10502 -0.15043 0.27177 -0.21639 0.46242 -0.3753 0.3746 -0.062186 -0.22219 0.062731 0.44704 -0.034019 -0.4146 -0.28689 0.1383 0.33745 0.072032 0.059998 -0.036913 0.034951 -0.13871 -0.53432 -0.16777 0.70419 0.37445 0.58485 -0.4083 -0.32402 -0.45124 -0.24063 -0.34288 -0.14159 -0.32796 
바꿔|VV+EC 0.032966 0.13306 -0.18898 0.26468 0.33972 -0.069298 0.39502 -0.033537 0.35607 0.13063 -0.21788 0.18248 0.4026 0.48346 0.28154 0.095681 -0.10836 -0.095395 -0.0051896 -0.20518 0.057182 -0.004648 0.071953 0.15628 -0.057243 -0.2184 0.063758 0.22107 -0.30459 0.49115 -0.24783 0.11023 -0.23588 -0.41242 -0.46898 -0.058005 0.03647 -0.44443 0.096023 0.09373 0.60844 0.41457 0.36858 0.17826 -0.049833 0.019132 -0.13089 -0.0050951 -0.26157 0.33514 -0.48323 0.33226 -0.16528 -0.046591 -0.0081804 -0.12546 0.16024 0.02175 0.50844 0.060717 -0.064521 0.16499 0.20473 0.24659 0.25138 -0.20676 -0.43151 0.20433 -0.022132 0.44978 -0.46343 0.28471 -0.28916 0.17999 0.050544 -0.07104 0.24902 0.44461 -0.099987 -0.52287 -0.20139 0.20764 0.41013 0.0986 -0.020609 -0.036206 0.22978 -0.064766 -0.3202 -0.472 0.5088 0.26091 0.42773 -0.12649 -0.050307 -0.50784 -0.15738 -0.15748 -0.32262 -0.39119 
시|NNG -0.18095 0.38985 0.045612 -0.18463 0.73243 0.14863 -0.17109 -0.021429 0.50023 0.085545 -0.037576 0.12792 0.18437 0.55447 -0.028738 0.28651 0.16369 -0.19717 0.098937 -0.25719 -0.028245 -0.45659 -0.099285 0.12976 0.28111 -0.46435 -0.0067223 0.26565 -0.093319 0.21314 -0.24887 -0.019701 -0.0035911 -0.098455 -0.61128 -0.027699 0.13547 -0.52333 0.16663 0.20337 0.22737 0.14609 0.35736 0.59987 0.14662 -0.1569 0.077073 0.086301 0.17706 0.079015 -0.35948 0.48936 -0.027301 0.31493 0.065912 -0.17266 -0.18665 0.0017022 0.1957 0.14843 -0.14125 -0.25101 0.20704 0.14273 0.21273 -0.041324 -0.46511 -0.16253 -0.27406 0.16785 -0.069659 0.44079 -0.41589 0.2654 -0.080921 -0.15784 -0.030258 0.25762 -0.033302 -0.25636 -0.20783 0.22018 0.26154 0.060087 -0.026313 -0.0068654 -0.13378 -0.013373 -0.46013 0.026002 0.56314 0.40778 0.46904 -0.58178 -0.2769 -0.36834 -0.23909 -0.3221 -0.13349 -0.37532 
변경|NNG 0.048106 0.14232 -0.21849 0.56574 0.099237 -0.12277 0.84567 0.20081 0.14448 0.064658 -0.44874 0.16727 0.8072 0.55942 0.42784 -0.15278 -0.21089 -0.17507 0.10387 -0.168 0.037582 0.17751 0.079831 0.27543 -0.22925 -0.084757 0.01747 0.19118 -0.60086 0.86037 -0.28295 0.53117 -0.43478 -0.64284 -0.49688 -0.013054 -0.058673 -0.38639 -0.0045204 0.044968 0.89963 0.66365 0.28517 0.021422 -0.20021 0.28666 -0.26194 -0.12463 -0.59906 0.6859 -0.5934 0.35886 -0.46792 -0.032516 0.085402 -0.061711 -0.13433 0.059704 0.69278 -0.0305 -0.30059 0.40027 0.2882 0.65424 0.20575 -0.41292 -0.45126 0.58795 0.056688 0.55468 -0.82234 0.24119 -0.011611 0.45528 0.14405 0.05037 0.35901 0.63743 -0.19152 -0.82788 -0.30185 0.23627 0.48854 0.17003 -0.0025321 -0.15229 0.57364 -0.18886 -0.15014 -1.0573 0.33685 0.49908 0.62623 0.192 0.12683 -0.49815 -0.28695 -0.1906 -0.74267 -0.59366 
할게요|XSV+EC 0.41337 -0.34352 0.4191 -0.081643 -0.4114 0.014018 -0.32477 0.1432 -0.52194 -0.46461 0.17404 -0.085903 -0.23003 -0.2213 -0.12276 -0.22418 0.059078 -0.046846 -0.13501 0.18056 0.17692 -0.25984 -0.1085 0.0010142 -0.0078936 0.30646 0.054628 0.057512 0.15482 -0.19121 0.27804 0.2387 0.20607 0.43079 0.4025 -0.16479 -0.089087 0.35653 0.023568 0.30291 -0.33654 -0.27484 0.029344 -0.13562 0.28073 0.059415 0.070209 -0.10428 0.16097 -0.19737 0.38704 -0.22449 0.027018 -0.23051 -0.069121 -0.087917 0.22083 -0.23641 -0.53879 0.04785 0.085493 -0.28502 0.10321 0.088825 0.034106 -0.0075911 0.37157 -0.17008 0.0063753 -0.16382 0.40899 -0.21888 0.029914 0.18311 0.041217 0.183 -0.021501 -0.09631 -0.19263 0.016912 0.079452 -0.16026 -0.37241 0.39816 0.2443 0.19416 -0.13675 0.22449 0.31891 0.27216 -0.38336 -0.10518 -0.23179 0.24586 0.33868 0.31858 -0.31573 -0.14543 0.18298 0.10956 
배송|NNG 0.11189 0.44299 -0.44569 -0.35586 0.28701 0.29967 -0.78527 -0.36094 0.64092 -0.32629 0.36508 0.32006 -0.081474 0.55107 0.0034368 -0.053317 0.51274 -0.5726 0.35318 -0.093069 -0.14852 -0.54911 -1.226 -0.24381 0.26514 0.21754 0.4357 0.24993 0.59461 -0.45401 0.32508 0.043771 0.10369 0.41361 -0.26396 0.17651 0.38454 -0.16436 0.45683 0.55979 -0.51367 -0.18409 0.23723 0.43171 0.30167 -0.33217 -0.052117 0.32542 0.60387 0.017841 -0.017125 0.08324 0.10975 0.28547 0.16573 0.16852 -0.42317 0.098529 0.0095492 -0.16471 0.29282 -0.81308 0.17411 0.19207 -0.95244 0.62195 0.36962 -1.0441 -0.55225 -0.5226 0.51559 0.1854 -0.10054 -0.042617 0.38414 0.64342 0.092143 -0.11061 1.0636 0.25827 -0.53791 -0.023972 0.048041 -0.18925 0.58442 0.75995 -0.34859 0.52449 -0.18154 0.25873 -0.09063 -0.22449 -0.66942 -0.19548 -1.1242 -0.44684 0.11747 0.14494 1.0363 0.47481 
게|NNB+JKS 0.29006 -0.20974 0.269 0.49281 0.045811 -0.031806 -0.046393 -0.04282 -0.11012 -0.56914 -0.19576 0.035442 -0.17574 0.40228 0.075407 -0.0024617 0.15861 -0.084882 0.025672 0.047566 0.036356 -0.54886 -0.15236 0.070771 -0.18202 0.11342 0.26707 0.057843 -0.014323 -0.10062 -0.010893 0.21904 0.17615 0.074648 0.030039 -0.10856 -0.040209 -0.003069 0.11332 0.34708 0.13256 -0.2914 0.23156 -0.10887 0.13266 -0.041096 0.0049442 -0.021985 0.29541 -0.18133 0.25771 -0.094606 0.20592 -0.23036 0.10117 -0.11213 0.13684 -0.071231 0.027339 0.025018 -0.074033 -0.20576 -0.20224 -0.0069732 0.28836 -0.15988 0.13574 0.038352 -0.084295 0.23984 -0.038141 -0.027111 -0.05998 0.18263 -0.01112 0.19403 0.12711 0.11552 0.0096516 -0.18025 0.30051 -0.36296 0.022889 0.33187 0.088853 0.16921 -0.023867 -0.02874 -0.10408 -0.36747 0.1779 0.11318 -0.12043 0.53018 -0.082508 -0.079315 -0.42652 -0.25653 0.053754 -0.0088055 
습니다|EF -0.48402 0.061305 -0.20831 -0.16351 0.044895 -0.083624 0.20918 0.26819 0.10021 0.47502 0.030868 -0.15174 0.14835 -0.074887 -0.35117 -0.10898 -0.085756 0.36789 -0.0039856 0.094754 -0.065756 0.30374 0.18713 -0.47272 -0.018134 -0.0057209 -0.029695 -0.34471 -0.01444 0.19682 -0.048175 -0.058186 0.16677 0.17637 0.18507 0.061552 -0.087157 0.11381 -0.38266 -0.28156 -0.038933 -0.28194 -0.39279 -0.23112 -0.2696 0.23243 -0.099641 0.0048721 -0.043933 -0.0091092 0.089182 -0.13278 -0.12068 -0.029406 -0.17695 -0.10161 -0.0066628 -0.044384 -0.26951 0.38534 -0.23853 0.18454 0.19107 -0.071272 -0.13797 -0.14767 0.29591 0.31233 0.086619 -0.039215 0.23068 -0.46246 0.069753 0.058769 0.060857 0.038251 -0.072981 -0.21695 -0.29235 0.32624 0.16608 -0.083449 -0.022092 -0.06248 -0.28213 -0.33556 -0.32122 0.14302 0.17033 0.18921 -0.34058 -0.16593 -0.057325 -0.052166 0.30693 0.20034 0.092381 0.33215 -0.16871 0.071304 
겠|EP -0.036194 -0.66621 0.026138 0.032137 -0.45756 -0.041637 -0.081843 -0.0716 -0.80435 -0.17537 0.062521 -0.13981 -0.014467 -0.32808 -0.1412 -0.10865 0.051286 0.47597 -0.23964 0.37691 -0.048067 0.18575 0.15425 -0.48021 -0.035413 0.058729 -0.24761 -0.32525 -0.064482 0.22218 0.20149 -0.11829 0.09439 0.34372 0.23726 0.07571 -0.10294 0.3145 -0.16529 -0.38578 -0.14327 -0.27335 -0.64286 -0.44316 -0.31278 0.16278 0.081646 0.095134 -0.10398 -0.1708 0.096053 -0.34526 -0.035522 -0.33442 -0.26263 0.042914 0.15682 -0.15632 -0.48972 0.36188 -0.023307 0.34623 0.020526 -0.33689 0.16814 -0.23143 0.68157 0.34979 -0.074928 -0.21824 0.28802 -0.58779 0.14974 -0.26158 0.064099 -0.052553 -0.46026 -0.264 -0.1666 0.51136 0.23484 -0.050516 -0.13856 0.19109 -0.11518 -0.22517 -0.39356 0.27919 0.30168 0.24274 -0.58586 -0.33891 -0.27863 0.0553 0.56409 0.44619 0.39909 0.46047 -0.24278 0.094386 
얼마|NNG 0.49823 -1.0579 0.44927 0.46811 0.4026 -0.094983 -0.12207 -0.66742 0.35928 -0.53757 0.19218 -0.088673 -0.27442 0.99312 0.0027223 0.30379 0.18054 0.36119 -0.51091 0.055232 0.29081 -0.28263 -0.039816 -0.75596 -0.42457 0.38692 0.45607 -0.44399 -0.15253 -0.042029 -0.21097 -0.53992 0.60777 0.32793 -0.014477 -0.41087 -0.2907 -0.44915 -0.0056698 0.4652 -0.049489 -0.22567 0.069354 -0.30698 0.44907 -0.01506 0.01232 0.65809 0.14293 -0.13685 -0.13488 0.0029433 0.62333 -0.70629 -0.36481 -0.53057 1.1707 -0.050752 0.60882 0.44624 0.23641 -0.016442 -0.051067 -0.14822 -0.12772 0.45087 0.60475 0.077816 -0.22791 1.1161 0.39011 0.20885 -0.96427 -0.45881 0.14308 0.67677 0.42305 -0.40632 0.016274 -0.14447 0.61164 -0.08971 0.45792 -0.28399 -0.65852 0.10044 -0.54259 0.60633 -0.54494 0.19056 0.30831 -0.28867 -0.57042 -0.68879 0.05053 -0.28616 -0.6749 -0.19508 0.48034 -0.23591 
구매|NNG 0.48075 -0.32494 0.62204 0.5689 -0.3183 0.063129 -0.27209 0.062064 -0.78491 -1.066 -0.38417 -0.069577 -0.2288 0.26992 0.049845 -0.18267 0.23225 0.10506 0.15862 0.19011 0.033394 -0.72185 -0.12327 0.11697 -0.27071 0.19402 0.23784 -0.030929 -0.16342 -0.24019 0.16757 0.37484 0.26611 0.21968 0.20698 -0.048508 -0.084649 0.27095 0.082523 0.43932 0.026714 -0.452 0.12001 -0.1565 0.15313 0.09729 0.05754 -0.14769 0.23179 -0.29549 0.55217 -0.30871 0.22364 -0.32249 0.11486 0.0052119 -0.10706 -0.070146 -0.2209 -0.087809 -0.22651 -0.13978 -0.31617 0.096267 0.38955 -0.28553 0.41153 0.24503 -0.088823 0.077327 0.0047743 -0.13606 0.20762 0.38652 0.024481 0.18749 -0.10017 0.064772 -0.086719 -0.18149 0.48849 -0.36416 0.035478 0.45553 0.27444 0.24644 -0.14559 0.10926 0.095315 -0.41876 -0.067552 0.1936 -0.021426 0.61634 0.062869 0.15555 -0.46848 -0.30486 -0.12292 -0.11529 
사이즈|NNG 0.090418 -0.10547 0.051034 0.28258 -0.34603 -0.093961 0.20672 0.18133 -0.37427 -0.26176 -0.23767 -0.023544 0.20448 -0.020563 0.089045 -0.22871 -0.046886 0.072258 0.029007 0.020258 0.030045 0.045152 0.024268 0.0056514 -0.19462 0.2091 0.088282 -0.043712 -0.14035 0.089195 0.11576 0.20687 -0.044404 -0.011876 0.23894 0.059955 -0.092449 0.15422 -0.1236 0.054568 0.24428 -0.090042 -0.031617 -0.30917 -0.18746 0.17831 -0.14356 -0.11707 -0.14616 0.030668 0.18895 -0.20442 -0.10262 -0.20418 -0.024813 0.050893 0.049155 -0.0049304 -0.027073 0.011805 -0.1267 0.21945 0.017571 0.1815 0.069317 -0.25474 0.20662 0.37259 0.11508 0.028868 -0.1401 -0.25145 0.25093 0.26691 0.06788 0.079637 -0.00090917 0.12918 -0.12176 -0.19591 0.072916 -0.058135 0.067323 0.18768 0.065078 0.030155 0.070946 0.002987 0.18664 -0.39045 -0.21126 0.070976 0.10973 0.4066 0.2793 0.08064 -0.12319 0.062561 -0.29844 -0.076429 
끊|VV -0.2631 -0.77479 -0.26137 -0.17031 -0.010496 -0.050349 -0.099384 -0.13127 -0.19415 0.5583 0.19662 -0.084829 0.10802 -0.23115 -0.39026 0.092105 -0.13397 0.64928 -0.43433 0.40187 0.039128 0.64149 0.3555 -0.84276 0.038069 -0.15708 -0.28127 -0.38255 -0.09485 0.55497 0.042283 -0.41304 0.097954 0.18676 -0.086688 0.012233 0.0070952 0.019757 -0.16964 -0.66969 -0.10785 0.036167 -0.64757 -0.31492 -0.22897 0.17408 0.057765 0.28842 -0.32845 0.12825 -0.42463 -0.17696 -0.057154 -0.31763 -0.45276 -0.21215 0.40913 -0.10773 -0.30629 0.56192 0.11023 0.5923 0.30505 -0.46977 0.044206 -0.070653 0.46785 0.20106 -0.20141 -0.016402 0.26269 -0.53736 -0.36159 -0.68856 0.12266 -0.07455 -0.24235 -0.29345 -0.26366 0.67188 0.11257 0.31018 0.10268 -0.026495 -0.39715 -0.37081 -0.68708 0.54852 0.056426 0.60878 -0.2706 -0.41364 -0.27938 -0.61885 0.44407 -0.055467 0.58764 0.65281 -0.19725 -0.038214 
시|NNBC 0.058023 -0.21144 0.041404 -0.092979 -0.011175 0.12222 -0.15771 -0.063822 0.021663 0.36838 0.054261 -0.094899 -0.060638 -0.27295 -0.20536 -0.044495 -0.25532 0.34057 -0.011505 0.26612 0.071406 0.54219 0.25117 -0.23378 -0.055511 -0.030286 -0.18335 -0.21807 -0.24952 0.17809 -0.042702 -0.026896 -0.024145 -0.24619 -0.17375 -0.08124 0.043752 0.068009 -0.034688 -0.2927 -0.28328 0.54163 -0.17692 0.15229 0.28123 0.15776 0.094465 0.071818 -0.45021 0.39029 -0.33695 0.033429 -0.02469 0.020687 -0.079473 -0.081012 -0.21481 0.10336 0.15547 -0.2851 0.092253 0.33212 -0.0076287 0.052332 -0.23411 0.27807 -0.097109 -0.098064 -0.080636 0.04839 -0.10394 0.22576 -0.15035 -0.49729 0.059806 0.11744 0.17836 -0.18848 -0.05832 0.18051 0.070803 0.35216 0.13035 -0.34765 -0.091449 -0.087612 -0.11013 0.2708 0.01342 0.34738 0.039461 0.049521 -0.078409 -0.63739 -0.17153 -0.28955 0.28906 0.032547 0.0067498 -0.16692 
요금|NNG 0.53324 -0.62875 0.092688 0.39017 0.10375 -0.17536 0.082206 -0.70633 0.29337 -0.52827 0.16963 -0.032479 -0.34629 0.58307 0.32024 0.17529 0.068906 0.28605 -0.32714 -0.12371 0.15969 -0.18086 -0.023628 -0.37823 -0.3705 0.40267 0.39815 -0.22029 -0.0047035 -0.2474 -0.20813 -0.54247 0.29325 0.1491 0.16618 -0.31595 -0.2332 -0.30933 -0.05834 0.40966 0.063199 -0.17701 0.24572 -0.30481 0.13681 -0.14308 -0.094683 0.36319 0.090096 -0.23174 0.10111 -0.048218 0.49608 -0.65315 -0.28821 -0.23196 1.2335 -0.083977 0.59021 0.1767 0.37212 -0.02842 -0.2001 -0.26739 -0.024533 0.24243 0.35375 0.11712 0.102 0.89705 0.16767 0.16097 -0.5763 -0.35539 0.081803 0.4437 0.41528 -0.1689 0.087657 -0.24833 0.45285 -0.25194 0.34417 -0.31484 -0.35886 0.089387 -0.14779 0.23804 -0.40849 0.035288 0.26338 -0.44892 -0.45658 -0.21872 0.046957 -0.17116 -0.35203 -0.10823 0.51296 0.033138 
예약|NNG 0.52438 -0.36816 0.30286 -0.25769 -0.060107 0.097234 -0.25274 -0.12909 -0.12894 -0.04941 0.57544 -9.2948e-05 -0.52976 -0.10395 -0.05052 0.040147 -0.075896 -0.24513 -0.2831 0.16031 0.28836 -0.25508 -0.042185 0.19598 0.12867 0.0044757 -0.0097556 0.23852 0.25575 -0.09668 0.040067 0.1466 0.1769 0.33358 -0.048 -0.44503 0.027919 0.17883 0.36071 0.44673 -0.38443 0.025313 0.25547 0.26118 0.56766 -0.075444 0.16237 -0.13492 0.16706 -0.04271 -0.13961 0.11854 -0.041421 -0.14102 -0.10532 -0.21475 0.53599 -0.32841 -0.38932 0.10998 0.28966 -0.71458 0.36126 0.026473 0.10023 0.12605 -0.05141 -0.59884 0.080963 0.11276 0.40087 0.17829 -0.4804 -0.096783 0.15284 0.04448 0.30095 -0.044665 -0.1639 0.018284 -0.15901 -0.18339 -0.41511 0.40311 0.36469 0.20554 0.14453 0.29218 0.047504 0.57878 0.089234 -0.4259 -0.37059 -0.13794 0.039437 0.0058264 -0.20583 -0.33869 0.58029 0.17146 
몇|MM 0.064384 -0.20802 0.052448 -0.10821 -0.0066825 0.11868 -0.14863 -0.061746 0.019726 0.35353 0.054125 -0.10125 -0.047254 -0.26458 -0.19556 -0.029395 -0.24305 0.34071 -0.0044853 0.27443 0.062732 0.5419 0.23754 -0.22321 -0.051068 -0.024091 -0.18267 -0.23282 -0.23966 0.18319 -0.038053 -0.028657 -0.011393 -0.24641 -0.17853 -0.090308 0.039098 0.052764 -0.030761 -0.29027 -0.28745 0.53719 -0.17574 0.15333 0.27999 0.16633 0.099692 0.057833 -0.44002 0.37807 -0.33858 0.039226 -0.023607 0.026224 -0.075537 -0.076412 -0.21492 0.11328 0.13713 -0.28674 0.086675 0.33205 -0.0024379 0.049891 -0.23164 0.27114 -0.10671 -0.086977 -0.081762 0.057203 -0.096257 0.21696 -0.15581 -0.48195 0.06124 0.11322 0.16742 -0.17642 -0.055288 0.1756 0.062155 0.34416 0.14883 -0.33994 -0.086831 -0.093298 -0.09643 0.28091 0.0080734 0.3366 0.042637 0.05486 -0.084573 -0.63968 -0.17396 -0.27982 0.28309 0.030749 0.015697 -0.1636 
통화|NNG 0.10702 -0.10216 0.25832 -0.23315 -0.24949 -0.11385 -0.31668 0.30062 0.047427 -0.16037 0.18242 0.0647 0.16009 -0.42086 -0.177 -0.031503 0.1794 -0.61795 -0.29675 -0.068589 0.10937 0.0076065 -0.33576 0.052112 0.24014 0.42132 -0.058275 0.21113 0.36061 -0.16885 0.41834 0.068787 -0.046577 0.25926 0.51101 0.078657 -0.13161 0.045257 0.0022913 -0.059089 -0.38832 -0.046153 -0.015759 -0.3228 0.23687 -0.20028 0.12786 0.24119 0.30645 -0.15056 0.34537 -0.14938 0.13007 0.16972 0.15632 -0.028269 -0.087379 -0.0049451 -0.24822 -0.14544 0.25088 -0.017306 -0.093907 0.075145 -0.31964 0.40272 0.15586 -0.44515 -0.23487 -0.49117 0.34596 -0.095874 0.11315 -0.045398 -0.26829 0.17651 -0.16203 -0.18495 0.18463 0.016054 -0.27491 0.11553 -0.65638 0.10212 -0.098539 0.28192 -0.034175 -0.2728 0.35809 0.21779 -0.50518 0.26426 -0.26614 0.35101 0.3429 0.47377 -0.28428 0.032082 0.1981 0.25296 
105|SN 0.18527 -0.17585 0.16079 0.3697 -0.25935 -0.073441 0.13776 0.1282 -0.34602 -0.36155 -0.26379 -0.013829 0.1558 0.13226 0.074248 -0.20198 0.0012956 0.088402 0.016122 0.040518 0.072267 -0.097105 0.017563 0.0073872 -0.23855 0.19534 0.18136 -0.042825 -0.17189 0.053804 0.090255 0.20643 0.048566 0.025749 0.18105 0.028759 -0.089318 0.11224 -0.070239 0.15567 0.24025 -0.14013 0.033537 -0.26407 -0.078643 0.1712 -0.13047 -0.08642 -0.096774 -0.0011563 0.19454 -0.19013 -0.011029 -0.27615 -0.021696 -0.02789 0.092187 -0.007918 0.0051471 0.026762 -0.14023 0.15752 -0.0134 0.17633 0.12745 -0.23884 0.22778 0.32845 0.048511 0.12479 -0.12918 -0.20918 0.14614 0.27553 0.078025 0.12261 0.032871 0.13421 -0.11349 -0.25033 0.16689 -0.081903 0.13119 0.23757 0.076587 0.086281 0.010954 0.067104 0.10861 -0.4169 -0.11181 0.083321 0.10748 0.39639 0.21054 -0.0011477 -0.23731 -0.019112 -0.24351 -0.13477 
어|EC -0.18369 -0.63217 -0.22545 -0.077168 -0.25005 -0.12005 0.0037317 -0.087621 -0.35052 0.23558 0.17995 -0.061071 0.042466 -0.27809 -0.21834 0.0087405 -0.040615 0.44398 -0.3813 0.27509 -0.0094713 0.41894 0.18574 -0.62577 0.0025165 0.041596 -0.16578 -0.29146 0.088969 0.25093 0.15571 -0.32656 0.096381 0.31685 0.22701 0.078609 -0.050768 0.16992 -0.18287 -0.48366 -0.079894 -0.25692 -0.58297 -0.51629 -0.34394 0.093702 -0.0059179 0.20153 -0.085102 -0.11998 -0.044345 -0.33154 -0.0050247 -0.35396 -0.35325 -0.071628 0.46395 -0.1323 -0.39815 0.51008 0.11693 0.38485 0.16964 -0.45819 0.035205 -0.13068 0.60086 0.23292 -0.055272 -0.15293 0.32628 -0.66858 -0.06094 -0.44141 0.080605 -0.050365 -0.30008 -0.284 -0.14843 0.56908 0.12504 0.046163 -0.097221 0.082889 -0.29088 -0.2345 -0.49278 0.33632 0.19392 0.38611 -0.45649 -0.46415 -0.35417 -0.085793 0.52145 0.22811 0.4276 0.61824 -0.10581 0.16771 
상담원|NNG 0.28799 -0.35605 0.63713 -0.3354 -0.40332 -0.1963 -0.75497 0.52517 0.034904 -0.4369 0.28861 0.1429 0.22353 -0.70111 -0.35919 0.0037424 0.37103 -1.1136 -0.63669 -0.11708 0.26269 -0.053437 -0.58372 0.075625 0.40345 0.78162 -0.012449 0.42998 0.71263 -0.4451 0.82136 0.011197 0.003727 0.54843 0.96494 0.14172 -0.21315 0.079522 0.074814 -0.039112 -0.66951 -0.20148 0.054902 -0.63472 0.50469 -0.43528 0.22851 0.48536 0.64349 -0.38839 0.67044 -0.36685 0.36882 0.17918 0.2415 -0.097546 0.041032 -0.02144 -0.49491 -0.20785 0.55111 -0.026469 -0.18757 -0.0017478 -0.47927 0.72584 0.31423 -0.87135 -0.46459 -0.86102 0.69289 -0.22114 0.082378 -0.15888 -0.52087 0.29369 -0.3102 -0.35711 0.33434 0.037347 -0.42068 0.28261 -1.1218 0.27704 -0.21846 0.6201 -0.23602 -0.38085 0.56188 0.43532 -0.80537 0.49341 -0.48041 0.60355 0.60818 0.72695 -0.61789 0.016433 0.38813 0.40564 
들려|VV+EC 0.24387 -0.10438 0.15073 -0.03641 -0.46658 0.17629 0.066668 -0.26516 -0.94549 -0.5576 0.05906 -0.11764 -0.152 -0.37414 0.41779 -0.0717 0.1097 -0.044489 0.1995 0.1959 -0.19862 -0.21448 -0.057559 0.45232 0.14763 -0.19673 -0.58014 0.00033937 -0.29096 0.14977 -0.051213 0.31213 -0.29238 -0.051915 -0.2216 0.0076906 -0.076087 0.21468 0.11422 -0.1461 -0.22815 0.34834 -0.33244 0.28402 -0.056431 0.022938 0.34174 -0.17213 -0.2012 0.052888 -0.12009 0.21225 -0.23892 0.23329 0.16371 0.39329 -0.69016 -0.097411 -0.10811 -0.36111 -0.073859 -0.11516 -0.23026 0.11983 0.24824 -0.067306 -0.033914 0.086422 -0.024457 -0.22096 -0.15253 0.37621 0.39736 -0.0063421 -0.036023 -0.22588 -0.45236 0.017554 0.041636 0.042945 -0.13146 -0.099825 -0.26632 0.018691 0.34583 -0.20985 0.52731 -0.29772 0.20747 -0.069764 -0.30478 0.019909 0.049691 -0.024647 0.073133 0.58528 0.4592 -0.18311 -0.196 -0.014226 
알|VV -0.16871 -0.33516 -0.42842 -0.067581 -0.14558 -0.19756 0.035011 -0.15355 0.030782 0.35751 0.11294 0.052868 -0.016731 -0.30016 -0.083991 0.048978 -0.11609 0.32917 -0.35607 0.033151 -0.0021878 0.47315 0.21309 -0.42139 -0.037732 0.0747 0.05441 -0.072328 0.33403 -0.052698 0.1409 -0.56951 -0.028189 0.13752 0.34488 0.12874 0.061075 0.09224 -0.14495 -0.39538 0.13215 -0.31917 -0.21646 -0.51494 -0.47101 -0.1014 -0.18055 0.09407 -0.02787 -0.24017 0.098687 -0.37444 0.10193 -0.39851 -0.32507 -0.01802 0.79868 -0.057103 -0.23204 0.39037 0.31402 0.38748 0.071036 -0.6185 0.069458 -0.1716 0.31827 0.15663 0.15636 -0.14053 0.16435 -0.6608 -0.043031 -0.43014 0.009025 -0.1715 -0.1171 -0.10568 -0.023576 0.40711 0.079611 0.054294 0.01655 0.0079834 -0.24945 -0.09884 -0.39674 0.17053 0.051894 0.27794 -0.14272 -0.46599 -0.23385 0.069282 0.33638 -0.034439 0.38978 0.59743 0.023816 0.23818 
유료|NNG 0.30971 -0.19737 -0.033041 0.17474 0.1446 -0.072746 0.002857 -0.46146 0.27644 -0.32223 0.062633 0.0026011 -0.16197 0.38646 0.24347 0.085803 0.044087 0.16024 -0.084852 -0.12759 0.048425 -0.15823 -0.075647 -0.20083 -0.17746 0.19557 0.22025 -0.059888 -0.011964 -0.10429 -0.16986 -0.27234 0.10695 -0.0086579 -0.0175 -0.18933 -0.10456 -0.26314 -0.04657 0.27042 0.059989 0.018429 0.2693 -0.01215 0.087247 -0.11901 -0.059375 0.19145 0.017997 -0.056293 0.021812 0.081619 0.22877 -0.31026 -0.14051 -0.11601 0.6276 -0.034829 0.44218 0.01746 0.214 -0.028142 -0.10978 -0.090642 -0.041882 0.14057 0.082931 0.02783 0.031857 0.53582 0.03497 0.20764 -0.34571 -0.17639 0.059042 0.2911 0.30823 0.011157 0.085546 -0.22337 0.19335 -0.10893 0.28977 -0.25006 -0.1443 0.053861 -0.066 0.11547 -0.30944 0.0011614 0.24964 -0.16746 -0.16876 -0.22311 -0.10361 -0.22207 -0.19554 -0.12405 0.30906 -0.035974 
확인|NNG 0.12097 0.028676 -0.095542 -0.0098469 0.2279 0.10984 -0.37544 -0.19879 0.38237 -0.2002 0.14027 0.11924 -0.10314 0.46927 -0.074912 -0.012503 0.24219 -0.14342 0.11422 0.0052041 0.004649 -0.35918 -0.51769 -0.25877 0.0094519 0.1393 0.33382 0.020737 0.22206 -0.22129 0.1068 -0.0028705 0.21494 0.24741 -0.1232 -0.001992 0.14191 -0.12771 0.19107 0.36936 -0.20465 -0.19946 0.15108 0.13955 0.23209 -0.10151 -0.05091 0.18888 0.33313 -0.023234 0.0272 -0.00046209 0.15741 -0.023691 0.015273 -0.067205 0.0075358 0.017308 0.047164 0.035793 0.090876 -0.38971 0.077205 0.06583 -0.37498 0.25683 0.26394 -0.40567 -0.27028 -0.0027115 0.27243 0.041188 -0.21406 -0.01087 0.20919 0.40388 0.16593 -0.091428 0.38908 0.095517 -0.04808 -0.10531 0.11968 -0.034059 0.17329 0.36178 -0.29275 0.36489 -0.1641 0.099271 0.055395 -0.1221 -0.37473 -0.086662 -0.50755 -0.30647 -0.14127 0.0082957 0.51461 0.17175 
그거|NP 0.2171 -0.65135 1.1201 0.4597 -0.22253 0.23492 -0.51844 0.49977 -1.0599 -1.0554 -0.43976 -0.25509 0.20723 0.50572 -0.51898 -0.28482 0.36363 0.2688 0.10313 0.47508 0.11048 -0.67207 -0.1638 -0.40434 -0.22824 0.1917 0.12484 -0.37805 -0.48959 0.15489 0.29429 0.62069 0.54686 0.5221 0.13312 0.0064679 -0.19581 0.28777 -0.082023 0.33204 -0.21604 -0.46518 -0.36767 -0.17145 0.36389 0.4445 0.18253 0.093369 0.1198 -0.0782 0.36708 -0.29574 0.12099 -0.19851 0.040977 -0.2399 -0.66833 -0.05831 -0.49968 0.19831 -0.60997 0.059266 -0.03482 0.48532 0.12306 -0.1394 0.84141 0.40849 -0.53076 0.0055038 0.32465 -0.2436 0.105 0.57237 0.088395 0.46431 -0.37516 -0.24147 -0.32127 0.012637 0.58161 0.0069002 0.082139 0.54094 -0.047096 0.12537 -0.69398 0.56777 0.21453 -0.23714 -0.46704 0.69021 0.085477 -0.0032054 0.362 0.30095 -0.83032 -0.34077 -0.58655 -0.56223 
한가요|XSA+EC -0.11321 0.30302 -0.13051 -0.07428 0.33134 0.035947 0.068275 -0.010959 0.31263 0.1251 -0.058057 0.080668 0.15056 0.2516 0.073629 0.097305 0.012518 -0.090867 0.10773 -0.18657 -0.04734 -0.14657 -0.029547 0.11879 0.11301 -0.21518 -0.0070112 0.16927 -0.050064 0.1462 -0.18043 0.011169 -0.10267 -0.15579 -0.31525 -0.013166 0.069052 -0.2701 0.026587 0.076788 0.22285 0.12714 0.24464 0.28943 -0.032825 -0.0725 -0.024807 -0.02862 0.0019062 0.085939 -0.18988 0.27235 -0.095042 0.14796 0.037962 -0.025377 -0.060485 0.0018017 0.18418 0.034231 -0.073827 -0.088834 0.10689 0.10164 0.11056 -0.093932 -0.31917 -0.007599 -0.038073 0.12129 -0.14418 0.20418 -0.13711 0.17884 -0.014928 -0.099432 0.06233 0.23144 -0.029392 -0.21013 -0.15879 0.060364 0.16913 -0.001929 0.030633 -0.047535 0.062938 -0.080965 -0.22452 -0.11017 0.29878 0.17578 0.28334 -0.16502 -0.13851 -0.20717 -0.078963 -0.13855 -0.092673 -0.151 
고를|VV+ETM 0.072881 -0.12062 -0.18428 0.31041 -0.28216 -0.15869 0.46008 0.094994 -0.09297 0.012625 -0.12817 0.045872 0.27574 -0.023448 0.20285 -0.16465 -0.14287 -0.044606 -0.069666 -0.00069099 0.033628 0.2718 0.053951 0.054877 -0.20845 0.19209 0.029422 -0.017062 -0.13854 0.27284 0.0022744 0.17583 -0.18584 -0.18822 0.11286 0.018324 -0.10387 0.031968 -0.077894 -0.076185 0.30064 0.16042 -0.027258 -0.33884 -0.20229 0.15418 -0.16157 -0.060045 -0.25789 0.20475 -0.063331 -0.07205 -0.16009 -0.1713 -0.011148 0.034983 0.13901 0.013365 0.20862 -0.0044852 -0.030109 0.25057 0.046424 0.18268 -0.010394 -0.15068 0.035265 0.29318 0.15191 0.16048 -0.27638 -0.14428 0.14018 0.059928 0.074103 0.092591 0.17137 0.15497 -0.046551 -0.23329 -0.082447 -0.037918 0.029986 0.067781 -0.037164 -0.044486 0.30634 -0.12668 0.14807 -0.45456 -0.14197 -0.0093173 0.015782 0.41348 0.2287 -0.0042517 -0.0033533 0.12619 -0.21101 -0.030526 
상담|NNG -0.011901 -0.0198 0.23628 -0.31127 -0.17126 -0.17016 -0.22628 0.45666 0.22677 0.049864 0.17231 0.080091 0.34938 -0.52231 -0.24241 -0.006659 0.12292 -0.71977 -0.3778 -0.12784 0.12947 0.21249 -0.25086 0.054311 0.30301 0.41129 -0.16631 0.25029 0.31171 -0.013171 0.39689 0.085472 -0.13375 0.15321 0.4947 0.092475 -0.17327 -0.06906 -0.067126 -0.21561 -0.32246 0.13149 0.0015542 -0.31499 0.25501 -0.19621 0.1273 0.28674 0.20403 -0.030852 0.23971 -0.051657 0.049961 0.28808 0.16662 -0.092438 -0.15159 0.023557 -0.18835 -0.15985 0.25491 0.14282 -0.025991 0.15099 -0.36295 0.44026 -0.02372 -0.4516 -0.26637 -0.50666 0.29506 -0.045437 0.071115 -0.068714 -0.37151 0.13831 -0.13241 -0.16385 0.10752 -0.050176 -0.40821 0.28566 -0.71225 0.047603 -0.25023 0.20526 0.005217 -0.39514 0.39042 0.2281 -0.51596 0.45196 -0.1318 0.28524 0.48151 0.46314 -0.33069 0.02354 0.067497 0.16779 
못|MAG 0.15595 0.28393 -0.11674 -0.12158 -0.44276 0.12453 0.090557 -0.24896 -0.63745 -0.36839 0.0064016 -0.037068 -0.16062 -0.44401 0.48959 -0.093622 0.017206 -0.10545 0.29335 -0.032733 -0.22541 -0.089558 -0.07451 0.58488 0.13784 -0.13844 -0.37794 0.1721 -0.039087 -0.14479 -0.027352 0.13167 -0.40591 -0.18475 -0.073662 0.11366 0.038841 0.22197 0.086953 -0.09974 -0.08085 0.26112 -0.058239 0.26637 -0.22438 -0.11491 0.14453 -0.30012 -0.15274 -0.050222 0.051797 0.12306 -0.20212 0.24942 0.17306 0.51033 -0.47017 -0.014806 -0.031433 -0.46343 0.049935 -0.107 -0.27807 -0.017178 0.17247 -0.13119 -0.22994 0.0377 0.20115 -0.32392 -0.25172 0.27833 0.54982 0.045077 -0.056621 -0.3295 -0.32149 0.16296 0.1833 -0.039832 -0.1964 -0.080228 -0.1352 -0.10347 0.40381 -0.093302 0.56468 -0.38853 0.14492 -0.14967 -0.12647 -0.00085343 0.18644 0.12344 -0.10899 0.36125 0.4734 -0.11537 -0.090954 0.083601 
냐|EC 0.28756 0.17772 -0.53241 0.054715 -0.51708 -0.15233 0.13182 -0.51741 -0.29286 -0.1956 -0.023013 0.14698 -0.38218 -0.56018 0.65573 0.00055228 -0.15351 0.054238 0.0086147 -0.26485 -0.13672 0.17291 0.1413 0.52336 -0.078366 0.046205 0.054473 0.34861 0.43793 -0.60468 0.065903 -0.50254 -0.40957 -0.22698 0.34525 0.14643 0.14707 0.23873 0.10757 -0.098346 0.29806 -0.11784 0.3056 -0.21891 -0.58057 -0.36138 -0.20747 -0.33756 -0.04245 -0.39586 0.36393 -0.29645 0.074637 -0.29442 -0.061075 0.46989 0.72558 -0.0020839 0.061348 -0.30614 0.50999 0.11109 -0.3734 -0.61967 0.32457 -0.31296 -0.20413 0.06704 0.57326 -0.23482 -0.3203 -0.18921 0.44181 -0.22702 -0.066985 -0.47604 -0.076183 0.29106 0.27756 -0.038004 -0.047429 -0.16771 0.040864 -0.057452 0.32669 0.11311 0.39956 -0.37488 0.0039856 -0.17264 0.16113 -0.51296 0.039933 0.55501 -0.089232 -0.036368 0.58767 0.23732 0.19639 0.39283 
려고|EC 0.22892 -0.22307 0.39637 0.31607 -0.23721 0.030581 -0.20337 0.08777 -0.53965 -0.63098 -0.23334 -0.07388 -0.077968 0.11329 -0.046761 -0.14982 0.15106 0.10793 0.10065 0.14904 0.0034991 -0.4138 -0.075869 -0.0088963 -0.14498 0.12937 0.11343 -0.07016 -0.1102 -0.10928 0.13227 0.24106 0.17378 0.18714 0.1741 0.0083564 -0.066478 0.19842 -0.023408 0.20509 -0.024415 -0.30586 -0.027172 -0.13488 0.056975 0.10058 0.049259 -0.082028 0.13402 -0.19166 0.37406 -0.22722 0.10185 -0.18784 0.048859 0.0060396 -0.1285 -0.045538 -0.21768 -0.018301 -0.17036 -0.040119 -0.19143 0.062911 0.20716 -0.19118 0.31756 0.19493 -0.088214 -0.018447 0.06535 -0.16842 0.18767 0.24688 0.00060954 0.12582 -0.14867 0.00018783 -0.093366 -0.032995 0.31437 -0.18978 -0.012463 0.29565 0.1268 0.1072 -0.1605 0.075535 0.11493 -0.22009 -0.15592 0.17019 -0.0072545 0.36336 0.11766 0.18105 -0.27507 -0.14087 -0.14463 -0.06364 
색상|NNG 0.15183 -0.23304 0.22012 0.47633 -0.48797 -0.088778 0.39612 0.34092 -0.63245 -0.395 -0.38638 -0.040539 0.48678 0.10904 0.13668 -0.34384 -0.046833 0.035986 0.031662 0.1026 0.074325 0.074455 0.040818 0.053106 -0.29577 0.26438 0.045288 -0.08301 -0.3918 0.33879 0.1346 0.48504 -0.08507 -0.060008 0.18621 0.0924 -0.16737 0.189 -0.13657 0.050314 0.36314 0.049094 -0.13798 -0.39385 -0.18099 0.37135 -0.15903 -0.11891 -0.347 0.22879 0.085156 -0.18199 -0.24099 -0.2358 0.016928 0.047246 -0.17575 0.0076496 0.013053 0.0071429 -0.30058 0.37544 0.08672 0.45353 0.096359 -0.32646 0.26267 0.5897 0.041949 0.076271 -0.28227 -0.24533 0.35055 0.45509 0.1143 0.14978 -0.034196 0.19 -0.21326 -0.36923 0.059532 0.041302 0.12038 0.30362 0.051686 -0.0043691 0.17695 0.016377 0.28032 -0.68996 -0.33327 0.29419 0.2679 0.47478 0.45686 0.12357 -0.28012 -0.012646 -0.60862 -0.31223 
해|VV+EC 0.17802 0.044305 0.023202 -0.20697 -0.59662 0.14562 -0.15908 -0.3111 -0.94442 -0.45149 0.034729 -0.13613 -0.40105 -0.6554 0.33463 -0.10413 0.027178 0.20882 0.22625 0.11085 -0.21033 -0.078329 0.077002 0.40395 0.085505 -0.13479 -0.38061 0.013848 0.039938 -0.38179 0.090527 -0.076434 -0.21854 0.04956 0.14906 0.12885 0.047832 0.4362 0.035799 -0.16249 -0.25421 -0.0093549 -0.239 0.1349 -0.26935 -0.096231 0.18463 -0.31315 -0.10467 -0.28894 0.28193 -0.12655 -0.079218 0.079244 0.042368 0.51727 -0.30963 -0.068624 -0.33598 -0.37178 0.095425 -0.038399 -0.34353 -0.27994 0.22208 -0.17025 0.052943 0.086672 0.23553 -0.46401 -0.043614 0.039442 0.59402 -0.073818 -0.040486 -0.39026 -0.49231 -0.045086 0.10568 0.25656 0.034493 -0.12157 -0.17692 -0.066027 0.38606 -0.11146 0.2664 -0.21643 0.23246 0.14545 -0.28943 -0.23514 0.068269 0.069454 0.0094745 0.49138 0.60669 0.027431 -0.041618 0.18025 
날|NNG -0.072956 0.2441 -0.0016654 -0.077022 0.38641 0.045231 -0.054739 -0.028985 0.27851 -0.011868 -0.027005 0.092408 0.082362 0.33415 0.034403 0.15669 0.10757 -0.15184 0.051378 -0.18438 -0.020619 -0.32418 -0.085412 0.12946 0.14626 -0.24194 0.036666 0.18244 0.0094059 0.057509 -0.12651 -0.02836 -0.016948 -0.031719 -0.29922 -0.0052943 0.077657 -0.28627 0.10243 0.16821 0.17179 6.5066e-06 0.26015 0.30229 0.032299 -0.11894 0.0092399 0.028125 0.16474 -0.027676 -0.13882 0.24542 0.0052239 0.12776 0.03499 -0.074424 -0.0011369 -0.021422 0.10293 0.11578 -0.068915 -0.20076 0.10367 0.055771 0.15902 -0.06775 -0.25371 -0.082325 -0.11097 0.11508 -0.038763 0.20138 -0.20491 0.21061 -0.041793 -0.10886 -0.018723 0.18076 0.0070772 -0.17919 -0.11491 0.038932 0.13797 0.074466 0.034239 0.016227 -0.038865 -0.056661 -0.25558 -0.046422 0.32836 0.17033 0.23858 -0.18732 -0.14374 -0.17126 -0.16836 -0.18786 -0.033123 -0.15114 
게요|NNB+VCP+EC 0.099659 -0.070311 -0.22148 0.46654 -0.40223 -0.21372 0.59385 0.16232 -0.19234 -0.04677 -0.25302 0.044237 0.39069 -0.022431 0.27246 -0.2452 -0.19347 -0.067139 -0.029811 -0.042398 0.045108 0.31769 0.069969 0.12943 -0.28233 0.25542 0.081851 0.028787 -0.20061 0.32301 0.0065611 0.27471 -0.27565 -0.28002 0.17211 0.068946 -0.12084 0.06452 -0.12195 -0.075449 0.49391 0.17345 0.021481 -0.44339 -0.32392 0.20338 -0.27451 -0.15199 -0.35286 0.26528 -0.017326 -0.11467 -0.23474 -0.24091 0.016757 0.081946 0.16512 0.017173 0.26415 -0.04941 -0.070721 0.3646 0.042319 0.2553 0.043971 -0.29413 0.015341 0.46038 0.25365 0.18058 -0.43316 -0.21502 0.26653 0.20243 0.086336 0.077691 0.20446 0.2961 -0.079502 -0.39651 -0.089272 -0.041351 0.08457 0.13516 0.022567 -0.03416 0.42264 -0.18014 0.18714 -0.70486 -0.14778 0.030801 0.11574 0.64629 0.30276 -0.045661 -0.058895 0.12704 -0.34779 -0.07316 
할까요|XSA+EC -0.051174 0.12673 -0.057379 -0.077435 0.21635 0.059248 -0.012509 -0.03502 0.2073 0.18349 -0.0096152 0.020801 0.072419 0.078707 -0.026417 0.054497 -0.051714 0.035557 0.056293 -0.025452 -0.0094722 0.053389 0.051663 -0.0031491 0.052343 -0.1572 -0.050902 0.035299 -0.10195 0.14838 -0.1137 -0.015002 -0.056915 -0.14434 -0.23918 -0.034897 0.057235 -0.14856 0.018075 -0.035472 0.038513 0.22599 0.09807 0.22321 0.077096 -0.003178 0.026215 0.0039811 -0.1228 0.16701 -0.22149 0.17689 -0.061974 0.10421 -0.00097888 -0.047928 -0.091016 0.030677 0.14845 -0.055756 -0.023087 0.044661 0.075009 0.068864 0.00038952 0.040101 -0.21906 -0.048708 -0.05572 0.079316 -0.094378 0.20505 -0.15026 -0.036034 -0.0041263 -0.031933 0.06612 0.064474 -0.034224 -0.06959 -0.0764 0.16004 0.15409 -0.090576 -0.012327 -0.064576 -0.017759 0.049311 -0.15025 0.065274 0.20371 0.11316 0.16056 -0.31911 -0.14591 -0.22234 0.041991 -0.078045 -0.045271 -0.15589 
한|XSV+ETM 0.1516 -0.076043 0.14751 0.25023 0.14339 0.023541 -0.10159 -0.084684 0.032181 -0.31095 -0.10039 0.038103 -0.17739 0.26534 0.018411 0.069529 0.10312 -0.042548 0.055804 0.018314 0.0034862 -0.38613 -0.073323 0.050476 -0.051397 -0.028436 0.13311 0.045935 -0.0032791 -0.068347 -0.045733 0.065852 0.10671 0.0020308 -0.087521 -0.080722 0.014228 -0.066726 0.1044 0.19648 0.037677 -0.15171 0.1919 0.063067 0.11221 -0.075307 0.040743 -0.011676 0.21917 -0.10249 0.10819 -0.010054 0.15857 -0.082396 0.085376 -0.075417 0.044727 -0.026113 0.055609 -0.0013951 -0.039187 -0.18666 -0.15188 -0.053169 0.2023 -0.074811 -0.00445 -0.043276 -0.066957 0.16507 -0.028543 0.062083 -0.097719 0.045812 -0.0188 0.068052 0.081723 0.076279 0.019003 -0.058297 0.18725 -0.20624 0.049387 0.1574 0.050244 0.099846 -0.061762 -0.010918 -0.13383 -0.15259 0.2153 0.087076 -0.059761 0.20473 -0.16588 -0.11241 -0.22107 -0.20023 0.10127 -0.0040296 
요일|NNG -0.033888 0.13821 0.0076539 -0.05667 0.26573 0.049697 -0.057227 -0.036407 0.20202 0.039304 -0.0054854 0.052924 0.044104 0.2072 0.017328 0.10188 0.045607 -0.060457 0.044782 -0.10167 0.00042767 -0.15576 -0.034981 0.052379 0.092682 -0.17269 -0.00091639 0.10196 -0.035011 0.062179 -0.10304 -0.024203 -0.0090467 -0.066999 -0.2423 -0.028708 0.067918 -0.19083 0.077784 0.080537 0.096503 0.085233 0.16173 0.23167 0.073754 -0.068759 0.016557 0.031895 0.05161 0.032182 -0.15838 0.19221 -0.0080252 0.10171 0.020097 -0.060461 -0.046263 0.0045115 0.099254 0.028358 -0.026915 -0.089298 0.067735 0.035068 0.083128 -0.003722 -0.21064 -0.076888 -0.087641 0.085561 -0.039783 0.18851 -0.15295 0.082243 -0.029268 -0.075126 0.011263 0.11513 -0.00014016 -0.11551 -0.081567 0.087518 0.11762 0.0094487 0.019214 0.0038377 -0.034996 -0.0069137 -0.18566 0.0015933 0.2435 0.12977 0.16574 -0.20066 -0.13199 -0.16734 -0.07903 -0.12622 -0.01589 -0.12292 
아까|MAG 0.058178 0.034428 0.070706 0.19278 0.32746 0.015219 -0.051519 -0.093449 0.25136 -0.10604 -0.089586 0.049424 -0.11536 0.29825 0.012459 0.14775 0.064765 -0.056897 0.063001 -0.04489 -0.021088 -0.30296 -0.042967 0.051599 0.0075041 -0.13514 0.068757 0.058032 -0.036272 0.03035 -0.16742 0.035424 0.037574 -0.1323 -0.24746 -0.081419 0.040827 -0.18383 0.091453 0.10236 0.089816 -0.0064274 0.19784 0.16569 0.11477 -0.096882 0.051321 0.021256 0.17353 -0.011929 -0.041376 0.14372 0.11957 0.030025 0.093676 -0.10081 -0.037376 0.015027 0.17214 -0.016728 -0.055961 -0.14344 -0.13256 -0.070665 0.21297 -0.046107 -0.16747 -0.070582 -0.092514 0.20569 -0.10918 0.18346 -0.17136 -0.024242 -0.076357 0.0097947 0.11074 0.089204 0.022257 -0.079759 0.12922 -0.13462 0.099482 0.057189 -0.021773 0.0059275 -0.0033165 -0.091531 -0.24676 -0.13508 0.3525 0.15281 0.015589 0.0549 -0.24253 -0.20279 -0.15658 -0.19779 0.060838 -0.054183 
잘|MAG 0.18634 -0.067994 0.12227 -0.031656 -0.32811 0.13538 0.062118 -0.19949 -0.69397 -0.3876 0.034147 -0.086374 -0.11346 -0.28043 0.3058 -0.038845 0.056954 -0.028347 0.15118 0.15277 -0.14826 -0.12832 -0.012362 0.33808 0.10215 -0.1588 -0.44656 -0.0065059 -0.24938 0.14658 -0.063242 0.23496 -0.2268 -0.08226 -0.20321 -0.012898 -0.053842 0.14543 0.089074 -0.13926 -0.16595 0.31852 -0.2355 0.25352 -0.012137 0.035173 0.26767 -0.12584 -0.18876 0.082357 -0.13152 0.18727 -0.17955 0.19259 0.11886 0.29205 -0.54409 -0.07102 -0.044498 -0.28883 -0.061279 -0.079921 -0.16583 0.098951 0.17272 -0.047291 -0.065621 0.071515 -0.02226 -0.14274 -0.14559 0.3269 0.2762 -0.014645 -0.026718 -0.17017 -0.31479 0.0058051 0.019911 0.02343 -0.093397 -0.044822 -0.16723 -0.013185 0.24854 -0.17121 0.39594 -0.20319 0.12668 -0.053971 -0.19561 0.040002 0.070771 -0.064597 0.046112 0.39551 0.3467 -0.16483 -0.16024 -0.040296 
컬러|NNG 0.10472 -0.12443 -0.17265 0.37358 -0.37278 -0.16672 0.54782 0.12614 -0.19564 -0.010904 -0.18485 0.0486 0.35141 -0.03738 0.26397 -0.22492 -0.16021 -0.038539 -0.035598 0.015003 0.031523 0.32023 0.08489 0.093083 -0.22971 0.19776 -0.010418 -0.0025198 -0.22206 0.3386 0.0010979 0.26012 -0.24741 -0.24307 0.090923 0.040546 -0.11269 0.072732 -0.091876 -0.10047 0.37378 0.23316 -0.056801 -0.34409 -0.23479 0.2093 -0.18474 -0.10323 -0.36783 0.28495 -0.098423 -0.077488 -0.23578 -0.16367 0.0075606 0.065573 0.05479 0.027102 0.22201 -0.060933 -0.062115 0.33592 0.062079 0.25528 0.0057279 -0.20588 0.023464 0.37865 0.17256 0.14032 -0.3614 -0.14664 0.22502 0.11597 0.095973 0.076888 0.14158 0.19966 -0.076407 -0.30102 -0.10568 0.0057584 0.042211 0.095854 0.023405 -0.068824 0.37943 -0.14702 0.20581 -0.5536 -0.17339 0.022528 0.073434 0.47446 0.27683 0.011845 0.0081098 0.11568 -0.33138 -0.077371 
할래|XSV+EC 0.0041998 0.048974 -0.076715 0.35153 0.069779 -0.12994 0.39682 0.16935 0.21959 0.059311 -0.24519 0.1043 0.39011 0.35029 0.13332 -0.076948 -0.10477 -0.11677 -0.019753 -0.1107 0.083907 0.087618 0.020574 0.05128 -0.17892 0.077379 0.17185 0.088615 -0.1963 0.30784 -0.076431 0.20267 -0.12122 -0.25094 -0.087235 -0.0053476 -0.038246 -0.18339 -0.039794 0.085853 0.46617 0.14956 0.21284 -0.14048 -0.09774 0.13276 -0.20703 -0.029578 -0.18942 0.24419 -0.1549 0.047974 -0.13916 -0.11781 0.026892 -0.10998 0.12775 0.04399 0.31977 0.055441 -0.13141 0.18559 0.13912 0.28426 0.045953 -0.17956 -0.13117 0.26635 0.047296 0.29329 -0.33358 -0.028598 -0.053499 0.25326 0.056582 0.098675 0.25299 0.27776 -0.085028 -0.42662 -0.069618 0.065453 0.23999 0.13163 -0.069858 0.019221 0.1692 -0.033317 -0.072408 -0.54355 0.18773 0.23851 0.23146 0.23728 0.089232 -0.30869 -0.30366 -0.056327 -0.28408 -0.22933 
선택|NNG 0.01314 0.04057 -0.079407 0.34875 0.080019 -0.12536 0.39461 0.16522 0.21692 0.0496 -0.23611 0.10625 0.39379 0.34459 0.13656 -0.073566 -0.098868 -0.11448 -0.010969 -0.12708 0.077829 0.081569 0.028541 0.055982 -0.18276 0.070727 0.18755 0.088491 -0.18237 0.30689 -0.077167 0.20046 -0.12443 -0.24815 -0.076525 0.0028349 -0.035837 -0.18455 -0.022168 0.08547 0.47221 0.15215 0.19602 -0.15019 -0.084531 0.12908 -0.21351 -0.029934 -0.18969 0.26205 -0.15171 0.041414 -0.14003 -0.12409 0.015145 -0.099355 0.12859 0.055161 0.32856 0.066431 -0.13187 0.18817 0.13848 0.28728 0.045699 -0.17504 -0.13679 0.276 0.046448 0.29032 -0.32869 -0.013783 -0.044224 0.24441 0.058604 0.0864 0.25108 0.28707 -0.089562 -0.42016 -0.066987 0.070517 0.24108 0.1226 -0.077747 0.027078 0.16278 -0.044122 -0.0697 -0.53395 0.17776 0.22518 0.24565 0.23618 0.082548 -0.29063 -0.31104 -0.059468 -0.29085 -0.24031 
방가|NNG -1.1388 1.0135 -0.49563 -0.6128 0.3919 -0.010338 0.49579 0.64195 0.71817 1.1225 0.08973 -0.23389 0.31135 -0.042142 -0.51797 -0.18222 -0.12964 0.20384 0.41933 -0.13444 -0.25291 0.37022 0.11394 -0.32885 0.17014 -0.15472 -0.05355 -0.36347 0.10059 0.067542 -0.24616 0.10166 0.12618 0.10383 0.14456 0.16059 -0.034279 0.10598 -0.59689 -0.27424 -0.16141 -0.33313 -0.41968 0.10962 -0.41132 0.30294 -0.16559 -0.19864 0.048056 0.062063 0.14047 0.10898 -0.34888 0.54853 0.010078 0.010334 -0.63857 0.05619 -0.30178 0.34693 -0.57879 -0.10542 0.34154 0.21172 -0.49839 -0.080228 -0.039711 0.24198 0.28008 -0.22226 0.26395 -0.36474 0.32863 0.46388 0.031901 -0.028494 0.007235 -0.24586 -0.31702 0.38844 -0.030267 -0.16053 -0.089464 -0.34068 -0.3293 -0.53196 -0.1487 -0.10219 0.18567 0.23064 -0.33621 0.024193 0.1809 -0.18694 0.044392 0.29498 0.012208 0.2144 -0.17658 0.13038 
수리비|NNG 0.28793 -0.62667 0.35269 0.25738 0.4452 0.029177 -0.20894 -0.39024 0.33684 -0.34154 0.10968 -0.0524 -0.077572 0.80201 -0.11109 0.21229 0.15246 0.23444 -0.24765 0.055625 0.17218 -0.24755 -0.11352 -0.56317 -0.21397 0.18214 0.28436 -0.28235 -0.18397 0.08582 -0.16413 -0.26065 0.41093 0.18454 -0.20436 -0.27293 -0.13794 -0.41204 0.013437 0.32805 -0.083567 -0.037888 0.086089 -0.0035725 0.41086 0.00016638 0.057504 0.48664 0.075746 0.047513 -0.20499 0.11874 0.37446 -0.344 -0.20137 -0.40524 0.54498 -0.025753 0.4403 0.26017 0.08061 -0.027097 0.034001 0.03045 -0.12919 0.33935 0.31149 -0.026572 -0.30891 0.73129 0.24768 0.26148 -0.71141 -0.24956 0.10478 0.49886 0.29085 -0.23507 0.010576 -0.12135 0.35011 0.048101 0.3933 -0.20352 -0.43356 0.063671 -0.47185 0.48427 -0.44929 0.15198 0.27875 0.018838 -0.2878 -0.6853 -0.10155 -0.32236 -0.52291 -0.21911 0.25294 -0.30639 
안녕|NNG -0.89773 1.0287 -0.49664 -0.42393 0.48939 -0.054953 0.51559 0.51155 0.92844 0.98386 0.026941 -0.077101 0.34212 0.13978 -0.30203 -0.077041 -0.14181 -0.02767 0.3617 -0.31425 -0.16213 0.28741 0.050248 -0.10129 0.12298 -0.13073 0.088247 -0.12277 0.10094 0.049245 -0.28738 0.074928 0.016667 -0.09377 0.02847 0.11319 0.0065087 -0.10512 -0.42364 -0.087871 0.093397 -0.15074 -0.030571 0.17673 -0.29138 0.16851 -0.24493 -0.16167 0.039673 0.12961 0.03141 0.21138 -0.27177 0.48861 0.072693 -0.039199 -0.39835 0.11098 0.034179 0.21338 -0.41377 -0.13503 0.29946 0.26391 -0.42041 -0.040999 -0.3052 0.13522 0.2791 -0.027167 0.041451 -0.11921 0.17193 0.47355 0.0068273 -0.017972 0.20063 -0.016625 -0.18215 0.019336 -0.15092 -0.086017 0.038806 -0.31887 -0.24659 -0.33741 0.070082 -0.21722 -0.0035402 -0.025741 0.0014315 0.11107 0.2906 -0.084928 -0.10229 -0.0035782 -0.13285 0.060066 -0.096437 0.065609 
100|SN 0.1167 -0.11701 -0.12021 0.43768 -0.32216 -0.18354 0.51529 0.13717 -0.19216 -0.13515 -0.24715 0.032587 0.33752 0.11229 0.24542 -0.23011 -0.12074 0.039079 -0.034248 -0.012947 0.053454 0.17073 0.080236 0.037114 -0.28466 0.2181 0.11934 -0.011203 -0.21942 0.27607 0.0085042 0.24638 -0.14125 -0.16985 0.14576 0.019889 -0.10402 0.064461 -0.10931 0.031257 0.43148 0.053152 0.03332 -0.36527 -0.23074 0.22321 -0.22896 -0.10079 -0.28356 0.18402 0.03318 -0.14576 -0.16612 -0.28904 -0.034191 0.012905 0.20323 -0.00096932 0.17958 0.027183 -0.10604 0.29451 0.058425 0.22514 0.089215 -0.27828 0.11333 0.45133 0.16689 0.21485 -0.30481 -0.22194 0.18669 0.22376 0.10284 0.10493 0.16511 0.23765 -0.13765 -0.34482 0.018877 -0.045217 0.14637 0.17371 0.017155 -0.0075752 0.23454 -0.044561 0.1418 -0.59022 -0.12208 0.026613 0.12344 0.48695 0.30663 -0.047244 -0.12858 0.084464 -0.34424 -0.12798 
됩니다|VX+EC -0.41325 -0.48952 -0.31958 -0.072792 -0.10941 -0.22894 0.17869 0.084587 -0.16763 0.35812 0.11866 -0.043103 0.19277 -0.13697 -0.28789 0.011 0.022422 0.36952 -0.40715 0.14625 -0.039393 0.28448 0.17113 -0.66506 0.034476 0.00082181 -0.079151 -0.26516 0.16043 0.32527 0.11558 -0.33834 0.13364 0.39862 0.2852 0.12535 -0.076854 0.071689 -0.29782 -0.46975 0.13371 -0.55254 -0.56251 -0.61574 -0.56721 0.085169 -0.10616 0.17383 0.097149 -0.24351 0.064033 -0.3326 -0.0371 -0.33516 -0.34755 -0.1346 0.56743 -0.18342 -0.49494 0.79462 -0.035715 0.34354 0.26918 -0.47146 0.15524 -0.35287 0.61199 0.39026 -0.0048894 -0.1325 0.37138 -0.89542 -0.041677 -0.15203 0.04191 -0.12954 -0.3499 -0.17952 -0.25353 0.51833 0.13037 -0.11591 -0.13897 0.26433 -0.38791 -0.32107 -0.54276 0.1869 0.20711 0.22296 -0.46829 -0.44795 -0.24563 0.2098 0.69739 0.33883 0.27024 0.6785 -0.24229 0.21106 
었|EP 0.079146 0.13536 0.11577 -0.12326 -0.30892 0.20504 0.033524 -0.097012 -0.65055 -0.35167 0.023742 -0.12325 -0.045675 -0.25863 0.26735 -0.092667 0.088863 -0.076308 0.29746 0.13169 -0.1962 -0.1525 -0.083669 0.39191 0.15676 -0.19237 -0.46918 -0.0019551 -0.2774 0.13386 -0.079193 0.34718 -0.25044 -0.08942 -0.24782 0.04176 -0.038747 0.14538 0.07215 -0.10278 -0.23059 0.35778 -0.2395 0.37569 -0.0097442 0.049154 0.28048 -0.16606 -0.19787 0.12785 -0.13305 0.25964 -0.26386 0.36242 0.1874 0.34288 -0.81043 -0.041018 -0.067066 -0.36614 -0.15731 -0.13836 -0.14035 0.23424 0.07223 -0.021717 -0.1413 0.048036 -0.040967 -0.23509 -0.15 0.40015 0.38081 0.11873 -0.019928 -0.15132 -0.33897 0.018938 0.050439 0.012582 -0.15892 -0.02883 -0.1795 -0.071204 0.31478 -0.18547 0.44403 -0.24009 0.15974 -0.059186 -0.23076 0.14823 0.13887 -0.11078 -0.047303 0.42435 0.33251 -0.20421 -0.1817 -0.066208 
담사|NNG 0.13441 -0.09097 0.26288 -0.2037 -0.19917 -0.079909 -0.3311 0.2695 0.030445 -0.18113 0.13845 0.061163 0.16171 -0.3684 -0.14487 -0.043968 0.16327 -0.53471 -0.25972 -0.066956 0.094055 -0.0007416 -0.2938 0.049529 0.23126 0.35846 -0.075452 0.22242 0.28418 -0.12271 0.3572 0.080224 -0.069153 0.1977 0.41283 0.065946 -0.11924 0.011618 -0.0024582 -0.058189 -0.32767 0.022657 0.04144 -0.22564 0.25057 -0.19144 0.11561 0.19422 0.24566 -0.094929 0.29138 -0.10007 0.10925 0.14722 0.13353 -0.035297 -0.10316 -0.021191 -0.2151 -0.16703 0.2362 0.012816 -0.09414 0.085187 -0.25011 0.33599 0.084174 -0.40305 -0.23105 -0.413 0.28574 -0.045419 0.068729 -0.039348 -0.26245 0.16306 -0.13177 -0.12631 0.13502 -0.023134 -0.24075 0.15176 -0.5397 0.097973 -0.080684 0.25006 -0.065347 -0.23222 0.28702 0.19254 -0.40188 0.30542 -0.18543 0.27128 0.30495 0.36441 -0.26921 -0.013404 0.14709 0.17306 
께|NNB -0.081471 0.21978 -0.06744 -0.1081 0.32235 0.051759 -0.02655 -0.042243 0.28566 0.1216 -0.024077 0.044667 0.069772 0.20573 0.0035514 0.10654 0.020978 -0.039359 0.082061 -0.13132 -0.030942 -0.12195 -0.00057689 0.057386 0.12016 -0.21884 -0.019981 0.10842 -0.056805 0.10422 -0.13977 -0.01286 -0.042798 -0.12421 -0.30192 -0.027179 0.067821 -0.22881 0.058779 0.062589 0.1172 0.13274 0.19057 0.29412 0.044734 -0.061502 0.016532 0.00021344 -0.0042926 0.092644 -0.1982 0.2489 -0.059391 0.14491 0.026539 -0.055076 -0.066748 0.0047971 0.14886 0.02538 -0.057277 -0.068585 0.10016 0.060696 0.070275 -0.016196 -0.28364 -0.057662 -0.069397 0.10514 -0.081066 0.2316 -0.16671 0.088941 -0.015926 -0.081235 0.047974 0.15261 -0.014624 -0.12532 -0.12291 0.11631 0.16662 -0.033255 0.015765 -0.042317 -0.0059289 -0.023204 -0.21889 0.010296 0.2931 0.15501 0.22196 -0.26374 -0.16865 -0.21055 -0.054152 -0.13692 -0.042481 -0.15298 
은데|EC -0.06393 0.20005 -0.079143 -0.038266 0.2237 0.008577 0.041024 0.0015062 0.20175 0.05204 -0.031658 0.047159 0.080866 0.18784 0.052797 0.069213 0.028193 -0.078514 0.053366 -0.14054 -0.036575 -0.13139 -0.037571 0.08212 0.085948 -0.13764 0.017748 0.10697 -0.023891 0.072817 -0.10226 0.0016722 -0.050221 -0.07195 -0.17759 0.00058605 0.050147 -0.17739 0.031458 0.076853 0.15146 0.032432 0.16464 0.16948 -0.038004 -0.056614 -0.024026 -0.020912 0.053039 0.029417 -0.10827 0.16266 -0.045721 0.095524 0.023419 -0.015077 -0.012712 -0.0087806 0.093767 0.055696 -0.053096 -0.079243 0.07821 0.050092 0.095723 -0.067789 -0.19027 -0.013818 -0.026974 0.073683 -0.066696 0.11296 -0.095271 0.14349 -0.020206 -0.071526 0.018741 0.15208 -0.006545 -0.12825 -0.098192 0.035453 0.10954 0.036338 0.024816 -0.011937 0.030437 -0.059803 -0.15198 -0.075791 0.19652 0.11164 0.173 -0.075951 -0.086466 -0.11778 -0.072297 -0.092807 -0.052648 -0.097672 
상|NNG 0.13766 -0.08112 0.25123 -0.20601 -0.19302 -0.08311 -0.32054 0.26173 0.038697 -0.19112 0.12882 0.062517 0.16294 -0.38274 -0.1526 -0.032663 0.1625 -0.53192 -0.24711 -0.061144 0.1032 -0.0078061 -0.28325 0.059984 0.22308 0.36433 -0.068816 0.22133 0.27973 -0.12126 0.36786 0.088459 -0.062782 0.19269 0.41278 0.061619 -0.11004 0.0053285 -0.0074796 -0.050348 -0.33314 0.028387 0.041767 -0.23112 0.23434 -0.18429 0.12697 0.21161 0.23031 -0.10637 0.28044 -0.09657 0.10337 0.15595 0.13136 -0.030883 -0.091452 -0.015437 -0.20753 -0.16238 0.23525 0.019561 -0.077123 0.075355 -0.24082 0.3406 0.089188 -0.39747 -0.24093 -0.4322 0.27909 -0.050971 0.080273 -0.039427 -0.25307 0.15702 -0.13706 -0.12768 0.13682 -0.01934 -0.25139 0.16048 -0.54926 0.10384 -0.064433 0.24495 -0.057923 -0.21871 0.29758 0.18816 -0.41188 0.30594 -0.18295 0.26554 0.30014 0.36547 -0.25611 -0.010771 0.14883 0.16261 
아니|IC 0.29762 -0.015182 -0.23227 0.41079 -0.48811 -0.179 0.42648 -0.090055 -0.32439 -0.28563 -0.23413 0.1068 0.15944 -0.19782 0.51736 -0.16116 -0.14364 -0.10997 0.0091543 -0.1205 -0.011389 0.18158 0.062344 0.38067 -0.19696 0.16226 -0.0051058 0.20129 -0.11691 0.10522 0.011603 0.14429 -0.39023 -0.34557 0.12997 0.064057 -0.056322 0.060697 0.0077352 -0.040029 0.43352 0.25672 0.18655 -0.26775 -0.28813 0.0080742 -0.16902 -0.20305 -0.29539 0.12171 0.050568 -0.084507 -0.15421 -0.19644 0.062824 0.22134 0.19368 0.014399 0.29359 -0.26302 0.12067 0.27311 -0.14969 0.084249 0.19153 -0.2631 -0.14258 0.30413 0.26412 0.069463 -0.48685 -0.022991 0.32407 0.092586 -0.0047261 -0.079032 0.10175 0.36345 0.057496 -0.41913 -0.12269 -0.053731 0.052643 0.094848 0.20365 0.049322 0.54718 -0.31865 0.12474 -0.61103 -0.015077 -0.038585 0.13741 0.61909 0.16714 -0.015095 0.14721 0.048629 -0.21182 0.020596 
괜찮|VA -0.26593 -0.52355 -0.3485 -0.15424 -0.1209 -0.10559 0.01445 -0.10371 -0.14631 0.48965 0.16533 -0.067364 0.070335 -0.2983 -0.27204 0.0057282 -0.13342 0.54722 -0.32243 0.27531 -0.015571 0.59036 0.2756 -0.67797 0.0088263 -0.038912 -0.19053 -0.32983 0.025151 0.32941 0.058945 -0.39513 0.051916 0.17928 0.10701 0.059545 0.00198 0.10108 -0.21758 -0.56526 -0.061957 -0.10023 -0.5522 -0.39684 -0.34488 0.12578 -0.034014 0.17605 -0.2341 0.016702 -0.18672 -0.24272 -0.039427 -0.2987 -0.3732 -0.096194 0.43302 -0.092742 -0.294 0.4582 0.12357 0.48099 0.19978 -0.45299 -0.020964 -0.11093 0.45747 0.23631 -0.031955 -0.096179 0.24779 -0.5922 -0.13515 -0.52032 0.097991 -0.072108 -0.20065 -0.25054 -0.18663 0.58454 0.11375 0.16503 0.017046 -0.050878 -0.32593 -0.31289 -0.51784 0.3644 0.13623 0.45992 -0.33166 -0.43426 -0.28453 -0.31478 0.42953 0.059645 0.50717 0.63174 -0.13463 0.095807 
요|VCP+EC -0.08936 0.22449 -0.059367 -0.10321 0.33628 0.059775 -0.037254 -0.031145 0.29178 0.1287 -0.013355 0.050312 0.084906 0.20148 0.010215 0.11229 0.014483 -0.047446 0.08169 -0.12925 -0.034482 -0.12522 -0.0089402 0.073127 0.10739 -0.21265 -0.020061 0.11222 -0.058288 0.11742 -0.14261 -0.018366 -0.051894 -0.11974 -0.30606 -0.031402 0.06848 -0.2296 0.056913 0.059168 0.11686 0.14992 0.19192 0.29792 0.043083 -0.058316 0.019639 0.0083001 -0.0069755 0.083166 -0.21301 0.23814 -0.059374 0.13833 0.030164 -0.052728 -0.067178 0.011609 0.13864 0.027608 -0.047274 -0.070854 0.091529 0.054404 0.072611 -0.029681 -0.26666 -0.055804 -0.078708 0.11131 -0.087375 0.21477 -0.16705 0.079673 -0.015006 -0.08864 0.054594 0.1495 -0.012982 -0.13014 -0.11909 0.10499 0.14825 -0.045424 0.011068 -0.034519 5.241e-06 -0.020279 -0.2041 0.011988 0.2775 0.14788 0.22935 -0.28236 -0.15315 -0.21823 -0.040666 -0.12721 -0.045059 -0.15096 
바꿔도|VV+EC -0.1255 0.27107 0.020418 -0.097725 0.51135 0.082267 -0.074411 0.032432 0.36605 0.087268 -0.061904 0.080556 0.18539 0.42292 -0.033754 0.16652 0.10276 -0.13723 0.084662 -0.17717 -0.022158 -0.29066 -0.065453 0.079236 0.16314 -0.29744 0.01022 0.15962 -0.092684 0.17941 -0.17406 0.021554 -0.013042 -0.088363 -0.42614 -0.023359 0.084285 -0.36911 0.094425 0.13498 0.19492 0.11444 0.24459 0.40064 0.10137 -0.078638 0.03087 0.051284 0.083748 0.093919 -0.26248 0.33489 -0.056248 0.21718 0.048484 -0.11999 -0.1455 0.0013328 0.15638 0.11636 -0.14366 -0.15417 0.15895 0.14927 0.13946 -0.03014 -0.31898 -0.08498 -0.19648 0.15047 -0.068026 0.2929 -0.26333 0.22687 -0.045163 -0.09414 0.0088833 0.18787 -0.036531 -0.2038 -0.1495 0.14206 0.19781 0.047079 -0.016154 -0.024885 -0.081252 -0.00079133 -0.31432 -0.039501 0.3913 0.32622 0.33048 -0.361 -0.18345 -0.26321 -0.22487 -0.23826 -0.13673 -0.28041 
더|MAG -0.017749 0.053784 -0.020796 -0.10697 -0.13611 0.070099 0.047439 -0.04463 -0.26686 -0.052685 0.044516 -0.064458 -0.0073701 -0.18669 0.09128 -0.044539 0.0049333 0.027784 0.09984 0.066705 -0.095485 0.035839 0.0052784 0.10218 0.07257 -0.087606 -0.23253 -0.026654 -0.11184 0.095416 -0.029893 0.09618 -0.13011 -0.055761 -0.10579 0.03353 -0.017527 0.065691 -0.018058 -0.13637 -0.10292 0.17602 -0.16449 0.12643 -0.063931 0.033066 0.10299 -0.072246 -0.13406 0.069511 -0.086433 0.09382 -0.14721 0.15546 0.049432 0.1491 -0.3248 -0.024867 -0.04426 -0.11503 -0.059588 0.0056636 -0.031313 0.064177 0.017263 -0.025398 -0.03757 0.041078 0.011258 -0.13042 -0.056125 0.11713 0.18013 -0.010456 0.00312 -0.087581 -0.14871 -0.0020074 -0.0061613 0.074519 -0.084945 0.0039539 -0.061809 -0.065575 0.091604 -0.13438 0.16337 -0.0974 0.085475 0.035909 -0.13817 0.02269 0.052004 -0.094118 0.0205 0.18322 0.23374 -0.016183 -0.10888 -0.02221 
한번|MAG -0.024236 0.052155 -0.034043 -0.092067 -0.14069 0.072343 0.050899 -0.053143 -0.2718 -0.04674 0.042643 -0.06304 -0.0037532 -0.17757 0.094852 -0.049019 0.0038175 0.025344 0.1119 0.076746 -0.092356 0.040182 0.0070872 0.099353 0.084503 -0.096591 -0.2483 -0.034691 -0.11368 0.097049 -0.032951 0.090507 -0.11951 -0.052277 -0.10485 0.027961 -0.014339 0.082645 -0.015795 -0.13937 -0.095283 0.1751 -0.17074 0.12858 -0.059638 0.040187 0.10933 -0.07908 -0.13688 0.076018 -0.079867 0.084749 -0.14528 0.13812 0.04268 0.15238 -0.32716 -0.02504 -0.048003 -0.12729 -0.062507 0.0050092 -0.035395 0.051421 0.0041939 -0.01242 -0.04583 0.046381 -0.0017011 -0.11884 -0.053162 0.10965 0.17814 -0.0030998 -0.0056249 -0.084126 -0.14542 -0.0042023 -0.0097906 0.056926 -0.078406 0.0088205 -0.068654 -0.05855 0.097175 -0.14069 0.16744 -0.086391 0.094501 0.029686 -0.12784 0.011969 0.044002 -0.09205 0.0093028 0.19211 0.23012 -0.0025645 -0.093506 -0.020018 
연결|NNG 0.0046443 0.050382 0.093898 -0.20378 -0.1254 -0.11783 -0.22176 0.26546 0.20476 0.0044256 0.11633 0.081115 0.15777 -0.32571 -0.15609 -0.043213 0.090992 -0.43979 -0.21694 -0.12636 0.083975 0.079676 -0.2286 0.0049378 0.17884 0.32731 0.019564 0.21126 0.34525 -0.16286 0.30155 -0.022168 -0.046439 0.16477 0.4226 0.07901 -0.073028 -0.0032741 -0.065274 -0.062241 -0.21407 -0.067994 0.094284 -0.25203 0.11825 -0.18563 0.010002 0.15087 0.23599 -0.12716 0.30785 -0.13878 0.087061 0.097129 0.088462 -0.040127 0.06987 0.0068042 -0.16208 -0.08915 0.2229 0.035931 -0.031231 -0.001992 -0.25883 0.25285 0.048885 -0.32669 -0.11456 -0.36487 0.25306 -0.14037 0.081689 -0.015303 -0.21845 0.11089 -0.042239 -0.075079 0.11685 -0.023112 -0.22779 0.12215 -0.42912 0.050541 -0.10463 0.22437 -0.086087 -0.20916 0.23219 0.15348 -0.31831 0.19319 -0.1384 0.28136 0.24694 0.23659 -0.23963 0.069937 0.15196 0.19155 
라고|VCP+EC 0.0054363 0.062934 0.023619 -0.11713 -0.19533 0.10658 0.025825 -0.066562 -0.37343 -0.15923 0.046622 -0.058111 -0.031923 -0.18401 0.13016 -0.053114 0.045369 -0.015675 0.15574 0.079268 -0.12209 -0.071307 -0.053908 0.16889 0.11645 -0.10403 -0.28361 -0.016822 -0.11067 0.074834 -0.02092 0.15996 -0.13693 -0.022992 -0.1222 0.024667 -0.025948 0.095402 0.020739 -0.089433 -0.13279 0.15271 -0.16314 0.18685 -0.053764 0.018496 0.15352 -0.097914 -0.09308 0.036138 -0.047579 0.11572 -0.15351 0.19464 0.07564 0.19847 -0.42821 -0.03346 -0.091798 -0.16353 -0.072579 -0.070622 -0.075812 0.082135 0.044988 -0.034861 -0.039392 0.033189 -0.02692 -0.15974 -0.036951 0.16253 0.22118 0.031772 -0.012733 -0.10565 -0.22605 0.00083996 0.027886 0.052507 -0.09317 -0.013468 -0.11365 -0.028912 0.16531 -0.12165 0.20906 -0.12915 0.10394 0.011286 -0.15866 0.036966 0.062885 -0.070153 0.0068783 0.26821 0.22283 -0.068828 -0.10359 -0.020198 
해요|XSA+EC 0.0086664 -0.056944 0.011132 -0.047504 0.029036 0.045261 -0.064923 -0.01863 0.04136 0.14719 0.026642 -0.03818 -0.0032935 -0.071485 -0.064763 9.4732e-05 -0.092232 0.11844 0.0068933 0.083665 0.019408 0.19739 0.096495 -0.081328 -0.01348 -0.044848 -0.069853 -0.076584 -0.1058 0.080377 -0.030962 -0.0077857 -0.006628 -0.10276 -0.11308 -0.028996 0.018164 -0.0031226 -0.012901 -0.10492 -0.10179 0.22926 -0.043847 0.10272 0.12079 0.046937 0.032127 0.020356 -0.16898 0.15687 -0.15229 0.049292 -0.0072492 0.030826 -0.022761 -0.030951 -0.088187 0.040551 0.075589 -0.11768 0.034201 0.12777 0.016776 0.028673 -0.0885 0.10784 -0.078498 -0.04098 -0.041307 0.021654 -0.055115 0.11756 -0.077116 -0.18157 0.015402 0.039021 0.076176 -0.049856 -0.022635 0.05507 0.00082983 0.15761 0.077844 -0.13662 -0.031057 -0.039615 -0.029158 0.10658 -0.023511 0.12891 0.056922 0.032723 0.0045871 -0.27708 -0.086801 -0.12793 0.1081 -0.0045852 -0.0036719 -0.092868 
+JX 0.12834 -0.044769 0.11009 -0.042906 0.16539 0.15567 -0.1901 -0.073898 0.20066 0.25518 -0.013946 -0.04658 -0.07566 -0.055744 -0.09891 0.033845 -0.20417 0.18895 0.073916 0.14431 0.074585 0.31949 0.1773 -0.044728 -0.059582 -0.094305 -0.093597 -0.095553 -0.25033 0.10115 -0.10646 0.011103 -0.01411 -0.33182 -0.30969 -0.1176 0.066331 -0.076153 0.085517 -0.094816 -0.19694 0.58813 0.057539 0.3337 0.41345 0.082437 0.094345 0.05392 -0.37137 0.39828 -0.37437 0.17763 0.01341 0.094962 0.0099454 -0.10382 -0.27001 0.1508 0.30466 -0.38103 0.075382 0.18351 -0.042969 0.14495 -0.20484 0.31946 -0.3042 -0.19443 -0.11422 0.15455 -0.21246 0.44536 -0.23215 -0.37917 0.041427 0.11187 0.26549 -0.075433 0.0088871 -0.026001 0.02778 0.36041 0.24552 -0.33585 -0.02744 0.01939 -0.013891 0.20646 -0.14277 0.21783 0.29774 0.1943 0.047625 -0.6792 -0.37429 -0.44487 0.12179 -0.15507 0.045913 -0.24984 
블랙|NNG 0.047173 -0.10236 0.070777 0.138 -0.28338 -0.029858 0.097052 0.13956 -0.33021 -0.17069 -0.14225 -0.045091 0.17293 -0.081643 0.041838 -0.16756 -0.021347 0.04772 0.0087313 0.057382 0.011038 0.079047 0.03197 -0.00078482 -0.10064 0.12659 -0.012782 -0.04797 -0.12979 0.087285 0.10167 0.14951 -0.026915 0.021427 0.15543 0.05149 -0.070844 0.13158 -0.079258 -0.021809 0.087618 -0.011872 -0.10134 -0.1831 -0.10106 0.13695 -0.056914 -0.064022 -0.14651 0.04978 0.089882 -0.11696 -0.10016 -0.10283 -0.024791 0.044105 -0.048371 -0.0073963 -0.062238 0.001711 -0.088838 0.17445 0.017004 0.14986 0.014408 -0.13607 0.15061 0.22819 0.030531 -0.035917 -0.071651 -0.14788 0.19005 0.16405 0.038802 0.030673 -0.074616 0.035207 -0.08407 -0.10267 0.027146 0.020818 -0.0061608 0.11433 0.043193 0.0101 0.050223 0.025671 0.16957 -0.19591 -0.21013 0.067481 0.078952 0.19513 0.23136 0.12016 -0.064244 0.039288 -0.22608 -0.074796 
바꾸|VV -0.070395 0.19614 -0.079962 -0.043253 0.22092 0.015683 0.048019 -0.014691 0.19706 0.047205 -0.030745 0.055728 0.094568 0.17893 0.046236 0.076345 0.037455 -0.07836 0.0524 -0.12884 -0.037441 -0.14055 -0.033978 0.08297 0.077391 -0.15089 0.0083142 0.11463 -0.017908 0.068252 -0.1009 0.0048564 -0.041515 -0.062996 -0.18702 -0.0058648 0.040845 -0.18365 0.024478 0.081418 0.15364 0.030785 0.15239 0.1689 -0.024813 -0.061895 -0.015107 -0.0122 0.038651 0.019426 -0.10567 0.15667 -0.051183 0.089709 0.01978 -0.014032 -0.013686 -0.015758 0.095158 0.054622 -0.046158 -0.089066 0.066505 0.057342 0.078338 -0.068491 -0.17209 0.001381 -0.031391 0.082709 -0.062477 0.11604 -0.079869 0.14582 -0.013487 -0.066248 0.011014 0.15548 -0.017281 -0.12301 -0.088434 0.017613 0.10852 0.022202 0.012559 -0.022897 0.030281 -0.050794 -0.1502 -0.074209 0.18724 0.11193 0.17413 -0.087612 -0.085082 -0.1197 -0.070753 -0.087197 -0.056932 -0.095594 
안내|NNG 0.042874 -0.11817 0.055348 0.063663 -0.028294 -0.026897 0.037203 -0.064769 -1.7969e-05 -0.031086 0.020242 -0.0031405 -0.056531 0.024865 0.026454 0.049807 0.0077012 -0.0015699 -0.089587 -0.0031416 0.02682 0.037483 0.033715 -0.018896 -0.059535 0.061035 0.048908 -0.059596 0.002917 -0.08329 0.004658 -0.11123 0.066399 0.034647 0.071664 -0.013978 -0.047888 -0.0071133 0.011812 0.017143 0.0089945 -0.05827 -0.045009 -0.1142 0.01704 -0.016227 0.0039508 0.0721 0.028417 -0.069271 0.010111 -0.058161 0.10301 -0.065015 -0.021516 -0.0077736 0.13646 0.030938 0.066578 0.032746 0.053526 0.020324 -0.04113 -0.062864 -0.021841 0.077549 0.067398 0.023696 0.018231 0.083738 0.032765 0.0014214 -0.054726 -0.079317 -0.01418 0.01501 0.0059648 -0.087509 0.04755 0.0084877 0.065889 -0.0086885 -0.0017388 -0.050873 -0.082026 0.030166 0.017458 -0.0046061 -0.020256 0.0075783 -0.0052575 -0.084638 -0.078623 0.010668 0.040258 0.04784 -0.0074155 0.024987 0.05687 0.022787 
하|XSA 0.0012123 0.36996 -0.43723 -0.097018 -0.26219 -0.11521 0.14888 -0.18455 -0.007836 0.06245 -0.034895 0.10477 -0.14635 -0.41448 0.34765 -0.017296 -0.12229 -0.016741 0.078841 -0.27948 -0.11785 0.15335 0.081888 0.36247 0.0073045 0.0088992 0.045839 0.25821 0.36756 -0.43839 0.035499 -0.32001 -0.29385 -0.14713 0.30399 0.14759 0.1238 0.14504 -0.032618 -0.088931 0.21553 -0.13626 0.23412 -0.12762 -0.45874 -0.25292 -0.19791 -0.29141 0.0151 -0.2889 0.32427 -0.18015 -0.0030087 -0.064954 -0.013452 0.33941 0.40041 0.00048969 -0.0095898 -0.18609 0.2902 0.048432 -0.20115 -0.38893 0.1455 -0.23051 -0.21755 0.036449 0.43957 -0.25923 -0.1945 -0.20392 0.37277 -0.019779 -0.094659 -0.36037 -0.040507 0.21511 0.15923 -0.017498 -0.11136 -0.10357 -0.010565 -0.06294 0.19523 0.04829 0.2463 -0.31678 0.036338 -0.11727 0.083325 -0.25929 0.13486 0.40139 -0.054253 0.00034195 0.33496 0.1768 0.10257 0.28881 
사랑|NNG -0.040233 0.015417 0.10902 -0.25299 -0.086622 -0.07518 -0.18369 0.27158 0.17231 0.072466 0.15999 0.039882 0.21745 -0.33872 -0.16975 -0.01084 0.089183 -0.45696 -0.21543 -0.063087 0.075303 0.14163 -0.20571 -0.00053252 0.23919 0.24927 -0.13699 0.15552 0.20535 0.0098143 0.24932 0.059944 -0.098902 0.11014 0.25563 0.057036 -0.095018 -0.050493 -0.050809 -0.159 -0.27351 0.1272 -0.034145 -0.15091 0.17162 -0.12884 0.096878 0.20283 0.13527 0.023287 0.10378 0.0017117 0.019505 0.23035 0.10932 -0.046159 -0.15724 0.0064482 -0.12039 -0.11426 0.16724 0.050089 0.018514 0.10683 -0.2942 0.32599 -0.010332 -0.34741 -0.2031 -0.35478 0.21275 -0.001522 0.029239 -0.081752 -0.21694 0.11874 -0.096399 -0.12631 0.095533 0.018396 -0.30901 0.20316 -0.46892 -0.0079407 -0.13936 0.11358 -0.0091747 -0.21546 0.24562 0.19245 -0.35538 0.26852 -0.12856 0.096364 0.25103 0.29934 -0.14547 0.040728 0.085246 0.13427 
네|IC 0.33422 -0.37731 0.50434 0.40471 -0.43989 -0.0088425 -0.22622 0.13376 -0.72815 -0.78567 -0.27692 -0.095147 -0.15481 0.073746 -0.051366 -0.23673 0.15506 0.18293 0.014763 0.17686 0.075091 -0.42116 -0.031932 -0.078524 -0.282 0.32048 0.26115 -0.13729 -0.055189 -0.29159 0.26662 0.19783 0.3209 0.34441 0.4517 0.01244 -0.10416 0.36864 -0.046543 0.3263 -0.019893 -0.57125 -0.052552 -0.3821 0.040143 0.15364 -0.04247 -0.088542 0.19719 -0.329 0.59695 -0.46452 0.20645 -0.39246 -0.020685 -0.021364 0.10526 -0.058114 -0.35491 0.058031 -0.16617 -0.0041095 -0.1905 0.03097 0.20551 -0.22333 0.5681 0.27613 -0.0013213 -0.034689 0.17181 -0.3746 0.23795 0.32684 0.039476 0.19178 -0.15059 -0.065993 -0.11418 -0.045098 0.45748 -0.26706 -0.021541 0.38353 0.14225 0.22515 -0.25667 0.1913 0.21815 -0.24464 -0.3069 0.014316 -0.0897 0.55831 0.26222 0.24475 -0.36199 -0.064307 -0.11244 0.0022292 
후|NNG 0.27883 -0.30061 0.29261 0.087354 -0.20378 0.1003 -0.1757 -0.038847 -0.15695 0.041858 -0.0184 -0.12506 -0.20772 -0.31475 -0.099334 -0.078024 -0.22138 0.19212 -0.0031771 0.29188 0.12168 0.41123 0.19532 -0.042752 -0.17983 0.1617 -0.097762 -0.20947 -0.23733 -0.058087 0.045382 0.085951 0.033105 -0.22314 0.028247 -0.13252 -0.029561 0.19614 0.034828 -0.13645 -0.37399 0.47982 -0.096888 0.050998 0.4309 0.14639 0.11832 0.034968 -0.36319 0.30182 -0.12797 -0.070941 0.10756 -0.023704 0.041732 -0.039463 -0.25954 0.13495 0.18731 -0.49724 0.11327 0.25961 -0.21928 0.10972 -0.24513 0.36889 -0.061131 -0.13583 -0.042841 0.068446 -0.13168 0.30199 -0.037036 -0.45742 0.0044238 0.22112 0.23193 -0.24692 0.007085 0.067501 0.17266 0.23142 0.01076 -0.31726 -0.03744 0.050868 0.06245 0.1467 0.10235 0.19424 -0.0071021 0.098869 -0.19215 -0.33953 -0.1766 -0.14625 0.10242 -0.11758 0.11002 -0.10336 
그만|MAG -0.05679 -0.6693 -0.083431 -0.03953 -0.10061 -0.043991 -0.11442 -0.12644 -0.27993 0.19498 0.1124 -0.021517 0.050468 -0.16138 -0.19999 0.074179 -0.04781 0.36967 -0.34791 0.29338 0.043852 0.34459 0.18638 -0.51013 0.027185 -0.073173 -0.19824 -0.20417 -0.057905 0.35559 0.090372 -0.2472 0.047471 0.15162 -0.0464 0.01447 -0.0075118 0.016931 -0.04025 -0.42444 -0.05897 0.021991 -0.43343 -0.26748 -0.11852 0.077376 0.064011 0.22524 -0.18027 0.059908 -0.26792 -0.15243 0.0032908 -0.26514 -0.29056 -0.1457 0.32002 -0.090577 -0.2135 0.36581 0.1225 0.388 0.17439 -0.31613 0.09785 -0.057343 0.35271 0.11429 -0.18616 -0.044115 0.18293 -0.35599 -0.23607 -0.47491 0.055821 -0.055259 -0.22412 -0.18177 -0.13425 0.42254 0.059795 0.20233 0.0052806 0.080463 -0.22554 -0.17827 -0.42274 0.34961 0.059134 0.35207 -0.21655 -0.27082 -0.22768 -0.28911 0.36073 0.014936 0.36919 0.42536 -0.1334 -0.010231 
그렇게|MAG 0.32781 -0.3864 0.50992 0.41013 -0.44302 -0.0040475 -0.2311 0.13996 -0.71819 -0.7809 -0.27617 -0.10581 -0.15388 0.06405 -0.061074 -0.24349 0.15959 0.19915 0.025181 0.17643 0.077292 -0.41879 -0.034583 -0.061348 -0.27783 0.32008 0.27783 -0.1317 -0.055604 -0.29166 0.27757 0.2007 0.31211 0.35749 0.44515 0.0093799 -0.11314 0.36253 -0.035154 0.32699 -0.015928 -0.56705 -0.055477 -0.36996 0.032946 0.15848 -0.039656 -0.098327 0.18823 -0.34249 0.60247 -0.45146 0.19973 -0.39254 -0.021713 -0.023804 0.12096 -0.073214 -0.35024 0.06449 -0.15104 -0.0032414 -0.202 0.028176 0.19898 -0.2204 0.57786 0.28952 0.00086159 -0.02524 0.15806 -0.38125 0.24467 0.33595 0.044013 0.18516 -0.13827 -0.059204 -0.11824 -0.0401 0.44993 -0.28487 -0.012481 0.37494 0.14601 0.21784 -0.24324 0.19812 0.22932 -0.23843 -0.29118 0.0088455 -0.084134 0.5619 0.25984 0.25019 -0.36849 -0.054987 -0.11105 -0.0045547 
하이|NNG -0.79573 0.71944 -0.18624 -0.33609 0.52645 -0.024243 0.41117 0.56902 0.77598 0.90934 -0.00099925 -0.17381 0.28394 0.17181 -0.47534 -0.07504 -0.14034 0.10357 0.27751 -0.11865 -0.085591 0.23781 0.17647 -0.26207 0.06926 -0.14594 0.020255 -0.29745 -0.12144 0.22662 -0.30409 0.17615 0.18867 -0.04611 -0.051782 0.0086858 -0.073149 -0.099198 -0.43839 -0.092473 -0.023954 -0.09178 -0.17071 0.18743 -0.056697 0.30067 -0.11399 -0.076626 0.00044911 0.20029 -0.054102 0.22627 -0.22903 0.43535 0.037814 -0.19988 -0.4971 0.074792 -0.024342 0.27407 -0.52858 -0.075744 0.32782 0.34595 -0.34208 0.010732 -0.20024 0.18391 0.1059 0.12866 0.11771 -0.047053 0.00062997 0.40995 0.0055776 0.093873 0.20441 -0.14466 -0.36295 0.074518 0.038132 -0.081002 0.026253 -0.24945 -0.3364 -0.39399 -0.071192 -0.071293 0.017448 0.10074 -0.037497 0.17348 0.22508 -0.23425 0.0065622 0.033337 -0.22334 -0.014853 -0.16121 -0.060542 
뭐|IC 0.047911 0.25192 -0.45346 -0.073473 -0.28615 -0.12892 0.10425 -0.31282 -0.021569 0.041228 0.019868 0.11036 -0.29766 -0.43705 0.39286 0.027784 -0.12138 0.02931 0.012295 -0.24754 -0.1101 0.15985 0.10752 0.32783 -0.025282 0.023905 0.090712 0.22648 0.44202 -0.5523 0.045877 -0.44692 -0.25968 -0.10072 0.34466 0.14731 0.13509 0.19208 0.031155 -0.073901 0.18155 -0.21541 0.21739 -0.18828 -0.47717 -0.29695 -0.18858 -0.25656 0.054857 -0.37895 0.33605 -0.25001 0.081361 -0.16905 -0.054453 0.34835 0.57324 -0.0028504 -0.020135 -0.14816 0.38058 0.01796 -0.24768 -0.53107 0.17022 -0.20424 -0.14935 0.011313 0.46896 -0.25184 -0.14746 -0.23951 0.33197 -0.15202 -0.073582 -0.38804 -0.04537 0.1504 0.2155 0.063931 -0.048269 -0.15242 -0.02077 -0.08395 0.18792 0.08741 0.2364 -0.29306 0.0036811 -0.049438 0.10729 -0.42773 0.0069612 0.43997 -0.077248 -0.006548 0.4025 0.23804 0.22209 0.36985 
지금|MAG 0.074997 -0.094313 0.14492 0.089253 -0.27709 -0.0067329 -0.067777 0.096909 -0.38748 -0.2936 -0.10608 -0.062866 0.0014161 -0.086779 -0.015627 -0.17546 0.056029 0.11634 0.043188 0.07509 -0.0021204 -0.082864 -0.017353 -0.044117 -0.088384 0.15333 0.047864 -0.069046 -0.026167 -0.10195 0.13229 0.10865 0.076794 0.16036 0.23544 0.051106 -0.064956 0.20923 -0.099656 0.057218 -0.045267 -0.21969 -0.10263 -0.17289 -0.078588 0.093303 -0.032803 -0.079335 0.01987 -0.12886 0.27225 -0.21801 0.016121 -0.12543 -0.030765 0.046403 -0.027749 -0.042897 -0.2105 0.020979 -0.086563 0.048727 -0.059617 0.027244 0.038396 -0.13314 0.27624 0.16593 0.021112 -0.11458 0.087881 -0.23019 0.21784 0.17044 0.023551 0.0624 -0.12059 -0.024814 -0.073838 0.023888 0.14796 -0.093523 -0.039126 0.13577 0.087121 0.036297 -0.10263 0.06572 0.17071 -0.081003 -0.24858 0.0068536 -0.0017407 0.22425 0.18726 0.18827 -0.058972 0.046098 -0.10104 0.0081939 
