207 100
</s> -0.2149 -0.032541 -0.37297 0.080322 0.093699 -0.19718 0.44132 -0.068103 0.3392 -0.046921 0.17892 0.28605 0.25527 0.034996 0.22221 0.46435 -0.012772 0.24687 -0.079326 -0.42393 0.21148 -0.12549 0.21839 -0.02289 0.34978 -0.27044 -0.032099 0.23511 0.16735 -0.010761 0.099054 -0.032888 -0.24318 -0.17158 -0.26644 -0.044405 0.1058 -0.17281 0.078211 -0.20255 0.4898 -0.09246 0.0023061 0.0051198 -0.010025 -0.081645 -0.42339 -0.077029 -0.074051 0.11157 -0.08805 0.041015 -0.27902 0.16212 -0.086443 -0.37528 0.050631 -0.046446 -0.069184 -0.051281 -0.14997 -0.0037705 0.018402 0.17675 -0.16171 0.097796 0.21862 -0.010403 0.24499 0.12583 -0.48618 0.01683 -0.12062 0.0017191 0.05195 -0.31594 0.080368 0.13033 -0.13212 0.079399 -0.24684 0.37462 0.24633 0.032886 0.044413 -0.30156 0.29003 -0.24391 -0.14338 0.079614 -0.17319 -0.093869 -0.059738 -0.097645 0.12072 -0.24948 0.10847 0.29752 0.18101 0.094751 
안|MAG 0.092924 0.19058 0.080364 -0.091332 -0.12134 0.55627 -0.39027 -0.17074 -0.13991 0.42035 -0.028121 -0.36327 -0.027433 0.023188 -0.16852 -0.35257 -0.27921 -0.29148 -0.34342 -0.023105 0.37151 -0.22967 0.0059819 0.20333 0.098444 -0.049197 -0.27949 0.005957 0.040951 -0.41039 -0.32395 -0.54606 0.15025 -0.13263 -0.070198 0.019896 -0.54558 0.32366 0.27301 -0.20394 -0.29226 0.39527 0.1091 0.26681 0.22504 0.26365 0.40085 -0.21417 -0.044733 0.093751 0.18433 -0.17135 0.14341 -0.022939 0.057838 0.17803 -0.24215 -0.039929 0.45205 0.10266 0.19136 -0.038767 -0.12375 -0.2298 -0.043773 -0.29389 -0.47487 0.071589 0.045068 -0.35673 0.31003 -0.20928 0.083779 -0.13891 0.025301 -0.36636 -0.31041 -0.15531 0.32435 -0.6978 0.030048 0.2025 -0.20021 -0.2115 -0.3746 -0.1204 -0.13581 -0.052545 0.022844 -0.044342 0.028483 0.18958 0.073543 -0.33358 -0.078799 0.16538 -0.045187 -0.0039376 0.28395 -0.060362 
어요|EF 0.101 -0.1225 0.30027 -0.19804 -0.36944 -0.26241 -0.22909 0.0096114 -0.13332 0.048761 -0.011977 -0.17709 -0.02349 -0.4433 0.082712 0.029589 -0.33355 -0.011842 -0.023505 0.15929 0.19318 -0.18481 -0.072842 0.064724 -0.31727 0.13901 -0.034073 -0.26852 0.022656 -0.19774 0.28819 -0.46616 -0.11481 0.20158 0.15853 -0.31359 -0.03339 0.20875 0.34787 -0.21013 -0.15371 0.12884 0.22914 -0.1171 -0.10477 0.08133 0.37412 -0.1814 -0.10017 -0.10274 0.11165 -0.022502 0.23274 0.05149 0.14887 0.438 -0.23863 -0.25134 0.22615 0.21522 0.19949 0.073289 -0.33 -0.1567 0.36771 -0.023834 0.1785 0.088083 0.27185 -0.057296 0.34487 -0.20474 -0.10335 0.016997 0.020842 -0.43629 -0.27436 -0.057829 0.33483 -0.17789 -0.19468 -0.2672 -0.095066 0.0013475 -0.36629 -0.0098871 -0.10766 0.25309 0.26751 0.19136 0.075686 0.28819 -0.30491 -0.16879 0.00029365 0.59792 0.058488 -0.44043 0.1259 0.28105 
나요|EC 0.29074 0.13642 -0.16924 -0.094547 -0.12104 0.43841 -0.32636 -0.013358 -0.015307 -0.040637 -0.35505 -0.067915 -0.030825 0.3886 -0.0050025 -0.3243 0.17257 -0.34944 0.074616 0.24362 -0.28718 0.18271 -0.30513 0.30137 -0.28706 0.061989 0.24979 0.023312 -0.24032 -0.031602 -0.41327 -0.015969 0.30595 -0.2783 -0.25654 0.099646 0.11243 -0.18286 0.0098218 0.24482 0.01604 0.3337 0.27944 0.40004 0.40974 0.10734 0.46728 0.28681 -0.17076 0.31529 -0.50689 0.12936 0.11327 -0.27391 0.058162 -0.13372 -0.10853 0.38945 0.085207 -0.055579 0.27866 -0.14047 0.42221 0.27204 -0.54724 -0.083446 -0.27181 -0.0093995 -0.38128 -0.33381 0.39775 0.48054 0.48574 -0.14039 0.30435 0.12102 -0.16837 0.30324 0.21997 -0.24094 0.31152 -0.29498 -0.18313 -0.41883 0.18735 0.54887 -0.041436 0.041496 0.28866 -0.4104 0.045796 0.1536 0.55184 -0.23181 -0.27677 -0.15095 -0.2038 0.069586 -0.081216 -0.39912 
문자|NNG 0.27254 -0.085328 0.81235 0.056815 0.41419 -0.26394 -0.42311 0.22018 -0.40118 0.040019 -0.15394 0.0054277 -0.76022 -0.3105 -0.471 -0.31203 0.0073507 -0.32612 0.11783 0.79557 -0.261 0.11362 0.01104 -0.16102 -0.26286 0.59322 0.23215 -0.28877 -0.16827 -0.15981 0.22301 0.21313 0.12228 0.18022 0.89103 0.45792 -0.54172 0.27788 -0.31739 0.1386 -0.92319 -0.026094 -0.14337 -0.0025342 0.070622 -0.41264 0.47541 0.31644 0.33681 -0.32901 0.31825 -0.2742 0.0088057 -0.2591 0.19703 0.38034 0.079539 -0.033891 -0.068054 0.037967 -0.32323 -0.053376 -0.4057 -0.50161 0.72087 -0.016989 -0.3804 -0.36103 -0.47204 0.10711 0.35182 -0.078462 -0.033547 0.10235 -0.59311 0.59678 -0.027156 -0.65714 -0.11716 0.081245 0.43052 -0.23021 -0.31212 0.91817 0.17048 0.041139 -0.44394 0.22949 -0.17179 0.38985 0.16664 0.069929 -0.39353 0.57387 -0.001254 0.29123 -0.14556 -0.72849 -0.23491 -0.26383 
미납|NNG 0.52726 0.56481 1.0345 -0.18898 0.43863 0.19433 -0.78805 0.019749 -0.58303 0.53168 0.47479 -0.31078 -0.7249 -0.79698 -0.67693 0.26632 -0.44869 -0.80038 -0.0018482 0.086137 0.63121 -0.26959 0.90653 -0.32492 0.18875 0.43475 -0.2242 -0.19063 -0.26608 -0.75308 0.62757 -0.47073 -0.29177 -0.08997 0.56559 0.58984 -1.3812 -0.028915 -0.096867 -0.26605 -0.82266 0.021219 -0.21017 0.47963 0.16298 -0.55516 -0.017134 -0.12496 -0.12414 -0.32 0.60081 -0.74666 -0.60192 0.22089 0.80598 0.49895 0.053767 0.36049 0.3315 0.03865 -0.46844 -0.17479 -0.2505 -1.05 0.91014 0.13691 -0.46136 -0.53153 -0.34335 0.38107 0.1174 -0.032196 -0.070363 0.089166 -0.34929 -0.18272 -0.40234 -1.1215 -0.079156 -0.6403 -0.064289 0.41022 -0.2384 1.1389 0.25857 -0.25341 -0.79343 0.18087 -0.37658 0.64952 -0.13338 0.41249 -0.40624 0.40304 0.26534 0.45079 -0.36422 -0.50855 -0.24822 -0.66861 
가능|NNG 0.17585 0.34734 -0.08721 -0.30068 -0.068723 0.48367 -0.35515 0.060923 -0.14582 0.17606 -0.36292 -0.34309 -0.064779 0.14147 -0.18916 -0.45137 0.13019 -0.43725 -0.088271 0.30029 -0.23933 0.17297 -0.29812 0.27193 -0.22979 0.045925 0.0042503 -0.12572 -0.25094 -0.038438 -0.64265 -0.090131 0.33857 -0.32269 -0.22135 0.037243 -0.13007 0.074464 -0.0073732 0.26095 -0.29493 0.424 0.14602 0.43019 0.28664 0.3025 0.61582 0.088944 -0.13512 0.22905 -0.33197 0.099727 0.25508 -0.23588 0.11689 0.067292 -0.074315 0.4039 0.27701 -0.017525 0.3291 -0.094185 0.23112 0.0432 -0.3566 -0.20807 -0.50602 0.022533 -0.5035 -0.36167 0.5088 0.23288 0.41443 -0.15444 0.21368 0.28427 -0.18576 0.099781 0.22855 -0.42849 0.37103 -0.31032 -0.23991 -0.49779 -0.0025045 0.43692 -0.26507 0.11296 0.26202 -0.37848 0.18323 0.21431 0.59412 -0.15259 -0.26486 -0.071489 -0.19887 0.10432 -0.089703 -0.39236 
시간|NNG 0.23252 0.32501 -0.2998 -0.16841 -0.057337 0.20331 -0.1293 0.1075 0.0070396 -0.12341 -0.27311 -0.00072573 0.093968 0.50276 -0.016901 -0.29056 0.24847 -0.069787 0.17091 0.15683 -0.44057 0.43783 -0.23905 0.069488 -0.2507 -0.035725 0.13344 -0.19282 -0.31766 0.24605 -0.55129 0.16576 0.16728 -0.34604 -0.31327 -0.030132 0.1534 -0.15589 -0.10949 0.26016 -0.083051 0.22181 0.034798 0.53063 0.23524 0.098151 0.38887 0.26425 -0.13808 0.42835 -0.69236 0.26037 0.052707 -0.069542 0.24762 -0.17277 0.19826 0.36982 0.11689 -0.11265 0.3038 -0.11463 0.63243 0.19783 -0.39363 -0.17496 -0.021071 -0.0099334 -0.43434 -0.043585 0.23263 0.35564 0.356 -0.17481 0.45403 0.38735 -0.32277 0.30463 0.19531 -0.07993 0.16505 -0.38469 -0.098002 -0.27035 0.28095 0.36179 0.028098 0.15721 0.2467 -0.6297 0.058852 0.029051 0.48229 0.0041531 -0.23739 -0.21219 -0.23803 0.18778 -0.24228 -0.38232 
다른|MM 0.42915 0.21722 -0.49936 0.052354 -0.02565 -0.25478 0.13163 0.1944 0.22894 -0.62164 -0.25357 0.63602 0.20178 1.1244 0.19629 -0.13408 0.46793 0.43528 0.6602 0.10974 -0.83372 0.9088 -0.25828 -0.22424 -0.40501 -0.014862 0.43589 -0.29334 -0.43699 0.67359 -0.41119 0.59251 0.035852 -0.26242 -0.28247 -0.017673 0.57299 -0.4567 -0.31928 0.33997 0.069404 -0.074562 -0.077053 0.65494 0.27735 -0.31566 0.1838 0.68016 -0.057326 0.71649 -1.2063 0.48247 -0.21045 0.023057 0.38251 -0.46937 0.58444 0.27955 -0.18976 -0.27133 0.30448 -0.16177 1.3384 0.46815 -0.52386 -0.16802 0.62218 -0.07659 -0.40723 0.35418 0.028391 0.66018 0.42696 -0.2417 0.80345 0.66106 -0.56827 0.58753 0.19744 0.48546 0.051299 -0.61408 -0.046124 0.10376 0.83058 0.44074 0.49732 0.27142 0.27297 -1.1155 -0.15927 -0.32946 0.33202 0.27637 -0.27984 -0.40114 -0.36421 0.18667 -0.53163 -0.45843 
없|VA 0.094674 0.18918 0.083711 -0.37182 -0.36106 0.26277 -0.28519 0.087734 -0.3244 0.13139 -0.24226 -0.64646 0.010834 -0.5595 -0.033402 -0.17688 -0.040098 -0.42675 -0.21034 0.26337 -0.11726 -0.14232 -0.15521 0.35697 -0.3316 -0.012238 0.017353 -0.33556 -0.15756 -0.15112 -0.24599 -0.38347 -0.079771 -0.47895 -0.35144 -0.45469 0.11661 0.062051 0.27114 0.071552 0.037276 0.42714 0.36403 0.18999 -0.10325 0.43113 0.60816 -0.28672 -0.47805 -0.012896 -0.31184 0.2023 0.33226 -0.008334 0.26949 0.27402 -0.28254 0.41875 0.40718 0.23208 0.28098 0.059341 -0.5825 0.029317 0.14558 0.11874 -0.18464 0.042506 -0.27697 -0.1994 0.30071 -0.051284 0.071488 0.054485 0.050339 -0.20629 -0.0086844 0.087535 0.20946 -0.36872 -0.039078 -0.40588 0.079596 -0.59006 -0.44908 0.12345 -0.46821 0.19417 0.4523 0.29668 0.32258 0.71277 0.41496 -0.22545 -0.050833 0.33506 0.048479 -0.024262 0.12786 -0.01592 
해|XSV+EC -0.098743 -0.83005 0.37235 0.43455 -0.035623 -0.20802 -0.068222 -0.22217 0.15688 -0.14725 0.08286 0.37332 -0.17775 -0.0067511 0.16781 0.09273 -0.31924 0.1328 0.09306 0.067454 0.4601 -0.55791 -0.19355 0.158 -0.093597 0.24065 0.063741 0.47709 0.38156 -0.46616 0.74285 -0.14581 0.30088 0.89228 0.61929 0.26063 -0.0022174 0.1762 0.23143 -0.228 0.034173 -0.19997 0.10042 -0.77292 0.19894 -0.34422 -0.21023 0.14338 0.446 -0.32928 0.80567 -0.40467 0.17448 -0.28678 -0.67008 0.23826 -0.3511 -0.62469 -0.3033 0.022217 -0.11494 -0.015175 -0.11125 0.027892 -0.1546 -0.042687 -0.0020669 0.027518 0.54516 -0.39887 0.21889 0.077282 0.13364 0.038377 -0.35355 -0.4053 0.15813 -0.093722 -0.051911 0.12612 0.27185 0.13899 -0.3251 0.30915 -0.019907 0.16786 0.42108 -0.16951 -0.091162 0.14054 -0.34077 -0.45542 -0.58069 -0.21734 -0.067606 0.22344 0.083939 -0.53999 0.28129 0.3494 
있|VV 0.25316 -0.088734 -0.13376 0.15122 -0.037292 0.10071 -0.076786 -0.023516 0.080447 -0.25317 -0.16464 0.25664 -0.0090761 0.46554 0.10754 -0.083542 0.16226 -0.01824 0.21652 0.11222 -0.25506 0.19596 -0.15679 0.096566 -0.19133 0.062222 0.29742 0.082752 -0.13498 0.078129 -0.059885 0.15615 0.11858 -0.10009 -0.085067 0.11991 0.22847 -0.25661 -0.053034 0.13161 0.15198 0.06086 0.16312 0.207 0.29062 -0.16523 0.11542 0.35281 -0.045211 0.24758 -0.41453 0.11202 -0.075993 -0.15878 0.013331 -0.23018 0.036179 0.14749 -0.1272 -0.10854 0.090229 -0.10947 0.44932 0.2939 -0.36955 -0.0010237 0.08439 -0.056344 -0.16126 -0.059711 0.077263 0.43376 0.30701 -0.081696 0.21885 0.094579 -0.12383 0.25847 0.068278 0.11029 0.16265 -0.17756 -0.084304 -0.0012563 0.34115 0.33071 0.22424 -0.00097949 0.14246 -0.3304 -0.1134 -0.064959 0.18002 -0.042344 -0.15276 -0.1812 -0.14911 -0.010732 -0.096936 -0.24193 
연금|NNG 0.45687 -1.1976 0.45542 0.87821 0.069519 0.18609 -0.41393 -0.37752 0.15898 -0.46021 -0.16189 0.70894 -0.54514 0.46428 0.2521 0.070615 -0.044702 -0.31192 0.27132 0.3881 0.12541 -0.49847 -0.206 0.44752 -0.24092 0.49177 0.87342 0.84802 0.25334 -0.58838 0.96717 0.031731 0.3679 0.5132 0.58506 0.73991 0.27812 -0.46859 0.11504 -0.042234 0.5005 -0.069319 0.68281 -0.49285 0.76809 -0.76061 -0.086662 0.77179 0.24037 -0.20098 0.28475 -0.35666 -0.22154 -0.67744 -0.67367 -0.30591 -0.59905 -0.22071 -0.68172 -0.079176 -0.36932 -0.21456 -0.027324 0.52007 -0.56997 0.37057 -0.12613 -0.23647 0.23724 -0.51661 0.12617 0.87747 0.46063 0.082748 -0.41161 -0.54792 0.3534 0.15661 -0.1586 0.33525 0.52524 0.17179 -0.26502 0.49164 0.47102 0.64882 0.48303 -0.40082 0.0092108 0.40529 -0.41571 -0.18411 -0.32498 -0.35453 -0.17828 -0.095176 -0.02618 -0.72232 0.33542 -0.15394 
퇴직|NNG 0.45852 -1.1943 0.46789 0.8907 0.055325 0.19163 -0.40133 -0.37998 0.16335 -0.45441 -0.15728 0.7049 -0.56361 0.46147 0.24615 0.077906 -0.038422 -0.30031 0.25402 0.38951 0.11386 -0.50244 -0.21546 0.4469 -0.23245 0.50278 0.87514 0.84475 0.25232 -0.58244 0.97158 0.029081 0.35835 0.50618 0.60207 0.74356 0.2612 -0.4709 0.12637 -0.044033 0.50307 -0.062232 0.67264 -0.48056 0.76679 -0.75831 -0.095029 0.76443 0.24244 -0.20572 0.27942 -0.33954 -0.22936 -0.66808 -0.67995 -0.3027 -0.59857 -0.21283 -0.68407 -0.070181 -0.3814 -0.22588 -0.02974 0.53084 -0.56409 0.35792 -0.1222 -0.23554 0.23737 -0.51408 0.11265 0.87705 0.45933 0.086771 -0.41514 -0.54743 0.35841 0.13842 -0.16615 0.32621 0.52941 0.17449 -0.27573 0.50318 0.4634 0.65495 0.48976 -0.40628 0.011382 0.40962 -0.42398 -0.17003 -0.31841 -0.3523 -0.17691 -0.087032 -0.033611 -0.71533 0.34522 -0.1496 
해피콜|NNP 0.19367 -0.6415 0.59026 0.28923 0.36322 -0.58926 -0.22585 0.36301 -0.22542 -0.34461 -0.78583 0.34507 -0.81906 0.28092 -0.31511 -0.91896 0.39227 0.025859 0.21418 1.4735 -1.1255 0.54752 -0.79244 0.0028029 -0.69242 0.77249 0.72179 -0.40267 -0.119 0.36395 -0.24426 0.75244 0.52453 0.34918 1.1739 0.38439 0.18114 0.51773 -0.5099 0.48221 -1.046 0.038533 0.018864 -0.29296 0.10149 -0.22702 1.0712 0.74453 0.72352 -0.24538 -0.050622 0.15913 0.51332 -0.7402 -0.29347 0.21476 0.037079 -0.39637 -0.36653 0.040426 -0.16118 0.026193 -0.47473 0.028918 0.50509 -0.19902 -0.36852 -0.16053 -0.57628 -0.17967 0.65804 -0.073029 0.03303 0.048797 -0.7408 1.2133 0.21941 -0.15127 -0.014387 0.64275 0.86621 -0.7949 -0.39888 0.6702 0.071745 0.38082 -0.1763 0.2672 0.044656 0.11533 0.49254 -0.12651 -0.36483 0.62124 -0.30491 0.14836 0.010133 -0.95251 -0.20208 0.039158 
세요|EP+EF 0.29202 -0.14596 0.048989 0.1909 -0.071147 0.048047 -0.21834 -0.11743 0.077516 -0.091999 -0.022381 0.27201 -0.04908 0.44827 0.070851 -0.10467 -0.10673 0.078466 0.14764 0.054153 0.050069 0.060484 -0.08067 0.010203 -0.1213 0.11497 0.14097 0.067399 -0.020323 -0.1201 0.071961 -0.12721 0.11333 0.14199 0.13656 0.1577 -0.092794 -0.031854 0.090803 -0.11176 -0.079625 0.07271 0.12133 0.18126 0.31818 -0.22487 0.17558 0.2777 0.12353 0.2295 -0.14316 -0.054594 -0.070954 -0.12102 0.02518 -0.045433 -0.014194 -0.16321 -0.0049334 -0.052256 0.11035 -0.12567 0.44887 0.071578 -0.19597 -0.18845 0.092735 -0.02697 0.069996 -0.083357 0.22707 0.25088 0.21642 -0.14486 0.20639 -0.11878 -0.38974 0.098172 0.25017 -0.051532 0.087144 -0.063292 -0.21356 0.24274 0.2159 0.17037 0.31018 0.025783 0.069229 -0.38083 -0.20261 -0.16418 -0.1535 -0.10417 -0.16616 0.040649 -0.16274 -0.23256 0.019291 -0.12831 
주|VX 0.29796 -0.29601 0.12426 0.21386 -0.04147 -0.074753 -0.23534 -0.099143 0.14485 -0.17837 -0.092039 0.41669 -0.14486 0.40559 0.10455 -0.041051 -0.068544 0.0085454 0.24625 0.16814 -0.021004 0.065637 -0.13617 0.027959 -0.22338 0.24856 0.30396 0.17216 0.0029129 -0.10687 0.2693 -0.046493 0.21843 0.33552 0.28589 0.28842 0.0345 -0.11486 0.048773 -0.031158 -0.052384 -0.0095747 0.19615 0.0069038 0.37531 -0.28895 0.12338 0.39865 0.19208 0.0975 -0.019835 -0.11515 -0.043635 -0.25357 -0.10714 -0.018469 -0.1024 -0.19474 -0.19281 -0.065611 0.061321 -0.13892 0.47014 0.13951 -0.24784 -0.075109 0.076418 -0.02206 0.10638 -0.14947 0.3038 0.36933 0.26843 -0.075055 0.12522 -0.10156 -0.24604 0.12456 0.21254 0.082969 0.17775 -0.11716 -0.26265 0.23786 0.28988 0.41995 0.2427 0.016115 0.074726 -0.26112 -0.1582 -0.17709 -0.15771 -0.11708 -0.18059 0.051494 -0.15721 -0.36431 -0.052198 -0.13245 
수|NNB 0.24467 -0.073215 -0.13978 0.12397 -0.034223 0.075954 -0.083479 -0.0039162 0.087031 -0.25481 -0.16063 0.24478 -0.012257 0.46163 0.085519 -0.079773 0.17704 0.0019155 0.21688 0.10003 -0.26849 0.21113 -0.16797 0.074486 -0.19362 0.055301 0.28726 0.042478 -0.14033 0.099976 -0.095298 0.15551 0.11462 -0.10802 -0.097679 0.096538 0.23354 -0.24193 -0.05874 0.13118 0.13809 0.058736 0.13248 0.21747 0.27115 -0.16125 0.13095 0.33603 -0.047005 0.24472 -0.43409 0.12848 -0.077155 -0.14016 0.032639 -0.23526 0.061882 0.16268 -0.12085 -0.10148 0.086806 -0.1144 0.46046 0.28403 -0.36863 -0.00021442 0.10246 -0.050143 -0.17213 -0.037749 0.075316 0.42447 0.29484 -0.089983 0.23958 0.11226 -0.13671 0.26774 0.070127 0.12729 0.15928 -0.20119 -0.076399 -0.02205 0.33842 0.31186 0.20916 0.010641 0.15181 -0.35062 -0.09329 -0.08165 0.19729 -0.029129 -0.15723 -0.18491 -0.14677 0.0057627 -0.10715 -0.23162 
하|VV 0.054124 0.020059 -0.04444 -0.084685 8.9753e-05 -0.23259 0.04812 0.1557 0.0080485 -0.14597 -0.17583 0.085108 -0.027683 0.070443 0.025921 -0.0597 0.16263 0.054807 0.13878 0.21281 -0.36248 0.27597 -0.14041 -0.057454 -0.19809 0.080769 0.19328 -0.17628 -0.11283 0.25962 -0.097529 0.21005 0.016903 -0.044616 0.03679 -0.060122 0.24553 -0.055644 -0.13827 0.17504 -0.063965 -0.032695 0.019669 0.038323 -0.058588 0.00043452 0.15619 0.1562 0.004053 0.031001 -0.26645 0.17972 0.063969 -0.054875 0.070884 -0.019886 0.078975 0.058579 -0.084038 -0.0021949 0.04875 0.019038 0.069449 0.10962 0.067506 0.043642 0.11649 0.00043099 -0.16274 0.1037 0.069198 0.059561 -0.0095848 0.016533 0.04008 0.28202 0.022526 0.11645 0.025466 0.22575 0.045237 -0.28373 0.032541 -0.014513 0.082702 0.15954 -0.071577 0.13243 0.098096 -0.058088 0.1539 0.057514 0.078399 0.12499 -0.056149 0.00031077 -0.011786 -0.071369 -0.17687 -0.012314 
되|VV 0.0029723 0.25764 -0.15638 -0.2455 0.026239 0.13572 -0.067681 0.07255 0.03147 0.11544 -0.2199 -0.12808 0.026612 0.042337 -0.065149 -0.12252 0.14931 -0.23814 -0.039182 0.10886 -0.22239 0.2077 -0.13174 0.054954 -0.0832 0.0096102 0.041994 -0.020286 -0.12385 0.15056 -0.33676 0.058158 0.20334 -0.11071 -0.14255 0.05912 0.033209 -0.033887 -0.10826 0.21336 -0.086696 0.12203 0.058682 0.17246 0.069172 0.25986 0.18103 0.033982 -0.076168 0.040186 -0.14998 0.089623 0.12592 -0.1199 0.034487 0.007061 -0.053838 0.21078 0.034488 -0.02051 0.13979 -0.013345 0.13074 0.072248 -0.17249 -0.025481 -0.24126 0.10976 -0.21877 -0.11587 0.22098 0.070791 0.091456 -0.030512 0.11257 0.19259 0.053662 0.129 0.10413 -0.12138 0.11397 -0.11544 -0.032012 -0.43726 -0.047941 0.32771 -0.28359 0.040792 0.082486 -0.12529 0.2342 0.15608 0.40754 -0.11174 -0.097145 -0.076057 -0.055176 0.14857 -0.159 -0.1605 
안내|NNG 0.16003 0.019243 0.35737 0.022235 0.12975 0.0011946 -0.23235 0.035714 -0.17421 0.085124 0.037255 -0.047141 -0.28545 -0.19744 -0.19264 -0.014579 -0.082273 -0.22441 0.022407 0.18489 0.055894 -0.057429 0.14917 -0.048312 -0.0288 0.20162 0.033555 -0.058225 -0.069067 -0.19959 0.17775 -0.059744 -0.024054 0.028083 0.27745 0.19606 -0.31975 0.045843 -0.050448 -0.020859 -0.30097 0.013868 -0.022706 0.06351 0.067902 -0.17739 0.10134 0.052152 0.048385 -0.12593 0.18171 -0.19665 -0.10748 -0.040634 0.14243 0.14764 -0.0055471 0.050385 0.029031 0.023025 -0.16177 -0.043624 -0.15987 -0.2468 0.26464 0.033709 -0.15651 -0.15753 -0.13581 0.048403 0.086666 0.012199 -0.011301 0.037182 -0.18598 0.044447 -0.051523 -0.29901 -0.023615 -0.084128 0.08636 0.03246 -0.098245 0.38098 0.065423 -0.023566 -0.21247 0.063516 -0.081667 0.21364 0.0011846 0.10736 -0.14985 0.14422 0.045687 0.13344 -0.077654 -0.25528 -0.058065 -0.15277 
날짜|NNG 0.1871 0.1573 -0.24625 -0.038609 -0.04279 -0.033173 0.016737 0.07981 0.074397 -0.22871 -0.13383 0.20497 0.099329 0.47281 0.055151 -0.10704 0.2021 0.11923 0.23853 0.069202 -0.37621 0.40952 -0.14851 -0.050169 -0.19135 -0.02372 0.16531 -0.14526 -0.21537 0.28117 -0.27827 0.22072 0.050853 -0.16669 -0.17845 -0.027294 0.21107 -0.17434 -0.11607 0.17155 -0.0061832 0.037174 -0.019639 0.34275 0.13686 -0.069229 0.16594 0.28323 -0.057215 0.33177 -0.5682 0.22807 -0.04015 -0.019366 0.18355 -0.19632 0.23614 0.18052 -0.029414 -0.11723 0.19248 -0.074358 0.59333 0.1894 -0.25925 -0.10633 0.20455 -0.011588 -0.23796 0.10398 0.076833 0.30442 0.23369 -0.13552 0.38018 0.3069 -0.27375 0.26531 0.11576 0.12855 0.051189 -0.30316 -0.045038 -0.03583 0.32246 0.22275 0.1664 0.1355 0.14645 -0.51793 -0.040204 -0.082423 0.22758 0.092275 -0.15385 -0.17676 -0.18202 0.10362 -0.23499 -0.24198 
줘|VX+EC -0.30058 -0.32766 0.24659 0.090802 -0.017841 -0.16953 0.078142 0.017225 -0.053144 -0.11463 0.11046 0.0045734 -0.011314 -0.13859 -0.0042933 -0.041956 -0.18184 0.23771 0.089794 -0.039256 0.33012 -0.41239 -0.20106 0.11887 -0.12023 0.021955 -0.38307 0.077125 0.14728 -0.31538 0.26002 0.068837 0.21257 0.58322 0.29178 -0.091777 -0.11327 0.32425 0.11299 -0.070806 -0.22051 -0.13888 -0.32307 -0.53097 -0.077028 -0.21322 -0.14731 -0.091221 0.31611 -0.15527 0.5908 -0.2477 0.28644 0.031421 -0.37633 0.37952 0.089113 -0.30618 0.022209 -0.013391 0.049544 0.026557 0.0082098 -0.20914 -0.040319 -0.23984 0.022664 -0.04274 0.17155 -0.2369 0.11668 -0.12593 0.20437 -0.035586 -0.1647 0.083077 0.014883 -0.25538 -0.19068 0.01389 0.26559 -0.10882 -0.29542 0.20261 -0.012853 -0.10658 0.33123 0.029296 -0.029109 -0.2184 -0.3403 -0.55013 -0.33081 0.13745 -0.01352 0.148 -0.021856 -0.17273 0.087828 0.23578 
받|VV 0.11535 -0.060874 0.36594 0.052588 0.18436 -0.12094 -0.19337 0.091345 -0.15464 0.021862 -0.053952 0.031455 -0.33361 -0.13122 -0.20377 -0.11185 -0.0016069 -0.13087 0.063284 0.33244 -0.078509 0.016178 0.023032 -0.07162 -0.10798 0.26465 0.090887 -0.095184 -0.062135 -0.10668 0.14542 0.10244 0.075748 0.12463 0.40121 0.22804 -0.25572 0.11121 -0.13271 0.036355 -0.3857 -0.023275 -0.070194 -0.046349 0.033694 -0.20496 0.17393 0.13507 0.17966 -0.1667 0.20132 -0.1576 -0.014975 -0.12746 0.045585 0.15927 0.023424 -0.027028 -0.040717 0.0042411 -0.16751 -0.029884 -0.15903 -0.22789 0.28896 -0.012208 -0.1752 -0.15552 -0.17561 0.03262 0.14793 -0.0055801 -0.0026205 0.039261 -0.2696 0.24825 -0.0027956 -0.29617 -0.065129 0.040943 0.20061 -0.062201 -0.15738 0.42376 0.097218 0.01932 -0.17484 0.069596 -0.083405 0.1685 0.044719 0.0044933 -0.19294 0.24401 -0.0069811 0.11979 -0.061364 -0.31808 -0.10001 -0.118 
고|EC 0.16252 0.068837 -0.14441 0.028997 -0.015765 -0.083613 0.025332 0.062902 0.0666 -0.20935 -0.088127 0.21798 0.045161 0.36766 0.056519 -0.060821 0.15322 0.13622 0.23468 0.069085 -0.28537 0.29758 -0.099027 -0.074249 -0.16182 0.012337 0.15136 -0.10155 -0.15138 0.21348 -0.13389 0.1965 0.025794 -0.075888 -0.073177 0.0040146 0.17955 -0.15018 -0.10516 0.10795 0.0058514 -0.015106 -0.02687 0.22194 0.10458 -0.11467 0.092355 0.2554 -0.00068692 0.23174 -0.40261 0.15813 -0.052172 -0.00066278 0.14194 -0.14268 0.19717 0.095452 -0.069569 -0.10284 0.11147 -0.066206 0.46217 0.14928 -0.17498 -0.069623 0.20946 -0.025557 -0.14473 0.11629 0.031249 0.24138 0.15977 -0.086863 0.27752 0.23837 -0.20515 0.17858 0.080596 0.16235 0.034152 -0.2323 -0.04085 0.065183 0.29622 0.16228 0.17206 0.10312 0.093713 -0.38079 -0.051379 -0.11743 0.089795 0.090574 -0.10042 -0.11312 -0.12651 0.027525 -0.18002 -0.15483 
바꿀|VV+ETM 0.15847 0.15876 -0.20845 -0.068867 -0.055079 0.038101 -0.026246 0.080093 0.042596 -0.14144 -0.14062 0.087053 0.093943 0.34683 0.039022 -0.12653 0.15954 0.057096 0.15864 0.059387 -0.29682 0.31078 -0.12077 -0.0096323 -0.15188 -0.020008 0.10786 -0.1329 -0.19686 0.20907 -0.27009 0.13299 0.041348 -0.18945 -0.17457 -0.044436 0.15057 -0.13451 -0.081962 0.14332 -0.010441 0.076958 0.0017085 0.30916 0.10567 -0.00037823 0.17326 0.17446 -0.077491 0.26958 -0.47283 0.18904 -0.0061021 -0.0080842 0.16705 -0.13665 0.16465 0.19255 0.02229 -0.065156 0.18448 -0.058795 0.44008 0.14865 -0.21541 -0.078638 0.10982 -0.014071 -0.21999 0.045686 0.1007 0.22789 0.20054 -0.10825 0.3119 0.2308 -0.22362 0.2101 0.10838 0.047572 0.049595 -0.24687 -0.041031 -0.10339 0.21177 0.19399 0.080562 0.10579 0.15831 -0.41297 -0.0072983 -0.018747 0.23986 0.033268 -0.12429 -0.11934 -0.13871 0.098343 -0.17902 -0.20421 
오전|NNG 0.10992 0.46237 0.040732 -0.40774 0.089204 0.89704 -0.63289 0.027328 -0.27958 0.49903 -0.53828 -0.64377 -0.27733 0.021585 -0.42784 -0.74932 0.13352 -0.90315 -0.32765 0.50897 -0.17422 -0.0034691 -0.42099 0.4845 -0.16947 0.15694 -0.073814 0.03059 -0.24977 -0.2968 -0.91057 -0.15849 0.70555 -0.32393 -0.10303 0.31936 -0.50655 0.2498 -0.062718 0.40028 -0.60125 0.62971 0.18479 0.43363 0.4704 0.49196 0.83817 0.067139 -0.052668 0.095924 -0.0078776 -0.09323 0.42884 -0.47644 -0.046947 0.19588 -0.29314 0.53297 0.35541 0.00205 0.32215 -0.14719 0.05002 -0.088591 -0.48156 -0.31273 -1.1607 0.0205 -0.73783 -0.75452 0.82727 0.2054 0.57857 -0.16577 -0.024138 0.41749 -0.012405 -0.085645 0.21985 -0.7868 0.72213 -0.19108 -0.45598 -0.7375 -0.14924 0.6676 -0.59936 0.0014062 0.17953 -0.26691 0.33461 0.31129 0.8552 -0.27451 -0.34336 -0.10543 -0.24896 0.085763 -0.048798 -0.57055 
말|NNG -0.30574 -0.31315 0.077504 0.01148 -0.12962 -0.34965 0.083505 -0.13616 0.2752 0.19224 0.087941 0.2405 0.13882 0.016695 0.12059 -0.022426 -0.40552 0.3566 -0.099308 -0.15271 0.48432 -0.21184 -0.16536 -0.14299 0.085573 0.051772 -0.33651 0.17416 0.40556 -0.1464 0.21955 -0.33831 0.25353 0.88649 0.47641 0.055874 -0.23518 0.53532 0.23995 -0.31302 -0.30776 -0.14965 -0.12463 -0.55308 -0.059986 0.11936 -0.092457 -0.19327 0.51204 -0.20822 0.81713 -0.27985 0.32383 -0.075449 -0.44716 0.3927 -0.21822 -0.89089 -0.0070748 0.083732 0.14579 0.079776 0.062003 -0.22073 0.061674 -0.39998 0.0071535 0.33454 0.74852 -0.28358 0.35746 -0.48604 -0.20633 -0.063747 -0.078254 -0.35686 -0.18298 -0.07135 0.32099 -0.11757 -0.047394 0.179 -0.29186 2.0506e-05 -0.39238 -0.03978 0.25232 -0.0079059 -0.15856 -0.15833 -0.058739 -0.44364 -0.59716 -0.27704 -0.059886 0.35922 0.12118 -0.32587 0.17156 0.55198 
싶|VX 0.15512 0.07104 -0.13451 0.024716 -0.02323 -0.086416 0.031178 0.057905 0.076472 -0.21123 -0.085143 0.224 0.049282 0.38112 0.062322 -0.050985 0.15354 0.14511 0.23634 0.072171 -0.28236 0.30287 -0.094978 -0.059057 -0.15751 0.015866 0.15208 -0.10326 -0.15 0.20557 -0.12679 0.18582 0.032041 -0.076364 -0.072761 -0.0057112 0.18168 -0.14737 -0.11241 0.10724 -0.0088126 -0.011888 -0.036126 0.21897 0.11303 -0.11453 0.081424 0.25281 -0.011844 0.23645 -0.40602 0.15081 -0.052586 0.0020676 0.13321 -0.13357 0.19754 0.092333 -0.059597 -0.097185 0.11984 -0.063635 0.45208 0.14156 -0.17882 -0.071539 0.20582 -0.039693 -0.13532 0.11115 0.041587 0.2309 0.16793 -0.091971 0.27545 0.21929 -0.21161 0.1907 0.066736 0.15454 0.025818 -0.23022 -0.04005 0.072279 0.29159 0.15453 0.17078 0.11052 0.10798 -0.3905 -0.068392 -0.11718 0.097713 0.093877 -0.10378 -0.12042 -0.12667 0.014799 -0.17856 -0.15653 
을까요|EC 0.081353 0.2722 -0.14537 -0.19003 -0.075042 0.27066 -0.12541 0.042049 -0.05733 0.096603 -0.17695 -0.21164 0.064955 0.1115 -0.056237 -0.21687 0.098637 -0.1797 -0.059738 0.083887 -0.1598 0.1408 -0.12829 0.12662 -0.088128 -0.047096 -0.016678 -0.11238 -0.1557 0.043277 -0.40591 -0.047883 0.12066 -0.26589 -0.24353 -0.062437 -0.015015 -0.0071068 -0.0053967 0.12739 -0.071907 0.21811 0.069558 0.30703 0.11745 0.21837 0.2799 0.0086015 -0.13469 0.1889 -0.28674 0.11088 0.10009 -0.059775 0.13424 -0.018261 0.0031333 0.26551 0.17473 -0.0032421 0.19805 -0.045935 0.16536 0.062855 -0.20165 -0.099997 -0.19771 0.037715 -0.25195 -0.13374 0.18711 0.10033 0.18518 -0.079914 0.18817 0.13216 -0.11603 0.11764 0.13037 -0.23093 0.093273 -0.15987 -0.050212 -0.3397 -0.022326 0.17118 -0.13551 0.048546 0.15316 -0.23191 0.10481 0.14878 0.37178 -0.097819 -0.12356 -0.071788 -0.084997 0.15418 -0.052926 -0.20534 
오후|NNG 0.02074 0.48059 0.048017 -0.46477 0.0037075 0.90151 -0.58555 -0.0083332 -0.28778 0.62334 -0.41831 -0.78444 -0.18044 -0.20358 -0.41311 -0.65656 0.011623 -0.87695 -0.47203 0.35302 0.029138 -0.15396 -0.30318 0.4666 -0.054414 0.062317 -0.22208 0.018375 -0.14729 -0.3543 -0.85098 -0.34608 0.56972 -0.33524 -0.1909 0.16796 -0.55772 0.34361 0.065556 0.26146 -0.52069 0.63149 0.19157 0.37157 0.32881 0.63547 0.75418 -0.15752 -0.10991 0.021624 0.1275 -0.12523 0.45174 -0.37972 -0.046834 0.27539 -0.36933 0.4578 0.45723 0.068505 0.32418 -0.07965 -0.17052 -0.16809 -0.34888 -0.28773 -1.1335 0.087055 -0.56991 -0.73717 0.74716 0.0046243 0.40455 -0.11512 -0.052028 0.18453 0.011161 -0.13437 0.24763 -0.88712 0.5524 -0.076508 -0.35634 -0.81507 -0.37196 0.46453 -0.65631 -0.022389 0.16434 -0.088526 0.36754 0.40966 0.78618 -0.36735 -0.26355 -0.008394 -0.13689 0.14155 0.070056 -0.40981 
뭐|IC -0.16093 -0.01267 -0.24219 -0.11812 0.21595 -0.35671 0.29064 0.1034 0.30901 -0.072355 -0.17386 0.30875 -0.0003513 -0.0075206 0.095643 0.25998 0.30951 -0.047321 0.10012 0.082115 -0.40817 0.33834 -0.052053 -0.18961 0.043472 0.094596 0.3221 0.21938 0.043563 0.47534 0.077552 0.42022 0.13446 0.20249 0.08012 0.2488 0.43418 -0.26684 -0.33285 0.32257 0.22848 -0.27712 0.085999 -0.2823 -0.14246 0.14956 -0.32123 0.16136 0.086535 -0.25328 0.059468 0.10146 -0.028493 -0.19132 -0.20674 -0.18022 -0.11012 -0.018044 -0.4958 -0.069527 -0.16389 0.075507 0.022133 0.25912 -0.073663 0.30329 -0.0017567 0.17708 0.021964 0.10826 -0.064717 0.064192 -0.244 0.17487 -0.11515 0.24711 0.53154 0.21749 -0.14701 0.44822 -0.023925 0.063985 0.20336 -0.34658 0.059196 0.4125 -0.29357 -0.095868 -0.15029 0.27297 0.35278 0.067106 0.2168 -0.014599 0.04381 -0.18706 0.14703 0.11315 -0.29794 0.071407 
수신|NNG 0.076775 0.020227 0.25722 -0.021239 0.11065 -0.065849 -0.13851 0.070324 -0.15167 0.043012 -0.014268 -0.04221 -0.21101 -0.14323 -0.15647 -0.083265 -0.029269 -0.1083 0.011864 0.21635 -0.042022 0.007294 0.035997 -0.052677 -0.059002 0.16833 0.016436 -0.11382 -0.051899 -0.09127 0.069024 0.032705 0.022277 0.048167 0.26063 0.10596 -0.21223 0.10597 -0.084799 0.022259 -0.30141 0.0034948 -0.05951 0.011145 -0.0080152 -0.10569 0.13855 0.040923 0.09028 -0.1136 0.12902 -0.098279 -0.0063067 -0.03755 0.092797 0.15092 0.044637 0.0086528 0.02911 0.0048947 -0.094862 -0.0059631 -0.13921 -0.18559 0.24758 -0.016052 -0.12648 -0.11235 -0.14728 0.0355 0.10348 -0.059403 -0.019535 0.020247 -0.16082 0.15926 -0.038289 -0.23003 -0.031477 -0.022932 0.10992 -0.050278 -0.08688 0.28877 0.033211 -0.030898 -0.15699 0.075513 -0.04372 0.12069 0.047173 0.032876 -0.12288 0.17821 0.012341 0.1021 -0.039768 -0.19273 -0.056325 -0.08526 
한|XSA+ETM -0.019865 -0.084668 0.17434 -0.018625 -0.030228 0.33523 -0.22835 -0.10214 -0.12508 0.21593 -0.082611 -0.28674 -0.13685 -0.25856 -0.089284 -0.1414 -0.10111 -0.35736 -0.2303 0.12008 0.19863 -0.32832 -0.066451 0.25978 0.013747 0.060704 -0.037504 0.16148 0.073528 -0.3306 -0.0067043 -0.22606 0.17866 -0.0076988 0.037107 0.10458 -0.19955 0.11111 0.1359 -0.015779 -0.0396 0.20219 0.1912 -0.10783 0.1224 0.13881 0.17148 -0.094118 -0.028323 -0.1547 0.28791 -0.15392 0.1516 -0.18789 -0.17379 0.13256 -0.3117 0.056258 0.085806 0.080337 -0.0088621 -0.021637 -0.36779 -0.052784 -0.069138 0.019289 -0.42226 -0.0063757 -0.037363 -0.35723 0.20365 -0.014004 0.099858 0.039611 -0.23296 -0.18952 0.17764 -0.12056 0.011217 -0.29612 0.19583 0.10919 -0.11513 -0.20679 -0.23138 0.11771 -0.19957 -0.10472 0.016891 0.27408 0.067613 0.18168 0.11499 -0.21533 -0.027906 0.085086 0.051891 -0.073328 0.20668 -0.01798 
다시|MAG -0.19091 -0.23006 0.074137 -0.05346 -0.21305 -0.27874 -0.00068743 -0.12139 0.19298 0.16115 0.047918 0.1227 0.12911 -0.027503 0.12872 -0.04936 -0.38956 0.27945 -0.10156 -0.0895 0.3831 -0.17194 -0.16256 -0.074614 -0.016199 0.042994 -0.25963 0.061815 0.2936 -0.12131 0.14652 -0.39591 0.17355 0.67514 0.34301 -0.065188 -0.16179 0.44951 0.28056 -0.2987 -0.2484 -0.040095 -0.0044027 -0.38855 -0.061058 0.14984 0.068014 -0.19374 0.3437 -0.13341 0.56808 -0.17714 0.29721 -0.041022 -0.29635 0.3717 -0.22667 -0.73512 0.061221 0.12187 0.18674 0.082276 0.0020266 -0.17306 0.099443 -0.32223 0.04188 0.29642 0.62699 -0.24016 0.37085 -0.41851 -0.16723 -0.047917 -0.014108 -0.39063 -0.22475 -0.019339 0.36628 -0.14156 -0.099575 0.077876 -0.2414 -0.067419 -0.4093 -0.023859 0.18108 0.055228 -0.041601 -0.10737 -0.012417 -0.23503 -0.48001 -0.29335 -0.06239 0.40211 0.11917 -0.33741 0.18269 0.48427 
시|NNG 0.30674 0.1721 -0.32524 0.010114 -0.0096547 -0.06315 0.0090247 0.12978 0.11647 -0.37803 -0.23107 0.35865 0.092973 0.74402 0.087512 -0.17007 0.32867 0.17654 0.40575 0.13722 -0.57219 0.59753 -0.22396 -0.079132 -0.30163 0.0037162 0.29783 -0.18436 -0.31613 0.40118 -0.35858 0.36949 0.082064 -0.2091 -0.19211 0.014429 0.33287 -0.28608 -0.20841 0.25957 -0.0018835 0.026892 -0.015653 0.47033 0.23262 -0.15773 0.22752 0.47696 -0.04677 0.49268 -0.80549 0.29791 -0.094777 -0.045796 0.24169 -0.30805 0.3527 0.25081 -0.092744 -0.19064 0.23487 -0.12759 0.87276 0.31153 -0.40904 -0.14221 0.28779 -0.055423 -0.3483 0.14842 0.10374 0.48771 0.35188 -0.18535 0.51549 0.4729 -0.37466 0.37561 0.14128 0.24256 0.12802 -0.43584 -0.075642 0.022744 0.54234 0.36595 0.2748 0.17329 0.1967 -0.75942 -0.071918 -0.18724 0.28648 0.15932 -0.22345 -0.27475 -0.26769 0.12383 -0.35078 -0.36429 
일|NNG 0.25863 0.085327 -0.23684 0.047929 -0.013344 -0.18134 0.046707 0.10825 0.13487 -0.3666 -0.15565 0.40308 0.088103 0.65062 0.10431 -0.09233 0.26272 0.2542 0.39786 0.11397 -0.48515 0.52463 -0.17336 -0.12593 -0.25843 0.039259 0.27365 -0.15993 -0.24081 0.36624 -0.18919 0.34337 0.039186 -0.087492 -0.090131 0.014957 0.33371 -0.25129 -0.19426 0.20096 0.018831 -0.041361 -0.049968 0.33217 0.18361 -0.22022 0.11873 0.42097 0.0099358 0.39241 -0.65486 0.26257 -0.10228 -0.023315 0.189 -0.25695 0.32812 0.12291 -0.13113 -0.16914 0.15779 -0.095684 0.77239 0.25824 -0.2933 -0.094881 0.34432 -0.054374 -0.22521 0.18901 0.05744 0.40559 0.25747 -0.14008 0.43312 0.3976 -0.32988 0.31826 0.119 0.30222 0.074904 -0.36852 -0.063137 0.11445 0.49517 0.28123 0.29374 0.16478 0.14731 -0.64036 -0.097461 -0.20441 0.15797 0.1745 -0.17106 -0.20569 -0.20872 0.039347 -0.31628 -0.25555 
뭐|NP -0.25762 -0.42444 0.29399 0.013217 -0.16386 -0.46155 -0.01154 -0.12896 0.18787 0.19291 0.094118 0.18978 0.021287 -0.20779 0.091093 0.017728 -0.49737 0.30547 -0.092208 -0.019555 0.52575 -0.32537 -0.16191 -0.1197 -0.0059325 0.18 -0.27862 0.13674 0.42342 -0.2535 0.40875 -0.41111 0.25673 1.0035 0.666 0.069966 -0.2637 0.59041 0.27775 -0.35674 -0.38213 -0.15732 -0.058147 -0.66446 -0.076905 0.049234 -0.017011 -0.18842 0.56006 -0.3318 0.95464 -0.37204 0.35361 -0.10675 -0.46641 0.5347 -0.31253 -0.96209 -0.025261 0.13998 0.092835 0.10209 -0.1322 -0.29092 0.22803 -0.34748 -0.007016 0.29317 0.7616 -0.28704 0.42963 -0.51742 -0.2252 -0.0040357 -0.22794 -0.4142 -0.16055 -0.17669 0.30916 -0.096833 -0.01842 0.14804 -0.33853 0.13845 -0.45221 -0.034745 0.20351 0.029209 -0.14679 0.02103 -0.047936 -0.38479 -0.7345 -0.24799 -0.03354 0.51571 0.15138 -0.51886 0.21439 0.60393 
될까요|VV+EC 0.18306 0.29926 -0.20105 -0.19218 -0.059429 0.26932 -0.17237 0.081393 -0.041166 -0.018668 -0.2626 -0.10585 0.035829 0.3262 -0.066147 -0.31181 0.19509 -0.18471 0.065681 0.17665 -0.33928 0.30552 -0.23131 0.12047 -0.20655 -0.013132 0.082146 -0.14883 -0.26328 0.12229 -0.52675 0.057462 0.20458 -0.30081 -0.25329 -0.0070485 0.047853 -0.057019 -0.070985 0.23902 -0.14113 0.26548 0.069919 0.43393 0.21254 0.14977 0.40635 0.17834 -0.12463 0.31646 -0.49101 0.17797 0.10926 -0.12446 0.18242 -0.077648 0.088785 0.3453 0.15721 -0.072767 0.28621 -0.097928 0.42895 0.13519 -0.33485 -0.16057 -0.17604 -0.0017118 -0.41026 -0.13372 0.3012 0.28128 0.3298 -0.15449 0.32523 0.29775 -0.23677 0.21113 0.18375 -0.17706 0.20108 -0.31897 -0.12576 -0.31452 0.15905 0.34753 -0.082311 0.12052 0.22613 -0.47484 0.092973 0.094878 0.47246 -0.045497 -0.2132 -0.14237 -0.18558 0.14307 -0.16914 -0.34644 
았|EP 0.10329 -0.016129 0.3092 0.013086 0.15166 -0.074758 -0.16439 0.06244 -0.16027 0.036487 -0.017146 -0.0089272 -0.2719 -0.13221 -0.18087 -0.094191 -0.021875 -0.12948 0.038562 0.24455 -0.060588 0.026183 0.038006 -0.05464 -0.077238 0.20098 0.052372 -0.079943 -0.056571 -0.083364 0.10916 0.056001 0.038486 0.063717 0.30365 0.17812 -0.22547 0.076404 -0.11588 0.03582 -0.32695 -0.0092542 -0.056204 0.012881 0.03263 -0.15968 0.14396 0.095468 0.10758 -0.12138 0.14102 -0.1361 -0.023537 -0.074728 0.094681 0.14651 0.031292 0.017983 -0.0055471 0.0067279 -0.12996 -0.019685 -0.12379 -0.21003 0.24398 -0.0030772 -0.15362 -0.13934 -0.17254 0.045418 0.11257 -0.015367 0.0058913 0.040882 -0.19773 0.19655 -0.01637 -0.25702 -0.054264 0.0054114 0.13849 -0.058754 -0.10839 0.35028 0.079689 0.0035528 -0.17375 0.065642 -0.081455 0.13653 0.04128 0.032788 -0.13023 0.20714 0.0042734 0.090908 -0.068934 -0.2361 -0.08113 -0.11699 
몇|MM -0.0097802 0.27384 0.040744 -0.29613 -0.085503 0.48608 -0.31634 0.0051637 -0.2042 0.34575 -0.20495 -0.53412 -0.061409 -0.257 -0.19351 -0.30753 -0.03795 -0.48822 -0.30077 0.15073 0.057509 -0.14152 -0.13868 0.29029 -0.051064 -0.0064045 -0.15905 -0.055803 -0.071865 -0.23532 -0.44454 -0.28018 0.21501 -0.252 -0.17541 -0.043079 -0.26743 0.20624 0.11711 0.10726 -0.23023 0.37828 0.13478 0.18154 0.096712 0.40234 0.44244 -0.19192 -0.14555 -0.010466 0.05948 -0.035821 0.27758 -0.14536 0.011572 0.20496 -0.23949 0.27601 0.32858 0.0779 0.20353 -0.018218 -0.2348 -0.11029 -0.1181 -0.11474 -0.5774 0.060273 -0.27845 -0.37937 0.38171 -0.062149 0.18823 -0.035703 -0.043086 0.0025751 0.018004 -0.070512 0.15279 -0.52408 0.22111 -0.070915 -0.13974 -0.49307 -0.29972 0.18735 -0.38953 0.010357 0.15363 0.036687 0.20514 0.32113 0.42977 -0.22362 -0.10521 0.070816 -0.036456 0.095932 0.090493 -0.1643 
거|NNB -0.060782 -0.24675 0.13809 0.063758 0.036653 -0.27555 0.019367 0.077349 0.023994 -0.054955 -0.18373 0.13687 -0.14528 0.055123 -0.022001 -0.20444 0.015754 0.12368 0.037961 0.3298 -0.18573 0.0811 -0.25806 -0.033848 -0.16118 0.18339 0.11125 -0.065382 0.068168 0.098854 -0.014749 0.13931 0.17811 0.3077 0.37943 0.072891 0.052803 0.24987 -0.079131 0.053043 -0.3008 -0.043305 -0.031202 -0.23318 -0.024549 -0.024278 0.21924 0.12499 0.30667 -0.11109 0.17651 -0.005981 0.22668 -0.1866 -0.19637 0.14416 -0.045981 -0.31409 -0.1247 0.026334 0.00086037 0.045193 -0.12352 -0.023431 0.14616 -0.12525 -0.065114 0.051546 0.047071 -0.087445 0.21826 -0.14205 -0.066809 0.011147 -0.21939 0.24161 0.047568 -0.04236 0.054643 0.17467 0.1988 -0.16126 -0.14241 0.13082 -0.085826 0.071808 0.027391 0.064069 -0.027261 -0.00024438 0.11308 -0.13681 -0.23333 0.099156 -0.070048 0.11498 0.046895 -0.30336 -0.012402 0.17083 
해야|VV+EC -0.092271 -0.12786 0.046302 0.032021 0.18333 -0.2889 0.11272 0.11583 0.071448 -0.07986 -0.16948 0.17129 -0.14693 0.02503 -0.05494 -0.073169 0.18099 0.061636 0.076844 0.27624 -0.32275 0.20011 -0.13842 -0.11344 -0.069424 0.15645 0.16887 -0.01626 0.020593 0.23846 0.0027929 0.32166 0.1417 0.17898 0.28481 0.14736 0.14402 0.068822 -0.23441 0.18732 -0.17034 -0.1422 -0.051495 -0.21635 -0.075504 -0.011287 0.021539 0.15798 0.22163 -0.15667 0.10471 0.036948 0.089428 -0.16907 -0.15995 -0.0016996 0.016032 -0.1352 -0.24361 -0.0086046 -0.11659 0.056188 -0.11388 0.041718 0.12145 0.040041 -0.067167 0.033904 -0.062551 0.028386 0.04825 -0.065687 -0.1251 0.073615 -0.22612 0.35939 0.23744 -0.016698 -0.09054 0.30682 0.13452 -0.078942 0.00037486 0.067043 0.025219 0.1113 -0.1008 0.015933 -0.099031 0.11513 0.1948 -0.074966 -0.067679 0.1701 -0.015513 -0.046731 0.060974 -0.13834 -0.1265 0.080696 
끊|VV 0.071996 -0.027969 0.17899 -0.2883 -0.55511 -0.094758 -0.12222 0.088318 -0.35133 -0.044621 -0.024973 -0.59318 0.11037 -0.83996 0.16327 0.12801 -0.18891 -0.10714 -0.13697 0.098321 0.036894 -0.28555 -0.0021092 0.26221 -0.34107 -0.061159 0.037438 -0.43602 -0.073865 -0.13223 0.16727 -0.4478 -0.43057 -0.3967 -0.30671 -0.70238 0.30418 -0.0018509 0.40513 -0.14236 0.25891 0.25217 0.37286 0.023228 -0.31009 0.22353 0.40865 -0.37663 -0.52606 -0.046195 -0.33696 0.25679 0.22223 0.20695 0.35577 0.28684 -0.2282 0.21916 0.35617 0.2915 0.19369 0.127 -0.77055 0.016477 0.44535 0.26498 0.29303 -0.013943 0.0079275 0.06318 0.024787 -0.14811 -0.13965 0.11687 0.023073 -0.47444 -0.059751 0.078694 0.16244 -0.12044 -0.34507 -0.4169 0.23951 -0.24038 -0.46956 -0.19309 -0.23748 0.25427 0.48764 0.49726 0.18712 0.70139 0.012282 -0.12878 0.094956 0.52122 0.15502 -0.17082 0.22275 0.26168 
바꿔|VV+EC 0.22375 0.16192 -0.20322 -0.03592 -0.030306 0.0013018 -0.036778 0.099263 0.051405 -0.21989 -0.17666 0.1669 0.055925 0.45948 0.027478 -0.15944 0.21974 0.071797 0.25016 0.11298 -0.37907 0.39991 -0.17504 -0.021156 -0.21544 0.0053028 0.188 -0.13852 -0.23203 0.25625 -0.29814 0.22538 0.087844 -0.17365 -0.16227 0.0050309 0.20651 -0.16929 -0.12596 0.19768 -0.043472 0.07596 -0.00081705 0.36057 0.16556 -0.059435 0.2141 0.30744 -0.049505 0.33968 -0.55993 0.22029 -0.030787 -0.050901 0.18343 -0.1744 0.21478 0.20057 -0.010574 -0.1171 0.19524 -0.083244 0.58885 0.18917 -0.28332 -0.10866 0.14729 -0.027699 -0.28806 0.063533 0.12838 0.32677 0.27499 -0.12242 0.3645 0.33354 -0.27198 0.2579 0.132 0.1019 0.10103 -0.31439 -0.06953 -0.050527 0.34119 0.27477 0.14268 0.14197 0.16733 -0.51964 -0.033746 -0.080079 0.24815 0.079087 -0.16301 -0.16992 -0.17993 0.078222 -0.23604 -0.27766 
시|NNBC -0.019803 0.26974 0.031245 -0.30959 -0.085824 0.48137 -0.31641 -0.0029063 -0.1942 0.35616 -0.19595 -0.54343 -0.062634 -0.26733 -0.18879 -0.31017 -0.038444 -0.47103 -0.29795 0.15406 0.054083 -0.14995 -0.13499 0.29059 -0.036789 -0.021535 -0.15838 -0.047862 -0.085666 -0.23485 -0.44336 -0.28308 0.21592 -0.25715 -0.18192 -0.037821 -0.28115 0.19715 0.11934 0.092747 -0.22104 0.38018 0.13001 0.18067 0.11081 0.41282 0.4349 -0.20685 -0.15046 -0.010493 0.06014 -0.037539 0.27757 -0.15034 0.02812 0.19063 -0.23589 0.28263 0.3212 0.09523 0.20428 -0.012656 -0.2401 -0.11068 -0.11779 -0.11758 -0.56309 0.04979 -0.27649 -0.38186 0.38033 -0.060919 0.17742 -0.038874 -0.043583 0.004122 0.0041185 -0.065451 0.14485 -0.5304 0.22805 -0.067155 -0.13929 -0.49048 -0.30373 0.17128 -0.384 0.022688 0.15251 0.044823 0.2148 0.32374 0.42183 -0.23408 -0.10031 0.080115 -0.034124 0.093378 0.085583 -0.14925 
추천|NNG 0.22763 -0.65355 0.2889 0.47944 0.057442 0.069572 -0.21469 -0.19318 0.063369 -0.24265 -0.079552 0.37619 -0.33045 0.20278 0.1139 0.042963 -0.030198 -0.1783 0.14057 0.23959 0.056733 -0.28187 -0.11284 0.22336 -0.1205 0.29242 0.45504 0.43969 0.13476 -0.31346 0.54447 0.024913 0.19706 0.30302 0.35572 0.40946 0.13431 -0.23519 0.046422 -0.018278 0.23775 -0.051055 0.34254 -0.28627 0.38545 -0.42008 -0.05515 0.40746 0.13886 -0.1336 0.18077 -0.20359 -0.11578 -0.35273 -0.36237 -0.13683 -0.31285 -0.13171 -0.36392 -0.037915 -0.229 -0.11689 -0.059138 0.25142 -0.25603 0.20504 -0.063019 -0.14275 0.10935 -0.26262 0.05809 0.44495 0.22284 0.068511 -0.26309 -0.25876 0.20474 0.039635 -0.1152 0.19819 0.28713 0.098544 -0.14352 0.30312 0.25044 0.33381 0.2385 -0.21551 -0.0097342 0.26175 -0.21637 -0.10266 -0.21248 -0.14778 -0.082196 -0.035095 -0.017003 -0.40159 0.16293 -0.064699 
겠|EP -0.098684 -0.030925 0.060092 -0.23062 -0.39685 -0.19438 0.032207 0.045095 -0.12318 -0.0017276 0.043721 -0.30912 0.17371 -0.55735 0.17165 0.159 -0.18678 0.047479 -0.094912 -0.041887 0.11056 -0.18927 -0.014153 0.10915 -0.17107 -0.073419 -0.080938 -0.24287 0.026708 -0.035403 0.16564 -0.31953 -0.26477 -0.083003 -0.17563 -0.50089 0.20974 0.077448 0.29475 -0.14776 0.1941 0.090922 0.19654 -0.1303 -0.28113 0.20962 0.14432 -0.32287 -0.27275 -0.097718 -0.062186 0.14142 0.18297 0.15653 0.13136 0.24419 -0.1632 -0.030559 0.19732 0.20335 0.14802 0.13093 -0.4683 -0.0057031 0.28465 0.12453 0.25953 0.10594 0.19369 0.046207 0.025463 -0.22582 -0.18889 0.074462 0.034737 -0.39074 -0.027007 0.0663 0.13824 -0.066243 -0.30105 -0.19855 0.15186 -0.23313 -0.39787 -0.14626 -0.097415 0.14774 0.27466 0.29479 0.11581 0.35467 -0.0937 -0.15776 0.081998 0.3953 0.17969 -0.10464 0.16456 0.33736 
습니다|EF 0.028162 0.089827 -0.12122 -0.0278 -0.2754 0.19133 0.03915 -0.050366 -0.1391 0.02957 0.1534 -0.33901 0.22308 -0.21313 0.11333 0.074137 -0.090148 0.076776 -0.18835 -0.25654 0.1535 -0.15599 0.17465 0.1108 0.10195 -0.28854 -0.12082 -0.17953 0.0038041 -0.066025 -0.0613 -0.2855 -0.40323 -0.48593 -0.46239 -0.46508 0.10542 -0.047369 0.26269 -0.20624 0.34449 0.1668 0.10813 0.20678 -0.16414 0.14878 0.033379 -0.31945 -0.38583 0.1444 -0.33449 0.18848 -0.079527 0.29769 0.25962 -0.09588 0.012733 0.17613 0.29419 0.11033 0.054251 0.060383 -0.32511 0.049977 0.12435 0.10026 0.23568 -0.020066 0.058673 0.13795 -0.30493 -0.1197 -0.12884 0.00087952 0.12731 -0.37535 -0.092406 0.082539 0.029486 -0.16269 -0.35712 0.044404 0.2677 -0.11108 -0.23904 -0.43516 0.068233 0.00031706 0.17105 0.18106 -0.037651 0.32391 0.044479 -0.087806 0.11133 0.068261 0.11094 0.219 0.26202 0.12423 
어|EC 0.042455 -0.24681 0.23888 -0.11905 -0.37693 -0.2724 -0.043158 0.069975 -0.19696 -0.15502 -0.0042486 -0.24403 -0.0099278 -0.65353 0.19158 0.22349 -0.14032 -0.031908 0.0047791 0.13446 0.023471 -0.24754 -0.0088369 0.1728 -0.31025 0.070564 0.16243 -0.21095 -0.0020188 -0.10165 0.42041 -0.23702 -0.30531 -0.075438 -0.062493 -0.43653 0.34183 -0.0721 0.27295 -0.088629 0.26811 0.044487 0.32036 -0.20797 -0.2289 0.016543 0.18107 -0.18741 -0.31165 -0.17202 -0.10586 0.13291 0.13289 0.092457 0.12503 0.21908 -0.22838 0.039445 0.079662 0.21863 0.023705 0.10543 -0.62098 0.067974 0.36061 0.30212 0.33098 -0.025339 0.12826 0.070433 -0.014679 -0.043535 -0.13512 0.15806 -0.093103 -0.38958 0.092833 0.049681 0.025042 0.11303 -0.22971 -0.30833 0.18324 -0.043166 -0.27428 -0.072715 -0.11833 0.15492 0.32086 0.50631 0.085589 0.43091 -0.15005 -0.065927 0.10223 0.42319 0.17442 -0.27695 0.16172 0.27576 
어떤|MM 0.05555 -0.24105 0.10765 0.1645 0.045703 -0.02274 -0.044381 -0.026203 0.008958 -0.092021 -0.078347 0.11204 -0.13894 0.080069 0.02392 -0.046893 0.026178 -0.029318 0.052559 0.16275 -0.053242 -0.0471 -0.086773 0.064885 -0.063839 0.11925 0.16607 0.099704 0.030575 -0.062747 0.13223 0.075173 0.099108 0.10995 0.16843 0.13282 0.070108 -0.014725 -0.017185 0.035667 0.0058273 -0.0096961 0.079942 -0.118 0.10916 -0.11987 0.03932 0.14616 0.095673 -0.065007 0.056399 -0.039263 0.015794 -0.15656 -0.15078 -0.031998 -0.079636 -0.075898 -0.13935 -0.0054457 -0.076037 -0.018807 -0.069703 0.082539 -0.054755 0.052695 -0.044014 -0.051214 -0.00066344 -0.097442 0.038524 0.1043 0.059713 0.023348 -0.13332 0.023308 0.098705 0.010639 -0.060115 0.09785 0.14112 -0.017654 -0.053384 0.11218 0.07089 0.095577 0.065109 -0.045898 0.0038003 0.088658 -0.02222 -0.057154 -0.0825 0.0067535 -0.037403 -0.014403 0.0063529 -0.15036 0.053479 0.0017853 
다고|EC 0.17661 0.15135 0.34976 -0.050367 0.14612 0.017742 -0.24484 0.015352 -0.16679 0.15735 0.14451 -0.065521 -0.24919 -0.24826 -0.21414 0.098637 -0.1406 -0.25296 0.014127 0.054665 0.19606 -0.071581 0.28996 -0.12973 0.047471 0.15478 -0.050848 -0.057023 -0.069573 -0.21376 0.2287 -0.14184 -0.081744 0.0015042 0.20669 0.207 -0.43007 -0.021233 -0.035639 -0.096513 -0.25835 -0.015025 -0.052393 0.14297 0.057885 -0.19113 0.0021002 -0.0099818 -0.013847 -0.11079 0.20313 -0.24245 -0.20115 0.045202 0.25758 0.16312 0.014806 0.085668 0.089684 0.01854 -0.16159 -0.04844 -0.072105 -0.342 0.32109 0.050519 -0.1258 -0.16529 -0.094895 0.13105 0.060222 -0.016946 -0.036681 0.044258 -0.1206 -0.063313 -0.12113 -0.35297 -0.0058132 -0.18426 -0.027815 0.132 -0.084807 0.39435 0.090685 -0.049673 -0.25716 0.066584 -0.12702 0.21664 -0.035803 0.14208 -0.15068 0.14223 0.081036 0.15676 -0.11682 -0.19469 -0.085206 -0.21092 
하|XSV 0.059566 -0.11639 0.0024484 0.43178 0.022027 0.53229 -0.034246 -0.19416 -0.16444 -0.019958 0.2616 -0.11999 0.03958 0.3076 -0.037037 -0.16886 -0.10025 0.1536 -0.13769 -0.28342 0.34306 -0.34196 0.15631 0.19055 0.27293 -0.26827 -0.24139 0.078465 0.045443 -0.35714 -0.098475 -0.096965 -0.16703 -0.35256 -0.25287 -0.099462 -0.26585 0.060956 0.16556 -0.25146 0.14388 0.14829 -0.15935 0.21289 0.16038 -0.25087 -0.083914 -0.070387 -0.069788 0.25583 -0.091529 -0.063692 -0.19795 0.21699 0.0096274 -0.23049 0.19487 0.11123 0.25427 -0.060695 -0.089453 -0.072749 -0.018316 -0.049435 -0.17415 -0.15184 0.0032379 -0.22986 -0.042855 -0.037766 -0.41819 0.035786 0.18536 -0.13809 -0.0014513 -0.17787 -0.17632 -0.12825 -0.18786 -0.24545 0.016607 0.28324 0.021406 0.36001 0.10011 -0.60422 0.4882 -0.21263 -0.070155 -0.17497 -0.45424 -0.2432 -0.098952 0.068223 0.051342 -0.25455 -0.062866 0.25247 0.37982 -0.1094 
상담원|NNG -0.10697 -0.50295 0.56243 0.40152 0.15994 0.2572 -0.098326 0.11563 -0.51181 -0.48007 0.12779 -0.27102 -0.30803 -0.20424 -0.20494 -0.19728 0.055037 -0.014083 0.31328 0.19839 0.18728 -0.72175 -0.27502 0.52947 -0.36707 0.06542 -0.29196 0.037149 -0.16785 -0.69634 0.35114 0.47645 0.21309 0.15291 0.14781 -0.10127 -0.077365 0.088046 0.012518 0.19131 -0.1756 -0.030163 -0.46254 -0.40863 0.12956 -0.74593 -0.058297 0.16533 0.087983 -0.056579 0.29879 -0.25269 0.20131 0.031747 -0.31754 0.30474 0.39971 0.45595 0.089336 -0.15231 -0.10821 -0.11324 -0.059206 -0.17078 -0.26065 -0.078777 -0.080728 -0.59043 -0.56813 -0.28285 -0.12851 0.46215 0.8202 -0.043368 -0.31249 0.55383 0.18858 -0.48164 -0.77877 0.065079 0.79662 -0.4287 -0.37493 0.61547 0.53368 -0.15755 0.48217 0.031591 0.15624 -0.28503 -0.75726 -0.64487 -0.018279 0.58416 -0.027524 -0.143 -0.27952 -0.087793 0.089179 -0.28059 
들려|VV+EC -0.23382 -0.50016 0.33552 0.13092 -0.076656 -0.42636 -0.0057665 -0.10635 0.15909 0.086644 0.079061 0.2584 -0.083094 -0.15594 0.081645 0.023272 -0.40534 0.25618 -0.040557 0.04502 0.43547 -0.34427 -0.14518 -0.084857 -0.020003 0.20886 -0.17403 0.20121 0.3843 -0.26695 0.48926 -0.26359 0.23807 0.92894 0.68273 0.13677 -0.20385 0.45085 0.20985 -0.29181 -0.30841 -0.19602 -0.052111 -0.67976 -0.044356 -0.088133 -0.084014 -0.081104 0.52792 -0.36405 0.89717 -0.35856 0.26214 -0.14077 -0.47331 0.44002 -0.28092 -0.84899 -0.13678 0.10832 -0.020307 0.079559 -0.1933 -0.25201 0.21992 -0.2287 0.0029615 0.19589 0.67452 -0.2597 0.32524 -0.40019 -0.18761 0.033189 -0.31298 -0.33916 -0.02741 -0.217 0.16052 0.020839 0.052195 0.14461 -0.29013 0.24896 -0.32237 -0.027615 0.19254 -0.021448 -0.17168 0.1322 -0.082936 -0.37569 -0.72559 -0.16333 -0.015605 0.43906 0.1375 -0.54973 0.18659 0.52663 
있|VA 0.1489 -0.20305 0.21827 0.18462 0.06443 0.062122 -0.17969 -0.090186 -0.032971 -0.033955 0.011287 0.118 -0.20425 0.016514 -0.02112 0.034416 -0.060848 -0.1616 0.051089 0.1062 0.10602 -0.14755 0.044083 0.068498 -0.028074 0.16423 0.16265 0.15709 0.031963 -0.22016 0.28024 -0.054498 0.051152 0.10958 0.20756 0.21912 -0.099066 -0.087164 0.03242 -0.042348 0.0015145 -0.014865 0.11864 -0.053571 0.18801 -0.23665 -0.019427 0.15432 0.040303 -0.085583 0.14071 -0.15629 -0.11589 -0.12331 -0.062503 0.003853 -0.11722 -0.010065 -0.10545 -0.0010875 -0.13236 -0.065908 -0.044322 -0.0089121 -0.028404 0.086652 -0.074378 -0.11903 0.018253 -0.078565 0.049305 0.18933 0.089169 0.023329 -0.1214 -0.14166 0.014364 -0.094229 -0.039051 -0.013113 0.108 0.083297 -0.092843 0.24825 0.1316 0.11861 0.031276 -0.066782 -0.028921 0.15043 -0.11404 0.0063106 -0.11684 -0.027197 -0.013799 0.034175 -0.057023 -0.21342 0.046878 -0.10471 
알|VV -0.16365 0.20439 -0.20386 -0.32132 -0.17156 -0.2332 0.24864 0.097735 0.031187 0.029424 0.041667 -0.20642 0.22055 -0.49782 0.1372 0.35282 0.061913 -0.00237 -0.071515 -0.1611 -0.093967 0.066408 0.15004 -0.074191 0.026373 -0.1473 0.020027 -0.14489 -0.012657 0.2671 0.068629 -0.048743 -0.29943 -0.21971 -0.32604 -0.3487 0.35413 -0.192 0.025168 0.049885 0.34676 -0.065027 0.12548 -0.053507 -0.36829 0.2963 -0.15693 -0.27902 -0.3293 -0.12216 -0.1636 0.20926 -0.00739 0.18629 0.18564 0.010505 -0.073893 0.15641 -0.007785 0.10291 0.016329 0.1307 -0.34076 0.1067 0.21835 0.31813 0.23675 0.14544 0.067946 0.24034 -0.20347 -0.14882 -0.32207 0.15049 0.066065 -0.1793 0.22849 0.15239 -0.031518 0.13782 -0.39116 -0.039527 0.37147 -0.4121 -0.25993 -0.054434 -0.32015 0.074494 0.09643 0.39273 0.28624 0.4278 0.17517 -0.073794 0.1707 0.1097 0.20023 0.2052 -0.064539 0.20078 
못|MAG -0.24654 -0.12948 -0.069987 -0.030966 0.086956 -0.36687 0.19867 -0.052643 0.32063 0.12086 0.050115 0.32713 0.068727 0.050713 0.087828 0.15489 -0.10693 0.19973 -0.012367 -0.13204 0.14359 0.05375 -0.031662 -0.24661 0.15413 0.056358 -0.090356 0.21917 0.24882 0.13257 0.17964 0.0073831 0.18651 0.6307 0.33496 0.20142 -0.015323 0.17031 -0.046095 -0.073035 -0.1012 -0.26837 -0.096162 -0.41921 -0.091856 0.086414 -0.29534 -0.024403 0.37329 -0.22717 0.54543 -0.16631 0.087004 -0.088636 -0.33476 0.11853 -0.13448 -0.54185 -0.25147 -0.00658 -0.026192 0.07186 0.13624 -0.057523 0.010818 -0.096816 0.010054 0.26888 0.465 -0.052939 0.12947 -0.2515 -0.25698 0.033737 -0.09991 -0.091652 0.12286 0.010139 0.10672 0.151 -0.077332 0.23613 -0.071848 -0.076669 -0.1476 0.12364 0.03567 -0.069031 -0.23741 0.015476 0.088362 -0.28757 -0.28021 -0.13774 0.027716 0.083141 0.1275 -0.099396 -0.058093 0.30661 
통화|NNG -0.24679 -0.19081 0.21654 0.052878 0.068148 -0.057401 0.14433 0.1127 -0.19833 -0.2329 0.12864 -0.1644 -0.035897 -0.31648 -0.061324 0.10036 0.047436 0.077931 0.17491 -0.02765 0.11755 -0.36281 -0.099131 0.18467 -0.12227 -0.028532 -0.26061 0.029896 -0.043248 -0.2403 0.23896 0.3246 0.079132 0.18077 0.028671 -0.12181 0.054371 0.02998 -0.040966 0.13486 -0.0055373 -0.15776 -0.35146 -0.36488 -0.10196 -0.31527 -0.2612 -0.029615 0.064079 -0.13467 0.27687 -0.13663 0.11115 0.097072 -0.22323 0.19718 0.25036 0.19078 -0.023947 -0.10126 -0.085576 -0.0022677 -0.03916 -0.099463 -0.10531 0.020694 0.03374 -0.24766 -0.20636 -0.066927 -0.15217 0.15089 0.31058 0.031947 -0.17046 0.33935 0.22789 -0.2537 -0.49474 0.13284 0.33898 -0.18476 -0.11595 0.21943 0.24283 -0.092294 0.2015 0.0161 0.021443 -0.10346 -0.36145 -0.39567 -0.0075943 0.33935 0.055762 -0.090944 -0.085293 0.063334 -0.024298 -0.028311 
상담|NNG -0.28677 -0.27076 0.29832 0.16573 0.16597 0.0048552 0.15007 0.15295 -0.27023 -0.34047 0.15763 -0.17231 -0.12033 -0.32906 -0.11883 0.066134 0.11154 0.072967 0.2569 -0.006605 0.14537 -0.47198 -0.11873 0.25382 -0.15453 -0.019657 -0.30693 0.095286 -0.081781 -0.36215 0.30828 0.486 0.12488 0.19234 0.044842 -0.080751 0.043897 0.0023378 -0.090344 0.19907 -0.010405 -0.18912 -0.47026 -0.44711 -0.082937 -0.48818 -0.34362 0.033161 0.095842 -0.14268 0.33523 -0.18469 0.10428 0.097732 -0.29327 0.19908 0.35412 0.32853 -0.064115 -0.14676 -0.15205 -0.047128 0.0041066 -0.12453 -0.19038 0.027007 0.015388 -0.38381 -0.35838 -0.10852 -0.23501 0.26682 0.48984 0.026383 -0.22994 0.49194 0.30877 -0.34967 -0.70937 0.18287 0.5055 -0.21079 -0.18782 0.355 0.40365 -0.12339 0.29695 -0.0036449 0.015318 -0.16772 -0.5317 -0.54882 0.013783 0.48072 0.05193 -0.18006 -0.14239 0.10867 -0.03468 -0.12291 
한가요|XSA+EC 0.18693 0.041168 -0.12853 0.058163 0.027192 -0.06581 -0.0036783 0.065657 0.070904 -0.22917 -0.1294 0.254 0.011506 0.44421 0.055119 -0.10575 0.17636 0.0982 0.23645 0.11346 -0.31147 0.30923 -0.13978 -0.053623 -0.17115 0.05354 0.18343 -0.06557 -0.1615 0.21339 -0.15214 0.23528 0.09173 -0.057793 -0.042294 0.068626 0.17612 -0.15674 -0.12461 0.14216 -0.024917 -0.0056303 -0.0068089 0.22597 0.16453 -0.13443 0.1057 0.31489 0.036946 0.24435 -0.40134 0.12877 -0.0545 -0.070429 0.085024 -0.16292 0.18378 0.091945 -0.096532 -0.11938 0.10315 -0.084081 0.49981 0.16755 -0.22383 -0.084682 0.15118 -0.040689 -0.18917 0.056165 0.077574 0.29583 0.21285 -0.092989 0.2487 0.28239 -0.19921 0.19659 0.073117 0.15372 0.11585 -0.23487 -0.080872 0.076191 0.32285 0.23474 0.16274 0.078829 0.082439 -0.41802 -0.060515 -0.14186 0.11231 0.088331 -0.13264 -0.14712 -0.14595 0.014503 -0.18908 -0.20278 
할까요|XSA+EC 0.050997 0.040725 -0.053968 -0.031855 -0.012896 0.017455 -0.031282 0.03145 0.0026054 -0.036257 -0.06775 0.038603 0.0061632 0.11883 -0.002808 -0.056166 0.053919 0.00037959 0.062783 0.057891 -0.09299 0.095624 -0.072225 -0.0021126 -0.08235 0.016833 0.036216 -0.033912 -0.066807 0.044252 -0.09113 0.05421 0.050191 -0.04192 -0.028828 -0.0030236 0.03268 -0.023122 -0.034115 0.060421 -0.044522 0.025673 0.0027864 0.10564 0.053565 -0.013358 0.088846 0.080034 0.0027358 0.092658 -0.13728 0.040488 0.014139 -0.027539 0.039695 -0.022346 0.044224 0.057049 0.010534 -0.027339 0.05653 -0.021648 0.1651 0.03411 -0.085925 -0.044637 0.014411 -0.010872 -0.085476 -0.012513 0.078962 0.095117 0.093126 -0.045162 0.087868 0.098062 -0.072923 0.060908 0.050117 0.012648 0.0485 -0.10871 -0.053536 -0.017398 0.086304 0.1008 0.024867 0.0374 0.051514 -0.14866 -0.0044427 -0.023706 0.069943 0.0066274 -0.059911 -0.030832 -0.054964 0.011184 -0.065586 -0.079501 
할|XSV+ETM 0.14848 -0.10365 -0.060764 0.11315 -0.01754 0.044147 -0.060392 -0.016986 0.062294 -0.18162 -0.11561 0.18675 -0.028604 0.30394 0.060415 -0.060571 0.10547 0.0033524 0.16375 0.10372 -0.17857 0.12668 -0.11383 0.063872 -0.12854 0.05145 0.20768 0.055441 -0.072791 0.040659 -0.023146 0.11619 0.091427 -0.022433 -0.021477 0.091336 0.16185 -0.14679 -0.04573 0.098586 0.082297 0.015863 0.091356 0.10016 0.18418 -0.13276 0.069735 0.24218 -0.0040387 0.14452 -0.2349 0.065515 -0.049041 -0.11218 -0.016785 -0.13694 0.029502 0.082467 -0.10941 -0.061282 0.04462 -0.068346 0.27908 0.18349 -0.24647 0.0025969 0.061055 -0.040686 -0.10872 -0.041854 0.067104 0.28643 0.20453 -0.058863 0.13379 0.082992 -0.070635 0.16121 0.03404 0.10005 0.12044 -0.13188 -0.06022 0.026357 0.23084 0.23283 0.1641 0.0055885 0.086421 -0.2025 -0.086615 -0.07661 0.10348 -0.024317 -0.10504 -0.11722 -0.089809 -0.033059 -0.048263 -0.1366 
관련|NNG 0.060441 0.18003 0.032807 -0.086611 0.014303 0.088042 -0.067292 -0.0067153 -0.052348 0.10308 0.11497 -0.10365 0.014309 -0.10991 -0.059101 0.089992 -0.064119 -0.094252 -0.028701 -0.12483 0.12778 -0.026578 0.18359 -0.04126 0.088789 -0.041164 -0.10133 -0.034016 -0.046175 -0.074643 0.021809 -0.11281 -0.11093 -0.1168 -0.095755 0.0019573 -0.17781 -0.052005 0.018416 -0.063472 -0.0038727 0.024496 -0.03187 0.15032 -0.0058111 -0.00088688 -0.057032 -0.1021 -0.11606 0.0084072 -0.0090511 -0.047004 -0.11131 0.12187 0.17947 0.023112 0.024991 0.1233 0.11654 -0.0026774 -0.019737 -0.020703 0.014156 -0.1252 0.071496 0.018275 -0.027779 -0.03098 -0.011437 0.08063 -0.05547 -0.034282 -0.039991 0.0037082 0.051418 -0.09993 -0.087772 -0.088674 0.019941 -0.14644 -0.1137 0.1011 0.034726 0.025815 -0.0088949 -0.093044 -0.10293 0.020262 -0.034891 0.05051 -0.01479 0.11035 0.036671 0.0013361 0.052901 0.019947 -0.046271 0.054428 -0.0153 -0.090989 
날|NNG 0.11424 0.029845 -0.11793 0.048019 0.0071044 -0.11078 0.05991 0.0555 0.07988 -0.19158 -0.041053 0.2127 0.049606 0.30827 0.067884 -0.00080288 0.11132 0.14583 0.20479 0.026798 -0.21972 0.23323 -0.061852 -0.080975 -0.11155 0.00019112 0.13094 -0.071769 -0.10493 0.19651 -0.050374 0.17332 -0.0088903 -0.019067 -0.039852 -0.0032633 0.1634 -0.14003 -0.095134 0.079758 0.044003 -0.055284 -0.027649 0.14161 0.050093 -0.11873 0.0030864 0.19834 0.013011 0.17369 -0.29941 0.11258 -0.075975 0.013282 0.080031 -0.13542 0.16963 0.04097 -0.083531 -0.075033 0.053874 -0.039475 0.3504 0.12313 -0.12468 -0.025781 0.21287 -0.025606 -0.070605 0.12965 -0.012499 0.17736 0.089011 -0.057695 0.19926 0.17509 -0.13661 0.14135 0.027035 0.1647 -0.0021868 -0.15989 -0.011441 0.070673 0.22565 0.10724 0.16379 0.078668 0.061345 -0.28496 -0.052608 -0.12185 0.031664 0.093391 -0.066761 -0.10038 -0.094227 0.032898 -0.14649 -0.084683 
냐|EC -0.32633 0.21319 -0.28801 -0.31359 0.22769 -0.46267 0.39658 0.12296 0.34941 0.08872 -0.01232 0.2425 0.13143 -0.19932 0.069378 0.43106 0.22225 -0.0009363 0.05222 -0.14114 -0.20835 0.32953 0.10138 -0.34777 0.17764 0.014524 0.078451 0.17006 0.073457 0.51411 0.10106 0.33119 0.048455 0.28804 0.028587 0.1669 0.2997 -0.21073 -0.32501 0.24311 0.17706 -0.38398 -0.075382 -0.30844 -0.31424 0.25971 -0.51856 -0.054481 0.060676 -0.3248 0.25702 0.030372 -0.036252 -0.018249 -0.14302 -0.047668 -0.057715 -0.074612 -0.41803 -0.045856 -0.1467 0.1242 0.037533 0.085434 0.059273 0.28854 0.036517 0.27275 0.15456 0.21936 -0.12566 -0.14145 -0.38629 0.18432 -0.053947 0.18204 0.49528 0.12869 -0.12804 0.37888 -0.2046 0.19308 0.25178 -0.44281 -0.056722 0.29502 -0.40671 -0.044261 -0.24222 0.27784 0.37678 0.05476 0.17928 -0.023243 0.1501 -0.11504 0.16848 0.21349 -0.36315 0.14426 
내용|NNG 0.22745 0.15482 0.37862 -0.020375 0.17197 0.082735 -0.30432 0.019745 -0.22124 0.14093 0.097104 -0.082236 -0.30428 -0.19213 -0.24117 0.015413 -0.10832 -0.30151 0.029304 0.13106 0.11789 -0.037771 0.24577 -0.075533 0.0048402 0.20253 0.0067774 -0.081703 -0.12123 -0.23339 0.18519 -0.10482 -0.039219 -0.048509 0.24609 0.23279 -0.43505 -0.021443 -0.066422 -0.038289 -0.32858 0.025413 -0.052867 0.1827 0.11059 -0.22132 0.076334 0.059028 -0.015956 -0.088374 0.15844 -0.23901 -0.18309 0.017854 0.25642 0.14005 0.025847 0.15319 0.083532 -0.0079448 -0.15474 -0.078921 -0.071944 -0.32194 0.29246 0.036683 -0.18708 -0.21264 -0.19915 0.10671 0.094611 0.049428 0.032394 0.020559 -0.13997 0.025396 -0.12898 -0.37609 -0.027767 -0.19013 0.069927 0.072196 -0.12205 0.426 0.14063 -0.02226 -0.26099 0.062053 -0.11196 0.18166 -0.037456 0.13554 -0.11532 0.16125 0.049145 0.12098 -0.13612 -0.22402 -0.092287 -0.26807 
는데|EC 0.034394 -0.19621 0.171 0.08619 0.12065 -0.16707 -0.045936 0.11614 -0.072108 -0.13431 -0.23091 0.091087 -0.23527 0.098848 -0.095075 -0.2858 0.1427 0.009972 0.079697 0.44164 -0.35371 0.14729 -0.25327 0.015043 -0.21466 0.20732 0.20696 -0.11494 -0.046395 0.11178 -0.083735 0.27877 0.17122 0.090671 0.33507 0.10605 0.083788 0.1395 -0.17144 0.17478 -0.29518 0.00044519 -0.013838 -0.10247 0.023034 -0.088525 0.29422 0.24344 0.20929 -0.056014 -0.027004 0.054546 0.16629 -0.20849 -0.10497 0.042955 0.034453 -0.098105 -0.11883 -0.00099221 -0.046339 -0.002295 -0.12474 0.023729 0.10583 -0.049406 -0.10004 -0.06982 -0.20497 -0.067978 0.17116 0.016246 0.051195 0.023868 -0.22498 0.4179 0.079448 -0.046228 -0.043597 0.2175 0.28658 -0.2553 -0.11257 0.19125 0.049294 0.11101 -0.014732 0.070816 0.019372 0.013579 0.11228 -0.084545 -0.075763 0.22365 -0.091613 0.0065807 -0.012272 -0.25291 -0.075868 0.0080786 
하|XSA -0.22757 0.16668 -0.29993 -0.14684 0.20936 -0.29948 0.33334 0.054453 0.32358 0.052643 0.019407 0.26145 0.13357 -0.0062329 0.074347 0.31624 0.18497 0.042715 0.04292 -0.16109 -0.17005 0.29094 0.1005 -0.29967 0.21238 -0.024788 0.075261 0.16233 0.065417 0.41769 0.03569 0.27811 0.024531 0.18029 -0.0087162 0.16932 0.2255 -0.196 -0.26952 0.1699 0.1903 -0.31037 -0.0641 -0.17514 -0.20765 0.17366 -0.46019 -0.024461 0.046063 -0.18492 0.14076 0.049359 -0.10911 0.019306 -0.098407 -0.14469 -0.011552 -0.071478 -0.32165 -0.049737 -0.12504 0.086129 0.090025 0.1003 0.00047006 0.21462 0.058642 0.2268 0.16658 0.19935 -0.18138 -0.12409 -0.34254 0.11849 0.0043692 0.099966 0.34849 0.13222 -0.092555 0.29205 -0.22361 0.23657 0.2423 -0.34039 -0.022644 0.1615 -0.24834 -0.088975 -0.23193 0.16613 0.26604 0.015168 0.13546 -0.036812 0.12053 -0.15862 0.13896 0.235 -0.24685 0.098332 
상|NNG -0.21463 -0.27782 0.25672 0.1296 0.11705 -0.085664 0.094293 0.10284 -0.16618 -0.26344 0.094353 -0.054 -0.12115 -0.24239 -0.064411 0.05029 0.054191 0.062365 0.20554 0.055094 0.085121 -0.35598 -0.13844 0.19001 -0.15489 0.051134 -0.17163 0.088666 -0.021111 -0.2674 0.30248 0.35173 0.13471 0.29061 0.16347 -0.01311 0.047848 0.030585 -0.056105 0.14568 -0.051984 -0.17008 -0.29798 -0.42693 -0.059748 -0.36253 -0.22757 0.039289 0.12909 -0.16024 0.32899 -0.16704 0.12503 0.022471 -0.27986 0.19367 0.20039 0.1267 -0.09099 -0.087599 -0.10207 -0.019057 -0.038175 -0.080566 -0.098674 0.013517 0.014654 -0.23072 -0.1714 -0.10431 -0.10132 0.16545 0.32492 0.029552 -0.21074 0.32039 0.25194 -0.25259 -0.47898 0.17454 0.37886 -0.18248 -0.16435 0.26582 0.25717 -0.020334 0.21114 0.0058848 0.014153 -0.082496 -0.35351 -0.40676 -0.062388 0.32123 0.037777 -0.054522 -0.087663 -0.038019 -0.023833 -0.034804 
됐|VV+EP -0.017593 0.031006 0.032873 -0.24194 -0.36639 -0.17397 0.041729 0.081911 -0.17921 -0.061997 0.026619 -0.36628 0.13321 -0.63549 0.15286 0.22073 -0.073333 -0.025232 -0.076006 0.00037438 -0.023977 -0.1456 0.073929 0.12234 -0.18913 -0.078064 0.05757 -0.28575 -0.047065 0.028787 0.17908 -0.21922 -0.38002 -0.29184 -0.28057 -0.50213 0.33115 -0.11327 0.21913 -0.061866 0.31164 0.090232 0.23249 -0.04062 -0.30643 0.17751 0.12802 -0.28294 -0.42041 -0.07497 -0.26208 0.21447 0.074946 0.20434 0.25772 0.12214 -0.12717 0.17335 0.14322 0.19867 0.068715 0.11623 -0.55512 0.070306 0.32653 0.29948 0.30529 0.011708 0.047382 0.16831 -0.1387 -0.11345 -0.19886 0.13924 0.014119 -0.31458 0.090919 0.090769 0.023019 0.05257 -0.34752 -0.23699 0.29539 -0.2023 -0.29345 -0.16318 -0.19275 0.14474 0.29247 0.4403 0.15076 0.49271 0.025788 -0.057812 0.14762 0.30284 0.16408 -0.011633 0.10207 0.22668 
라고|VCP+EC -0.058083 -0.16184 0.13854 0.035477 -0.01622 -0.14643 -0.032755 -0.021837 0.029378 0.036231 0.013252 0.063755 -0.046997 -0.080086 0.011559 -0.00076466 -0.13635 0.05679 -0.0045218 0.047061 0.12302 -0.10466 -0.054366 -0.02159 -0.033002 0.095945 -0.028805 0.041426 0.11969 -0.081637 0.16879 -0.08958 0.082042 0.30204 0.23072 0.049185 -0.070473 0.14633 0.056457 -0.07852 -0.10521 -0.056004 -0.005365 -0.21387 -0.0042645 -0.034151 0.007692 -0.010789 0.16479 -0.12523 0.29418 -0.11974 0.08365 -0.069665 -0.14598 0.15096 -0.10036 -0.26754 -0.043386 0.03361 -0.014927 0.018315 -0.079374 -0.089159 0.07689 -0.067654 -0.00083997 0.059333 0.19931 -0.084798 0.12227 -0.10861 -0.056168 0.0097653 -0.10314 -0.1009 -0.017112 -0.070882 0.062958 0.0037452 0.019498 0.035046 -0.096218 0.089757 -0.098977 -0.00090933 0.037609 0.0072892 -0.043503 0.060408 -0.016695 -0.10138 -0.22412 -0.051448 -0.0023342 0.15293 0.03528 -0.19373 0.059576 0.15742 
연결|NNG -0.22305 -0.048707 0.082738 0.062046 0.12765 0.031219 0.19768 0.13323 -0.18691 -0.25916 0.15282 -0.17512 0.012053 -0.23731 -0.061502 0.12583 0.14919 0.052355 0.17341 -0.11228 0.037049 -0.27041 -0.025833 0.1655 -0.064688 -0.1281 -0.24088 0.01541 -0.11089 -0.14685 0.13061 0.4084 -0.0045652 -0.044581 -0.14913 -0.156 0.1174 -0.090481 -0.097614 0.19562 0.12063 -0.15305 -0.36449 -0.23253 -0.14041 -0.27829 -0.33029 -0.049396 -0.064127 -0.052957 0.082081 -0.042665 0.014367 0.14353 -0.12025 0.061691 0.32978 0.38796 -0.031674 -0.12567 -0.10649 -0.010248 0.028166 -0.03709 -0.17206 0.082561 0.081011 -0.26673 -0.33665 0.035454 -0.30325 0.2226 0.3212 0.030095 -0.074176 0.42398 0.26307 -0.18096 -0.55914 0.18036 0.28829 -0.16641 -0.014309 0.14695 0.32681 -0.12354 0.1786 -0.00074244 0.020167 -0.13304 -0.35477 -0.33748 0.16902 0.37431 0.089274 -0.22505 -0.087762 0.26003 -0.087764 -0.14386 
왔|VV+EP 0.11529 0.041554 0.23946 -0.0084215 0.098496 -0.046117 -0.15564 0.028618 -0.11162 0.045276 0.024487 -0.0098641 -0.19432 -0.112 -0.1309 -0.022205 -0.036567 -0.12821 0.025177 0.14984 0.012122 0.0066162 0.097233 -0.066988 -0.031709 0.14942 0.034083 -0.067926 -0.053916 -0.090986 0.12498 -0.015436 -0.0045386 0.029786 0.21231 0.13847 -0.2065 0.025999 -0.071702 -0.01485 -0.23417 0.00089537 -0.036923 0.039381 0.037834 -0.12395 0.080071 0.04602 0.042988 -0.077122 0.094659 -0.1222 -0.064982 -0.021248 0.10862 0.10876 0.010528 0.021155 0.011739 0.012472 -0.10102 -0.026341 -0.090418 -0.18206 0.22512 0.0094223 -0.08981 -0.10056 -0.10229 0.053019 0.075092 -0.0049801 -0.016943 0.032815 -0.12838 0.082168 -0.039734 -0.22258 -0.019998 -0.031039 0.064989 0.0021168 -0.06816 0.27046 0.059638 0.0037515 -0.15787 0.050491 -0.061565 0.12544 0.019757 0.049661 -0.11741 0.12899 0.021465 0.095653 -0.050367 -0.18597 -0.058671 -0.11221 
방가|NNG 0.15534 0.042935 -0.15904 0.33039 9.7945e-06 0.50037 -0.063555 -0.19911 -0.04789 0.053508 0.18641 -0.047266 0.12949 0.46401 0.0043199 -0.17602 -0.073365 0.15734 -0.18618 -0.33431 0.22025 -0.085324 0.20126 0.064457 0.33261 -0.30021 -0.15648 0.02889 0.042674 -0.13874 -0.27289 -0.18184 -0.21963 -0.44406 -0.34312 -0.081015 -0.21304 0.014438 0.14423 -0.24695 0.16869 0.18579 -0.052875 0.40151 0.15439 -0.062365 -0.026157 -0.060785 -0.11481 0.35105 -0.29863 0.066874 -0.24135 0.20825 0.14675 -0.34941 0.15656 0.065875 0.2728 -0.045859 0.0031437 -0.065482 0.12082 0.023861 -0.16195 -0.16385 0.043101 -0.080993 0.040559 0.064999 -0.35851 -0.031309 0.01014 -0.14251 0.16816 -0.23501 -0.28074 0.044841 0.035625 -0.25704 -0.17183 0.32467 0.10493 0.17186 0.033338 -0.4899 0.36262 -0.17486 -0.066538 -0.20603 -0.24336 -0.070735 -0.020702 -0.052312 0.007106 -0.25676 -0.045958 0.2532 0.29083 -0.10298 
담사|NNG -0.20557 -0.29087 0.26113 0.12669 0.12675 -0.081657 0.095652 0.087064 -0.17123 -0.25787 0.084597 -0.054109 -0.12007 -0.24141 -0.066214 0.056049 0.036861 0.061112 0.20697 0.062657 0.10202 -0.3557 -0.14479 0.17756 -0.1619 0.053285 -0.17982 0.090589 -0.036494 -0.27196 0.28957 0.34961 0.14041 0.28603 0.15624 -0.024889 0.046363 0.030176 -0.061827 0.14356 -0.051897 -0.17129 -0.31355 -0.41441 -0.047839 -0.3558 -0.23628 0.039822 0.11854 -0.15783 0.3391 -0.15904 0.12182 0.016843 -0.27623 0.2008 0.19081 0.12696 -0.097642 -0.086886 -0.10466 -0.014793 -0.040964 -0.094057 -0.1146 0.011414 0.011766 -0.24122 -0.17873 -0.10903 -0.10446 0.17455 0.32512 0.045687 -0.21788 0.32583 0.24888 -0.2426 -0.47862 0.16048 0.3691 -0.18175 -0.16469 0.2602 0.25683 -0.028824 0.21404 -0.0014946 0.0075594 -0.078925 -0.35015 -0.42119 -0.068976 0.31807 0.028354 -0.060521 -0.082625 -0.034773 -0.034885 -0.028895 
해요|XSA+EC 0.020576 0.14473 -0.019429 -0.1452 -0.044542 0.21792 -0.14619 0.008056 -0.073397 0.12222 -0.10755 -0.22443 -0.0079025 -0.05746 -0.086608 -0.16805 0.020053 -0.19552 -0.097834 0.075726 -0.018123 -0.0033137 -0.092116 0.131 -0.042181 -0.013618 -0.054349 -0.041822 -0.06079 -0.052584 -0.23601 -0.097693 0.11096 -0.13812 -0.097754 -0.026511 -0.091735 0.05842 0.030188 0.065824 -0.099292 0.1809 0.056604 0.13091 0.069949 0.18163 0.22285 -0.055877 -0.073809 0.033116 -0.053946 0.012292 0.12575 -0.069471 0.030769 0.063603 -0.062341 0.15663 0.14901 0.031677 0.11346 -0.017014 -0.038233 -0.02521 -0.082916 -0.064267 -0.23278 0.01324 -0.15726 -0.16565 0.18508 0.025125 0.10508 -0.037716 0.043311 0.04736 -0.03187 0.0038976 0.076035 -0.20924 0.10677 -0.087497 -0.078189 -0.24354 -0.098868 0.12547 -0.15653 0.031761 0.097375 -0.048239 0.09348 0.13285 0.22375 -0.083831 -0.07726 0.016347 -0.04365 0.063425 -0.0043253 -0.11416 
보험료|NNG 0.084094 0.13599 0.19149 -0.060422 0.071568 0.020905 -0.14036 0.0081121 -0.1056 0.11107 0.11975 -0.078729 -0.10875 -0.19098 -0.13424 0.072189 -0.095101 -0.14345 -0.0053329 -0.01077 0.14187 -0.068756 0.19596 -0.0638 0.051322 0.07348 -0.078827 -0.042087 -0.044376 -0.14184 0.12982 -0.1131 -0.083079 -0.012892 0.091041 0.080266 -0.26529 0.0095793 -0.016748 -0.062746 -0.15507 0.0015171 -0.043923 0.08535 0.0022453 -0.087087 -0.033219 -0.052085 -0.029992 -0.061035 0.12708 -0.14639 -0.10535 0.064337 0.16901 0.10053 0.023007 0.078919 0.079727 0.015433 -0.078213 -0.0158 -0.059447 -0.20373 0.18445 0.030724 -0.082683 -0.093474 -0.050074 0.09424 0.00035241 -0.027929 -0.033232 0.015106 -0.061528 -0.046189 -0.069726 -0.21233 -0.014007 -0.12914 -0.037712 0.092344 -0.040994 0.20337 0.035291 -0.062792 -0.16818 0.03082 -0.067279 0.13794 -0.020995 0.094996 -0.06741 0.083719 0.057437 0.091742 -0.066589 -0.083706 -0.042376 -0.12264 
괜찮|VA -0.058482 -0.017008 0.090788 -0.2514 -0.44202 -0.16093 0.014145 0.059647 -0.22103 0.0024164 0.045319 -0.45039 0.16449 -0.72617 0.1533 0.19428 -0.17874 -0.0035599 -0.12799 -0.033705 0.1038 -0.24848 0.049337 0.15316 -0.20369 -0.095804 -0.043012 -0.31791 -0.0035598 -0.076624 0.18557 -0.35865 -0.36623 -0.24373 -0.25665 -0.58238 0.25682 0.011427 0.32188 -0.14722 0.26618 0.12941 0.24729 -0.078022 -0.33555 0.21982 0.19374 -0.36395 -0.39419 -0.099998 -0.16101 0.18962 0.16447 0.2097 0.22542 0.24677 -0.17487 0.096126 0.25468 0.23237 0.12229 0.14044 -0.62588 0.0066311 0.37035 0.2203 0.28834 0.033735 0.10747 0.093492 -0.051053 -0.20406 -0.18378 0.1164 0.019372 -0.41875 0.011572 0.054909 0.085037 -0.056687 -0.32595 -0.2646 0.23003 -0.22268 -0.41451 -0.19939 -0.17443 0.16774 0.33726 0.42425 0.14361 0.5089 -0.035104 -0.10645 0.12724 0.41286 0.17232 -0.090016 0.18097 0.29541 
된|XSV+ETM 0.1091 0.041918 0.32436 0.0054067 0.12338 -0.03719 -0.18757 0.017995 -0.14765 0.087106 0.092847 -0.039275 -0.22838 -0.20578 -0.17601 0.029993 -0.10964 -0.16928 0.013289 0.095433 0.12282 -0.075735 0.16956 -0.078475 0.00013367 0.16861 -0.023981 -0.038591 -0.038992 -0.1953 0.20045 -0.068855 -0.037762 0.079589 0.25746 0.17622 -0.31656 0.040242 -0.049102 -0.061797 -0.25165 -0.017486 -0.062435 0.027901 0.030085 -0.16986 0.014591 0.011874 0.059104 -0.13371 0.22576 -0.19765 -0.10963 -0.0063208 0.13511 0.16017 0.0025663 0.022782 0.033025 0.019187 -0.14529 -0.026064 -0.10691 -0.25509 0.25975 0.023184 -0.12712 -0.13517 -0.084229 0.063252 0.055837 -0.019325 -0.014719 0.044956 -0.15522 0.01916 -0.061838 -0.29428 -0.052794 -0.088395 0.049225 0.060152 -0.092692 0.35082 0.069348 -0.052218 -0.17953 0.052603 -0.10007 0.18703 -0.022324 0.040046 -0.17369 0.13263 0.04705 0.13261 -0.070271 -0.21447 -0.059049 -0.1294 
이후|NNG -0.013232 0.18278 0.096283 -0.23515 -0.039234 0.41828 -0.29253 -0.0195 -0.18062 0.31259 -0.16422 -0.44854 -0.099836 -0.27117 -0.1846 -0.27076 -0.047299 -0.4299 -0.27 0.15616 0.093484 -0.18618 -0.12006 0.26042 -0.029511 0.027629 -0.13316 -0.019059 -0.029326 -0.23728 -0.2985 -0.23737 0.20845 -0.15195 -0.084895 0.0056236 -0.27054 0.18192 0.10114 0.066512 -0.20847 0.30562 0.11779 0.10147 0.10264 0.31518 0.36228 -0.16895 -0.09788 -0.072679 0.1376 -0.081789 0.23944 -0.13683 -0.019251 0.18915 -0.22978 0.20984 0.25106 0.087556 0.12132 -0.0057181 -0.27826 -0.12204 -0.06606 -0.088682 -0.5207 0.037931 -0.21538 -0.34183 0.33098 -0.065407 0.14589 -0.013614 -0.10252 -0.0095597 0.049834 -0.10671 0.091936 -0.43772 0.22158 -0.026153 -0.14701 -0.38108 -0.27455 0.1485 -0.34944 -0.0035842 0.096288 0.098446 0.17355 0.25977 0.30767 -0.18393 -0.075106 0.092902 -0.017495 0.027867 0.09949 -0.12056 
죠|VCP+EC 0.027129 -0.1088 0.13156 0.042303 0.067428 -0.10449 -0.038237 0.075415 -0.064391 -0.067888 -0.12699 0.049849 -0.14512 0.016996 -0.059284 -0.14016 0.064609 -0.0060735 0.039865 0.2363 -0.1723 0.056814 -0.11588 -0.0035497 -0.10793 0.13598 0.10896 -0.060114 -0.028183 0.025079 -0.02213 0.12426 0.094726 0.062469 0.21098 0.068089 0.02 0.088899 -0.080431 0.090064 -0.19329 -0.0043273 -0.018323 -0.064203 0.023323 -0.061293 0.1557 0.1226 0.1165 -0.061287 0.016937 -0.00028121 0.079326 -0.11261 -0.059002 0.059016 0.016467 -0.064118 -0.060823 -0.0028696 -0.036686 -0.0035449 -0.084972 -0.015473 0.098704 -0.033172 -0.069818 -0.05515 -0.11029 -0.035563 0.094723 -0.0081006 0.0075092 0.0183 -0.15161 0.2023 0.040951 -0.05547 -0.021763 0.11265 0.15716 -0.13191 -0.069477 0.14528 0.028446 0.043783 -0.029869 0.040541 -0.00539 0.028529 0.066822 -0.031439 -0.071942 0.126 -0.047882 0.025129 -0.0055071 -0.16781 -0.035316 -0.0067086 
변경|NNG 0.085677 0.10284 -0.13128 -0.043442 -0.015993 0.02425 -0.00077089 0.045993 0.036396 -0.083524 -0.073149 0.048956 0.051494 0.2239 0.017823 -0.061551 0.10014 0.023775 0.10342 0.020982 -0.17107 0.19452 -0.075562 -0.012381 -0.094861 -0.024788 0.07325 -0.070114 -0.10997 0.13632 -0.18129 0.080603 0.027053 -0.11348 -0.12533 -0.01786 0.087207 -0.073414 -0.045813 0.086745 -0.0022655 0.033485 0.0068014 0.19597 0.061098 0.0091717 0.10165 0.10668 -0.047667 0.17611 -0.28403 0.11849 -0.010506 0.00085272 0.096646 -0.091415 0.10811 0.11701 0.0041362 -0.043663 0.093599 -0.036898 0.25929 0.097967 -0.13414 -0.041413 0.066999 -0.011053 -0.12344 0.032105 0.036922 0.14217 0.12031 -0.067074 0.18155 0.13037 -0.11547 0.13963 0.058263 0.029117 0.022734 -0.13827 -0.0091408 -0.065034 0.14385 0.10796 0.046815 0.049644 0.091428 -0.23923 0.0051148 -0.014687 0.15476 0.021418 -0.079574 -0.084685 -0.090095 0.071708 -0.11129 -0.12555 
더|MAG -0.1114 -0.12065 0.049485 -0.0062876 -0.072911 -0.14465 0.020417 -0.053887 0.086201 0.093868 0.047073 0.051203 0.041456 -0.059019 0.034666 0.019866 -0.16996 0.11993 -0.051746 -0.046562 0.20467 -0.10673 -0.042351 -0.053512 0.016698 0.023889 -0.13621 0.040039 0.1533 -0.067338 0.11185 -0.14964 0.067836 0.34036 0.19442 0.0045786 -0.089874 0.2063 0.11188 -0.1311 -0.10562 -0.064617 -0.034659 -0.23226 -0.052122 0.046589 -0.025516 -0.10348 0.18079 -0.10991 0.31521 -0.12068 0.12006 -0.02001 -0.16805 0.1691 -0.096353 -0.33206 0.01133 0.044772 0.04136 0.036855 -0.034229 -0.10538 0.081462 -0.1283 -0.00040483 0.11847 0.2868 -0.099273 0.14012 -0.1998 -0.095908 -0.011468 -0.060709 -0.16894 -0.05949 -0.036566 0.12702 -0.04545 -0.041754 0.061605 -0.092019 -0.008742 -0.18943 -0.033778 0.071706 -9.2423e-05 -0.057708 -0.0020691 0.00042939 -0.12262 -0.24836 -0.10886 0.001952 0.17356 0.067596 -0.14589 0.083292 0.23676 
한번|MAG -0.12552 -0.10873 0.063559 -0.013848 -0.069789 -0.14381 0.014738 -0.043845 0.084411 0.085336 0.053898 0.061326 0.05123 -0.056432 0.046263 0.014025 -0.17249 0.13185 -0.045079 -0.050856 0.18543 -0.098615 -0.036755 -0.048187 0.031513 0.024146 -0.12564 0.044923 0.14995 -0.063911 0.11573 -0.15283 0.073892 0.34112 0.18097 0.00085832 -0.094137 0.20071 0.1111 -0.13403 -0.10013 -0.050677 -0.037917 -0.22101 -0.039476 0.049706 -0.025702 -0.08792 0.18474 -0.096221 0.32071 -0.12126 0.11964 -0.014128 -0.15795 0.17418 -0.1106 -0.33764 0.0012589 0.043114 0.038814 0.049434 -0.042212 -0.0983 0.081393 -0.12225 0.0087639 0.11733 0.28143 -0.095572 0.13343 -0.20866 -0.10211 -0.0082602 -0.049191 -0.16457 -0.046958 -0.045219 0.12166 -0.04656 -0.042076 0.068983 -0.088961 -0.0056015 -0.19472 -0.035378 0.063207 -0.0030724 -0.045279 0.0030612 -0.016573 -0.12693 -0.2365 -0.10162 -0.0052745 0.18103 0.064066 -0.1415 0.080189 0.23188 
바꿔도|VV+EC 0.12071 0.099344 -0.13827 -0.016686 -0.0098119 -0.0026165 -0.0090959 0.047772 0.039145 -0.13881 -0.094187 0.11399 0.045523 0.29565 0.028137 -0.075956 0.13216 0.07019 0.15526 0.052649 -0.23516 0.25452 -0.082604 -0.01597 -0.1161 -0.00029667 0.10965 -0.088547 -0.14442 0.16599 -0.1718 0.14475 0.026207 -0.1065 -0.11774 -0.008484 0.13056 -0.11534 -0.076129 0.10186 0.0098585 0.031999 -0.0091746 0.21271 0.098073 -0.039672 0.11243 0.17382 -0.03093 0.20276 -0.3487 0.13924 -0.026599 -0.021784 0.10905 -0.11661 0.14729 0.11663 -0.0084382 -0.070541 0.11363 -0.050906 0.35801 0.13403 -0.16577 -0.056667 0.10974 -0.009441 -0.15828 0.053231 0.052565 0.19757 0.14436 -0.079723 0.22808 0.19391 -0.15825 0.15415 0.062947 0.081123 0.03349 -0.17626 -0.021203 -0.030482 0.19658 0.14699 0.10323 0.083641 0.08969 -0.31824 -0.028007 -0.047729 0.14843 0.059388 -0.10096 -0.10355 -0.10523 0.065676 -0.13995 -0.15065 
됩니다|VX+EC -0.040659 0.046867 0.016081 -0.24458 -0.37041 -0.15131 0.078291 0.078862 -0.18341 -0.051876 0.064763 -0.40078 0.19359 -0.64958 0.17249 0.25426 -0.094165 0.0075161 -0.093249 -0.071338 0.028627 -0.15562 0.086755 0.11057 -0.13868 -0.13943 -0.0083957 -0.2856 -0.025431 0.020829 0.15022 -0.2413 -0.41647 -0.31111 -0.32914 -0.5497 0.32759 -0.086015 0.25882 -0.10321 0.3371 0.082578 0.21435 -0.029643 -0.3432 0.20108 0.08093 -0.33045 -0.421 -0.073773 -0.24162 0.22116 0.078512 0.24078 0.2661 0.13949 -0.099329 0.18027 0.18708 0.19505 0.078024 0.12926 -0.55262 0.043977 0.33956 0.26638 0.3251 0.020539 0.058649 0.16267 -0.15663 -0.13464 -0.20944 0.12569 0.045113 -0.34553 0.054207 0.095025 0.027467 0.016168 -0.36757 -0.21533 0.28426 -0.22836 -0.31551 -0.19253 -0.17152 0.14238 0.28891 0.41741 0.14923 0.48083 0.020253 -0.062807 0.14948 0.29806 0.17486 0.025989 0.13053 0.25348 
보험|NNG 0.04065 -0.11642 0.16781 0.045842 0.09343 -0.099884 -0.06194 0.07934 -0.079694 -0.056164 -0.12171 0.033848 -0.18792 -0.0055104 -0.097232 -0.1541 0.04517 -0.017647 0.044719 0.2648 -0.16688 0.057857 -0.11422 0.0079967 -0.11646 0.15208 0.1048 -0.065691 -0.029987 0.005898 0.014054 0.1289 0.1045 0.079957 0.25918 0.095671 -0.022455 0.093072 -0.10609 0.091545 -0.23113 -0.009357 -0.038995 -0.062046 0.019619 -0.097712 0.16453 0.12525 0.15219 -0.067702 0.049217 -0.018572 0.080048 -0.13024 -0.054458 0.074579 0.02495 -0.066242 -0.053871 0.0012249 -0.063502 -0.0064429 -0.10858 -0.052189 0.1312 -0.035655 -0.0937 -0.079175 -0.13607 -0.031474 0.1167 -0.01329 0.032403 0.024329 -0.17552 0.23922 0.047987 -0.11246 -0.038278 0.10596 0.19872 -0.14291 -0.11005 0.19745 0.033093 0.056982 -0.050527 0.053157 -0.018329 0.054927 0.042575 -0.041297 -0.090905 0.16098 -0.035969 0.052173 -0.011539 -0.20422 -0.045263 -0.012783 
가입|NNG 0.077598 -0.25412 0.11993 0.17112 0.041664 -0.027074 -0.060537 -0.027243 0.0032702 -0.11258 -0.067849 0.14154 -0.15637 0.09694 0.024835 -0.049948 0.022582 -0.023665 0.070177 0.16575 -0.04655 -0.047494 -0.10057 0.076647 -0.090303 0.13097 0.17584 0.10383 0.04106 -0.075781 0.16439 0.072363 0.09071 0.12324 0.19355 0.14513 0.056289 -0.029333 -0.026888 0.029851 0.0027244 -0.027702 0.092567 -0.12542 0.13696 -0.16206 0.030731 0.18454 0.11185 -0.053019 0.060166 -0.059307 0.01157 -0.16774 -0.14728 -0.026015 -0.073794 -0.066269 -0.13902 -0.021877 -0.087281 -0.045992 -0.023282 0.090358 -0.068092 0.045771 -0.041935 -0.068276 -0.010771 -0.088437 0.065094 0.1523 0.092147 0.015393 -0.13402 0.0077375 0.072521 0.0075205 -0.045392 0.11352 0.16507 -0.028302 -0.080122 0.15205 0.099604 0.1328 0.09722 -0.042402 -0.0042743 0.050217 -0.068472 -0.080565 -0.10052 0.0017475 -0.039606 -0.006349 -0.006904 -0.18093 0.028096 -0.0092363 
웰|NNP 0.038009 -0.10721 0.17304 0.044207 0.089413 -0.11327 -0.06132 0.08171 -0.087187 -0.046951 -0.10969 0.029336 -0.18075 -0.011001 -0.08558 -0.15803 0.059493 -0.020787 0.061106 0.26596 -0.16808 0.054121 -0.12355 -0.0093975 -0.12471 0.16749 0.1065 -0.071324 -0.023137 0.013902 -0.0049713 0.13334 0.10392 0.079572 0.2607 0.09288 -0.026874 0.10534 -0.09555 0.086946 -0.22481 -0.010709 -0.038512 -0.073854 0.026444 -0.095342 0.16323 0.13666 0.15106 -0.064418 0.054064 -0.026264 0.088462 -0.12966 -0.049134 0.075232 0.031829 -0.059056 -0.06339 -0.0011922 -0.066335 -0.0033222 -0.095004 -0.051342 0.12183 -0.024491 -0.092692 -0.07989 -0.12193 -0.040245 0.12827 -0.015238 0.023866 0.022867 -0.17141 0.23652 0.041727 -0.11314 -0.040201 0.092552 0.19489 -0.13722 -0.1078 0.20898 0.046947 0.052109 -0.05518 0.048766 -0.020375 0.050571 0.05626 -0.051339 -0.10945 0.16426 -0.044849 0.051335 -0.0063979 -0.20715 -0.045978 -0.006773 
다|MAG 0.032994 -0.11905 0.1789 0.053721 0.099031 -0.098405 -0.077545 0.065496 -0.087635 -0.054958 -0.10644 0.0393 -0.17904 -0.0015231 -0.098577 -0.16203 0.053507 -0.030952 0.054092 0.27134 -0.17136 0.05015 -0.12383 -0.0028617 -0.11537 0.15367 0.098721 -0.070043 -0.037373 0.016744 0.0087909 0.14534 0.089156 0.092458 0.25111 0.099444 -0.04014 0.097011 -0.10492 0.085765 -0.2273 -0.0085512 -0.023964 -0.072698 0.024498 -0.088701 0.17416 0.13045 0.14032 -0.083679 0.061688 -0.031571 0.074835 -0.13379 -0.041273 0.085571 0.02773 -0.060556 -0.070163 -0.00071654 -0.061666 -0.010866 -0.10097 -0.05361 0.11739 -0.027116 -0.087156 -0.063638 -0.13508 -0.034041 0.13245 -0.010085 0.019656 0.0083371 -0.18453 0.24504 0.036725 -0.11638 -0.044854 0.098662 0.18557 -0.12515 -0.10101 0.20113 0.04217 0.043471 -0.046611 0.055055 -0.018115 0.043144 0.04744 -0.047424 -0.10576 0.16616 -0.033642 0.04856 -0.019316 -0.21041 -0.04089 -0.0094407 
잉|MAG 0.032598 -0.11544 0.17949 0.059055 0.1 -0.10911 -0.062607 0.068438 -0.073842 -0.062979 -0.11589 0.048411 -0.17658 -0.0072837 -0.088963 -0.15228 0.055982 -0.018755 0.048069 0.28028 -0.16577 0.049132 -0.10632 -0.0013035 -0.12534 0.15995 0.10323 -0.080159 -0.034415 0.017752 6.4259e-05 0.14647 0.10101 0.088179 0.25477 0.095565 -0.02513 0.095836 -0.10486 0.07494 -0.23378 -0.01018 -0.037211 -0.0578 0.019915 -0.086457 0.17762 0.12194 0.13538 -0.077735 0.059815 -0.030152 0.078452 -0.12467 -0.0377 0.081091 0.026614 -0.062996 -0.058107 0.0093243 -0.058538 -0.0065228 -0.099165 -0.056434 0.12932 -0.036101 -0.10293 -0.071675 -0.13692 -0.032408 0.1294 -0.015758 0.030261 0.011821 -0.18359 0.23947 0.039913 -0.099421 -0.042591 0.095666 0.19321 -0.12606 -0.10726 0.20328 0.046463 0.050592 -0.040274 0.048221 -0.020943 0.049651 0.054005 -0.056495 -0.10383 0.14882 -0.040395 0.05184 -0.021685 -0.21058 -0.044633 -0.021701 
종신|NNG 0.029679 -0.11609 0.1754 0.046299 0.086933 -0.096131 -0.070867 0.07374 -0.086801 -0.051398 -0.11293 0.04093 -0.17858 7.2736e-05 -0.097708 -0.14883 0.059268 -0.02095 0.044439 0.26269 -0.15923 0.053998 -0.11317 0.0057212 -0.11977 0.15364 0.10729 -0.069151 -0.025389 0.011529 0.010395 0.13575 0.093013 0.090247 0.24357 0.10445 -0.028751 0.10945 -0.089486 0.077131 -0.2421 -0.006715 -0.02154 -0.058438 0.01568 -0.086713 0.17064 0.13688 0.14037 -0.065982 0.060417 -0.015585 0.076134 -0.13423 -0.054007 0.074689 0.019888 -0.062651 -0.065496 0.0054336 -0.057836 0.0011105 -0.10915 -0.06301 0.12694 -0.0366 -0.10371 -0.061507 -0.1234 -0.021521 0.12386 -0.0056945 0.035615 0.026175 -0.18153 0.23598 0.035343 -0.11285 -0.052173 0.090603 0.18766 -0.13433 -0.099519 0.20721 0.049847 0.047726 -0.046433 0.058527 -0.0070583 0.047906 0.056261 -0.053808 -0.10945 0.14968 -0.039124 0.04392 -0.0075576 -0.19861 -0.03892 -0.019341 
바꾸|VV 0.055209 0.016698 -0.043427 0.0070489 -0.011999 -0.055817 0.020368 0.020283 0.027048 -0.091853 -0.013107 0.097894 0.029476 0.13791 0.024154 -0.0083672 0.059224 0.076857 0.09942 0.0086698 -0.10557 0.11632 -0.036037 -0.038191 -0.059575 0.017131 0.054936 -0.045717 -0.04809 0.07498 -0.03366 0.069928 -0.0037695 -0.00237 -0.010492 7.7755e-05 0.067319 -0.047835 -0.04153 0.028189 -0.0020922 -0.02869 -0.012392 0.062358 0.024861 -0.050628 0.021477 0.086078 -0.0035338 0.091061 -0.1351 0.061139 -0.034759 0.0043276 0.044533 -0.049533 0.072022 0.017106 -0.02598 -0.027647 0.033305 -0.026721 0.17128 0.049746 -0.045717 -0.017828 0.093031 -0.0202 -0.035452 0.054899 0.011375 0.08753 0.049062 -0.034158 0.088454 0.075067 -0.084948 0.066187 0.031526 0.081015 0.0086336 -0.085549 -0.0011853 0.048819 0.10758 0.044154 0.086512 0.03411 0.028205 -0.15291 -0.029917 -0.061235 0.012349 0.051979 -0.038526 -0.033196 -0.057218 0.00041135 -0.079685 -0.050126 
음|ETN 0.0079895 -0.065255 0.061311 0.026996 0.040322 -0.050807 -0.024852 0.021767 -0.020266 -0.013687 -0.018208 0.040182 -0.063682 -0.012302 -0.030577 -0.039463 -0.0053354 -0.000686 0.0244 0.073532 -0.02125 0.0089241 -0.030668 -0.0021585 -0.019823 0.049723 0.037654 -0.0019798 0.010815 -0.0089543 0.038732 0.029022 0.044763 0.060413 0.10904 0.057473 -0.018518 0.029247 -0.031062 0.0026795 -0.076528 -0.018731 -0.013491 -0.047201 0.012493 -0.053433 0.023382 0.051533 0.065051 -0.041813 0.06639 -0.035628 0.026677 -0.03747 -0.033576 0.031812 -0.004002 -0.048085 -0.03606 -0.0043197 -0.032782 0.0036406 -0.028279 -0.0308 0.028448 -0.017797 -0.019517 -0.021866 -0.015704 -0.024848 0.038433 0.0012599 0.014268 0.016998 -0.073163 0.059561 0.014778 -0.039069 -0.024634 0.03885 0.05599 -0.019626 -0.037254 0.080755 0.019291 0.01414 -0.0054916 0.0015962 -0.013482 0.015693 0.0019275 -0.027903 -0.044674 0.041898 -0.0064455 0.022073 0.0023609 -0.076472 -0.0066253 -0.0022074 
연락|NNG 0.090153 0.074493 0.18337 -0.023296 0.075739 0.0064886 -0.12879 0.015286 -0.088422 0.062299 0.050694 -0.030044 -0.13499 -0.11899 -0.11369 0.029389 -0.053329 -0.11684 0.010769 0.055411 0.061972 -0.017181 0.12734 -0.053783 0.01125 0.088301 -0.0022818 -0.030362 -0.043561 -0.1075 0.10846 -0.061133 -0.024556 0.011411 0.11977 0.11292 -0.20437 0.0011482 -0.029297 -0.036529 -0.14713 -0.0063103 -0.037342 0.06844 0.02471 -0.095142 0.014274 0.014494 0.01111 -0.051664 0.10081 -0.11427 -0.086169 0.0021811 0.11835 0.079676 0.0084578 0.048317 0.026484 0.0058318 -0.081251 -0.030366 -0.046797 -0.16555 0.14487 0.013717 -0.082951 -0.084288 -0.055824 0.050213 0.032743 -0.010145 -0.011232 0.014556 -0.075632 0.0066505 -0.065263 -0.18024 -0.001106 -0.07442 0.013958 0.037354 -0.054265 0.19051 0.052737 -0.026818 -0.12311 0.041369 -0.054066 0.1041 -0.004898 0.070416 -0.075842 0.068294 0.032132 0.068754 -0.06321 -0.10517 -0.05559 -0.10375 
안녕|NNG 0.13243 -0.019682 -0.12666 0.38315 -0.0022939 0.5352 -0.049724 -0.23958 -0.063079 0.074597 0.20603 -0.060069 0.078309 0.43423 -0.011122 -0.18605 -0.098793 0.12548 -0.20232 -0.30565 0.2841 -0.17235 0.21754 0.093606 0.33992 -0.26402 -0.15619 0.074186 0.079134 -0.22752 -0.20161 -0.20589 -0.21608 -0.41695 -0.28508 -0.041251 -0.27505 0.039389 0.15154 -0.28617 0.15518 0.17555 -0.034947 0.36224 0.1792 -0.094793 -0.042993 -0.07114 -0.081206 0.30055 -0.2053 0.00034193 -0.25628 0.19442 0.10653 -0.33756 0.11866 0.02842 0.26475 -0.021505 -0.068492 -0.055813 0.013263 -0.0083483 -0.12669 -0.1511 -0.0063624 -0.11487 0.061391 0.010028 -0.37995 -0.061404 0.026966 -0.12913 0.083078 -0.29794 -0.23683 -0.020659 0.0023513 -0.28125 -0.14539 0.3815 0.092882 0.23731 -0.0078908 -0.57814 0.38313 -0.22693 -0.10083 -0.12922 -0.29498 -0.071072 -0.087003 -0.065923 0.026924 -0.24337 -0.0032576 0.26717 0.38168 -0.067363 
었|EP -0.12395 -0.2688 0.12647 0.059924 -0.070947 -0.2412 -0.0041051 -0.088017 0.12467 0.075498 0.026384 0.16856 0.0023925 0.0025883 0.069223 -0.032589 -0.25339 0.17847 -0.013552 -0.0080365 0.26081 -0.15739 -0.12847 -0.047469 -0.01267 0.10674 -0.11751 0.11675 0.22988 -0.12447 0.2106 -0.1837 0.16917 0.56482 0.37195 0.072297 -0.13332 0.29609 0.13731 -0.17084 -0.19438 -0.091038 -0.041463 -0.35934 0.0079991 -0.0065943 -0.0039648 -0.051188 0.32881 -0.14545 0.48711 -0.19353 0.19168 -0.099074 -0.28947 0.25586 -0.14804 -0.53218 -0.052178 0.055727 0.044131 0.032994 0.007705 -0.12142 0.057623 -0.21324 -0.0040989 0.15251 0.40893 -0.18454 0.24737 -0.22276 -0.069879 -0.015569 -0.10512 -0.20672 -0.09553 -0.074942 0.16307 -0.018652 0.030396 0.065768 -0.21289 0.086132 -0.18628 0.012428 0.16814 0.0027588 -0.085261 -0.056189 -0.066608 -0.26618 -0.39701 -0.13698 -0.049896 0.25092 0.064122 -0.29798 0.10981 0.30988 
하이|NNG 0.51005 -0.15689 -0.038359 0.86321 -0.12304 1.1994 -0.39929 -0.47344 -0.2711 0.11885 0.3341 -0.1701 0.060672 0.99574 -0.056346 -0.61967 -0.32465 0.2201 -0.41711 -0.42335 0.59486 -0.42119 0.29491 0.32494 0.48078 -0.46808 -0.26803 0.033377 0.09364 -0.62706 -0.44718 -0.5909 -0.37325 -0.87664 -0.47503 -0.14026 -0.63556 0.19175 0.47344 -0.64873 0.12786 0.57498 0.027316 0.85039 0.54702 -0.29644 0.34341 -0.018133 -0.17869 0.7435 -0.56336 0.01083 -0.41339 0.30333 0.27892 -0.5497 0.18754 0.041998 0.69217 -0.023767 0.020186 -0.18087 0.088721 -0.044145 -0.25959 -0.44882 -0.037043 -0.3149 0.035811 -0.10835 -0.50081 0.0043804 0.23249 -0.35898 0.22233 -0.63677 -0.77434 -0.064676 0.18423 -0.72483 -0.14173 0.53156 -0.016345 0.62843 0.0026081 -1.0852 0.84287 -0.34016 -0.018956 -0.40957 -0.64396 -0.12038 -0.21326 -0.15145 -0.045248 -0.32934 -0.14425 0.29638 0.80371 -0.23159 
후|NNG -0.010544 0.086902 0.044701 -0.12636 -0.027862 0.19105 -0.13971 0.00011911 -0.084705 0.17216 -0.080492 -0.22136 -0.047526 -0.13953 -0.096543 -0.12374 -0.017598 -0.22211 -0.13256 0.089249 0.036676 -0.073849 -0.064444 0.12069 -0.0051346 0.019179 -0.051942 -0.0097238 -0.017669 -0.099966 -0.16138 -0.12085 0.10283 -0.070775 -0.029752 0.014259 -0.11469 0.088264 0.047059 0.035581 -0.097912 0.13904 0.074698 0.04262 0.038876 0.17487 0.17578 -0.084808 -0.05575 -0.043498 0.065075 -0.028248 0.12471 -0.081773 -0.018497 0.10488 -0.12426 0.089977 0.11616 0.037174 0.071059 -0.0072124 -0.1445 -0.04545 -0.027057 -0.039778 -0.26913 0.024402 -0.10306 -0.18092 0.16705 -0.041722 0.061306 0.0020064 -0.048006 -0.023554 0.040337 -0.054954 0.046888 -0.21476 0.093424 -0.0061195 -0.067942 -0.20948 -0.14392 0.078005 -0.19099 -0.013024 0.034729 0.062505 0.10914 0.14692 0.1623 -0.091543 -0.04426 0.055829 -0.00089319 0.0042518 0.050896 -0.057369 
돼요|VV+EC -0.014508 0.091324 -0.012692 -0.09748 -0.022625 0.12631 -0.065794 -0.0061353 -0.049298 0.11611 -0.053211 -0.16555 0.00031429 -0.099682 -0.052751 -0.072114 -0.019912 -0.13097 -0.099077 0.026476 0.030017 -0.051479 -0.027147 0.079376 0.007236 -0.01793 -0.063063 -0.0067939 -0.0032536 -0.060714 -0.1173 -0.086547 0.053553 -0.08067 -0.066595 -0.026421 -0.056695 0.052097 0.04233 0.024691 -0.046023 0.1025 0.043171 0.048227 -1.247e-05 0.13257 0.091928 -0.071667 -0.051846 -0.0089454 0.020447 -0.0076455 0.070372 -0.030921 0.0016235 0.048941 -0.065686 0.06884 0.089211 0.033256 0.063154 0.0034376 -0.08798 -0.030909 -0.013322 -0.013827 -0.14676 0.030717 -0.058976 -0.098431 0.089223 -0.03497 0.020729 -0.002844 -0.015528 -0.02597 0.014806 -0.013207 0.032588 -0.1497 0.026744 -0.0012028 -0.015206 -0.16419 -0.111 0.029704 -0.12119 0.0031034 0.040763 0.036 0.075894 0.10519 0.122 -0.067263 -0.021206 0.02109 0.012491 0.040616 0.03824 -0.025847 
은데|EC 0.053688 0.0090547 -0.042678 0.018761 -0.005496 -0.0564 0.020351 0.015375 0.029082 -0.093456 -0.02699 0.097188 0.015146 0.13097 0.023716 0.0027726 0.048158 0.068375 0.092168 0.023345 -0.10391 0.11915 -0.036872 -0.039741 -0.060539 -0.00035229 0.055737 -0.031334 -0.04775 0.074036 -0.028929 0.083542 -0.0036551 -0.015887 -0.015103 0.0027812 0.08003 -0.049548 -0.036662 0.040125 0.0087368 -0.013717 -0.014407 0.070592 0.038016 -0.058125 0.010197 0.087994 0.0052406 0.08529 -0.14943 0.060394 -0.023796 0.0097913 0.053943 -0.054287 0.077521 0.0092387 -0.039152 -0.036611 0.025233 -0.02784 0.18547 0.044389 -0.050245 -0.013341 0.089906 -0.016019 -0.045359 0.063662 -0.0026238 0.08521 0.057468 -0.036353 0.097982 0.08165 -0.071796 0.069687 0.020339 0.081234 0.0096568 -0.088229 -0.010865 0.040585 0.11643 0.055595 0.071049 0.047466 0.039028 -0.13715 -0.032336 -0.06479 0.014066 0.048505 -0.035716 -0.045212 -0.056391 0.0065285 -0.076164 -0.058428 
께|NNB 0.066615 0.049955 -0.053836 -0.0092792 -0.014342 -0.0084517 -0.023173 0.029794 0.010686 -0.07387 -0.058732 0.060918 0.010221 0.1383 0.0098503 -0.045168 0.057619 0.022437 0.083025 0.045238 -0.12144 0.13279 -0.063982 0.000202 -0.09893 0.020056 0.050955 -0.06435 -0.087569 0.071705 -0.094406 0.070442 0.027114 -0.0584 -0.031559 -0.020035 0.064258 -0.051355 -0.041554 0.055946 -0.024743 0.018924 -0.00076716 0.10719 0.061806 -0.026058 0.094205 0.097985 -0.016497 0.11271 -0.18566 0.071326 -0.0069276 -0.011071 0.073858 -0.039587 0.06414 0.056794 -0.0070603 -0.027011 0.074733 -0.029197 0.17723 0.050944 -0.088096 -0.043458 0.051801 -0.0031146 -0.094643 0.011773 0.047625 0.10756 0.08571 -0.043262 0.11112 0.095232 -0.089468 0.081927 0.05095 0.025657 0.0352 -0.1276 -0.021228 -0.0030649 0.10372 0.093931 0.037173 0.061462 0.074782 -0.17078 -0.014965 -0.025416 0.082252 0.021765 -0.05566 -0.042624 -0.063626 -0.0037057 -0.078335 -0.089151 
사랑|NNG -0.1968 -0.15739 0.18192 0.053488 0.071118 -0.047293 0.098692 0.098298 -0.1793 -0.20126 0.10362 -0.13438 -0.05979 -0.25713 -0.059433 0.077442 0.053396 0.042635 0.14769 -0.0064761 0.092859 -0.30278 -0.084804 0.1602 -0.11197 -0.022093 -0.20367 0.028892 -0.041287 -0.20985 0.20611 0.27799 0.055302 0.13054 0.039755 -0.086743 0.037262 0.011254 -0.04515 0.10566 -0.015946 -0.12423 -0.28566 -0.29709 -0.076976 -0.27804 -0.20326 -0.0105 0.050725 -0.092718 0.21355 -0.11291 0.093975 0.071122 -0.17294 0.15568 0.19799 0.18321 -0.022945 -0.072745 -0.082843 -0.021609 -0.010422 -0.083276 -0.096585 0.0069819 0.028515 -0.20818 -0.19091 -0.059593 -0.13276 0.14513 0.29399 0.030207 -0.1301 0.29453 0.19308 -0.206 -0.42215 0.12619 0.30063 -0.15423 -0.11203 0.21147 0.22406 -0.064424 0.17297 0.0092533 0.030346 -0.088271 -0.30008 -0.33131 -0.0055808 0.29585 0.031589 -0.070019 -0.081683 0.041828 -0.028768 -0.058801 
요|VCP+EC 0.079507 0.05056 -0.063561 -0.013873 -0.026228 -0.016518 -0.011019 0.024379 0.011416 -0.07739 -0.056054 0.058419 0.0098784 0.14673 0.015875 -0.049534 0.066438 0.032043 0.08536 0.059323 -0.13367 0.1258 -0.063744 0.0024952 -0.088724 0.013273 0.069165 -0.053234 -0.084535 0.076504 -0.090852 0.051655 0.035699 -0.054649 -0.047211 -0.010205 0.070072 -0.047813 -0.029741 0.060289 -0.01156 0.02887 0.010802 0.10644 0.061691 -0.027093 0.077504 0.10473 -0.025704 0.096828 -0.19268 0.074825 0.0036653 -0.023203 0.057944 -0.041431 0.075446 0.069218 0.0029694 -0.021745 0.066982 -0.019996 0.18095 0.05054 -0.072395 -0.033089 0.050552 -0.018528 -0.082172 0.016391 0.049994 0.11312 0.090269 -0.046379 0.11548 0.11257 -0.10545 0.074638 0.059025 0.033626 0.031421 -0.12573 -0.031339 -0.020606 0.11226 0.1034 0.048489 0.058691 0.064139 -0.16581 -0.017253 -0.013529 0.067571 0.022414 -0.055214 -0.027464 -0.064209 0.0086113 -0.076944 -0.084507 
+JX 0.048638 0.14844 -0.035734 -0.12259 -0.0039162 0.23488 -0.17076 0.020041 -0.061841 0.1224 -0.15256 -0.16896 -0.032895 0.04981 -0.10101 -0.20913 0.052945 -0.22177 -0.078061 0.11822 -0.070295 0.051586 -0.11234 0.12258 -0.058204 0.030391 -0.019029 -0.029451 -0.097325 -0.035751 -0.2814 -0.050282 0.17038 -0.12545 -0.068323 0.05242 -0.096212 0.045784 -0.015931 0.10816 -0.15904 0.17329 0.043171 0.17704 0.13486 0.13806 0.24423 0.022607 -0.027525 0.079624 -0.084451 0.0080106 0.10743 -0.11296 0.023472 0.038845 -0.051056 0.15315 0.11958 -0.0036222 0.11465 -0.037362 0.072862 -0.011009 -0.14602 -0.096996 -0.27726 0.018378 -0.21127 -0.18555 0.22357 0.082976 0.17729 -0.067717 0.055722 0.11844 -0.049924 0.010041 0.08823 -0.2164 0.17084 -0.097067 -0.11816 -0.22176 -0.020931 0.19301 -0.13808 0.027153 0.078981 -0.13792 0.090016 0.087126 0.25894 -0.072462 -0.10783 -0.035399 -0.079056 0.048791 -0.042232 -0.17343 
그만|MAG 0.0641 -0.073367 0.2908 -0.34696 -0.53319 -0.17378 -0.19312 0.12011 -0.33343 -0.051969 -0.097605 -0.52726 0.010208 -0.81922 0.12436 0.045935 -0.21004 -0.15485 -0.063344 0.24509 0.0045954 -0.27322 -0.12754 0.26549 -0.4794 0.05334 0.02987 -0.4347 -0.083791 -0.18033 0.2041 -0.42818 -0.26484 -0.19565 -0.14613 -0.63444 0.26526 0.094721 0.39294 -0.082398 0.089237 0.25056 0.3469 -0.074042 -0.26965 0.21282 0.52304 -0.31618 -0.40743 -0.11501 -0.17806 0.18203 0.35707 0.099042 0.2695 0.45311 -0.27543 0.15202 0.32374 0.28484 0.24083 0.11499 -0.69644 -0.036798 0.42442 0.17766 0.20699 0.0020805 -0.017086 -0.056827 0.26268 -0.10946 -0.036886 0.1185 -0.0034689 -0.37228 -0.077827 0.031856 0.19046 -0.14559 -0.1905 -0.53656 0.074298 -0.24755 -0.45781 0.0061175 -0.29779 0.32091 0.50606 0.41336 0.18124 0.61503 -0.014814 -0.11492 0.020807 0.61327 0.10712 -0.33729 0.15633 0.2406 
잘|MAG -0.097669 -0.18463 0.095145 0.0068619 -0.085452 -0.19 -0.010387 -0.045901 0.095554 0.033717 -0.016871 0.11036 -0.0014337 0.0039601 0.055706 -0.044538 -0.16156 0.11417 -0.0061787 0.027612 0.15383 -0.094892 -0.1171 -0.027998 -0.057992 0.084791 -0.072952 0.059166 0.13376 -0.070526 0.13579 -0.13053 0.14078 0.40979 0.26166 0.027763 -0.064723 0.20901 0.095166 -0.10682 -0.14813 -0.040665 -0.0041732 -0.25307 0.011145 0.014635 0.037128 -0.019717 0.22516 -0.10491 0.31383 -0.10789 0.16656 -0.065648 -0.18264 0.20489 -0.11749 -0.38599 -0.020181 0.04614 0.070624 0.026022 0.0091494 -0.084095 0.041811 -0.14713 0.0037552 0.13522 0.2801 -0.13769 0.22355 -0.15152 -0.047683 -0.023253 -0.059583 -0.13536 -0.06967 -0.029428 0.1437 -0.022679 0.032281 -0.0068446 -0.15866 0.010177 -0.14612 0.051083 0.092715 0.035429 -0.014695 -0.051523 -0.018379 -0.16078 -0.26567 -0.10417 -0.043248 0.19183 0.036966 -0.22646 0.049435 0.23054 
요일|NNG 0.073241 0.074848 -0.09888 -0.014934 -0.0081841 -0.025513 0.0059383 0.043182 0.026422 -0.091078 -0.061391 0.095231 0.039343 0.18852 0.024305 -0.03178 0.084805 0.052475 0.099216 0.026785 -0.1579 0.16547 -0.052318 -0.033651 -0.085555 -0.010418 0.076647 -0.072422 -0.089216 0.12941 -0.10863 0.10062 0.016558 -0.074108 -0.076887 -0.010543 0.089064 -0.0712 -0.055229 0.066424 0.012352 0.015856 -0.00017886 0.13869 0.043565 -0.030726 0.059502 0.11015 -0.019622 0.14942 -0.23057 0.10167 -0.033393 -0.00035127 0.087826 -0.082402 0.09957 0.080263 -0.014473 -0.039024 0.075944 -0.030002 0.23456 0.076424 -0.095482 -0.036174 0.099224 -0.0093502 -0.095276 0.059871 0.0301 0.13189 0.077552 -0.046774 0.15257 0.11267 -0.11138 0.11952 0.04835 0.067362 0.015606 -0.13088 -0.012769 -0.022745 0.13468 0.084511 0.071128 0.051902 0.063124 -0.20687 -0.0030269 -0.037432 0.087856 0.032076 -0.057969 -0.064202 -0.065254 0.034259 -0.10602 -0.094996 
해|VV+EC -0.26914 0.18248 -0.30105 -0.29501 0.011992 -0.34407 0.29299 0.045229 0.31133 0.12741 -0.01187 0.1531 0.23189 -0.098719 0.11928 0.26343 0.037797 0.10276 -0.010326 -0.18376 -0.045789 0.22553 0.027078 -0.25832 0.11843 -0.04096 -0.046213 0.084052 0.10887 0.36391 -0.0013544 0.061266 0.043524 0.28947 -0.032883 0.0059207 0.18895 -0.031484 -0.10821 0.084114 0.10662 -0.22622 -0.02585 -0.21941 -0.23233 0.31102 -0.30613 -0.14445 0.053197 -0.15879 0.18779 0.043163 0.063735 0.020621 -0.10519 0.026987 -0.088981 -0.21549 -0.18903 0.0076405 0.051181 0.117 0.098052 0.052111 0.007518 0.076085 0.079108 0.31901 0.29314 0.09977 0.017378 -0.21005 -0.29846 0.072995 0.10003 -0.029878 0.17864 0.16726 0.096788 0.15598 -0.23267 0.11065 0.14607 -0.42995 -0.17806 0.18884 -0.20924 0.00052489 -0.1171 0.066102 0.27375 0.011595 0.078127 -0.16531 0.059833 0.032112 0.15031 0.15658 -0.19676 0.24082 
보낸|VV+ETM 0.008761 -0.059383 0.014505 0.021266 0.037078 -0.055949 0.00027461 0.039098 -0.012958 -0.057395 -0.083538 0.022315 -0.063179 0.030904 -0.0094819 -0.073585 0.053643 0.017062 0.020047 0.14007 -0.13359 0.059704 -0.091608 0.0072262 -0.057242 0.058822 0.070727 -0.039991 -0.016541 0.070058 -0.054725 0.098777 0.047808 0.020243 0.074298 0.013662 0.052933 0.040887 -0.055068 0.065919 -0.080482 -0.0056397 0.00050297 -0.029792 0.0039761 -0.0097669 0.097981 0.072526 0.0565 -0.018527 -0.02963 0.043169 0.049947 -0.055444 -0.02754 0.0052499 0.01838 -0.012607 -0.03711 0.0048893 -0.011399 0.0041311 -0.033908 0.033197 0.021064 -0.016919 -0.027239 -0.0055818 -0.077235 -0.0029631 0.047166 -0.00010309 0.0085005 0.00053141 -0.064471 0.12969 0.035631 0.015161 -0.018412 0.072736 0.072832 -0.086714 -0.010451 0.032555 0.0061107 0.041822 -0.010573 0.017186 0.010773 -0.010622 0.058837 -0.0069874 -0.0034516 0.058524 -0.022942 -0.0039047 0.0037838 -0.059097 -0.03655 0.012768 
