91 100
</s> -0.13636 -0.078048 0.062882 0.019766 0.089981 0.16176 0.24631 -0.20752 0.12823 -0.0058478 -0.21019 0.029612 0.079879 -0.073364 0.046019 -0.16857 -0.15154 0.21252 -0.13692 -0.23699 -0.15377 -0.0098279 -0.138 -0.032797 0.087664 -0.17337 -0.03293 0.26664 0.0029282 0.11965 0.10568 -0.0061834 -0.044667 -0.47936 -0.19491 -0.031739 0.083658 0.0028553 -0.12455 -0.027983 -0.040005 0.07023 0.13303 0.3462 0.15309 -0.082487 -0.18006 0.16308 0.070925 -0.1222 0.1321 -0.08083 0.20538 -0.030564 -0.41079 0.018684 0.014406 -0.17355 0.30824 -0.46998 0.067322 0.074213 0.29925 0.017831 0.047208 -0.17405 -0.040122 0.14889 -0.059901 -0.13366 -0.083271 0.04123 -0.030371 0.034307 -0.021593 0.26324 0.2957 -0.060169 0.10666 0.019051 -0.14798 0.15378 -0.084668 0.18058 -0.25824 -0.17857 -0.28539 -0.14299 0.084348 -0.15587 -0.19261 0.10228 -0.1189 -0.0538 -0.16239 -0.20487 0.22871 -0.19544 0.31372 -0.2987 
안|MAG 0.12022 0.046065 -0.082899 -0.21547 -0.13271 0.033313 -0.06988 -0.20526 -0.047608 -0.22281 0.31569 0.081577 -0.082798 -0.11591 -0.12257 0.057879 -0.21111 0.10072 -0.15032 0.3074 0.43898 0.16348 0.090667 -0.040107 -0.087785 0.23754 -0.33822 -0.56577 0.15113 -0.0035115 -0.22752 -0.011183 -0.054625 0.083883 0.10776 0.097401 0.057256 0.031926 0.057014 -0.052821 0.066334 0.21614 -0.30293 -0.33659 0.11871 0.23196 0.17859 -0.21654 -0.082937 0.18335 -0.25379 0.05907 -0.27262 0.00060085 0.068736 -0.27587 -0.38731 -0.022905 -0.19094 0.20185 -0.13782 0.025317 -0.19147 0.36581 -0.1625 -0.032614 -0.0024566 0.28313 0.089956 0.16622 -0.078563 0.0092343 0.13733 -0.31031 0.1178 0.090015 -0.23096 -0.2609 -0.10469 0.30104 0.22025 -0.072516 0.13973 -0.026648 0.030849 0.17638 0.37768 -0.22328 -0.19941 0.048723 0.12147 0.20877 0.23939 0.19242 -0.019857 0.011476 -0.095985 0.063955 -0.23749 0.42861 
어요|EF -0.15364 -0.10095 -0.057984 0.087154 0.017502 -0.037107 0.017335 -0.22577 -0.077881 -0.060038 -0.055856 0.014357 -0.057074 -0.15582 0.029312 -0.06387 -0.11745 0.13699 -0.091056 -0.16922 0.048838 -0.1438 -0.0581 0.039125 0.11058 -0.018573 -0.097089 -0.096227 0.033796 0.047416 0.051829 0.040559 -0.088267 -0.27786 0.11038 -0.048108 0.047938 0.2095 -0.072188 0.039121 0.13289 0.023903 -0.073547 0.067763 0.13248 0.020646 -0.062139 0.10894 0.045572 -0.097595 0.019494 -0.22798 0.084789 -0.14147 -0.23948 -0.052455 -0.13719 0.061022 0.13776 -0.22869 0.0069068 0.11365 0.08093 0.18863 0.027141 -0.082729 0.13007 0.22027 0.067903 -0.002089 0.1239 0.077465 0.027329 -0.2248 -0.050059 0.19733 0.086033 -0.22172 -0.0092161 0.19573 0.14695 -0.0064862 -0.24365 0.16073 -0.10129 -0.010128 -0.13782 -0.20482 0.034803 -0.078807 -0.20357 0.10722 -0.071416 0.087109 -0.16024 -0.16817 0.22656 -0.12644 0.20955 0.058997 
나요|EC 0.17913 0.3256 -0.060708 -0.3385 0.27983 0.018635 0.015728 0.30892 0.26747 0.1906 0.15701 0.053555 0.13846 0.19703 -0.021821 0.10893 0.027273 -0.057446 0.13194 0.17406 -0.021433 0.37762 0.11422 -0.13026 -0.082055 0.028219 -0.013728 -0.24349 -0.13528 0.15895 -0.16597 0.026485 -0.23638 0.24258 -0.18896 0.094942 -0.035613 -0.38712 0.056498 -0.15048 0.0051209 0.33894 0.048563 -0.22889 -0.20957 0.039788 0.18494 -0.26219 -0.23523 0.31552 -0.37047 0.41057 -0.3005 0.31397 0.27571 -0.068557 0.054395 0.028754 -0.034401 0.50057 -0.36006 0.20923 0.069929 0.034691 -0.12015 0.17564 -0.27304 -0.13054 0.12556 0.16941 -0.30323 0.077645 -0.024205 0.15015 -0.0042903 -0.15383 -0.07262 0.10028 -0.081756 -0.32119 -0.23539 0.12252 0.51813 -0.37598 0.056838 -0.16491 0.09944 0.25761 -0.092041 0.0050189 0.47615 -0.010025 0.30103 -0.21105 0.1844 0.0323 -0.20799 0.35894 -0.32207 0.062896 
시간|NNG 0.072905 0.313 -0.092671 -0.17627 0.38085 -0.12957 -0.060731 0.43672 0.18295 0.31577 0.066435 -0.013621 0.12539 0.22515 0.055167 0.13845 0.18666 -0.14381 0.25872 0.0032886 -0.19806 0.20035 0.11227 -0.079556 0.012779 -0.037928 0.14795 -0.12849 -0.21309 0.15809 -0.06024 0.053141 -0.29392 0.25025 -0.084959 0.021415 -0.1008 -0.29645 0.037406 -0.1022 0.09213 0.22393 0.1349 -0.15504 -0.30351 -0.058603 0.12744 -0.14888 -0.23386 0.21012 -0.30823 0.30584 -0.20679 0.27552 0.32528 0.070913 0.19881 0.21224 0.028156 0.52818 -0.35373 0.27189 0.1032 -0.067046 -3.8885e-05 0.261 -0.16593 -0.24398 0.17406 0.17143 -0.13927 0.12944 -0.093727 0.18029 -0.12654 -0.2484 -0.03791 0.11846 -0.10248 -0.41243 -0.21362 0.08652 0.30839 -0.37366 0.10306 -0.21346 -0.11409 0.35003 0.022728 0.0174 0.40024 -0.11879 0.18217 -0.27336 0.1893 0.0097525 -0.11997 0.36592 -0.23676 -0.010107 
다른|MM -0.051908 0.58849 -0.13348 -0.12986 1.0168 -0.32059 -0.017236 1.0579 0.43375 0.9241 -0.25736 -0.093438 0.36483 0.53179 0.25689 0.18594 0.54662 -0.32677 0.68522 -0.48093 -0.95675 0.22484 0.11839 -0.10061 0.18828 -0.38745 0.61511 0.31909 -0.65584 0.38524 0.1292 0.1673 -0.6471 0.25145 -0.28016 -0.090668 -0.24621 -0.63989 -0.060144 -0.16209 0.2009 0.31446 0.59974 0.086384 -0.72497 -0.36747 0.035065 -0.059274 -0.41238 0.22675 -0.38976 0.48915 -0.11253 0.56854 0.46186 0.41966 0.80888 0.50342 0.42333 0.76582 -0.65776 0.65328 0.55088 -0.45005 0.20633 0.55722 -0.29716 -0.70691 0.34097 0.19489 -0.14566 0.36262 -0.32929 0.5803 -0.45571 -0.51377 0.26763 0.41207 -0.1429 -1.137 -0.62156 0.28553 0.36966 -0.68736 0.1238 -0.69686 -0.8309 0.88261 0.31192 -0.077267 0.60933 -0.42802 0.040262 -0.78212 0.32581 -0.13351 -0.00060296 0.66873 -0.10139 -0.49245 
가능|NNG 0.26183 0.22964 -0.058843 -0.35281 0.0026641 0.01834 -0.087763 0.12354 0.10248 -0.04824 0.3559 0.076538 0.012082 0.076228 -0.12074 0.15848 -0.060826 -0.052578 0.018103 0.41919 0.3157 0.3507 0.16055 -0.10732 -0.16509 0.22481 -0.19669 -0.51204 0.040484 0.03726 -0.28042 -0.018079 -0.094537 0.36927 -0.028432 0.14091 -0.0044986 -0.23378 0.12276 -0.11194 -0.01274 0.27801 -0.17516 -0.42244 -0.079819 0.18095 0.27051 -0.34104 -0.1908 0.32186 -0.3626 0.34401 -0.401 0.20091 0.34869 -0.20719 -0.18799 -0.011595 -0.26753 0.53252 -0.26063 0.044216 -0.19912 0.17853 -0.20899 0.11428 -0.20103 0.021271 0.083205 0.21603 -0.27068 -0.01739 0.076433 -0.038916 0.12666 -0.13179 -0.2775 -0.023522 -0.11921 -0.035652 -0.010467 -0.0014247 0.48463 -0.30498 0.12636 0.07743 0.45042 0.082356 -0.2079 0.095178 0.43027 0.077771 0.37025 0.0065131 0.17002 0.13195 -0.32011 0.28815 -0.45053 0.33357 
없|VA 0.24452 0.06837 0.1222 -0.43459 -0.11362 0.40883 0.27846 -0.25581 0.30136 -0.24358 0.15903 0.12704 0.10767 0.0053105 -0.1585 -0.097384 -0.34541 0.23399 -0.29692 0.37621 0.29596 0.47197 -0.035185 -0.18085 -0.21411 0.076546 -0.34182 -0.13752 0.16933 0.083111 -0.23184 -0.083912 0.095035 -0.096516 -0.37447 0.17921 0.13423 -0.29578 0.049922 -0.14616 -0.26856 0.32017 -0.092493 -0.044973 0.21381 0.1776 0.10437 -0.23036 -0.038986 0.25207 -0.15208 0.35397 -0.19829 0.18983 -0.12526 -0.26553 -0.27767 -0.47968 -0.091716 -0.077033 -0.028587 -0.11586 0.026995 0.18779 -0.25194 -0.20837 -0.33084 0.2056 -0.15833 -0.015433 -0.50447 -0.12146 0.10847 0.039145 0.27724 0.20964 -0.037711 -0.013022 0.080669 0.11882 -0.22176 0.15734 0.58675 -0.047006 -0.16893 0.027297 0.43947 -0.14607 -0.24641 -0.025694 0.25677 0.24678 0.31076 0.048281 0.024333 0.052242 -0.21064 -0.03253 -0.17711 0.0086765 
되|VV 0.14132 0.097427 -0.0121 -0.20226 -0.010269 0.045835 -0.0020146 0.0071488 0.067258 -0.060024 0.16856 0.045466 0.011589 0.032616 -0.067978 0.047097 -0.07837 0.022423 -0.033838 0.21786 0.17384 0.19708 0.069466 -0.070705 -0.087914 0.10524 -0.12742 -0.26251 0.051097 0.030947 -0.14995 -0.0068512 -0.030362 0.13158 -0.052017 0.080614 0.024907 -0.1216 0.056534 -0.05768 -0.035309 0.15257 -0.088228 -0.18561 0.0026229 0.10002 0.1261 -0.17146 -0.088413 0.17905 -0.18124 0.18502 -0.2004 0.11074 0.11958 -0.12219 -0.12833 -0.071178 -0.13078 0.21964 -0.11908 0.011797 -0.076964 0.13381 -0.11894 0.013751 -0.11374 0.047086 0.023051 0.090011 -0.16785 -0.025805 0.054069 -0.021016 0.093155 -0.014324 -0.12897 -0.022554 -0.036833 0.026646 -0.019408 0.011209 0.2653 -0.13284 0.032677 0.044732 0.24857 -0.00062064 -0.12316 0.038548 0.20443 0.073839 0.20347 0.023122 0.064199 0.056534 -0.15383 0.12629 -0.20617 0.15863 
날짜|NNG -0.037919 0.20676 -0.052129 -0.029204 0.36766 -0.11841 -0.002297 0.3801 0.15162 0.32801 -0.10561 -0.028825 0.12563 0.18578 0.10385 0.065956 0.2079 -0.11435 0.2565 -0.17542 -0.34966 0.071685 0.047933 -0.024564 0.071457 -0.14661 0.22666 0.12272 -0.23553 0.13371 0.05408 0.06713 -0.23211 0.078702 -0.087764 -0.044892 -0.087479 -0.22315 -0.02314 -0.048445 0.077193 0.10828 0.21045 0.027531 -0.27323 -0.13518 0.01245 -0.018689 -0.14726 0.066951 -0.12667 0.17451 -0.02851 0.19887 0.15603 0.15639 0.28885 0.18729 0.1515 0.27449 -0.24139 0.2524 0.18912 -0.15583 0.078354 0.19641 -0.09493 -0.24909 0.13186 0.072132 -0.048671 0.14142 -0.11809 0.21228 -0.17377 -0.1825 0.09325 0.14896 -0.043294 -0.40416 -0.22873 0.098487 0.11349 -0.24495 0.042569 -0.25848 -0.30179 0.32694 0.12117 -0.035687 0.20214 -0.1507 0.01837 -0.29266 0.10778 -0.06114 0.013087 0.23966 -0.029079 -0.17807 
있|VV 0.011823 0.23796 -0.044642 -0.10754 0.37162 -0.10584 0.012469 0.38022 0.18227 0.3155 -0.056018 -0.015796 0.15081 0.18438 0.086057 0.076681 0.16266 -0.093302 0.22294 -0.13265 -0.30479 0.12508 0.04659 -0.052569 0.046316 -0.13216 0.18612 0.063454 -0.22911 0.15643 0.011417 0.066478 -0.24357 0.10575 -0.13282 -0.022766 -0.088396 -0.25949 -0.012966 -0.08594 0.063691 0.1637 0.20089 -0.0087432 -0.26209 -0.10781 0.031579 -0.051212 -0.16839 0.11778 -0.19277 0.22902 -0.086438 0.23087 0.18257 0.11823 0.26367 0.1559 0.13356 0.31516 -0.26653 0.24766 0.19418 -0.1175 0.035404 0.19891 -0.14432 -0.22805 0.14058 0.084004 -0.098283 0.13384 -0.10322 0.20942 -0.13957 -0.17842 0.070787 0.13227 -0.061587 -0.40768 -0.2339 0.11571 0.20161 -0.28245 0.034804 -0.25365 -0.25418 0.31257 0.093402 -0.025248 0.26448 -0.13352 0.069258 -0.27922 0.13099 -0.042975 -0.021695 0.2548 -0.076751 -0.13621 
수|NNB 0.0051498 0.23575 -0.051194 -0.096738 0.3795 -0.094749 0.0056022 0.37306 0.18093 0.31022 -0.051099 -0.028952 0.14157 0.19017 0.079733 0.061281 0.16054 -0.10405 0.23604 -0.12137 -0.31404 0.129 0.049555 -0.060761 0.049509 -0.12029 0.18524 0.054553 -0.22988 0.16021 0.023356 0.050062 -0.25395 0.10147 -0.1246 -0.017976 -0.073479 -0.2677 -0.019117 -0.076492 0.071731 0.17156 0.19246 0.0001383 -0.26431 -0.11285 0.031247 -0.04661 -0.15912 0.12891 -0.1905 0.22423 -0.076515 0.22775 0.17754 0.12091 0.26374 0.16694 0.14358 0.31899 -0.26712 0.24909 0.19724 -0.12806 0.034765 0.20335 -0.13282 -0.23703 0.12513 0.082239 -0.088382 0.13883 -0.10212 0.20818 -0.15044 -0.17171 0.072326 0.13531 -0.051808 -0.4109 -0.22825 0.11417 0.19923 -0.28491 0.028114 -0.24785 -0.24145 0.3058 0.095986 -0.038731 0.27266 -0.13021 0.059553 -0.28715 0.12408 -0.053453 -0.021998 0.27416 -0.065487 -0.1471 
을까요|EC 0.083933 0.09538 -0.042085 -0.13468 0.012362 -0.026972 -0.065935 0.055004 0.022959 -0.0093752 0.16135 0.036874 -0.012511 0.019576 -0.045614 0.078458 -0.028073 -0.021149 0.022958 0.16586 0.13658 0.12818 0.070277 -0.03027 -0.045846 0.097019 -0.094402 -0.26954 0.021655 0.016767 -0.10635 0.014682 -0.061905 0.15434 0.018582 0.052867 0.0022549 -0.07035 0.039271 -0.042983 0.03687 0.12158 -0.096314 -0.18909 -0.042516 0.092442 0.11744 -0.14311 -0.087467 0.138 -0.16807 0.1139 -0.17847 0.06222 0.14698 -0.095677 -0.087333 0.03231 -0.10662 0.2488 -0.13741 0.03683 -0.086059 0.099139 -0.08076 0.050245 -0.054214 0.028356 0.065762 0.10483 -0.086177 0.011416 0.03912 -0.059486 0.030764 -0.051896 -0.12639 -0.040765 -0.062762 0.0017039 0.0368 -0.014511 0.16778 -0.11596 0.060873 0.049194 0.17959 0.029576 -0.082133 0.031831 0.1702 0.041104 0.16339 0.017438 0.072181 0.043469 -0.11549 0.13856 -0.20009 0.16992 
말|NNG -0.29457 -0.21206 -0.20083 0.42852 -0.1123 -0.41015 -0.3386 -0.14197 -0.50216 -0.068017 0.025915 -0.065503 -0.26726 -0.25036 0.09332 0.073595 0.086664 -0.06883 0.085925 -0.25732 0.12138 -0.56992 0.028622 0.21904 0.22744 0.11003 0.01471 -0.29865 0.029849 -0.12068 0.14215 0.093332 -0.083103 -0.074437 0.60176 -0.14288 -0.015696 0.58395 -0.054533 0.18934 0.40416 -0.27407 -0.24423 -0.11995 0.043371 0.020939 -0.063862 0.22349 0.099421 -0.26761 0.084731 -0.59571 0.13809 -0.38244 -0.03927 0.0065702 -0.14774 0.48448 0.013555 -0.07928 0.046233 0.10073 -0.1701 0.19647 0.16759 0.054733 0.4945 0.20945 0.18724 0.085666 0.59488 0.12318 0.028269 -0.45211 -0.1605 0.051223 -0.1007 -0.34475 -0.14099 0.36451 0.54803 -0.26267 -0.75644 0.27228 0.11675 0.1901 -0.19975 -0.25913 0.11608 0.013201 -0.43332 -0.0085015 -0.25243 0.24666 -0.20827 -0.14535 0.31724 -0.12401 0.20051 0.3584 
오후|NNG 0.4121 0.17563 -0.069636 -0.44859 -0.30201 0.071746 -0.19394 -0.087208 -0.026778 -0.32991 0.63696 0.12479 -0.095314 -0.026505 -0.24618 0.21082 -0.20932 -0.037738 -0.14449 0.7782 0.74666 0.41637 0.22772 -0.11049 -0.29961 0.47506 -0.44443 -0.90166 0.24658 -0.10218 -0.4564 -0.05844 0.062881 0.55258 0.097901 0.23082 0.036301 -0.15728 0.20459 -0.11239 -0.05544 0.28229 -0.45745 -0.69805 0.046295 0.3873 0.38958 -0.50261 -0.18079 0.43152 -0.443 0.34772 -0.58439 0.1314 0.46192 -0.41485 -0.49964 -0.12006 -0.58121 0.65641 -0.20967 -0.14695 -0.50328 0.39119 -0.34042 0.046086 -0.17224 0.19129 0.040431 0.27666 -0.31046 -0.13427 0.21778 -0.23581 0.30293 -0.10558 -0.54582 -0.14363 -0.1567 0.28244 0.20029 -0.12151 0.57845 -0.26553 0.19547 0.35069 0.91156 -0.12007 -0.41517 0.19128 0.47056 0.22279 0.53005 0.25733 0.18576 0.27239 -0.50889 0.26347 -0.7015 0.70677 
세요|EP+EF -0.075289 0.14266 -0.12095 0.028081 0.27617 -0.20092 -0.10904 0.25895 0.00062237 0.22646 -0.0067667 -0.030622 0.043043 0.074012 0.079553 0.088415 0.15706 -0.096458 0.21003 -0.1623 -0.18713 -0.035921 0.052348 0.0046448 0.095765 -0.044591 0.13348 -0.086248 -0.16775 0.09994 0.042749 0.086028 -0.23615 0.070846 0.084637 -0.043664 -0.075541 -0.047651 -0.022243 -0.0085229 0.17886 0.066235 0.068075 -0.064849 -0.19435 -0.063487 0.034268 0.0038232 -0.12318 0.03941 -0.15516 0.021311 -0.048193 0.073693 0.15279 0.076301 0.15306 0.27122 0.10375 0.25596 -0.21827 0.24779 0.08967 -0.021019 0.076228 0.17763 0.031629 -0.11065 0.18366 0.11041 0.084588 0.15267 -0.082898 0.0079559 -0.16703 -0.12399 0.0093117 0.0009933 -0.098197 -0.20344 -0.028012 0.01457 -0.046574 -0.16287 0.072432 -0.14131 -0.23843 0.16631 0.084193 -0.018596 0.1178 -0.089822 0.0028979 -0.15751 0.051871 -0.085125 0.07217 0.19781 -0.013952 0.016815 
주|VX -0.075639 0.13961 -0.11586 0.025029 0.26911 -0.20911 -0.10245 0.25559 0.01473 0.22484 -0.020683 -0.033557 0.026092 0.075721 0.091895 0.081891 0.14867 -0.093699 0.2101 -0.16952 -0.18424 -0.050512 0.062319 0.02339 0.10726 -0.054251 0.12997 -0.083012 -0.16613 0.099888 0.036495 0.07307 -0.24468 0.078225 0.077042 -0.054947 -0.074597 -0.041705 -0.027355 -0.015525 0.18468 0.083726 0.0835 -0.06248 -0.2076 -0.064487 0.037771 -0.0087179 -0.11494 0.040755 -0.14598 0.020318 -0.053265 0.085327 0.15013 0.087847 0.15111 0.28654 0.11019 0.27167 -0.22983 0.24079 0.10098 -0.012797 0.073831 0.17927 0.033312 -0.11273 0.18131 0.10511 0.083966 0.13821 -0.064261 0.0082448 -0.16751 -0.13733 0.022043 -0.005558 -0.10588 -0.21825 -0.026106 0.018244 -0.04998 -0.1589 0.079397 -0.13372 -0.24445 0.18094 0.0875 -0.018478 0.10897 -0.10171 0.0064054 -0.14307 0.045761 -0.070781 0.063554 0.19687 -0.022239 0.013366 
싶|VX 0.038787 0.2526 -0.059075 -0.12975 0.36594 -0.092998 0.0047548 0.38886 0.21146 0.31984 -0.035383 -0.023688 0.15989 0.21107 0.078736 0.069265 0.1739 -0.10712 0.22692 -0.1021 -0.30731 0.16306 0.055313 -0.056264 0.036805 -0.12227 0.18598 0.058707 -0.21765 0.15564 -0.0078848 0.048839 -0.24167 0.13112 -0.14321 -0.0082437 -0.073031 -0.30442 0.0086595 -0.084983 0.055369 0.18501 0.20675 -0.023547 -0.27948 -0.1009 0.062269 -0.074472 -0.17917 0.15286 -0.20799 0.24936 -0.093928 0.26041 0.21551 0.10557 0.26767 0.15523 0.11534 0.36048 -0.28281 0.24628 0.17741 -0.13009 0.032248 0.21585 -0.1599 -0.25998 0.12239 0.099991 -0.12897 0.12311 -0.10602 0.23566 -0.13753 -0.20326 0.071115 0.15296 -0.06371 -0.4288 -0.25412 0.10845 0.24538 -0.29505 0.056683 -0.24387 -0.22951 0.33998 0.083509 -0.01206 0.30259 -0.13595 0.084665 -0.29906 0.15578 -0.020135 -0.050857 0.28761 -0.10836 -0.14127 
고|EC 0.028023 0.25118 -0.041423 -0.11888 0.37118 -0.08939 0.0055518 0.4081 0.21203 0.31909 -0.048474 -0.018917 0.15333 0.22161 0.069809 0.086045 0.18049 -0.10883 0.23121 -0.10547 -0.30518 0.17136 0.056852 -0.060132 0.032411 -0.12291 0.18681 0.044015 -0.21631 0.16504 0.0078945 0.047702 -0.23663 0.14136 -0.14107 0.001837 -0.091521 -0.29377 -0.0083703 -0.096486 0.060803 0.17902 0.20275 -0.023622 -0.2713 -0.10612 0.046808 -0.075952 -0.17431 0.15294 -0.20296 0.26239 -0.11044 0.25032 0.19953 0.12228 0.26089 0.14275 0.12397 0.3472 -0.26953 0.24642 0.18083 -0.14397 0.034111 0.2023 -0.1582 -0.2499 0.12043 0.090228 -0.13023 0.1295 -0.12035 0.22519 -0.12625 -0.19754 0.055276 0.15178 -0.06092 -0.42887 -0.26069 0.11734 0.24618 -0.30328 0.050221 -0.25999 -0.22716 0.33563 0.081518 -0.019855 0.29455 -0.14247 0.088381 -0.299 0.1371 -0.024608 -0.046769 0.29377 -0.10068 -0.14136 
오전|NNG 0.51781 0.26419 0.021837 -0.68244 -0.23485 0.27911 -0.00050343 -0.081782 0.23875 -0.30738 0.61272 0.1653 0.039597 0.064004 -0.3008 0.13498 -0.29938 0.059564 -0.21374 0.8747 0.69856 0.6891 0.20622 -0.22886 -0.37706 0.41194 -0.49269 -0.78419 0.23509 0.0025467 -0.50842 -0.098386 0.061491 0.49531 -0.21119 0.29098 0.068824 -0.4114 0.21999 -0.19057 -0.22921 0.45771 -0.35429 -0.61524 0.057018 0.38526 0.40681 -0.58348 -0.21398 0.55114 -0.49828 0.62223 -0.63674 0.30496 0.39624 -0.44433 -0.47439 -0.36358 -0.5273 0.63027 -0.25491 -0.13866 -0.3646 0.35271 -0.42522 -0.019682 -0.40618 0.17018 -0.038266 0.23655 -0.59021 -0.16585 0.20348 -0.058359 0.37511 -0.063113 -0.46652 -0.034232 -0.073068 0.14489 -0.052374 0.014838 0.9295 -0.35223 0.095595 0.24259 0.97949 -0.046891 -0.47091 0.15562 0.64407 0.26856 0.66232 0.13602 0.24638 0.29721 -0.60433 0.30314 -0.75108 0.53275 
해|XSV+EC -0.22474 -0.16389 -0.12745 0.28433 -0.081215 -0.24562 -0.18889 -0.16202 -0.32721 -0.065501 -0.0063232 -0.046856 -0.18253 -0.19843 0.065571 0.010769 0.028934 -0.0063373 0.015433 -0.20005 0.086441 -0.39305 0.0081146 0.14653 0.14448 0.053673 -0.019225 -0.17918 0.049033 -0.071024 0.092475 0.066694 -0.038575 -0.1118 0.3887 -0.10056 -0.0056972 0.40979 -0.060504 0.11891 0.26204 -0.17702 -0.16024 -0.04289 0.076034 0.014549 -0.058539 0.15707 0.075802 -0.20484 0.079999 -0.41604 0.11747 -0.28452 -0.098993 -0.0011032 -0.12365 0.29299 0.045876 -0.12057 0.051264 0.05855 -0.09137 0.156 0.10336 -0.0043607 0.34439 0.17934 0.11845 0.034311 0.39981 0.087846 0.028195 -0.31458 -0.11447 0.083388 -0.041116 -0.2517 -0.077569 0.27338 0.37848 -0.15677 -0.51718 0.22108 0.043948 0.12171 -0.14607 -0.20042 0.074117 -0.015175 -0.31914 0.013649 -0.18791 0.16623 -0.17521 -0.12208 0.2502 -0.12702 0.19234 0.20516 
바꿀|VV+ETM 0.036549 0.26657 -0.053732 -0.14754 0.3954 -0.078224 0.027566 0.39681 0.22761 0.32455 -0.042633 -0.0028326 0.164 0.21548 0.067022 0.081233 0.16214 -0.088319 0.22572 -0.087937 -0.30478 0.19392 0.055369 -0.073032 0.025572 -0.11545 0.16669 0.049048 -0.22258 0.17825 -0.0051053 0.061534 -0.26185 0.11436 -0.16329 -0.0014422 -0.076991 -0.31154 0.002177 -0.1022 0.059254 0.2099 0.21079 -0.025264 -0.26939 -0.097675 0.063225 -0.079033 -0.19575 0.15662 -0.21328 0.27325 -0.1039 0.26838 0.19838 0.10757 0.24465 0.13772 0.13386 0.34622 -0.29694 0.26526 0.20144 -0.12146 0.029462 0.2007 -0.16699 -0.2263 0.13161 0.098308 -0.15485 0.12341 -0.11445 0.21882 -0.12403 -0.18032 0.078463 0.14939 -0.057531 -0.43266 -0.27294 0.1248 0.26165 -0.31619 0.028486 -0.2658 -0.22664 0.32396 0.076887 -0.030789 0.32299 -0.12273 0.098221 -0.2994 0.15367 -0.032916 -0.048682 0.29807 -0.10234 -0.14984 
줘|VX+EC -0.19905 -0.15993 -0.11622 0.31161 -0.096595 -0.28692 -0.23385 -0.082275 -0.36424 -0.061693 0.0053283 -0.060556 -0.19643 -0.16774 0.054159 0.048559 0.071881 -0.065316 0.067835 -0.17147 0.075366 -0.40522 0.011409 0.15299 0.1473 0.083729 0.030992 -0.16687 0.031002 -0.11753 0.11298 0.058424 -0.012374 -0.017446 0.41679 -0.11167 -0.029043 0.40705 -0.033327 0.14382 0.25128 -0.22116 -0.15298 -0.078332 0.023373 -0.0029315 -0.03566 0.15274 0.090076 -0.19801 0.099592 -0.41628 0.10462 -0.27301 -0.020864 0.035799 -0.08647 0.32174 -0.013421 -0.069298 0.076381 0.026353 -0.13738 0.099553 0.11465 0.021332 0.35609 0.11686 0.11292 0.035846 0.42318 0.060683 0.019067 -0.28818 -0.098709 0.016097 -0.075139 -0.19874 -0.088708 0.25078 0.37249 -0.1984 -0.52253 0.20017 0.10486 0.15371 -0.1146 -0.16145 0.077238 0.022666 -0.30389 -0.021009 -0.19703 0.17644 -0.12868 -0.065744 0.1885 -0.11175 0.13698 0.22598 
시|NNG 0.031999 0.34344 -0.065666 -0.17913 0.52972 -0.10006 0.02479 0.54326 0.29676 0.44964 -0.070816 -0.03178 0.22049 0.30285 0.098406 0.10455 0.24179 -0.1444 0.31332 -0.14334 -0.41787 0.23342 0.077208 -0.093043 0.046439 -0.17702 0.25253 0.10383 -0.31912 0.23297 -0.0024161 0.068011 -0.33206 0.17153 -0.22244 -0.0093621 -0.11059 -0.4167 -0.0011035 -0.12666 0.057885 0.23944 0.29146 -0.0039964 -0.3727 -0.14649 0.074925 -0.10257 -0.24785 0.19168 -0.27067 0.36598 -0.12772 0.35662 0.26411 0.1627 0.36439 0.1878 0.16701 0.46821 -0.37682 0.33929 0.26876 -0.1962 0.048351 0.2792 -0.22485 -0.35264 0.16899 0.12157 -0.18252 0.15919 -0.16176 0.32654 -0.18496 -0.26238 0.095478 0.23741 -0.076895 -0.58651 -0.37378 0.1744 0.34755 -0.41084 0.050034 -0.35757 -0.32018 0.45358 0.10668 -0.033435 0.41802 -0.17787 0.12891 -0.41873 0.20369 -0.038856 -0.071011 0.38021 -0.13585 -0.219 
다시|MAG -0.23707 -0.19531 -0.15034 0.38069 -0.12568 -0.31299 -0.28359 -0.13991 -0.43102 -0.067317 0.01857 -0.057877 -0.23219 -0.21548 0.056991 0.03499 0.069565 -0.047743 0.056096 -0.21204 0.10145 -0.47613 0.024298 0.18224 0.17269 0.085098 0.020895 -0.18547 0.036223 -0.14124 0.11584 0.070807 -0.027721 -0.056731 0.48564 -0.11661 -0.013832 0.49484 -0.054042 0.16169 0.30105 -0.2523 -0.19627 -0.071863 0.044416 0.0046094 -0.061382 0.20055 0.097426 -0.23761 0.11734 -0.50952 0.13546 -0.34785 -0.04602 0.030138 -0.11149 0.36133 0.0051149 -0.10973 0.093466 0.032982 -0.15962 0.12614 0.14057 0.02005 0.42754 0.14968 0.13683 0.033009 0.50279 0.077161 0.026596 -0.35785 -0.12512 0.041161 -0.071562 -0.2586 -0.085969 0.3163 0.46335 -0.2212 -0.64248 0.23733 0.10151 0.18337 -0.15201 -0.2089 0.10033 0.030136 -0.38526 -0.025031 -0.23212 0.21849 -0.17602 -0.10324 0.25644 -0.14379 0.17643 0.26735 
일|NNG -0.12603 0.28767 -0.11062 0.078019 0.59626 -0.29558 -0.069557 0.64234 0.16024 0.56801 -0.20889 -0.095191 0.17668 0.29576 0.19772 0.1068 0.41093 -0.23475 0.46392 -0.41534 -0.6383 -0.035439 0.050146 0.0036939 0.18265 -0.25554 0.45181 0.2537 -0.41961 0.18763 0.15784 0.11035 -0.38036 0.14029 -0.044597 -0.10785 -0.16969 -0.25336 -0.058561 -0.04097 0.18434 0.063066 0.36579 0.092521 -0.45209 -0.2652 -0.028101 0.067967 -0.19555 0.016473 -0.13129 0.14628 0.043307 0.24027 0.24691 0.31984 0.54353 0.40737 0.29076 0.38975 -0.3277 0.3902 0.3025 -0.31024 0.19867 0.35143 -0.045037 -0.43896 0.2263 0.098802 0.077886 0.24191 -0.22314 0.32087 -0.33964 -0.31795 0.172 0.22701 -0.089016 -0.65827 -0.27867 0.10644 0.01016 -0.34797 0.098701 -0.40063 -0.61845 0.5247 0.25528 -0.047088 0.22846 -0.31051 -0.10105 -0.45503 0.16352 -0.094385 0.091302 0.35068 0.043336 -0.29851 
될까요|VV+EC 0.15085 0.24891 -0.043694 -0.23201 0.19542 -0.014334 -0.014292 0.27539 0.17404 0.16082 0.14399 0.0274 0.096733 0.16533 -0.024492 0.1103 0.070332 -0.093874 0.13402 0.15164 -0.026346 0.26929 0.10918 -0.087862 -0.062274 0.023329 0.022191 -0.18826 -0.11284 0.10496 -0.13852 0.020448 -0.16348 0.25695 -0.11529 0.063721 -0.055824 -0.29861 0.065969 -0.10233 0.00027523 0.23275 0.039056 -0.19946 -0.18319 0.030197 0.15713 -0.21419 -0.17982 0.2404 -0.2806 0.33428 -0.24135 0.25598 0.27317 -0.035968 0.075305 0.050038 -0.073227 0.44829 -0.27456 0.13049 0.025649 0.0026197 -0.074429 0.15845 -0.20098 -0.14233 0.10033 0.15118 -0.21385 0.051643 -0.029789 0.1333 -0.005864 -0.16996 -0.078635 0.0859 -0.080409 -0.26624 -0.16916 0.066098 0.38389 -0.30409 0.080575 -0.11141 0.091814 0.23279 -0.058876 0.036179 0.37571 -0.042386 0.21637 -0.16024 0.17725 0.063703 -0.19526 0.29376 -0.27121 0.07142 
뭐|NP -0.38623 -0.31866 -0.27476 0.67964 -0.23545 -0.63084 -0.56321 -0.14414 -0.80659 -0.11195 0.06808 -0.12693 -0.41345 -0.33051 0.11247 0.1403 0.22069 -0.18007 0.178 -0.3265 0.17839 -0.86603 0.067448 0.35382 0.29393 0.19474 0.082792 -0.39185 0.057064 -0.27885 0.20034 0.12743 -0.022103 0.045853 0.91639 -0.21959 -0.070512 0.86674 -0.042137 0.31155 0.53598 -0.49811 -0.33666 -0.201 0.02559 0.0045402 -0.069764 0.3068 0.16575 -0.42057 0.18545 -0.87304 0.19925 -0.59106 0.040851 0.077647 -0.15079 0.72527 -0.076556 -0.041746 0.1476 0.032843 -0.36209 0.18343 0.243 0.10732 0.74388 0.19427 0.24302 0.094525 0.92776 0.1245 0.032771 -0.59648 -0.22637 -0.025143 -0.19332 -0.40267 -0.19744 0.52018 0.82365 -0.43131 -1.1275 0.36816 0.2572 0.35401 -0.21393 -0.29136 0.15769 0.089637 -0.62283 -0.090893 -0.39956 0.36953 -0.24 -0.11123 0.37325 -0.18111 0.24104 0.5123 
하|VV -0.01305 0.073178 0.028831 -0.075115 0.15098 0.067038 0.11299 0.070007 0.14237 0.10442 -0.077389 0.0084809 0.10072 0.055085 0.028425 -0.037031 -0.0053158 0.042517 0.025496 -0.06109 -0.12699 0.098716 -0.019544 -0.05833 0.016884 -0.097398 0.032455 0.11363 -0.063196 0.091813 0.021593 0.0023786 -0.076109 -0.093595 -0.14918 0.010958 0.0029812 -0.13455 -0.017428 -0.058936 -0.028246 0.10748 0.1135 0.096648 -0.036116 -0.049159 -0.032422 -0.0058901 -0.045528 0.041425 -0.036244 0.11763 -0.0032716 0.10416 -0.052722 0.029198 0.072356 -0.049915 0.10826 -0.013433 -0.07204 0.086326 0.14167 -0.037466 0.0059831 0.0020574 -0.10135 -0.050138 0.0070468 -0.017082 -0.1227 0.048072 -0.038792 0.11192 -0.022252 0.022379 0.10412 0.058154 0.027231 -0.14864 -0.16389 0.094048 0.13258 -0.074214 -0.072691 -0.14515 -0.12414 0.07827 0.033268 -0.055258 0.083487 -0.013219 0.022918 -0.11465 0.011541 -0.043123 0.020158 0.045681 0.040434 -0.14183 
시|NNBC 0.2323 0.047888 0.005044 -0.28704 -0.21888 0.14577 0.0030192 -0.16368 0.042839 -0.25274 0.3118 0.092386 -0.026279 -0.036823 -0.16055 0.037696 -0.21531 0.061422 -0.17238 0.43639 0.44819 0.28243 0.085357 -0.078902 -0.17882 0.24037 -0.30733 -0.41446 0.18188 -0.041589 -0.25007 -0.059098 0.079408 0.18612 -0.038934 0.14108 0.057539 -0.10502 0.10873 -0.065908 -0.10974 0.17358 -0.25205 -0.29701 0.11404 0.21899 0.19223 -0.26663 -0.060889 0.23332 -0.19557 0.19978 -0.27897 0.072076 0.11587 -0.26797 -0.33255 -0.20891 -0.28663 0.20003 -0.043833 -0.12132 -0.21733 0.25242 -0.22315 -0.072145 -0.14022 0.18636 -0.03381 0.10269 -0.24631 -0.11049 0.13365 -0.12604 0.21017 0.04007 -0.2346 -0.08837 -0.034968 0.21584 0.061628 -0.030642 0.35268 -0.071775 0.016418 0.19217 0.53298 -0.14969 -0.24947 0.081988 0.22419 0.18858 0.29469 0.16369 0.061013 0.13823 -0.25008 0.05401 -0.32765 0.31464 
몇|MM 0.22924 0.043266 -0.0021198 -0.29441 -0.21895 0.16316 0.001197 -0.16397 0.050589 -0.25319 0.31634 0.082304 -0.035392 -0.040597 -0.16128 0.046262 -0.21622 0.079515 -0.17859 0.4437 0.44063 0.27329 0.078405 -0.093616 -0.1769 0.2295 -0.31183 -0.42597 0.17998 -0.033673 -0.25098 -0.04711 0.083782 0.18635 -0.037355 0.14705 0.065448 -0.098056 0.097907 -0.074015 -0.092502 0.18762 -0.24811 -0.30604 0.11869 0.2281 0.18439 -0.26133 -0.054585 0.23279 -0.1915 0.20515 -0.28062 0.068194 0.11584 -0.26951 -0.32429 -0.20761 -0.28924 0.19869 -0.053059 -0.12664 -0.2257 0.24877 -0.22316 -0.067165 -0.13129 0.1876 -0.04526 0.09035 -0.23669 -0.10564 0.14752 -0.12627 0.21636 0.053003 -0.23717 -0.095019 -0.039596 0.21349 0.057983 -0.027161 0.36082 -0.074991 0.019813 0.19242 0.5265 -0.13657 -0.25622 0.076643 0.21042 0.19104 0.30366 0.15868 0.059203 0.13585 -0.25128 0.064665 -0.32386 0.32897 
겠|EP -0.052941 -0.11574 0.1007 -0.016321 -0.068995 0.21258 0.20831 -0.27255 0.08586 -0.12384 -0.1286 0.04238 0.037743 -0.096773 -0.0026989 -0.1631 -0.19226 0.19995 -0.20904 -0.082743 0.00091108 0.027792 -0.12335 -0.024467 0.0040661 -0.081846 -0.098939 0.19465 0.082793 0.044346 0.051521 -0.040536 0.090721 -0.33752 -0.146 0.0142 0.083251 0.025705 -0.069587 -0.014355 -0.10746 0.024717 0.031438 0.24252 0.21084 -0.0053641 -0.11268 0.089069 0.10732 -0.075154 0.14681 -0.073084 0.15308 -0.065501 -0.32602 -0.050849 -0.075975 -0.25071 0.14155 -0.41919 0.13934 -0.069856 0.13136 0.040306 -0.0067615 -0.20029 -0.042567 0.16886 -0.12082 -0.12657 -0.085013 -0.044866 0.022611 -0.0083996 0.062509 0.23421 0.15706 -0.056667 0.10221 0.13103 -0.069786 0.085632 -0.019778 0.18904 -0.184 -0.029017 -0.039675 -0.18849 -0.011549 -0.079037 -0.15499 0.12059 -0.056388 0.046936 -0.12213 -0.090078 0.12463 -0.22484 0.22147 -0.18443 
한|XSA+ETM 0.14644 -0.068193 -0.00099809 -0.12642 -0.29701 0.1002 -0.05273 -0.26977 -0.10205 -0.31089 0.25439 0.069053 -0.10581 -0.13536 -0.14103 0.012116 -0.18983 0.071057 -0.18882 0.34537 0.44356 0.093552 0.054824 -0.019802 -0.12324 0.23585 -0.2895 -0.37817 0.21739 -0.10111 -0.16791 -0.054792 0.13961 0.10751 0.080357 0.082368 0.067213 0.082105 0.069697 0.0075812 -0.053358 0.030718 -0.27568 -0.24415 0.17823 0.19794 0.11908 -0.15321 0.030122 0.092768 -0.07148 0.0091739 -0.16856 -0.088231 0.035533 -0.23045 -0.34691 -0.14576 -0.26561 0.034355 0.06102 -0.1674 -0.25494 0.23709 -0.16733 -0.11373 0.0047971 0.23691 -0.058065 0.058224 -0.070248 -0.11371 0.14982 -0.20377 0.19702 0.08321 -0.23013 -0.15706 -0.013371 0.34461 0.1998 -0.098922 0.1014 0.066377 0.018563 0.26253 0.46999 -0.23872 -0.2019 0.064399 0.015869 0.18248 0.1752 0.2555 -0.024608 0.10938 -0.16011 -0.055923 -0.19175 0.33348 
바꿔|VV+EC 0.051911 0.24548 -0.028489 -0.15866 0.31772 -0.064118 0.022764 0.35884 0.20784 0.29198 -0.01784 -0.012893 0.15068 0.2137 0.050653 0.072989 0.13945 -0.095616 0.19642 -0.035364 -0.24817 0.18585 0.059125 -0.065705 0.0077527 -0.089655 0.14452 0.024408 -0.19413 0.13847 -0.022587 0.037996 -0.20446 0.14643 -0.1416 0.002626 -0.080006 -0.30118 0.01529 -0.090895 0.028386 0.17642 0.1647 -0.052008 -0.23973 -0.07335 0.062162 -0.10676 -0.17167 0.15415 -0.1978 0.28111 -0.11648 0.25693 0.21459 0.082093 0.22697 0.10575 0.080098 0.35422 -0.25849 0.19501 0.15206 -0.11229 0.0012878 0.18591 -0.17982 -0.23787 0.10397 0.095282 -0.14306 0.098111 -0.096025 0.21953 -0.097804 -0.18335 0.048029 0.14975 -0.05253 -0.38767 -0.25174 0.10937 0.27848 -0.29461 0.041931 -0.20978 -0.15712 0.31747 0.051848 -0.014754 0.30861 -0.11393 0.10137 -0.26937 0.15239 -0.0055413 -0.096542 0.26655 -0.13943 -0.1053 
끊|VV -0.045533 -0.10955 0.16882 -0.11222 -0.020515 0.37275 0.38221 -0.35664 0.23675 -0.13897 -0.21074 0.067893 0.1083 -0.081159 -0.014825 -0.23503 -0.27967 0.30077 -0.28412 -0.093682 -0.065469 0.14938 -0.19577 -0.093453 -0.012553 -0.17088 -0.14454 0.35764 0.095928 0.10448 0.051607 -0.053131 0.085862 -0.50224 -0.34345 0.026112 0.13727 -0.078463 -0.090951 -0.058563 -0.21964 0.10678 0.11357 0.37901 0.26541 -0.029291 -0.15738 0.10427 0.11642 -0.067182 0.1677 0.044347 0.18178 0.020772 -0.47285 -0.052138 -0.067412 -0.42148 0.24349 -0.56302 0.1534 -0.060566 0.28006 0.026826 -0.047304 -0.28883 -0.15095 0.18891 -0.17814 -0.18478 -0.25242 -0.057906 0.018784 0.074343 0.10005 0.33427 0.27998 -0.020269 0.17206 0.10229 -0.22461 0.19123 0.10984 0.20992 -0.30674 -0.12948 -0.083226 -0.20316 -0.011781 -0.14719 -0.14837 0.1709 -0.032153 -0.010915 -0.14239 -0.13273 0.16038 -0.28346 0.28907 -0.33332 
들려|VV+EC -0.32415 -0.23204 -0.21602 0.49284 -0.10452 -0.43981 -0.36148 -0.12894 -0.53399 -0.060735 -0.0053933 -0.075814 -0.27949 -0.25221 0.10424 0.0775 0.11985 -0.090426 0.11211 -0.31781 0.093104 -0.61835 0.021849 0.24675 0.23427 0.098056 0.043 -0.26627 0.022728 -0.154 0.16675 0.10477 -0.066574 -0.057437 0.6385 -0.17899 -0.041859 0.63054 -0.074855 0.21611 0.41452 -0.32798 -0.21423 -0.08514 0.020458 -0.0081741 -0.073527 0.24747 0.1163 -0.31357 0.12082 -0.6529 0.15831 -0.4209 -0.044311 0.061345 -0.10514 0.51293 0.033197 -0.099717 0.08306 0.10046 -0.18431 0.15434 0.1888 0.067124 0.54801 0.17302 0.20693 0.075487 0.64916 0.11833 0.026006 -0.44886 -0.18981 0.025879 -0.092416 -0.33147 -0.14516 0.36895 0.58469 -0.28437 -0.82963 0.28628 0.13028 0.19985 -0.24582 -0.24509 0.14959 0.012604 -0.47913 -0.037274 -0.30305 0.25214 -0.22254 -0.14744 0.34868 -0.13831 0.24526 0.3436 
어|EC -0.0004518 -0.090321 0.19548 -0.10619 -0.01615 0.36645 0.36721 -0.25233 0.26465 -0.076754 -0.21754 0.043637 0.12896 -0.018423 -0.017281 -0.21697 -0.21549 0.2404 -0.23545 -0.055863 -0.11578 0.18026 -0.16626 -0.096708 -0.040306 -0.18084 -0.076924 0.41928 0.066245 0.092996 0.048407 -0.069655 0.12825 -0.39658 -0.38471 0.036442 0.093764 -0.1426 -0.063901 -0.056584 -0.26244 0.079725 0.15975 0.36515 0.21293 -0.054757 -0.15455 0.072515 0.10884 -0.036027 0.17638 0.10178 0.17734 0.055141 -0.39652 -0.0051106 0.00082062 -0.42812 0.1907 -0.49595 0.16872 -0.098061 0.24351 -0.056781 -0.037557 -0.23657 -0.19534 0.082429 -0.20432 -0.19068 -0.26671 -0.079495 -0.0072342 0.16798 0.099933 0.2632 0.26334 0.060744 0.18528 0.0080078 -0.27889 0.19593 0.18408 0.14109 -0.27433 -0.13526 -0.072027 -0.10964 -0.0053419 -0.1142 -0.083478 0.11363 -0.039788 -0.04136 -0.072243 -0.061376 0.067573 -0.22729 0.24019 -0.38161 
할까요|XSA+EC 0.10407 0.13362 -0.021055 -0.18001 0.098215 0.015623 0.012418 0.11825 0.12225 0.054993 0.082957 0.01761 0.055145 0.080962 -0.034374 0.044988 0.010223 -0.013615 0.049288 0.10779 0.012212 0.18135 0.065017 -0.071727 -0.04419 0.026732 -0.034014 -0.13351 -0.043586 0.058627 -0.084305 0.012187 -0.081467 0.11703 -0.095267 0.046241 -0.018582 -0.17247 0.042688 -0.068493 -0.016847 0.14513 0.011164 -0.12255 -0.085838 0.034143 0.095582 -0.13832 -0.11104 0.15329 -0.16114 0.20603 -0.16114 0.14577 0.14059 -0.042224 0.0081062 -0.015777 -0.039915 0.24012 -0.16257 0.080969 0.016513 0.021904 -0.069932 0.074865 -0.14229 -0.045547 0.043986 0.080223 -0.14716 0.025917 0.004145 0.071171 0.022834 -0.069936 -0.051755 0.049126 -0.028088 -0.1257 -0.11399 0.057409 0.26288 -0.16763 0.03271 -0.056467 0.090405 0.10113 -0.062269 0.019107 0.2303 0.0088037 0.15124 -0.071199 0.084685 0.036624 -0.12653 0.1497 -0.162 0.041812 
한가요|XSA+EC -0.024773 0.12677 -0.059787 0.013023 0.22985 -0.12549 -0.04295 0.26151 0.063531 0.21883 -0.051812 -0.04037 0.056992 0.11071 0.071039 0.060108 0.14541 -0.096003 0.17472 -0.12703 -0.21807 0.0081532 0.035111 0.00098173 0.063292 -0.071185 0.15746 0.039544 -0.15975 0.070915 0.042112 0.045463 -0.1493 0.082216 -0.00051852 -0.034544 -0.060081 -0.10318 -0.0069675 -0.021432 0.082292 0.038883 0.12481 -0.0087695 -0.1886 -0.081608 0.0068165 -0.0053949 -0.080397 0.039181 -0.09389 0.073347 -0.016483 0.10614 0.13184 0.11138 0.18599 0.16656 0.079391 0.20319 -0.14759 0.15375 0.098883 -0.097032 0.065481 0.14917 -0.035501 -0.1705 0.094426 0.052878 0.020918 0.087542 -0.0829 0.10981 -0.12288 -0.13502 0.040787 0.086998 -0.044355 -0.24274 -0.09986 0.043495 0.037122 -0.1448 0.055233 -0.12863 -0.1924 0.20055 0.07729 -0.009874 0.12357 -0.10348 -0.014215 -0.15709 0.065908 -0.024632 0.011779 0.15314 -0.017643 -0.0815 
습니다|EF 0.057814 -0.024709 0.16272 -0.18589 0.0079105 0.35797 0.35354 -0.20926 0.29322 -0.083353 -0.14698 0.066174 0.14751 -0.0018857 -0.041322 -0.18082 -0.21403 0.21981 -0.21802 0.0062161 -0.057251 0.24486 -0.13485 -0.11005 -0.069319 -0.13389 -0.10167 0.31188 0.057198 0.10088 -0.00010338 -0.058215 0.083767 -0.32997 -0.38147 0.066162 0.09959 -0.20683 -0.05383 -0.080064 -0.25379 0.14922 0.12936 0.27267 0.17331 -0.013971 -0.089325 0.020438 0.047755 0.02296 0.081513 0.17456 0.091217 0.1096 -0.32667 -0.04284 -0.019906 -0.41107 0.15438 -0.37301 0.099985 -0.06624 0.23324 -0.020911 -0.067629 -0.20088 -0.23031 0.089559 -0.18279 -0.16014 -0.32755 -0.079825 0.016857 0.15719 0.12121 0.22828 0.20422 0.051702 0.15595 -0.01006 -0.29239 0.20547 0.27033 0.078463 -0.23808 -0.1346 0.0056438 -0.078274 -0.032684 -0.10636 0.0012355 0.1305 0.037535 -0.053795 -0.044934 -0.041025 0.023717 -0.15391 0.1515 -0.31718 
날|NNG -0.0082651 0.096251 -0.020102 -0.041595 0.16448 -0.038667 0.0040022 0.16139 0.087196 0.12928 -0.029263 -0.0086955 0.055533 0.085209 0.045435 0.02821 0.076974 -0.027396 0.089332 -0.066261 -0.14151 0.054734 0.017825 -0.031655 0.034108 -0.068625 0.083441 0.036828 -0.10295 0.066176 0.0075271 0.02903 -0.11304 0.029769 -0.051067 -0.015814 -0.038071 -0.10019 -0.0081976 -0.03527 0.023448 0.07828 0.081026 0.005928 -0.099643 -0.041977 0.017551 -0.02322 -0.075875 0.050667 -0.063027 0.080472 -0.033366 0.094389 0.066504 0.045608 0.11192 0.06618 0.075809 0.12273 -0.10636 0.10753 0.082633 -0.05943 0.023281 0.083878 -0.048278 -0.088244 0.055176 0.029811 -0.04807 0.0506 -0.05085 0.089311 -0.069651 -0.068831 0.03651 0.064789 -0.0275 -0.17661 -0.10824 0.051901 0.076635 -0.10439 0.015332 -0.12106 -0.11072 0.13151 0.044156 -0.021265 0.11361 -0.060241 0.029218 -0.13025 0.055304 -0.027706 0.010915 0.095212 -0.025227 -0.064539 
지|EC 0.063641 -0.065451 0.031224 0.13555 -0.17248 -0.078486 -0.1424 0.11211 -0.12731 -0.00854 0.0063538 -0.050396 -0.06673 0.044935 -0.024741 0.057755 0.16014 -0.18694 0.08411 0.09239 0.0033438 -0.11581 0.026831 0.066587 -0.049316 0.049975 0.13154 0.10661 0.0081914 -0.1649 0.022641 -0.037412 0.19987 0.26607 0.09435 -0.015191 -0.049551 0.055618 0.070104 0.076385 -0.06804 -0.25108 -0.00088511 -0.050445 -0.072523 -0.021449 0.0065756 0.016807 0.067169 -0.054186 0.13552 -0.032653 0.0506 -0.059498 0.18283 0.09866 0.10641 0.024027 -0.18296 0.07619 0.16796 -0.20753 -0.19519 -0.19012 0.038819 0.046286 0.081312 -0.17294 -0.087243 -0.045087 0.13275 -0.10511 -0.017485 0.090752 0.026269 -0.1768 -0.10784 0.16041 0.01435 -0.010274 0.073753 -0.10662 -0.1019 0.012357 0.14611 0.13545 0.10619 0.084804 0.023278 0.10529 -0.039973 -0.13733 -0.092444 0.045552 0.085654 0.17334 -0.13169 -0.0055304 -0.093681 0.016294 
후|NNG 0.15529 0.012144 0.0017602 -0.18002 -0.18076 0.085344 -0.040458 -0.1283 -0.0014889 -0.19562 0.23858 0.054676 -0.039567 -0.05572 -0.12113 0.042285 -0.13889 0.035385 -0.12097 0.31627 0.33265 0.15337 0.064763 -0.03544 -0.13324 0.19226 -0.22788 -0.3287 0.13823 -0.045453 -0.17496 -0.036511 0.073826 0.14933 0.0084096 0.086199 0.03608 -0.021867 0.083368 -0.036249 -0.060786 0.104 -0.19662 -0.23992 0.085368 0.17483 0.14058 -0.17772 -0.034837 0.13795 -0.13357 0.10482 -0.20676 0.01078 0.10588 -0.18679 -0.24435 -0.12283 -0.23495 0.15363 -0.016798 -0.099187 -0.20124 0.17239 -0.15255 -0.055225 -0.061729 0.14264 -0.033966 0.080334 -0.13238 -0.091058 0.11176 -0.11958 0.1626 0.018688 -0.18559 -0.074415 -0.021354 0.18033 0.084855 -0.051997 0.20653 -0.045348 0.037927 0.17131 0.40531 -0.1186 -0.17108 0.073784 0.11913 0.12198 0.20373 0.13489 0.047831 0.10293 -0.17704 0.036928 -0.23222 0.26749 
께|NNB 0.022767 0.077229 -0.021672 -0.061624 0.12163 -0.02219 -1.8826e-05 0.11859 0.077403 0.099895 -0.005936 -0.0019178 0.056346 0.060988 0.012919 0.01727 0.047872 -0.024067 0.060898 -0.019281 -0.08225 0.066985 0.02459 -0.022785 0.0032941 -0.022406 0.042974 -0.0063341 -0.057929 0.046193 -0.0049676 0.0059079 -0.079266 0.04245 -0.050701 0.0024964 -0.015989 -0.10254 0.0029758 -0.040039 0.016654 0.063647 0.052035 -0.0075858 -0.0726 -0.025002 0.015937 -0.037076 -0.063819 0.056677 -0.067959 0.084597 -0.049952 0.087891 0.054527 0.028146 0.075018 0.028189 0.031769 0.11787 -0.094734 0.070538 0.060374 -0.027974 0.0059962 0.064301 -0.064882 -0.073303 0.031083 0.029205 -0.045041 0.034096 -0.022356 0.071672 -0.040804 -0.059969 0.01746 0.03978 -0.01502 -0.12277 -0.089009 0.034089 0.082339 -0.09832 0.017462 -0.081637 -0.05011 0.092996 0.0089024 -0.0017569 0.10649 -0.02098 0.033923 -0.082224 0.043479 -0.0082424 -0.028083 0.081393 -0.045445 -0.03752 
알|VV 0.062248 -0.012539 0.14753 -0.16813 0.0059236 0.29613 0.2825 -0.15137 0.24297 -0.065643 -0.10407 0.044247 0.11979 0.017165 -0.032013 -0.13954 -0.16505 0.16768 -0.18037 0.02844 -0.051505 0.21638 -0.1044 -0.10251 -0.077639 -0.10304 -0.07291 0.25712 0.042162 0.079707 -0.0073095 -0.060286 0.073945 -0.24471 -0.3382 0.061441 0.072795 -0.19404 -0.031445 -0.075265 -0.2193 0.12652 0.10852 0.21077 0.13215 -0.020822 -0.067865 -0.0045893 0.034009 0.033403 0.060025 0.1676 0.05373 0.1108 -0.22763 -0.035323 -0.012866 -0.35065 0.11169 -0.27161 0.070311 -0.067891 0.17594 -0.024188 -0.056238 -0.16702 -0.20093 0.04339 -0.14618 -0.12708 -0.28731 -0.055392 0.012198 0.14854 0.10732 0.16637 0.16031 0.07445 0.12286 -0.024282 -0.26011 0.15703 0.27036 0.038466 -0.19009 -0.10336 0.030169 -0.053673 -0.042108 -0.067005 0.031828 0.099179 0.050202 -0.056296 -0.015498 -0.022291 -0.012125 -0.11588 0.08388 -0.26469 
됐|VV+EP 0.0092693 -0.070849 0.15728 -0.10046 -0.012124 0.32696 0.32642 -0.21875 0.23041 -0.075191 -0.17918 0.038775 0.12149 -0.004759 -0.0093225 -0.18489 -0.18313 0.20076 -0.20395 -0.036891 -0.093465 0.16202 -0.1446 -0.088184 -0.038065 -0.15527 -0.074023 0.36072 0.043083 0.081241 0.043444 -0.071386 0.10965 -0.34432 -0.35137 0.037949 0.088588 -0.1336 -0.056218 -0.060934 -0.22802 0.085465 0.1396 0.31124 0.18078 -0.042003 -0.11373 0.057855 0.076134 -0.025788 0.14188 0.10255 0.15133 0.069499 -0.32812 -0.0053373 -0.00070403 -0.37417 0.17804 -0.41438 0.13118 -0.090815 0.22723 -0.056309 -0.036764 -0.2176 -0.17796 0.082086 -0.17743 -0.17375 -0.25713 -0.075284 0.0053849 0.16097 0.10344 0.22525 0.23193 0.070298 0.15093 -0.0019325 -0.25331 0.17688 0.17474 0.12224 -0.24194 -0.12193 -0.05299 -0.089198 0.0020704 -0.095926 -0.048882 0.097135 -0.022779 -0.040708 -0.068329 -0.048107 0.055287 -0.1956 0.19679 -0.34224 
더|MAG -0.080906 -0.056927 -0.057759 0.11875 -0.032067 -0.10847 -0.073473 -0.066719 -0.13208 -0.028961 0.00898 -0.010325 -0.078551 -0.070506 0.024583 0.012591 0.014456 0.0066965 0.012315 -0.068561 0.025016 -0.15199 0.001972 0.063135 0.063012 0.025968 0.0027878 -0.069607 0.0086048 -0.030119 0.034338 0.016068 -0.013989 -0.045784 0.15013 -0.039529 0.0021347 0.16365 -0.018875 0.050585 0.11553 -0.06303 -0.05878 -0.025303 0.030216 0.00091464 -0.030365 0.071563 0.021789 -0.08596 0.0197 -0.16204 0.042815 -0.11641 -0.039475 0.0007855 -0.040473 0.1264 0.017743 -0.033963 0.014121 0.036276 -0.041646 0.05227 0.051343 0.0063491 0.13255 0.059253 0.056298 0.014122 0.15243 0.043098 0.010245 -0.1331 -0.046203 0.037742 -0.02511 -0.10575 -0.023889 0.11179 0.14417 -0.069475 -0.20709 0.072961 0.028589 0.058286 -0.053945 -0.079126 0.028191 0.0037592 -0.1348 0.013059 -0.076917 0.064505 -0.061539 -0.039027 0.097127 -0.043211 0.06981 0.086739 
한번|MAG -0.091055 -0.07091 -0.060188 0.11969 -0.033883 -0.10312 -0.088801 -0.053709 -0.12807 -0.017625 0.00084579 -0.017899 -0.062624 -0.076448 0.02539 0.011488 0.014225 -0.008848 0.0022542 -0.086449 0.041893 -0.14772 0.011436 0.060487 0.07064 0.032321 -0.0050179 -0.081572 0.0060162 -0.022192 0.041155 0.016792 -0.028968 -0.046934 0.16004 -0.041964 0.0085956 0.15222 -0.025588 0.045211 0.10217 -0.074101 -0.071538 -0.011293 0.029613 -0.0036235 -0.0247 0.055746 0.035086 -0.072348 0.024296 -0.16781 0.036637 -0.10748 -0.031096 0.0037862 -0.051097 0.11267 0.02328 -0.03755 0.0078673 0.035894 -0.046822 0.051312 0.04731 0.0056849 0.12814 0.074749 0.05242 0.013024 0.15212 0.041017 0.01835 -0.13447 -0.045117 0.021693 -0.010525 -0.10682 -0.034646 0.099027 0.14437 -0.070206 -0.20926 0.077368 0.017498 0.053082 -0.055603 -0.076118 0.034532 -0.00056581 -0.12342 0.0090731 -0.067301 0.0689 -0.066724 -0.045626 0.097478 -0.048009 0.059915 0.085896 
됩니다|VX+EC -0.073889 -0.11434 0.15258 0.0083563 -0.0079896 0.24416 0.29047 -0.19179 0.16587 -0.032794 -0.24278 0.018868 0.089077 -0.029172 0.030025 -0.19337 -0.12826 0.18047 -0.15514 -0.16587 -0.1822 0.030048 -0.16423 -0.049095 0.012472 -0.19139 0.014495 0.43258 0.026279 0.060516 0.11624 -0.035277 0.10217 -0.37836 -0.25514 -0.010561 0.07619 -0.03951 -0.088949 -0.007338 -0.16669 -0.018578 0.16441 0.37366 0.15087 -0.096249 -0.1659 0.15216 0.12411 -0.11542 0.21355 -0.0085024 0.23265 -0.0040542 -0.35533 0.058404 0.060541 -0.28141 0.2108 -0.48433 0.17327 -0.062049 0.23936 -0.1015 0.038822 -0.19718 -0.082151 0.044051 -0.16264 -0.19365 -0.12248 -0.042323 -0.030929 0.14327 0.039057 0.21103 0.2612 0.065687 0.15355 -0.013403 -0.213 0.15037 0.0002281 0.17014 -0.22793 -0.12977 -0.18716 -0.074685 0.05574 -0.10829 -0.17214 0.041286 -0.1219 -0.044731 -0.10174 -0.088823 0.13104 -0.22891 0.28698 -0.37615 
요일|NNG 0.031121 0.19193 -0.024938 -0.10276 0.26977 -0.064574 0.004761 0.30706 0.16707 0.24757 -0.024073 -0.019113 0.11475 0.1711 0.05467 0.056628 0.13998 -0.096557 0.17303 -0.053385 -0.21841 0.13717 0.052782 -0.054901 0.011707 -0.080811 0.14394 0.046786 -0.17648 0.11759 -0.0031333 0.031308 -0.17683 0.13197 -0.11225 0.0027936 -0.070119 -0.24393 0.0016291 -0.076528 0.03266 0.14591 0.1595 -0.030383 -0.20309 -0.075076 0.051325 -0.070522 -0.13365 0.11332 -0.15863 0.22326 -0.08905 0.21211 0.18251 0.090524 0.20533 0.095001 0.080744 0.28662 -0.21424 0.17042 0.12638 -0.11879 0.021097 0.16601 -0.14088 -0.1938 0.080521 0.077462 -0.11085 0.089359 -0.08591 0.17925 -0.098971 -0.16187 0.043937 0.13274 -0.046147 -0.33905 -0.20048 0.08648 0.21295 -0.25331 0.047335 -0.19267 -0.15309 0.27303 0.058671 -0.0063486 0.25175 -0.097335 0.077114 -0.21865 0.12781 -0.015383 -0.068918 0.23086 -0.11307 -0.1034 
요금제|NNP 0.28209 -0.15637 0.19736 0.25728 -0.54663 -0.05319 -0.29244 0.32869 -0.27699 -0.086834 0.044546 -0.13372 -0.14046 0.18197 -0.091662 0.1607 0.40413 -0.49045 0.14686 0.39703 0.043987 -0.17269 0.085293 0.12233 -0.26069 0.14726 0.3477 0.41093 0.087991 -0.47345 0.038088 -0.12579 0.65259 0.77114 0.10557 0.013011 -0.15351 0.040748 0.22085 0.16282 -0.37014 -0.65168 0.051557 -0.09795 -0.15269 -0.057441 0.043579 -0.016668 0.21705 -0.10731 0.4366 0.049837 0.085892 -0.10173 0.51508 0.24025 0.29786 -0.10905 -0.57899 0.18969 0.5249 -0.69056 -0.55522 -0.60151 0.05548 0.094933 0.075019 -0.54202 -0.3452 -0.17917 0.20529 -0.36267 -0.017528 0.36819 0.14227 -0.49628 -0.31188 0.53437 0.10752 -0.082273 0.072823 -0.28402 -0.064245 -0.010055 0.3843 0.38847 0.44855 0.29657 -0.018626 0.31181 -0.038003 -0.3656 -0.17223 0.12336 0.27776 0.57783 -0.49561 -0.05515 -0.32359 -0.035364 
이후|NNG 0.20815 0.043921 -0.022405 -0.26299 -0.21878 0.10173 -0.033802 -0.15764 0.0091436 -0.23715 0.32168 0.081957 -0.051055 -0.051511 -0.14775 0.0598 -0.19555 0.056065 -0.16204 0.42636 0.45765 0.23171 0.097989 -0.078093 -0.16755 0.25864 -0.3017 -0.45208 0.1869 -0.049562 -0.24121 -0.044273 0.067096 0.21472 0.0061438 0.12704 0.048421 -0.057551 0.099523 -0.052054 -0.071996 0.15047 -0.26325 -0.33608 0.1061 0.22719 0.1859 -0.25679 -0.066353 0.21467 -0.20017 0.1679 -0.28042 0.044129 0.14651 -0.25865 -0.3264 -0.16051 -0.29123 0.22569 -0.053209 -0.10624 -0.26002 0.2401 -0.21278 -0.047644 -0.11319 0.18605 -0.017431 0.11776 -0.20159 -0.089123 0.14453 -0.15365 0.21094 0.032293 -0.26629 -0.10932 -0.050389 0.23014 0.1113 -0.060121 0.3216 -0.0658 0.047305 0.19653 0.52385 -0.14304 -0.24232 0.09002 0.20282 0.16664 0.28709 0.16904 0.055464 0.14079 -0.24075 0.069391 -0.32888 0.36452 
그만|MAG -0.033994 -0.12128 0.11315 -0.054085 -0.048543 0.26771 0.26279 -0.30663 0.14477 -0.13577 -0.14753 0.041157 0.057686 -0.096269 -0.0090039 -0.17233 -0.23348 0.23353 -0.24019 -0.056729 -0.010831 0.067809 -0.14739 -0.049314 0.0014492 -0.10278 -0.12016 0.23364 0.090171 0.072384 0.034659 -0.04644 0.08569 -0.377 -0.23304 0.017769 0.099029 -0.012485 -0.065407 -0.028861 -0.15042 0.062428 0.060187 0.26643 0.22811 -0.009745 -0.11638 0.085718 0.10146 -0.067279 0.14349 -0.016474 0.13925 -0.019822 -0.3666 -0.046211 -0.08741 -0.3011 0.16539 -0.44397 0.13384 -0.063533 0.17657 0.050305 -0.033864 -0.2315 -0.08851 0.17757 -0.14652 -0.13746 -0.14404 -0.040099 0.025033 0.011869 0.076029 0.26012 0.19126 -0.040025 0.12258 0.11409 -0.12786 0.12064 0.048554 0.18174 -0.23457 -0.058837 -0.043025 -0.19249 -0.011894 -0.10792 -0.13723 0.14883 -0.038972 0.02248 -0.12009 -0.091723 0.11951 -0.23312 0.2212 -0.21626 
못|MAG -0.17226 -0.10049 -0.14853 0.28213 -0.04665 -0.32308 -0.26302 -0.01189 -0.3279 -0.0013347 0.03929 -0.052019 -0.16741 -0.13666 0.067305 0.084347 0.098535 -0.078438 0.10616 -0.16535 0.074107 -0.35536 0.046833 0.15133 0.14643 0.086433 0.04681 -0.24138 -0.0083988 -0.081247 0.085213 0.070979 -0.081313 0.035153 0.42033 -0.094019 -0.043116 0.36264 -0.0226 0.12411 0.29432 -0.16948 -0.15601 -0.12696 -0.037833 -0.0036172 -0.0081765 0.10602 0.026919 -0.14786 0.0096336 -0.37236 0.051281 -0.23028 0.046521 0.018262 -0.073974 0.36535 -0.016076 0.056158 -0.011074 0.093839 -0.13604 0.11826 0.10741 0.089597 0.33257 0.090239 0.16197 0.08039 0.39603 0.099631 0.0053545 -0.28962 -0.13075 -0.026797 -0.085356 -0.20357 -0.11003 0.19592 0.3719 -0.1738 -0.47218 0.12596 0.12613 0.11446 -0.1246 -0.10603 0.086321 0.036289 -0.23127 -0.049811 -0.14135 0.12979 -0.10348 -0.075766 0.17385 -0.016801 0.087983 0.26673 
라고|VCP+EC -0.070958 -0.025849 -0.046705 0.080244 0.0013246 -0.097874 -0.071331 -0.028797 -0.096043 0.0071191 0.010467 -0.0038693 -0.058197 -0.041304 0.031588 0.020633 0.019457 -0.0076974 0.021766 -0.071463 0.0097335 -0.11687 -0.00076605 0.044105 0.064313 0.012115 0.0089135 -0.087528 -0.0029834 -0.000223 0.020312 0.032262 -0.057531 -0.028437 0.1287 -0.039286 0.00081618 0.10745 -0.018396 0.02404 0.097142 -0.036638 -0.042705 -0.033463 -0.0023095 0.0089959 -0.0035512 0.050831 0.0037844 -0.048102 0.0015903 -0.12648 0.029996 -0.077784 -0.022642 -0.0029463 -0.025774 0.12292 0.024299 0.0006844 -0.016805 0.050255 -0.022704 0.052658 0.034054 0.015927 0.10848 0.04049 0.069893 0.034119 0.12104 0.052016 0.0073748 -0.10814 -0.042422 0.015212 -0.017044 -0.078132 -0.041327 0.065177 0.11139 -0.053237 -0.15189 0.036907 0.021811 0.011963 -0.066447 -0.040541 0.028557 0.0027513 -0.069273 -0.0087907 -0.04796 0.028187 -0.052322 -0.043802 0.072438 -0.014622 0.046733 0.082912 
변경|NNG -0.0034874 0.047645 -0.027841 -0.0058085 0.096826 -0.037445 -0.0037777 0.097751 0.035902 0.091469 -0.014466 -0.0057754 0.024869 0.042688 0.032351 0.014899 0.049779 -0.025516 0.058378 -0.042246 -0.095935 0.012263 0.020812 -0.0054382 0.032119 -0.041146 0.063694 0.024856 -0.061961 0.042121 0.0051504 0.0089338 -0.061532 0.016548 -0.023875 -0.0045677 -0.015141 -0.043176 -0.0032078 -0.0065822 0.026142 0.035816 0.058816 0.00013228 -0.068478 -0.030285 -0.0023617 -0.010108 -0.028653 0.025605 -0.030795 0.034226 -0.0045907 0.042927 0.039468 0.034856 0.07859 0.065324 0.040225 0.070838 -0.060169 0.069073 0.049675 -0.039098 0.031482 0.051867 -0.028273 -0.060966 0.048388 0.018788 0.0015944 0.031169 -0.030186 0.047439 -0.053605 -0.038264 0.014579 0.035646 -0.0082962 -0.09366 -0.047756 0.03205 0.015812 -0.069027 0.010782 -0.07092 -0.091805 0.080079 0.028064 -0.0024148 0.050548 -0.032984 -0.0048971 -0.075753 0.017966 -0.020752 0.015853 0.058235 0.0018211 -0.044127 
잘|MAG -0.17015 -0.10768 -0.10534 0.24998 -0.055782 -0.21817 -0.18268 -0.057562 -0.26383 -0.038506 0.0083427 -0.041867 -0.13797 -0.12861 0.044327 0.026858 0.050781 -0.046424 0.054456 -0.15269 0.056569 -0.31882 0.019592 0.11618 0.11642 0.059166 0.029335 -0.13415 0.0092433 -0.078098 0.080035 0.049392 -0.028964 -0.025364 0.31351 -0.088483 -0.010849 0.3184 -0.024872 0.1063 0.20106 -0.16342 -0.10778 -0.043686 0.015414 -0.0094519 -0.039314 0.11325 0.056762 -0.15986 0.069258 -0.31476 0.08591 -0.21003 -0.015319 0.026703 -0.054289 0.26128 0.018969 -0.038972 0.03261 0.04475 -0.08826 0.09234 0.083825 0.034494 0.26636 0.085783 0.10763 0.039034 0.31348 0.056778 0.0095605 -0.23205 -0.10012 0.013704 -0.038919 -0.17089 -0.063671 0.19109 0.27999 -0.14879 -0.41787 0.14734 0.074797 0.10271 -0.11423 -0.12661 0.067823 0.013079 -0.22492 -0.026432 -0.1439 0.13137 -0.10733 -0.063398 0.17254 -0.067953 0.11783 0.16978 
해요|XSA+EC 0.058765 0.02933 -0.0019527 -0.054961 -0.027975 0.018181 -0.010061 0.0019882 0.027157 -0.029671 0.063225 0.020721 0.0054436 0.009914 -0.034386 0.019055 -0.016902 -0.0059831 -0.0021892 0.093223 0.073963 0.068017 0.014342 -0.010247 -0.049546 0.049774 -0.04227 -0.080801 0.012388 -0.0087006 -0.059304 -0.016734 -0.0014148 0.056926 -0.020835 0.038398 0.0047527 -0.038505 0.029846 -0.016874 -0.019935 0.035647 -0.026432 -0.068874 -0.0044651 0.0463 0.041511 -0.053746 -0.015531 0.065542 -0.0597 0.070573 -0.074097 0.025462 0.063458 -0.03766 -0.041702 -0.026756 -0.055582 0.079448 -0.034172 -0.011847 -0.04816 0.037269 -0.045752 0.0048604 -0.046407 0.01031 0.0038904 0.034148 -0.052107 -0.013244 0.025615 -0.0036431 0.038437 -0.021683 -0.042289 0.008739 -0.01414 0.011559 -0.0065276 -0.00079381 0.10384 -0.04589 0.026165 0.023294 0.095803 0.0030296 -0.05133 0.020469 0.081921 0.020189 0.07208 0.011241 0.030814 0.032992 -0.067069 0.045104 -0.084845 0.052297 
할|XSV+ETM -0.0094485 0.060734 -0.012171 0.0029925 0.1012 -0.035113 -0.012642 0.098023 0.031747 0.094896 -0.029469 -0.015005 0.028595 0.054071 0.025128 0.016478 0.05943 -0.021567 0.060981 -0.057928 -0.085827 0.018011 0.02045 -0.0060459 0.03228 -0.03097 0.050245 0.017773 -0.059783 0.042028 0.015906 0.023286 -0.073688 0.013627 -0.0050556 -0.011373 -0.024497 -0.043327 0.0027733 -0.0088717 0.025669 0.038529 0.049175 0.0059074 -0.059707 -0.04276 0.0062218 -0.0074044 -0.043765 0.014476 -0.041144 0.029997 -0.013444 0.055815 0.034248 0.043671 0.063428 0.053939 0.03865 0.075931 -0.060178 0.068221 0.04119 -0.034267 0.028325 0.059047 -0.022293 -0.065581 0.041363 0.017003 0.0034829 0.040867 -0.029594 0.050329 -0.04458 -0.050379 0.031181 0.025975 -0.021828 -0.096347 -0.04879 0.014839 0.025026 -0.066013 0.020312 -0.071066 -0.077268 0.069311 0.025336 -0.016986 0.053048 -0.04146 0.0038223 -0.071419 0.021868 -0.025962 0.0042979 0.068292 -0.00029624 -0.043106 
었|EP -0.1724 -0.1022 -0.16061 0.28619 -0.040606 -0.32417 -0.2603 -0.014459 -0.33839 -0.01361 0.043759 -0.050142 -0.17802 -0.14042 0.066498 0.075038 0.10341 -0.085536 0.10223 -0.15587 0.072014 -0.3638 0.053907 0.14882 0.13841 0.085937 0.040221 -0.23764 -0.0097962 -0.091595 0.08222 0.076125 -0.073987 0.026722 0.41621 -0.094859 -0.03011 0.35201 -0.028891 0.11527 0.28967 -0.17063 -0.15569 -0.13366 -0.022326 -0.0022225 -0.0067201 0.11819 0.034783 -0.15893 0.023015 -0.37011 0.053413 -0.2259 0.05378 0.023226 -0.056944 0.36909 -0.02191 0.047917 -0.0014064 0.087204 -0.12942 0.11235 0.1072 0.075686 0.32731 0.077723 0.15854 0.090399 0.39006 0.086705 0.0067779 -0.2791 -0.13753 -0.035548 -0.099852 -0.19802 -0.11983 0.18027 0.36986 -0.18128 -0.46837 0.10933 0.12618 0.13067 -0.11804 -0.11603 0.078484 0.018669 -0.22036 -0.050779 -0.14724 0.13768 -0.10738 -0.068159 0.18193 -0.022947 0.083154 0.26093 
바꾸|VV -0.00048914 0.12993 -0.022577 -0.034821 0.18223 -0.06366 -0.012437 0.19601 0.087524 0.16473 -0.031825 -0.014425 0.060752 0.11425 0.036446 0.047004 0.10091 -0.056727 0.11918 -0.065029 -0.15914 0.071079 0.03086 -0.01767 0.021469 -0.054384 0.096641 0.028666 -0.11791 0.067264 0.0064856 0.037174 -0.11145 0.062107 -0.066875 -0.012439 -0.037109 -0.13111 -0.0085644 -0.028517 0.034348 0.072967 0.10834 0.0029818 -0.13064 -0.056604 0.015344 -0.031031 -0.087535 0.067937 -0.086477 0.11403 -0.040396 0.11971 0.098692 0.057793 0.13945 0.094733 0.054486 0.17521 -0.13842 0.12459 0.090197 -0.07785 0.033224 0.10208 -0.071634 -0.13245 0.059673 0.037998 -0.051111 0.068515 -0.067568 0.10561 -0.075584 -0.10355 0.032415 0.076609 -0.036954 -0.21396 -0.124 0.057593 0.099864 -0.1428 0.031649 -0.12047 -0.12743 0.17584 0.038846 -0.003074 0.12905 -0.085824 0.022518 -0.14345 0.064959 -0.0067753 -0.024632 0.1305 -0.037452 -0.078301 
돼요|VV+EC 0.17279 0.14492 0.014648 -0.25941 0.021403 0.10969 0.064551 0.042 0.1752 -0.030499 0.14777 0.063384 0.063611 0.062526 -0.074302 0.043282 -0.081719 0.035008 -0.042544 0.23051 0.13489 0.28948 0.046475 -0.10514 -0.11743 0.076762 -0.12744 -0.18181 0.025456 0.068351 -0.15079 -0.022491 -0.037791 0.11936 -0.15627 0.092604 0.026129 -0.22295 0.060868 -0.1025 -0.077833 0.20082 -0.041346 -0.15441 -0.027782 0.085952 0.11931 -0.18926 -0.097118 0.19786 -0.18673 0.27316 -0.20877 0.17325 0.1089 -0.11344 -0.083696 -0.12453 -0.10359 0.20755 -0.14058 0.020023 -0.024192 0.065211 -0.13077 0.0090449 -0.19138 0.0036573 -0.0081362 0.083104 -0.26667 -0.027991 0.025217 0.064003 0.10358 -0.025649 -0.087163 0.030254 -0.014921 -0.066532 -0.12597 0.073753 0.38478 -0.16137 -0.0038591 -0.017428 0.23434 0.055566 -0.12466 0.026369 0.27383 0.065006 0.22969 -0.045565 0.090434 0.067086 -0.1875 0.13205 -0.22507 0.080384 
+JX 0.13641 0.12125 -0.073691 -0.15388 -0.025989 -0.058256 -0.13205 0.090898 -0.0089127 -0.020377 0.22173 0.032218 -0.025204 0.037712 -0.059071 0.11848 0.0019352 -0.080288 0.048768 0.24713 0.20477 0.13349 0.12254 -0.032381 -0.090681 0.16626 -0.083841 -0.35174 0.021919 -0.018027 -0.15757 0.0067747 -0.047886 0.27489 0.071443 0.065482 -0.029788 -0.08765 0.083679 -0.046443 0.033812 0.10827 -0.1383 -0.29366 -0.080184 0.11508 0.16801 -0.19169 -0.11226 0.16073 -0.19998 0.15165 -0.24096 0.08035 0.24767 -0.11148 -0.11828 0.059639 -0.2078 0.35644 -0.1393 0.012161 -0.17132 0.11213 -0.10277 0.08822 -0.051796 0.00040678 0.069993 0.15022 -0.07276 -0.012657 0.052474 -0.050162 0.047342 -0.11203 -0.20958 -0.022771 -0.089827 0.012566 0.063775 -0.060737 0.18853 -0.17178 0.13105 0.10054 0.26759 0.044354 -0.11356 0.082149 0.22339 0.030478 0.19144 0.030198 0.10993 0.10263 -0.18643 0.17411 -0.2877 0.27063 
은데|EC 0.006263 0.11437 -0.019017 -0.051863 0.18028 -0.053138 -0.012233 0.20625 0.080475 0.17549 -0.019156 -0.015687 0.060508 0.10004 0.040937 0.035278 0.10439 -0.069424 0.13098 -0.060369 -0.1643 0.063229 0.035997 -0.016124 0.016359 -0.05122 0.10718 0.039035 -0.11581 0.081204 0.00036574 0.024494 -0.11641 0.071458 -0.052029 -0.01375 -0.053981 -0.12835 -0.00088253 -0.030608 0.033429 0.063218 0.10147 -0.0027088 -0.13717 -0.067215 0.022579 -0.024802 -0.093347 0.063405 -0.086885 0.11498 -0.040243 0.12483 0.10809 0.063093 0.13627 0.095146 0.055546 0.18012 -0.12445 0.12372 0.089303 -0.086138 0.026552 0.10067 -0.069577 -0.13671 0.069267 0.053296 -0.042742 0.057499 -0.061938 0.11793 -0.080511 -0.095576 0.036078 0.08181 -0.021012 -0.20855 -0.11004 0.053139 0.10358 -0.15492 0.020983 -0.1152 -0.12179 0.17086 0.052256 -0.0054939 0.12912 -0.067657 0.027433 -0.14751 0.070959 -0.017606 -0.030578 0.13325 -0.039012 -0.065544 
바꿔도|VV+EC -0.050523 0.12 -0.04531 0.0097162 0.23597 -0.11893 -0.024742 0.25366 0.071716 0.22016 -0.063935 -0.041547 0.073185 0.10597 0.082138 0.0412 0.16018 -0.079707 0.18147 -0.15149 -0.24972 0.0029842 0.024123 -0.0094508 0.062283 -0.096037 0.1568 0.073613 -0.15407 0.084993 0.047365 0.042455 -0.15285 0.050013 -0.02762 -0.035886 -0.073748 -0.10513 -0.022055 -0.020936 0.070351 0.045723 0.13017 0.032505 -0.17872 -0.10356 0.0045716 0.018292 -0.093523 0.015783 -0.075968 0.071367 0.0058034 0.10181 0.10982 0.1207 0.20693 0.16689 0.10663 0.16802 -0.13919 0.15726 0.12632 -0.11193 0.061699 0.13977 -0.025162 -0.16128 0.099045 0.051318 0.017684 0.09372 -0.086554 0.11386 -0.12432 -0.13025 0.059559 0.094725 -0.044543 -0.25318 -0.11773 0.042951 0.024118 -0.1499 0.037637 -0.14917 -0.2283 0.20604 0.08763 -0.023295 0.11196 -0.10632 -0.0138 -0.17013 0.064546 -0.046509 0.022487 0.14173 0.0072465 -0.09813 
괜찮|VA -0.0047053 -0.066803 0.09904 -0.048771 -0.028518 0.19364 0.20678 -0.17459 0.11435 -0.064575 -0.12126 0.037875 0.065028 -0.028384 -0.010996 -0.12896 -0.13134 0.13668 -0.1451 -0.037399 -0.047541 0.080438 -0.096599 -0.050569 -0.015554 -0.078952 -0.065761 0.20508 0.047497 0.048241 0.029505 -0.027867 0.055792 -0.24298 -0.18837 0.0093958 0.050754 -0.044505 -0.044478 -0.022396 -0.13236 0.034136 0.066075 0.2 0.13083 -0.014543 -0.091464 0.052823 0.063701 -0.039237 0.095222 0.022918 0.093242 0.0078249 -0.24031 -0.011133 -0.014181 -0.22462 0.12006 -0.29384 0.090405 -0.045945 0.13132 -0.014071 -0.011244 -0.14243 -0.087429 0.077195 -0.11142 -0.092539 -0.13816 -0.035648 0.0015309 0.049942 0.059349 0.16985 0.13844 -0.0056748 0.10486 0.041451 -0.13425 0.10016 0.068484 0.099473 -0.14982 -0.071668 -0.040045 -0.085167 0.0072434 -0.066066 -0.063796 0.067227 -0.03019 -0.0071524 -0.0681 -0.060752 0.058546 -0.14139 0.14493 -0.18966 
요|VCP+EC 0.015738 0.091072 -0.0057921 -0.053944 0.11571 -0.0061055 0.017196 0.11485 0.072315 0.088561 0.0017337 -0.0079535 0.040956 0.062289 0.023826 0.01568 0.035494 -0.028553 0.064927 -0.025671 -0.069284 0.063351 0.015991 -0.02688 -0.0024526 -0.035781 0.034924 0.0041818 -0.070759 0.045674 -0.00072291 0.014313 -0.069363 0.04265 -0.05839 0.006595 -0.016826 -0.092131 0.0084668 -0.034964 0.0035959 0.072453 0.059121 -0.019653 -0.080332 -0.021514 0.023999 -0.038612 -0.05443 0.058683 -0.071195 0.091492 -0.049623 0.08471 0.064276 0.015035 0.069723 0.040828 0.03866 0.10281 -0.094303 0.071216 0.065336 -0.030778 0.0016272 0.048393 -0.051221 -0.067349 0.040805 0.031948 -0.049599 0.038902 -0.032453 0.06105 -0.027614 -0.054144 0.013647 0.042854 -0.015046 -0.11696 -0.089073 0.044168 0.10092 -0.10463 0.0049731 -0.072541 -0.057994 0.097907 0.0084583 -0.0090846 0.10121 -0.028475 0.039813 -0.076398 0.034279 -0.017768 -0.024903 0.09099 -0.04316 -0.033279 
알려줘|VV+EC+VX+EC 0.18379 -0.12227 0.11572 0.17979 -0.36889 -0.048428 -0.20288 0.18274 -0.19079 -0.066995 0.035515 -0.096385 -0.11143 0.099125 -0.062434 0.10855 0.25066 -0.31964 0.088628 0.26029 0.042936 -0.1308 0.044684 0.085653 -0.15353 0.11 0.20849 0.25013 0.056162 -0.31677 0.028035 -0.087748 0.42367 0.49716 0.089528 -0.002041 -0.086814 0.052279 0.13513 0.10803 -0.23228 -0.43692 0.014587 -0.062239 -0.081547 -0.030276 0.02404 0.0028066 0.14748 -0.082095 0.28849 0.0028472 0.063072 -0.087159 0.32871 0.15038 0.16618 -0.069815 -0.38209 0.10641 0.35384 -0.45032 -0.36234 -0.36562 0.0294 0.049471 0.066624 -0.33993 -0.21356 -0.12182 0.16075 -0.24555 0.0025736 0.1997 0.10292 -0.30118 -0.2176 0.31419 0.063894 -0.020116 0.069874 -0.18602 -0.062928 0.014063 0.25354 0.27871 0.29271 0.17906 -0.012556 0.20279 -0.054167 -0.22985 -0.10935 0.098022 0.16947 0.37318 -0.31213 -0.034177 -0.2078 0.0074814 
아요|EC 0.0043446 -0.032274 0.075534 -0.053198 -0.0013279 0.16294 0.15414 -0.11007 0.11106 -0.039182 -0.082138 0.031427 0.050258 -0.007101 -0.021162 -0.099236 -0.10696 0.10852 -0.098306 -0.017048 -0.024321 0.080519 -0.076018 -0.041718 -0.012151 -0.071092 -0.045987 0.13945 0.025425 0.047891 0.011899 -0.033731 0.045567 -0.17861 -0.16537 0.016538 0.053684 -0.064589 -0.029305 -0.018943 -0.11059 0.043955 0.061628 0.14514 0.094903 -0.017873 -0.062436 0.015902 0.025305 -0.0072425 0.057568 0.041544 0.060611 0.030469 -0.17054 -0.019143 -0.017091 -0.17625 0.089699 -0.20291 0.053397 -0.02351 0.10816 -0.0079985 -0.026176 -0.10733 -0.087272 0.054058 -0.082962 -0.07378 -0.11915 -0.035154 0.0087722 0.061962 0.044844 0.12141 0.10646 0.0095124 0.072988 0.019085 -0.11287 0.090762 0.087458 0.066389 -0.11973 -0.04926 -0.020685 -0.051552 -0.015564 -0.057317 -0.036874 0.052709 0.0045549 -0.015823 -0.040229 -0.029369 0.031958 -0.094104 0.091982 -0.14732 
쯤|XSN 0.084812 0.02897 0.016603 -0.1339 -0.075354 0.081914 0.024899 -0.075938 0.032169 -0.10207 0.1157 0.037941 0.0013684 -0.016859 -0.071014 0.0068682 -0.098452 0.033912 -0.079225 0.17097 0.17556 0.12425 0.017907 -0.035466 -0.065866 0.086594 -0.13832 -0.16543 0.080047 -0.004734 -0.1013 -0.030678 0.031478 0.045765 -0.039654 0.058237 0.023689 -0.050702 0.039925 -0.039344 -0.044203 0.089408 -0.087076 -0.11777 0.055218 0.093789 0.071408 -0.09848 -0.02524 0.087807 -0.082068 0.083838 -0.11246 0.039552 0.034881 -0.11986 -0.14178 -0.08868 -0.10397 0.068397 -0.028892 -0.038555 -0.075048 0.096791 -0.088609 -0.038216 -0.065746 0.07758 -0.023149 0.040407 -0.12137 -0.047973 0.057375 -0.045838 0.086248 0.039629 -0.095814 -0.029795 0.00063615 0.092884 0.019803 -0.000263 0.1456 -0.030964 0.001529 0.067975 0.21993 -0.061512 -0.09872 0.018575 0.079015 0.087215 0.11526 0.071224 0.012991 0.043786 -0.09548 0.012461 -0.11712 0.12082 
을께요|EC -0.049529 -0.090937 0.072395 -0.025497 -0.020809 0.16939 0.16862 -0.19503 0.087122 -0.069147 -0.11914 0.034638 0.03733 -0.058275 -0.0091658 -0.12489 -0.13592 0.1621 -0.15156 -0.069785 -0.027699 0.035677 -0.097472 -0.028893 0.0027376 -0.083319 -0.079247 0.17121 0.050056 0.053245 0.036397 -0.023591 0.045191 -0.27308 -0.14302 0.0087809 0.056936 0.010916 -0.060095 -0.0058062 -0.08076 0.028099 0.046625 0.1907 0.15513 -0.0070856 -0.093324 0.075723 0.074502 -0.057572 0.106 -0.033159 0.11798 -0.030486 -0.24672 -0.022233 -0.054159 -0.19123 0.12601 -0.3102 0.1033 -0.027067 0.1249 0.021333 -0.014086 -0.14545 -0.0373 0.10901 -0.089569 -0.10429 -0.089558 -0.028001 0.013395 0.0019269 0.04459 0.18234 0.13069 -0.02615 0.090532 0.072191 -0.071833 0.08035 0.00036362 0.13676 -0.15266 -0.055493 -0.053693 -0.12267 -0.00052443 -0.079258 -0.10433 0.084611 -0.050814 0.017709 -0.089949 -0.076374 0.11057 -0.16432 0.1812 -0.1599 
라는|VCP+ETM -0.052348 -0.042171 -0.041149 0.10686 -0.037788 -0.1118 -0.10308 0.0054814 -0.12358 -0.0087985 0.017428 -0.022925 -0.061354 -0.028991 0.010482 0.031408 0.043759 -0.054144 0.047337 -0.028601 0.021857 -0.12748 0.02091 0.051381 0.032814 0.043425 0.026141 -0.061265 0.0018699 -0.037023 0.015898 0.023018 0.00041368 0.041687 0.13809 -0.023521 -0.018738 0.11951 -0.00026205 0.050436 0.079291 -0.076693 -0.052671 -0.042895 -0.018091 0.0023722 -0.0017128 0.039705 0.023583 -0.051919 0.020135 -0.12458 0.0095352 -0.081713 0.045314 0.0193 -0.018174 0.11124 -0.022195 0.029139 0.019394 0.0015888 -0.071167 0.025377 0.026361 0.032504 0.10442 0.0003125 0.051674 0.023182 0.13749 0.01775 0.0033677 -0.084983 -0.044797 -0.037484 -0.038611 -0.049371 -0.034876 0.054779 0.11827 -0.068827 -0.15845 0.042899 0.06486 0.04713 -0.029184 -0.026038 0.021167 0.016624 -0.071874 -0.024335 -0.046049 0.04744 -0.023137 -0.0060731 0.038484 -0.0077082 0.01093 0.083141 
거|NNB -0.053896 -0.026227 -0.051848 0.10178 -0.040963 -0.10975 -0.098751 0.016825 -0.12912 0.001859 0.022202 -0.029708 -0.05571 -0.026265 0.0080428 0.037401 0.056648 -0.051848 0.042514 -0.026836 0.021585 -0.13049 0.016662 0.043894 0.044207 0.026637 0.017408 -0.073321 -0.0080301 -0.050967 0.024546 0.010168 -0.0027691 0.052759 0.14507 -0.039593 -0.017682 0.12462 0.0060904 0.040839 0.086014 -0.079211 -0.056341 -0.051938 -0.011839 -0.0054687 -0.0036654 0.035436 0.014682 -0.044347 0.02561 -0.11698 0.022701 -0.071655 0.041196 0.023576 -0.015779 0.11718 -0.025408 0.026996 0.0040444 0.011662 -0.067609 0.021474 0.043008 0.037759 0.11 0.014983 0.035634 0.01794 0.12586 0.011149 -0.0025688 -0.071222 -0.027285 -0.020022 -0.052522 -0.04133 -0.044826 0.051165 0.12297 -0.077698 -0.15044 0.028059 0.064876 0.055378 -0.020463 -0.030285 0.031156 0.026415 -0.072544 -0.030653 -0.046206 0.056117 -0.023425 -0.0052658 0.027268 -0.0079185 0.0064083 0.091388 
야|VCP+EF -0.047725 -0.029563 -0.052639 0.098233 -0.037311 -0.10805 -0.096474 0.0087677 -0.1245 0.0033588 0.01768 -0.018679 -0.060461 -0.037808 0.01169 0.038256 0.048306 -0.047246 0.03616 -0.039628 0.035629 -0.11395 0.01988 0.056213 0.026642 0.040613 0.016683 -0.075253 0.0067807 -0.055212 0.0176 0.021037 -0.0082278 0.051239 0.14813 -0.026263 -0.017135 0.12386 0.0018562 0.040633 0.079192 -0.087132 -0.049765 -0.059961 -0.015358 -0.0022103 -0.0049005 0.029829 0.011241 -0.054241 0.0081796 -0.12388 0.013243 -0.078458 0.029923 0.015062 -0.0050705 0.12457 -0.02546 0.029943 0.011586 0.0039231 -0.059632 0.015589 0.044176 0.040533 0.10284 0.0022191 0.045512 0.023803 0.1416 0.02408 0.0071137 -0.082057 -0.03462 -0.029053 -0.045138 -0.041521 -0.029471 0.054684 0.12841 -0.079627 -0.15423 0.030217 0.058806 0.050298 -0.021835 -0.021474 0.024451 0.014888 -0.066384 -0.02581 -0.058852 0.056527 -0.019029 -0.0090021 0.03198 -0.0059907 0.004268 0.091835 
알아들|VV -0.11143 -0.052987 -0.078826 0.15685 -0.026064 -0.15777 -0.14047 -0.031618 -0.18812 -0.022288 0.028606 -0.021369 -0.09294 -0.078298 0.030004 0.027601 0.034294 -0.027114 0.049803 -0.08352 0.030205 -0.19255 0.028357 0.072371 0.080374 0.047741 0.0040665 -0.11914 0.003236 -0.046365 0.045308 0.03275 -0.030424 0.0040685 0.21737 -0.055149 -0.021235 0.19747 -0.018525 0.0555 0.16074 -0.092384 -0.088611 -0.062254 0.0067334 0.0070203 -0.019993 0.076232 0.027838 -0.084116 0.019983 -0.21494 0.030568 -0.14096 -0.0051044 0.018519 -0.047292 0.18139 0.0022552 -0.0026134 -0.0021637 0.047872 -0.075331 0.060515 0.064212 0.030467 0.17057 0.053231 0.072984 0.047163 0.20635 0.058967 -0.0022976 -0.15494 -0.06029 0.01117 -0.03554 -0.1073 -0.060877 0.1106 0.20579 -0.089463 -0.26049 0.079883 0.045084 0.057864 -0.06905 -0.079726 0.048006 0.012683 -0.14649 -0.020946 -0.089022 0.081714 -0.058222 -0.041715 0.095684 -0.020912 0.068578 0.12981 
했|VX+EP -0.042157 -0.021444 -0.038099 0.04656 0.013589 -0.064576 -0.054831 -0.020626 -0.060632 0.0082313 -0.0021798 -0.00096487 -0.038312 -0.040108 0.017982 0.0029638 0.00037245 -0.0014163 0.017263 -0.052667 0.017496 -0.067993 0.014102 0.037995 0.039131 0.017577 -0.0048516 -0.062993 -0.0047134 0.0036058 0.015541 0.02562 -0.039705 -0.015268 0.076503 -0.028653 0.0015039 0.081053 -0.016596 0.018185 0.077942 -0.022731 -0.026919 -0.014922 0.00018499 -0.0039495 -0.0012744 0.020858 0.0055665 -0.034287 0.0042383 -0.084049 0.010304 -0.05688 -0.012157 -0.0032064 -0.019866 0.078752 0.018926 0.0053715 -0.01313 0.046472 -0.01682 0.047115 0.01593 0.007812 0.05945 0.039777 0.043467 0.020684 0.079773 0.035231 0.0066263 -0.063776 -0.035553 0.010031 -0.013697 -0.064593 -0.028142 0.043879 0.066729 -0.025929 -0.10226 0.031747 0.0088437 0.0076939 -0.041315 -0.02615 0.017596 -0.0024865 -0.056044 0.0027237 -0.03864 0.029988 -0.038779 -0.028549 0.050348 0.0001191 0.025 0.044769 
들|VV -0.080328 -0.036769 -0.067822 0.1296 -0.018181 -0.14762 -0.14065 0.0063091 -0.16017 -0.00082546 0.028845 -0.034212 -0.074204 -0.053253 0.023732 0.039465 0.070161 -0.056294 0.0612 -0.065723 0.031282 -0.15958 0.029324 0.064009 0.06814 0.03605 0.036544 -0.11224 -0.0039024 -0.039677 0.027884 0.037301 -0.038453 0.036093 0.19106 -0.038593 -0.017122 0.15058 -0.0024142 0.050423 0.13922 -0.09058 -0.071289 -0.065809 -0.034028 0.0090646 -0.002947 0.054027 0.0069268 -0.068146 0.0010871 -0.16857 0.0095475 -0.097752 0.054856 0.015775 -0.010164 0.1878 -0.011287 0.060637 -0.013008 0.037884 -0.074951 0.033664 0.057485 0.042808 0.14854 0.012704 0.074723 0.044434 0.18577 0.046255 -0.0018865 -0.12568 -0.062605 -0.033863 -0.057342 -0.076776 -0.067048 0.080355 0.16093 -0.078207 -0.22171 0.041725 0.073542 0.059768 -0.051387 -0.037277 0.030758 0.023033 -0.085287 -0.037721 -0.073241 0.046439 -0.035504 -0.030004 0.062047 -0.0025028 0.026911 0.12496 
을께|EC -0.0049339 -0.0039752 0.018293 -0.022019 -0.0045874 0.051804 0.057091 -0.037188 0.047425 -0.005389 -0.036295 0.0071208 0.026476 -0.0076251 -0.0043059 -0.024504 -0.035077 0.04094 -0.037719 -0.014618 -0.015315 0.016509 -0.033206 -0.0094281 0.0031216 -0.035131 -0.0098902 0.054285 0.0025342 0.021556 0.01505 -0.016562 0.016731 -0.067408 -0.048701 0.013723 0.023863 -0.030843 -0.016941 -0.0061514 -0.039343 0.020653 0.016427 0.050951 0.037564 -0.013226 -0.026755 0.010021 0.016604 -0.0011157 0.017166 0.017437 0.013439 0.015114 -0.066635 -0.0069471 -0.0062535 -0.065906 0.037638 -0.078172 0.02587 -0.0029441 0.03498 -0.0067072 -0.0011884 -0.028068 -0.037714 0.010478 -0.032065 -0.016318 -0.045155 -0.012392 0.0021118 0.026314 0.022479 0.02973 0.04452 0.0058875 0.023517 0.0021768 -0.035378 0.019216 0.025226 0.013618 -0.049486 -0.022991 -0.0052455 -0.0089261 0.0012954 -0.01333 -0.019887 0.019598 0.00522 -0.0099169 -0.014537 -0.011836 0.011425 -0.027011 0.042912 -0.054889 
어도|EC -0.0041123 -0.0035838 0.031749 -0.023172 -0.0069307 0.068148 0.077008 -0.04701 0.056103 -0.016765 -0.038204 0.0157 0.019021 -0.00092825 -0.0030427 -0.037116 -0.049786 0.055154 -0.039691 -0.0056155 -0.016272 0.046812 -0.033233 -0.024783 -0.016035 -0.024562 -0.012569 0.053977 0.018792 0.016293 0.0078148 -0.0092313 0.0054185 -0.069842 -0.067442 -0.00049969 0.024549 -0.026246 -0.018084 -0.02375 -0.041494 0.025329 0.024363 0.059275 0.044649 -0.01434 -0.029768 0.0072025 0.02039 -0.0089115 0.013302 0.028711 0.030498 0.0072987 -0.063503 -0.015693 -0.0091491 -0.067082 0.037277 -0.076737 0.011404 -0.01853 0.038523 0.0063104 -0.0075261 -0.042518 -0.044353 0.020836 -0.032357 -0.023232 -0.055547 -0.014644 0.0050519 0.034693 0.01289 0.03814 0.046379 0.014081 0.032317 0.0064273 -0.044822 0.042773 0.041329 0.023237 -0.050131 -0.026245 -0.0046138 -0.022093 -0.0066157 -0.028096 -0.011164 0.022239 -0.0066074 -0.016499 -0.0047188 -0.01768 0.0081498 -0.042478 0.030792 -0.053409 
써요|VV+EC 0.050498 -0.022921 0.15615 -0.20297 -0.002944 0.3477 0.33123 -0.22382 0.27407 -0.093144 -0.11794 0.062127 0.13118 -0.0028028 -0.043047 -0.16927 -0.23455 0.22939 -0.23021 0.036966 -0.02124 0.25677 -0.13294 -0.13119 -0.081708 -0.11141 -0.12816 0.24955 0.076808 0.10774 -0.032176 -0.064216 0.086052 -0.32147 -0.3596 0.072909 0.10368 -0.18736 -0.046267 -0.091052 -0.22731 0.16043 0.092834 0.23921 0.19107 0.0077216 -0.082079 -0.0023106 0.049361 0.051759 0.070909 0.17664 0.068968 0.10455 -0.30576 -0.07821 -0.054638 -0.40259 0.13648 -0.34789 0.086798 -0.075743 0.20322 0.019823 -0.083458 -0.20751 -0.23251 0.11079 -0.16547 -0.13984 -0.32818 -0.075943 0.027241 0.11915 0.12687 0.23404 0.17527 0.037457 0.1381 0.0066121 -0.2641 0.18858 0.28492 0.069778 -0.24463 -0.099887 0.039488 -0.10641 -0.060777 -0.10113 0.018253 0.14496 0.056406 -0.034716 -0.048511 -0.047592 0.01569 -0.15091 0.12443 -0.25122 
이야기|NNG -0.0086941 -0.0071875 -0.010496 0.0074706 -0.00046512 -0.011942 -0.021551 -0.012218 -0.026412 0.0040222 0.0063439 -0.014135 -0.0064773 -0.0052495 -0.0016765 -0.0065639 -0.0022698 -0.0046472 -0.0020428 0.00075104 -0.0041312 -0.026732 -0.0067988 0.01202 0.016237 -0.0018837 -0.0078048 -0.018561 0.0017745 6.5406e-05 0.0037991 0.0085224 -0.0070055 -0.0011687 0.032889 -0.0091628 -0.007818 0.020353 -0.0046335 -0.0004928 0.014552 -0.005629 -0.0045654 -0.0060535 -0.00022458 -0.0091481 -0.0073688 0.017538 0.0056587 -0.019126 0.0060149 -0.02581 0.0061827 -0.016631 -0.003292 -0.00066845 -0.0048969 0.020359 -0.0082449 0.0045957 -0.0056685 -0.0011432 -0.016434 0.00089215 0.0024943 0.0049664 0.021875 0.011226 0.0021026 0.0058944 0.029472 0.0059254 -0.0015069 -0.022153 -0.015057 0.0030839 -0.0011958 -0.019538 0.001179 0.019357 0.020059 -0.0060468 -0.030686 0.012286 0.014486 0.00068424 -0.010984 -0.01703 0.0057351 0.003348 -0.016574 0.0076214 -0.011143 0.018429 -0.0041694 -0.0082149 0.011501 -0.013511 0.0050249 0.017781 
무슨|MM -0.089505 -0.043766 -0.088265 0.15477 -0.023962 -0.17668 -0.15578 -0.00035453 -0.19085 -0.012289 0.039725 -0.024534 -0.091492 -0.076658 0.024542 0.061101 0.064624 -0.058473 0.067362 -0.067189 0.046976 -0.20705 0.041651 0.087979 0.081072 0.061573 0.025115 -0.14484 0.003654 -0.04821 0.037831 0.045594 -0.037098 0.054895 0.23452 -0.043662 -0.022041 0.19277 -0.011201 0.057745 0.1624 -0.10016 -0.089944 -0.076163 -0.013806 0.0019628 0.0034647 0.04877 0.0069007 -0.07642 0.0067944 -0.19602 0.027517 -0.12967 0.051735 0.023716 -0.035311 0.20603 -0.027059 0.055776 -0.0047291 0.043727 -0.096351 0.065314 0.058686 0.058001 0.17189 0.045554 0.078937 0.055978 0.22227 0.037366 0.005038 -0.15285 -0.075863 -0.039665 -0.076098 -0.096435 -0.075424 0.10193 0.19852 -0.10583 -0.25148 0.064079 0.078195 0.083813 -0.046233 -0.054084 0.035529 0.019378 -0.11339 -0.037848 -0.073823 0.079216 -0.043956 -0.035531 0.077027 -0.0029533 0.037222 0.15776 
인지|VCP+EC -0.082917 -0.044281 -0.082621 0.15652 -0.027988 -0.17409 -0.15579 -0.0057086 -0.18329 0.0025827 0.042685 -0.03076 -0.091747 -0.06412 0.020773 0.053959 0.059857 -0.054293 0.06861 -0.065453 0.044197 -0.20969 0.03886 0.082859 0.067991 0.049787 0.016512 -0.13405 -0.0018647 -0.057587 0.045336 0.044866 -0.043914 0.04158 0.23372 -0.055098 -0.026504 0.1955 -0.0002632 0.071087 0.15118 -0.10188 -0.09059 -0.082857 -0.028779 -0.003439 -0.0032566 0.054751 0.011496 -0.069983 0.0099302 -0.19008 0.018389 -0.12099 0.055374 0.020204 -0.037144 0.20021 -0.030741 0.042199 -0.010391 0.040101 -0.088005 0.047369 0.058648 0.058813 0.18704 0.039816 0.077596 0.052764 0.22216 0.040516 0.014201 -0.15401 -0.075214 -0.022508 -0.060095 -0.098226 -0.056507 0.10772 0.21086 -0.10744 -0.25457 0.057269 0.073891 0.079033 -0.057256 -0.045671 0.029576 0.027953 -0.11727 -0.022518 -0.083089 0.074143 -0.048284 -0.033746 0.082983 -0.013041 0.037179 0.15479 
모르|VV -0.095987 -0.048832 -0.089347 0.15198 -0.025542 -0.18329 -0.16798 -0.0035398 -0.19319 -0.0094136 0.030909 -0.023931 -0.10508 -0.066131 0.032796 0.055839 0.057078 -0.051699 0.064583 -0.07965 0.039553 -0.20691 0.030851 0.088679 0.074084 0.056644 0.020815 -0.13724 -0.006864 -0.062249 0.027047 0.04313 -0.041324 0.053563 0.23705 -0.05452 -0.032719 0.20649 -0.0028028 0.058798 0.14491 -0.099051 -0.086964 -0.081162 -0.024046 -0.0018095 -0.0028482 0.06217 0.014727 -0.081578 0.0072887 -0.20371 0.011058 -0.13568 0.048826 0.022217 -0.037561 0.20023 -0.01685 0.058001 -0.0080126 0.043798 -0.098969 0.050602 0.056379 0.050249 0.18499 0.042277 0.084936 0.039033 0.22643 0.053819 0.011239 -0.14808 -0.065368 -0.03889 -0.064465 -0.1108 -0.06859 0.10605 0.2108 -0.10736 -0.25353 0.054486 0.084805 0.078864 -0.059059 -0.050142 0.03751 0.020456 -0.11299 -0.020917 -0.086208 0.086209 -0.045203 -0.032345 0.083859 -0.0097457 0.035145 0.15633 
있|VA 0.10071 -0.04508 0.078754 0.081293 -0.1842 -0.0041402 -0.086087 0.12686 -0.079804 -0.0072448 0.01275 -0.047851 -0.032183 0.085381 -0.035001 0.062026 0.15309 -0.18 0.063255 0.14127 0.0026208 -0.034721 0.027722 0.041868 -0.092738 0.036921 0.12414 0.16904 0.018406 -0.16432 0.0024776 -0.047396 0.22987 0.27804 0.0048836 0.0080021 -0.061018 -0.0074998 0.073574 0.054628 -0.13969 -0.22393 0.044555 -0.015462 -0.070824 -0.034963 0.011874 -0.0052182 0.067646 -0.026558 0.15646 0.040477 0.029617 -0.015208 0.19122 0.10044 0.13284 -0.052408 -0.20291 0.074316 0.18382 -0.25009 -0.18942 -0.23448 0.013982 0.047192 0.0029053 -0.20496 -0.12403 -0.058774 0.048172 -0.13463 -0.013655 0.14794 0.053433 -0.1842 -0.10323 0.21284 0.04154 -0.051917 -0.0020274 -0.090085 0.010644 -0.027646 0.14232 0.1323 0.15238 0.13442 -0.012123 0.10655 0.0083595 -0.13141 -0.04761 0.033935 0.11744 0.19878 -0.17765 -0.009665 -0.12385 -0.036444 
해도|VV+EC -0.066755 -0.1031 0.10976 0.045087 0.0057156 0.18721 0.21275 -0.15625 0.11683 -0.010459 -0.22286 0.0023831 0.066124 -0.028018 0.022336 -0.14889 -0.087775 0.12498 -0.1153 -0.15874 -0.16248 0.0004289 -0.1383 -0.023213 0.029129 -0.16738 0.028776 0.37278 0.014939 0.036468 0.10844 -0.034686 0.088005 -0.30248 -0.20053 -0.024973 0.054222 -0.0054841 -0.068507 0.0044706 -0.13695 -0.034522 0.13708 0.30962 0.12156 -0.091685 -0.15592 0.14245 0.10213 -0.11321 0.19796 -0.036745 0.20828 -0.018585 -0.29423 0.06636 0.080142 -0.21204 0.19175 -0.39441 0.15269 -0.053095 0.19268 -0.10347 0.041451 -0.15191 -0.045689 0.026455 -0.12962 -0.16717 -0.058789 -0.025587 -0.037527 0.11639 0.021166 0.16042 0.22595 0.056216 0.12651 -0.0064062 -0.16239 0.1121 -0.030517 0.15622 -0.16344 -0.097601 -0.16563 -0.056522 0.066549 -0.08652 -0.15563 0.023409 -0.12224 -0.045992 -0.07938 -0.06833 0.12332 -0.19335 0.25641 -0.3073 
어떤|MM 0.10679 -0.045845 0.072958 0.079352 -0.1794 0.00088248 -0.083242 0.13246 -0.06312 -0.015299 0.0037494 -0.055922 -0.034952 0.078366 -0.024662 0.048695 0.15065 -0.18222 0.064526 0.14439 0.0040101 -0.038119 0.036707 0.038435 -0.086921 0.044475 0.12979 0.17271 0.011816 -0.15301 0.018245 -0.051295 0.23519 0.28288 0.013233 -0.0032479 -0.062126 -0.017608 0.081259 0.040945 -0.15168 -0.21283 0.034928 -0.021511 -0.058625 -0.02092 0.0086608 -0.00513 0.062184 -0.025771 0.15547 0.039877 0.028924 -0.0055579 0.19357 0.10047 0.12167 -0.051852 -0.19007 0.071909 0.18173 -0.25018 -0.18677 -0.22368 0.011018 0.039926 0.0017555 -0.21791 -0.12441 -0.07042 0.059768 -0.13449 -0.00366 0.14476 0.046469 -0.18949 -0.099704 0.21717 0.042105 -0.052179 -0.014849 -0.07817 0.010049 -0.02484 0.13357 0.13295 0.14754 0.12791 -0.0022644 0.11312 0.0094194 -0.12954 -0.057193 0.024181 0.11582 0.19889 -0.17524 -0.010958 -0.11512 -0.030175 
라구요|VCP+EC -0.13386 -0.14823 -0.087665 0.2697 -0.13438 -0.21617 -0.20012 -0.064612 -0.29489 -0.062467 0.0090387 -0.05369 -0.16279 -0.13154 0.036018 0.038711 0.077907 -0.075291 0.050826 -0.099533 0.075975 -0.32974 0.016375 0.14196 0.084363 0.070129 0.029709 -0.10417 0.043889 -0.12501 0.08386 0.029347 0.041463 0.036814 0.32128 -0.087003 -0.029071 0.31873 -0.01836 0.11224 0.17117 -0.21986 -0.13386 -0.060006 0.02255 0.0050566 -0.038405 0.11823 0.088319 -0.16839 0.11415 -0.31874 0.093376 -0.22482 0.013674 0.038063 -0.060759 0.22939 -0.052646 -0.046022 0.10089 -0.033917 -0.14403 0.034037 0.084624 0.021288 0.28365 0.056734 0.061419 0.018338 0.34516 0.022248 0.02525 -0.19622 -0.068329 -0.0044526 -0.082943 -0.13708 -0.052147 0.20818 0.31165 -0.16533 -0.41072 0.16061 0.1 0.15395 -0.05167 -0.12297 0.063323 0.027861 -0.2459 -0.040743 -0.16396 0.16051 -0.085086 -0.021949 0.12 -0.088992 0.097858 0.17897 
해|VV+EC -0.10257 -0.10154 -0.083332 0.19236 -0.083197 -0.18244 -0.15618 -0.037879 -0.22258 -0.027126 0.02312 -0.034359 -0.12291 -0.095132 0.029673 0.047033 0.075934 -0.064587 0.054159 -0.085544 0.049758 -0.26079 0.024375 0.098905 0.073863 0.048327 0.029385 -0.10604 0.017352 -0.074133 0.064622 0.03272 0.011719 0.016475 0.26632 -0.058615 -0.014984 0.23662 -0.013836 0.093419 0.1515 -0.15593 -0.088693 -0.052501 0.010006 0.010629 -0.014406 0.097852 0.046255 -0.12096 0.060325 -0.24896 0.058944 -0.17323 0.021342 0.018933 -0.048963 0.19513 -0.036666 -0.0080728 0.061213 -0.0023104 -0.11427 0.035213 0.063467 0.036702 0.21463 0.058442 0.071267 0.014968 0.26468 0.039008 0.0085265 -0.16037 -0.060039 -0.017957 -0.050142 -0.10115 -0.049806 0.14905 0.24098 -0.12838 -0.32806 0.10155 0.077549 0.11265 -0.053577 -0.077434 0.040439 0.020922 -0.18026 -0.022021 -0.11259 0.10803 -0.070387 -0.029076 0.10413 -0.064918 0.075932 0.14156 
할께요|VV+EF -0.022368 -0.049565 0.078598 -0.05366 -0.01595 0.18302 0.17075 -0.16228 0.11416 -0.061369 -0.096413 0.041435 0.05386 -0.038896 -0.0030628 -0.10375 -0.14195 0.15304 -0.14382 -0.033987 -0.023018 0.081966 -0.080889 -0.046544 -0.011893 -0.0662 -0.081667 0.14415 0.039617 0.056674 0.02569 -0.037544 0.042217 -0.23345 -0.15967 0.029455 0.069436 -0.03226 -0.045642 -0.023034 -0.094353 0.057703 0.056378 0.16272 0.1288 -0.0027136 -0.067603 0.049724 0.041669 -0.025467 0.058563 0.025941 0.077767 0.0065556 -0.21917 -0.040281 -0.040488 -0.20137 0.10615 -0.26342 0.072341 -0.03347 0.12353 0.033792 -0.027724 -0.13707 -0.069688 0.097676 -0.084533 -0.089741 -0.12102 -0.020156 0.017305 0.021447 0.060332 0.16228 0.11672 -0.017036 0.084783 0.041815 -0.095137 0.098243 0.058308 0.090117 -0.15382 -0.049414 -0.036398 -0.10807 -0.0075629 -0.070331 -0.066855 0.077793 -0.012803 0.0081726 -0.061482 -0.068745 0.068074 -0.12286 0.13425 -0.14073 
라구|VCP+EC -0.13763 -0.119 -0.095589 0.24894 -0.087036 -0.22392 -0.2019 -0.04854 -0.28435 -0.046045 0.023331 -0.047086 -0.1581 -0.11519 0.0346 0.054391 0.072609 -0.062494 0.056695 -0.11113 0.061814 -0.29945 0.029091 0.12303 0.10117 0.06854 0.02226 -0.14244 0.015015 -0.088487 0.077279 0.037641 -0.005028 0.014442 0.32986 -0.070647 -0.029118 0.31221 -0.028107 0.1161 0.19998 -0.17153 -0.12046 -0.062789 0.014036 0.010086 -0.032665 0.10706 0.060091 -0.14207 0.061173 -0.31689 0.063771 -0.20164 0.0057234 0.023559 -0.062758 0.2496 -0.027365 -0.013166 0.043751 0.017797 -0.12306 0.063051 0.089254 0.041081 0.27039 0.070616 0.086356 0.040565 0.33102 0.039241 0.016872 -0.22377 -0.080347 -0.0032951 -0.059829 -0.14655 -0.065407 0.1874 0.30267 -0.15665 -0.40126 0.13079 0.086755 0.12164 -0.080243 -0.10469 0.065918 0.034716 -0.22537 -0.033506 -0.14344 0.13554 -0.085218 -0.04221 0.1384 -0.058729 0.089606 0.17853 
