198 100
</s> -0.089823 -0.21775 -0.087123 0.0089898 -0.07116 -0.12833 -0.052023 0.46068 0.031948 -0.086737 0.18288 0.1358 0.11793 0.018122 -0.19436 0.15565 0.095211 0.055647 0.081937 -0.162 -0.17524 -0.22797 -0.03097 0.057618 -0.030688 -0.12759 -0.19891 0.2241 -0.16267 -0.12677 0.1033 -0.08633 -0.085078 0.21899 0.054214 0.010474 0.046831 -0.32629 -0.13826 -0.080007 0.42824 -0.33451 -0.049182 -0.35575 -0.15208 -0.099119 -0.28489 -0.19531 0.019142 -0.3118 0.073887 -0.044565 -0.182 -0.19167 0.20196 -0.12153 -0.043003 -0.2257 -0.34312 0.055609 -0.18339 0.0066472 -0.12667 0.020066 -0.15208 -0.021409 0.069042 0.064367 0.29171 0.16372 -0.15793 -0.10799 -0.088659 0.20009 0.32297 0.14545 0.14574 0.014329 0.07188 -0.1454 -0.26904 0.12925 0.013269 -0.20146 -0.45096 -0.16075 -0.083955 0.042489 0.25198 -0.00038866 -0.090892 -0.05005 -0.14524 0.028679 0.17275 0.27967 0.36203 0.39508 -0.11088 0.30087 
안|MAG 0.24537 0.40823 0.34306 -0.59918 0.27105 0.1642 -0.058282 -0.50601 -0.054898 0.2963 -0.017349 -0.6669 0.038497 0.12905 0.14121 -0.13352 -0.10652 0.1641 -0.64502 -0.22893 -0.30407 0.10205 -0.091615 -0.19343 0.090501 0.13434 0.017117 -0.4698 -0.34548 -0.27397 -0.38341 -0.040011 0.47255 0.060337 -0.15803 -0.1593 -0.6134 0.43311 0.25054 0.18429 -0.52316 0.3121 -0.097839 0.45533 0.3178 0.19183 0.20244 0.27107 -0.26946 0.60316 0.0057696 0.58964 -0.081594 -0.079575 -0.27886 0.40804 -0.027561 0.14548 0.26888 0.13917 0.19501 0.4337 -0.014629 0.42329 0.27565 -0.31425 -0.095748 -0.14036 -0.33873 0.34786 0.060565 0.17004 0.29265 -0.45376 -0.27134 -0.16275 0.083504 -0.053098 0.25695 -0.26674 0.26731 0.24129 -0.089053 0.14868 0.23937 0.004628 0.23818 -0.019445 -0.35792 0.27563 -0.68065 0.07442 0.63944 -0.25475 0.238 0.19307 -0.070859 -0.20899 -0.077246 -0.10815 
어요|EF 0.52232 0.26498 -0.10438 -0.028682 -0.19461 0.060632 -0.19768 -0.47738 0.22692 0.006455 -0.205 -0.5707 0.21614 0.0291 0.26763 -0.1735 -0.14555 -0.04949 -0.36959 -0.12469 0.32884 -0.20964 -0.038145 -0.11988 -0.14153 -0.1733 0.05614 -0.2559 -0.19853 -0.22326 -0.023009 0.14216 0.27727 -0.27527 0.077258 -0.040642 -0.44411 0.60039 0.25873 0.17213 -0.47126 -0.10163 -0.22055 0.012789 0.39133 0.42089 0.26977 -0.043907 -0.4414 0.51278 0.33526 -0.046485 -0.12221 -0.33266 -0.20063 -0.21397 0.039339 -0.0024426 0.36428 0.28508 0.44003 0.70068 0.34876 0.067258 -0.21286 0.058513 -0.29783 -0.48135 0.10647 -0.020758 0.61587 0.087118 0.32804 -0.12926 -0.39356 -0.15612 0.16724 -0.092683 -0.07938 -0.062937 0.39767 0.1915 -0.3147 0.020226 0.035716 -0.11006 -0.23414 0.1245 0.14977 0.2645 -0.76793 -0.035316 0.23003 -0.27005 0.010864 0.10644 -0.078224 0.075762 -0.34076 0.214 
줘|VX+EC 0.24137 0.22416 0.09808 0.04796 -0.3044 0.042484 0.18534 -0.13041 -0.04919 0.12231 0.12637 -0.34201 -0.33737 0.060944 0.68386 -0.068734 -0.2799 0.0026394 0.22537 0.085936 0.66549 0.30003 0.26324 0.51875 -0.22563 0.41358 -0.29171 -0.076491 0.31343 -0.36893 0.18577 0.1708 0.31861 0.23145 0.13496 0.34092 0.11766 -0.019564 -0.016307 0.31864 -0.2231 0.061801 -0.37449 0.092056 0.33169 -0.19807 0.30353 0.21778 0.18837 0.43416 0.049145 -0.06571 0.10151 0.21331 -0.16349 -0.076424 0.057349 0.13757 0.41598 -0.22703 0.13369 -0.043914 -0.31751 -0.29135 -0.27095 -0.24196 0.19353 -0.34346 -0.076203 -0.036775 0.52808 -0.17167 0.26306 0.018773 -0.17695 0.41344 -0.20225 -0.42272 -0.1166 0.056627 0.5611 0.37591 0.038544 -0.17147 0.52735 0.18886 0.23796 0.26825 0.039221 -0.14281 -0.16926 -0.47187 -0.3444 0.13792 -0.41274 -0.044902 -0.19011 -0.22183 0.14775 -0.34807 
나요|EC -0.01956 0.48277 0.22723 -0.24596 0.47605 0.35602 -0.05226 -0.67249 -0.1317 0.26806 -0.23336 -0.14437 0.018498 0.15039 0.062867 -0.24044 -0.059863 -0.10241 -0.22541 -0.0028884 -0.1543 0.064415 0.18771 -0.073464 0.26398 -0.018378 0.44065 -0.12108 -0.072612 0.092652 -0.079304 -0.016195 -0.098592 -0.31002 -0.51825 -0.053108 -0.46432 0.15466 0.18401 0.23851 -0.27334 0.40187 0.48357 0.57788 0.11377 0.025738 -0.016084 0.25259 -0.26101 0.34781 -0.15122 0.25771 0.17585 -0.025227 -0.12016 0.41406 0.099914 0.1192 0.11978 0.12262 0.27307 0.1156 0.26783 0.41266 0.45028 -0.030035 -0.19366 0.044547 -0.30506 0.079888 -0.13411 0.17126 0.21498 -0.23398 -0.25163 -0.35067 -0.034907 -0.0049542 0.41137 -0.10674 0.032076 -0.039537 0.18532 -0.022246 0.29382 0.17356 -0.12878 -0.16265 -0.32625 0.34686 -0.066562 0.27338 0.44787 -0.2737 0.11908 -0.10532 -0.34178 -0.12971 -0.24388 -0.33082 
다른|MM -0.14452 0.66778 -0.21618 -0.14097 0.58411 0.77228 -0.38466 -0.7132 0.44851 0.74725 -0.6143 0.87942 0.11262 0.21292 -0.4211 0.14255 -0.58553 -0.14177 0.039843 -0.19253 -0.60362 0.5083 0.6764 0.19099 0.82608 -0.26686 1.0527 -0.24223 0.096369 0.12924 -0.047185 0.2123 -0.82731 -0.52246 -1.2243 0.41233 -0.41206 -0.59678 -0.14669 0.27786 0.11795 0.75043 0.89652 0.84025 0.28378 -0.48052 -0.46859 -0.052342 -0.34844 0.056365 -0.78379 0.16697 -0.10536 -0.16161 0.09293 0.3971 0.32469 -0.20886 -0.088161 0.45854 0.088871 -0.38752 0.91917 0.31548 0.22695 0.21385 -0.45672 0.2675 0.074235 0.46657 -0.51271 0.30036 0.46095 0.32785 -0.15361 -0.42069 -0.27972 -0.10272 0.61018 -0.49758 0.12825 -0.098645 0.62564 -0.28266 0.20344 0.10598 -0.79913 -0.071695 0.10542 0.76217 0.53372 0.48352 -0.22116 -0.46085 -0.27672 -0.34756 -0.74325 -0.034753 -0.3884 -0.53855 
해|XSV+EC 0.23488 -0.11012 -0.19658 0.047339 -0.35924 0.026696 0.087049 0.039107 -0.09158 -0.027343 0.19658 -0.24033 -0.31482 -0.016311 0.46663 0.11521 -0.16034 0.0058481 0.039323 0.039017 0.61797 0.35537 0.010521 0.19659 -0.2196 0.14088 -0.2816 -0.2696 0.30169 -0.16675 0.067747 0.15755 0.32451 0.07804 0.37338 0.3265 0.14028 0.038677 0.072348 0.13192 -0.24579 0.21777 -0.36142 0.1596 0.32828 -0.068528 0.3878 0.11069 0.12197 0.30357 0.077195 0.078652 -0.063283 0.21901 -0.010933 -0.17194 0.041183 0.31442 0.2687 -0.019712 0.11783 -0.024581 -0.019688 -0.42 -0.47404 -0.13162 0.006282 -0.30442 -0.074747 0.064044 0.22343 -0.10215 0.20145 0.091825 -0.22162 0.02869 -0.30442 -0.26091 -0.3239 -0.026214 0.55929 0.29662 -0.0065818 0.11961 0.30615 0.25375 0.21703 0.16768 0.096964 -0.11073 -0.12227 -0.3752 -0.35751 0.0083703 -0.43751 -0.017927 -0.073503 -0.19874 0.19833 -0.18336 
주문|NNG -0.26982 -0.32432 -0.56014 0.27471 0.18377 -0.091788 0.28134 0.17324 -0.44806 -0.2884 0.32934 0.59594 -0.45922 0.0162 -0.11593 0.31181 0.013629 -0.059405 0.64427 0.3694 0.74574 1.0166 -0.43197 0.078499 -0.37969 -0.012176 -0.045103 -0.33731 0.38392 0.5389 -0.324 0.22153 0.0076003 -0.34801 0.11549 0.31259 0.97019 -0.46512 -0.046176 -0.30549 -0.071045 1.1962 -0.1256 0.63734 0.32801 -0.31456 0.77731 0.076798 0.19042 -0.032807 -0.51847 0.26588 0.1443 0.9268 0.19089 0.0022008 0.34157 0.6287 0.22265 -0.42282 -0.3592 -0.83924 0.77338 -0.67525 -0.48066 0.14458 0.0014504 0.25544 -0.44482 -0.20158 -0.66487 0.20296 -0.17614 0.39863 -0.10772 0.046143 -0.73486 0.3527 -0.47604 0.1116 0.38357 -0.12675 0.5211 0.3074 0.14742 0.43071 0.31156 0.24602 -0.058169 -0.38495 1.5243 0.055273 -0.52118 0.063611 -0.8848 -0.77044 -0.23488 -0.49958 0.91737 -0.3128 
가능|NNG 0.097339 0.5732 0.42382 -0.28752 0.47906 0.32638 0.035589 -0.84297 -0.36335 0.19569 -0.1933 -0.51751 -0.027619 0.16014 0.33992 -0.46847 0.018463 -0.11846 -0.32227 0.062112 0.043577 -0.035036 0.1406 -0.051185 0.11899 0.14178 0.3255 -0.10618 -0.099371 0.044258 -0.073603 -0.037569 0.18234 -0.34082 -0.4149 -0.15262 -0.59042 0.43131 0.31578 0.3521 -0.499 0.39001 0.4207 0.6591 0.16592 0.18382 0.20204 0.42602 -0.29832 0.60361 0.028653 0.30645 0.27984 0.031974 -0.21875 0.50414 0.072817 0.24926 0.30215 0.044943 0.43945 0.32262 0.1112 0.52429 0.6041 -0.18809 -0.14397 -0.085158 -0.53041 -0.028042 0.022514 0.15814 0.30868 -0.45466 -0.37644 -0.32775 -0.011872 -0.03929 0.43269 -0.014133 0.12312 -0.0032674 0.068528 0.026016 0.50925 0.28768 0.060779 -0.20413 -0.52346 0.29139 -0.34128 0.22862 0.66719 -0.26512 0.19521 -0.072737 -0.38733 -0.2211 -0.24955 -0.42218 
시간|NNG -0.024526 0.49038 0.085879 -0.18975 0.43413 0.44609 -0.15893 -0.62305 0.03858 0.35737 -0.32785 0.091874 0.08482 0.13918 -0.065985 -0.14143 -0.19699 -0.1119 -0.17672 -0.085472 -0.27114 0.12266 0.3053 -0.00059639 0.37438 -0.1024 0.56005 -0.14201 -0.04548 0.058323 -0.052017 0.042383 -0.25134 -0.35858 -0.6462 0.059173 -0.47133 -0.016743 0.095965 0.24112 -0.15339 0.41745 0.53828 0.57455 0.15618 -0.069297 -0.13497 0.13454 -0.29954 0.25851 -0.26039 0.20236 0.062142 -0.12001 -0.052058 0.35971 0.14898 0.0088666 0.064425 0.25111 0.23683 0.044103 0.42537 0.39199 0.34521 0.017795 -0.2681 0.075759 -0.16073 0.18533 -0.18849 0.18723 0.29346 -0.076968 -0.21866 -0.3612 -0.064197 -0.028846 0.44193 -0.21915 0.067754 -0.051221 0.25111 -0.096244 0.22625 0.1418 -0.3241 -0.14611 -0.17447 0.44959 0.00072388 0.31922 0.26533 -0.32455 0.032955 -0.12302 -0.41316 -0.05352 -0.31799 -0.33989 
없|VA 0.086535 0.082158 0.21213 -0.19236 0.18636 -0.094011 -0.0036671 -0.41318 -0.22623 -0.18513 -0.0015232 -0.68818 0.14129 0.052858 0.064933 -0.25049 0.31237 -0.12215 -0.32677 -0.013676 0.0718 -0.38386 -0.16779 -0.4921 -0.14622 -0.29175 0.07015 -0.083268 -0.2487 0.075091 -0.063802 -0.098779 0.10131 -0.18624 0.10319 -0.36027 -0.42057 0.63341 0.35294 0.036759 -0.42481 -0.14541 0.13486 0.016093 -0.087946 0.43158 0.027404 0.1033 -0.29845 0.30113 0.38004 0.077284 0.22222 -0.23351 -0.26524 0.044692 -0.057298 0.10237 0.093844 0.0602 0.34036 0.50586 0.13032 0.32767 0.23088 0.16804 -0.12911 -0.16271 -0.078017 -0.23792 0.34628 0.087695 -0.097089 -0.44701 -0.23887 -0.43575 0.32963 0.19174 0.084964 0.20428 -0.11202 -0.019536 -0.24759 0.12983 -0.058179 -0.040205 -0.045833 -0.22228 -0.23233 0.11253 -0.4969 0.0924 0.77106 -0.14588 0.38411 0.059513 0.19008 0.099302 -0.28331 0.24854 
다시|MAG 0.53811 0.77854 0.10501 0.48408 -0.47378 0.35357 -0.15227 0.39138 0.28375 0.3515 -0.069798 0.26392 0.31716 0.06349 0.50202 -0.29658 -0.69948 0.15191 0.39599 -0.23454 0.22253 -0.31533 0.55838 1.5271 -0.14421 0.83408 -0.43129 0.77708 -0.30415 -0.94323 0.40219 0.093403 0.3967 0.24583 -0.43482 0.46985 -0.23172 -0.7125 -0.50997 0.48448 0.71193 -0.59554 -0.45429 -0.39994 0.58328 -0.3328 -0.025905 -0.18054 -0.26021 0.11423 0.036217 -0.31632 -0.50356 -0.39941 0.40795 -0.056073 0.18603 -0.71321 0.11638 0.078703 0.018261 0.38533 -0.49223 0.2835 -0.013231 -0.77229 0.16523 -0.36422 0.2056 0.4787 0.18449 -0.16357 0.88091 0.43813 0.2333 1.227 0.028002 -0.62004 0.41365 -0.62971 0.31781 0.53118 -0.025697 -0.86974 0.39072 0.046965 0.088358 0.50033 0.20066 0.18827 -0.72625 -0.085039 -0.78291 -0.0021336 -0.06475 0.51206 -0.45047 0.22946 -0.34834 -0.52839 
바꿀|VV+ETM 0.040359 0.74179 0.11304 0.2139 0.16796 0.50773 -0.19296 -0.14298 0.24544 0.48211 -0.31453 0.57938 0.24491 0.16358 0.034566 -0.17904 -0.50794 -0.057477 0.38798 -0.16196 -0.20459 -0.1005 0.7056 0.91971 0.30649 0.28582 0.30822 0.54032 -0.10575 -0.37796 0.30912 0.070526 -0.34262 -0.068544 -0.89248 0.36526 -0.2851 -0.73207 -0.36843 0.40284 0.56964 -0.14739 0.37491 0.052904 0.23004 -0.46555 -0.42638 -0.093424 -0.24584 -0.047992 -0.28989 -0.2162 -0.14211 -0.33308 0.23704 0.20248 0.22665 -0.57954 -0.11385 0.13187 0.040217 -0.045554 0.035047 0.42452 0.28207 -0.2329 -0.029928 0.034768 0.19119 0.30306 -0.12635 0.0057439 0.52224 0.32034 0.16631 0.46039 0.016629 -0.31454 0.63882 -0.41358 -0.029889 0.15398 0.32221 -0.72922 0.26221 0.071026 -0.34676 0.11371 0.080583 0.41087 -0.014374 0.19549 -0.3864 -0.13198 -0.0029291 0.088403 -0.4988 0.20626 -0.43586 -0.544 
세요|EP+EF 0.060039 0.2398 -0.12091 -0.17353 0.18583 0.23244 -0.13363 -0.20858 0.16907 0.26663 -0.10555 0.17244 0.018605 0.13048 -0.13523 0.11339 -0.22596 0.055655 -0.12122 -0.14329 -0.17542 0.28553 0.064525 0.030522 0.21411 -0.087097 0.2416 -0.26187 -0.078197 -0.043762 -0.16566 0.090212 -0.067678 -0.12864 -0.37818 0.12714 -0.13687 -0.17771 -0.0014971 0.061105 -0.037429 0.43232 0.10992 0.37345 0.25995 -0.11713 0.019631 0.0052072 -0.16671 0.15267 -0.28907 0.25769 -0.14416 0.031788 0.00023559 0.1405 0.11897 0.034511 0.059418 0.15094 -0.029775 -0.057532 0.37689 0.044768 -0.082911 -0.016731 -0.17429 0.055505 -0.029207 0.28643 -0.18761 0.14732 0.18163 0.10819 -0.088285 -0.1303 -0.14565 -0.023968 0.13621 -0.25689 0.19425 0.12518 0.22911 -0.023086 0.040076 0.024396 -0.11893 0.10382 0.015176 0.26604 0.097189 0.1452 -0.017065 -0.25201 -0.15051 -0.064859 -0.20579 -0.077037 0.009623 -0.13871 
취소|NNG -0.23537 -0.29461 0.44191 0.2268 -0.20532 0.052116 0.40383 -1.0387 -0.030893 0.23011 -0.63936 0.04352 -0.59173 -0.83468 0.40179 -0.1101 -0.30942 -0.079235 -0.077974 0.75212 -0.0602 0.97063 0.294 -0.28179 0.21446 0.94435 0.63452 -0.63376 1.1552 0.57518 -0.29804 0.2537 -0.11339 -0.24784 0.84518 0.2757 0.072347 1.0228 0.069255 -0.094706 -1.3399 0.26606 -0.084332 0.64628 0.082071 -0.15265 0.47547 0.42746 0.66617 0.24416 -0.30653 -0.14763 0.46254 0.39611 -0.54959 0.39692 -0.081382 0.2286 0.59655 -0.083243 0.33867 -0.75919 -0.42962 0.051905 1.0064 -0.13063 0.23263 -0.16948 -0.80637 -0.60075 0.056557 0.15681 0.54555 -0.63967 -0.71299 0.43203 -0.29427 -0.15647 -0.46863 0.34538 0.50466 -1.2107 -0.77839 0.78739 1.1128 0.17757 0.041927 -0.59226 -0.25986 -0.49936 0.45818 -0.26939 -0.48953 1.0604 -0.63406 -1.0463 -0.7256 -1.2045 0.49402 -0.57112 
되|VV 0.019883 0.17692 0.19062 -0.01661 0.20406 0.092971 0.039909 -0.27852 -0.19702 -0.032282 -0.11701 -0.10533 0.030092 0.010553 0.11738 -0.30253 0.12099 -0.046009 -0.15674 0.13547 0.0051332 -0.17315 -0.066189 -0.033616 0.047971 0.13137 0.091673 0.13337 -0.058521 0.15559 0.016049 -0.092632 0.15095 -0.20881 -0.10178 -0.21538 -0.13193 0.22944 0.11001 0.051798 -0.095668 0.10154 0.18021 0.16596 -0.082834 0.21696 0.16405 0.18927 -0.053339 0.10974 0.059525 0.015339 0.14245 0.10658 0.017976 0.18369 -0.03856 0.16763 0.10853 -0.041058 0.14414 0.14831 -0.094819 0.17514 0.37056 -0.11475 -0.033242 0.069097 -0.33059 -0.095751 -0.12215 0.053081 0.036567 -0.17541 -0.07519 -0.091147 -0.033324 0.036356 0.11167 0.074159 -0.10854 -0.14948 -0.017188 0.096677 0.14565 0.094323 0.091684 -0.098113 -0.26731 -0.010618 -0.087262 0.20055 0.24511 -0.094939 0.14344 -0.0095433 -0.18249 -0.13257 -0.048817 -0.11769 
날짜|NNG -0.072462 0.32766 -0.077991 -0.11063 0.3153 0.37099 -0.17447 -0.39824 0.19665 0.36023 -0.28392 0.3573 0.031577 0.11463 -0.18017 0.043905 -0.25293 -0.063008 -0.02874 -0.083528 -0.28604 0.26353 0.31151 0.045064 0.39569 -0.13258 0.52083 -0.15603 0.045795 0.085918 -0.037842 0.091696 -0.37292 -0.26279 -0.59363 0.15785 -0.21956 -0.22548 -0.020331 0.13273 -0.013722 0.40716 0.45042 0.45304 0.13271 -0.19521 -0.19971 0.021314 -0.15005 0.061954 -0.35706 0.11801 -0.011517 -0.059914 0.0028673 0.21269 0.15465 -0.059925 -0.014384 0.2013 0.065124 -0.18602 0.43697 0.16088 0.13297 0.11024 -0.20239 0.12976 0.0034381 0.19693 -0.22829 0.15424 0.20758 0.11609 -0.091603 -0.23586 -0.13257 -0.03743 0.29792 -0.2014 0.062441 -0.05121 0.29471 -0.097131 0.11777 0.062253 -0.36158 -0.05728 0.023816 0.35681 0.25366 0.23313 -0.0297 -0.21186 -0.1195 -0.19101 -0.34382 -0.041264 -0.15954 -0.25631 
하|XSV -0.35067 -0.23548 -0.1804 -0.19911 0.2276 -0.1197 0.093117 0.33593 -0.0068074 0.07899 0.24705 0.44535 -0.22355 0.07646 -0.4359 0.47282 -0.018774 0.12418 0.25819 -0.054008 -0.22686 0.62002 -0.16505 -0.10333 0.057417 -0.10941 0.011194 -0.31597 0.064366 0.1528 -0.32909 0.041835 -0.22789 0.20426 -0.14902 0.12649 0.47738 -0.53292 -0.14949 -0.24074 0.16457 0.55753 -0.01 0.23839 0.0031536 -0.43397 -0.032159 -0.048058 0.22568 -0.22744 -0.5037 0.35254 -0.02444 0.37243 0.025115 0.12866 0.11312 0.089825 -0.15574 -0.22482 -0.4942 -0.67454 0.24241 -0.24121 -0.25714 0.12571 0.12942 0.37332 0.0068073 0.17277 -0.46166 0.089813 -0.31094 0.19901 0.21012 0.026768 -0.2327 0.20644 -0.060225 -0.04657 -0.0086371 0.035312 0.41272 0.045086 -0.16792 -0.021749 0.14836 0.11971 0.03951 -0.13001 0.88364 -0.0069203 -0.14932 0.087563 -0.27895 -0.27601 0.13012 -0.13653 0.51907 -0.029555 
주|VX 0.11648 0.31917 -0.18808 -0.011952 0.14997 0.24321 -0.062227 -0.24511 0.036597 0.19029 -0.089672 0.18712 -0.058478 0.15393 0.070913 0.016206 -0.26164 -0.021399 0.087102 -0.011743 0.20608 0.37213 0.082247 0.2304 0.060569 0.0082157 0.18353 -0.19492 0.035783 -0.017092 -0.089339 0.1396 0.019575 -0.2465 -0.37276 0.19996 0.033764 -0.21042 -0.013376 0.12523 -0.058335 0.55981 0.068464 0.43886 0.35677 -0.12852 0.23867 0.072359 -0.16199 0.23893 -0.28442 0.16518 -0.056547 0.20177 0.039413 0.090293 0.19821 0.16358 0.2277 0.036964 0.039042 -0.096254 0.44203 -0.091074 -0.15115 -0.030877 -0.15255 -0.0076691 -0.14473 0.16334 -0.138 0.12354 0.23416 0.1889 -0.15257 -0.020763 -0.28661 -0.049991 0.07115 -0.1791 0.32584 0.13418 0.31189 -0.071448 0.20134 0.16341 -0.070314 0.20528 0.0091851 0.17631 0.26943 0.11335 -0.15958 -0.24978 -0.34414 -0.19224 -0.34693 -0.1525 0.082126 -0.27314 
한|XSA+ETM 0.06637 -0.075572 0.29333 -0.0023778 -0.060591 -0.14487 0.19562 -0.15196 -0.32001 -0.18622 0.079161 -0.51498 -0.09742 -0.12662 0.32311 -0.24574 0.18873 -0.013371 -0.14987 0.1699 0.23842 -0.11424 -0.16265 -0.10482 -0.25684 0.2616 -0.2155 0.014545 0.042456 0.031905 -0.036048 -0.071784 0.37227 0.037046 0.41569 -0.17686 -0.08108 0.50046 0.16904 0.0051388 -0.3658 -0.12409 -0.20294 -0.0075403 -0.029633 0.25022 0.30029 0.20119 0.076741 0.21078 0.27964 0.028492 0.18475 0.096213 -0.16072 0.087989 -0.092629 0.17992 0.20405 -0.15913 0.1661 0.19544 -0.3539 0.10348 0.27945 -0.17804 0.13352 -0.14671 -0.31595 -0.24368 0.17427 -0.030826 0.011873 -0.37482 -0.16819 0.081428 0.088246 0.016615 -0.11233 0.20151 0.029825 -0.10696 -0.31684 0.20545 0.23761 0.096763 0.32417 -0.1357 -0.26312 -0.2167 -0.28905 -0.10807 0.27765 0.20233 0.12223 -0.0043333 0.051415 -0.18697 0.083712 -0.02923 
을까요|EC -2.6071e-05 0.27166 0.13679 -0.1645 0.26098 0.20085 -0.060646 -0.35263 -0.07329 0.16788 -0.13162 -0.11379 0.039854 0.074652 0.0094584 -0.13067 -0.031423 -0.059328 -0.16744 -0.055836 -0.1262 -0.0046929 0.11663 -0.043152 0.1446 -0.028448 0.22546 -0.06473 -0.093839 0.010226 -0.053249 -0.0057577 -0.052723 -0.15201 -0.28192 -0.040352 -0.3267 0.090364 0.10724 0.1472 -0.14754 0.17656 0.27074 0.29922 0.061992 0.028071 -0.053688 0.12331 -0.16845 0.20003 -0.061752 0.15761 0.055096 -0.077671 -0.06243 0.22592 0.059301 0.037332 0.038367 0.10712 0.15928 0.1209 0.15182 0.2684 0.2505 -0.045346 -0.11808 0.0059046 -0.14587 0.073185 -0.060687 0.10077 0.15402 -0.16071 -0.13343 -0.22707 0.029306 0.0071188 0.24716 -0.09645 0.0083909 0.0011632 0.080805 -0.027396 0.14946 0.10164 -0.089082 -0.1202 -0.18183 0.22011 -0.1325 0.14745 0.27006 -0.16233 0.11152 -0.010644 -0.15503 -0.02086 -0.19259 -0.16236 
수|NNB -0.062682 0.33935 -0.008279 -0.15529 0.32893 0.33468 -0.18437 -0.39884 0.126 0.30906 -0.2635 0.20658 0.092254 0.11022 -0.18311 0.00021182 -0.18966 -0.059894 -0.11509 -0.11959 -0.33022 0.14501 0.24393 -0.025332 0.36351 -0.16065 0.4788 -0.13903 -0.052456 0.054608 -0.064742 0.048568 -0.30512 -0.24019 -0.55221 0.086628 -0.33919 -0.12707 0.031364 0.13912 -0.038383 0.32107 0.44469 0.41653 0.11016 -0.12485 -0.21737 0.020593 -0.23009 0.096904 -0.27106 0.16634 -0.0078943 -0.13619 -0.017584 0.23988 0.11787 -0.064032 -0.032715 0.23708 0.11129 -0.049471 0.40079 0.27102 0.20034 0.084081 -0.22314 0.09171 -0.02296 0.2081 -0.2009 0.15869 0.19227 0.016798 -0.10293 -0.29374 -0.045476 0.00092432 0.32578 -0.22063 0.021099 -0.04385 0.22751 -0.090505 0.08246 0.045513 -0.32566 -0.11052 -0.039481 0.3884 0.072068 0.24943 0.12633 -0.25743 0.0093325 -0.08881 -0.27067 0.0074026 -0.24724 -0.19784 
있|VV -0.050743 0.32294 -0.018658 -0.15956 0.33714 0.33947 -0.16946 -0.40706 0.11985 0.31851 -0.25546 0.21443 0.08382 0.11911 -0.18533 -0.0048291 -0.19 -0.055292 -0.10582 -0.10846 -0.32794 0.14021 0.25385 -0.028453 0.35847 -0.15797 0.47888 -0.12799 -0.042435 0.058439 -0.065331 0.05 -0.30206 -0.25074 -0.55285 0.091069 -0.32769 -0.13605 0.015914 0.13736 -0.028482 0.32606 0.44578 0.41528 0.099295 -0.11814 -0.21583 0.023637 -0.22031 0.093687 -0.26542 0.1648 -0.010282 -0.13865 -0.024274 0.24567 0.13059 -0.070796 -0.030131 0.2236 0.11947 -0.046165 0.39108 0.26309 0.19343 0.073603 -0.22344 0.11107 -0.011697 0.19721 -0.21008 0.15564 0.19662 0.011893 -0.10895 -0.29736 -0.046975 0.0037568 0.33848 -0.20466 0.01413 -0.026521 0.22231 -0.090429 0.082987 0.060836 -0.32302 -0.10154 -0.043087 0.38569 0.077812 0.26078 0.12097 -0.24711 0.017548 -0.099106 -0.27995 0.002501 -0.23181 -0.19802 
오후|NNG 0.15621 0.55944 0.67348 -0.29563 0.41395 0.18683 0.23296 -0.8216 -0.68349 0.00044684 -0.0031729 -0.926 -0.11077 0.12737 0.62652 -0.67621 0.22056 -0.10389 -0.38971 0.18845 0.29053 -0.20725 -0.035553 -0.035852 -0.13536 0.3828 0.0092355 0.02164 -0.13667 0.0055254 -0.06244 -0.15488 0.55951 -0.22534 -0.10158 -0.33193 -0.57923 0.69881 0.42015 0.36662 -0.63074 0.25863 0.20823 0.54576 0.089566 0.38147 0.44229 0.59409 -0.20428 0.73236 0.3022 0.32637 0.42334 0.1627 -0.27676 0.55365 -0.014979 0.43315 0.434 -0.17371 0.50845 0.50125 -0.27994 0.55719 0.76732 -0.38948 0.010674 -0.15588 -0.77913 -0.20372 0.14313 0.071604 0.23175 -0.70165 -0.40682 -0.21096 0.053523 -0.049961 0.35056 0.15085 0.08635 0.031067 -0.091614 0.12126 0.64526 0.3848 0.43121 -0.24581 -0.76408 0.064259 -0.56883 0.11775 0.8778 -0.14503 0.35524 0.033266 -0.26636 -0.31724 -0.16178 -0.42509 
말|NNG 0.73651 0.37472 -0.029923 0.072374 -0.50355 0.077907 0.014924 -0.16349 0.24415 0.11494 -0.057146 -0.41736 -0.033651 -0.02282 0.69123 -0.22025 -0.4426 0.20603 -0.24135 -0.0040877 0.56229 0.11501 -0.05332 0.54249 -0.23786 0.5645 -0.41112 -0.16955 -0.02827 -0.50693 -0.027441 0.1694 0.86539 0.047364 0.25256 0.17563 -0.042467 0.32567 -0.009978 0.22662 -0.29459 0.045939 -0.80255 0.010563 0.65253 0.25707 0.72349 0.10492 -0.10005 0.58299 0.16083 -0.020687 -0.31854 0.15297 -0.019102 -0.1971 -0.0026785 0.15573 0.65876 0.027389 0.18053 0.50101 -0.26354 -0.28257 -0.32936 -0.52017 0.0019094 -0.49277 -0.21121 0.2369 0.48184 -0.060646 0.59248 0.086924 -0.25491 0.62251 -0.23183 -0.4403 -0.28416 -0.22944 0.74776 0.3905 -0.24953 -0.0046855 0.40766 -0.0029765 0.29527 0.52545 0.10454 -0.049388 -0.72475 -0.2612 -0.41747 -0.10483 -0.3802 0.19759 -0.34108 -0.33087 0.13795 -0.15157 
싶|VX -0.055821 0.29638 -0.055557 -0.069069 0.25612 0.32448 -0.13578 -0.35888 0.14479 0.28548 -0.26509 0.30477 0.028348 0.090941 -0.12127 0.020598 -0.22802 -0.069864 -0.019144 -0.043518 -0.21207 0.20623 0.26009 0.063603 0.33429 -0.099542 0.43669 -0.11874 0.048951 0.079455 -0.025715 0.072202 -0.3127 -0.23373 -0.49286 0.14504 -0.18228 -0.17978 -0.023906 0.12219 -0.014691 0.32982 0.38646 0.37725 0.12234 -0.15881 -0.15893 0.016167 -0.14998 0.074646 -0.30146 0.088109 0.0071943 -0.054299 0.0055575 0.17828 0.1316 -0.048309 -2.3537e-05 0.1711 0.080121 -0.12821 0.3691 0.15145 0.13012 0.079658 -0.19594 0.1001 -0.025578 0.1675 -0.1856 0.1247 0.18187 0.099227 -0.096494 -0.19339 -0.12899 -0.039921 0.24614 -0.18079 0.073926 -0.052261 0.25553 -0.10481 0.11552 0.065878 -0.30209 -0.042116 0.0097709 0.3041 0.20042 0.20879 -0.048022 -0.20651 -0.11511 -0.15057 -0.32441 -0.048969 -0.15674 -0.23039 
고|EC -0.041081 0.30376 -0.060138 -0.07072 0.25554 0.3235 -0.14131 -0.35297 0.15354 0.30131 -0.26476 0.28796 0.026907 0.093885 -0.12131 0.020382 -0.2163 -0.061257 -0.010938 -0.051441 -0.20986 0.21321 0.26969 0.055394 0.3341 -0.10257 0.44918 -0.11649 0.053919 0.065278 -0.014866 0.087038 -0.30867 -0.2399 -0.49226 0.13907 -0.18546 -0.17618 -0.016275 0.12263 -0.0066408 0.34003 0.36864 0.37181 0.11145 -0.1555 -0.15911 0.02657 -0.14571 0.07696 -0.30724 0.083639 -0.0078014 -0.047327 0.010171 0.18159 0.12842 -0.048531 -0.0017308 0.17145 0.081352 -0.1257 0.37066 0.1351 0.13049 0.075792 -0.17884 0.10408 -0.0078003 0.15811 -0.18595 0.12165 0.18697 0.096174 -0.10355 -0.20158 -0.1224 -0.043282 0.26025 -0.18242 0.06001 -0.055195 0.23858 -0.1031 0.12787 0.059354 -0.31047 -0.039357 0.0098454 0.29688 0.20331 0.1942 -0.038051 -0.18777 -0.10361 -0.16023 -0.32792 -0.045733 -0.15511 -0.23044 
할|XSV+ETM -0.13613 -0.0078315 -0.057129 0.020275 0.13023 0.10201 0.076777 -0.29462 -0.052289 0.11024 -0.12785 0.22047 -0.18917 -0.087261 -0.033472 0.078959 -0.11832 -0.056651 0.10714 0.17519 0.047697 0.49879 0.050032 -0.050313 0.09481 0.10123 0.28668 -0.264 0.29751 0.25342 -0.1682 0.11913 -0.14031 -0.18707 -0.034979 0.1551 0.13314 0.023112 0.015142 -0.040179 -0.28489 0.46081 0.12672 0.41807 0.11897 -0.16923 0.17996 0.1101 0.090723 0.074431 -0.29893 0.11014 0.1155 0.25802 -0.076822 0.17232 0.1041 0.17669 0.14876 -0.049425 0.001095 -0.37886 0.25586 -0.06522 0.11954 0.068656 -0.031174 0.079996 -0.24317 -0.080093 -0.18775 0.12642 0.097556 -0.020602 -0.20221 -0.031727 -0.2488 0.039812 -0.068998 0.017857 0.19985 -0.24752 0.093989 0.17382 0.26883 0.12775 -0.036833 -0.070882 -0.077302 -0.043899 0.48418 0.037745 -0.16223 0.1241 -0.32569 -0.42133 -0.27414 -0.33126 0.24125 -0.24511 
하|VV 0.039454 -0.19539 -0.051406 -0.093647 0.10994 -0.17294 0.0096445 -0.31082 0.017189 -0.2421 -0.14477 -0.19734 0.070978 -0.073287 -0.14612 -0.10159 0.30075 -0.031767 -0.36266 0.16021 -0.034822 -0.12587 -0.39158 -0.65507 -0.003518 -0.28699 0.15369 -0.25975 -0.033429 0.41589 -0.20173 -0.052968 0.097133 -0.2962 0.23815 -0.39293 0.046171 0.6268 0.26797 -0.24976 -0.38424 0.14054 0.028983 0.054416 -0.18125 0.503 0.26754 0.03274 -0.063348 0.030739 0.15191 -0.014155 0.13119 0.1295 -0.13498 -0.091435 -0.1295 0.32502 0.14449 0.045124 0.098599 0.20102 0.2182 -0.11117 0.073397 0.28069 -0.17441 0.06551 -0.17169 -0.2562 0.030891 0.11734 -0.24922 -0.17426 -0.17952 -0.39935 0.027309 0.30553 -0.26155 0.26467 -0.11343 -0.30589 -0.1997 0.43841 -0.18344 -0.1226 -0.02919 -0.079281 -0.10294 -0.088575 -0.00055248 0.19099 0.39084 -0.13113 0.091095 -0.15252 0.044011 -0.18101 0.079387 0.33516 
거|NNB 0.026673 -0.099092 -0.027765 0.1103 -0.13613 -0.019131 0.12497 -0.15448 -0.0013163 -0.0060403 -0.081695 0.065232 -0.17391 -0.19957 0.13341 0.014726 -0.13523 0.038093 0.034348 0.20545 0.16547 0.37976 -0.06416 0.02984 -0.061147 0.28515 0.036398 -0.21586 0.27475 0.12227 -0.13669 0.10065 0.13507 -0.082509 0.27468 0.12594 0.19754 0.19086 -0.0049598 -0.067611 -0.30831 0.22985 -0.20771 0.19381 0.15858 -0.033077 0.33641 0.094081 0.1574 0.092263 -0.11734 -0.0023677 0.029142 0.25466 -0.06015 0.032372 0.021275 0.15741 0.24735 -0.070778 0.011315 -0.21667 -0.0097473 -0.17265 0.047402 -0.086456 0.041972 -0.052651 -0.25204 -0.10586 -0.043101 0.061656 0.16604 -0.036536 -0.18254 0.21507 -0.21559 -0.023712 -0.25278 0.034121 0.26535 -0.22367 -0.14767 0.23859 0.27398 0.069792 0.11214 0.014644 -0.019638 -0.19535 0.23675 -0.079361 -0.2754 0.22444 -0.32593 -0.29441 -0.21066 -0.37773 0.29861 -0.13601 
오전|NNG 0.055538 0.63668 0.70607 -0.37162 0.56465 0.3147 0.18627 -0.81859 -0.65889 0.15907 -0.050727 -0.72593 -0.10862 0.15087 0.53412 -0.66233 0.13639 -0.074972 -0.39212 0.13359 0.06657 -0.11157 0.057823 0.059745 0.044195 0.44799 0.11282 0.046858 -0.15232 0.0037451 -0.087976 -0.16803 0.46889 -0.21621 -0.3163 -0.27976 -0.6267 0.49902 0.34675 0.39452 -0.49665 0.39948 0.36545 0.70552 0.089036 0.24711 0.34024 0.62525 -0.18944 0.67861 0.11855 0.42819 0.38507 0.18217 -0.20632 0.69444 0.0085744 0.39584 0.35083 -0.12978 0.43336 0.36297 -0.27727 0.63652 0.8826 -0.46329 -0.00054406 -0.035985 -0.83109 -0.049191 -0.10212 0.11574 0.29675 -0.6586 -0.34851 -0.2224 -0.017429 -0.081305 0.49296 0.022723 0.05198 0.010482 0.051737 0.088691 0.67306 0.42391 0.41297 -0.26384 -0.82503 0.1409 -0.44622 0.22359 0.82875 -0.19457 0.35278 0.033096 -0.37309 -0.34688 -0.1617 -0.57843 
게|NNB+JKS -0.19527 -0.078431 -0.058977 0.20334 -0.0099772 0.071052 0.06092 0.10959 -0.057756 0.062301 -0.025238 0.42229 -0.12304 -0.13733 -0.077037 0.10218 -0.12811 -0.02319 0.30395 0.12988 -0.0086486 0.31396 0.1254 0.21895 0.03183 0.19973 0.098779 0.05529 0.22816 0.12461 -0.0203 0.067721 -0.19011 -0.039486 0.0021896 0.22418 0.22023 -0.28169 -0.16352 -0.05826 0.08945 0.1517 0.065721 0.13316 0.039898 -0.29987 -0.0053244 -0.012644 0.15157 -0.16462 -0.25125 -0.038824 0.029632 0.14431 0.086885 0.096606 0.095844 -0.063598 -0.0447 -0.078443 -0.11837 -0.41645 0.027192 -0.032928 0.11402 -0.034414 0.096327 0.10896 -0.090384 -0.048327 -0.28167 0.040331 0.098413 0.1282 0.032437 0.22293 -0.18001 0.0027267 -0.033541 -0.047137 0.033204 -0.21731 0.063971 -0.010749 0.17797 0.12376 -0.0058217 -0.063013 0.0063644 -0.11124 0.4815 0.017366 -0.34992 0.23555 -0.24074 -0.26174 -0.18222 -0.16661 0.19823 -0.25106 
배송|NNG -0.42672 -0.76459 -0.24772 0.077878 -0.48845 0.43208 -0.058197 0.023228 -0.36743 0.19476 0.15688 -0.15858 -0.68621 -0.26201 0.5211 0.50122 -0.08956 -0.45154 0.14583 -0.054551 0.35305 0.405 0.9617 -0.090367 0.27575 -0.31519 0.32499 -0.29197 1.1655 0.0061626 0.67597 0.23392 -0.74982 0.12795 0.70607 0.96563 -0.54754 -0.15403 0.18023 0.46751 -0.3543 -0.26673 0.67927 0.38497 -0.20863 -0.6925 -0.79959 0.1563 0.43986 -0.014734 0.15628 -0.022706 0.2203 -0.45843 -0.049094 -0.026917 -0.025112 0.12528 -0.54311 0.57711 0.60958 -0.5992 -0.013028 -0.083428 -0.19885 0.254 -0.081219 -0.43787 0.31894 -0.015175 0.10566 -0.31599 0.3579 -0.1387 -0.45731 -1.0973 -0.19112 -0.52113 -0.074711 -0.054002 0.39329 -0.03166 -0.11163 0.27074 0.6456 0.90066 -0.38869 -0.99729 0.11574 0.21374 -0.22911 -0.72646 -0.48959 0.35597 -0.30207 -0.0011727 0.054282 0.14807 -0.56284 -0.58272 
바꿔|VV+EC -0.042594 0.5634 0.061445 0.08492 0.3128 0.43157 -0.18864 -0.26387 0.19704 0.37957 -0.32586 0.48869 0.22987 0.12797 -0.13269 -0.13599 -0.32464 -0.086204 0.17601 -0.12079 -0.31111 -0.078648 0.48163 0.47143 0.36082 0.048898 0.41955 0.31976 -0.12202 -0.11513 0.15286 0.039618 -0.39545 -0.21136 -0.79708 0.17091 -0.31447 -0.45384 -0.20498 0.25551 0.3458 0.032435 0.48283 0.19487 0.10731 -0.26789 -0.36502 -0.069322 -0.26099 -0.052062 -0.28658 -0.086496 -0.066503 -0.2585 0.15981 0.21763 0.18693 -0.38411 -0.12155 0.18502 0.072239 -0.0236 0.21672 0.39977 0.31715 -0.05534 -0.13193 0.1074 0.08923 0.22425 -0.22943 0.095012 0.33789 0.18666 0.072049 0.098636 0.011148 -0.12416 0.54286 -0.30601 -0.11185 -0.014938 0.28337 -0.43849 0.13167 0.029634 -0.38282 -0.015035 0.017091 0.40573 0.068348 0.3177 -0.13368 -0.20039 0.059791 -0.0032121 -0.40473 0.16724 -0.38944 -0.34297 
시|NNG -0.077709 0.47114 -0.12699 -0.1416 0.42133 0.48397 -0.21264 -0.57423 0.30558 0.47749 -0.42609 0.52102 0.042791 0.1487 -0.24843 0.056546 -0.35865 -0.072652 -0.034492 -0.090658 -0.36353 0.38967 0.36402 0.046908 0.53183 -0.18102 0.71505 -0.24429 0.073013 0.14153 -0.10028 0.14877 -0.48844 -0.38488 -0.82069 0.19413 -0.22913 -0.28632 -0.041216 0.15968 -0.029904 0.60393 0.56295 0.62243 0.20509 -0.24769 -0.20465 0.017275 -0.22187 0.1002 -0.53176 0.13797 -0.010878 -0.026315 -0.011113 0.27754 0.21474 -0.040519 0.031531 0.25596 0.070772 -0.25241 0.62574 0.17071 0.14902 0.16055 -0.29562 0.19618 -0.023026 0.2471 -0.29123 0.22414 0.24669 0.18215 -0.14734 -0.3009 -0.21609 -0.029088 0.36049 -0.26288 0.11439 -0.079401 0.41409 -0.13998 0.14573 0.050082 -0.49188 -0.014388 0.035428 0.46822 0.40327 0.32176 -0.070763 -0.31934 -0.20624 -0.28218 -0.5009 -0.098287 -0.18347 -0.32685 
변경|NNG 0.13956 0.7396 0.26601 0.39816 -0.070112 0.37327 -0.065883 0.078456 0.083898 0.35195 -0.14198 0.36132 0.22121 0.094268 0.30972 -0.31646 -0.50252 -0.037701 0.56516 -0.099913 0.081031 -0.27259 0.72292 1.2465 0.018656 0.58842 -0.054615 0.82273 -0.12414 -0.59696 0.45063 0.050115 -0.10075 0.12865 -0.63725 0.40239 -0.23036 -0.72962 -0.43202 0.47832 0.64476 -0.49476 0.072388 -0.22321 0.26495 -0.47788 -0.31879 -0.078917 -0.17238 -0.012632 -0.064513 -0.35182 -0.13669 -0.37017 0.26151 0.12547 0.20716 -0.69685 -0.044078 -0.030742 0.052337 0.073173 -0.35921 0.43625 0.2897 -0.4568 0.1885 -0.14724 0.19915 0.20142 0.088902 -0.12105 0.60269 0.27333 0.23787 0.88396 0.10765 -0.44817 0.59782 -0.36709 0.018128 0.27219 0.14643 -0.88232 0.4076 0.11913 -0.10219 0.1863 0.0501 0.22256 -0.26054 0.0091637 -0.49776 0.083284 0.045418 0.22996 -0.42772 0.25523 -0.41536 -0.60835 
일|NNG -0.10775 0.49963 -0.10545 -0.16433 0.47267 0.55853 -0.2707 -0.58327 0.28575 0.5368 -0.43232 0.51672 0.094269 0.15943 -0.30394 0.064077 -0.37447 -0.10725 -0.05478 -0.15034 -0.4676 0.34051 0.45971 0.056473 0.59987 -0.22649 0.77535 -0.20742 0.03686 0.10412 -0.061098 0.13331 -0.56662 -0.39899 -0.88737 0.23338 -0.37417 -0.33371 -0.040662 0.20799 0.013729 0.54665 0.6903 0.64925 0.19125 -0.28103 -0.32264 0.0027986 -0.2828 0.089171 -0.52916 0.18441 -0.034294 -0.13588 0.023038 0.32671 0.22236 -0.11994 -0.045719 0.35287 0.11088 -0.21044 0.67005 0.30021 0.21774 0.16528 -0.35284 0.17846 0.023682 0.32691 -0.34154 0.24137 0.32247 0.16391 -0.14709 -0.39935 -0.1672 -0.036991 0.47602 -0.34455 0.081683 -0.079709 0.42721 -0.16712 0.14449 0.073365 -0.56376 -0.091223 0.027117 0.56411 0.30219 0.37032 -0.023134 -0.36251 -0.13846 -0.21955 -0.49495 -0.021878 -0.31403 -0.36832 
습니다|EF -0.0245 0.044584 -0.23505 -0.39154 0.24763 -0.010876 -0.14075 -0.22993 0.029742 0.090931 0.16936 -0.3409 0.061982 0.2105 -0.3276 0.37075 -0.013759 -0.037089 -0.088965 -0.34027 -0.033723 0.30257 -0.090696 -0.45319 -0.086454 -0.6539 0.20144 -0.60636 -0.27409 -0.075488 -0.37123 0.15091 -0.25336 -0.078233 -0.20639 0.080181 -0.27355 0.028039 0.22635 0.002705 -0.35838 0.38611 0.12663 0.33126 0.28469 -0.099454 -0.13752 -0.12516 -0.41367 0.31904 -0.087198 0.46548 -0.038097 -0.25343 -0.2906 0.023812 0.20726 -0.039593 -0.020115 0.16977 0.056523 0.07629 0.84654 0.12607 -0.36778 0.40055 -0.24221 -0.10691 0.29488 0.13272 0.18359 0.23057 -0.081653 -0.10288 -0.2175 -0.54654 0.18388 0.26141 0.10893 -0.12179 0.21981 0.31967 0.14886 -0.030578 -0.25079 -0.079242 -0.24666 -0.026004 0.097979 0.36815 0.037824 0.0075154 0.50899 -0.25719 -0.013427 -0.1253 0.27683 0.20422 -0.079209 0.23011 
될까요|VV+EC 0.013545 0.3908 0.16113 -0.15752 0.3276 0.29581 -0.058922 -0.52715 -0.091175 0.20908 -0.19967 -0.11533 0.044567 0.109 0.06419 -0.20167 -0.074339 -0.097769 -0.17061 -0.018953 -0.099202 0.022339 0.18877 -0.0083096 0.20229 -0.021301 0.33023 -0.057817 -0.060274 0.032092 -0.037787 0.012068 -0.085623 -0.24712 -0.41202 -0.013932 -0.39485 0.11084 0.13828 0.21996 -0.18684 0.2714 0.38088 0.43353 0.10314 0.021667 -0.023769 0.1698 -0.23219 0.27916 -0.096445 0.1674 0.1156 -0.0672 -0.079543 0.29986 0.094127 0.05856 0.095266 0.12064 0.24311 0.10884 0.22099 0.33444 0.34463 -0.028595 -0.16067 0.012326 -0.20042 0.067962 -0.074473 0.13305 0.21874 -0.17494 -0.2053 -0.26515 -0.021102 -0.022247 0.32481 -0.097044 0.046793 -0.020849 0.13462 -0.043197 0.24645 0.15473 -0.13051 -0.14025 -0.22464 0.29187 -0.11331 0.19498 0.3125 -0.21408 0.095265 -0.061936 -0.28135 -0.071936 -0.24337 -0.27364 
뭐|NP 0.85804 0.58528 0.027126 0.017757 -0.52328 0.19757 -0.037642 -0.34584 0.30714 0.26135 -0.12636 -0.52239 -0.035591 0.030706 0.83455 -0.26754 -0.59516 0.2071 -0.31759 -0.0666 0.60432 0.17954 0.07234 0.66265 -0.19442 0.66408 -0.37301 -0.25925 -0.021084 -0.66383 -0.014989 0.22462 0.93195 0.052361 0.13404 0.26358 -0.18524 0.34887 0.021641 0.35974 -0.40555 0.093193 -0.81523 0.1237 0.79921 0.21954 0.74931 0.17441 -0.15935 0.76783 0.13773 0.026621 -0.33775 0.086941 -0.082143 -0.14642 0.04154 0.1488 0.77353 0.079591 0.27757 0.59149 -0.25855 -0.21935 -0.32347 -0.59613 -0.026047 -0.60508 -0.20786 0.32544 0.61316 -0.05887 0.75496 0.061728 -0.34346 0.64919 -0.25024 -0.55747 -0.20274 -0.31139 0.90102 0.50161 -0.23808 -0.077181 0.54433 0.011923 0.26117 0.58032 0.11682 0.059262 -0.89955 -0.29817 -0.41341 -0.16873 -0.42039 0.22856 -0.45449 -0.36864 0.056606 -0.25689 
겠|EP 0.30788 0.080566 -0.26367 0.063852 -0.093326 -0.10071 -0.033846 -0.23275 -0.053593 -0.21644 0.082727 -0.41752 0.053702 0.10527 0.15201 -0.015679 0.013074 -0.10797 0.026426 -0.03062 0.61908 0.033313 -0.21024 -0.14261 -0.38579 -0.33053 -0.073636 -0.24897 -0.11882 -0.040301 -0.097135 0.15204 0.16514 -0.28198 0.11819 0.011397 0.00068312 0.32158 0.23991 0.029258 -0.36436 0.17504 -0.20644 0.053089 0.33974 0.2406 0.35651 -0.0839 -0.35543 0.38372 0.23384 0.017337 0.028761 -0.053742 -0.16443 -0.26851 0.16158 0.15026 0.30223 0.011119 0.21274 0.34761 0.58422 -0.16085 -0.42942 0.24481 -0.20455 -0.3272 0.098988 -0.17314 0.44745 0.10259 0.038093 -0.0016827 -0.29866 -0.18023 0.039791 0.13962 -0.20743 0.10498 0.34264 0.23397 -0.067957 0.014302 -0.085708 -0.0018525 -0.10945 0.18689 0.13658 0.07583 -0.13167 -0.052233 0.18355 -0.20727 -0.18495 -0.1171 0.064743 0.074891 -0.016139 0.22212 
사이즈|NNG -0.043102 0.21377 -0.13556 0.22031 -0.0099082 0.19832 -0.0122 0.22861 -0.13358 0.094461 0.14194 0.29962 -0.055459 0.14334 0.10112 0.040073 -0.21429 -0.07509 0.47461 -0.059451 0.30858 0.13892 0.26797 0.60622 -0.095837 0.099128 -0.072798 0.27084 0.026522 -0.20411 0.19697 0.085962 -0.11206 0.011342 -0.28389 0.36159 0.10569 -0.6273 -0.19717 0.20011 0.37041 0.091688 0.055501 0.064304 0.2113 -0.39296 -0.050831 -0.05657 -0.066006 -0.018183 -0.14365 -0.036681 -0.060523 -0.001106 0.22432 0.010388 0.22766 -0.14356 -0.088764 -0.076589 -0.064734 -0.20389 0.14891 -0.016008 -0.19995 -0.1217 0.044652 -0.030299 0.11738 0.14699 -0.14453 -0.047521 0.20248 0.3122 0.12186 0.24034 -0.14906 -0.12614 0.18444 -0.20336 0.12136 0.27456 0.32716 -0.40675 0.15619 0.26302 0.01466 0.12603 0.035707 0.081033 0.24362 -0.039903 -0.3481 -0.050946 -0.21079 0.0076833 -0.15583 0.1434 -0.015541 -0.35973 
할게요|XSV+EC 0.0090718 -0.059187 -0.072609 0.081596 -0.059155 -0.15382 0.22501 0.080438 -0.21098 -0.18022 0.26347 -0.10337 -0.26017 0.098297 0.23886 0.021293 0.067467 -0.017973 0.28251 0.16437 0.58168 0.24757 -0.13852 0.12865 -0.29182 0.070891 -0.27574 -0.031398 0.1575 0.0265 0.031872 0.054507 0.17585 0.041845 0.11839 0.055227 0.42939 -0.082948 0.031929 -0.014523 -0.038475 0.28761 -0.21116 0.067327 0.084649 -0.056583 0.35221 0.13329 0.16432 0.12506 -0.0070087 0.006939 0.17773 0.41201 -0.043075 -0.095804 0.06242 0.30031 0.21598 -0.33799 -0.099482 -0.16948 -0.003517 -0.37259 -0.31175 0.020645 0.12983 -0.011008 -0.12001 -0.17314 0.12424 -0.063538 -0.17034 0.088757 -0.014737 0.1346 -0.21958 -0.019275 -0.21441 0.20464 0.21196 0.19211 0.20463 -0.013856 0.11494 0.13218 0.26674 0.23535 -0.02604 -0.25191 0.37116 -0.18785 -0.11412 0.046284 -0.30238 -0.1751 0.0036237 -0.14711 0.35683 -0.094199 
끊|VV 0.19213 0.020233 0.017895 -0.17341 0.021186 -0.13218 -0.16762 -0.40837 0.040896 -0.16413 -0.078809 -0.7773 0.28768 0.046015 -0.042332 -0.087205 0.23241 -0.16531 -0.35815 -0.19222 0.064083 -0.47216 -0.10605 -0.62381 -0.17032 -0.59951 0.13795 -0.20922 -0.30748 -0.04756 -0.04013 0.0043356 -0.091529 -0.21119 0.14925 -0.26475 -0.57072 0.70987 0.38378 0.038365 -0.48875 -0.37527 0.10314 -0.16584 -0.0036933 0.43709 -0.16275 -0.11839 -0.48431 0.29942 0.4818 -0.02231 0.089679 -0.58605 -0.35154 -0.1792 -0.02878 -0.1376 0.033049 0.25908 0.43309 0.67405 0.40613 0.32079 -0.034294 0.41233 -0.26792 -0.3526 0.31165 -0.23111 0.65768 0.10384 -0.062602 -0.38777 -0.2995 -0.572 0.52375 0.21063 0.038599 0.15878 -0.030955 0.067404 -0.37811 0.034891 -0.2756 -0.21072 -0.35689 -0.22645 0.072543 0.29299 -0.73139 0.0094752 0.7522 -0.18723 0.39883 0.12274 0.33508 0.36884 -0.51681 0.5065 
몇|MM 0.095533 0.2274 0.38141 -0.16278 0.18084 0.011601 0.14518 -0.37188 -0.39521 -0.060018 0.056036 -0.61855 -0.047975 0.039061 0.35835 -0.3624 0.18183 -0.045988 -0.24857 0.097686 0.18099 -0.18201 -0.086202 -0.070897 -0.14823 0.19096 -0.083435 0.003521 -0.12126 -0.022885 -0.04085 -0.095324 0.3555 -0.067268 0.056564 -0.22373 -0.32401 0.44522 0.25748 0.17487 -0.37536 0.051664 0.031567 0.21612 0.035608 0.26045 0.2518 0.31422 -0.10861 0.40565 0.24636 0.16917 0.23879 0.06619 -0.17923 0.26435 -0.030413 0.2209 0.22234 -0.11148 0.2853 0.33356 -0.20427 0.29996 0.38614 -0.20841 0.0281 -0.12266 -0.4046 -0.12754 0.13219 0.027652 0.091933 -0.42442 -0.22166 -0.10422 0.08272 -0.010504 0.14845 0.10865 0.036006 0.031183 -0.12608 0.099218 0.29689 0.17737 0.29335 -0.13524 -0.42535 -0.012518 -0.40628 0.030574 0.54096 -0.04512 0.23538 0.064484 -0.060521 -0.14931 -0.077828 -0.14989 
시|NNBC 0.090506 0.23156 0.37751 -0.17508 0.18705 0.025364 0.14099 -0.38919 -0.40174 -0.057677 0.054818 -0.62601 -0.056302 0.051244 0.34798 -0.37188 0.176 -0.037041 -0.24856 0.094497 0.17805 -0.17314 -0.080356 -0.075956 -0.15304 0.18553 -0.093735 0.0084107 -0.12036 -0.015881 -0.036845 -0.10022 0.36969 -0.080935 0.059995 -0.22003 -0.32422 0.44926 0.25613 0.17295 -0.36923 0.058207 0.035231 0.22923 0.030178 0.26376 0.24811 0.30589 -0.1171 0.41003 0.25285 0.18429 0.22434 0.051564 -0.18307 0.24937 -0.046721 0.23728 0.22317 -0.11493 0.28121 0.34227 -0.19924 0.29231 0.38838 -0.2078 0.032541 -0.12038 -0.40577 -0.14528 0.13326 0.031814 0.082719 -0.44027 -0.21909 -0.095317 0.092302 0.0015612 0.13484 0.11176 0.045488 0.045986 -0.13525 0.095926 0.29577 0.17543 0.28227 -0.12347 -0.42783 -0.00081891 -0.40566 0.016998 0.53807 -0.059222 0.2353 0.064038 -0.05711 -0.1521 -0.061406 -0.16573 
구매|NNG -0.11774 -0.12565 -0.33016 0.26655 0.02414 -0.031178 0.23217 0.20353 -0.30705 -0.16014 0.26827 0.40247 -0.35386 0.02783 0.095971 0.15885 -0.059687 -0.032765 0.55461 0.25906 0.65923 0.65416 -0.18805 0.32103 -0.30657 0.15782 -0.17211 -0.081724 0.30714 0.21886 -0.089364 0.15103 0.088108 -0.13389 0.054193 0.29024 0.69809 -0.44697 -0.11499 -0.09874 0.075341 0.71424 -0.17501 0.3443 0.26569 -0.28911 0.5379 0.075086 0.18846 -0.01016 -0.31109 0.10008 0.085107 0.64979 0.17381 -0.029518 0.24613 0.38126 0.1873 -0.35747 -0.24762 -0.55516 0.32545 -0.4977 -0.36348 -0.022539 0.08157 0.10931 -0.28224 -0.11001 -0.36268 0.037045 -0.056945 0.344 -0.016061 0.23147 -0.52358 0.085647 -0.2919 0.055736 0.30279 0.042832 0.38475 0.058691 0.1937 0.33382 0.2874 0.25552 -0.021191 -0.29974 0.96146 -0.051468 -0.49085 0.072306 -0.64236 -0.4331 -0.19081 -0.31286 0.60923 -0.32542 
날|NNG -0.051582 0.2081 -0.067449 -0.061961 0.19583 0.24193 -0.10949 -0.24677 0.1277 0.23937 -0.19273 0.24489 0.028849 0.075596 -0.12721 0.045838 -0.17902 -0.054581 -0.0097838 -0.062597 -0.17673 0.15941 0.21227 0.021388 0.25416 -0.1014 0.33482 -0.094447 0.027847 0.049568 -0.02537 0.064234 -0.26061 -0.17668 -0.37176 0.12612 -0.15154 -0.15105 -0.021124 0.092204 0.0086287 0.25309 0.29734 0.29338 0.078599 -0.13183 -0.13336 0.0015282 -0.12112 0.042241 -0.22897 0.078307 -0.023838 -0.051643 -0.0016745 0.13564 0.10313 -0.054742 -0.015089 0.15156 0.049013 -0.11228 0.30026 0.11428 0.084877 0.062336 -0.14034 0.075301 0.0025507 0.14178 -0.15864 0.10287 0.14303 0.087015 -0.069825 -0.16811 -0.091671 -0.023882 0.20316 -0.14001 0.040504 -0.028263 0.18778 -0.076295 0.081581 0.044888 -0.23695 -0.046458 0.025425 0.24275 0.14731 0.15989 -0.030603 -0.14575 -0.084876 -0.11978 -0.22066 -0.022749 -0.13053 -0.15927 
고를|VV+ETM -0.12697 0.19302 0.03783 0.17645 0.061337 0.15327 -0.11073 0.26838 0.084025 0.16209 -0.025941 0.41824 0.18179 0.060142 -0.15858 0.0098603 -0.1431 -0.023344 0.31757 -0.13654 -0.23014 -0.19277 0.31761 0.47728 0.10896 0.07302 0.051922 0.4385 -0.13486 -0.18845 0.18832 -0.037186 -0.29154 0.089744 -0.38036 0.16401 -0.080954 -0.55272 -0.25993 0.1187 0.53431 -0.26757 0.20791 -0.19011 -0.027124 -0.3068 -0.40132 -0.17498 -0.093531 -0.26544 -0.10568 -0.13943 -0.11545 -0.2573 0.2236 0.066424 0.10087 -0.4249 -0.2802 0.059555 -0.11778 -0.084269 -0.061093 0.25523 0.13205 -0.087775 0.055196 0.090097 0.23091 0.14804 -0.18567 -0.039103 0.12544 0.20289 0.25136 0.25981 0.10928 -0.087834 0.33693 -0.20885 -0.21898 0.064146 0.15298 -0.42036 -0.044658 0.018051 -0.14657 -0.010642 0.066087 0.14759 0.06265 0.10768 -0.20529 0.015458 0.12602 0.14051 -0.072014 0.27396 -0.23281 -0.19177 
상담원|NNG -0.32158 -0.0070986 0.58867 -0.17636 -0.0096017 -0.37948 0.50194 -0.042046 -0.31303 -0.026268 0.39856 -0.68762 -0.56939 0.19226 0.5673 -0.02134 0.22451 -0.090124 0.57001 0.22447 0.54479 0.10996 0.34653 0.11208 -0.24964 0.18003 -0.35223 0.12512 0.43443 -0.18736 0.30481 -0.021857 -0.18324 0.64002 0.039797 -0.0029526 0.34492 -0.016543 0.057282 0.25905 -0.19586 -0.22375 0.0039745 -0.18776 -0.36892 -0.3677 -0.2459 0.37157 0.57338 0.20665 0.11884 -0.16916 0.75744 0.32569 -0.58312 0.057464 -0.089473 0.050722 0.19419 -0.79233 -0.040226 -0.44389 -0.76025 -0.19448 0.019115 0.17386 0.58279 -0.006028 0.10229 -0.51954 0.8768 -0.34689 -0.55538 -0.34808 0.10595 0.279 0.17766 -0.26446 0.077984 0.69055 -0.029088 0.31211 0.22852 -0.37352 0.34441 -0.0087886 0.30016 0.049284 -0.11475 -0.38407 0.29877 -0.65583 0.25361 0.46544 -0.043938 -0.20731 0.30209 -0.02529 0.22832 -0.18174 
105|SN -0.060628 0.15373 -0.20607 0.19869 0.1323 0.054015 0.0033222 0.28561 -0.099129 -0.062211 0.15094 0.39959 0.070313 0.17971 -0.13906 0.04336 -0.059297 -0.010841 0.43735 -0.046921 0.20815 0.057092 -0.010634 0.40625 -0.14406 -0.039142 -0.099995 0.25929 -0.14732 -0.024416 0.060915 0.034156 -0.080461 -0.073313 -0.32152 0.13677 0.27688 -0.5685 -0.17995 -0.0073097 0.4573 0.20091 0.039648 -0.0023759 0.13098 -0.21646 0.040446 -0.13463 -0.12273 -0.13689 -0.16302 -0.017279 -0.067798 0.11343 0.24617 -0.048318 0.19912 -0.06901 -0.095895 -0.14162 -0.20361 -0.15163 0.28028 -0.079511 -0.21892 -0.0037524 0.012471 0.1262 0.072091 0.0678 -0.26625 0.017999 -0.036186 0.35417 0.19834 0.1949 -0.13693 0.083642 0.099013 -0.11369 -0.050919 0.18579 0.35481 -0.29462 -0.10891 0.10716 0.031771 0.22205 0.036287 0.012949 0.45234 0.14058 -0.20441 -0.14114 -0.14852 -0.051604 -0.063839 0.15183 0.11357 -0.14137 
들려|VV+EC 0.57108 0.17828 -0.1139 0.14728 -0.54019 -0.020145 0.060945 0.025759 0.25089 0.070968 -0.0060861 -0.19497 -0.12166 -0.069932 0.57797 -0.079338 -0.41084 0.2051 -0.080527 0.043063 0.54541 0.24904 -0.076599 0.51478 -0.23837 0.55627 -0.43583 -0.18058 0.10797 -0.4021 -0.027594 0.16972 0.74436 0.12891 0.32919 0.21847 0.23171 0.16321 -0.08273 0.09932 -0.18307 0.074229 -0.80232 -0.055243 0.52861 0.12457 0.67319 0.05355 0.078208 0.36115 0.060772 -0.060242 -0.2702 0.27428 0.018575 -0.24065 -0.011573 0.17365 0.54312 -0.073397 0.0096855 0.21873 -0.28385 -0.44755 -0.41129 -0.42454 0.074025 -0.36383 -0.14469 0.1732 0.36623 -0.083338 0.42306 0.19845 -0.14749 0.67522 -0.28802 -0.36708 -0.39162 -0.14534 0.66745 0.30701 -0.18736 0.028159 0.31344 -0.040044 0.31778 0.54063 0.19325 -0.19712 -0.38713 -0.30877 -0.57688 0.019761 -0.48334 0.08338 -0.25293 -0.34687 0.30534 -0.094965 
통화|NNG -0.18603 -0.066648 0.49149 -0.080955 -0.11567 -0.40176 0.45676 0.043044 -0.26511 -0.14074 0.34065 -0.61647 -0.42976 0.11772 0.51323 -0.074674 0.24508 -0.053987 0.42103 0.23054 0.51988 -0.0098047 0.17262 0.087978 -0.28394 0.20132 -0.40621 0.16755 0.33438 -0.13868 0.26969 -0.045855 -0.0093291 0.54064 0.18461 -0.084755 0.35982 0.088235 0.032934 0.1584 -0.14959 -0.28858 -0.1371 -0.28097 -0.33197 -0.18541 -0.10294 0.29926 0.50153 0.12429 0.18792 -0.22695 0.59979 0.3009 -0.43979 -0.0464 -0.12109 0.075162 0.2066 -0.6861 -0.053295 -0.26952 -0.73668 -0.23648 -0.025269 0.10902 0.49892 -0.037031 0.062683 -0.48609 0.75613 -0.31696 -0.4925 -0.2688 0.11683 0.31774 0.14554 -0.20672 -0.058555 0.61945 -0.036221 0.23601 0.093739 -0.26069 0.23637 -0.052037 0.32359 0.098434 -0.074843 -0.42022 0.16635 -0.55975 0.17047 0.40335 -0.016284 -0.11184 0.27339 -0.045504 0.22442 -0.050218 
못|MAG 0.33138 0.033465 -0.036856 0.19827 -0.30471 -0.041388 0.028651 0.13313 0.10505 -0.076899 -0.04753 0.042969 -0.004511 -0.099887 0.2909 -0.18988 -0.12299 0.13647 -0.1087 0.13333 0.23734 -0.05917 -0.17561 0.31417 -0.11793 0.42097 -0.30557 0.10459 0.019282 -0.095671 0.030955 0.0016612 0.52883 0.0128 0.24975 -0.040374 0.22944 0.1265 -0.089733 -0.030404 0.050407 -0.048874 -0.47814 -0.15538 0.171 0.24255 0.48403 0.031699 0.10657 0.054418 0.086698 -0.15979 -0.18552 0.23999 0.17504 -0.17095 -0.081892 0.16355 0.28992 -0.054133 -0.037609 0.18867 -0.33838 -0.27202 -0.09946 -0.34546 0.051965 -0.10883 -0.2192 0.044784 0.02819 -0.071554 0.17998 0.15181 0.012796 0.45866 -0.20103 -0.16787 -0.27406 -0.031226 0.1989 0.016656 -0.17413 0.10124 0.11295 -0.030734 0.26747 0.29673 0.04795 -0.22178 -0.21337 -0.042159 -0.39203 0.0085671 -0.1696 0.12201 -0.19603 -0.22231 0.20186 -0.028209 
알|VV 0.057006 -0.20278 -0.060995 0.082683 -0.021784 -0.21238 -0.073151 -0.017328 0.028544 -0.32253 -0.068704 -0.21927 0.25962 -0.059206 -0.1922 -0.11405 0.3116 -0.069313 -0.20586 0.0192 -0.031981 -0.47013 -0.30114 -0.47524 -0.11981 -0.36511 0.028504 0.05585 -0.20712 0.19751 -0.015586 -0.087188 -0.018653 -0.1999 0.23214 -0.35294 -0.075141 0.45903 0.18155 -0.187 -0.093916 -0.33343 0.023217 -0.3189 -0.2182 0.44829 -0.01612 -0.15784 -0.18346 -0.11669 0.3477 -0.18577 0.036624 -0.22421 -0.05268 -0.23391 -0.10479 -0.032357 -0.080086 0.10479 0.11539 0.38696 0.15148 0.054069 0.011673 0.28133 -0.14104 -0.049468 0.13437 -0.25812 0.18181 0.033889 -0.23864 -0.13172 -0.030518 -0.27246 0.28779 0.26354 -0.14695 0.20763 -0.26222 -0.19763 -0.30565 0.1735 -0.39133 -0.21777 -0.16564 -0.10719 0.052744 -0.014183 -0.2579 0.14486 0.36835 -0.072531 0.2999 0.077305 0.25439 0.21414 -0.19584 0.49679 
그거|NP -0.057322 -0.15433 -0.40104 0.10198 0.095147 -0.14762 0.22215 0.22924 -0.26201 -0.21282 0.33561 0.2993 -0.36036 0.15422 0.013306 0.20959 0.016797 0.038811 0.41682 0.22769 0.6623 0.7134 -0.42201 0.10195 -0.32403 -0.005112 -0.21513 -0.27576 0.17274 0.26762 -0.23506 0.14473 0.19532 -0.13321 0.0098818 0.13698 0.82318 -0.36387 -0.032756 -0.20979 0.010117 0.92786 -0.25144 0.38201 0.25883 -0.15228 0.66333 0.088598 0.15354 0.050478 -0.35506 0.22376 0.091613 0.80044 0.11052 -0.069827 0.20832 0.55284 0.26774 -0.43674 -0.35488 -0.50174 0.4556 -0.65168 -0.55716 0.078389 0.045453 0.20283 -0.2851 -0.074457 -0.33348 0.089202 -0.23571 0.35219 -0.006013 0.11949 -0.56536 0.19672 -0.38483 0.11943 0.3433 0.15716 0.50286 0.1444 0.021083 0.20934 0.3572 0.43451 -0.011512 -0.31598 1.0362 -0.012765 -0.329 -0.090631 -0.66348 -0.45173 -0.107 -0.35061 0.76707 -0.13576 
색상|NNG -0.011043 0.0013919 -0.13994 0.27366 -0.058044 -0.17862 0.1421 0.55381 -0.1586 -0.2191 0.32796 0.2817 -0.006548 0.10834 0.0034799 0.021566 0.042206 0.075084 0.5005 0.043564 0.37809 -0.015401 -0.19407 0.48153 -0.36907 0.1605 -0.44127 0.37907 -0.15325 -0.10825 0.065554 -0.022935 0.18568 0.12962 -0.051338 0.060106 0.52171 -0.53398 -0.23149 -0.091459 0.52077 0.028746 -0.28815 -0.25578 0.062934 -0.14239 0.20082 -0.12809 0.044276 -0.21076 -0.041182 -0.088841 -0.075085 0.26616 0.27574 -0.15225 0.12564 -0.041228 -0.042064 -0.32635 -0.33386 -0.14435 -0.054699 -0.24542 -0.29729 -0.13651 0.17316 0.12231 0.043404 -0.0037189 -0.18368 -0.069277 -0.13243 0.36335 0.29798 0.50735 -0.12449 0.060368 -0.071033 -0.028296 -0.046918 0.23204 0.23609 -0.26829 -0.15505 0.032313 0.28388 0.36322 0.071346 -0.23701 0.40126 0.0067376 -0.33299 0.017186 -0.15527 0.05052 0.084062 0.1091 0.29992 -0.024909 
상담|NNG -0.1132 -0.004253 0.47224 -0.13989 -0.083918 -0.37234 0.41788 -0.045485 -0.21407 -0.099363 0.291 -0.63403 -0.39889 0.13614 0.48773 -0.09224 0.21065 -0.028666 0.32336 0.21376 0.46375 0.024308 0.11489 0.041788 -0.25117 0.20051 -0.36448 0.072595 0.27352 -0.13327 0.1723 -0.034834 0.059335 0.48086 0.12771 -0.12307 0.32905 0.15729 0.073526 0.15097 -0.20591 -0.17589 -0.17069 -0.21546 -0.25372 -0.108 -0.014737 0.30831 0.44154 0.20064 0.1749 -0.15146 0.54904 0.3183 -0.46698 -0.01831 -0.1073 0.12637 0.26789 -0.64333 -0.037353 -0.19661 -0.66734 -0.23743 -0.03963 0.071741 0.45479 -0.038366 0.018662 -0.43119 0.74349 -0.26465 -0.44565 -0.27682 0.071893 0.31109 0.12416 -0.18972 -0.063141 0.57515 0.014745 0.2445 0.098699 -0.21616 0.23992 -0.076137 0.33492 0.13618 -0.099867 -0.38561 0.11768 -0.51329 0.22029 0.33754 -0.027856 -0.11946 0.23345 -0.096609 0.24108 -0.034774 
한가요|XSA+EC -0.027588 0.31313 0.020496 -0.08306 0.24093 0.27061 -0.060385 -0.37925 0.051018 0.25658 -0.20837 0.16861 -0.044759 0.085558 -0.003109 -0.046801 -0.18159 -0.049248 -0.013302 0.013163 -0.08921 0.23182 0.22423 0.089528 0.25644 0.014014 0.34919 -0.10958 0.068286 0.058566 -0.03423 0.072517 -0.17245 -0.19742 -0.40896 0.10108 -0.15769 -0.096724 0.0071829 0.15187 -0.093638 0.35754 0.30686 0.407 0.13414 -0.11567 -0.034611 0.11578 -0.092414 0.16181 -0.26055 0.11429 0.070904 0.046306 -0.038269 0.22473 0.10867 0.046503 0.097526 0.075722 0.092721 -0.11641 0.24664 0.1289 0.17971 0.011076 -0.12907 0.077991 -0.12909 0.10342 -0.14383 0.10188 0.18868 0.0072517 -0.14 -0.13443 -0.14729 -0.064771 0.21091 -0.12562 0.11775 -0.035105 0.22254 -0.057615 0.22292 0.10437 -0.15964 -0.019602 -0.090792 0.21218 0.16159 0.15868 0.010302 -0.14828 -0.11829 -0.16119 -0.33795 -0.13329 -0.068855 -0.29405 
할까요|XSA+EC -0.014863 0.12642 -0.0027625 -0.037546 0.12005 0.14002 -0.053286 -0.17833 0.017348 0.10806 -0.09508 0.075538 0.0013391 0.030281 -0.031294 -0.015366 -0.068278 -0.029283 -0.020499 -0.023076 -0.081978 0.069152 0.094601 0.0039685 0.12319 -0.026526 0.17488 -0.041435 0.01154 0.039081 -0.019003 0.029322 -0.10472 -0.10209 -0.19715 0.048696 -0.098748 -0.03973 0.012 0.06833 -0.036074 0.1491 0.16569 0.17209 0.040557 -0.049453 -0.04847 0.034811 -0.052876 0.060497 -0.11225 0.060357 0.02573 -0.01252 -0.0019826 0.091757 0.049948 0.00074891 0.015284 0.06033 0.045316 -0.037831 0.1317 0.082213 0.076618 0.022178 -0.068303 0.040623 -0.041232 0.065024 -0.069737 0.046413 0.077661 0.0035405 -0.064462 -0.099689 -0.051888 -0.020567 0.10845 -0.062895 0.038573 -0.017358 0.084739 -0.022182 0.07748 0.047253 -0.099169 -0.028394 -0.033452 0.12999 0.056707 0.090858 0.01991 -0.088586 -0.02897 -0.059793 -0.12743 -0.026138 -0.075232 -0.10097 
확인|NNG -0.28049 -0.37693 -0.16482 0.033528 -0.098991 0.16615 -0.068464 0.14466 -0.14265 0.039789 0.085943 0.12074 -0.19251 -0.082119 0.0064861 0.27416 0.038634 -0.17027 0.10256 -0.065178 -0.024747 0.08146 0.35483 -0.084938 0.1578 -0.2563 0.1617 -0.02467 0.38828 0.069297 0.28296 0.04373 -0.42652 0.046556 0.21115 0.34779 -0.18315 -0.22259 0.027224 0.10788 0.067595 -0.14944 0.37744 0.074567 -0.18484 -0.31262 -0.4612 -0.0273 0.1606 -0.19326 0.01968 -0.0098956 0.04026 -0.23025 0.08735 -0.016619 -0.018389 -0.030009 -0.40379 0.26023 0.14853 -0.28527 0.057821 0.0033932 -0.096499 0.16224 -0.062789 -0.056432 0.21072 0.031313 -0.13228 -0.1131 0.029178 0.028646 -0.055667 -0.51644 -0.047337 -0.11711 0.020655 -0.056553 -0.026886 -0.036464 0.026134 0.0856 0.087508 0.32973 -0.20423 -0.42366 0.078455 0.10234 0.024107 -0.19937 -0.17458 0.098513 -0.035053 0.035058 0.098861 0.17734 -0.24004 -0.16038 
려고|EC -0.12305 -0.083756 -0.1449 0.093136 0.0622 0.038996 0.093122 -0.012206 -0.12448 -0.0051534 0.052533 0.24006 -0.18632 -0.036705 -0.032932 0.10419 -0.057544 -0.018089 0.22153 0.13152 0.18489 0.41954 -0.036189 0.073831 -0.061213 0.059146 0.063027 -0.14699 0.20786 0.17374 -0.099651 0.10299 -0.053769 -0.10773 0.021126 0.17496 0.26902 -0.15707 -0.040838 -0.067777 -0.067361 0.40152 0.0049246 0.28437 0.12241 -0.18634 0.19985 0.038647 0.10304 0.0035638 -0.24262 0.086515 0.055314 0.2871 0.027037 0.061261 0.13134 0.15537 0.071023 -0.10649 -0.096781 -0.35362 0.22683 -0.15806 -0.06813 0.021679 0.009248 0.07684 -0.17075 -0.043849 -0.23024 0.077362 0.028272 0.11503 -0.073312 0.047011 -0.25643 0.079229 -0.1104 0.0097762 0.151 -0.10528 0.15014 0.095686 0.13085 0.15596 0.074012 0.029184 -0.032472 -0.10414 0.51909 0.0075716 -0.22644 0.085358 -0.33031 -0.29997 -0.14324 -0.21882 0.28866 -0.18223 
게요|NNB+VCP+EC 0.06853 0.17139 0.063062 0.26923 -0.15096 0.059844 0.010732 0.20931 0.0083799 0.014934 0.006869 0.17014 0.085129 -0.022032 0.12948 -0.10887 -0.13171 0.0080949 0.30096 -0.0080572 0.12203 -0.20094 0.20633 0.53804 -0.10329 0.26934 -0.16977 0.43335 -0.039668 -0.22119 0.23482 -0.0068406 0.029513 0.094473 -0.061417 0.13477 0.042175 -0.30128 -0.21474 0.12542 0.35331 -0.33206 -0.10208 -0.26448 0.051758 -0.14275 -0.078494 -0.090503 -0.0051126 -0.11377 0.069084 -0.2392 -0.082113 -0.12825 0.16855 -0.061235 0.045009 -0.2813 -0.049234 -0.052359 -0.029479 0.041666 -0.25292 0.075224 0.03793 -0.20288 0.13327 -0.076383 0.10494 0.023154 0.048498 -0.11115 0.1723 0.17349 0.16168 0.4599 0.059884 -0.15351 0.11196 -0.099069 -0.040943 0.086374 -0.0073753 -0.33319 0.077284 0.032188 0.029912 0.10111 0.064041 -0.03883 -0.10659 -0.045051 -0.29779 0.11114 0.012265 0.14205 -0.08261 0.14205 -0.10951 -0.1528 
해|VV+EC 0.32029 -0.072655 -0.042593 0.19935 -0.24472 -0.20223 0.087181 0.14215 0.0040639 -0.29126 -0.0075336 -0.079144 0.054361 -0.11215 0.22097 -0.27196 0.099974 0.13986 -0.17714 0.2175 0.31323 -0.187 -0.45009 0.042444 -0.25487 0.30232 -0.37389 0.089986 -0.084245 0.085336 -0.059233 -0.068654 0.65185 -0.089487 0.40199 -0.28076 0.34534 0.38715 0.02311 -0.19554 -0.042377 -0.01453 -0.51807 -0.21766 0.056062 0.50522 0.64782 0.0357 0.0676 0.025997 0.21702 -0.15859 -0.096426 0.35502 0.13719 -0.21735 -0.13418 0.31526 0.32526 -0.14536 -0.043878 0.30438 -0.26393 -0.3362 -0.075507 -0.22634 0.035195 -0.05589 -0.31254 -0.12406 0.012356 -0.034187 -0.021956 0.051372 -0.0027164 0.33267 -0.17307 0.038819 -0.41646 0.13389 0.093529 -0.10126 -0.24743 0.28619 -0.0517 -0.10915 0.34608 0.3169 -0.036241 -0.34754 -0.15599 0.048211 -0.15344 -0.028187 -0.076489 0.078019 -0.064023 -0.25943 0.30129 0.20555 
어|EC 0.16086 -0.11414 -0.034621 -0.085214 -0.077277 -0.21884 -0.087537 -0.20712 0.059823 -0.23471 -0.0069875 -0.56207 0.20053 -0.0017405 -0.04917 -0.023348 0.22241 -0.10435 -0.25027 -0.098237 0.1125 -0.3562 -0.18386 -0.52718 -0.19292 -0.4631 0.024553 -0.15659 -0.20094 0.011029 -0.042348 0.0015582 -0.0091183 -0.11888 0.25844 -0.24324 -0.26689 0.55744 0.26949 -0.061011 -0.33226 -0.33481 -0.053917 -0.24361 -0.062796 0.38336 -0.061897 -0.1375 -0.28147 0.16202 0.41083 -0.093418 0.070611 -0.3708 -0.25194 -0.25236 -0.053617 -0.066036 0.033693 0.13954 0.25456 0.48692 0.25557 0.091122 -0.12777 0.33362 -0.16205 -0.24938 0.25483 -0.2387 0.52197 0.042637 -0.14062 -0.24652 -0.19395 -0.35742 0.38157 0.18525 -0.12105 0.19857 -0.039006 0.018778 -0.32948 0.10255 -0.28272 -0.22244 -0.23301 -0.11392 0.11462 0.09649 -0.48328 -0.039738 0.48326 -0.086358 0.25263 0.077052 0.33109 0.23911 -0.27467 0.49005 
냐|EC 0.0069685 -0.61641 -0.039563 0.28052 -0.18842 -0.49346 0.1913 0.3396 -0.13388 -0.65864 -0.0013477 0.069772 0.031768 -0.29614 -0.086725 -0.26346 0.58735 0.080159 -0.2403 0.4644 0.092675 -0.40766 -0.78062 -0.5208 -0.23525 0.10276 -0.35505 0.19934 0.042365 0.61334 -0.067139 -0.25436 0.48511 -0.13661 0.786 -0.64998 0.64421 0.63027 0.098939 -0.57614 0.01093 -0.18541 -0.36856 -0.48314 -0.51133 0.73948 0.57071 0.011439 0.35842 -0.42928 0.32671 -0.33984 0.079987 0.49695 0.18384 -0.31324 -0.35767 0.48111 0.065467 -0.25623 -0.19228 0.12849 -0.43832 -0.46834 0.098472 0.031713 0.092221 0.24379 -0.38154 -0.45949 -0.24295 -0.078788 -0.52656 -0.0213 0.14508 0.072178 -0.11633 0.33829 -0.675 0.49731 -0.40035 -0.56539 -0.4026 0.65498 -0.32985 -0.17547 0.42098 0.047981 -0.13356 -0.65198 0.17918 0.17377 0.00097654 0.15619 0.12064 -0.0042737 0.17418 -0.28615 0.47418 0.49633 
잘|MAG 0.32602 0.2038 -0.02836 -0.00050307 -0.18775 0.068936 -0.013623 -0.1307 0.12401 0.10509 -0.064717 -0.13014 -0.024451 -0.014561 0.29852 -0.090272 -0.23549 0.09611 -0.13837 -0.0057183 0.21964 0.13302 -0.031578 0.2426 -0.06654 0.28373 -0.13708 -0.13915 0.011438 -0.20372 -0.058343 0.093956 0.38741 -0.0051852 0.068071 0.085456 -0.012606 0.14407 -0.00020793 0.089455 -0.15696 0.12631 -0.34212 0.082719 0.31927 0.094631 0.3616 0.07054 -0.036778 0.27023 -0.0028637 0.028829 -0.14363 0.11826 -0.011223 -0.049662 0.017156 0.10608 0.32102 0.011214 0.068626 0.1919 -0.077246 -0.1212 -0.12245 -0.23503 -0.0096613 -0.19064 -0.12955 0.13979 0.149 0.0050075 0.28791 0.04155 -0.13695 0.26783 -0.14385 -0.18961 -0.11765 -0.11856 0.34919 0.14783 -0.079245 0.026327 0.19346 -0.0068859 0.13684 0.25488 0.032204 -0.0051837 -0.26417 -0.082318 -0.19733 -0.061148 -0.1934 0.043648 -0.20004 -0.19687 0.095474 -0.094073 
연결|NNG -0.12243 -0.068035 0.25411 -0.056695 -0.04644 -0.24173 0.23918 0.061908 -0.13813 -0.0858 0.20197 -0.30956 -0.214 0.068513 0.21568 -0.010231 0.1597 -0.01533 0.23378 0.096455 0.22102 -0.021316 0.055507 0.015272 -0.16127 0.080427 -0.24405 0.091995 0.14363 -0.077597 0.13424 -0.030714 -0.028489 0.31537 0.09242 -0.07423 0.21034 0.021199 0.015729 0.037063 -0.040417 -0.17427 -0.078557 -0.19072 -0.20609 -0.0954 -0.082032 0.13423 0.26269 0.033483 0.1059 -0.12228 0.31365 0.16136 -0.23588 -0.040071 -0.068578 0.020154 0.073796 -0.3747 -0.071102 -0.15457 -0.40234 -0.12921 -0.031872 0.084838 0.28444 0.00099803 0.071492 -0.26655 0.39879 -0.16118 -0.32302 -0.14661 0.09911 0.17482 0.11441 -0.083316 -0.029783 0.35172 -0.07618 0.11659 0.059518 -0.13567 0.062279 -0.065505 0.16932 0.048106 -0.04218 -0.22848 0.11624 -0.29471 0.11784 0.22562 0.021405 -0.043545 0.20642 0.006092 0.13999 0.022128 
께|NNB -0.032153 0.27412 -0.00039401 -0.1049 0.24843 0.23784 -0.086531 -0.34444 0.091358 0.23625 -0.2139 0.13913 0.032929 0.095026 -0.084982 -0.0243 -0.14054 -0.042705 -0.068415 -0.023595 -0.17847 0.15163 0.14727 -0.02061 0.25279 -0.074341 0.34284 -0.12591 -0.006317 0.079209 -0.078181 0.053802 -0.17927 -0.20545 -0.39911 0.03968 -0.18199 -0.047012 0.030431 0.10489 -0.082044 0.31584 0.3004 0.34853 0.092834 -0.066769 -0.068174 0.059899 -0.13053 0.11456 -0.22564 0.1203 0.027936 -0.0087231 -0.040013 0.18644 0.10178 0.0044698 0.059187 0.11491 0.076921 -0.068886 0.29736 0.14862 0.13971 0.054488 -0.14782 0.083648 -0.081171 0.10906 -0.12741 0.12245 0.12099 0.013741 -0.096282 -0.17802 -0.080136 0.0063239 0.20848 -0.11251 0.059792 -0.040839 0.18081 -0.049529 0.098254 0.03705 -0.20132 -0.032238 -0.055525 0.22955 0.1292 0.1788 0.083648 -0.18319 -0.056202 -0.1415 -0.23951 -0.066062 -0.087999 -0.16979 
요|VCP+EC -0.018394 0.27672 0.0013593 -0.12038 0.26526 0.23765 -0.10177 -0.34324 0.095098 0.22007 -0.21345 0.15005 0.03119 0.087854 -0.092212 -0.0291 -0.15059 -0.037447 -0.073957 -0.036513 -0.16794 0.16235 0.14978 -0.025543 0.246 -0.069716 0.33725 -0.13828 -0.01118 0.072374 -0.06733 0.051349 -0.17525 -0.19968 -0.41257 0.037064 -0.18042 -0.052083 0.033245 0.086095 -0.081207 0.32464 0.2962 0.35147 0.10537 -0.063919 -0.067794 0.052628 -0.14012 0.10825 -0.21895 0.11732 0.028718 0.0019248 -0.04406 0.1755 0.092379 0.01345 0.058472 0.10668 0.078633 -0.064443 0.29855 0.13094 0.15177 0.052362 -0.14636 0.096514 -0.069454 0.11476 -0.12596 0.12049 0.12685 0.00048989 -0.10415 -0.17687 -0.083637 -0.0016048 0.20248 -0.12029 0.055643 -0.044493 0.18053 -0.049954 0.10199 0.045743 -0.2037 -0.030161 -0.053008 0.23632 0.12302 0.18981 0.079099 -0.1799 -0.062778 -0.13674 -0.24496 -0.065196 -0.096406 -0.16351 
더|MAG 0.22616 0.14013 -0.0055657 -0.0023906 -0.11594 0.046945 -0.042933 -0.058799 0.098865 0.05571 -0.034767 -0.12743 0.044735 0.0054017 0.15998 -0.088786 -0.12282 0.065241 -0.13221 -0.034475 0.09005 -0.028288 -0.0088878 0.12502 -0.03554 0.13745 -0.090483 -0.040246 -0.071676 -0.17209 -0.0091753 0.041847 0.24962 -0.0026306 0.01701 0.0093344 -0.082279 0.10054 0.012988 0.061219 -0.066231 -0.019458 -0.20008 -0.0035658 0.18884 0.10187 0.18278 0.019334 -0.081482 0.17547 0.062315 0.0096965 -0.11264 -0.019586 -0.0021258 -0.045586 -0.0034656 0.01099 0.16779 0.055866 0.078205 0.20802 -0.056762 -0.024752 -0.06724 -0.15329 -0.019208 -0.14864 -0.048137 0.08833 0.126 0.0014259 0.17355 0.0019897 -0.064268 0.14896 -0.026108 -0.11997 -0.03803 -0.087762 0.17043 0.11317 -0.084471 -0.0095269 0.073179 -0.025906 0.054762 0.1465 0.027369 0.034067 -0.28361 -0.035028 -0.068353 -0.07587 -0.037029 0.094771 -0.07919 -0.04433 -0.02075 -0.022091 
한번|MAG 0.22607 0.15004 0.0054586 0.0030218 -0.11977 0.04518 -0.026653 -0.068063 0.091538 0.053625 -0.037284 -0.13284 0.053622 0.0026015 0.1689 -0.074105 -0.13048 0.054752 -0.12243 -0.045005 0.098554 -0.033993 -0.017152 0.13164 -0.046179 0.13384 -0.091876 -0.036706 -0.065551 -0.17289 -0.02154 0.038413 0.24795 0.011366 0.022457 0.014848 -0.086595 0.10142 0.00089676 0.071202 -0.066358 -0.019387 -0.20617 -0.0060502 0.18736 0.1058 0.16552 0.026216 -0.086064 0.1598 0.056796 0.012217 -0.10515 -0.013471 0.0091452 -0.046579 -0.006644 0.0039457 0.16966 0.055643 0.074509 0.20851 -0.065804 -0.018277 -0.076207 -0.15309 -0.028162 -0.13841 -0.035434 0.10413 0.13902 0.0044176 0.18061 0.018085 -0.074906 0.13819 -0.020074 -0.11166 -0.036195 -0.098547 0.178 0.12217 -0.077659 -0.017128 0.08135 -0.033611 0.055857 0.14739 0.034441 0.034576 -0.28974 -0.04507 -0.063073 -0.067717 -0.053654 0.10438 -0.089546 -0.044825 -0.024257 -0.0056796 
지금|MAG -0.025425 -0.052581 -0.14765 0.025134 0.049709 -0.030508 0.0075262 0.13763 -0.077697 -0.07584 0.10866 0.11886 -0.025154 0.075946 -0.088725 0.069603 0.052712 0.0097621 0.11544 0.00060777 0.1167 0.095703 -0.11138 0.022008 -0.083712 -0.092989 -0.060089 -0.013105 -0.035212 0.062699 -0.035774 0.0027687 -0.00073181 -0.042081 -0.034553 0.016856 0.172 -0.18154 -0.020662 -0.068654 0.10721 0.19508 -0.018812 0.044987 0.036669 -0.040616 0.079803 -0.032211 -0.014262 -0.044634 -0.061005 0.056015 -0.027401 0.12696 0.080033 -0.039857 0.056052 0.095881 -0.037617 -0.075482 -0.11866 -0.080073 0.17801 -0.1242 -0.17812 0.036405 -0.014341 0.071014 -0.0021256 0.024028 -0.14323 0.023037 -0.10339 0.13597 0.057619 -0.034665 -0.1037 0.083119 -0.056916 0.0025611 0.010989 0.077728 0.15567 -0.0097664 -0.097308 0.050337 0.046679 0.096256 0.0088401 -0.02295 0.24162 0.044948 -0.05164 -0.087274 -0.10153 -0.050181 0.034638 0.013858 0.11807 0.0060333 
선택|NNG -0.027635 0.17092 0.082235 0.17507 -0.029317 0.019413 -0.0079905 0.27733 0.033518 0.034334 0.028943 0.23684 0.13943 0.03902 -0.059717 -0.054217 -0.081577 0.033143 0.26195 -0.071496 -0.093243 -0.19134 0.12682 0.41446 -0.04128 0.17187 -0.1196 0.39164 -0.17775 -0.2026 0.12395 -0.051414 -0.061145 0.13926 -0.23141 0.055893 0.040613 -0.39581 -0.21923 0.04261 0.43066 -0.27175 -0.012378 -0.24997 -0.014615 -0.18528 -0.18161 -0.11338 -0.02934 -0.1977 -0.023973 -0.12857 -0.10023 -0.12099 0.16552 0.0022976 0.052659 -0.32393 -0.1422 -0.068332 -0.14512 -0.017666 -0.17327 0.14942 0.07879 -0.14657 0.12613 0.055116 0.14433 0.079102 -0.070666 -0.050739 0.05772 0.16231 0.26125 0.41197 0.10333 -0.061341 0.20937 -0.13247 -0.1692 0.090307 0.082962 -0.36 -0.06496 -0.064346 0.023883 0.11625 0.051995 0.015898 0.0091652 0.05318 -0.17124 0.051888 0.10969 0.13987 -0.0051832 0.17788 -0.06964 -0.085926 
하|XSA 0.033713 -0.23993 -0.015464 0.26335 -0.098046 -0.20621 0.071247 0.24014 -0.083783 -0.34634 -0.057198 0.14727 0.096876 -0.16197 -0.038447 -0.24079 0.2927 0.040217 -0.074994 0.25836 0.027476 -0.36988 -0.37731 -0.11097 -0.11551 0.14477 -0.19218 0.32083 -0.048553 0.29051 0.064395 -0.16037 0.27372 -0.1337 0.32536 -0.36298 0.30616 0.24884 -0.0097191 -0.27544 0.18137 -0.20161 -0.15431 -0.33335 -0.2918 0.41267 0.2909 -0.021252 0.14535 -0.29503 0.1928 -0.28253 0.0059328 0.2267 0.21381 -0.15165 -0.18773 0.18347 -0.0081399 -0.10908 -0.086769 0.13009 -0.30093 -0.1648 0.14348 -0.082206 0.045914 0.15214 -0.22515 -0.22525 -0.21408 -0.048437 -0.19089 0.047227 0.14245 0.14249 -0.057961 0.15823 -0.27406 0.21629 -0.29658 -0.33088 -0.20406 0.25318 -0.18581 -0.092483 0.19626 0.048536 -0.059785 -0.31753 0.045435 0.1814 -0.074178 0.066363 0.12566 0.06991 0.024896 -0.083684 0.15921 0.24281 
상|NNG -0.10534 0.079727 0.37669 -0.13407 -0.061446 -0.19295 0.30703 -0.063888 -0.12657 0.037217 0.1944 -0.43891 -0.35889 0.12037 0.43351 -0.043399 0.049666 -0.023355 0.28564 0.14124 0.34774 0.10574 0.23055 0.14751 -0.13251 0.2078 -0.23515 0.034672 0.2699 -0.18091 0.16627 0.0012766 -0.0040897 0.41864 0.0098787 0.017898 0.20682 0.016009 0.015867 0.20399 -0.1583 -0.10561 -0.084975 -0.086681 -0.15009 -0.20074 -0.065506 0.26265 0.36211 0.19439 0.060419 -0.10676 0.41577 0.22843 -0.36391 0.028779 -0.058841 0.044629 0.21841 -0.48 -0.015661 -0.22198 -0.52672 -0.16144 -0.011251 0.025865 0.35771 -0.050626 0.020165 -0.26843 0.59312 -0.22904 -0.26185 -0.19817 0.039108 0.26629 0.060504 -0.23476 0.031665 0.38567 0.071784 0.24157 0.12701 -0.23175 0.26827 -0.020688 0.21856 0.10789 -0.059131 -0.24248 0.094958 -0.42645 0.093629 0.26547 -0.081348 -0.10306 0.11951 -0.093806 0.15775 -0.13894 
담사|NNG -0.1073 0.069531 0.38451 -0.12024 -0.052667 -0.20146 0.30572 -0.06334 -0.13259 0.0453 0.20057 -0.45105 -0.34222 0.11899 0.42758 -0.053629 0.06614 -0.025156 0.28254 0.13115 0.34903 0.099969 0.22507 0.14395 -0.1196 0.20781 -0.23672 0.035767 0.26586 -0.17547 0.17863 0.0060661 0.0078995 0.41862 0.0049238 0.010914 0.19697 0.021509 0.016589 0.18792 -0.14824 -0.11458 -0.090733 -0.084623 -0.145 -0.20764 -0.070021 0.25175 0.35243 0.19242 0.05364 -0.096529 0.4122 0.23457 -0.36417 0.036302 -0.061767 0.05541 0.21373 -0.4806 -0.018818 -0.22061 -0.54351 -0.15321 -0.010562 0.019891 0.36577 -0.050895 0.022124 -0.26929 0.5905 -0.21475 -0.26135 -0.18593 0.049298 0.27609 0.063496 -0.24027 0.031344 0.38857 0.075797 0.24058 0.12089 -0.2413 0.28557 -0.027173 0.21677 0.11548 -0.056295 -0.23264 0.093658 -0.42548 0.094183 0.27288 -0.075753 -0.10023 0.10435 -0.079929 0.15621 -0.14542 
이후|NNG 0.076955 0.193 0.31267 -0.12077 0.15324 0.035171 0.084057 -0.2961 -0.33402 -0.054909 0.037435 -0.51846 0.00022359 0.043583 0.28285 -0.31935 0.14812 -0.044173 -0.20482 0.055877 0.14396 -0.21251 -0.059897 -0.065647 -0.13123 0.13163 -0.063467 0.04187 -0.1204 -0.040356 -0.00063646 -0.09045 0.28318 -0.077007 0.048547 -0.17669 -0.31591 0.36343 0.21526 0.14832 -0.27776 -0.012315 0.049408 0.14072 0.017174 0.21987 0.17784 0.23939 -0.12398 0.30789 0.23744 0.121 0.16362 -0.0063566 -0.12512 0.19841 -0.031044 0.14167 0.16063 -0.045232 0.25632 0.32367 -0.16679 0.29031 0.31739 -0.17771 0.013142 -0.12963 -0.29019 -0.11512 0.13328 0.013014 0.078426 -0.34822 -0.15969 -0.10796 0.11401 -0.0061143 0.13863 0.074313 -0.004284 0.029716 -0.12036 0.066044 0.22661 0.1364 0.19933 -0.1335 -0.33938 0.025189 -0.39133 0.039325 0.45473 -0.057306 0.23862 0.087824 -0.018979 -0.059109 -0.11876 -0.1038 
아까|MAG -0.068661 -0.08496 0.080034 0.054184 -0.023815 0.010509 0.07241 -0.17234 -0.0058821 0.041516 -0.12418 0.051977 -0.10627 -0.17717 0.022792 -0.0019015 -0.040312 -0.012772 -0.011519 0.14101 -0.062723 0.17508 0.030863 -0.084102 0.061213 0.173 0.14308 -0.11662 0.21048 0.14697 -0.070821 0.040657 -0.0414 -0.066615 0.15668 0.026448 0.028849 0.19777 -0.0015782 -0.057299 -0.24554 0.058769 0.0089166 0.11681 -0.006458 -0.020462 0.075918 0.064335 0.1267 -0.0038555 -0.075736 -0.037364 0.092559 0.065979 -0.085176 0.086556 -0.013756 0.037089 0.078022 -0.019674 0.041363 -0.17541 -0.057808 0.014379 0.21655 -0.0087332 0.048092 -3.5406e-06 -0.1477 -0.11389 -0.04483 0.041518 0.076315 -0.11619 -0.10907 0.064796 -0.057996 0.0040838 -0.098164 0.061035 0.04971 -0.27821 -0.15273 0.17125 0.17661 0.030077 -0.0044442 -0.13901 -0.050775 -0.10446 0.13503 -0.026646 -0.077968 0.21067 -0.098687 -0.21605 -0.12827 -0.23526 0.0989 -0.094359 
라고|VCP+EC 0.21521 0.11836 -0.0079554 0.035798 -0.16276 0.011653 0.024267 -0.095312 0.058823 0.034113 -0.02553 -0.15068 -0.044987 -0.0097905 0.25525 -0.084105 -0.13314 0.046715 -0.06169 0.03173 0.22623 0.082616 -0.01107 0.15853 -0.087941 0.19846 -0.13441 -0.087239 0.050699 -0.12635 -0.0042011 0.065753 0.28621 0.0078521 0.10042 0.066224 0.02082 0.12282 0.0050111 0.071056 -0.13695 0.051699 -0.26462 0.03786 0.19886 0.078537 0.26593 0.060352 0.0061795 0.21238 0.046961 -0.015549 -0.060659 0.10045 -0.036899 -0.051372 0.0084928 0.089391 0.24536 -0.026698 0.073985 0.12049 -0.084962 -0.12724 -0.10998 -0.15303 0.0090649 -0.16499 -0.10024 0.032136 0.17341 -0.016894 0.16625 0.021605 -0.098732 0.2085 -0.10374 -0.14182 -0.11288 -0.028142 0.26566 0.096642 -0.081541 0.012166 0.16291 0.0075378 0.11725 0.16473 0.026376 -0.06055 -0.18513 -0.11381 -0.1459 -0.010918 -0.16863 0.0066813 -0.11806 -0.14326 0.091721 -0.072629 
그만|MAG 0.10358 -0.055353 -0.056129 -0.083004 -0.028786 -0.12243 -0.16958 -0.2146 0.087959 -0.15347 -0.03814 -0.47559 0.25663 0.022594 -0.12618 0.0057651 0.17107 -0.13031 -0.19208 -0.16808 0.027386 -0.37807 -0.044203 -0.48085 -0.11644 -0.53763 0.14236 -0.13199 -0.22893 -0.022433 0.0088254 0.023594 -0.18821 -0.15934 0.09739 -0.16459 -0.39389 0.43738 0.25763 0.015919 -0.28681 -0.3332 0.12359 -0.19543 -0.052863 0.29206 -0.24205 -0.16588 -0.36523 0.13279 0.36648 -0.06602 0.05764 -0.49725 -0.23127 -0.19801 -0.0015019 -0.1743 -0.056223 0.22644 0.28602 0.46715 0.38747 0.22649 -0.08911 0.38697 -0.21265 -0.24336 0.34318 -0.16683 0.48522 0.074025 -0.070559 -0.20601 -0.19881 -0.44728 0.41151 0.1732 0.026627 0.10441 -0.056897 0.040521 -0.28104 -0.0059035 -0.28255 -0.18989 -0.36437 -0.17243 0.14572 0.25114 -0.49799 0.0047907 0.49468 -0.14016 0.29623 0.089686 0.28949 0.3591 -0.43276 0.42837 
방가|NNG -0.43209 -0.46682 -0.11128 -0.77608 0.17012 -0.23851 -0.20094 0.75909 0.34331 0.31463 0.46298 0.13487 0.092331 0.081821 -0.9626 0.96474 -0.027899 0.35696 -0.22402 -0.70234 -1.2071 0.35059 -0.13508 -0.53471 0.24338 -0.52745 -0.10843 -0.62341 -0.43809 -0.30988 -0.58057 -0.060653 -0.37569 0.79518 -0.052432 0.085756 -0.14686 -0.59411 -0.1632 -0.30993 0.26484 -0.03105 -0.10694 -0.14589 -0.10165 -0.55162 -0.80625 -0.36675 0.056941 -0.38148 -0.37343 0.75006 -0.4703 -0.40317 -0.10975 0.15599 -0.059111 -0.46978 -0.69237 0.21356 -0.63793 -0.37398 0.14039 0.18396 -0.38781 0.17014 0.11697 0.30135 0.61632 0.70799 -0.36801 0.09403 -0.40164 -0.012504 0.41732 -0.24256 0.34623 0.25168 0.16624 -0.45486 -0.23576 0.34852 0.14308 0.011842 -0.71365 -0.41084 0.030014 -0.10062 0.22682 0.21224 0.072384 -0.12538 0.29637 0.064514 0.30487 0.30734 0.83362 0.37257 0.17045 0.47861 
아니|IC 0.1443 0.37765 0.1076 0.3899 -0.0014117 0.061566 -0.0087449 0.10652 0.087664 -0.030496 -0.18754 0.39352 0.28462 -0.0023105 0.022706 -0.36597 -0.11208 0.032547 0.2506 0.11254 0.021265 -0.3613 0.050546 0.58238 -0.063636 0.37027 -0.078194 0.59403 -0.21868 -0.063567 0.15496 -0.070605 0.13703 -0.13227 -0.29404 -0.10433 0.14387 -0.20533 -0.24152 0.020462 0.44448 -0.23445 -0.065268 -0.27167 0.032241 0.08795 0.12124 -0.095607 -0.11793 -0.16639 0.007666 -0.35174 -0.085882 0.0039446 0.26529 -0.025321 0.041872 -0.24607 0.069201 -0.11734 -0.081152 0.17088 -0.19293 0.12729 0.26112 -0.23532 0.062921 0.083521 -0.072511 -0.043188 -0.12108 -0.0069857 0.16974 0.2288 0.21716 0.61854 0.016933 -0.038552 0.15501 -0.066836 -0.18598 -0.094282 7.2665e-05 -0.32476 0.070471 -0.064436 0.077324 0.24824 -0.080741 -0.062299 0.019916 0.27226 -0.21681 -0.021464 0.066864 0.05798 -0.33605 -0.027827 -0.03161 -0.19792 
뭐|IC 0.006905 -0.64141 0.058509 0.22896 -0.16495 -0.59283 0.17443 0.32212 -0.041422 -0.69169 -0.082974 0.012749 0.14002 -0.32582 -0.17527 -0.32376 0.64717 0.11728 -0.36646 0.43652 -0.12294 -0.60597 -0.84414 -0.68128 -0.1835 0.077838 -0.31538 0.22769 -0.064937 0.63822 -0.08515 -0.3262 0.4683 -0.11197 0.8197 -0.83794 0.58048 0.81502 0.12124 -0.63984 0.00032957 -0.39511 -0.3721 -0.64951 -0.66109 0.89329 0.4801 -0.023251 0.33977 -0.5075 0.40763 -0.41376 0.093891 0.38831 0.11582 -0.33643 -0.4517 0.40228 0.015298 -0.23781 -0.20007 0.25059 -0.55611 -0.3576 0.24023 0.082245 0.10252 0.28762 -0.33021 -0.51799 -0.16245 -0.069847 -0.6047 -0.13589 0.20917 0.072537 0.061337 0.39387 -0.66344 0.55997 -0.56715 -0.6713 -0.55115 0.68339 -0.46403 -0.35171 0.3568 0.0045506 -0.12588 -0.65574 0.020194 0.24025 0.16246 0.17857 0.30512 0.041894 0.26362 -0.25686 0.39916 0.67573 
돼요|VV+EC 0.030808 0.20648 0.23834 -0.09606 0.17323 0.084181 0.077299 -0.29592 -0.24913 0.020422 -0.016856 -0.29961 -0.036092 0.052934 0.21503 -0.23888 0.073498 -0.045379 -0.11053 0.070968 0.092158 -0.075682 0.013109 0.010659 -0.036449 0.14995 0.014235 0.027915 -0.040798 0.0067469 -0.013181 -0.047889 0.17823 -0.070692 -0.059033 -0.092994 -0.20157 0.20177 0.12927 0.14154 -0.1927 0.091438 0.09504 0.20388 0.02873 0.098912 0.13966 0.21785 -0.064348 0.24672 0.083703 0.10936 0.14338 0.062269 -0.080122 0.20406 0.001517 0.14601 0.13057 -0.051787 0.17905 0.15366 -0.11225 0.20849 0.28497 -0.14558 0.0067915 -0.052151 -0.2641 -0.055806 0.030536 0.022286 0.08244 -0.24043 -0.12409 -0.067352 0.0065772 -0.022652 0.13953 0.03937 0.020724 -0.000677 -0.0061539 0.021322 0.24834 0.1474 0.13331 -0.087441 -0.26635 0.029468 -0.17512 0.047051 0.29681 -0.059125 0.11325 0.0082783 -0.11161 -0.11182 -0.056032 -0.18585 
할래|XSV+EC -0.03032 0.15679 0.074324 0.17531 -0.026239 0.020678 -0.020725 0.27041 0.033971 0.051508 0.042144 0.24198 0.14307 0.039834 -0.072711 -0.060707 -0.090373 0.048055 0.26831 -0.067161 -0.09033 -0.1769 0.13507 0.4102 -0.039658 0.17599 -0.11492 0.39854 -0.17528 -0.20689 0.11653 -0.052556 -0.065344 0.13059 -0.21596 0.05518 0.050706 -0.3881 -0.23581 0.062037 0.42522 -0.25901 -0.022077 -0.26161 -0.015372 -0.18463 -0.18127 -0.11546 -0.042995 -0.18111 -0.027379 -0.14509 -0.085759 -0.13251 0.1657 0.0046438 0.06151 -0.3241 -0.13755 -0.084023 -0.15139 -0.019766 -0.1851 0.13869 0.073174 -0.13642 0.13201 0.063485 0.15578 0.089896 -0.087116 -0.058421 0.068542 0.15388 0.2635 0.40315 0.10706 -0.054675 0.20926 -0.12336 -0.16044 0.087231 0.070506 -0.36566 -0.053733 -0.067241 0.0053134 0.1192 0.052261 0.017136 0.010192 0.051484 -0.153 0.055661 0.10309 0.13289 0.0034499 0.18461 -0.078592 -0.08137 
해요|XSA+EC 0.036718 0.14694 0.13836 -0.089898 0.12617 0.072711 0.0064884 -0.23384 -0.11315 0.01278 -0.030908 -0.22706 0.018792 0.048172 0.095458 -0.14852 0.04767 -0.037997 -0.13014 -0.0024473 0.014614 -0.079263 -0.0035379 -0.055344 0.0057137 0.013752 0.052869 -0.026589 -0.083776 0.0054745 -0.023454 -0.034813 0.073423 -0.082716 -0.079204 -0.083171 -0.1946 0.1712 0.11414 0.097952 -0.16005 0.053566 0.10119 0.14208 0.036002 0.11281 0.046392 0.10241 -0.12027 0.17769 0.07414 0.091269 0.08597 -0.023789 -0.080202 0.1199 0.00666 0.059727 0.078987 0.018401 0.13325 0.15317 0.0099234 0.17291 0.18877 -0.055324 -0.046922 -0.039763 -0.14474 -0.014055 0.039781 0.05186 0.054758 -0.16425 -0.10983 -0.11621 0.038587 0.0058188 0.11015 0.0084652 0.011125 0.0045064 -0.015723 0.015498 0.1083 0.062737 0.031556 -0.075346 -0.16608 0.073253 -0.16623 0.061657 0.25451 -0.088054 0.12081 0.024314 -0.051075 -0.03203 -0.10878 -0.067503 
하이|NNG -0.29527 -0.14328 -0.16097 -0.38573 0.27578 0.054745 -0.27114 0.33786 0.39617 0.29469 -0.02272 0.50625 0.2449 0.058864 -0.83037 0.50186 -0.070291 0.15612 -0.19789 -0.41706 -1.0367 0.093539 0.015739 -0.34272 0.45649 -0.44848 0.28798 -0.2313 -0.31419 -0.013655 -0.30252 -0.065108 -0.48499 0.2143 -0.3788 -0.024947 -0.16221 -0.46867 -0.15053 -0.21257 0.35942 0.029849 0.27894 -0.032283 -0.1665 -0.27224 -0.65186 -0.31044 -0.076714 -0.4225 -0.37823 0.33206 -0.31628 -0.3139 0.086051 0.12512 -0.013209 -0.36208 -0.535 0.30878 -0.37783 -0.24881 0.29003 0.21162 -0.053499 0.19459 -0.10014 0.35673 0.3928 0.47945 -0.48215 0.12897 -0.20912 0.14546 0.31467 -0.30398 0.18172 0.22029 0.24766 -0.34252 -0.37036 -0.015073 0.19602 -0.025614 -0.56479 -0.30839 -0.29489 -0.12417 0.17237 0.31213 0.18892 0.24009 0.14263 -0.13721 0.2685 0.15562 0.29988 0.27752 -0.081187 0.29206 
블랙|NNG 0.024293 0.10309 -0.069554 0.16891 -0.012448 0.02949 0.0085898 0.16637 -0.057368 -0.024006 0.079981 0.18326 0.029677 0.051463 0.026111 -0.023576 -0.076578 0.0047968 0.25731 -4.564e-05 0.18108 0.011081 0.036912 0.33784 -0.11016 0.096608 -0.10429 0.20485 -0.052596 -0.083886 0.084625 0.014416 0.022038 -0.015712 -0.11998 0.11597 0.14114 -0.3058 -0.1269 0.033849 0.2441 0.017048 -0.057174 -0.0619 0.097201 -0.11056 0.055938 -0.05805 -0.047958 -0.051293 -0.046816 -0.067136 -0.048858 0.060526 0.14774 -0.035664 0.10573 -0.068541 -0.016112 -0.093091 -0.081377 -0.051837 0.035616 -0.0408 -0.092381 -0.095529 0.047993 0.012245 0.033429 0.033594 -0.079502 -0.022724 0.058787 0.19249 0.091576 0.23931 -0.07049 -0.022788 0.051489 -0.07994 0.012759 0.10633 0.14288 -0.18391 0.013845 0.073608 0.048528 0.14873 0.032162 -0.017754 0.15767 0.031651 -0.21091 -0.023058 -0.10576 0.0026067 -0.073246 0.056127 0.041235 -0.11492 
은데|EC -0.025162 0.097487 -0.061692 -0.019126 0.086969 0.11575 -0.067931 -0.096073 0.094113 0.12772 -0.1022 0.16972 0.016446 0.039281 -0.080102 0.034375 -0.10409 -0.026101 0.010284 -0.030723 -0.092182 0.10443 0.11194 0.032032 0.14504 -0.051299 0.17762 -0.042986 0.045588 0.034797 -0.0028292 0.033861 -0.15438 -0.092774 -0.19316 0.071577 -0.026859 -0.10465 -0.025645 0.029376 0.024854 0.13908 0.14784 0.12612 0.034771 -0.086975 -0.070724 -0.015656 -0.042466 -0.010194 -0.1328 0.016466 -0.0065796 -0.010345 0.012116 0.04811 0.06185 -0.018734 -0.0056369 0.06168 -0.0076172 -0.08585 0.14839 0.018572 0.012043 0.057587 -0.071133 0.042447 0.021791 0.061121 -0.094286 0.039631 0.06006 0.078284 -0.01709 -0.061155 -0.065892 -0.0083207 0.076574 -0.076725 0.021495 -0.031937 0.11524 -0.043299 0.02215 0.0203 -0.12788 -0.0081436 0.025886 0.11658 0.12994 0.07937 -0.071077 -0.066913 -0.072399 -0.072101 -0.13267 -0.016821 -0.033896 -0.074631 
안녕|NNG -0.18178 -0.16254 -0.0076904 -0.40639 0.19346 -0.029096 -0.23142 0.19582 0.34613 0.20372 -0.041874 0.18091 0.24421 -0.0041154 -0.64281 0.3205 0.020124 0.16827 -0.36716 -0.34029 -0.94378 -0.096042 -0.062004 -0.44265 0.36817 -0.34191 0.1952 -0.22435 -0.32721 -0.038746 -0.26886 -0.11887 -0.2753 0.23254 -0.17772 -0.16437 -0.27123 -0.10918 -0.061465 -0.20139 0.17094 -0.15177 0.14462 -0.12997 -0.20893 -0.056728 -0.53018 -0.2049 -0.069691 -0.29325 -0.15893 0.27018 -0.26108 -0.34863 -0.015735 0.10017 -0.13083 -0.29748 -0.40325 0.28156 -0.2369 -0.00071982 0.053372 0.25854 0.076169 0.11747 -0.065801 0.24148 0.29077 0.3654 -0.27283 0.08201 -0.18375 -0.051237 0.23624 -0.26078 0.26466 0.17041 0.17836 -0.24506 -0.35589 -0.052255 -0.022444 0.075206 -0.47601 -0.34944 -0.19287 -0.14057 0.092463 0.23064 -0.12909 0.16958 0.28919 -0.075343 0.38176 0.23445 0.32064 0.22117 -0.12892 0.34806 
바꾸|VV -0.032438 0.097765 -0.049413 -0.019055 0.078154 0.11132 -0.052176 -0.10954 0.085908 0.11072 -0.10216 0.17408 0.016238 0.038306 -0.082069 0.044254 -0.1055 -0.02005 0.012281 -0.015747 -0.091215 0.10803 0.10858 0.038467 0.14319 -0.054703 0.16869 -0.051225 0.043366 0.031012 -0.0054009 0.046207 -0.13563 -0.083569 -0.19109 0.079364 -0.028415 -0.11038 -0.030701 0.023556 0.028187 0.14326 0.14855 0.13348 0.040591 -0.086155 -0.074896 -0.0085301 -0.035787 -0.014609 -0.14575 0.01977 -0.017409 -0.0095199 0.0096024 0.054401 0.056816 -0.021548 -0.0073802 0.071112 -0.004332 -0.082509 0.16116 0.020584 0.014856 0.046344 -0.062496 0.055212 0.015975 0.063881 -0.076471 0.038412 0.069821 0.080688 -0.023534 -0.05478 -0.062452 -0.020748 0.078631 -0.07874 0.030564 -0.029915 0.1005 -0.033074 0.025433 0.0099143 -0.14016 0.0083158 0.043904 0.11735 0.13071 0.068521 -0.072044 -0.076213 -0.068452 -0.077534 -0.12164 -0.011202 -0.047763 -0.084203 
괜찮|VA 0.22929 0.04216 -0.01121 -0.049533 -0.087749 -0.11504 -0.052801 -0.44773 -0.018261 -0.17877 -0.057086 -0.70608 0.1059 0.025525 0.17745 -0.11968 0.12377 -0.17005 -0.18563 -0.029654 0.38081 -0.23718 -0.076601 -0.40596 -0.23541 -0.38368 0.077412 -0.21846 -0.086459 -0.021286 -0.0019393 0.089181 0.023099 -0.23255 0.20227 -0.13239 -0.33598 0.64926 0.33609 0.084674 -0.5377 -0.17844 -0.028068 -0.047527 0.098967 0.36277 0.08421 -0.025901 -0.32997 0.38957 0.40661 -0.080199 0.16508 -0.31462 -0.33681 -0.19788 0.01963 0.027864 0.22684 0.10896 0.41425 0.49528 0.34922 0.10572 -0.12096 0.31936 -0.19887 -0.37847 0.15782 -0.2965 0.66601 0.061548 0.0068677 -0.28431 -0.36864 -0.36409 0.29879 0.094485 -0.099663 0.21972 0.17242 0.067338 -0.302 0.06767 -0.041968 -0.069999 -0.23838 -0.098831 0.06742 0.14051 -0.50721 -0.10067 0.48299 -0.10482 0.11747 -0.039245 0.15007 0.1342 -0.29647 0.30442 
됐|VV+EP 0.09533 -0.22977 -0.13509 0.032436 -0.15046 -0.21236 -0.10435 -0.075242 0.027412 -0.27731 0.035193 -0.45715 0.19581 -0.040671 -0.076666 0.036657 0.21938 -0.12631 -0.1182 -0.097155 0.16471 -0.3429 -0.13882 -0.46249 -0.23036 -0.49515 0.0047616 -0.10464 -0.13861 0.024598 0.023153 0.033147 -0.11919 -0.12271 0.31903 -0.13886 -0.20898 0.44781 0.2379 -0.061103 -0.2574 -0.38356 -0.039941 -0.28586 -0.061365 0.28698 -0.11358 -0.19595 -0.26069 0.073966 0.40359 -0.13293 0.031459 -0.40442 -0.17415 -0.30997 -0.039401 -0.11457 -0.049379 0.1681 0.24432 0.3961 0.29381 0.063394 -0.205 0.37245 -0.15447 -0.26483 0.33503 -0.25324 0.47538 0.018473 -0.14734 -0.1649 -0.15683 -0.37704 0.35281 0.17599 -0.14458 0.18929 -0.046804 0.0020335 -0.33378 0.070471 -0.2967 -0.14556 -0.25775 -0.17221 0.17763 0.088931 -0.3958 -0.082119 0.35822 -0.03465 0.20684 0.068266 0.36459 0.32336 -0.31061 0.47073 
바꿔도|VV+EC -0.052915 0.11808 -0.091545 -0.0072473 0.10857 0.15142 -0.0936 -0.12015 0.1477 0.16343 -0.14001 0.2812 0.021658 0.049561 -0.12759 0.065652 -0.15153 -0.026655 0.040231 -0.028204 -0.13459 0.15456 0.14228 0.048802 0.20448 -0.074406 0.24435 -0.062882 0.048225 0.044647 -0.017812 0.055988 -0.21852 -0.10886 -0.28414 0.12058 -0.017272 -0.19101 -0.061985 0.033337 0.06809 0.18423 0.17774 0.17884 0.049121 -0.12932 -0.098405 -0.027651 -0.047564 -0.027896 -0.20825 0.014466 -0.028558 0.0016549 0.036568 0.058424 0.067037 -0.038764 -0.030068 0.096755 -0.015535 -0.15655 0.22608 -0.0019611 -0.012691 0.071212 -0.090553 0.095218 0.043297 0.10514 -0.13467 0.068984 0.068016 0.12746 -0.013833 -0.06347 -0.096287 -0.019283 0.096185 -0.10739 0.040991 -0.027267 0.16818 -0.057665 0.011894 0.0064635 -0.18511 0.01587 0.078233 0.14104 0.20298 0.10075 -0.13666 -0.08576 -0.11332 -0.11084 -0.16908 -0.021411 -0.040866 -0.10335 
+JX 0.00066108 0.45019 0.34931 -0.21063 0.37623 0.28242 0.076889 -0.55517 -0.29717 0.1865 -0.11737 -0.26387 -0.073088 0.1062 0.26032 -0.33169 -0.033499 -0.053175 -0.19121 0.071094 -0.0041491 0.068891 0.12805 0.081248 0.13302 0.23163 0.20365 -0.038918 -0.020811 0.013536 -0.059225 -0.052377 0.16011 -0.17055 -0.33109 -0.060607 -0.35569 0.17458 0.16219 0.25418 -0.26601 0.35357 0.30359 0.51916 0.10245 0.037855 0.15013 0.35559 -0.11258 0.39033 -0.064937 0.25746 0.19598 0.1324 -0.11276 0.43479 0.059034 0.20607 0.21347 -0.027393 0.23288 0.099779 -0.047742 0.34429 0.48961 -0.22902 -0.031335 0.011645 -0.45961 0.038426 -0.12547 0.094519 0.21488 -0.2906 -0.2002 -0.13559 -0.081963 -0.0727 0.33442 -0.050398 0.078972 -0.016124 0.14096 0.0086465 0.42728 0.26143 0.13988 -0.13418 -0.43583 0.14773 -0.11819 0.16524 0.37994 -0.1505 0.090783 -0.053937 -0.32492 -0.23368 -0.085964 -0.42511 
100|SN -0.043973 0.10973 -0.073355 0.23601 0.022604 -0.014849 -0.012994 0.36755 -0.01777 -0.061113 0.11018 0.37338 0.14373 0.10079 -0.11587 -0.023373 -0.032153 0.0072331 0.37616 -0.042977 0.050204 -0.15337 0.0394 0.43889 -0.10331 0.060168 -0.16094 0.42499 -0.18151 -0.11998 0.13836 -0.035225 -0.070846 0.064353 -0.25562 0.072827 0.2144 -0.52727 -0.23303 -0.013803 0.55191 -0.12557 -0.014509 -0.25217 0.00069433 -0.17712 -0.10574 -0.16407 -0.053965 -0.24519 -0.067404 -0.15225 -0.10787 -0.025294 0.25563 -0.070281 0.095187 -0.24447 -0.17099 -0.11132 -0.21215 -0.071291 -0.014937 0.013188 -0.082617 -0.071982 0.075108 0.13058 0.16137 0.050956 -0.18462 -0.043853 -0.022628 0.2903 0.29087 0.3391 0.016516 0.018912 0.13902 -0.092138 -0.1883 0.12295 0.20248 -0.33905 -0.15798 -0.011242 0.0080706 0.18468 0.087327 -0.023632 0.23328 0.094876 -0.23935 -0.027742 0.014897 0.089865 0.013143 0.22635 -0.00011803 -0.046659 
사랑|NNG -0.0090031 0.0064135 0.26678 -0.038494 -0.11993 -0.19858 0.24497 -0.010684 -0.13261 -0.070994 0.19086 -0.3955 -0.25157 0.064202 0.36374 -0.074592 0.090478 -0.015317 0.19753 0.11975 0.36539 0.0049675 0.095905 0.10202 -0.19357 0.16897 -0.27063 0.070796 0.1945 -0.12907 0.15804 -0.0038986 0.098408 0.2992 0.13589 -0.020805 0.19055 0.088647 0.032739 0.11459 -0.12748 -0.15823 -0.15426 -0.14733 -0.10462 -0.070634 0.033201 0.17017 0.25723 0.14722 0.13445 -0.12383 0.29168 0.16639 -0.25265 -0.037473 -0.064897 0.066133 0.183 -0.35832 0.0040529 -0.076706 -0.43663 -0.16292 -0.056436 -0.0097186 0.27292 -0.086795 0.012563 -0.25855 0.48272 -0.17938 -0.19954 -0.15816 0.018743 0.23543 0.066216 -0.16404 -0.058222 0.32634 0.07565 0.18642 0.02012 -0.13508 0.19734 -0.012331 0.20784 0.096926 -0.035941 -0.23292 -0.012808 -0.33938 0.059052 0.22095 -0.041856 -0.043522 0.11678 -0.059464 0.12271 -0.052548 
었|EP 0.33845 0.19896 -0.029388 0.041883 -0.25457 0.080241 -0.0082984 -0.051955 0.13868 0.11679 -0.039227 -0.11391 -0.045649 -0.0090384 0.35768 -0.081053 -0.27722 0.11408 -0.069999 0.0047143 0.29212 0.13528 0.023879 0.3551 -0.091727 0.34397 -0.20942 -0.082935 0.043224 -0.26807 -0.0030469 0.09836 0.41691 0.050638 0.07571 0.14835 0.024287 0.065486 -0.053322 0.11838 -0.11388 0.082326 -0.40488 0.048304 0.36716 0.045444 0.36241 0.055591 -0.0073684 0.27766 0.014337 0.0017245 -0.18082 0.11779 0.013429 -0.079073 0.017509 0.078763 0.33497 -0.0071783 0.058233 0.17429 -0.14038 -0.18196 -0.20526 -0.28052 0.0083278 -0.23504 -0.11254 0.14812 0.19489 -0.031441 0.31722 0.094647 -0.097863 0.36078 -0.17892 -0.2605 -0.14311 -0.1438 0.40334 0.20729 -0.071701 -0.038767 0.2505 0.015091 0.16515 0.30297 0.079376 -0.029415 -0.2775 -0.14943 -0.32027 -0.03165 -0.25167 0.074233 -0.21953 -0.19666 0.10262 -0.13624 
됩니다|VX+EC 0.084003 -0.28017 -0.11964 0.027937 -0.13677 -0.25817 -0.12868 0.043058 0.091743 -0.278 0.034795 -0.39596 0.25402 -0.039999 -0.18903 0.051669 0.26437 -0.080619 -0.15317 -0.12534 0.021561 -0.43441 -0.19442 -0.49775 -0.19166 -0.5071 -0.024649 -0.047229 -0.23292 0.029954 0.011795 -0.022365 -0.11385 -0.053009 0.30027 -0.23068 -0.18992 0.40339 0.19899 -0.13206 -0.13757 -0.46148 -0.047808 -0.39617 -0.1558 0.33835 -0.18912 -0.24251 -0.24688 -0.051337 0.41047 -0.13827 -0.0088922 -0.42715 -0.14943 -0.32067 -0.062576 -0.1704 -0.13672 0.16161 0.16258 0.41879 0.23821 0.083209 -0.18932 0.38034 -0.13643 -0.17922 0.38117 -0.20485 0.40279 0.019364 -0.21628 -0.13827 -0.065864 -0.34005 0.42147 0.23631 -0.14283 0.16823 -0.16974 -0.019252 -0.32634 0.0628 -0.43771 -0.24554 -0.254 -0.13326 0.19251 0.077067 -0.40509 -0.02022 0.39517 -0.05022 0.31084 0.1294 0.42283 0.37605 -0.30192 0.563 
한|XSV+ETM -0.041073 -0.054834 0.073662 0.031508 -0.053068 -0.0041684 0.075075 -0.14979 0.0061405 0.03656 -0.10645 0.010631 -0.09646 -0.15216 0.072945 -0.013287 -0.049897 -0.014635 -0.015404 0.12204 -0.018994 0.15973 0.029854 -0.057882 0.025437 0.16976 0.080018 -0.10849 0.19229 0.096483 -0.058755 0.0348 -0.0013836 -0.040606 0.16313 0.043342 0.027759 0.18099 0.0063721 -0.020872 -0.22735 0.037971 -0.040601 0.083709 0.012343 -0.00098586 0.086112 0.069591 0.11685 0.029113 -0.048591 -0.039958 0.062004 0.073652 -0.093226 0.054143 -0.02942 0.040681 0.10347 -0.010619 0.046618 -0.1217 -0.076424 -0.0035297 0.16195 -0.022945 0.048427 -0.032892 -0.14028 -0.11027 0.021526 0.028461 0.087602 -0.1012 -0.099734 0.091491 -0.044568 -0.026763 -0.098207 0.069611 0.077528 -0.21278 -0.14744 0.13249 0.174 0.013966 0.025339 -0.098966 -0.040983 -0.098215 0.063525 -0.054544 -0.090778 0.18991 -0.093197 -0.17356 -0.11076 -0.20716 0.096104 -0.070454 
요일|NNG -0.018836 0.15935 -0.014931 -0.038067 0.13613 0.16184 -0.068922 -0.1968 0.065258 0.14482 -0.13742 0.12115 0.017219 0.039333 -0.045088 -0.011432 -0.10426 -0.028808 -0.021691 -0.029515 -0.10488 0.083027 0.13112 0.01732 0.15035 -0.050212 0.2165 -0.05398 0.0042883 0.02209 -0.017073 0.026476 -0.13227 -0.12878 -0.24697 0.057196 -0.11317 -0.057198 0.0061443 0.071645 -0.014751 0.1599 0.19325 0.1883 0.05566 -0.054679 -0.063844 0.018641 -0.098811 0.049042 -0.13508 0.045449 0.012639 -0.040126 -0.0082674 0.10196 0.070304 -0.019449 0.014649 0.086234 0.062373 -0.030347 0.1681 0.088946 0.093978 0.024327 -0.10307 0.051288 -0.02259 0.069599 -0.088518 0.061864 0.094472 0.017252 -0.061596 -0.10713 -0.041396 -0.014271 0.14426 -0.084261 0.027466 -0.015548 0.11486 -0.053622 0.072655 0.040474 -0.13203 -0.021076 -0.02415 0.15765 0.072727 0.10588 0.014129 -0.10187 -0.030841 -0.072037 -0.1472 -0.012606 -0.083787 -0.11061 
후|NNG 0.032998 0.049911 0.29599 -0.096247 0.075544 -0.088483 0.1337 -0.10754 -0.33681 -0.1418 0.1263 -0.45244 -0.041192 0.0052469 0.23986 -0.24581 0.21464 -0.0017103 -0.13911 0.076302 0.13786 -0.17823 -0.14488 -0.06528 -0.18045 0.1653 -0.19281 0.076195 -0.10038 -0.019948 -0.032648 -0.10591 0.30684 0.052182 0.17044 -0.20677 -0.13662 0.31319 0.14901 0.054423 -0.20744 -0.073928 -0.068313 0.020177 -0.064176 0.19436 0.1789 0.19312 0.0028258 0.18828 0.22653 0.089276 0.1684 0.07561 -0.11307 0.13061 -0.074155 0.14989 0.11102 -0.142 0.12283 0.21014 -0.28356 0.16225 0.25288 -0.17354 0.10384 -0.074335 -0.27149 -0.13802 0.097066 -0.0316 -0.03086 -0.3119 -0.076351 -0.0055152 0.10221 0.03568 0.029824 0.1325 -0.043406 0.012332 -0.1383 0.097105 0.15002 0.096778 0.28773 -0.097288 -0.30151 -0.12124 -0.26858 -0.020157 0.37476 0.039267 0.22041 0.09006 0.079811 -0.079696 0.026351 -0.04332 
컬러|NNG 0.050232 0.14348 0.072964 0.24145 -0.18041 0.013801 0.0107 0.30945 0.074701 0.034621 0.051899 0.17173 0.091631 -0.0028402 0.1129 -0.058637 -0.14097 0.040674 0.29127 -0.046115 0.060834 -0.21193 0.21395 0.53522 -0.090577 0.25577 -0.21779 0.44146 -0.066935 -0.30226 0.24851 -0.021139 0.0067122 0.19776 -0.085695 0.13771 0.053759 -0.36734 -0.23907 0.11924 0.42666 -0.39819 -0.12671 -0.34361 0.013382 -0.20226 -0.17796 -0.11343 0.022169 -0.15951 0.049553 -0.23333 -0.10795 -0.15157 0.1775 -0.091073 0.019085 -0.33528 -0.11217 -0.062268 -0.095801 0.023466 -0.32154 0.052211 -0.015994 -0.18758 0.16218 -0.055478 0.18664 0.062716 0.078385 -0.14417 0.12585 0.18339 0.22702 0.4816 0.092823 -0.19783 0.13383 -0.096698 -0.072935 0.15499 0.0065817 -0.37803 0.015372 -0.025562 0.018719 0.1409 0.11975 -0.040777 -0.11111 -0.082839 -0.31075 0.11642 0.033977 0.19184 -0.011621 0.18791 -0.099904 -0.096935 
그렇게|MAG -0.11103 -0.24137 -0.34518 0.15183 0.0056307 -0.16914 0.16341 0.38702 -0.25567 -0.24319 0.35788 0.25357 -0.23257 0.080861 -0.043624 0.21545 0.094314 0.0034599 0.4152 0.12901 0.50157 0.40924 -0.30552 0.11667 -0.33249 -0.076716 -0.26608 -0.05603 0.10318 0.16744 -0.085035 0.068878 0.073564 -0.022983 0.11928 0.12596 0.62862 -0.3884 -0.065048 -0.17589 0.17072 0.47954 -0.20397 0.10149 0.1126 -0.16495 0.37174 -0.030722 0.12347 -0.093123 -0.17608 0.10431 0.021628 0.47146 0.15601 -0.13477 0.15825 0.30083 0.038739 -0.29676 -0.29643 -0.37719 0.29249 -0.46423 -0.47025 0.069222 0.064435 0.13873 -0.089137 -0.079859 -0.25207 0.0050968 -0.23047 0.28598 0.091207 0.088246 -0.33634 0.17404 -0.27666 0.091569 0.14922 0.14185 0.32404 0.061663 -0.092782 0.17184 0.25574 0.25231 0.03416 -0.25491 0.73684 -0.068973 -0.27727 -0.0059913 -0.40138 -0.23864 0.071321 -0.099227 0.49492 -0.038712 
네|IC -0.12123 -0.24959 -0.33261 0.15269 0.0012361 -0.16761 0.16452 0.37273 -0.2486 -0.24753 0.36055 0.26397 -0.2356 0.081233 -0.05721 0.21771 0.078267 0.013622 0.42117 0.12678 0.49528 0.40625 -0.28845 0.10844 -0.31529 -0.061544 -0.27378 -0.066602 0.10698 0.16669 -0.083486 0.064938 0.086359 -0.0082377 0.1191 0.12484 0.62715 -0.3854 -0.063992 -0.17548 0.1618 0.47448 -0.19587 0.1005 0.11175 -0.16009 0.37433 -0.019481 0.12836 -0.08397 -0.16181 0.098522 0.021729 0.48052 0.15884 -0.12457 0.14231 0.2988 0.03688 -0.31454 -0.29618 -0.38606 0.28348 -0.47134 -0.46468 0.085753 0.063569 0.13077 -0.08779 -0.068263 -0.26102 0.0027233 -0.24543 0.30087 0.094288 0.08483 -0.33222 0.17294 -0.2852 0.093347 0.13538 0.1344 0.33186 0.059953 -0.090916 0.17251 0.26123 0.25223 0.043046 -0.26181 0.73509 -0.064202 -0.2718 -0.0012537 -0.39666 -0.23957 0.084266 -0.096035 0.50546 -0.046851 
써요|VV+EC 0.22846 0.063636 0.055237 -0.0249 -0.033484 -0.062074 -0.088112 -0.52709 -0.082767 -0.18681 -0.10981 -0.76229 0.16722 0.0037146 0.18419 -0.21843 0.18603 -0.21451 -0.27318 -0.028261 0.31768 -0.39482 -0.020373 -0.45843 -0.21324 -0.40518 0.13858 -0.12379 -0.12661 -0.0014389 0.070508 0.039695 -0.0098492 -0.28821 0.19953 -0.17236 -0.50211 0.73487 0.38329 0.12509 -0.5452 -0.2957 0.10346 -0.063065 0.047799 0.42823 -0.0018676 -0.0045496 -0.39596 0.38956 0.50581 -0.11226 0.18949 -0.43587 -0.32938 -0.15509 -0.00034751 -0.010149 0.16209 0.19631 0.51672 0.61615 0.32632 0.25025 0.041215 0.30291 -0.23786 -0.40102 0.1291 -0.31599 0.65318 0.07448 0.087848 -0.36531 -0.40326 -0.45141 0.37238 0.0812 -0.017436 0.19097 0.12002 0.014233 -0.3909 0.072004 -0.0083348 -0.032511 -0.28395 -0.20911 0.0031072 0.21201 -0.68046 -0.033897 0.55939 -0.13433 0.22817 0.017398 0.12514 0.19018 -0.46518 0.28544 
안|NNG -0.14263 -0.056549 -0.020247 -0.20863 0.12977 0.0088224 -0.092305 0.10703 0.1754 0.16409 -0.019277 0.23109 0.056972 0.017236 -0.34031 0.22547 -0.04505 0.11322 -0.10639 -0.15574 -0.48507 0.13366 -0.016076 -0.15105 0.22062 -0.099744 0.12891 -0.16733 -0.097633 0.013374 -0.17577 -0.020292 -0.15426 0.13407 -0.14939 -0.022963 -0.027249 -0.17955 -0.067498 -0.097986 0.10189 0.082665 0.078025 0.040633 -0.055441 -0.13651 -0.21761 -0.076204 0.031231 -0.14655 -0.21948 0.19002 -0.12452 -0.050838 0.0027683 0.10132 -0.026066 -0.1173 -0.17788 0.091346 -0.1899 -0.15606 0.046358 0.077705 0.022226 0.036261 0.00042902 0.17926 0.084219 0.23714 -0.25012 0.0597 -0.0592 0.042919 0.12061 -0.040297 0.020463 0.058988 0.073321 -0.15204 -0.098024 -0.013401 0.069014 0.039096 -0.1632 -0.1439 -0.038779 -0.0093315 0.03999 0.078818 0.10018 0.083452 0.025899 -0.037374 0.047001 0.036967 0.072576 0.0053318 0.067996 0.076796 
택배|NNG -0.12812 -0.48408 0.010061 0.0099536 -0.53638 0.28152 0.011382 -0.1435 -0.20949 0.17369 0.044898 -0.44428 -0.55417 -0.26401 0.72815 0.21004 -0.12532 -0.30212 -0.052941 0.015426 0.37794 0.17991 0.77108 0.0090085 0.15995 0.0024517 0.10665 -0.21759 0.94014 -0.14627 0.58209 0.1772 -0.28768 0.19914 0.73113 0.67165 -0.51497 0.21132 0.19408 0.45597 -0.46603 -0.43834 0.28335 0.16547 -0.11774 -0.35618 -0.45276 0.2306 0.40046 0.16951 0.30386 -0.13545 0.18909 -0.35397 -0.14655 -0.075659 -0.14087 0.12199 -0.18713 0.41536 0.60431 -0.22221 -0.37919 -0.088284 -0.093312 0.038802 0.015269 -0.51946 0.18183 -0.072388 0.43005 -0.33509 0.38044 -0.24031 -0.42677 -0.63082 -0.084947 -0.58478 -0.13888 0.040625 0.42596 0.030841 -0.30202 0.21915 0.67598 0.62003 -0.19241 -0.68539 0.067646 0.073633 -0.6017 -0.72585 -0.35481 0.34573 -0.19894 0.10629 -0.0060895 0.0080068 -0.46625 -0.44701 
안녕|IC -0.28438 -0.015147 -0.020373 -0.51904 0.39129 0.060171 -0.14759 0.088481 0.29886 0.37942 -0.0060342 0.37445 0.041806 0.1112 -0.66403 0.44789 -0.12517 0.22528 -0.21876 -0.30174 -0.91402 0.41841 -0.063092 -0.34577 0.43651 -0.22621 0.28518 -0.46174 -0.22207 0.047791 -0.46324 -0.027208 -0.29619 0.21729 -0.45115 -0.040443 -0.041869 -0.35379 -0.10826 -0.19757 0.096046 0.42342 0.18834 0.29038 -0.044771 -0.29292 -0.34993 -0.077469 0.026733 -0.17773 -0.5449 0.51249 -0.19353 0.0085229 -0.068593 0.31546 0.019693 -0.11889 -0.26994 0.10055 -0.41418 -0.37067 0.24928 0.13309 0.026267 0.10879 -0.033366 0.41401 0.090505 0.4705 -0.49599 0.19516 -0.18563 0.031069 0.1994 -0.18213 -0.0071314 0.18843 0.21286 -0.29786 -0.14048 0.022614 0.30351 0.07427 -0.29356 -0.24295 -0.067856 0.014709 0.0072799 0.22013 0.3692 0.20054 0.1862 -0.11878 0.058464 -0.054931 0.12466 -0.038582 0.1927 0.097811 
중|NNB -0.035328 -0.06545 -0.13066 0.033175 0.042587 -0.024963 0.022989 0.13642 -0.063502 -0.076647 0.10681 0.11841 -0.024567 0.050861 -0.087542 0.064236 0.042671 0.0043626 0.10454 -0.0073507 0.089326 0.069131 -0.10229 0.0019785 -0.065116 -0.072796 -0.05539 0.0025594 -0.038975 0.055118 -0.035862 0.010857 0.0093805 -0.038741 -0.022359 0.01671 0.16102 -0.14512 -0.023895 -0.055357 0.10198 0.1584 -0.020332 0.031452 0.025007 -0.027689 0.069518 -0.026166 -0.0044674 -0.057562 -0.052254 0.05125 -0.019142 0.11402 0.083777 -0.033379 0.04216 0.078145 -0.037486 -0.068662 -0.090982 -0.091285 0.14144 -0.1113 -0.14778 0.040201 -0.010909 0.071537 0.0031487 0.0022999 -0.13346 0.021305 -0.084327 0.11824 0.060368 -0.032209 -0.075606 0.089425 -0.051525 -0.0062925 -0.0092081 0.053224 0.14031 0.0096714 -0.098277 0.046956 0.052562 0.083899 0.023664 -0.041945 0.22619 0.04 -0.046512 -0.051029 -0.07261 -0.042565 0.033486 0.027978 0.10803 0.02632 
조회|NNG -0.089387 -0.36687 -0.15022 -0.023625 -0.1971 0.010189 0.027751 0.043212 -0.11213 -0.023981 0.10629 -0.11736 -0.28503 -0.1042 0.15341 0.20599 0.018753 -0.080433 -0.021143 0.051341 0.2053 0.28263 0.074176 -0.19279 2.7222e-05 -0.10522 0.014533 -0.29597 0.39197 0.10146 0.061088 0.09028 -0.084411 0.027946 0.38416 0.21562 0.030681 0.12201 0.12483 0.0070157 -0.26368 0.085845 0.040264 0.15778 -0.037763 -0.10721 -0.013112 0.080382 0.21255 0.047061 0.031269 0.052242 0.082698 0.056858 -0.07829 -0.070765 -0.036901 0.22593 -0.036567 0.079471 0.11012 -0.23168 0.04759 -0.22332 -0.19298 0.12481 -0.0201 -0.11438 0.011591 -0.078945 0.055123 -0.074122 -0.016665 -0.064375 -0.18653 -0.34421 -0.13987 -0.059997 -0.22449 0.090024 0.19552 -0.028959 -0.058174 0.25603 0.15426 0.22284 -0.0015016 -0.20848 0.024614 -0.067159 0.078358 -0.26683 -0.11969 0.12449 -0.20022 -0.10669 0.077937 -0.10646 0.062386 -0.058404 
