14 100
</s> -0.0039539 0.0065577 -0.0090459 0.0022691 -0.0017242 0.0041146 0.0021021 -0.00030187 -0.003756 -0.0061237 -0.0023361 0.0026181 0.0010303 0.0065383 -0.0017491 -0.0026652 0.0042377 -0.0014552 -0.0071406 -0.0016842 -0.0085708 0.0067129 0.0012634 0.0031529 -0.00081298 -0.0048382 -0.0025979 -0.0009073 -0.0014559 0.0068458 -0.0014481 -0.0024212 0.0023165 -0.0075852 -0.0048339 0.0016206 0.004134 -0.0011388 -0.0019945 -0.00088575 -0.0021093 0.0020182 0.00128 -0.0019717 -0.0021063 0.0035641 0.010743 0.0039387 -0.0024379 0.009113 -0.0081877 0.0060111 7.6123e-05 0.0064133 0.0045844 0.00083646 -0.0054416 0.0086693 -0.021104 -0.0030235 0.00557 0.010582 -0.0014802 0.0099589 -0.0086823 0.003956 0.0077481 0.016396 -0.011799 -0.010237 -0.023088 -0.011376 -0.01795 -0.0031329 -0.00097769 0.0032209 0.0025961 0.0032197 0.0018559 -0.0076792 0.0089562 0.011535 0.0010577 -0.00021166 0.011489 -0.023704 0.0031903 8.7557e-05 -0.015598 -0.012833 -0.028058 0.0060496 -0.0014932 0.006701 0.0069437 -0.0074978 0.0050632 0.0056895 -0.0062518 -0.0050748 
주문|NNG -0.05723 0.3918 -0.066734 -0.03906 -0.10113 0.31479 -0.21233 0.10772 -0.19457 -0.28246 -0.22997 0.082066 -0.27143 0.17151 -0.12048 -0.20901 0.25314 0.0039523 -0.34351 0.026854 -0.51001 0.49009 0.11964 0.20661 -0.30855 -0.24273 -0.37754 -0.089664 -0.070965 -0.018256 -0.027626 -0.0032731 0.32644 -0.48759 -0.088877 -0.024749 0.12346 0.25478 -0.17087 0.042714 -0.3764 0.13264 -0.014725 -0.20725 0.12571 0.21285 0.55096 0.2108 0.22946 0.50132 -0.19055 0.14323 0.28511 0.27072 -0.0050083 -0.013141 -0.13553 0.26625 -0.4258 -0.10416 0.1321 0.23723 -0.013825 0.090429 -0.11789 -0.059029 0.15504 0.25827 -0.29034 -0.11044 -0.40886 -0.23885 -0.38351 -0.18995 -0.13459 0.071342 -0.013922 -0.053345 0.013999 -0.12657 0.28553 0.26191 -0.012955 0.083014 0.20529 -0.36969 0.018587 -0.059967 -0.2583 -0.1335 -0.56254 0.1497 -0.11167 0.23204 0.15381 -0.12344 -0.0053056 0.1248 -0.12656 -0.047795 
주세요|NNP -0.054173 0.32768 -0.055614 -0.022256 -0.08908 0.25801 -0.1781 0.094036 -0.15428 -0.22889 -0.20201 0.071183 -0.2269 0.14441 -0.10033 -0.17131 0.21812 0.0076414 -0.28326 0.019774 -0.42889 0.40901 0.10567 0.16077 -0.25548 -0.20738 -0.30756 -0.074573 -0.063136 -0.012691 -0.01082 0.0016378 0.27463 -0.41107 -0.07022 -0.02728 0.11346 0.21746 -0.14702 0.034231 -0.30549 0.10963 0.00067955 -0.17964 0.10977 0.18172 0.44784 0.17637 0.18418 0.40886 -0.16014 0.11075 0.22845 0.22288 -0.0085649 -0.014002 -0.10738 0.22421 -0.35389 -0.079448 0.10355 0.2022 -0.010566 0.082287 -0.11032 -0.050651 0.11637 0.21435 -0.24134 -0.10363 -0.33877 -0.19556 -0.30871 -0.15839 -0.11167 0.054636 -0.015918 -0.033413 0.014617 -0.10469 0.22212 0.21767 -0.011885 0.071221 0.17167 -0.31231 0.021125 -0.055446 -0.19989 -0.10504 -0.4514 0.1161 -0.078271 0.189 0.12824 -0.094832 -0.013733 0.10388 -0.11321 -0.046713 
ㅁ|NNG 0.057099 -0.32439 0.063504 0.023788 0.090289 -0.26288 0.16674 -0.089357 0.16628 0.24279 0.1947 -0.072695 0.21965 -0.14829 0.09153 0.17609 -0.21303 -0.0064115 0.28725 -0.025994 0.43674 -0.40521 -0.10182 -0.174 0.2534 0.19587 0.31161 0.078576 0.055787 0.0021672 0.016084 0.010161 -0.27475 0.40918 0.080074 0.018951 -0.12037 -0.21657 0.14156 -0.038909 0.30518 -0.10483 0.0074207 0.17327 -0.10306 -0.18515 -0.46095 -0.17298 -0.18227 -0.412 0.15111 -0.12853 -0.23217 -0.22811 -0.0048577 0.012245 0.12279 -0.21689 0.36237 0.079941 -0.11753 -0.19436 0.02324 -0.085929 0.10597 0.041771 -0.1351 -0.23219 0.24718 0.099124 0.35034 0.19849 0.32791 0.15036 0.10104 -0.064852 0.011506 0.044265 -0.01539 0.10739 -0.23518 -0.21806 0.014644 -0.074101 -0.17207 0.31891 -0.0232 0.04054 0.21361 0.12011 0.47026 -0.12619 0.084156 -0.19347 -0.13509 0.10043 0.0043607 -0.10669 0.1078 0.050699 
라떼|NNG -0.023052 0.17296 -0.033003 -0.010211 -0.050803 0.12828 -0.097394 0.050485 -0.075751 -0.12228 -0.096381 0.044557 -0.1145 0.070562 -0.052377 -0.080154 0.10058 -0.002354 -0.13369 0.01591 -0.21614 0.20517 0.049427 0.079822 -0.13056 -0.097114 -0.1564 -0.03727 -0.020947 0.0023166 -0.015967 0.0067667 0.14071 -0.20122 -0.029744 -0.014311 0.054202 0.10192 -0.068244 0.014943 -0.15998 0.053208 -0.0073537 -0.083922 0.047849 0.08947 0.234 0.096318 0.088822 0.21677 -0.079924 0.051657 0.1126 0.11185 -0.00867 -0.0067909 -0.064672 0.10372 -0.18162 -0.040432 0.064467 0.097856 -0.016246 0.043157 -0.045587 -0.01663 0.070621 0.11417 -0.12342 -0.040395 -0.16844 -0.091326 -0.16452 -0.081521 -0.054078 0.032518 -0.00049943 -0.013119 -0.00067558 -0.040628 0.11506 0.10186 -0.0045494 0.02742 0.094834 -0.15137 0.0069347 -0.024279 -0.10152 -0.059319 -0.23986 0.060611 -0.036254 0.097248 0.064631 -0.043243 0.00605 0.059836 -0.056205 -0.013333 
asdfsadf|SL 0.045993 -0.32506 0.069585 0.022886 0.086406 -0.25813 0.16979 -0.087061 0.16235 0.23421 0.19765 -0.076517 0.22259 -0.14946 0.10405 0.16242 -0.20748 0.0047573 0.28086 -0.024028 0.42199 -0.40556 -0.094402 -0.17004 0.24573 0.20329 0.30508 0.078882 0.06662 0.00097469 0.021487 0.0044113 -0.25608 0.40605 0.075585 0.018407 -0.11494 -0.20419 0.14092 -0.034284 0.30485 -0.10009 -6.1196e-05 0.1689 -0.10444 -0.17251 -0.45416 -0.17405 -0.18687 -0.40944 0.16352 -0.121 -0.23265 -0.21859 0.0046118 0.0057891 0.1113 -0.22739 0.3501 0.072832 -0.10997 -0.19632 0.015528 -0.077696 0.11097 0.042237 -0.12829 -0.22688 0.24476 0.099765 0.34508 0.19831 0.32333 0.1536 0.10245 -0.054111 -0.00028073 0.029838 -0.018914 0.10235 -0.22457 -0.21942 -0.00016132 -0.058947 -0.17704 0.31507 -0.020781 0.042833 0.21491 0.12215 0.46251 -0.12478 0.080611 -0.18175 -0.13396 0.11096 0.0054843 -0.11216 0.11114 0.044495 
ㄴ|NNG 0.027915 -0.13624 0.029685 0.007311 0.027531 -0.11079 0.066026 -0.045211 0.063415 0.097841 0.083418 -0.025991 0.087388 -0.052182 0.048826 0.077787 -0.09033 -0.0018238 0.12212 -0.0066443 0.18009 -0.17781 -0.044322 -0.079769 0.099651 0.076741 0.1292 0.025303 0.029779 -0.0029575 -5.2152e-05 -0.0085983 -0.11571 0.16319 0.021062 0.0041548 -0.03768 -0.079482 0.064213 -0.020275 0.12276 -0.048916 0.0098557 0.064707 -0.034064 -0.075389 -0.19595 -0.081005 -0.080534 -0.17541 0.073955 -0.041033 -0.090375 -0.097457 -0.001111 0.0001107 0.041108 -0.083932 0.15373 0.034815 -0.046567 -0.090179 0.0094676 -0.039695 0.039952 0.020819 -0.049457 -0.096106 0.096356 0.040756 0.14827 0.085429 0.12297 0.063038 0.048987 -0.02226 0.0060068 0.0084332 -0.0030256 0.048637 -0.10328 -0.081004 0.0073959 -0.028346 -0.076566 0.13382 -0.016447 0.024256 0.088284 0.04863 0.20105 -0.044017 0.039828 -0.071893 -0.050847 0.045062 0.0047608 -0.038746 0.054038 0.017097 
ㅇㄻㄴㅇㄻㄴㅇㄹ|UNKNOWN 0.017154 -0.13673 0.034842 0.020095 0.041481 -0.1022 0.065245 -0.035678 0.075249 0.1039 0.073921 -0.0366 0.10013 -0.065191 0.040989 0.061448 -0.084559 0.0087891 0.12071 -0.010456 0.16942 -0.17343 -0.03303 -0.06083 0.11216 0.092271 0.13531 0.033306 0.017975 0.012723 0.015587 0.0040823 -0.11173 0.17585 0.024458 0.006095 -0.048875 -0.089968 0.067307 -0.008016 0.13734 -0.046006 -0.0015841 0.079393 -0.047747 -0.064461 -0.19157 -0.075669 -0.07734 -0.17756 0.070854 -0.044954 -0.1024 -0.087905 -0.0003643 -0.002503 0.053326 -0.10181 0.14547 0.028774 -0.038725 -0.075394 -0.0013198 -0.027304 0.045411 0.021783 -0.048781 -0.082186 0.10135 0.048629 0.13204 0.081773 0.13193 0.070186 0.043683 -0.022561 0.010717 0.020732 -0.010641 0.041274 -0.098119 -0.10033 0.0098762 -0.031028 -0.078136 0.12895 -0.0036192 0.021225 0.090113 0.049542 0.19889 -0.047419 0.039319 -0.083495 -0.048175 0.039595 -0.0054733 -0.03808 0.038771 0.0087962 
아메리카노|NNP -0.032462 0.16491 -0.029563 -0.019565 -0.048828 0.12712 -0.075735 0.051965 -0.07838 -0.10762 -0.099397 0.04321 -0.11463 0.061986 -0.041102 -0.077457 0.10053 -0.010484 -0.13403 0.0094061 -0.21322 0.21071 0.047826 0.078545 -0.12818 -0.089562 -0.16248 -0.043065 -0.020124 0.00020212 -0.013925 -0.0045117 0.13239 -0.20868 -0.026061 0.00013123 0.058165 0.10491 -0.073326 0.022951 -0.15176 0.049026 -0.011153 -0.087184 0.05136 0.082308 0.23223 0.078978 0.10293 0.20975 -0.078553 0.06388 0.12067 0.10226 0.0036961 -0.0022349 -0.063863 0.11324 -0.17671 -0.037288 0.055287 0.088106 -0.0051958 0.030472 -0.047177 -0.030515 0.061387 0.11532 -0.12053 -0.038918 -0.15658 -0.10636 -0.15646 -0.085966 -0.058839 0.033674 -0.013086 -0.02033 0.0044845 -0.041573 0.12299 0.099725 -0.014711 0.033594 0.086843 -0.15024 0.013268 -0.021622 -0.10192 -0.050822 -0.21988 0.063843 -0.047633 0.089249 0.067965 -0.052874 -0.0028459 0.052873 -0.058102 -0.0091544 
ㅇㄴㄻㄴㅇㄹ|UNKNOWN 0.021996 -0.19212 0.045707 0.01619 0.06023 -0.158 0.10699 -0.049957 0.093566 0.14119 0.10795 -0.052983 0.1381 -0.087092 0.048952 0.10461 -0.11604 0.0068443 0.1692 -0.0063691 0.24766 -0.23588 -0.050357 -0.10136 0.14785 0.12058 0.17752 0.038433 0.044771 0.01149 0.018181 -0.00018074 -0.15267 0.23732 0.039431 0.0079976 -0.059552 -0.11661 0.082408 -0.022176 0.18426 -0.061273 0.003192 0.096905 -0.052903 -0.10425 -0.27699 -0.10395 -0.10246 -0.24561 0.10075 -0.077101 -0.13643 -0.12583 -0.0045302 0.011556 0.057627 -0.12698 0.21747 0.052066 -0.062998 -0.10662 0.00155 -0.053676 0.061199 0.02207 -0.081978 -0.12884 0.14063 0.063507 0.20003 0.12369 0.18121 0.089009 0.056747 -0.036396 0.013677 0.016689 -0.0021518 0.053621 -0.1343 -0.13289 0.003066 -0.033705 -0.10909 0.19275 -0.0098018 0.030425 0.13268 0.071879 0.28021 -0.071178 0.054513 -0.11933 -0.086358 0.069315 0.0063081 -0.062199 0.071571 0.026791 
커피|NNG -0.028008 0.13001 -0.026183 -0.012668 -0.036524 0.094478 -0.073558 0.028835 -0.05538 -0.082583 -0.080388 0.026145 -0.086205 0.048715 -0.038844 -0.069264 0.083595 -0.0016764 -0.10404 0.0023738 -0.15523 0.14671 0.040471 0.058103 -0.092092 -0.081845 -0.1105 -0.020369 -0.019976 -0.0055575 -0.014987 0.0015949 0.099752 -0.16208 -0.030624 -0.0052019 0.033576 0.076459 -0.046702 0.018049 -0.1238 0.034068 0.0026224 -0.07046 0.03445 0.072409 0.16725 0.067854 0.06915 0.15823 -0.068333 0.047227 0.081413 0.091817 0.0018011 -0.010229 -0.036006 0.088003 -0.144 -0.038052 0.040634 0.07404 0.0011089 0.028044 -0.036006 -0.012444 0.055377 0.087927 -0.09766 -0.044116 -0.12162 -0.083643 -0.11662 -0.062095 -0.04916 0.022103 -0.0035363 -0.0084906 0.0064813 -0.031051 0.085991 0.077955 -0.0078847 0.022591 0.073741 -0.1228 0.0034186 -0.008692 -0.084191 -0.038679 -0.18245 0.042167 -0.027887 0.069574 0.049211 -0.028965 -0.00015715 0.04081 -0.049822 -0.020561 
할게요|XSV+EC -0.012723 0.13088 -0.016555 -0.0008987 -0.036062 0.09594 -0.073497 0.026408 -0.058512 -0.082514 -0.068444 0.023861 -0.079101 0.053242 -0.03855 -0.059487 0.089164 -0.010824 -0.11237 0.0098588 -0.16033 0.14748 0.03665 0.059506 -0.088832 -0.075209 -0.11901 -0.036362 -0.014193 0.00054243 -0.0079975 -0.0067661 0.10763 -0.14772 -0.028749 -0.010014 0.035951 0.078185 -0.057338 0.019974 -0.11895 0.044048 -0.0092105 -0.065196 0.034641 0.066867 0.17926 0.067148 0.067313 0.16578 -0.063423 0.049395 0.092225 0.081352 -0.002815 0.0011556 -0.045709 0.083651 -0.14444 -0.034081 0.051293 0.081074 -0.0090004 0.034928 -0.048776 -0.012215 0.04398 0.078207 -0.088508 -0.047376 -0.13431 -0.074737 -0.12331 -0.051406 -0.034836 0.029191 -0.0057269 -0.0088456 0.006546 -0.041593 0.087109 0.072556 -0.0041364 0.017978 0.068509 -0.1241 0.0023883 -0.021221 -0.084131 -0.046818 -0.18598 0.038118 -0.036642 0.073685 0.042368 -0.039143 0.0033473 0.042867 -0.039878 -0.017998 
받|VV -0.020911 0.12128 -0.015538 -0.011132 -0.025776 0.10299 -0.069954 0.026341 -0.055689 -0.085185 -0.065838 0.035023 -0.080346 0.05095 -0.034074 -0.064035 0.079138 0.005916 -0.099222 0.0020974 -0.14929 0.14086 0.033861 0.056911 -0.090699 -0.080282 -0.11666 -0.027039 -0.018228 -0.0095727 -0.0038163 -0.0020435 0.09235 -0.14407 -0.025575 -0.014583 0.037041 0.076091 -0.057845 0.01962 -0.12398 0.04882 -0.0013229 -0.059222 0.03818 0.067521 0.16172 0.065525 0.060179 0.14687 -0.050755 0.049109 0.087279 0.086323 -0.00081104 -0.011497 -0.04928 0.086602 -0.1299 -0.023787 0.047083 0.063889 -0.00074106 0.032708 -0.035445 -0.025004 0.043749 0.08497 -0.081642 -0.0342 -0.12053 -0.067797 -0.11521 -0.053417 -0.0374 0.027787 -0.0025907 -0.020573 0.012501 -0.030847 0.093992 0.081689 0.0040148 0.028837 0.056636 -0.11586 0.0012012 -0.011233 -0.075528 -0.033901 -0.17524 0.034937 -0.028113 0.072602 0.045322 -0.042932 -0.0097323 0.041777 -0.042014 -0.016708 
아|EC -0.011559 0.12969 -0.031871 -0.013515 -0.038242 0.092984 -0.066612 0.031603 -0.051219 -0.082147 -0.075066 0.028204 -0.085256 0.055352 -0.04189 -0.073713 0.072144 -0.0019313 -0.10971 0.016722 -0.15708 0.1554 0.035788 0.06663 -0.086163 -0.069005 -0.11826 -0.035051 -0.026482 -0.0097152 -0.016451 0.00044305 0.10436 -0.16097 -0.026264 -0.0013866 0.04681 0.081399 -0.062047 0.018824 -0.11478 0.034129 0.0039615 -0.065607 0.030243 0.075681 0.17668 0.069033 0.077237 0.16234 -0.054617 0.047602 0.087188 0.08213 -0.0069161 -0.0036478 -0.04598 0.088352 -0.14495 -0.028515 0.043206 0.079219 -0.010007 0.027635 -0.039774 -0.023219 0.049706 0.074883 -0.081684 -0.037167 -0.1336 -0.072348 -0.12194 -0.057956 -0.034955 0.018583 -0.01479 -0.018404 0.0025929 -0.042844 0.082216 0.088518 -0.0093205 0.026826 0.068658 -0.11398 -0.0015779 -0.008639 -0.079555 -0.048097 -0.17988 0.037715 -0.036122 0.078422 0.051415 -0.036076 -0.0054294 0.038588 -0.047013 -0.021371 
