23 100
</s> -0.0082994 0.0078322 -0.0062062 -0.0020398 0.0048702 0.0012078 0.0061913 0.00023425 0.0099017 0.0093322 -0.001479 0.00306 0.0092307 0.0071597 -0.0041195 -0.0017071 0.00029786 0.0057957 0.00088546 -0.0081274 -0.0013548 0.0068985 0.0054569 -0.0061628 0.0056073 -0.0063731 0.0015828 -0.0037174 -0.0017603 0.0098461 -0.0067216 -0.003303 -0.0084756 -0.0065095 -0.009254 -0.0006517 0.0034823 -0.0086659 -0.0022043 -0.006692 0.0098161 0.0074128 0.0034531 0.0017541 -0.0048997 0.0018609 -0.0045656 -0.0045904 -0.0080814 0.0026511 -0.0069745 0.0089772 -0.0091479 0.0047018 -0.00069006 -0.0055492 0.0014297 0.0020914 0.00396 0.0032937 -0.006527 0.0050299 0.0064983 0.0050619 -0.003619 0.00065102 -0.0070489 0.0058526 0.0082506 0.0058876 -0.0098118 0.00020106 -0.0040881 0.0011984 8.345e-05 -0.0037997 0.0096516 0.0092891 -0.0010287 -0.0039297 -0.0088758 0.0060384 0.0096762 -0.0089787 -0.0052039 -0.007906 0.00069594 0.00042814 -0.0034004 -0.0036472 0.0095572 0.0047017 0.0090723 -0.0090106 0.0014508 -0.0087831 0.0062326 0.0095837 -0.0054835 -0.0018726 
주문|NNG 0.0023809 0.0050911 0.0083198 -0.0092702 0.0066115 0.0080729 -0.0064802 0.0013357 -0.0034364 -0.0021086 -0.00070896 -0.0063346 -0.00485 0.002211 -0.0060699 -0.0071741 0.0033869 0.0060367 -0.0068821 -0.00057144 -0.0048854 0.0098796 0.0039752 0.006947 -0.0086124 -0.0061643 -0.0098371 -0.0012069 -0.0022077 -0.0072869 -0.0050154 -0.00077216 0.0039678 -0.0058629 -0.0063548 -0.0021121 -0.0071508 0.004313 -0.00053761 -0.0027656 -0.0099938 0.0094422 -0.0051481 0.0030856 0.008804 0.0019251 0.0080772 -0.0033694 -0.0039191 0.003508 -0.0010043 -0.0018194 0.0023661 0.0048901 -0.0090531 0.0035207 -0.009636 0.0006935 0.0087635 -0.0024391 -0.00015379 0.003515 0.0056838 0.0078736 0.0045424 -0.0035697 -0.0070953 -0.0052563 -0.0057615 -0.0056899 0.0015635 0.0050563 0.0058047 -0.0073312 -0.0023909 -0.002529 -0.0039096 0.002896 0.0064536 0.0056558 0.00048762 -0.0058168 0.0026805 0.0027913 0.0047789 0.0036071 -0.0020119 -0.0098583 -0.004743 0.007278 0.002884 0.0024876 0.0025207 0.0017913 0.0093301 0.0023093 -0.0006344 0.0024203 -0.0068241 -0.0071501 
하나|NR 0.0073002 -0.0080644 -0.00091569 -0.003485 0.00028719 -0.007327 -0.008605 -0.0094093 0.009671 0.009174 -0.0099597 -0.0024112 -0.0018852 -0.0059806 -0.0028765 0.004693 0.0025043 -0.0028642 -0.0076577 0.0032088 0.0070534 -0.0065366 -0.0064037 0.0026732 -0.00039519 -0.0013741 0.00508 -0.0094213 -0.0083591 0.0021604 -0.0082994 0.0078322 -0.0062062 -0.0020398 0.0048702 0.0012078 0.0061913 0.00023425 0.0099017 0.0093322 -0.001479 0.00306 0.0092307 0.0071597 -0.0041195 -0.0017071 0.00029786 0.0057957 0.00088546 -0.0081274 -0.0013548 0.0068985 0.0054569 -0.0061628 0.0056073 -0.0063731 0.0015828 -0.0037174 -0.0017603 0.0098461 -0.0067216 -0.003303 -0.0084756 -0.0065095 -0.009254 -0.0006517 0.0034823 -0.0086659 -0.0022043 -0.006692 0.0098161 0.0074128 0.0034531 0.0017541 -0.0048997 0.0018609 -0.0045656 -0.0045904 -0.0080814 0.0026511 -0.0069745 0.0089772 -0.0091479 0.0047018 -0.00069006 -0.0055492 0.0014297 0.0020914 0.00396 0.0032937 -0.006527 0.0050299 0.0064983 0.0050619 -0.003619 0.00065102 -0.0070489 0.0058526 0.0082506 0.0058876 
세요|NNG -0.0098118 0.00020106 -0.0040881 0.0011984 8.345e-05 -0.0037997 0.0096516 0.0092891 -0.0010287 -0.0039297 -0.0088758 0.0060384 0.0096762 -0.0089787 -0.0052039 -0.007906 0.00069594 0.00042814 -0.0034004 -0.0036472 0.0095572 0.0047017 0.0090723 -0.0090106 0.0014508 -0.0087831 0.0062326 0.0095837 -0.0054835 -0.0018726 0.0023809 0.0050911 0.0083198 -0.0092702 0.0066115 0.0080729 -0.0064802 0.0013357 -0.0034364 -0.0021086 -0.00070896 -0.0063346 -0.00485 0.002211 -0.0060699 -0.0071741 0.0033869 0.0060367 -0.0068821 -0.00057144 -0.0048854 0.0098796 0.0039752 0.006947 -0.0086124 -0.0061643 -0.0098371 -0.0012069 -0.0022077 -0.0072869 -0.0050154 -0.00077216 0.0039678 -0.0058629 -0.0063548 -0.0021121 -0.0071508 0.004313 -0.00053761 -0.0027656 -0.0099938 0.0094422 -0.0051481 0.0030856 0.008804 0.0019251 0.0080772 -0.0033694 -0.0039191 0.003508 -0.0010043 -0.0018194 0.0023661 0.0048901 -0.0090531 0.0035207 -0.009636 0.0006935 0.0087635 -0.0024391 -0.00015379 0.003515 0.0056838 0.0078736 0.0045424 -0.0035697 -0.0070953 -0.0052563 -0.0057615 -0.0056899 
주|NNBC 0.0015635 0.0050563 0.0058047 -0.0073312 -0.0023909 -0.002529 -0.0039096 0.002896 0.0064536 0.0056558 0.00048762 -0.0058168 0.0026805 0.0027913 0.0047789 0.0036071 -0.0020119 -0.0098583 -0.004743 0.007278 0.002884 0.0024876 0.0025207 0.0017913 0.0093301 0.0023093 -0.0006344 0.0024203 -0.0068241 -0.0071501 0.0073002 -0.0080644 -0.00091569 -0.003485 0.00028719 -0.007327 -0.008605 -0.0094093 0.009671 0.009174 -0.0099597 -0.0024112 -0.0018852 -0.0059806 -0.0028765 0.004693 0.0025043 -0.0028642 -0.0076577 0.0032088 0.0070534 -0.0065366 -0.0064037 0.0026732 -0.00039519 -0.0013741 0.00508 -0.0094213 -0.0083591 0.0021604 -0.0065987 0.0056645 -0.0024124 0.0059203 -0.0002595 -0.0075844 0.0023827 -0.0095315 0.0098034 0.0086645 0.007042 -0.0038801 0.0084613 0.0043195 0.001761 0.0065858 -0.0094043 0.0015914 -0.0082291 -0.0062548 0.0072904 0.0037971 0.00091386 -0.0023256 0.0012147 -0.0027463 -0.0068343 0.0025653 0.0064794 0.0096922 -0.0034431 0.0033939 -0.0069513 -0.003019 -0.008508 0.0086966 -0.0030355 -0.0073319 0.0055913 -0.0033841 
아메리카노|NNP 0.0096322 0.0048256 -0.0030939 -0.0064918 0.00020058 -0.0062782 0.0008688 0.00081925 -0.0061628 -0.0046977 -0.0039491 0.0079545 -0.0082958 -0.00059644 0.0086199 -0.0010984 -0.0071406 -0.0058172 -0.0020799 -0.0034126 -0.0030539 5.9782e-05 0.0029967 0.00012384 0.002762 -0.008698 -0.0040978 0.0017051 0.0065012 0.0017752 -0.0096237 -0.0095979 0.0018237 -0.0076032 -0.0098331 0.0024006 0.0093032 0.0085782 0.0079425 0.0021406 -0.0077517 0.0020768 0.0093525 -0.0079575 -0.00040786 -0.005812 -0.0086081 -0.0091437 0.0031992 0.0027055 0.0091143 -0.00059654 0.0081447 -0.0080213 -0.0070985 -0.0075662 0.0024651 0.0091675 -0.00096699 0.0062548 -0.0052381 0.00018225 0.0066395 -0.0085403 0.003223 0.0061457 -0.0029603 -0.0073287 0.0031273 0.0057828 0.0085821 -0.0026693 0.00029999 -0.005578 -0.0021398 -0.0043483 -0.0032262 0.0020733 -0.0037642 0.0088571 0.00022913 0.0097591 -0.0020495 0.003894 -0.0072247 -0.0023286 -0.0096741 0.0075861 0.0055845 -0.0045737 -3.0753e-05 0.0084557 -0.0020644 -0.0017257 -0.0027095 0.0057757 -0.0043015 -0.0013739 0.0089248 0.0044688 
따뜻|XR -0.0099876 0.0088843 -0.00029612 -0.0038288 0.007608 -0.0061497 0.0061543 0.0032613 0.0021617 -0.0029841 0.0079914 0.0063613 -0.0052678 -0.00021978 -0.0081062 -0.0029585 -0.0092721 -0.008613 0.007527 0.0051218 0.0096924 -0.00297 0.0013675 0.0057473 -0.00091525 0.0028606 -0.0041905 -0.00051269 -0.0015231 -0.0013799 -0.0068729 0.00011264 0.0016094 -0.0046625 0.0052182 0.004942 0.0021809 -0.004208 0.0029071 0.0013115 -0.0090248 -0.0016336 -0.0046389 -0.0044173 -0.00044215 -0.0027858 0.0059762 -0.0097166 0.00051407 0.004556 -0.004232 -0.0050249 -0.0049586 -0.0064173 0.0086602 -0.0053815 0.0087312 -0.0051593 -0.0036482 -0.0043002 0.0046004 -0.0061288 0.0081686 0.0030299 -0.0094256 -0.004654 -0.0072101 -0.0088187 0.0093419 0.008348 -0.0099194 0.0051776 0.0062295 -0.0019612 0.0042469 -0.00061401 -0.0049913 0.0042715 -0.0053155 -0.0035824 0.0041068 -0.0030732 -0.0028074 -0.0046536 0.0092096 0.0072519 0.00015993 -0.0088426 -0.0067182 -0.0056792 -0.0048981 0.0034967 0.0013814 -0.0061195 -0.0053893 0.0036234 -0.001426 0.00070275 0.0097051 0.0079967 
뽕|NNG -0.004437 0.0091799 0.007692 0.0014792 0.0076416 -0.0051213 0.00089357 -0.0026129 0.0026564 -0.0043822 -0.0040644 0.00069565 -0.0036292 0.0015115 -0.003178 0.00088059 0.0047485 0.0088479 -0.0052809 0.0095383 -0.00016466 -0.0099091 -0.0054269 0.00047143 -0.007762 -0.0019551 -0.0095532 -0.0059978 -0.0066131 -7.6081e-05 0.0094483 0.0022383 -0.0096408 0.0052624 0.0053009 0.0055827 0.0063032 0.0062289 -0.0042442 0.0079534 -0.00092363 0.0069317 -0.0074437 -0.0058947 -0.0020702 0.0033524 0.0042891 0.0062742 -0.0081199 0.0098811 0.00041913 -0.0049103 -0.00050499 -0.0048142 0.009143 0.0019531 -0.0011468 -0.0024423 0.0047519 -0.0023371 -0.0094355 0.00060317 0.0077356 0.0035951 0.00025035 0.008601 0.0089547 0.0078673 -0.0030862 0.0082108 -0.0066275 -0.0018849 0.0090288 -0.0069362 0.0043882 -0.003718 0.0020878 0.0012844 0.0097988 0.0090583 0.0086715 -0.0058948 0.007217 -0.0070319 0.0043523 -0.0063493 -0.0013023 0.0087512 0.0035495 -0.0056178 0.0071428 -0.0047266 0.0049593 -0.0078105 -0.00016544 0.0042186 0.00055953 0.004007 0.0096909 -0.0063258 
삐리|NNG -0.0021269 0.0009961 0.00545 0.006633 0.0017902 -0.0015224 -0.0098394 -0.00189 -0.00064625 -0.0017143 0.0053437 0.0096387 -0.0080743 0.00084106 -0.0058371 0.0015072 -0.0095112 -0.0036208 -0.0066232 -0.0018606 0.0049539 -0.0023165 -0.0080967 0.0024114 0.00093571 -0.0063364 -0.0014523 -0.0070609 -0.0016128 -0.0082968 -0.0099814 0.0083265 0.0045558 0.0092568 0.006412 0.0057754 0.0042315 0.0098919 0.0082426 -0.0094761 -0.0030129 -0.0054581 0.0070983 -0.0053297 -0.0071593 -0.0094378 -0.0089081 0.0020805 0.0062904 -0.0073173 -0.00046137 -0.0094549 -0.0029487 0.0036209 -0.0063729 0.0092909 -0.0012858 0.004231 0.0027154 0.0029302 0.0046906 -0.004831 -0.0025859 -0.0019937 -0.0071727 -0.007587 0.0082713 0.0086879 -0.00063934 -0.0030327 0.0014629 0.0025496 0.0080416 0.008374 -0.0056632 -0.0091787 -0.0060356 -0.0095749 0.0057711 0.0018341 0.0086521 0.0074627 0.0075621 0.005374 0.0079903 0.0069278 -0.0019032 0.007261 -0.00047236 -0.0014503 0.0019006 -0.0041931 -0.0027471 0.0095449 0.00086156 -0.001981 -0.0058152 -0.008228 0.0090129 0.0075219 
빠라|VA+EC -0.009879 -0.0072336 -0.0056557 0.0020582 -0.0086296 -0.005921 0.007513 -0.0085927 -0.0029732 0.0096265 0.0011602 0.00039016 0.00078893 0.0080197 -0.0011856 -0.0041222 -0.0047601 -0.0082639 -0.0050773 0.0064812 -0.0031974 0.0013289 0.0051752 0.0018407 0.009481 -0.0051688 -0.0052347 -0.009063 0.0096068 0.0073289 0.0040841 0.0022399 0.0069226 -0.001361 -0.0064779 0.0031716 -0.0088086 -0.0068172 -0.0064582 -0.0025096 0.0045808 -0.0024058 -0.0081723 0.0053487 -0.0075707 0.0045075 -0.0036687 -0.0048695 0.0029588 0.0093844 0.0031138 -0.0032121 -0.0039025 0.0039619 -0.007016 0.0073932 0.003929 -0.0046637 0.0011826 0.0032319 0.0092643 -0.00034887 0.0038122 -0.0029835 -0.0095988 -0.0025564 -0.0082624 -0.0083615 -0.0023256 0.0006045 0.0021018 0.005909 -0.0065917 0.0088071 0.0072398 0.0078032 -0.0042813 -0.0016344 0.0058401 0.0031749 0.0038922 -0.0098804 -0.0040066 -0.0097523 -0.0044761 -0.0073959 0.0018043 -0.0065897 0.0030025 -0.0064495 -0.0092473 -0.0091958 -0.0063525 -0.0052065 -0.0096662 -0.0051987 0.0086063 0.0071564 0.0058851 -0.0057189 
한가요|XSA+EC -0.0055033 -0.0058465 0.008705 -0.005915 0.0091843 -0.001624 -0.0072163 -0.0082874 -0.0036016 -0.004589 0.0082287 0.0088069 0.0062893 -0.0060425 -0.004197 -0.0051324 -0.0050697 0.0083349 0.008066 0.0025096 -0.0004763 -0.0096355 0.0032791 -0.0070806 -0.0035539 0.0022914 0.0040794 -0.0046574 -0.0037455 0.0015655 0.0071642 0.0046615 -0.0094 -0.0011561 0.0057203 0.0013034 0.0035475 -0.0058533 0.0024717 0.0077142 -0.0095417 0.0095182 0.0059009 -0.0022119 -0.0044495 0.0053429 -0.0093483 0.0051722 0.0011691 0.00085256 0.0099385 0.0069113 0.0058711 0.0065485 0.0045809 0.0015514 0.001397 0.0072521 0.0078496 -0.0010624 -0.0099752 0.0077687 0.0094078 0.0023424 0.005216 -0.0022994 0.0023086 -0.0034775 -0.0056765 0.0040318 0.0059828 0.0027226 -0.00053559 0.0095604 -0.0062124 0.0040829 -0.0085442 -0.007226 0.0050539 0.00024356 0.0093848 0.0040601 -0.0072649 0.0014945 0.0081695 -0.0042788 0.001619 0.0089746 0.0069538 0.0072403 -0.0037459 -0.0097747 -0.0067812 0.00067506 0.00043639 -0.00011604 -0.0056382 0.0015839 -0.0041858 -0.007377 
가능|NNG -0.0080495 0.0067328 0.00072214 0.0011654 0.0091157 0.0044284 0.0019525 -0.0094332 -0.0089719 -0.00088793 0.0015361 -4.9724e-05 8.2758e-05 -0.0028347 0.0073204 -0.00076292 0.0074624 -0.00031867 0.0027035 0.0013997 -0.00079916 -0.0022575 0.0063372 -0.0039402 -0.0088513 0.00069201 -0.0044202 -0.0076374 0.0086839 0.0066959 -0.0098387 0.0003552 0.0024591 0.0060776 -0.0015062 0.008772 1.7351e-05 -0.0014569 -0.00063098 0.0028353 -0.0017863 0.0038535 0.0043852 0.00069289 0.0084192 0.0045037 -0.0096801 -0.0076852 -0.0034364 -0.0013584 -0.0014968 -0.00083887 0.008969 0.0098008 0.0043512 0.006039 -0.0090433 0.0011713 0.0095085 0.0066611 -0.0073949 -0.0047001 0.0061533 -0.0042013 -0.00059739 -0.0085355 0.0014893 0.0089785 0.0044273 -0.00063701 -0.006774 -0.0055073 0.0072846 0.0091859 0.0080367 0.0081343 0.0079142 0.0014131 -0.0088015 0.0092305 0.0063922 0.0034848 -0.0023782 0.0074524 -0.00627 -0.0032585 -0.0025887 -0.0033297 0.0089782 0.0065399 0.0090804 -0.0029361 -0.0027347 0.0087706 -0.0044986 0.0093045 -0.002828 -0.0029519 -0.00040698 -0.0067444 
라지|NNG 0.0051273 0.0048862 -0.0057396 0.0035089 -0.0034503 -0.007746 0.0071484 -0.0095431 -0.00019982 -0.0035314 0.0073652 0.0051495 -0.0075083 0.0053096 0.0019049 0.0032551 0.0047554 0.0092628 0.0012531 0.0094381 -0.0090592 0.0010053 -0.00044063 0.0059919 0.00041725 0.0010016 0.0082579 0.0064455 -0.0051436 0.00035139 -0.0043792 -0.0098081 0.0083813 -0.0048937 -0.0060197 0.00046995 0.0034797 0.0021407 0.0029979 0.0017638 0.0077858 0.0035087 0.0053617 -0.0050532 0.0072538 -0.0039155 -0.0088372 0.0079186 -0.0074175 -0.0093631 -0.0080954 0.0054556 0.0015988 -0.0063508 -0.0069424 0.00036428 0.0075992 0.0066783 0.0028182 0.0094569 -0.0035448 0.0083268 -0.00425 -0.0089451 0.0096504 0.0041293 -0.0030656 -0.0098167 0.0055896 -0.0028572 -0.0044272 0.0093978 -0.00012386 -0.0052649 -0.0030619 0.0091786 -0.0091853 -0.0060347 0.0089613 0.0035657 -0.0050769 -0.0038608 -0.00016109 -0.0093143 0.0082262 0.0094393 0.0042462 0.0015652 -0.002688 0.006172 -0.009969 0.0072109 -0.0057403 -0.004572 0.00402 0.0096257 0.00038577 0.0031532 0.00040433 -0.0024602 
라떼|NNG -0.0050215 -0.0090968 -0.0081695 0.0044505 -0.0052655 -0.0023963 -0.0081802 0.0034675 0.0038174 0.0078044 -0.00076895 -0.0024249 0.0084188 -0.00063183 0.0027119 0.0021514 0.0045237 -0.0062817 -0.0088077 -0.0084497 0.0078177 0.0052816 0.0090235 0.0033438 0.0080455 0.007355 0.00045222 -0.0055201 -0.0077322 0.0082788 0.0024381 -0.009084 -0.0065973 -0.0060433 0.0038946 -0.0019646 0.0099406 -0.0092914 -0.0037148 -0.0036099 -0.0055799 -0.0075622 -0.0073966 0.0089567 0.0066505 -0.0084536 -0.003172 -0.0078983 0.0058794 0.0042496 -0.003499 -0.00032189 -0.0045785 0.0025748 0.0014359 0.003365 -0.0030253 -0.0070467 0.0083548 0.0058699 -0.0097984 0.007944 -0.0094261 -0.009903 0.0056173 0.003465 -0.0074783 0.0056788 0.0017113 -0.0039559 -0.0047329 0.0073169 0.0079815 -0.0066339 -0.001976 -0.0068704 0.0053998 -0.0071065 -0.0017955 -0.0091981 0.00020389 -0.0030066 -0.0072372 -0.002239 -0.00077851 -0.0027532 0.007148 -0.0085945 0.0094101 0.0059934 0.0011261 0.0083598 0.005384 -0.0070415 0.0052831 -0.00024265 -0.0082129 0.0047741 -0.0046873 0.0012356 
한|XSA+ETM 0.0018711 -0.0086087 0.0027416 -0.0069769 0.003644 -0.0082388 -0.00050302 0.0076958 -0.00056185 0.0090767 0.0096707 -0.0098182 -0.00085382 -0.0090571 -0.005524 0.0060898 -0.0091065 -0.0019956 -0.0032261 0.0098478 0.0088965 -0.0055233 -0.0092817 0.00052471 0.00060173 0.0011655 0.0026064 0.0024577 0.0015116 0.0059068 0.0081527 0.0038635 -0.0048875 -0.0017893 0.0058596 -0.0032953 -0.0014219 0.0025483 -0.0062398 0.0097623 -0.0091617 0.00017935 0.00899 0.00037151 0.0082859 -0.0060939 0.0077065 0.0051154 -0.00049628 0.0053257 -0.008871 -0.0087937 0.0054712 -0.0028097 -0.0094993 0.0072019 0.0079095 0.0057346 0.0038276 0.0064217 -0.003255 0.0062303 0.0080575 -0.0038725 -0.0012236 0.0025639 -0.0058244 -0.0074312 0.0095975 0.0081166 0.007343 -0.0017896 0.004434 -0.0040638 -0.0012954 -0.0026986 0.0073954 0.0075024 -0.002901 -0.0012357 0.0042856 0.00054676 -8.1416e-05 -0.0056209 0.0096691 -0.0015629 -0.0088809 -0.0019861 0.0093818 -0.0026517 0.0057462 -0.0080078 0.00089996 0.0032659 -0.0064195 0.0069551 -0.0096787 0.00622 0.0087075 0.0065714 
할께요|XSV+EF 0.00068739 0.0092773 -0.0061486 -0.0083179 -0.0016742 -0.0069857 -0.0090224 0.0027584 -0.0032464 0.0062788 -9.2259e-05 0.005367 -0.0061933 -0.0051772 -0.0081286 -0.0026729 0.0070955 -0.0041218 0.0067743 -0.0065936 -0.0099628 0.006653 -0.00088834 0.0085136 0.0028241 0.0015508 -0.0015371 0.0097838 0.0064852 -0.0089523 0.0039741 -0.00091612 0.0041966 -0.00065934 -0.0043186 -0.0088756 -0.0078162 -0.005839 0.0025809 -0.0046347 0.0090773 -0.0089099 0.0041026 -0.0027582 -0.0027458 0.0085817 0.0074284 -0.0015381 -0.0045692 -0.0041396 -0.0006188 0.00033791 0.0048282 0.0060126 -0.0043454 -0.0051741 0.0065427 0.0073759 0.0087213 0.0039345 -0.0070743 -0.0049008 0.0060832 0.0067481 -0.0013265 -0.0083575 -0.0020713 -0.0091497 0.0015422 -0.0063319 0.0073041 0.0049254 0.0051241 0.00074798 0.0059806 0.0038556 0.0061936 0.004522 0.0090553 0.0070995 -0.0061987 0.0016137 0.0045058 0.0090897 -0.0082769 0.006038 -0.0016303 -0.006456 0.0080258 0.0050439 -0.0097581 -0.0044672 -0.0013114 -0.0058836 -0.0072592 -0.001842 0.005026 -0.0071854 0.0040535 0.0092529 
해도|XSV+EC -0.0076795 -0.0092197 -0.0084221 0.0060393 0.0076289 0.0017556 0.00047979 -0.0065278 -0.00015458 0.0029623 0.0019045 -0.0051744 -0.0034434 0.0057212 -0.0059083 0.0084546 0.0033393 0.0016398 0.0093118 0.0053256 0.0096471 0.0014198 0.0046146 -0.0098818 -0.0088363 0.0080502 0.002085 0.00056983 0.0061982 0.0031082 -0.0094837 0.0082898 -0.0018015 -0.0031397 -0.00074865 -0.004612 -0.0089202 -0.0060216 0.0076778 0.0089228 -0.0070509 -0.0031213 0.00067055 -0.0055667 -0.004778 -0.0045619 0.0043758 -0.00066154 0.0045695 -0.0068442 0.0087126 -0.0081105 0.0041714 -0.0077212 0.005702 -0.0069736 0.0080408 0.0078674 0.0034302 -0.0014421 -0.0088218 0.0028407 -0.0040354 -0.0070875 -0.0048304 0.0011555 -0.0099922 -0.0053603 0.0077202 0.003056 -0.0056887 -0.0047908 0.0054884 -0.0045666 -0.0053331 0.0045572 -0.0093424 0.00096794 -0.0022457 0.0012134 -0.0086828 0.0014074 -0.0086169 0.0083887 0.00058415 -0.0065977 0.007561 0.0050237 -0.0072011 -0.0075081 -0.0021308 0.0022687 0.0077338 -0.0028512 0.0035725 0.0046579 0.0048716 0.002997 -0.0038029 -0.0055307 
되|VV 0.0069002 -0.0070879 0.0035063 -0.0030745 -0.0098447 -0.0014816 0.003628 0.0070861 0.0016156 0.0068917 -0.0033335 -0.0043621 -0.0017617 -0.0048911 0.0062806 -0.00349 -0.0053611 0.0093496 -0.0040545 0.0052397 -0.0049627 -0.0043424 0.00605 -0.0045231 -0.0024895 0.009781 0.0037082 0.0022567 -0.0081746 -0.0040001 0.005802 0.0091569 0.0078266 0.0086291 -0.00028662 -0.0031499 -0.0088595 -0.0084486 0.0045458 0.008992 0.0048924 -0.0054051 0.0077745 -0.0010401 -0.0044834 0.005215 0.0099447 -0.0098088 -0.0037633 0.00064079 -0.0099566 0.0060952 0.0039636 0.0015992 0.0016281 -0.006524 -0.0034599 -0.0035856 -0.0074339 0.0045557 -0.0070302 0.0072645 -0.0034373 -0.0057692 -0.0033717 0.0046451 -0.0074523 0.0048545 0.0013443 0.0029262 -0.0010765 0.0046051 -0.00021365 -0.0048846 -0.0082034 -0.004988 -0.0096668 0.0032056 -0.00033078 0.00017046 -0.0090553 -0.0046058 0.00063288 0.0086814 0.0032637 0.0022969 -0.0073669 0.00027186 0.0051749 -0.00040974 0.0034133 -0.00071758 -0.0012363 -0.00046055 -0.0065475 0.0052496 0.0059168 -0.009008 0.0067993 -0.0090539 
스몰|NNP 0.00018814 -0.002587 -0.0023552 -0.0074607 0.0053108 -0.0038351 -0.0044408 -0.0030577 -0.0077688 0.0099494 -0.0088985 0.0035494 -0.0064098 -0.0043953 0.0020103 0.008711 -0.00023535 -0.0058654 0.0076968 0.0042179 -0.0097177 0.0031216 0.0068034 -0.0018641 -0.00013577 -0.007149 -0.0024696 -4.9659e-05 0.0063958 0.0024617 0.0093739 -0.0057563 -0.0048258 -0.0012874 -0.0027663 -0.0096185 -0.0044402 -0.0059491 0.0014863 -0.0048773 0.0036052 -0.0073422 0.00035036 -0.0063187 0.008962 -0.00033761 -0.00046934 -0.008126 0.0092135 0.0046578 -0.0018319 -0.0055202 0.0038453 0.007278 -0.0029558 -0.0036569 -0.0076171 -0.0036345 -0.0029164 0.0049808 -0.00083848 0.0051884 -0.0063446 0.00069743 -0.0051413 -0.00098509 0.0026626 0.00026103 -0.0040825 0.0087689 -0.0037724 0.0035757 0.0021949 -0.0020762 -0.004032 0.0047864 -0.002142 0.00067252 -0.0076348 -0.0035362 0.0085287 0.0093023 -0.0023756 0.0040329 -0.0091977 0.0048873 -0.0065248 -0.006723 0.0053488 -0.008791 -0.0057964 0.001818 -0.0031833 0.0076143 0.0044795 0.0056063 0.0014375 0.0067311 0.0016803 -0.0036503 
나요|EC -0.0022156 -0.0097609 0.0019867 -0.0095047 0.0010479 -0.0047918 -0.0063913 -0.0031795 -0.003995 -0.002899 -0.0084947 -0.0083915 -0.002705 -0.00041297 -0.0093324 -0.0003974 0.0072126 0.0043128 0.0017702 -0.0014378 -0.0010067 -0.0016929 0.00741 -0.00183 0.0083686 0.0067519 -0.0044325 -0.0065749 0.0027967 0.00082209 0.0064573 0.0076138 0.0025787 -0.0020851 0.0016061 -0.00026473 -0.00013944 0.0066698 0.0061321 -0.0049809 0.0090474 -0.009271 -0.0034419 -0.0041612 0.0028922 -0.0054171 -0.0018412 0.00068525 0.0025091 -0.0068689 0.0043283 -0.00067706 -0.0088 0.0076879 0.0014406 -0.0073932 -0.0029049 -0.0017066 -0.0050567 0.0054285 -0.0090835 0.0090364 0.0018018 0.0055762 0.001101 0.00068578 -0.0086965 0.00034449 -0.0076619 -0.0082949 0.009877 0.0038227 0.0017423 0.0030971 -0.00083812 -0.0068972 -0.007206 0.0045042 0.0056991 0.0078752 -0.0099504 0.0055374 0.0088155 -0.0053152 0.00043208 0.0054011 -0.0053828 0.003045 -0.0013531 -0.0019363 0.0019655 -0.0045548 0.0089288 0.0091209 -0.0024248 -0.0018342 -0.0070883 -0.004452 0.00010781 -0.0095129 
아이스|NNP 0.0087697 -0.0018799 -0.0045299 -0.0070109 0.006339 0.0014423 -0.0067621 0.0079492 0.0039077 0.0044805 0.0025083 -0.0095494 -0.0035624 -0.0086499 -0.0091272 0.0097679 -0.0012765 -0.0068322 0.0016284 -0.004754 -0.006099 0.0034656 -0.0085557 -0.0076692 0.0082314 -0.0011433 -0.006095 -0.0088663 -0.0079437 0.0082241 -0.0069278 0.0099006 -0.0098345 0.0043306 0.0046409 0.0084742 0.0049248 0.0093627 -0.0045929 -0.0072007 0.0084017 0.005485 0.0026745 0.0021196 -0.0077025 -0.008616 0.0011596 -0.0052747 0.0073677 0.0033918 -0.0096774 -0.0092896 -0.0050818 0.0021553 0.0069877 0.007544 -0.0099653 0.0070861 0.008738 -0.0043294 0.0064273 -0.0022929 -0.0012295 -0.0086142 0.0068385 -0.00099257 -0.0093603 -0.0053705 0.0031272 0.0072831 0.0053058 -0.00951 0.0041442 0.0016415 0.0038322 -0.0091298 -0.004278 0.0021083 0.0091152 0.00399 0.0066891 0.0075398 0.003076 0.0044377 0.0029247 0.004636 0.0026807 -0.0078388 0.0079691 0.0068534 0.0078067 0.0020869 0.0091124 0.0045346 -0.009534 0.0026418 -0.0057545 0.0065437 0.0041572 0.008615 
주세요|NNP -0.00049397 -0.0097273 0.0037193 0.0014143 -0.003286 -0.0058653 -0.0086597 0.0020066 0.00016085 -0.00022824 0.0083448 0.006715 -0.0089225 -0.0042129 -0.0040974 -0.0032518 -0.0010904 -0.0013134 0.0072674 0.0038601 -0.0027709 0.00079525 -0.0023312 0.002316 -0.0062105 -0.0099429 -0.0071328 -0.0011775 -0.0043597 0.0096434 0.0012574 0.005269 -0.001515 0.0055573 0.0074289 0.0058592 -0.0034403 -0.0073269 -0.0057444 -0.0070114 -0.0083065 0.0018095 0.0032069 -0.0092146 0.00075105 0.0058029 0.0068642 0.003602 -0.0092586 0.0046325 0.00011751 -0.0056546 0.0070863 -0.00080874 -0.0068354 0.0088459 0.0062634 0.0038533 0.0093963 0.0071749 0.0060145 0.0023156 0.001651 -0.0010957 -0.0069432 0.00095217 -0.0039069 0.0062536 -0.0093514 0.0031465 0.0014283 0.0058201 -0.0051221 -0.0034314 -0.00049632 -0.0073443 0.0016786 -0.0079791 0.0090727 0.0010225 -0.0063806 0.0029883 -0.0036501 -0.00010115 0.0053707 -0.0045673 -0.0095181 -0.00567 -0.0019387 -0.005143 -0.0039689 0.008916 -0.0042229 0.0025232 0.0024886 0.0045215 -0.0085336 0.0091375 0.00013037 -0.0055817 
아아|IC -0.0051384 -0.0069495 -0.00429 0.0072342 0.0028071 0.0009907 -0.0043568 -0.0011827 -0.0048385 -0.0048904 -0.0099442 0.0049796 -0.0063325 0.0077703 -0.00076391 -0.0026737 -0.0073056 0.0096757 0.0047278 -0.0084284 -0.0090388 0.0036258 0.0012949 0.004011 -0.0014779 -0.0083134 -0.0067244 0.0062415 -0.0011287 -0.001952 -0.0013841 -0.0083649 -0.0088461 -0.0091373 0.00088136 0.0078726 -0.0038573 -0.0073071 0.0081461 0.0087906 -0.0059282 0.0055069 -0.0077577 -0.0059811 -0.0015181 -0.0027611 0.004814 0.0060638 -0.001918 -0.0090982 0.0043886 0.0076488 0.0041248 0.0051221 0.0030103 -0.0075362 0.0018931 -0.0087246 -0.0026867 0.0055022 0.0059562 0.0023881 0.0026862 -0.003878 0.003971 0.00078343 -0.0057096 0.001783 -0.0014171 -0.0043508 0.0057019 0.0074206 -0.0082412 0.0086346 0.0025847 -0.005943 0.0025545 -0.0046841 0.0070387 0.0025658 -0.0096371 -0.0017008 0.003033 0.0061747 -0.0058889 0.002237 0.002539 -0.0057781 -0.0089197 0.0088794 0.0034807 0.0011705 0.0023668 0.004059 -0.0035567 0.0076334 0.0057197 -0.0047918 0.0047681 -0.0005565 
