254 100
</s> -0.20158 0.26414 -0.18462 -0.013337 -0.019784 0.22699 0.17247 -0.26913 0.28011 0.27655 0.38686 -0.32582 0.36102 0.073398 -0.049586 0.1445 0.12774 0.16622 0.18136 -0.21127 -0.047946 -0.031621 0.19447 -0.37249 0.13321 -0.36064 0.15974 -0.3306 0.14642 0.22348 -0.43864 0.15457 -0.12768 0.16649 -0.37579 0.042186 0.18741 -0.30938 -0.26266 0.21439 -0.046981 0.36042 -0.057995 -0.13941 -0.46938 0.39404 -0.42252 -0.18355 -0.19584 0.031982 0.10755 0.0044603 0.10701 -0.022053 -0.24141 -0.55227 -0.013793 -0.49554 0.10819 0.13342 -0.21794 0.084806 -0.015352 0.36602 0.040371 -0.045112 -0.20225 0.29237 0.55797 -0.056337 0.4317 -0.070674 -0.22733 -0.029226 -0.16032 -0.22469 0.37922 -0.018774 0.20109 0.029778 0.042102 0.057419 -0.054356 -0.61058 -0.47095 -0.3685 -0.26592 -0.21155 -0.043004 -0.031298 0.15762 -0.28675 0.030416 -0.51341 0.44622 -0.20137 0.3443 0.45735 -0.15272 0.16616 
안|MAG -0.19477 0.18516 -0.3981 -0.10968 0.044593 0.17461 -0.24082 -0.68669 0.47638 -0.10208 0.29918 0.02271 0.27015 -0.02895 0.0074096 -0.28004 -0.27186 0.1034 -0.17366 -0.0028188 0.13107 -0.33717 0.26892 -0.021477 0.17888 -0.090923 -0.69601 0.1373 -0.19362 0.10596 -0.090674 -0.54267 -0.026307 -0.21606 -0.27809 -0.098719 -0.23922 -0.53175 0.20591 -0.21966 0.68717 0.28538 0.024948 0.064966 -0.28702 0.18188 0.26203 0.097529 0.030351 0.053409 -0.31212 -0.40948 0.16281 -0.15565 -0.24994 0.17499 -0.43422 0.18892 -0.14027 -0.35967 0.40421 0.046206 0.30015 -0.1042 0.023239 0.35596 -0.20493 -0.095184 0.13855 -0.32294 -0.0039375 0.43703 0.20412 -0.28824 0.029952 -0.08276 -0.25128 0.50383 -0.10677 -0.41817 0.039228 -0.13828 0.14946 0.30003 0.12195 -0.22557 -0.37358 0.097256 0.13908 0.15711 0.40503 0.47313 -0.31976 -0.34307 -0.19999 0.3589 0.23116 -0.15799 -0.3557 0.40751 
어요|EF -0.089005 0.096537 -0.18795 0.22839 -0.17037 0.096147 0.095605 -0.44817 0.47221 0.02756 0.1052 -0.23429 0.18841 0.012954 -0.041209 0.037451 0.060279 0.066247 -0.094164 0.099439 -0.091523 0.047393 0.0017067 -0.028539 0.18352 -0.03995 -0.17167 -0.10797 0.0048894 0.32279 -0.39877 -0.24148 -0.14257 -0.025287 -0.19651 0.096075 -0.060805 -0.18184 -0.062169 0.012642 0.20857 0.238 0.099631 -0.24907 -0.17667 0.19287 -0.28658 -0.17186 -0.26232 -0.09627 0.27593 -0.17632 0.14654 -0.10192 -0.27379 -0.18347 -0.40072 -0.16261 0.23359 -0.015044 0.25967 0.071874 -0.01245 0.23854 -0.019131 0.17364 -0.29167 -0.28308 0.24867 0.033384 0.092938 0.27309 -0.26338 -0.41254 -0.40885 -0.081219 0.20702 0.30638 -0.061133 -0.21782 0.042594 0.010829 0.048057 -0.080509 -0.19664 -0.61963 0.069302 -0.021517 0.014836 0.10539 0.047129 -0.0014271 -0.010429 -0.62675 0.12735 0.19617 0.12275 -0.072708 -0.24226 0.18421 
나요|EC 0.077776 0.035829 -0.41401 -0.16113 0.48328 0.17888 -0.16559 -0.31619 0.32036 0.078104 -0.19245 0.3718 -0.089112 0.31632 -0.14587 -0.25228 -0.31595 -0.18102 -0.092124 -0.076642 0.19811 -0.13402 0.41869 0.071887 -0.18405 -0.030364 -0.075224 0.048179 -0.24504 0.11117 0.31821 -0.025822 -0.10136 -0.56277 0.0074439 -0.10528 -0.12586 -0.4917 0.018771 -0.29482 0.3209 0.009673 0.4215 0.46052 0.34213 -0.26725 0.58606 0.10909 0.1253 0.46734 -0.75864 -0.2513 -0.23537 -0.023324 0.06932 0.43561 0.065162 0.31466 -0.060935 -0.34604 -0.32416 -0.051293 0.57406 0.071672 -0.17829 -0.021247 -0.53758 0.3144 -0.35786 0.15623 -0.20153 0.45725 0.55221 0.099085 0.18694 0.084381 -0.066969 0.73626 0.1902 -0.0064454 0.28361 0.18056 0.15682 0.32531 0.47628 0.41217 -0.10162 0.16275 -0.24194 -0.48755 0.21905 0.5417 0.078796 0.15919 -0.63782 -0.36105 -0.1603 -0.097437 -0.29547 -0.11011 
요금제|NNP 0.58099 -0.11921 0.34576 -0.85553 1.0064 -0.092689 -0.057929 -0.36846 -1.3489 -0.05539 -0.24216 0.5397 -1.0982 0.24859 0.73892 0.44749 -0.049845 0.54032 0.12186 0.44865 0.15727 -0.046543 0.084834 -0.24545 0.59029 -0.047112 -0.17058 0.18175 0.54522 0.46755 0.46665 -0.0091677 -0.50666 0.3027 0.12638 0.36341 -0.15826 0.22972 0.17137 0.10383 -0.56585 -0.2401 0.20206 -0.13215 0.21499 -1.2374 0.79882 0.41259 0.57667 0.13567 0.36319 -0.14484 -0.073789 0.37747 0.70476 1.1715 0.40292 0.32135 -0.68681 0.018523 -0.33714 -0.0088072 -0.98106 -0.60683 0.56758 -0.54234 0.41165 0.1735 -0.68836 0.59706 -0.87364 -0.90166 -0.38188 1.3666 0.55242 0.5383 -0.99828 -0.44822 0.10997 0.85246 -0.082459 -0.14669 -0.12481 -0.13316 0.82677 1.2119 0.26188 0.1847 -0.34303 -0.42231 0.20258 -0.32261 -0.52531 1.0773 0.17087 0.18283 -0.087341 -0.39843 0.40133 -0.41187 
고|EC -0.067222 0.63413 0.12652 0.0085955 0.19636 0.092461 0.12612 -0.10067 0.053014 0.66609 -0.28902 -0.26365 -0.059411 0.14193 -0.034635 0.2771 0.13592 -0.13018 0.19724 -0.50094 0.31633 0.26948 -0.014896 -0.22014 -0.35252 -0.2874 0.20663 0.24804 -0.54307 0.029868 -0.16251 0.57741 0.092719 -0.041036 0.33593 0.032915 -0.35813 0.0023418 -0.23922 -0.084358 -0.31533 0.21047 -0.48894 0.60041 0.11245 -0.23298 0.14601 0.00065884 -0.11375 0.41284 -0.5955 0.17659 -0.47467 0.32213 0.00064019 -0.13307 0.33536 0.41646 0.21216 0.15165 -0.8966 0.1304 -0.1033 0.063671 0.50371 -0.40981 0.0043399 0.29587 -0.04599 0.28648 -0.06104 -0.36397 -0.01652 -0.14076 -0.15369 0.060331 0.14234 -0.081752 0.24617 -0.17269 0.046362 0.27565 -0.15243 0.032374 0.089118 0.28083 0.21055 -0.14588 -0.012675 -0.59825 -0.016227 -0.1093 0.09589 -0.32819 0.047226 -0.51918 -0.34409 0.42827 0.046913 -0.079134 
바로|MAG 0.37714 -0.34184 0.30642 -0.3343 0.13868 0.10209 0.20336 0.047377 -1.1032 -0.44807 0.082245 0.51287 -0.74978 -0.2056 0.44042 0.2042 -0.40588 0.22299 -0.028685 0.6208 0.10989 0.014592 -0.46048 0.14228 0.60511 0.31027 -0.44244 0.51982 0.31794 0.03915 0.32426 -0.42902 0.0422 0.64926 0.6179 0.39628 0.012001 0.6265 0.37059 0.12431 0.046906 -0.26703 0.084052 -0.27369 0.18728 -0.72954 0.34085 0.15476 0.49733 -0.32157 0.37377 -0.29847 0.22365 0.15745 0.80564 0.97908 0.24201 0.17625 -0.33174 -0.25559 0.35016 -0.23603 -0.90663 -0.67863 0.34397 -0.092896 0.24905 -0.38072 -0.57981 0.38376 -0.48255 -0.3708 -0.15527 0.60387 0.2377 0.18067 -0.77762 -0.62604 -0.35331 0.60322 -0.072597 -0.33299 -0.019361 0.14883 0.21088 0.26826 -0.087896 0.24701 0.012665 -0.11117 -0.065187 -0.16329 -0.52289 0.79024 0.18224 0.67425 -0.052409 -0.65755 0.43672 -0.17377 
가능|NNG -0.030184 0.29808 -0.54099 -0.026197 0.10931 0.30495 -0.068133 -0.55728 0.5086 -0.1221 0.089309 0.22703 0.10326 0.15669 -0.14567 -0.28061 -0.44592 -0.20794 -0.16599 -0.036287 0.20008 -0.1299 0.056618 0.26962 -0.13303 0.11015 -0.40231 0.32071 -0.48177 0.03318 0.09914 -0.31835 0.14194 -0.56019 0.18154 -0.042902 -0.13358 -0.6451 0.22019 -0.30573 0.857 0.25312 0.15966 0.35367 0.017787 0.079541 0.43054 -0.052942 0.18621 0.29793 -0.71875 -0.44947 -0.12298 -0.11539 -0.021461 0.31393 -0.26223 0.42886 0.087171 -0.51859 0.25806 -0.18115 0.64793 0.042952 -0.036175 0.18435 -0.52525 0.074903 -0.21771 -0.14608 0.030846 0.76049 0.56397 -0.39207 -0.06936 0.0043707 -0.038904 0.72206 -0.037943 -0.35232 0.31991 0.07246 0.18584 0.59407 0.28955 -0.059017 -0.14946 0.024027 -0.069417 -0.30526 0.19563 0.60006 -0.085519 -0.1823 -0.50105 0.030709 -0.10968 -0.35907 -0.33516 0.065246 
로밍|NNG 0.31806 -0.20617 -0.22652 -0.25339 0.75556 -0.51814 -0.43728 1.0457 -0.81592 -0.22207 -1.0993 0.27905 -0.63607 0.60626 -0.22688 -0.5153 0.30314 0.082971 0.76942 0.10154 -0.44993 -0.054178 0.65217 -0.58874 -0.032251 -0.36718 1.1479 -0.74466 0.93144 0.066806 0.55428 0.62385 0.042189 -0.55014 -0.42098 -0.16623 0.93716 0.04154 0.067431 0.50505 -0.36864 -0.63662 0.68964 0.19047 1.1222 -0.51138 0.72993 0.32372 -0.0019052 1.1038 -0.53637 0.37565 -0.62682 0.7538 0.30403 0.070735 0.41326 -0.45869 -0.13014 0.26722 -0.82363 0.18548 1.0273 0.54974 -1.0148 -0.74953 0.41082 -0.024475 -0.73734 -0.071747 -0.083386 -0.29076 0.82882 1.3876 0.82266 0.7769 -0.077298 0.65133 0.60743 0.93379 0.02782 -0.12791 0.11646 -0.63803 1.1914 1.0671 0.37814 0.035754 -0.66741 -0.41075 0.036893 -0.36568 0.32342 1.1507 -0.51221 -1.1198 0.011725 0.47778 0.4285 -0.78208 
주|VX -0.17485 0.22996 -0.30457 0.11495 0.10593 -0.028549 -0.12293 0.0056258 0.28853 0.13921 -0.14377 -0.097345 0.050208 0.17821 -0.28456 -0.22478 0.12981 -0.084336 0.13964 -0.12642 -0.08174 0.020491 0.3091 -0.1739 -0.29895 -0.11562 0.39006 -0.19064 0.0090908 0.055288 0.18409 -0.077382 -0.011469 -0.41024 -0.33574 -0.21323 0.053571 -0.28117 0.010629 0.064639 -0.041516 0.14474 0.076274 0.39295 0.18968 0.1959 0.15508 0.13969 -0.19851 0.33552 -0.30819 0.23748 -0.20174 -0.027825 -0.10135 -0.39091 -0.14959 -0.013703 0.11497 0.14683 -0.025414 0.11818 0.70648 0.28865 -0.30862 -0.064668 0.12231 0.056646 -0.0051969 -0.14746 0.099997 0.085761 0.42109 0.14885 0.035267 0.2189 0.14075 0.15216 0.15754 -0.077473 -0.059183 0.053369 0.060434 -0.0035097 0.20234 0.064471 0.01097 0.087287 -0.15307 0.21182 0.13455 0.18631 0.41747 -0.018855 -0.22343 -0.52968 0.12544 0.42015 0.049453 -0.073244 
세요|EP+EF -0.16124 0.23289 -0.31264 0.11593 0.11678 -0.034265 -0.12947 0.0032023 0.292 0.14378 -0.1282 -0.091673 0.043802 0.18843 -0.27924 -0.22176 0.13334 -0.081342 0.14606 -0.11583 -0.074503 0.021972 0.31617 -0.17979 -0.29493 -0.123 0.39054 -0.18635 -0.00033673 0.063855 0.19123 -0.078036 -0.016182 -0.40799 -0.32503 -0.21951 0.05907 -0.29048 0.0086295 0.055379 -0.049566 0.13686 0.069516 0.38615 0.19759 0.20547 0.14762 0.14705 -0.20433 0.33778 -0.31692 0.24116 -0.19659 -0.02673 -0.10354 -0.40266 -0.1514 -0.013415 0.11216 0.14226 -0.014621 0.12156 0.71038 0.29047 -0.30882 -0.0481 0.12963 0.048321 -0.0063798 -0.14263 0.10538 0.10013 0.42553 0.13539 0.032545 0.21133 0.14424 0.15867 0.15519 -0.08138 -0.070504 0.06534 0.051258 0.0026347 0.21868 0.056234 0.01704 0.082739 -0.15882 0.2095 0.12701 0.18188 0.41464 -0.022098 -0.22408 -0.53571 0.13986 0.41637 0.048982 -0.059495 
다른|MM 0.23132 0.8689 -0.59173 0.52833 -0.0073962 0.21373 0.28323 -0.35805 0.64209 0.45903 -0.31943 -0.31094 -0.066131 0.14487 -0.5404 0.14964 -0.21576 -0.83523 0.41694 -0.51975 0.36165 0.0779 0.062002 0.10575 -1.0419 0.010585 0.84521 0.062925 -0.6499 0.26369 0.28038 0.32138 -0.17481 -1.3322 0.46394 -0.068562 -0.24292 -0.65869 -0.18095 -0.00034099 0.35492 0.59156 0.11215 0.87376 0.50017 0.26473 -0.13272 -0.10481 -0.28539 0.90342 -1.2794 -0.092856 -0.74833 -0.5701 -0.27865 -0.41342 -0.27377 -0.077572 0.69836 0.092528 -0.0054706 0.092727 1.0282 0.85158 -0.28078 -0.031507 -0.61329 0.32796 -0.36034 0.17218 0.32152 0.65713 0.85722 -0.31814 -0.68474 0.31871 0.81821 0.67331 0.24038 -0.66224 0.38655 0.58784 -0.084046 0.29361 0.39288 -0.15582 0.72215 0.21501 -0.40027 -0.52847 -0.36538 0.55812 1.1031 -0.52795 -0.67812 -0.92835 -0.52144 0.19992 -0.33508 -0.40634 
없|VA -0.0036655 -0.44554 -0.40808 -0.1799 0.23972 0.30677 -0.010062 -0.51792 0.55969 -0.12571 0.25807 0.45264 0.22581 0.22491 0.00072133 -0.28613 -0.22734 0.17529 -0.46871 0.25285 -0.058202 -0.070713 0.27181 0.31253 0.35054 0.16241 -0.431 -0.065056 0.0493 0.2761 -0.094282 -0.3962 -0.14071 -0.09753 -0.1497 0.11986 0.12547 -0.43718 -0.05908 -0.34024 0.49598 -0.023864 0.63471 -0.20639 -0.14709 -0.20468 0.1982 -0.1323 0.125 -0.15313 0.10169 -0.40648 0.25132 -0.037058 0.10473 0.46292 -0.079207 0.19365 -0.16237 -0.46939 0.027047 -0.20724 0.12459 -0.070166 -0.07741 0.28839 -0.86654 0.111 0.068534 0.19271 -0.19193 0.67974 0.00096538 -0.23375 0.071774 -0.40925 -0.030117 0.79777 -0.0054392 0.10695 0.23702 0.081763 0.20269 0.20262 0.0018177 -0.10832 -0.32459 -0.018828 -0.1908 -0.2956 0.221 0.34313 -0.44681 -0.027204 -0.26771 0.30642 0.19762 -0.5243 -0.50109 0.047928 
시간|NNG 0.084983 0.50812 -0.46943 0.15864 0.094047 0.2095 0.031363 -0.47905 0.50537 0.13848 -0.077257 -0.052437 -0.0042411 0.14018 -0.25669 -0.029664 -0.26154 -0.39406 0.073327 -0.25817 0.22838 -0.054809 0.10742 0.1309 -0.47687 0.021469 0.11296 0.14775 -0.45808 0.1176 0.18148 -0.004418 -0.061928 -0.83 0.1638 -0.077173 -0.22225 -0.61938 0.05486 -0.15554 0.48836 0.3563 0.12271 0.494 0.18894 0.15843 0.16444 -0.043755 -0.011699 0.48988 -0.79106 -0.23839 -0.35539 -0.28138 -0.20609 -0.036384 -0.26026 0.14624 0.25248 -0.18316 0.12802 -0.0094084 0.70579 0.34905 -0.12608 0.071003 -0.44139 0.20913 -0.20044 -0.034916 0.14688 0.57418 0.54969 -0.24344 -0.26551 0.16179 0.27273 0.57104 0.10868 -0.41575 0.29495 0.27291 0.042288 0.39273 0.29458 -0.0019998 0.22805 0.072604 -0.167 -0.28417 -0.02717 0.48702 0.42284 -0.27995 -0.49013 -0.3429 -0.25826 -0.071874 -0.2921 -0.096109 
하|VV 0.042224 0.41834 -0.06245 -0.022581 0.31894 0.049593 0.18229 -0.41291 0.062089 0.49577 -0.20311 -0.063492 -0.15907 0.2436 0.10701 0.25908 0.23089 0.11974 0.050045 -0.13654 0.14153 0.23774 0.04302 -0.13289 -0.082933 -0.1146 0.25405 0.022307 -0.19361 0.36843 -0.15547 0.2951 -0.1526 -0.1071 0.25376 0.19553 -0.16379 -0.16029 -0.27957 -0.051814 -0.26031 0.21475 -0.1657 0.24815 -0.0042895 -0.44508 0.15333 -0.0074038 -0.035528 0.31025 -0.16265 0.075548 -0.35641 0.2061 0.10717 0.058031 0.1166 0.39668 0.066442 0.17965 -0.58351 0.091257 -0.23213 0.11521 0.46544 -0.34181 -0.14941 0.19796 -0.099964 0.37279 -0.27071 -0.2714 -0.16961 -0.0038579 -0.19748 0.08115 0.070092 0.11943 0.15769 -0.025978 0.061741 0.23423 -0.16443 -0.053719 0.2778 0.25089 0.41237 -0.12009 -0.23782 -0.55776 -0.051471 -0.13193 -0.069352 -0.19845 0.054426 -0.36519 -0.19634 0.10758 -0.0088628 -0.26263 
싶|VX -0.069764 0.42941 0.058017 0.10573 0.088621 0.046356 0.20013 0.079708 0.17088 0.39159 -0.29669 -0.18721 -0.02509 0.17552 -0.10726 0.16635 0.17277 -0.12335 0.11729 -0.311 0.095959 0.34586 -0.14309 -0.037181 -0.40537 -0.049167 0.37915 0.1491 -0.43854 -0.074483 -0.055613 0.51113 0.20137 -0.17845 0.259 0.045979 -0.018149 -0.0081976 -0.18423 -0.052122 -0.19775 0.086165 -0.1735 0.4671 0.25045 -0.10162 0.14526 -0.11336 -0.1394 0.353 -0.41197 0.21481 -0.4473 0.29502 0.049231 -0.23163 0.18951 0.28433 0.30393 0.14736 -0.61062 0.022812 0.15318 0.22901 0.20158 -0.35432 -0.03083 0.20008 -0.12216 0.21315 0.094031 -0.076566 0.046317 -0.20022 -0.12803 0.10149 0.30525 0.068607 0.23154 -0.079015 0.094873 0.32642 -0.022616 0.13185 0.073346 0.19245 0.40912 -0.19341 -0.10663 -0.58118 -0.19054 -0.076871 0.29472 -0.24071 -0.10953 -0.54049 -0.33877 0.19848 0.0084217 -0.32926 
농협|NNG -0.047053 -0.082602 -0.41668 -0.097728 0.032681 0.63778 -0.1184 -0.22634 0.065268 -0.11182 0.66092 0.44806 -0.34805 0.40016 -0.30291 0.034079 0.041498 -0.34727 -0.98586 0.26551 -0.27589 0.8608 -0.12753 0.98983 -0.31054 0.42653 -0.00031613 0.25138 -0.020311 -0.20039 0.74637 -0.60875 0.076262 0.0076144 -0.28754 -0.54445 -0.47574 -0.28158 0.52185 -0.10913 -0.64197 0.18577 0.034071 0.34102 -0.5556 0.63425 -0.066601 0.0036713 0.98562 -0.86555 1.089 0.61572 0.49528 -0.47851 0.35025 -0.32067 0.6658 0.60499 -0.34164 -0.32317 0.90886 -0.66521 0.52903 -0.79613 0.31481 -0.19677 0.32684 0.67293 0.3985 -0.17656 0.13998 0.13734 0.18219 0.42081 -0.080105 -0.053794 -0.3998 -1.5755 -0.13545 0.75612 0.144 -0.0010884 -0.26877 0.83369 -0.78087 0.75908 -1.1225 -0.54582 0.018826 1.4429 0.35313 0.26542 0.62363 1.2566 0.29701 -0.45943 0.057467 0.046047 0.82125 0.42301 
되|VV -0.13001 -0.067703 -0.24468 -0.088074 0.12483 0.072167 -0.092091 -0.092152 0.16136 0.058305 0.064736 0.29503 0.15107 0.061551 -0.069879 -0.32835 -0.14318 0.087144 -0.063841 0.017493 0.1354 -0.22353 0.22544 -0.036995 0.10352 -0.006229 -0.11357 0.050698 -0.06044 0.075344 0.057684 -0.28654 0.065624 -0.034202 0.11332 -0.015904 0.034429 -0.16537 -0.022418 -0.15648 0.32208 0.028598 0.013059 0.25401 -0.017697 -0.22468 0.30754 0.16227 0.016229 0.13813 -0.45626 -0.07516 -0.032566 0.024474 0.2137 0.24896 0.0076229 0.33438 -0.14236 -0.16355 -0.1744 -0.047168 0.20352 -0.07978 0.0025351 0.12236 -0.18181 0.033276 -0.096376 -0.010851 -0.25255 0.14007 0.36764 -0.044937 0.16858 -0.16916 -0.14003 0.32142 -0.060819 -0.11618 -0.026069 -0.068559 0.06107 0.067413 0.25068 -0.00060474 -0.27474 0.16723 -0.073318 -0.15218 0.20945 0.29568 -0.31549 0.059673 -0.19674 0.013435 0.20641 0.045677 -0.074392 0.048331 
해|XSV+EC 0.0061623 0.15716 0.23078 0.22234 -0.37932 -0.35798 -0.31726 0.12642 -0.22625 -0.65166 -0.25632 -0.40621 -0.12392 -0.1585 0.14788 0.13941 0.056668 -0.13433 0.013914 0.11312 -0.29032 0.032558 -0.35211 -0.0027073 0.0179 -0.005774 -0.46683 -0.00035443 0.0062118 -0.45367 -0.14374 0.15796 0.23665 0.031766 -0.32397 -0.19399 -0.077718 0.13053 0.41018 0.16626 0.092432 -0.22148 -0.15838 -0.59618 0.043712 0.57447 -0.14792 -0.16574 0.043235 -0.20232 0.56707 -0.17184 0.17563 0.04469 -0.58886 -0.19373 -0.43683 -0.35271 0.10567 -0.049731 0.78548 0.12214 0.027601 0.042391 -0.21832 -0.002046 0.57596 -0.52408 -0.023334 -0.55906 0.4335 0.029163 -0.30172 -0.22252 -0.075183 0.4458 -0.17849 -0.19879 -0.13736 -0.054601 0.086646 -0.32842 0.076516 0.13343 -0.13308 -0.16607 0.19107 -0.2614 0.50269 0.59552 -0.091216 -0.25103 0.20152 -0.20521 0.1087 0.3365 -0.33029 -0.22437 0.13575 0.28646 
휴대폰|NNG 0.30199 -0.49449 0.79076 -0.25999 0.11165 -0.18916 -0.39796 0.88073 -0.25892 -0.15949 -0.51313 0.072301 0.015498 0.0057727 0.034582 0.13518 -0.23828 -0.52161 -0.16314 -0.48132 0.15724 -0.0052592 -0.066239 0.25143 -0.32544 -0.1544 -0.41409 0.13282 -0.41348 -0.82364 0.030475 1.0873 0.21469 0.10397 0.056041 -0.3791 -0.30329 0.44926 0.014947 -0.41027 -0.38615 -0.73929 0.0051241 -0.044675 0.39744 0.10613 0.12291 -0.23794 0.26787 -0.10192 -0.30072 -0.048829 0.013211 0.25997 -0.39265 0.394 0.81266 -0.079087 0.012803 -0.3698 -0.91612 -0.12261 -0.1578 -0.24061 -0.14343 -0.23502 -0.17894 0.55447 -0.11698 0.056463 0.16449 0.039499 -0.19086 -0.1951 0.37229 -0.13658 0.066611 0.10607 0.33305 0.22879 0.43234 0.17036 0.11916 0.20075 -0.33869 0.70298 -0.26518 -0.29274 0.44377 -0.53073 -0.038985 -0.05209 0.13607 0.30273 -0.32913 -0.09144 -0.83373 -0.10819 -0.18038 0.23894 
하|XSV -0.14578 -0.55099 0.76908 -0.24312 0.0085332 -0.32441 -0.11137 0.88454 0.04812 0.032107 -0.23576 0.015204 0.34501 -0.010889 0.060002 -0.067701 0.28409 0.15891 -0.080132 -0.23983 -0.1501 0.05682 -0.034107 -0.027518 -0.11711 0.0046889 0.051282 -0.1106 -0.13057 -0.58486 -0.14088 0.62298 0.22793 0.36452 -0.26939 -0.1439 0.28662 0.47335 -0.2125 -0.24757 -0.50219 -0.58002 -0.03459 -0.029578 0.18916 0.016075 0.13717 -0.14149 -0.21099 -0.19869 0.083869 0.37729 -0.0032021 0.48506 -0.10272 -0.14301 0.40019 0.031249 0.0055092 0.14456 -0.86717 -0.03495 -0.13218 -0.063738 -0.15066 -0.12389 0.18456 0.28606 0.14739 0.0052922 0.045939 -0.19941 -0.34685 -0.20391 0.44093 -0.23089 0.24284 0.024553 0.25676 0.094557 -0.084165 0.19261 0.22975 -0.042558 -0.27864 0.29288 0.066633 -0.16626 0.16962 -0.36664 -0.05867 -0.2028 -0.023918 0.032827 -0.080406 -0.11295 -0.14921 0.11982 -0.14395 -0.18526 
문의|NNG 0.015207 0.30962 0.026799 -0.21084 0.1838 -0.23177 -0.23209 0.15978 -0.56547 0.22019 -0.11617 -0.2293 -0.16466 -0.097394 0.099705 -0.049913 0.18111 0.23164 0.52345 -0.18716 0.10231 -0.29198 0.31731 -0.57303 0.13604 -0.43393 0.17189 -0.13819 0.35672 0.10708 0.079351 0.043943 -0.066203 0.10212 -0.19771 -0.072124 -0.014179 0.094203 0.070262 0.33687 -0.19684 0.085622 -0.40904 0.11709 -0.04731 -0.16767 0.1015 0.42251 -0.031661 0.34068 -0.24622 0.21136 -0.14339 0.21556 0.0044078 -0.12996 0.066442 -0.17882 -0.27781 0.30748 -0.1956 0.32803 -0.074531 -0.098451 0.04417 -0.15708 0.67516 -0.10934 0.047522 -0.26112 -0.11524 -0.69063 0.126 0.66072 0.33859 0.23922 -0.34565 -0.25245 0.10944 0.0092492 -0.37054 -0.28058 -0.17859 -0.46147 0.39181 0.29468 -0.064975 0.11591 -0.0033964 0.21981 0.19561 -0.25441 -0.22611 0.23196 0.23322 -0.094334 0.31774 0.54038 0.29724 0.12497 
연결|NNG -0.62517 0.30304 0.39603 0.10757 -0.29453 -0.01759 0.64471 0.29215 0.37152 0.33471 0.12548 -0.26665 0.36289 -0.013582 0.093003 0.15014 0.67954 0.59669 -0.14429 -0.054701 -0.29643 0.7757 -0.69266 0.055673 -0.22871 0.38475 0.42758 0.27975 -0.51992 -0.43615 -0.30018 0.36075 0.7331 0.53091 0.21853 0.38683 0.63924 0.33373 -0.279 -0.052435 -0.28932 0.023465 -0.44697 0.23452 -0.10702 -0.022024 0.17283 -0.34678 -0.32873 -0.22868 0.39466 0.60346 -0.32166 0.81991 0.40617 -0.74744 -0.0063871 0.64208 0.24337 0.45862 -0.43847 -0.086004 -0.22897 0.02396 0.57026 -0.29674 0.47385 -0.048662 0.25553 0.049125 0.25836 -0.32622 -0.53392 -0.61665 0.055528 -0.1811 0.38512 -0.40888 0.066862 -0.091978 -0.3371 0.34779 0.10899 0.32256 -0.37239 -0.056692 0.75116 -0.52969 -0.014141 -0.57394 -0.4681 -0.45511 -0.080609 -0.48967 0.30088 -0.17441 0.043989 -0.020689 0.056246 -0.77723 
보험|NNG -0.099844 -0.054199 -0.20582 -0.089315 -0.0073144 0.33547 -0.12178 -0.15339 0.00030979 -0.0073841 0.46582 0.22854 -0.10339 0.14327 -0.13665 0.0080406 0.023948 -0.14374 -0.54431 0.10553 -0.077982 0.34724 -0.0059481 0.46618 -0.12635 0.16163 -0.10562 0.14067 0.010325 -0.12273 0.39267 -0.41141 0.021386 0.12699 -0.1661 -0.3314 -0.34076 -0.1268 0.25357 -0.064906 -0.37575 0.12513 -0.12715 0.19065 -0.45082 0.34222 -0.066577 0.097505 0.54834 -0.5474 0.58492 0.35892 0.33875 -0.31919 0.1751 -0.17401 0.36671 0.36173 -0.30278 -0.14575 0.49717 -0.29922 0.1563 -0.55279 0.25741 -0.036021 0.24662 0.38918 0.30548 -0.16419 0.023189 -0.053617 0.068503 0.2498 0.011146 -0.11839 -0.31721 -0.98628 -0.13608 0.33559 -0.017199 -0.081423 -0.20533 0.38471 -0.46309 0.40163 -0.76097 -0.2296 0.08061 0.91937 0.26421 0.15628 0.20062 0.67011 0.24972 -0.13576 0.16153 0.13864 0.46742 0.39113 
한|XSA+ETM 0.098624 -0.0186 0.047456 -0.40891 0.34496 0.12096 -0.049155 -0.41327 -0.28007 -0.08031 0.072991 0.29005 -0.24701 0.11642 0.34642 0.075918 -0.13179 0.32193 -0.19781 0.21039 0.089138 0.0062086 -0.041736 0.045048 0.42235 0.02952 -0.53725 0.27107 -0.01146 0.13785 -0.016829 -0.18709 -0.032577 0.25935 0.078278 0.17397 -0.1338 -0.057256 0.15876 -0.15412 0.10974 -0.050166 0.011109 -0.1058 -0.15173 -0.45645 0.44575 0.056556 0.3275 -0.097024 0.16419 -0.25527 0.10613 0.26111 0.27419 0.62036 0.11043 0.42629 -0.29657 -0.27387 -0.067809 -0.12361 -0.41601 -0.4128 0.41838 -0.11084 -0.00075561 0.02302 -0.14076 0.15314 -0.34878 -0.11952 -0.22445 0.18259 0.20087 0.018741 -0.51516 0.0066019 -0.034699 0.22025 0.046693 -0.10785 0.028374 0.19513 0.20789 0.34697 -0.13564 -0.074855 -0.014378 -0.24535 0.24559 -0.0071044 -0.55212 0.23356 0.087979 0.33872 -0.0060936 -0.38213 0.011154 0.038386 
어떻게|MAG 0.19688 -0.2772 0.45139 -0.41348 0.35466 -0.10808 -0.17819 0.18622 -0.24724 0.23506 -0.12268 0.17642 -0.062461 0.13539 0.17814 0.1596 0.11572 0.066708 -0.089619 -0.17049 0.12506 -0.042331 0.16734 -0.012008 0.058308 -0.1412 -0.021949 -0.081024 0.033416 0.013553 -0.02828 0.36163 -0.26379 0.17731 -0.098351 -0.09199 -0.21009 0.14425 -0.18289 -0.18316 -0.55855 -0.23842 -0.092142 0.0078684 -0.076612 -0.31854 0.11771 0.059558 0.14253 -0.0835 0.067849 0.18599 0.038455 0.13968 0.0063904 0.28658 0.49572 0.18059 -0.19398 0.035072 -0.72796 -0.053755 -0.37823 -0.24107 0.2195 -0.22553 0.0090141 0.48713 0.050346 0.25515 -0.3219 -0.37897 -0.31257 0.22177 0.20964 -0.133 -0.088316 -0.1557 0.20578 0.19499 0.03773 0.13156 -0.054056 -0.14783 -0.0044892 0.52849 -0.13628 -0.069618 -0.047197 -0.23382 0.15962 -0.11879 -0.1717 0.30699 0.090341 -0.11838 -0.13779 0.11985 0.029302 0.040081 
관리|NNG 0.40931 -0.33156 0.49207 0.052738 -0.33771 -0.63394 -0.78675 0.43064 -0.82902 -1.102 -0.43303 0.048451 -0.26847 -0.31408 0.47153 0.22005 -0.21918 -0.49481 -0.37372 0.046416 -0.10334 -0.3016 -0.39681 0.47201 -0.060056 0.13099 -1.0314 0.023368 -0.096479 -1.0586 0.18577 0.76544 0.32077 0.038075 0.19014 -0.40585 -0.41732 0.27903 0.49983 -0.13106 0.039845 -0.82682 -0.24083 -1.0884 -0.072154 0.36745 -0.093905 -0.15099 0.85947 -0.47605 0.61826 -0.53499 0.33058 -0.21801 -0.71393 0.67379 0.12322 -0.11827 -0.51562 -0.47257 0.77434 0.0044076 -0.50175 -0.53868 -0.046955 0.036396 0.39997 -0.11128 -0.30961 -0.77691 0.22044 -0.0098046 -0.39435 -0.19996 0.32581 0.23249 -0.67464 -0.29096 -0.3008 0.076392 0.44139 -0.46947 -0.20695 0.35296 -0.041745 0.7096 -0.036786 -0.52101 0.88615 0.50956 -0.32252 -0.17728 -0.28869 0.58709 -0.13903 0.75133 -0.97565 -0.79564 0.099238 0.5727 
날짜|NNG 0.11184 0.50123 -0.38754 0.26628 0.039763 0.15579 0.13784 -0.30494 0.42867 0.23271 -0.1444 -0.12361 -0.020225 0.10478 -0.30399 0.049807 -0.16543 -0.44448 0.18501 -0.27604 0.20938 0.027685 0.052322 0.099744 -0.56638 0.032829 0.39596 0.057815 -0.41052 0.15619 0.17044 0.13106 -0.083591 -0.79223 0.26051 -0.035738 -0.14143 -0.44853 -0.081509 -0.058881 0.29681 0.34112 0.10267 0.50889 0.26289 0.13458 -0.0019573 -0.079218 -0.10847 0.5248 -0.76809 -0.11086 -0.42648 -0.31607 -0.15831 -0.17496 -0.1781 0.024718 0.36065 -0.0068988 0.027101 0.015618 0.61991 0.45852 -0.14713 0.004214 -0.39973 0.19932 -0.21745 0.085122 0.17881 0.46666 0.50432 -0.21006 -0.36583 0.16334 0.42534 0.47424 0.14332 -0.37269 0.24565 0.34467 -0.0098517 0.24818 0.25099 -0.055111 0.38445 0.10833 -0.23516 -0.33766 -0.166 0.39446 0.58992 -0.31777 -0.46193 -0.4948 -0.2907 0.030189 -0.25847 -0.23006 
뭐|NP 0.21561 0.61457 0.086801 0.3453 -0.53651 -0.11736 -0.1276 -0.035919 -0.39323 -0.78355 -0.1996 -0.62748 -0.42126 -0.22477 0.0057473 0.30666 -0.16426 -0.39301 0.31896 0.1271 -0.2581 0.17958 -0.66576 0.038348 -0.063687 0.0043799 -0.37024 0.27423 -0.02628 -0.32628 -0.093013 0.0037313 0.26968 -0.22533 -0.16735 -0.12438 -0.10066 0.067719 0.72783 0.42675 0.41455 0.11321 -0.19083 -0.48109 0.14035 0.88825 -0.29365 -0.29016 0.10348 -0.019473 0.4142 -0.33214 0.084694 -0.088109 -0.58775 -0.36438 -0.61121 -0.64377 0.43952 -0.12772 1.3138 0.039364 0.27878 0.21298 -0.31472 -0.044329 0.68065 -0.73319 -0.10886 -0.64101 0.79304 0.23876 -0.076768 -0.13942 -0.42639 0.76384 -0.07732 -0.33556 -0.15052 -0.088143 0.18187 -0.33035 0.082717 0.24454 -0.1714 -0.496 0.30977 -0.25255 0.4145 0.72196 -0.13406 -0.26284 0.60184 -0.32911 0.17834 0.31453 -0.38499 -0.3075 0.26572 0.25936 
가격|NNG 0.19287 -0.043656 0.17771 -0.38726 0.37922 0.0020961 0.0031881 -0.24704 -0.46211 -0.059678 0.035824 0.14028 -0.41754 0.014284 0.32454 0.27109 -0.058132 0.23427 -0.01959 0.12695 0.071351 0.0086312 0.011875 -0.035465 0.1594 0.03346 -0.22044 0.15757 0.10371 0.046506 0.26987 -0.0027843 -0.18812 0.088803 -0.063318 0.12147 -0.12946 0.048443 0.13181 -0.020397 -0.21174 -0.059145 0.13084 -0.047645 0.065433 -0.36141 0.34211 0.13103 0.26565 -0.036827 0.22095 -0.11214 0.012123 0.10687 0.21059 0.41691 0.11017 0.074372 -0.32648 -0.03021 0.030536 0.01052 -0.41391 -0.33161 0.25495 -0.11984 0.19153 0.14103 -0.1934 0.19216 -0.22669 -0.30041 -0.25316 0.51859 0.28472 0.22015 -0.43486 -0.22257 0.068038 0.303 -0.043293 -0.0067241 -0.0080958 0.12063 0.20013 0.54222 0.12381 0.056448 -0.042317 -0.11922 0.046456 -0.050484 -0.12383 0.39063 0.027817 0.17328 -0.077076 -0.25988 0.032576 -0.12843 
있|VV 0.11002 0.36471 -0.19111 0.20144 0.0085185 0.076032 0.12696 -0.093557 0.1724 0.18422 -0.16824 -0.12377 -0.083742 0.066875 -0.20612 0.090975 -0.077237 -0.34516 0.18869 -0.21277 0.13066 0.073725 -0.030335 0.050109 -0.43427 0.01301 0.37836 0.05727 -0.26995 0.070549 0.13639 0.19471 -0.021836 -0.5016 0.24521 -0.0088846 -0.078949 -0.2057 -0.074445 0.011317 0.087998 0.20287 0.013804 0.35233 0.23929 0.079829 -0.044435 -0.056261 -0.08782 0.37193 -0.49551 0.00018355 -0.34128 -0.17819 -0.078189 -0.15349 -0.055222 -0.017901 0.28688 0.057339 -0.052555 0.023652 0.36486 0.3143 -0.078645 -0.066668 -0.18237 0.13205 -0.18937 0.07993 0.12696 0.1996 0.30823 -0.086656 -0.24419 0.16924 0.30226 0.17163 0.092298 -0.19215 0.14771 0.23534 -0.054104 0.12278 0.16552 0.0095674 0.32405 0.03946 -0.16636 -0.24777 -0.18943 0.17002 0.4449 -0.15253 -0.25789 -0.39618 -0.25717 0.067195 -0.084388 -0.21464 
을까요|EC 0.0071359 0.15429 -0.21742 -0.10801 0.1572 0.13962 -0.097597 -0.33258 0.20519 -0.041938 0.022825 0.12467 0.011496 0.095682 -0.024879 -0.091132 -0.20432 -0.088075 -0.11185 -0.0597 0.1171 -0.061863 0.085871 0.12892 -0.072168 0.023495 -0.26744 0.15754 -0.25358 0.00067223 0.095563 -0.0925 0.016443 -0.3065 0.013759 -0.056217 -0.13824 -0.35475 0.12043 -0.19458 0.35462 0.097745 0.10559 0.17411 0.0041488 0.014943 0.30069 -0.0092682 0.15199 0.1574 -0.33586 -0.22377 -0.083047 -0.042315 -0.055117 0.21356 -0.083276 0.23092 -0.033734 -0.26283 0.084307 -0.060367 0.29286 -0.036145 0.026612 0.056639 -0.22849 0.13766 -0.10625 -0.062175 -0.0038498 0.31257 0.22257 -0.098184 0.048481 0.050519 -0.08329 0.34089 0.04367 -0.12384 0.17417 0.064629 0.090492 0.31645 0.18043 0.14085 -0.065094 -0.033699 -0.022285 -0.17811 0.14109 0.31019 -0.041977 -0.019636 -0.26396 -0.0058716 -0.0988 -0.18596 -0.18654 0.043633 
좀|MAG -0.10418 -0.10022 -0.16021 -0.095818 0.13683 0.056136 -0.14866 0.019762 0.021718 0.12277 0.099211 0.16375 -0.0067755 0.12344 -0.10027 -0.15306 0.078802 0.036109 -0.13374 0.022913 -0.027375 0.021485 0.27168 -0.0085532 -0.0082506 -0.051309 0.12975 -0.10977 0.15834 0.059932 0.20345 -0.20622 -0.080849 0.014957 -0.21616 -0.1795 -0.065867 -0.090295 0.012736 -0.020281 -0.24115 0.014418 0.012634 0.17995 -0.081622 -0.0087307 0.080577 0.19128 0.096999 -0.069157 0.077852 0.23884 0.080522 -0.067952 0.12762 -0.076753 0.15752 0.13285 -0.19188 0.038743 -0.037043 -0.032717 0.1842 -0.14783 -0.028882 -0.029473 0.1099 0.1818 0.098555 -0.029414 -0.13644 -0.11469 0.17366 0.28358 0.14102 -0.03941 -0.13453 -0.25978 0.018834 0.16584 -0.10414 -0.047321 -0.060849 -0.019663 6.4695e-05 0.23756 -0.34773 0.051884 -0.062096 0.36434 0.20516 0.098619 0.039541 0.35068 0.032911 -0.21925 0.22825 0.28401 0.19822 0.1146 
오전|NNG 0.039477 0.10886 -0.22931 -0.54312 0.43706 0.22836 -0.35028 -0.59492 0.043131 -0.3901 0.089412 0.47127 -0.1237 0.21755 0.23441 -0.20096 -0.49322 0.068533 -0.40994 0.048363 0.16758 -0.16075 0.076642 0.32066 0.15927 0.097816 -1.0146 0.48832 -0.43316 -0.25673 0.24547 -0.21183 0.20087 -0.26329 -0.038612 -0.12544 -0.2567 -0.58147 0.4814 -0.47313 0.7527 -0.047707 0.1695 0.15828 -0.093808 -0.12461 0.92508 0.016505 0.62182 0.095291 -0.43523 -0.58039 0.038307 0.20245 0.029174 0.79925 0.0079547 0.69355 -0.38513 -0.75971 0.17544 -0.25867 0.2923 -0.49742 0.25175 0.0059654 -0.19571 0.26437 -0.27162 -0.24603 -0.12159 0.52241 0.28018 -0.060351 0.43898 0.08846 -0.62326 0.5077 0.031413 0.021854 0.36137 -0.081148 0.24624 0.82505 0.36465 0.65008 -0.39318 -0.21211 0.1202 -0.32423 0.42889 0.51855 -0.51762 0.33091 -0.44338 0.34114 -0.20797 -0.66138 -0.27602 0.19956 
말|NNG 0.0255 0.34255 0.042427 0.24244 -0.28407 -0.21725 -0.29392 -0.090129 -0.131 -0.54101 -0.21913 -0.49777 -0.21067 -0.08488 -0.010556 0.082199 -0.051296 -0.17337 0.2395 0.11953 -0.23516 -0.049106 -0.15889 -0.21304 0.063312 -0.15906 -0.34193 -0.0047049 0.1153 -0.10577 -0.12428 -0.15463 0.023742 -0.16869 -0.53384 -0.22771 -0.15392 -0.026721 0.49421 0.27444 0.19969 0.04918 -0.052451 -0.35971 0.13306 0.6799 -0.14115 -0.070136 -0.15586 0.022354 0.32198 -0.20242 0.1618 -0.09349 -0.62942 -0.32894 -0.62875 -0.57826 0.27892 -0.035692 0.87747 0.17942 0.34089 0.23927 -0.41383 0.028304 0.53996 -0.61011 0.00017379 -0.50583 0.44866 0.11694 -0.044943 -0.043087 -0.23652 0.60324 -0.1213 -0.073186 -0.07455 -0.10412 0.031409 -0.3217 0.14312 0.013343 -0.04169 -0.45054 0.089077 -0.018796 0.33124 0.75498 0.14267 -0.12925 0.44105 -0.35717 0.106 0.18439 -0.097376 0.039244 0.16434 0.37467 
바꿀|VV+ETM 0.13381 0.42903 -0.25572 0.21141 0.029532 0.094559 0.10273 -0.15606 0.23303 0.18849 -0.17415 -0.12602 -0.0875 0.09067 -0.23425 0.094536 -0.13602 -0.4072 0.19709 -0.24924 0.18981 0.038201 0.0098576 0.058592 -0.50254 0.0074279 0.34811 0.075883 -0.33073 0.082774 0.1674 0.19638 -0.050259 -0.63959 0.23862 -0.04755 -0.14621 -0.30096 -0.051333 -0.020357 0.16177 0.24691 0.030903 0.42691 0.26949 0.10481 -0.0067798 -0.05285 -0.06561 0.43575 -0.60919 -0.058496 -0.37263 -0.23502 -0.12123 -0.13828 -0.085722 -0.0090881 0.31451 0.021773 -0.014024 0.021048 0.4771 0.34941 -0.11266 -0.064976 -0.25081 0.17669 -0.2223 0.080439 0.15978 0.27782 0.39727 -0.10405 -0.27012 0.18868 0.32454 0.268 0.11945 -0.25894 0.20884 0.26353 -0.050878 0.17365 0.21481 0.043664 0.32882 0.070254 -0.18475 -0.28956 -0.17642 0.25853 0.52092 -0.18054 -0.34177 -0.44939 -0.30855 0.06039 -0.12803 -0.19927 
할|XSV+ETM -0.10074 0.15894 -0.062039 0.26082 -0.26226 0.099378 0.31605 0.10742 0.10579 0.05305 0.013131 -0.0082026 0.058877 -0.069836 -0.12464 -0.051366 -0.0031847 -0.027371 0.080938 0.069136 -0.0070658 0.18233 -0.31664 0.076562 -0.059725 0.18405 0.2356 0.1838 -0.16729 -0.0014598 -0.080655 -0.10762 0.26211 0.054799 0.40404 0.17701 0.21427 0.14412 -0.05079 0.069702 0.21524 0.1078 -0.11676 0.17053 0.10306 -0.021874 -0.053845 -0.10837 -0.157 0.043571 -0.17753 0.05129 -0.14091 0.070527 0.25394 -0.14034 -0.095125 0.14222 0.27875 0.068879 0.058213 -0.082615 0.064315 0.14545 0.038711 0.0019323 -0.045271 -0.24196 -0.11826 0.094808 0.065727 0.11789 0.15273 -0.30492 -0.22975 -0.034852 0.21569 -0.014427 -0.13221 -0.12579 -0.034709 0.06036 0.032027 0.11468 -0.014649 -0.36212 0.21692 0.029431 -0.096301 -0.20109 -0.22891 -0.00085728 0.05843 -0.21756 0.0049094 -0.035169 -0.0017257 -0.059345 0.079202 -0.26149 
게|EC 0.036049 -0.082162 0.34582 -0.11289 -0.025985 -0.20284 -0.055309 0.12976 -0.18398 -0.05813 -0.037958 -0.036301 0.04979 -0.060123 0.21679 0.13518 0.17338 0.13985 -0.051546 -0.026296 -0.043731 -0.0015314 -0.16159 0.035581 0.067052 0.058255 -0.093436 -0.015532 -0.0045611 -0.17221 -0.12777 0.23105 0.026125 0.20883 0.0079841 0.030551 0.007494 0.1586 -0.056646 -0.046939 -0.19585 -0.17996 -0.2016 -0.25386 -0.14556 -0.052744 -0.034008 -0.060873 0.06347 -0.18612 0.28845 0.07171 0.054395 0.12094 -0.070846 0.046212 0.047604 0.087853 -0.10091 0.091837 -0.076786 -0.0044723 -0.3459 -0.12684 0.17412 -0.062846 0.22803 0.05288 0.06469 -0.07723 -0.046321 -0.23068 -0.34681 -0.086593 0.077111 -0.033439 -0.047714 -0.1694 -0.021949 -0.029086 -0.037761 -0.014727 -0.027894 -0.032201 -0.039847 0.12723 0.16858 -0.15047 0.1187 -0.02928 -0.088568 -0.20954 -0.18798 0.0010278 0.1432 0.17303 -0.11581 -0.12249 0.0041292 -0.042156 
오후|NNG 0.011174 0.11618 -0.2271 -0.52581 0.40114 0.2362 -0.36649 -0.59725 0.066652 -0.3988 0.12431 0.45489 -0.09222 0.1931 0.22676 -0.22867 -0.47118 0.092668 -0.40731 0.075506 0.16163 -0.16222 0.072095 0.2912 0.1834 0.089875 -1.0305 0.47923 -0.42441 -0.25117 0.2229 -0.26611 0.21537 -0.23803 -0.057931 -0.12953 -0.23987 -0.54654 0.48237 -0.4473 0.71285 -0.051472 0.12738 0.1546 -0.10722 -0.10232 0.89887 0.021917 0.61521 0.082247 -0.38828 -0.53881 0.039758 0.20528 0.037681 0.76671 -0.0029803 0.68404 -0.39255 -0.73059 0.20846 -0.24778 0.26889 -0.49368 0.25015 0.016713 -0.13715 0.23284 -0.25403 -0.26879 -0.10552 0.46368 0.25535 -0.053823 0.43688 0.11127 -0.64475 0.42505 0.014331 0.0063626 0.33606 -0.098873 0.22396 0.79156 0.34426 0.61347 -0.41841 -0.2064 0.12913 -0.30101 0.45948 0.56579 -0.50677 0.26839 -0.46871 0.32363 -0.17794 -0.61548 -0.31209 0.23215 
여름|NNG 0.27672 -0.22984 0.34502 0.061883 -0.24618 -0.45764 -0.56699 0.30298 -0.57956 -0.78539 -0.32824 0.023067 -0.18144 -0.22033 0.32871 0.16033 -0.14553 -0.38145 -0.28565 0.019135 -0.064611 -0.19303 -0.29969 0.3518 -0.055678 0.094232 -0.74241 0.011425 -0.090681 -0.76705 0.1092 0.58441 0.24829 0.034038 0.13769 -0.28999 -0.32186 0.1927 0.36717 -0.1021 0.015632 -0.60911 -0.18614 -0.76161 -0.046189 0.25512 -0.062943 -0.12207 0.6237 -0.33524 0.44374 -0.36918 0.22404 -0.14425 -0.52694 0.47398 0.10177 -0.070298 -0.36527 -0.33402 0.52766 0.0094944 -0.36398 -0.3995 -0.011369 0.020605 0.2942 -0.086588 -0.20748 -0.54585 0.16965 -0.0014678 -0.30664 -0.16464 0.2441 0.1608 -0.47746 -0.20765 -0.21277 0.05449 0.32748 -0.33416 -0.1581 0.25734 -0.054547 0.52012 -0.026251 -0.40225 0.66453 0.35653 -0.24427 -0.13115 -0.21101 0.40296 -0.095219 0.51609 -0.71432 -0.56483 0.068947 0.43002 
수|NNB 0.10028 0.36547 -0.19623 0.20926 0.010094 0.06387 0.13119 -0.084045 0.17613 0.18317 -0.17232 -0.12563 -0.072112 0.050351 -0.21019 0.10444 -0.061964 -0.32747 0.18036 -0.20174 0.14375 0.063669 -0.032509 0.05471 -0.43595 0.011319 0.38146 0.053785 -0.26867 0.054221 0.139 0.19723 -0.036164 -0.49699 0.23485 -0.025837 -0.08146 -0.19604 -0.066652 0.016312 0.081505 0.20436 0.0036808 0.34819 0.23779 0.082618 -0.042886 -0.060707 -0.083225 0.36921 -0.48988 -0.012618 -0.33429 -0.17411 -0.065529 -0.1475 -0.05145 -0.0092167 0.2722 0.056848 -0.036641 0.012748 0.34913 0.32676 -0.080919 -0.069647 -0.1877 0.14805 -0.19054 0.080942 0.13795 0.20064 0.3223 -0.091926 -0.25499 0.15714 0.30005 0.17145 0.10168 -0.19142 0.15369 0.2409 -0.040221 0.12597 0.15342 0.0045294 0.33011 0.05927 -0.15961 -0.24814 -0.18759 0.18815 0.45542 -0.16253 -0.25649 -0.39126 -0.26184 0.06078 -0.077636 -0.21595 
줘|VX+EC -0.0043279 0.31509 -0.092248 0.27566 -0.23533 -0.14129 -0.18552 -0.1313 0.082282 -0.35714 -0.17775 -0.43113 -0.11693 -0.044256 -0.099549 0.020396 -0.017279 -0.18664 0.20918 0.061705 -0.20276 -0.0026036 -0.073779 -0.16243 -0.034543 -0.13606 -0.15589 -0.070017 0.067739 -0.014504 -0.13057 -0.13367 -0.0079076 -0.28619 -0.44076 -0.16236 -0.08137 -0.13506 0.33548 0.22326 0.22232 0.11594 0.0325 -0.21602 0.15559 0.57955 -0.15149 -0.091711 -0.20201 0.12232 0.17365 -0.14585 0.050612 -0.098109 -0.52333 -0.36259 -0.56279 -0.47705 0.30629 4.2339e-05 0.68098 0.1675 0.43697 0.34157 -0.40299 0.048068 0.31813 -0.47557 0.009726 -0.37271 0.41467 0.2162 0.030432 -0.11049 -0.2861 0.47698 0.049129 0.089374 -0.01717 -0.15985 0.050887 -0.16935 0.13888 0.02501 0.0048861 -0.41088 0.15605 0.0022753 0.18887 0.52443 0.084338 -0.042336 0.4599 -0.38381 -0.0011563 0.02276 -0.077888 0.039987 0.047423 0.21441 
상담원|NNG -0.63628 0.31699 0.34554 0.15269 -0.32774 -0.022498 0.65902 0.27207 0.40387 0.2791 0.12709 -0.29699 0.37551 -0.019526 0.078314 0.11484 0.67656 0.58355 -0.10554 -0.023256 -0.33797 0.76727 -0.69358 0.054853 -0.22771 0.40174 0.42805 0.25023 -0.4842 -0.41362 -0.30311 0.30411 0.74399 0.49663 0.18397 0.37029 0.66414 0.30229 -0.23099 -0.021192 -0.20759 0.046736 -0.40931 0.22422 -0.099442 0.03362 0.13573 -0.34565 -0.35407 -0.20965 0.39891 0.57949 -0.32888 0.78757 0.37853 -0.78843 -0.086692 0.58044 0.27101 0.45273 -0.31305 -0.073416 -0.15393 0.069511 0.49768 -0.25019 0.48266 -0.14003 0.24376 0.001752 0.29725 -0.2697 -0.4823 -0.63475 0.011239 -0.13826 0.41803 -0.36083 0.049633 -0.12953 -0.33019 0.32584 0.12633 0.32908 -0.34623 -0.15653 0.77314 -0.51458 -0.023795 -0.50063 -0.48216 -0.43157 -0.033979 -0.53652 0.29022 -0.18208 0.074018 -0.021028 0.046975 -0.77367 
신청|NNG 0.13572 -0.39424 0.10088 0.2682 -0.54506 0.15013 0.28362 0.543 -0.73303 -0.50554 0.050979 0.47882 -0.25723 -0.30624 0.019924 -0.24562 -0.4615 -0.090953 0.039902 0.64141 0.043121 -0.028566 -0.66955 0.24879 0.61476 0.34636 -0.19747 0.46242 0.25845 -0.024063 -0.06933 -0.64389 0.42634 0.79582 1.0182 0.32111 0.23832 0.81865 0.25407 0.23922 0.47605 -0.25413 -0.19224 -0.29179 0.13224 -0.37307 -0.18714 -0.0069945 0.19909 -0.36479 0.071188 -0.22297 0.30466 0.041085 0.78997 0.63638 0.15121 0.11789 0.13857 -0.28234 0.42168 -0.36888 -0.53661 -0.34852 0.038894 0.080227 0.039941 -0.85198 -0.44493 0.18959 -0.28328 -0.02751 0.27111 -0.13092 -0.23146 -0.16913 -0.31093 -0.47045 -0.63921 0.28738 -0.051988 -0.50803 -0.01554 -0.043915 -0.064767 -0.72162 -0.41717 0.28908 0.075992 0.06119 -0.16906 -0.1308 -0.55528 0.37948 0.26862 0.66481 0.092304 -0.37792 0.58307 0.060868 
몇|MM -0.042342 -0.11889 -0.12904 -0.39507 0.3215 0.15688 -0.17633 -0.46598 0.082188 -0.17347 0.19742 0.31055 0.0098522 0.11865 0.21302 -0.14984 -0.19328 0.28397 -0.3208 0.14109 0.039197 -0.12959 0.16553 0.10549 0.32777 0.044247 -0.67321 0.18215 -0.064515 0.001063 0.051247 -0.29075 0.012742 0.035606 -0.21479 0.0057818 -0.090957 -0.30836 0.19898 -0.27164 0.34543 -0.034873 0.1941 -0.054058 -0.18136 -0.17411 0.50188 0.052983 0.29605 -0.09956 0.034724 -0.31603 0.17703 0.16769 0.087538 0.48935 -0.038592 0.35764 -0.35951 -0.40507 0.086256 -0.10834 -0.020756 -0.35549 0.17745 0.087274 -0.16173 0.11669 -0.010862 -0.069859 -0.18561 0.20316 -0.037171 0.056684 0.33092 -0.074578 -0.453 0.29712 0.00033994 0.082218 0.081319 -0.086906 0.14928 0.33726 0.14492 0.30548 -0.3214 -0.082455 0.042045 -0.12417 0.34589 0.26097 -0.48276 0.14998 -0.14751 0.3453 0.11789 -0.37501 -0.21943 0.1467 
는|ETM 0.011693 -0.27431 0.38944 -0.13163 0.022091 -0.19321 -0.12654 0.46366 -0.10427 -0.058507 -0.18494 0.023353 0.080666 -0.022671 0.056321 0.002354 0.083478 -0.0039743 -0.04118 -0.12618 -0.037319 -0.0024201 -0.038484 0.03053 -0.08142 0.0012289 -0.055261 -0.042473 -0.055246 -0.35273 -0.014832 0.39557 0.11525 0.13665 -0.076307 -0.1046 0.059394 0.25529 -0.051755 -0.12012 -0.24074 -0.35861 -0.016357 -0.080185 0.10708 0.0053024 0.0717 -0.068401 0.016767 -0.10122 0.035113 0.11761 0.015983 0.20186 -0.092784 0.049403 0.24947 -0.015485 -0.03261 0.0013141 -0.38133 -0.02823 -0.10319 -0.080057 -0.069211 -0.086712 0.090291 0.16445 0.00302 -0.032243 0.031426 -0.10704 -0.17486 -0.056722 0.23287 -0.076579 0.047653 -0.0099942 0.12309 0.10204 0.019858 0.054766 0.076263 0.011267 -0.10725 0.25407 0.011087 -0.11561 0.14355 -0.15305 -0.04927 -0.11936 -0.026713 0.11761 -0.063897 -0.018379 -0.18486 -0.0082245 -0.048605 -0.028582 
해|VV+EC -0.074249 -0.23334 0.31546 -0.18752 -0.059409 -0.039826 -0.078445 0.24966 0.047202 0.080772 0.1997 -0.03236 0.20948 -0.066746 -0.040177 -0.027206 0.092597 0.073454 -0.022514 -0.10864 -0.012898 -0.076981 0.061708 -0.02548 0.017216 -0.031349 0.013845 -0.046716 0.085352 -0.078953 -0.038817 -0.11101 -0.12359 0.17387 -0.34908 -0.16532 -0.036784 0.12682 -0.032172 -0.052513 -0.26428 -0.026577 -0.11389 0.027827 -0.19054 0.22368 -0.14697 0.046066 -0.128 -0.271 0.1612 0.28357 0.20485 -0.077206 -0.096927 -0.22118 0.086873 -0.11127 0.00067813 0.11566 -0.066924 -0.06631 -0.0050596 -0.10103 -0.0755 0.10179 0.23098 0.18303 0.30093 -0.073802 0.031381 -0.13323 -0.12977 0.031654 0.072194 -0.15748 0.089477 -0.30035 0.034537 -0.050869 -0.17501 0.03401 0.072382 -0.084083 -0.28874 -0.091169 -0.25717 0.079811 0.051543 0.31923 0.19088 0.011981 0.10425 0.021462 0.15207 0.032069 0.2218 0.2347 0.037268 0.15448 
될까요|VV+EC 0.059879 0.21483 -0.28854 -0.032296 0.14979 0.17149 -0.0047627 -0.35467 0.32448 0.0042533 -0.029964 0.10966 -0.010046 0.14798 -0.094626 -0.053775 -0.23056 -0.17699 -0.081573 -0.086874 0.12791 -0.0096859 0.063699 0.17279 -0.20027 0.077823 -0.11164 0.1501 -0.3234 0.029743 0.13154 -0.031676 3.6768e-05 -0.47456 0.10216 -0.036186 -0.096776 -0.41483 0.08198 -0.1957 0.38595 0.15659 0.19212 0.27593 0.093666 0.020292 0.26849 -0.064702 0.12427 0.26787 -0.46017 -0.24696 -0.18198 -0.086682 -0.059382 0.16843 -0.078788 0.22639 0.070844 -0.24645 0.041733 -0.078502 0.39386 0.09653 -0.021653 0.027203 -0.35272 0.19346 -0.17307 0.0050721 0.054461 0.4554 0.31953 -0.1625 -0.061156 0.069192 0.077547 0.48051 0.082965 -0.16366 0.24805 0.18114 0.076835 0.37039 0.21461 0.12409 0.077903 -0.026717 -0.13095 -0.33207 0.056515 0.39131 0.1348 -0.096041 -0.39946 -0.16193 -0.19261 -0.22064 -0.27825 -0.07502 
일|NNG 0.13474 0.50495 -0.21553 0.33619 -0.083885 0.069111 0.2155 -0.079005 0.2212 0.23758 -0.19038 -0.22863 -0.099742 0.014584 -0.27027 0.16599 -0.079783 -0.4821 0.26225 -0.28515 0.17938 0.11121 -0.11166 0.068164 -0.6033 0.032309 0.53181 0.07492 -0.35869 0.055965 0.1408 0.25099 -0.033298 -0.63223 0.36268 -0.0095199 -0.12386 -0.21079 -0.087031 0.047687 0.085296 0.29263 -0.05542 0.44635 0.275 0.16974 -0.15113 -0.091889 -0.13095 0.42457 -0.60633 0.0067943 -0.41818 -0.2735 -0.13133 -0.2658 -0.095081 -0.067385 0.40117 0.12632 0.012276 0.041846 0.42436 0.43515 -0.10357 -0.076228 -0.21143 0.14232 -0.20703 0.092466 0.221 0.22579 0.39116 -0.16358 -0.39279 0.19912 0.45787 0.15891 0.087938 -0.31372 0.17795 0.29703 -0.090305 0.14632 0.14567 -0.068431 0.46904 0.074307 -0.16148 -0.26728 -0.29439 0.17414 0.62625 -0.24805 -0.2702 -0.48789 -0.35254 0.11546 -0.058319 -0.25537 
지금|MAG 0.091792 -0.26911 0.059792 0.2159 -0.434 0.10416 0.20795 0.42838 -0.50822 -0.3762 0.040174 0.34094 -0.15686 -0.21875 -0.013344 -0.19187 -0.32263 -0.097682 0.018312 0.45477 0.011775 -0.0014949 -0.5117 0.20905 0.43319 0.26864 -0.11175 0.34132 0.16107 -0.024829 -0.081179 -0.4508 0.35099 0.58312 0.76422 0.23804 0.21195 0.61662 0.18135 0.17965 0.35332 -0.19058 -0.1602 -0.19431 0.10047 -0.23428 -0.16189 -0.03862 0.13027 -0.26274 0.0375 -0.13572 0.20782 0.035713 0.56994 0.42197 0.1191 0.099594 0.13489 -0.19517 0.29193 -0.27965 -0.3566 -0.23576 0.025167 0.054221 0.02265 -0.62185 -0.31648 0.14091 -0.17788 0.0037465 0.2124 -0.13151 -0.18785 -0.13375 -0.18397 -0.33422 -0.46344 0.19683 -0.039932 -0.36783 -0.007494 -0.035869 -0.078016 -0.56189 -0.30688 0.17886 0.051631 0.042921 -0.12604 -0.11332 -0.37829 0.24013 0.2076 0.46772 0.078074 -0.26588 0.43304 0.027959 
겠|EP 0.02641 -0.28891 -0.19068 0.33803 -0.26403 0.088245 0.18042 0.047538 0.30096 -0.049578 0.03769 0.010026 0.15132 -0.011677 -0.21067 -0.13531 -0.020302 -0.075757 -0.028845 0.21821 -0.15853 0.026624 -0.011328 0.074422 0.16371 0.090664 0.20476 -0.22412 0.2444 0.29066 -0.2192 -0.2438 -0.11515 0.032953 0.03342 0.10484 0.20631 0.065664 -0.15325 0.10796 0.14864 0.016773 0.32011 -0.25575 0.036728 0.079785 -0.44663 -0.15839 -0.26046 -0.12803 0.21066 -0.058179 0.16081 -0.20242 -0.019435 -0.11519 -0.16486 -0.3524 0.26266 0.017096 0.16692 -0.040274 0.06149 0.29898 -0.31622 0.20643 -0.44263 -0.30985 0.09542 0.17777 0.052141 0.3351 -0.010882 -0.25393 -0.35836 -0.21758 0.33618 0.27962 -0.11082 0.014835 0.032816 0.0028886 0.041772 -0.24404 -0.2014 -0.67396 -0.029063 0.12401 -0.10996 0.097808 -0.11038 -0.044257 0.086409 -0.23397 0.053654 0.094388 0.13877 -0.053114 -0.08998 -0.0062907 
현황|NNG 0.13298 0.13771 0.34661 0.00017854 0.09522 0.29479 0.0087937 0.34011 -0.047662 0.20843 -0.424 -0.083141 -0.20371 0.13147 -0.12268 0.3086 -0.30916 -0.57498 -0.15765 -0.46492 0.2809 0.50382 -0.26286 0.22784 -0.35251 -0.2157 -0.38199 0.52417 -0.73513 -0.52521 -0.056953 0.92142 0.39868 0.1727 0.43004 -0.15617 -0.49623 0.332 0.061989 -0.31101 -0.24166 -0.26427 -0.1045 0.38579 0.43491 -0.01334 0.15231 -0.29216 0.27193 0.075574 -0.44879 -0.11712 -0.17943 0.43638 -0.089245 0.25592 0.84954 0.22419 0.27491 -0.4467 -0.93565 -0.13664 -0.13157 -0.23786 0.28776 -0.45771 -0.37884 0.36017 -0.14497 0.37508 0.24484 0.07 -0.087292 -0.2825 -0.015458 -0.066976 0.038562 -0.073204 0.30956 0.3341 0.47035 0.24456 0.013487 0.38972 -0.43744 0.50763 -0.2899 -0.40492 0.3517 -0.74088 -0.034369 -0.084483 0.22088 0.018001 -0.15284 -0.32845 -0.85945 -0.011137 -0.012235 0.21645 
다시|MAG -0.012672 0.2835 -0.047416 0.2536 -0.27095 -0.17219 -0.26683 -0.10907 0.022134 -0.41647 -0.16005 -0.44296 -0.11028 -0.078885 -0.075445 0.022314 -0.023999 -0.15378 0.2157 0.090612 -0.22309 -0.058726 -0.058162 -0.20553 0.053413 -0.17097 -0.24097 -0.075844 0.14007 -0.016348 -0.1313 -0.17926 -0.042065 -0.19824 -0.51641 -0.19843 -0.12191 -0.094559 0.37411 0.25123 0.2084 0.085632 0.0038177 -0.29678 0.09964 0.60308 -0.18551 -0.051719 -0.204 0.049873 0.24945 -0.1602 0.14051 -0.12567 -0.56102 -0.33481 -0.57909 -0.54309 0.26403 0.0016112 0.73824 0.18419 0.35208 0.27502 -0.41229 0.072305 0.39548 -0.53621 0.050186 -0.42246 0.38689 0.15065 -0.021984 -0.067863 -0.23901 0.47748 -0.02039 0.015857 -0.063854 -0.14813 0.024818 -0.26399 0.13414 -0.033744 -0.039868 -0.45412 0.06258 0.00877 0.25322 0.66376 0.11958 -0.071396 0.4087 -0.35538 0.068429 0.11453 -0.044514 0.070458 0.082987 0.3104 
데이터|NNG 0.18218 -0.041837 0.13437 -0.31366 0.3221 0.0079271 -0.017428 -0.20942 -0.38385 -0.074445 0.02122 0.12367 -0.34576 0.0038671 0.25824 0.2161 -0.07208 0.16099 -0.035826 0.1075 0.054572 -4.5831e-05 0.00055916 0.0089917 0.090812 0.037859 -0.19232 0.13136 0.07427 0.018834 0.25345 0.02619 -0.15059 0.040659 -0.053153 0.086037 -0.13361 0.013763 0.12393 -0.031192 -0.1561 -0.055629 0.1136 -0.043701 0.039918 -0.2817 0.27355 0.11483 0.24715 -0.052807 0.19018 -0.10299 0.018218 0.047609 0.1396 0.35034 0.1037 0.069335 -0.26798 -0.059374 0.061079 0.0034144 -0.3242 -0.27932 0.20674 -0.095614 0.15092 0.14429 -0.16756 0.13328 -0.17826 -0.20777 -0.18712 0.4247 0.23396 0.18402 -0.3527 -0.19761 0.047396 0.25199 -0.0197 0.0045598 -0.022279 0.12615 0.14364 0.48962 0.088055 0.034455 -0.014341 -0.069568 0.037068 -0.018451 -0.091746 0.34703 -0.0030133 0.13881 -0.092437 -0.24453 0.034966 -0.099219 
변경|NNG -0.042831 0.57278 -0.035095 -0.024274 0.15767 0.0011326 0.062875 -0.35078 0.107 0.66613 -0.035493 -0.24437 0.11355 0.096883 0.038162 0.18574 0.24087 0.064446 0.25172 -0.3738 0.27997 -0.048804 0.19346 -0.3267 -0.12017 -0.32376 0.29474 -0.039566 -0.17769 0.40221 -0.27169 0.17875 -0.23926 -0.10001 0.12639 0.046392 -0.28811 -0.21022 -0.33452 0.021933 -0.23674 0.397 -0.52112 0.3389 -0.2795 -0.2009 -0.10275 0.13773 -0.18929 0.32738 -0.38145 0.1783 -0.30174 -0.018973 -0.094304 -0.20386 0.025938 0.26631 0.077014 0.32083 -0.55535 0.19905 -0.15938 0.1572 0.44953 -0.18745 0.053762 0.25136 0.15447 0.13075 -0.214 -0.42566 -0.062902 -0.046251 -0.24778 -0.028074 0.1435 -0.03331 0.12411 -0.37606 -0.11376 0.14765 -0.24283 -0.30652 0.20523 -0.0017457 0.17208 0.01264 -0.13333 -0.23172 0.10529 -0.085596 -0.084563 -0.40775 0.2325 -0.32555 0.068213 0.51407 0.025908 0.050555 
시|NNG 0.15508 0.62595 -0.41558 0.34178 0.011835 0.15236 0.19166 -0.27713 0.49908 0.33664 -0.22845 -0.23558 -0.046327 0.13059 -0.39793 0.097162 -0.15234 -0.55839 0.28901 -0.38108 0.24704 0.06593 0.064513 0.069703 -0.7294 -0.014284 0.59122 0.050076 -0.46378 0.19461 0.18182 0.22086 -0.1209 -0.96601 0.30154 -0.04837 -0.17088 -0.49948 -0.13154 -0.0057009 0.25667 0.41725 0.088161 0.63334 0.35904 0.19378 -0.065365 -0.086379 -0.21145 0.6538 -0.90668 -0.057607 -0.54587 -0.365 -0.21771 -0.30612 -0.21965 -0.04775 0.49535 0.066634 -0.029931 0.064735 0.75218 0.61106 -0.19857 -0.019043 -0.44875 0.23229 -0.23949 0.11623 0.23945 0.47589 0.60456 -0.22741 -0.47533 0.24045 0.58653 0.50379 0.18068 -0.46491 0.28374 0.42108 -0.039402 0.22015 0.28231 -0.10779 0.50404 0.13668 -0.29915 -0.38324 -0.24445 0.40531 0.78062 -0.40129 -0.50556 -0.67325 -0.36592 0.13703 -0.25526 -0.29086 
어|EC -0.11393 -0.50686 -0.20963 0.22726 -0.028292 -0.019479 0.17686 0.13197 0.42582 0.22538 0.026859 0.057597 0.30133 0.093891 -0.22041 -0.23569 0.26149 0.19744 -0.00045534 0.17484 -0.23172 -0.019213 0.37385 -0.15054 0.19291 -0.011438 0.54597 -0.57537 0.48663 0.45337 -0.1974 -0.18956 -0.29038 0.072184 -0.25932 0.13127 0.40918 0.055334 -0.44738 0.10492 -0.18075 -0.031498 0.48958 -0.179 0.072519 -0.14801 -0.38075 -0.0097803 -0.47834 -0.03184 0.25858 0.19821 0.11145 -0.082612 0.081867 -0.25634 -0.087664 -0.37782 0.10724 0.26959 -0.27867 0.10578 0.066386 0.40118 -0.39977 0.19723 -0.47925 -0.13752 0.21802 0.31983 -0.14123 0.13495 -0.067497 -0.005671 -0.11561 -0.35036 0.42249 0.44926 0.047026 0.09915 -0.15573 0.10684 0.04864 -0.54662 -0.080933 -0.49073 0.035354 0.23785 -0.33699 -0.0016361 -0.074708 -0.076225 -0.0043773 -0.1937 0.025453 -0.13917 0.44571 0.23284 -0.19926 -0.17063 
서비스|NNG 0.66908 0.49908 0.34945 0.020574 -0.45473 -0.031922 0.17151 0.76023 -1.3214 -0.82411 -0.36497 -0.39353 -0.83873 -0.19369 0.15132 0.4993 -0.10818 -0.42492 0.46422 0.059498 -0.33395 0.62865 -1.1899 0.44916 -0.10265 0.23613 0.080463 0.46463 0.11182 -0.72303 0.15748 0.78996 0.72889 -0.011714 0.62762 0.15914 0.44879 0.51294 0.79049 0.61871 0.22614 -0.28056 -0.26797 -0.56702 0.26553 0.44879 -0.23049 -0.4951 0.81511 0.033649 0.45961 -0.18496 -0.20958 0.486 0.058615 -0.075647 0.39785 -0.48498 0.21511 -0.18078 0.8176 -0.31639 -0.078297 -0.14409 0.0091531 -0.58896 0.78098 -0.34319 -0.36416 -0.5243 0.9227 -0.050362 -0.10671 0.35441 -0.039839 0.64827 -0.1269 -0.69174 0.077341 0.58741 0.34554 -0.19224 -0.17745 0.31338 -0.098948 0.44311 0.55776 -0.85978 0.14678 -0.087974 -0.65672 -0.80402 0.30368 0.70775 0.29007 0.2096 -0.79244 -0.79967 0.56918 -0.38484 
잘|MAG -0.16381 0.23349 0.13642 0.031781 -0.18141 -0.23202 -0.23066 0.084584 -0.27475 -0.016973 0.02647 -0.31207 0.040065 -0.2429 0.060185 -0.0086837 0.079944 0.062956 0.28958 -0.10968 0.059602 -0.27024 0.061019 -0.39404 0.086261 -0.27494 -0.13947 -0.0096291 0.12926 -0.071184 -0.075648 -0.11469 0.0046827 0.21278 -0.24811 -0.1436 -0.19395 0.14511 0.14093 0.2103 -0.06965 0.080365 -0.46166 -0.068514 -0.16217 0.22028 -0.13658 0.25445 -0.1616 -0.010301 0.014849 0.10195 0.096138 -0.052347 -0.23318 -0.24249 -0.23032 -0.21629 -0.080592 0.20993 0.24807 0.26776 -0.10856 -0.068715 -0.00018252 0.078988 0.635 -0.28406 0.13992 -0.35624 0.064509 -0.43916 -0.031216 0.14173 0.049473 0.17311 -0.23237 -0.40575 -0.11205 -0.21539 -0.31077 -0.32457 -0.072353 -0.26431 0.0059573 -0.20971 -0.15536 0.14919 0.28437 0.57213 0.16964 -0.12654 -0.065956 -0.14997 0.27862 0.16678 0.22696 0.43449 0.24358 0.39438 
시|NNBC -0.097857 -0.13765 -0.15668 -0.31766 0.22073 0.1468 -0.18329 -0.38614 0.17617 -0.20281 0.19417 0.3026 0.099816 0.10389 0.14641 -0.21846 -0.19193 0.22386 -0.33823 0.13944 0.0037734 -0.13746 0.14447 0.13928 0.3034 0.038465 -0.65682 0.15092 -0.085223 -0.033357 -0.0039562 -0.30202 0.059608 0.056911 -0.17464 -0.018684 -0.04446 -0.29961 0.18933 -0.27289 0.39925 -0.052117 0.15833 -0.07392 -0.19995 -0.094256 0.42253 0.016302 0.25677 -0.12521 0.018083 -0.30067 0.18932 0.14179 0.049903 0.42042 -0.055144 0.34126 -0.28209 -0.39236 0.11233 -0.12261 0.044672 -0.31617 0.12766 0.13822 -0.18873 0.058586 0.016938 -0.13287 -0.12545 0.27363 0.0078523 -0.074826 0.28049 -0.12445 -0.35976 0.32872 -0.025679 0.035714 0.091053 -0.099545 0.1563 0.31758 0.08348 0.17161 -0.36594 -0.096168 0.076255 -0.073296 0.32455 0.26455 -0.46812 0.073507 -0.14812 0.33885 0.11841 -0.35107 -0.23144 0.2013 
gb|SL 0.034842 -0.19708 0.01593 0.21585 -0.37422 0.093359 0.18497 0.33168 -0.30948 -0.26415 0.026527 0.2225 -0.070464 -0.16888 -0.047343 -0.16551 -0.22991 -0.067161 0.022371 0.32266 -0.0081526 0.010011 -0.3736 0.13905 0.32627 0.18435 -0.050849 0.23765 0.13417 -0.0043782 -0.088518 -0.36042 0.2653 0.442 0.57246 0.17888 0.18116 0.46453 0.12054 0.14391 0.29551 -0.1259 -0.10361 -0.14165 0.073625 -0.14464 -0.15507 -0.032577 0.044954 -0.1909 0.010662 -0.095029 0.14484 0.021016 0.40136 0.25264 0.057996 0.039944 0.14756 -0.12356 0.22934 -0.20456 -0.22222 -0.12845 -0.02235 0.057093 -0.024905 -0.50007 -0.19958 0.099969 -0.10985 0.046267 0.1882 -0.16256 -0.1871 -0.12142 -0.086838 -0.21508 -0.35193 0.097112 -0.031887 -0.27144 -0.00056031 -0.036611 -0.065421 -0.51066 -0.21244 0.15139 0.043753 0.040586 -0.10496 -0.085677 -0.28119 0.10904 0.15797 0.33538 0.085852 -0.17308 0.30943 0.02563 
상담|NNG -0.52865 0.25158 0.2745 0.11365 -0.27041 -0.02704 0.50872 0.18259 0.34406 0.28274 0.16365 -0.2566 0.35624 -0.052084 0.06428 0.071618 0.56345 0.50612 -0.079825 -0.042412 -0.23454 0.55326 -0.49744 -0.00804 -0.12954 0.28165 0.33438 0.17309 -0.34856 -0.27761 -0.29287 0.1724 0.53135 0.45081 0.11128 0.29637 0.48442 0.25673 -0.23085 -0.02331 -0.19522 0.076359 -0.3719 0.16284 -0.14416 0.028027 0.051878 -0.23775 -0.32812 -0.18731 0.33901 0.48096 -0.20874 0.57345 0.29063 -0.63827 -0.097481 0.45155 0.18784 0.40163 -0.26704 -0.023323 -0.17931 0.042443 0.43131 -0.15373 0.38392 -0.12066 0.25983 0.016915 0.18791 -0.26829 -0.41901 -0.50317 -0.0061087 -0.17889 0.31611 -0.30474 0.0094234 -0.13977 -0.32767 0.23348 0.08006 0.1885 -0.30411 -0.18773 0.55735 -0.3593 -0.0053865 -0.32915 -0.33703 -0.35196 -0.085196 -0.45868 0.28589 -0.079091 0.13672 0.043078 0.0274 -0.54435 
3|SN 0.0805 -0.26115 0.048781 0.19006 -0.38271 0.094231 0.18521 0.36328 -0.4758 -0.34038 0.041462 0.31201 -0.14348 -0.21824 -0.0057553 -0.18062 -0.309 -0.060044 0.033054 0.41414 0.013402 -0.024576 -0.43429 0.17003 0.41458 0.21584 -0.12264 0.29025 0.16905 -0.00019397 -0.07701 -0.44175 0.2797 0.53037 0.67524 0.21214 0.16288 0.55131 0.16752 0.15073 0.32231 -0.17618 -0.12494 -0.18986 0.082858 -0.22658 -0.1409 -0.013509 0.10951 -0.25504 0.052512 -0.15028 0.21723 0.019462 0.5084 0.39641 0.099169 0.072008 0.1051 -0.18676 0.2804 -0.24304 -0.35404 -0.21938 0.018811 0.067892 0.023954 -0.58303 -0.28548 0.11656 -0.175 -0.00060466 0.18527 -0.095265 -0.16149 -0.11638 -0.20028 -0.29171 -0.43265 0.17339 -0.051762 -0.34922 -0.012641 -0.04623 -0.051024 -0.51881 -0.29461 0.19291 0.05353 0.060225 -0.096917 -0.089571 -0.36067 0.23023 0.19114 0.45628 0.089354 -0.2374 0.38393 0.049797 
매장|NNG -0.23561 0.075786 -0.012303 -0.025791 -0.079312 -0.081258 -0.10014 -0.075289 0.06654 0.26215 0.21771 -0.14223 0.28677 -0.21813 0.025819 -0.12177 0.070375 0.18436 0.11502 -0.14661 0.16395 -0.33331 0.2601 -0.32769 0.11178 -0.2248 -0.097026 -0.054473 0.049606 0.069489 -0.11488 -0.24124 -0.067712 0.1957 -0.12976 -0.057695 -0.1576 0.0073677 -0.10868 0.023982 0.0001719 0.17227 -0.34961 0.10175 -0.30236 0.016581 -0.1119 0.27861 -0.19707 -0.028805 -0.16858 0.091572 0.094726 -0.10359 -0.072454 -0.15793 -0.12842 0.0093333 -0.17699 0.1715 -0.057596 0.21104 -0.16192 -0.10757 0.12309 0.22336 0.19867 -0.0573 0.26726 -0.16886 -0.12901 -0.30627 0.015058 -0.010974 0.092383 -0.18941 -0.11265 -0.13332 -0.095134 -0.33642 -0.32281 -0.15296 -0.083999 -0.24618 -0.02445 -0.22166 -0.26143 0.21952 0.15106 0.27903 0.1791 0.057058 -0.28583 -0.22494 0.17984 0.17717 0.38431 0.40515 -0.025 0.32114 
추천|NNG -0.2387 0.067849 -0.011233 -0.027028 -0.082369 -0.07924 -0.09669 -0.081824 0.06449 0.25403 0.22653 -0.14753 0.28767 -0.21216 0.039824 -0.11446 0.056536 0.17974 0.11767 -0.15021 0.16908 -0.33914 0.25975 -0.32312 0.10917 -0.2202 -0.11376 -0.069178 0.053742 0.080007 -0.10553 -0.22701 -0.083347 0.19442 -0.14233 -0.051294 -0.15664 0.0031144 -0.11337 0.021972 -0.0039733 0.16963 -0.35444 0.10329 -0.29061 0.011272 -0.10402 0.26048 -0.19683 -0.023733 -0.1756 0.090744 0.092117 -0.095549 -0.079508 -0.15695 -0.1184 -0.0070338 -0.17209 0.17341 -0.04926 0.21644 -0.16333 -0.10449 0.12784 0.23563 0.21213 -0.068221 0.2716 -0.1602 -0.12554 -0.2981 0.0082145 -0.0065179 0.095138 -0.19312 -0.10751 -0.11935 -0.095531 -0.32775 -0.3258 -0.16278 -0.090159 -0.24485 -0.021235 -0.23272 -0.26351 0.2242 0.13851 0.281 0.18557 0.065172 -0.28781 -0.22273 0.1754 0.17943 0.39301 0.40479 -0.01589 0.32751 
손해|NNG 0.018166 -0.047391 -0.051475 -0.0693 0.018356 0.11769 -0.061264 -0.028831 -0.084441 -0.070436 0.1382 0.12918 -0.12062 0.068882 -0.020522 0.024963 -0.026177 -0.080157 -0.22332 0.061244 -0.051286 0.16186 -0.036737 0.22947 -0.03182 0.09157 -0.056288 0.070584 0.023493 -0.086596 0.18003 -0.10993 0.01641 0.050529 -0.059837 -0.13549 -0.14566 -0.022143 0.14153 -0.024675 -0.16495 -0.0084317 -0.022352 0.035928 -0.12888 0.1165 0.011627 0.007745 0.27957 -0.22164 0.25951 0.12089 0.13827 -0.10814 0.071972 0.0061907 0.19174 0.13653 -0.12566 -0.091635 0.20811 -0.1556 0.059066 -0.23478 0.094569 -0.05831 0.11764 0.1562 0.071157 -0.061227 0.018654 -0.021761 0.015967 0.14147 0.020697 -0.0051285 -0.15943 -0.4131 -0.047907 0.21116 0.035744 -0.035049 -0.06903 0.1716 -0.17393 0.23348 -0.29352 -0.12854 0.041406 0.34651 0.096248 0.032563 0.086423 0.34559 0.083563 -0.043893 -0.0059289 -0.021164 0.20621 0.12967 
스마트폰|NNP 0.18774 -0.4542 0.54975 -0.18822 -0.09664 -0.31614 -0.27214 0.5037 -0.31321 -0.29895 -0.10766 0.074532 0.094208 -0.17099 0.19611 0.06159 -0.031832 -0.082697 -0.10789 -0.0742 -0.0057711 -0.21962 -0.10664 0.15157 0.012659 0.047044 -0.28884 -0.049403 0.012389 -0.44021 -0.021634 0.38759 0.0056777 0.18021 -0.046187 -0.15235 -0.039513 0.30161 0.031589 -0.14019 -0.19339 -0.46457 -0.088035 -0.39149 -0.047234 0.080464 -0.069612 -0.083649 0.16121 -0.29546 0.21509 -0.020103 0.18043 -0.026748 -0.23971 0.23658 0.2114 -0.13033 -0.17135 -0.073147 -0.10494 -0.050095 -0.3299 -0.21951 -0.079909 0.058129 0.14829 0.15297 0.01049 -0.18326 0.0037867 -0.10258 -0.29353 -0.088977 0.25417 -0.10905 -0.066872 -0.097269 -0.0051805 0.0048632 0.066644 -0.063295 0.033531 -0.013261 -0.15731 0.2447 -0.049915 -0.099848 0.2883 0.039931 -0.073455 -0.1019 -0.13582 0.21478 -0.020227 0.30575 -0.2687 -0.21201 -0.072376 0.14253 
끊|VV -0.047709 -0.52769 -0.26135 0.24188 -0.11369 0.16354 0.29333 -0.12029 0.58008 0.18816 0.22997 0.12645 0.33783 0.052491 -0.18017 -0.14056 0.13416 0.14477 -0.20313 0.22758 -0.18174 0.051938 0.21686 0.10856 0.24136 0.12561 0.31355 -0.42067 0.3441 0.4905 -0.28013 -0.27407 -0.29649 0.093687 -0.075412 0.23411 0.32087 -0.028528 -0.42724 -0.026437 0.0093106 0.04528 0.54625 -0.29639 -0.10462 -0.12718 -0.46624 -0.16662 -0.34109 -0.22419 0.37006 -0.0088937 0.22116 -0.19205 0.092361 -0.10075 -0.08772 -0.26675 0.13651 0.083043 -0.11468 -0.040584 -0.10464 0.29642 -0.22742 0.29497 -0.78373 -0.08233 0.28773 0.40579 -0.12219 0.37273 -0.18818 -0.24379 -0.279 -0.52253 0.45737 0.48346 -0.029928 0.062747 -0.010449 0.16177 0.017108 -0.35246 -0.26555 -0.61539 -0.027249 0.14057 -0.30478 -0.096216 -0.11152 0.0054289 -0.11229 -0.28304 0.035954 0.096328 0.35786 -0.096315 -0.33605 -0.10988 
바꿔|VV+EC 0.058487 0.31741 -0.2461 0.13434 0.025071 0.1124 0.061621 -0.21834 0.27993 0.12735 -0.069421 -0.07212 -0.012089 0.069888 -0.17366 0.029823 -0.11221 -0.26964 0.077442 -0.17657 0.13754 0.009468 0.032728 0.068197 -0.3358 0.010932 0.17025 0.066472 -0.27247 0.070514 0.087975 0.063002 -0.03896 -0.46922 0.13881 -0.0358 -0.10944 -0.3003 -0.014462 -0.045462 0.19347 0.20905 0.058789 0.31197 0.13811 0.1024 0.03042 -0.035256 -0.043674 0.30178 -0.4579 -0.08668 -0.24562 -0.18551 -0.1181 -0.095772 -0.11043 0.045233 0.20837 -0.034637 0.037063 0.013522 0.38427 0.23583 -0.070991 0.021927 -0.25182 0.13673 -0.11091 0.019885 0.1183 0.28798 0.29742 -0.14556 -0.20628 0.1019 0.23215 0.28797 0.080273 -0.23299 0.16536 0.20045 -0.0033787 0.17922 0.13343 -0.021769 0.19935 0.048642 -0.1094 -0.2054 -0.075487 0.25068 0.31782 -0.17717 -0.26667 -0.2651 -0.18427 0.0024116 -0.1663 -0.1024 
게|NNB+JKS -0.15976 -0.027785 0.061763 0.16464 -0.27327 0.043753 0.25957 0.17509 -0.020518 -0.049722 0.076463 0.019457 0.08054 -0.10561 -0.018712 -0.079738 0.040767 0.1185 -7.367e-05 0.17588 -0.075877 0.15881 -0.32545 0.049037 0.13243 0.17061 0.07704 0.16165 -0.009858 -0.037919 -0.14896 -0.17829 0.26713 0.33359 0.30109 0.20263 0.24936 0.29058 -0.010219 0.088165 0.13638 0.0036537 -0.13567 -0.017415 0.0063222 -0.066603 -0.071281 -0.079091 -0.12222 -0.14239 0.097705 0.084605 0.012659 0.16837 0.29748 -0.087939 -0.056038 0.12488 0.14014 0.067863 0.076406 -0.10154 -0.14231 -0.024819 0.096159 0.026561 0.077905 -0.32553 -0.02067 0.060554 -0.0061494 -0.025596 -0.0092011 -0.24487 -0.12088 -0.099633 0.0648 -0.15814 -0.18322 -0.01792 -0.13202 -0.067224 0.040181 0.02366 -0.10333 -0.36649 0.063996 0.011397 0.0067532 -0.067829 -0.15708 -0.13017 -0.15885 -0.12675 0.14556 0.14313 0.11808 -0.070175 0.13734 -0.16308 
어떻|VA 0.14238 -0.33755 0.34682 -0.12868 -0.081816 -0.24125 -0.25165 0.30144 -0.27306 -0.3128 -0.050433 0.079094 0.029434 -0.13053 0.16859 0.034407 -0.041692 -0.054791 -0.10034 -0.0016145 -0.034336 -0.19665 -0.069661 0.12927 0.063678 0.053809 -0.28921 -0.073922 0.075721 -0.32387 0.013628 0.18955 -0.0097681 0.12183 -0.072532 -0.13673 -0.05167 0.19384 0.081996 -0.079003 -0.11151 -0.34426 -0.056227 -0.37794 -0.083256 0.097222 -0.073925 -0.020524 0.17642 -0.24936 0.24115 -0.059246 0.2032 -0.079328 -0.20097 0.20844 0.10261 -0.11443 -0.18265 -0.075597 0.10454 -0.044979 -0.24525 -0.20477 -0.089763 0.081405 0.14087 0.0654 0.011133 -0.20523 0.0083772 -0.057683 -0.20223 -0.026201 0.18777 -0.061682 -0.14177 -0.11026 -0.063714 0.035534 0.045998 -0.12885 -0.0012981 0.0015447 -0.10556 0.16376 -0.096999 -0.076475 0.2469 0.18599 -0.030427 -0.074061 -0.13514 0.21964 0.0074893 0.29575 -0.16671 -0.18675 -0.0081376 0.17516 
센터|NNG -0.10808 -0.010211 -0.067967 -0.015481 -0.03837 0.054099 -0.066699 -0.06723 0.063909 0.074111 0.18871 0.00014369 0.077758 -0.028909 -0.048741 -0.055161 0.050456 0.025539 -0.099934 -0.00010876 -0.0042286 -0.022088 0.09745 0.01497 0.017774 -0.030888 -0.043975 -0.032365 0.05342 0.029393 0.044189 -0.20866 -0.054294 0.065311 -0.14691 -0.11185 -0.12255 -0.039782 0.033934 0.00082274 -0.10548 0.082153 -0.099224 0.055794 -0.2034 0.12336 -0.084978 0.099091 0.042975 -0.1526 0.11964 0.1345 0.1374 -0.11654 -0.015942 -0.1215 0.025863 0.053432 -0.097935 0.016178 0.13581 0.0058408 0.035948 -0.14325 0.049845 0.07521 0.11583 0.056461 0.19368 -0.099967 -0.023181 -0.069031 0.014592 0.049508 0.0013663 -0.087576 -0.082892 -0.26107 -0.064349 -0.017647 -0.10853 -0.060773 -0.059019 -0.0045663 -0.14275 -0.011198 -0.28448 0.013184 0.055133 0.35896 0.13828 0.065096 0.0050462 0.086078 0.11322 0.0074025 0.17386 0.16113 0.11075 0.20514 
수리|NNG -0.26072 0.043672 0.010796 -0.013887 -0.084941 -0.10144 -0.12009 -0.063431 0.049725 0.30336 0.26767 -0.15721 0.32378 -0.24745 0.029175 -0.14695 0.086057 0.22473 0.13811 -0.17478 0.18437 -0.38986 0.31496 -0.37997 0.13398 -0.27086 -0.099316 -0.10477 0.091026 0.09403 -0.12958 -0.26379 -0.11272 0.24671 -0.1684 -0.06463 -0.16846 0.024592 -0.12899 0.04674 -0.032844 0.19436 -0.40262 0.083497 -0.353 -0.0025762 -0.15289 0.31014 -0.23903 -0.047496 -0.17986 0.12958 0.13165 -0.14078 -0.09015 -0.18251 -0.14032 -0.036165 -0.2116 0.20847 -0.083533 0.26167 -0.21133 -0.12635 0.12479 0.28088 0.23119 -0.084418 0.32427 -0.18039 -0.14927 -0.37077 -0.0065519 0.015708 0.11325 -0.23999 -0.13174 -0.16881 -0.11383 -0.37366 -0.38106 -0.18436 -0.10101 -0.32738 -0.045816 -0.26484 -0.32047 0.2681 0.17153 0.34629 0.22149 0.051639 -0.33286 -0.25284 0.21584 0.20819 0.46364 0.49062 -0.011587 0.37898 
핸드폰|NNG 0.16992 -0.47579 0.56543 -0.36449 -0.0092122 -0.2782 -0.3376 0.50008 -0.43088 -0.19119 0.069231 0.16033 0.13826 -0.25778 0.21892 -0.0059327 -0.10295 -0.015528 -0.039157 -0.15111 0.12293 -0.4398 0.038763 0.049184 0.068242 -0.015983 -0.31508 -0.028859 0.084221 -0.41702 0.086253 0.22477 -0.079993 0.26318 -0.072845 -0.21009 -0.13297 0.3142 0.027943 -0.15245 -0.20519 -0.40265 -0.21209 -0.25797 -0.19313 0.019845 -0.037695 0.108 0.19891 -0.32174 0.041395 0.020123 0.2586 -0.14031 -0.15987 0.30068 0.28647 -0.11039 -0.33459 -0.044375 -0.1271 -0.043673 -0.39671 -0.37463 -0.029161 0.16912 0.25591 0.28849 0.089851 -0.21788 -0.10584 -0.26807 -0.16647 0.092351 0.38895 -0.20965 -0.2122 -0.2662 -0.038006 -0.055427 -0.07405 -0.13746 -0.0054969 -0.091254 -0.12888 0.28781 -0.30979 0.071247 0.29031 0.17839 0.086239 -0.005716 -0.27729 0.35167 0.033304 0.39291 -0.042487 -0.042054 -0.035987 0.27629 
한가요|XSA+EC 0.062109 0.20817 -0.10638 0.10043 -0.0089937 0.048774 0.0786 -0.058812 0.097515 0.098116 -0.08594 -0.065028 -0.037338 0.035409 -0.099649 0.04589 -0.043724 -0.17859 0.093918 -0.11887 0.078455 0.044974 -0.037403 0.04149 -0.24815 0.032116 0.20016 0.049718 -0.17219 0.014382 0.079778 0.10945 0.0066472 -0.27499 0.15912 0.005813 -0.034783 -0.11978 -0.028821 0.0032404 0.081922 0.12477 -0.0021349 0.20536 0.12594 0.035774 -0.0076646 -0.034803 -0.040703 0.19126 -0.29013 -0.016498 -0.18908 -0.094667 -0.031476 -0.068244 -0.030534 0.018223 0.16037 0.02191 -0.010937 0.00089212 0.19705 0.1762 -0.02116 -0.028902 -0.1208 0.077359 -0.11123 0.052606 0.079806 0.13193 0.19145 -0.078873 -0.14877 0.084854 0.18311 0.11895 0.049267 -0.12902 0.093693 0.13219 -0.02845 0.090841 0.092214 -0.013758 0.19482 0.020981 -0.093822 -0.16336 -0.1133 0.10663 0.24195 -0.11596 -0.15844 -0.20206 -0.14532 0.015006 -0.059808 -0.13668 
인터넷|NNG -0.38336 -0.016866 0.063861 -0.056366 -0.11248 -0.11837 -0.08751 0.022031 0.0045574 0.4132 0.32386 -0.12776 0.38342 -0.273 0.072519 -0.15311 0.17721 0.34118 0.13354 -0.18754 0.19255 -0.38162 0.30614 -0.42989 0.18005 -0.2758 -0.052209 -0.090522 0.12722 0.066357 -0.13397 -0.26892 -0.059868 0.4266 -0.13376 -0.038374 -0.13306 0.13674 -0.19537 0.044377 -0.16262 0.16618 -0.52862 0.13572 -0.42822 -0.08296 -0.13476 0.38478 -0.22873 -0.11703 -0.11289 0.25218 0.13926 -0.05602 0.022205 -0.2163 -0.026817 0.081856 -0.29859 0.29654 -0.20478 0.25994 -0.34963 -0.24019 0.2589 0.24165 0.36309 -0.034722 0.39135 -0.1579 -0.22641 -0.56553 -0.064106 0.062923 0.18825 -0.31889 -0.17667 -0.35134 -0.14553 -0.33334 -0.49712 -0.20383 -0.15367 -0.38151 -0.082228 -0.19873 -0.36177 0.25873 0.17526 0.3549 0.21306 -0.023976 -0.45899 -0.17395 0.33137 0.21415 0.54994 0.57339 0.085672 0.35683 
날|NNG 0.078683 0.28307 -0.18791 0.1563 0.013036 0.070558 0.077263 -0.1384 0.19456 0.15089 -0.098582 -0.080251 -0.04567 0.05302 -0.18017 0.052876 -0.098984 -0.2903 0.12488 -0.18129 0.12669 0.024164 0.017303 0.042991 -0.35102 0.0097984 0.25368 0.040922 -0.21916 0.0814 0.10451 0.11774 -0.043337 -0.44634 0.17532 -0.032343 -0.092441 -0.22936 -0.043876 -0.019199 0.1269 0.18853 0.032916 0.29932 0.16339 0.076994 -0.0094854 -0.025883 -0.065438 0.3116 -0.44388 -0.057625 -0.25917 -0.18471 -0.095407 -0.10592 -0.084668 -0.0081629 0.20815 0.0096721 0.0029022 0.019408 0.32946 0.26356 -0.077011 -0.011701 -0.20031 0.13324 -0.14043 0.063354 0.10045 0.23267 0.28512 -0.10319 -0.21057 0.11379 0.25323 0.23174 0.07127 -0.19789 0.14359 0.18827 -0.025236 0.118 0.15094 -0.011681 0.22281 0.060651 -0.12663 -0.19501 -0.12062 0.20009 0.36321 -0.14918 -0.2453 -0.29693 -0.18078 0.051926 -0.1156 -0.12219 
에이에스|NNG -0.19816 0.09573 0.027359 -0.032067 -0.087409 -0.0607 -0.091546 -0.044186 -0.02806 0.20868 0.21629 -0.11174 0.2024 -0.21603 0.04819 -0.071295 0.017198 0.11785 0.096996 -0.1483 0.17979 -0.27601 0.15699 -0.24568 0.050825 -0.1634 -0.11571 0.022466 0.0093526 -0.010439 -0.043388 -0.17866 -0.019797 0.19359 -0.038535 -0.069157 -0.19357 0.035633 -0.044054 0.020787 -0.0085539 0.153 -0.3846 0.10893 -0.27806 0.032758 -0.093752 0.23728 -0.097019 -0.056843 -0.14612 0.077774 0.073376 -0.11475 -0.040479 -0.11405 -0.063433 0.038373 -0.16953 0.11822 0.0028627 0.16812 -0.16712 -0.15286 0.16781 0.1862 0.2535 -0.018084 0.20763 -0.17718 -0.094693 -0.30318 0.038411 0.0090212 0.075326 -0.14663 -0.15861 -0.24317 -0.11664 -0.28654 -0.26907 -0.16398 -0.1084 -0.15624 -0.046846 -0.12698 -0.25818 0.1802 0.17072 0.29472 0.14938 0.053396 -0.22768 -0.13019 0.16073 0.15614 0.29476 0.34477 0.04979 0.29768 
저렴|XR 0.19377 0.1314 0.18234 -0.25758 0.33562 -0.0055936 0.086412 -0.25873 -0.36441 0.15618 -0.071086 0.05289 -0.35199 0.10264 0.28744 0.32665 0.073835 0.19359 0.034407 0.038714 0.096855 0.11509 -0.055063 -0.064634 0.10363 -0.027947 -0.01415 0.10542 0.042688 0.2001 0.051065 0.14737 -0.1948 0.089271 0.10201 0.17695 -0.12937 0.041312 -0.032843 0.016679 -0.29616 0.020762 -0.038088 0.017667 0.011602 -0.43289 0.20636 0.054927 0.15488 0.065535 0.15846 -0.011256 -0.10935 0.17609 0.18685 0.29506 0.15602 0.1924 -0.14503 0.08417 -0.24324 0.013416 -0.45505 -0.1703 0.36988 -0.26311 0.11504 0.1515 -0.16719 0.29148 -0.26652 -0.36855 -0.29739 0.34801 0.056569 0.17497 -0.22756 -0.20125 0.092485 0.21907 0.0034677 0.085681 -0.097848 -0.011129 0.21114 0.43683 0.26298 -0.047378 -0.13172 -0.29828 -0.010028 -0.18655 -0.13234 0.18082 0.11585 -0.0010098 -0.13297 -0.11826 0.093431 -0.20313 
할까요|XSA+EC 0.035287 0.15986 -0.20937 0.019318 0.058759 0.098384 -0.0043502 -0.21328 0.1839 0.019846 0.0063138 0.046514 0.00018215 0.051351 -0.061794 -0.046382 -0.14542 -0.12775 -0.018443 -0.054977 0.092478 -0.028009 0.039562 0.099785 -0.14476 0.045709 -0.02571 0.085196 -0.18776 0.034918 0.098793 -0.047175 -0.007642 -0.31665 0.077457 -0.016865 -0.071842 -0.26933 0.047196 -0.085691 0.25651 0.13329 0.070433 0.18101 0.038823 0.024399 0.13269 -0.021049 0.045798 0.16906 -0.30179 -0.13979 -0.11375 -0.098577 -0.035174 0.074339 -0.089847 0.12898 0.044962 -0.13443 0.09241 -0.040061 0.26903 0.076767 -0.024216 0.056594 -0.19363 0.088952 -0.10767 -0.024335 0.017112 0.26178 0.23422 -0.09268 -0.060511 0.048936 0.041495 0.25819 0.014196 -0.14346 0.1229 0.094005 0.044765 0.20081 0.14125 0.040618 0.051823 0.02928 -0.07172 -0.12024 0.018973 0.22908 0.087735 -0.060117 -0.20643 -0.073085 -0.091559 -0.093213 -0.12316 -0.045158 
알려줘|VV+EC+VX+EC -0.10539 0.233 -0.33891 0.011773 -0.012809 0.3299 0.33351 -0.22787 -0.24645 -0.39567 0.53446 0.31098 -0.011338 0.001196 0.14886 0.28585 -0.37122 -0.11058 -0.1478 0.1151 0.069187 -0.006013 -0.3048 0.16219 -0.17737 0.19826 0.011165 0.072562 -0.23844 -0.41463 0.29608 0.33935 0.32418 0.11638 0.47022 0.14512 0.30408 -0.34699 -0.031162 0.1209 0.23616 0.20985 0.021616 -0.073265 -0.34006 0.1765 0.062253 -0.24245 0.58227 -0.046582 -0.027122 -0.34421 -0.016158 -0.288 0.34295 0.067836 0.12985 -0.014986 -0.30486 -0.18515 0.3836 -0.20176 -0.21431 -0.0014093 0.37836 -0.15861 -0.12338 0.57205 -0.13554 -0.1491 0.44983 -0.035213 0.15001 0.18102 0.13937 -0.013646 -0.081829 -0.60926 -0.16143 0.30701 0.35148 -0.026931 -0.18368 -0.052954 -0.2473 0.38764 -0.15216 -0.2948 0.070195 -0.25805 -0.24059 -0.073331 -0.036508 0.2577 0.19956 -0.11207 -0.058615 -0.17714 0.10216 -0.23661 
은데|EC 0.10474 0.099247 0.051135 0.040678 0.0052624 0.052322 0.01994 0.073835 -0.047124 0.046657 -0.13932 -0.033567 -0.097923 0.014953 -0.054602 0.11266 -0.11794 -0.25242 0.030342 -0.13463 0.1149 0.080389 -0.074614 0.079244 -0.17941 -0.04968 -0.001935 0.10973 -0.18909 -0.091539 0.047025 0.23276 0.052088 -0.092943 0.17842 -0.057448 -0.15456 0.04472 0.020876 -0.038981 -0.041556 -0.019848 -0.028389 0.11772 0.15551 0.021209 -0.012262 -0.062753 0.07078 0.090031 -0.20488 -0.049176 -0.090485 -0.011211 -0.054103 0.059817 0.17637 0.0022453 0.10463 -0.081438 -0.15332 -0.031486 0.028776 0.02094 0.026195 -0.11385 -0.11821 0.098242 -0.098589 0.094965 0.078605 0.041261 0.056844 -0.039695 -0.081161 0.052358 0.059341 -0.023022 0.066359 0.026412 0.1475 0.089814 -0.02723 0.1012 -0.053579 0.12499 -0.0077623 -0.046285 0.055141 -0.16424 -0.071008 0.013381 0.17331 0.018219 -0.089803 -0.1432 -0.26318 -0.0039796 0.015914 0.031128 
들려|VV+EC 0.12802 0.44488 -0.0093132 0.34901 -0.30319 -0.218 -0.30069 -0.063863 -0.11122 -0.65459 -0.38168 -0.56795 -0.34655 -0.013163 -0.097296 0.13341 -0.068673 -0.34598 0.28589 0.11984 -0.31397 0.074415 -0.24659 -0.13884 -0.074231 -0.12869 -0.24513 -0.014446 0.082087 -0.13323 -0.069698 -0.048352 0.036231 -0.40502 -0.53493 -0.25446 -0.11619 -0.099606 0.57836 0.3309 0.24102 0.041213 0.078408 -0.35782 0.32946 0.79774 -0.1417 -0.17873 -0.13525 0.15311 0.31661 -0.23809 0.057895 -0.086805 -0.72009 -0.3961 -0.68157 -0.68413 0.43865 -0.055776 1.0061 0.1558 0.56512 0.41323 -0.55993 -0.074974 0.53955 -0.63811 -0.13047 -0.51921 0.60148 0.27324 0.021733 -0.040615 -0.34989 0.81841 -0.012486 -0.0020193 -0.015709 -0.052799 0.18393 -0.26157 0.17569 0.11373 0.016182 -0.38672 0.26818 -0.10162 0.28724 0.71218 0.046654 -0.13671 0.73116 -0.33252 -0.016677 0.010151 -0.32201 -0.072618 0.18037 0.23763 
할인|NNG -0.037168 -0.0062395 -0.089265 -0.0045637 -0.0014198 0.10376 -0.018975 -0.057071 0.063573 0.0065998 0.12124 0.053164 -0.028451 0.058837 -0.062265 -0.0086495 0.021821 -0.033673 -0.15264 0.022438 -0.050049 0.13623 0.0049805 0.13717 -0.047527 0.044671 0.016592 0.017009 0.0077689 -0.016688 0.092934 -0.12091 -0.0020996 0.0049213 -0.0892 -0.099756 -0.072989 -0.062539 0.071784 -0.021155 -0.10415 0.059604 0.0019959 0.068364 -0.10981 0.12848 -0.02363 0.0022827 0.13174 -0.13411 0.17664 0.11737 0.094281 -0.096977 0.02294 -0.10111 0.085765 0.075717 -0.048947 -0.024477 0.14203 -0.090358 0.10326 -0.11056 0.035252 -0.016561 0.054573 0.11428 0.10213 -0.033165 0.032589 0.020535 0.01995 0.060437 -0.012094 -0.027914 -0.044216 -0.23946 -0.020794 0.093423 0.0020597 -0.00020167 -0.034647 0.10668 -0.14119 0.090199 -0.18033 -0.086764 -0.003979 0.26716 0.07366 0.046817 0.10093 0.16597 0.060259 -0.076082 0.045977 0.04346 0.12073 0.077465 
쓰|VV 0.12019 0.028641 0.066169 -0.16308 0.34061 -0.031107 -0.12024 0.061264 -0.20448 0.13592 -0.29587 0.077079 -0.22424 0.2135 0.025284 0.044184 0.019834 -0.013971 0.10428 -0.096519 0.056665 0.041699 0.19849 -0.148 0.021613 -0.21511 0.074671 -0.043609 0.050266 0.10692 0.033991 0.27593 -0.088079 -0.023808 -0.043166 -0.03671 -0.07149 0.020278 -0.045963 -0.012433 -0.25171 -0.12885 0.056958 0.13501 0.22339 -0.27817 0.24201 0.072147 0.057109 0.25246 -0.17689 0.048782 -0.16266 0.22685 0.044202 0.20918 0.28425 0.049324 -0.041989 0.0012106 -0.53054 0.04451 -0.0098128 0.0066796 0.023871 -0.29173 -0.032895 0.15535 -0.17363 0.20701 -0.16065 -0.203 0.021121 0.30785 0.1413 0.14192 -0.10605 0.099825 0.21572 0.24287 0.074459 0.047116 -0.021832 -0.11979 0.22601 0.39388 0.0082214 -0.012738 -0.097946 -0.28296 0.10615 -0.10208 -0.0038868 0.20603 -0.054889 -0.2807 -0.14617 0.14918 0.078009 -0.04814 
통화|NNG -0.31984 0.16461 0.1726 0.06228 -0.1509 -0.013595 0.31144 0.13252 0.19366 0.18097 0.074018 -0.14895 0.20145 -0.028386 0.047805 0.051347 0.33443 0.30827 -0.042588 -0.023759 -0.14326 0.35314 -0.31927 0.002068 -0.11048 0.17742 0.20798 0.13162 -0.23119 -0.19026 -0.16086 0.13922 0.34607 0.24947 0.088239 0.18793 0.31564 0.14496 -0.12532 -0.0030418 -0.11514 0.032521 -0.23035 0.13161 -0.076442 0.0065198 0.062679 -0.15165 -0.19167 -0.10088 0.18666 0.29483 -0.16439 0.38125 0.19463 -0.39983 -0.037705 0.30185 0.12463 0.24611 -0.17297 -0.023616 -0.10463 0.015341 0.26666 -0.11598 0.24555 -0.059967 0.13608 0.00010201 0.12133 -0.16912 -0.24334 -0.31039 0.0063289 -0.090218 0.20593 -0.18601 0.026505 -0.085579 -0.18961 0.16248 0.05195 0.13312 -0.16309 -0.083888 0.35531 -0.2248 0.0049453 -0.23962 -0.22727 -0.20988 -0.034331 -0.27805 0.15969 -0.078846 0.052623 0.023533 0.027429 -0.36368 
다자녀|NNG -0.030794 -0.007915 -0.084872 -0.013315 -0.0025843 0.10468 -0.032238 -0.058284 0.052473 0.0056424 0.13294 0.050322 -0.0096391 0.066318 -0.069854 -0.014057 0.022033 -0.038453 -0.15161 0.020976 -0.050476 0.1334 0.011189 0.14084 -0.045352 0.056384 0.0031516 0.00933 0.0027563 -0.023687 0.10793 -0.11276 -0.0021036 -0.0010073 -0.094907 -0.10532 -0.078859 -0.066136 0.072077 -0.015581 -0.099923 0.046264 0.010562 0.050122 -0.10682 0.12306 -0.027159 0.016332 0.13408 -0.13574 0.18821 0.11163 0.085488 -0.099032 0.030725 -0.10006 0.081584 0.080289 -0.057183 -0.038744 0.15198 -0.091126 0.095989 -0.11954 0.040688 -0.0028934 0.043624 0.10703 0.10363 -0.040299 0.022612 0.02936 0.023293 0.052065 -0.029329 -0.024401 -0.041119 -0.23426 -0.017627 0.09823 0.0033319 0.0013402 -0.051142 0.11284 -0.13342 0.10139 -0.196 -0.076922 0.0075063 0.26992 0.078851 0.056916 0.10523 0.16025 0.047542 -0.086974 0.045584 0.046417 0.10718 0.090356 
화|XSN 0.12098 -0.84827 0.75712 -0.50064 0.037059 -0.22741 -0.13685 0.6278 -0.081547 -0.016412 0.23574 0.20543 0.38696 -0.18779 0.11382 -0.098478 0.047927 0.19923 -0.025225 -0.098097 0.0059473 -0.41743 0.14938 0.028381 0.19612 0.045847 -0.0019312 -0.23099 0.28075 -0.13464 -0.11406 0.014808 -0.3272 0.31605 -0.3893 -0.11305 0.17094 0.35433 -0.21893 -0.18731 -0.34518 -0.37749 0.079532 -0.24811 -0.206 0.010164 -0.17206 0.010016 -0.19435 -0.44196 0.17992 0.24781 0.34937 -0.12661 -0.079548 0.080533 0.22705 -0.28616 -0.13806 0.13937 -0.42071 -0.14189 -0.32526 -0.13856 -0.25182 0.27555 0.036861 0.38778 0.31588 0.047637 -0.16743 -0.14007 -0.33464 0.026258 0.32292 -0.43741 0.2138 -0.03312 0.091334 -0.056794 -0.20219 0.10363 0.19886 -0.29171 -0.30037 -0.05593 -0.23596 0.22576 -0.0050136 0.067513 0.16348 0.0017219 -0.14194 0.14589 0.080384 0.32067 0.26501 0.043127 -0.21925 0.038566 
돼요|VV+EC -0.012254 0.007283 -0.14696 -0.085392 0.075312 0.13848 -0.048588 -0.16681 0.10072 -0.073899 0.099459 0.14804 -0.032283 0.10877 -0.029889 -0.06303 -0.094714 -0.040496 -0.20292 0.048873 0.0010268 0.073695 0.013443 0.18674 -0.011258 0.081064 -0.16484 0.11528 -0.098278 -0.040889 0.11439 -0.14316 0.049018 -0.086551 -0.026953 -0.076183 -0.082566 -0.1899 0.13208 -0.099917 0.11871 0.044577 0.066684 0.10032 -0.085828 0.054942 0.15486 -0.0012235 0.20309 -0.053138 0.016685 -0.03692 0.05255 -0.034594 0.043166 0.080008 0.050181 0.20221 -0.081141 -0.18562 0.14791 -0.12501 0.17823 -0.14444 0.057258 -0.0006233 -0.063117 0.12368 0.0063949 -0.049803 -0.0070757 0.17238 0.10829 0.0021155 0.026878 -0.0043911 -0.12037 -0.0057441 -0.012998 0.06372 0.10556 0.0096145 0.018926 0.25825 -0.017581 0.15706 -0.19939 -0.086169 -0.018972 0.087852 0.11606 0.17685 -0.0073489 0.15746 -0.09489 -0.019008 0.00061573 -0.11772 -0.001208 0.073403 
얼마|NNG 0.17093 -0.13404 0.14544 -0.24195 0.1852 0.013493 0.020042 -0.13387 -0.43617 -0.18952 0.082545 0.18004 -0.35373 -0.077044 0.2709 0.16217 -0.14365 0.14137 -0.0684 0.22007 0.030753 -0.013785 -0.10021 0.055164 0.19029 0.1209 -0.2656 0.18104 0.1295 -0.0084559 0.2574 -0.13784 -0.088995 0.15212 0.056323 0.11717 -0.077675 0.13707 0.17153 -0.011905 -0.070226 -0.094388 0.11992 -0.12195 0.039136 -0.28708 0.23203 0.10052 0.2642 -0.14373 0.24299 -0.14179 0.097725 0.02371 0.24346 0.41663 0.054449 0.045802 -0.27686 -0.087184 0.22338 -0.043151 -0.38287 -0.34041 0.16562 -0.010858 0.14689 -0.015218 -0.21632 0.12563 -0.19242 -0.17312 -0.16193 0.36515 0.20401 0.13161 -0.40479 -0.27211 -0.087283 0.25379 -0.042311 -0.085764 0.0046575 0.14964 0.10444 0.33483 0.027496 0.085665 0.01564 0.0012832 -0.0056602 -0.01921 -0.16405 0.38362 0.027602 0.28471 -0.036344 -0.33086 0.087426 -0.078408 
바꾸|VV 0.083053 0.25439 -0.081158 0.029263 0.044127 0.042065 0.10179 -0.30226 -0.017309 0.21474 0.029162 -0.071339 -0.073552 0.041503 0.041907 0.16458 0.053882 -0.012858 0.093773 -0.051528 0.12259 -0.0058053 0.00038286 -0.042666 -0.02114 -0.05037 0.16351 0.0092059 -0.014915 0.29213 -0.076476 -0.033709 -0.2083 -0.098787 0.16003 0.088758 -0.14618 -0.12275 -0.1099 0.064392 -0.051871 0.23669 -0.15593 0.063037 -0.14173 -0.12507 -0.10995 0.020594 -0.023515 0.095991 -0.041677 0.0034652 -0.1072 -0.14595 0.015682 -0.0013824 -0.070278 0.090834 0.058352 0.12196 -0.011782 0.032273 -0.12994 0.08454 0.21256 -0.057696 -0.028784 0.060897 0.0053809 0.12878 -0.13065 -0.12203 -0.054667 0.0004471 -0.24356 0.038987 0.058426 -0.062725 -0.017015 -0.15306 -0.0025638 0.073652 -0.1487 -0.10008 0.12965 -0.068328 0.16665 0.040612 -0.13732 -0.040111 -0.023759 -0.037462 -0.0024076 -0.14582 0.11797 -0.060508 0.0039491 0.069827 0.048655 -0.032418 
as|SL -0.37264 0.083868 0.022132 -0.015128 -0.17588 -0.098202 -0.1173 -0.017492 0.07692 0.35611 0.3738 -0.17566 0.44246 -0.36319 0.025314 -0.18262 0.055571 0.2239 0.14574 -0.25703 0.26988 -0.46742 0.31522 -0.40587 0.052323 -0.26395 -0.13586 -0.035484 -4.2325e-05 -0.019245 -0.099222 -0.30667 -0.022484 0.31873 -0.12832 -0.094207 -0.21721 0.060032 -0.14411 0.015969 -0.0043378 0.22006 -0.57754 0.19275 -0.44413 0.055959 -0.15652 0.38902 -0.25634 -0.083275 -0.28747 0.1809 0.13738 -0.1646 -0.079433 -0.25567 -0.13999 0.040172 -0.26065 0.25248 -0.062074 0.28264 -0.2241 -0.207 0.21269 0.34336 0.35984 -0.028057 0.39557 -0.27694 -0.13088 -0.44106 0.051967 -0.033641 0.16941 -0.30795 -0.1631 -0.28917 -0.16363 -0.491 -0.487 -0.2186 -0.1311 -0.30507 -0.10019 -0.27807 -0.396 0.30518 0.25949 0.425 0.22366 0.11633 -0.38867 -0.27759 0.24228 0.2582 0.52997 0.58027 -0.003526 0.4548 
못|MAG -0.10606 0.3247 -0.016934 0.16352 -0.2184 -0.1498 -0.22403 -0.13016 -0.027655 -0.17872 -0.035535 -0.37726 -0.011767 -0.1447 -0.027705 -0.0048997 -0.0025509 -0.065023 0.21087 -0.020027 -0.041802 -0.1704 0.025481 -0.27049 0.021435 -0.19985 -0.21964 0.0058004 0.059093 -0.030836 -0.093086 -0.20723 -0.0046384 -0.070561 -0.32451 -0.16669 -0.19491 -0.055879 0.2551 0.16929 0.12913 0.14462 -0.23343 -0.094139 -0.046157 0.40966 -0.10823 0.096669 -0.16171 0.041157 0.040925 -0.067913 0.087885 -0.12399 -0.39345 -0.26827 -0.41968 -0.27471 0.10064 0.061753 0.49988 0.21106 0.16297 0.09103 -0.17027 0.11457 0.44112 -0.37424 0.10446 -0.38717 0.20999 -0.069741 0.030621 -0.018584 -0.12606 0.30254 -0.11565 -0.14803 -0.10281 -0.24935 -0.13656 -0.26148 0.032072 -0.071125 0.0021355 -0.34837 -0.044563 0.10853 0.25078 0.58335 0.17524 -0.024933 0.17744 -0.31482 0.12268 0.1346 0.1066 0.23333 0.11625 0.36255 
는데|EC 0.11087 0.22648 0.025764 -0.19232 0.34976 -0.0014797 0.031673 -0.30281 -0.19873 0.31899 -0.11098 -4.3574e-05 -0.20742 0.19652 0.1643 0.17461 0.16596 0.21057 0.12234 -0.030362 0.09771 0.049231 0.13213 -0.2133 0.1517 -0.18775 0.13159 -0.040573 0.10075 0.39266 -0.11413 0.08628 -0.25099 0.042235 0.017466 0.15428 -0.11047 -0.068045 -0.14854 0.05015 -0.27248 0.13142 -0.12142 0.085494 -0.061896 -0.41375 0.14346 0.10606 -0.0026992 0.19606 0.011761 0.070863 -0.15466 0.17995 0.1276 0.16097 0.10577 0.19063 -0.066701 0.16076 -0.40338 0.088334 -0.29593 -0.014148 0.33079 -0.27186 0.048122 0.11912 -0.051653 0.27306 -0.31304 -0.37092 -0.17519 0.29697 -0.032652 0.11368 -0.12456 -0.02172 0.11498 0.098844 -0.055514 0.055506 -0.11988 -0.21639 0.2976 0.2364 0.16609 0.0031836 -0.2209 -0.25529 0.11353 -0.1841 -0.17281 0.017605 0.1801 -0.16608 0.023274 0.14352 0.10278 -0.10841 
이야기|NNG -0.40137 0.16281 0.15728 0.14575 -0.28418 -0.066792 0.29963 0.12021 0.28692 0.090095 0.10872 -0.26845 0.27011 -0.076401 0.015684 0.022196 0.39319 0.34478 -0.023479 0.020253 -0.24449 0.35431 -0.3346 -0.06418 -0.047619 0.16432 0.19081 0.069812 -0.17355 -0.19869 -0.24402 0.025146 0.35852 0.29849 -0.074324 0.16774 0.36721 0.15113 -0.086051 0.053937 -0.073674 0.061488 -0.23009 0.024443 -0.10514 0.15118 -0.01989 -0.17849 -0.30365 -0.16537 0.33884 0.30683 -0.083932 0.38195 0.092742 -0.54843 -0.20948 0.16563 0.17409 0.28484 -0.0067025 0.025975 -0.035406 0.10405 0.16868 -0.057679 0.34479 -0.22013 0.2248 -0.099877 0.21298 -0.1279 -0.306 -0.38287 -0.044442 -0.05192 0.23117 -0.18356 -0.016623 -0.12869 -0.24445 0.091566 0.10416 0.10297 -0.24044 -0.26787 0.37686 -0.21978 0.047479 -0.045568 -0.19721 -0.25634 -0.0032499 -0.41518 0.21203 -0.0094036 0.14433 0.056567 0.032041 -0.31392 
기|ETN 0.074443 -0.32585 0.29676 -0.17604 0.14766 -0.084647 -0.17223 0.35987 -0.045352 0.030731 -0.17069 0.098595 0.0619 0.036766 -0.016035 -0.049972 -0.043774 -0.081091 -0.041542 -0.15963 0.045593 -0.078266 0.1474 -0.0094513 -0.044407 -0.098962 -0.058917 -0.05652 -0.029359 -0.18409 0.012176 0.27926 -0.039741 0.049062 -0.12287 -0.14948 -0.056467 0.16965 -0.078008 -0.17124 -0.22931 -0.2941 0.096939 0.038117 0.17458 -0.056469 0.098928 0.00020094 -0.01649 -0.0086533 -0.1508 0.068302 0.029198 0.10432 -0.082601 0.14399 0.29388 -0.053093 -0.027382 -0.075522 -0.49774 -0.027753 -0.018675 -0.052758 -0.14596 -0.04769 -0.091458 0.22805 -0.012259 0.097229 -0.060265 -0.034575 -0.032864 0.038922 0.21329 -0.098981 0.046613 0.10468 0.16084 0.10696 0.063098 0.077944 0.088308 -0.043375 -0.074553 0.22469 -0.16911 0.030765 0.071932 -0.17395 0.091786 0.016428 0.033464 0.14156 -0.12942 -0.097451 -0.13903 0.089937 -0.08795 0.063935 
최적|NNG 0.13481 -0.83885 0.74933 -0.49007 0.021231 -0.23012 -0.14898 0.62327 -0.08285 -0.017427 0.22857 0.19111 0.38495 -0.18682 0.13019 -0.089511 0.053097 0.21072 -0.021142 -0.090619 0.0069049 -0.42339 0.13944 0.030905 0.1855 0.056053 -0.014599 -0.24284 0.29341 -0.14697 -0.10634 0.014766 -0.33494 0.31684 -0.3977 -0.11223 0.17871 0.36288 -0.21837 -0.18637 -0.36455 -0.38195 0.076503 -0.24382 -0.21349 0.018528 -0.18836 0.023216 -0.17742 -0.43283 0.18326 0.23168 0.36155 -0.1078 -0.089004 0.083545 0.23401 -0.28193 -0.13551 0.14106 -0.41492 -0.13102 -0.32439 -0.13838 -0.24835 0.27037 0.045537 0.38616 0.30851 0.049476 -0.17477 -0.14085 -0.33458 0.033141 0.31928 -0.42162 0.21034 -0.050374 0.097495 -0.048195 -0.20844 0.10215 0.20375 -0.30074 -0.31001 -0.073044 -0.23519 0.23995 -0.010641 0.061781 0.14981 0.0067636 -0.14823 0.15953 0.079597 0.31416 0.26979 0.048596 -0.2226 0.041645 
자녀|NNG 0.038459 0.082659 0.15896 -0.0064777 0.05395 0.16819 0.025171 0.16429 0.0070413 0.13778 -0.19461 -0.041347 -0.07983 0.088408 -0.083224 0.13677 -0.13759 -0.25964 -0.061343 -0.22742 0.1388 0.25904 -0.11303 0.080315 -0.16268 -0.11988 -0.14771 0.24838 -0.34832 -0.21181 -0.047156 0.43373 0.1856 0.088343 0.19286 -0.067409 -0.21723 0.15366 0.01405 -0.13998 -0.11871 -0.10513 -0.036968 0.22736 0.20899 -0.0057013 0.077231 -0.13104 0.087666 0.065946 -0.23269 -0.022374 -0.10158 0.24217 -0.016732 0.074606 0.41549 0.09759 0.14406 -0.20105 -0.5062 -0.056339 -0.04758 -0.084561 0.14623 -0.23111 -0.19878 0.19876 -0.049067 0.19797 0.10938 0.02751 -0.041206 -0.12311 -0.00858 -0.031568 0.043885 -0.025086 0.16983 0.15488 0.2136 0.13761 0.0055998 0.17158 -0.22005 0.211 -0.14373 -0.18105 0.13206 -0.39584 -0.0125 -0.043646 0.1177 -0.014023 -0.060006 -0.20765 -0.38486 0.046635 -0.0062284 0.08611 
폰|NNG 0.097535 -0.39634 0.3457 -0.21743 0.15786 -0.14871 -0.23597 0.49082 -0.12798 -0.029972 -0.22816 0.12648 0.031096 0.056133 -0.0043519 -0.10155 -0.027137 -0.066289 0.013898 -0.13288 0.00024108 -0.12294 0.19178 -0.047993 -0.015972 -0.12842 -0.038599 -0.1045 0.075631 -0.22377 0.045571 0.32721 -0.039521 0.085006 -0.1932 -0.1769 0.0060753 0.22464 -0.048876 -0.1277 -0.27096 -0.36816 0.12409 -0.0032273 0.22969 -0.073327 0.11939 0.035391 -0.017212 0.01001 -0.12436 0.095376 0.051516 0.15854 -0.092795 0.16706 0.34132 -0.11614 -0.061773 -0.06593 -0.53119 -0.0092911 0.0019481 -0.056656 -0.23313 -0.080288 -0.01189 0.22455 -0.035034 0.059135 -0.064328 -0.063112 -0.023787 0.15107 0.29781 -0.068984 0.013104 0.12345 0.19244 0.19438 0.058223 0.032111 0.1135 -0.11226 -0.033093 0.29171 -0.18158 0.039916 0.061861 -0.14215 0.10692 -0.025709 0.015103 0.24506 -0.14033 -0.095527 -0.1203 0.1104 -0.055056 0.056146 
상|NNG -0.3008 0.10427 0.13815 0.066306 -0.14101 -0.018939 0.28224 0.1034 0.2013 0.16298 0.074316 -0.13519 0.19207 -0.015062 0.022931 0.023537 0.31213 0.28289 -0.049571 -0.028493 -0.13167 0.29663 -0.25562 -0.0097084 -0.076149 0.14954 0.19773 0.079506 -0.19015 -0.14287 -0.16308 0.11137 0.29494 0.24427 0.048465 0.16774 0.28506 0.12905 -0.14504 -0.023007 -0.12035 0.032949 -0.17949 0.093716 -0.068828 -0.0057534 0.037793 -0.13881 -0.18368 -0.087669 0.16585 0.25768 -0.12365 0.33723 0.16412 -0.35237 -0.032163 0.24788 0.11009 0.22665 -0.19686 -0.017459 -0.095766 0.02766 0.22242 -0.088017 0.18814 -0.042912 0.14484 0.010796 0.10034 -0.14521 -0.23609 -0.26126 0.011632 -0.093252 0.18944 -0.14363 0.018423 -0.063992 -0.16895 0.14534 0.060461 0.098644 -0.14781 -0.094314 0.30756 -0.20043 -0.021223 -0.22623 -0.18758 -0.19311 -0.055797 -0.24601 0.13999 -0.0744 0.070602 0.022229 0.013307 -0.31415 
담사|NNG -0.29229 0.11654 0.1503 0.063511 -0.13259 -0.011056 0.27534 0.11455 0.20462 0.17241 0.058508 -0.12126 0.20249 -0.019303 0.037583 0.031018 0.31996 0.27811 -0.047767 -0.017271 -0.13904 0.30921 -0.25694 -0.0089227 -0.075387 0.14732 0.20103 0.079468 -0.17537 -0.13863 -0.16233 0.11744 0.28067 0.23898 0.059284 0.16787 0.29164 0.12922 -0.14806 -0.012167 -0.12479 0.028503 -0.17823 0.10015 -0.060761 -0.014069 0.044358 -0.11903 -0.18976 -0.086411 0.16357 0.26491 -0.13494 0.34127 0.17038 -0.34961 -0.029635 0.2462 0.097872 0.22694 -0.19869 -0.013629 -0.079227 0.034559 0.22218 -0.10084 0.19126 -0.061804 0.14021 0.022196 0.096757 -0.1339 -0.22817 -0.27489 0.0065823 -0.093532 0.19125 -0.12833 0.030215 -0.056161 -0.18114 0.12954 0.043129 0.095697 -0.14759 -0.07866 0.30891 -0.20228 -0.012057 -0.20789 -0.1801 -0.19049 -0.056918 -0.25784 0.13436 -0.080055 0.078118 0.028961 0.006796 -0.32042 
습니다|EF -0.011016 -0.36724 -0.16243 0.16179 -0.076683 0.097625 0.19925 -0.057835 0.3549 0.11703 0.15368 0.070841 0.21839 0.018299 -0.11578 -0.089831 0.087881 0.080814 -0.11079 0.14176 -0.11617 0.018645 0.15733 0.054179 0.16343 0.062086 0.21533 -0.2978 0.25451 0.32701 -0.18358 -0.17241 -0.21195 0.064607 -0.066329 0.1542 0.20912 -0.0012913 -0.29396 0.0073295 -0.0079353 0.034922 0.35086 -0.21028 -0.055574 -0.074044 -0.354 -0.10547 -0.23922 -0.15013 0.25565 0.008558 0.15066 -0.14893 0.046337 -0.074679 -0.061964 -0.22881 0.095361 0.07607 -0.073715 -0.0083254 -0.081968 0.19877 -0.15646 0.19818 -0.49947 -0.071873 0.19592 0.27409 -0.079347 0.221 -0.12731 -0.14179 -0.19355 -0.33436 0.29175 0.29628 -0.03397 0.039755 -0.015532 0.096548 0.0047924 -0.26025 -0.18984 -0.41009 -0.024226 0.10916 -0.18354 -0.031219 -0.080827 -0.023788 -0.059244 -0.1711 0.045599 0.068025 0.23151 -0.036584 -0.19653 -0.060817 
최적화|NNG 0.29829 -0.84535 0.9159 -0.59048 0.12692 -0.23391 -0.15701 0.82744 -0.26621 -0.088217 0.036905 0.25925 0.21439 -0.11195 0.146 0.0020174 -0.044941 0.055158 0.013167 -0.1662 0.034335 -0.32507 0.012293 0.12191 0.045766 0.077171 0.013242 -0.12669 0.15451 -0.33318 -0.01743 0.32445 -0.236 0.23167 -0.248 -0.13143 0.19184 0.4519 -0.15836 -0.24548 -0.40876 -0.53924 0.13511 -0.18476 0.015308 -0.036046 -0.04679 -0.083515 -0.047679 -0.34138 0.047991 0.21213 0.23893 0.0053246 -0.05287 0.22174 0.43595 -0.2423 -0.080094 0.040174 -0.60255 -0.23127 -0.30414 -0.16193 -0.25898 0.096493 0.017409 0.53087 0.12168 0.11314 -0.095433 -0.10551 -0.29233 0.080067 0.39905 -0.32439 0.23064 -0.026654 0.20876 0.10151 -0.043945 0.19329 0.23625 -0.16442 -0.26258 0.22413 -0.14354 0.13131 -0.0023071 -0.22663 0.074339 -0.034718 -0.022516 0.33084 -0.047709 0.19473 -0.025002 -0.075895 -0.20312 -0.10212 
기|NNG 0.090196 -0.078504 0.054608 -0.046798 0.0040619 0.04386 0.073933 0.015124 -0.31397 -0.11569 0.029558 0.15806 -0.19843 -0.055869 0.090053 0.019454 -0.14759 0.039998 0.024506 0.1981 0.054182 -0.01815 -0.14315 0.028527 0.21353 0.073249 -0.10432 0.16452 0.11085 0.069749 0.05297 -0.1977 0.011523 0.19975 0.23102 0.12427 0.0010462 0.19067 0.093664 0.05125 0.061214 -0.047674 -0.0031703 -0.063431 0.059088 -0.21712 0.061727 0.046658 0.10313 -0.074811 0.054932 -0.096247 0.070777 0.024705 0.26689 0.28815 0.059448 0.051402 -0.054188 -0.074616 0.10526 -0.077485 -0.24026 -0.1729 0.077772 -0.011333 0.042365 -0.18497 -0.16739 0.12836 -0.1698 -0.092957 0.014819 0.14639 0.0096008 0.039426 -0.20712 -0.15965 -0.13717 0.14935 -0.033595 -0.12616 -0.0069643 0.0053466 0.079424 -0.0268 -0.07513 0.10468 -0.017533 -0.024123 -0.0023942 -0.040728 -0.18491 0.19436 0.069236 0.20737 0.024063 -0.15043 0.15716 -0.020012 
해외|NNG 0.012109 -0.13896 -0.11344 -0.088959 0.31997 -0.17583 -0.21323 0.21983 -0.095081 0.017829 -0.30015 0.13747 -0.10246 0.21064 -0.1011 -0.24815 0.092469 0.081619 0.20325 0.01957 -0.08472 -0.15307 0.41846 -0.28996 0.028465 -0.17628 0.32038 -0.31956 0.32358 0.12126 0.16888 0.053163 -0.12148 -0.20409 -0.2997 -0.10349 0.21161 -0.075869 -0.050685 0.078434 -0.13338 -0.1676 0.27302 0.13154 0.33139 -0.19752 0.27435 0.21371 -0.1298 0.3517 -0.23566 0.1342 -0.14706 0.14533 0.046106 0.04388 0.041206 -0.13684 -0.097558 0.11094 -0.34061 0.13852 0.36725 0.18626 -0.38006 -0.12552 0.05901 0.026096 -0.18508 0.012621 -0.16602 -0.078386 0.29355 0.44273 0.28232 0.19494 -0.039196 0.32006 0.18505 0.20471 -0.053382 -0.038472 0.085113 -0.26563 0.41575 0.28098 0.01269 0.17207 -0.22061 -0.058547 0.1436 0.010105 0.075988 0.27696 -0.21447 -0.36021 0.13686 0.27619 0.049598 -0.13831 
시|NNB 0.011601 -0.13917 -0.12828 -0.095934 0.32155 -0.19192 -0.21666 0.2243 -0.081251 0.014693 -0.31167 0.13545 -0.098275 0.20635 -0.089903 -0.24114 0.10383 0.085777 0.20757 0.019109 -0.096413 -0.15647 0.42376 -0.28998 0.026052 -0.17946 0.30544 -0.31202 0.32197 0.12037 0.17463 0.049473 -0.13293 -0.18876 -0.28383 -0.10296 0.21538 -0.063345 -0.060294 0.079163 -0.14387 -0.16493 0.27339 0.11334 0.33828 -0.20998 0.27878 0.20587 -0.13289 0.35083 -0.24579 0.13242 -0.15082 0.15034 0.048542 0.033205 0.031229 -0.12044 -0.090713 0.10489 -0.33909 0.14126 0.3527 0.18604 -0.36564 -0.12043 0.060951 0.010042 -0.18777 0.023777 -0.15073 -0.093005 0.2835 0.43612 0.29603 0.18058 -0.040816 0.32216 0.19073 0.2085 -0.053914 -0.044767 0.068311 -0.26801 0.41594 0.27712 0.018354 0.17602 -0.21435 -0.050928 0.13875 0.013463 0.066697 0.27585 -0.22298 -0.36349 0.1319 0.2895 0.039714 -0.15239 
알려|VV+EC -0.020214 -0.13046 -0.13009 -0.038444 0.25921 -0.17169 -0.17517 0.23207 0.021864 0.051169 -0.27267 0.070999 -0.0076771 0.17876 -0.12964 -0.25611 0.11357 0.046981 0.18931 -0.011809 -0.093302 -0.14147 0.39439 -0.26334 -0.016014 -0.1832 0.32469 -0.32999 0.27288 0.12252 0.10599 0.0759 -0.10263 -0.21327 -0.29699 -0.11114 0.22231 -0.092761 -0.084747 0.066917 -0.10445 -0.13913 0.2564 0.13624 0.32015 -0.13641 0.20491 0.15163 -0.19169 0.34915 -0.27298 0.12678 -0.14466 0.14094 -0.0032191 -0.04138 0.024223 -0.15866 -0.021355 0.11637 -0.33766 0.12346 0.39509 0.23641 -0.39936 -0.087566 -0.0094519 0.014066 -0.12692 0.018736 -0.10887 -0.014655 0.29421 0.32552 0.23676 0.13732 0.059035 0.37148 0.18976 0.14021 -0.047203 -0.0065789 0.082099 -0.25897 0.34462 0.16881 0.035813 0.15569 -0.2083 -0.070777 0.1168 0.023905 0.092424 0.16981 -0.21387 -0.37217 0.13734 0.30492 -0.010747 -0.13376 
방법|NNG 0.13658 -0.13395 0.064948 -0.033933 0.04768 -0.24804 -0.29128 0.16317 -0.25697 -0.2896 -0.21672 0.073347 -0.12639 -0.0076824 0.10396 -0.037263 -0.032864 -0.086726 -0.017906 0.037015 -0.058004 -0.17112 0.064927 0.0095401 0.0093806 -0.022237 -0.14716 -0.1207 0.1203 -0.20136 0.12494 0.18952 0.014269 -0.099721 -0.065633 -0.13767 -0.02618 0.021399 0.11758 -0.0023563 -0.037004 -0.27994 0.0467 -0.23183 0.099065 0.0073355 0.082976 0.044979 0.17369 0.034659 0.064739 -0.097329 0.025089 -0.026976 -0.17282 0.20262 0.014515 -0.075242 -0.16801 -0.076492 0.10528 0.056496 0.015735 -0.062869 -0.16518 -0.022248 0.13531 -0.018988 -0.17421 -0.20374 -0.028015 -0.036084 0.013184 0.12438 0.20258 0.15166 -0.19201 0.061049 -0.023731 0.092911 0.095465 -0.13481 -0.025547 -0.020554 0.18035 0.27876 0.023242 -0.040673 0.12251 0.12412 -0.023383 -0.033066 -0.043872 0.26099 -0.12352 0.056323 -0.18408 -0.10965 0.045164 0.072531 
께|NNB 0.073153 0.23434 -0.19628 0.079751 0.051437 0.086672 0.039701 -0.15875 0.1921 0.095528 -0.093155 -0.045065 -0.031398 0.059213 -0.12442 0.019744 -0.10753 -0.22985 0.079282 -0.13745 0.12355 -0.0051637 0.032331 0.048576 -0.26497 -0.0053643 0.13014 0.054797 -0.2011 0.069202 0.098768 0.068908 -0.03911 -0.4042 0.10752 -0.043609 -0.091331 -0.24273 -0.0088957 -0.044389 0.15022 0.1547 0.066695 0.25303 0.13344 0.070992 0.043131 -0.034141 -0.011521 0.25333 -0.38543 -0.091112 -0.20242 -0.14215 -0.084001 -0.037288 -0.070315 0.017871 0.15889 -0.052511 0.011309 0.00040141 0.3116 0.2006 -0.066359 -0.0060743 -0.21102 0.11748 -0.13051 0.035646 0.080836 0.22832 0.24732 -0.065989 -0.14812 0.1078 0.17329 0.22875 0.074338 -0.15091 0.14665 0.14869 0.00081953 0.14406 0.14808 0.037959 0.14192 0.031419 -0.11226 -0.17794 -0.046476 0.20428 0.27558 -0.099728 -0.24627 -0.24367 -0.17039 -0.010616 -0.11993 -0.087033 
공량|NNG 0.086459 -0.037232 0.083691 -0.15386 0.15677 -0.021023 -0.025894 -0.056526 -0.19581 -0.029798 -0.0077525 0.063167 -0.16802 0.012588 0.12759 0.11409 -0.0373 0.04529 -0.035331 0.027075 0.033544 0.0037224 0.00076886 0.0074687 0.030663 0.012997 -0.098684 0.056472 0.01382 -0.03773 0.1192 0.055506 -0.063226 0.017062 -0.0097468 0.025583 -0.062154 0.021765 0.050854 -0.029062 -0.099395 -0.067198 0.042482 -0.029218 0.020518 -0.11764 0.13323 0.046866 0.12899 -0.026892 0.094179 -0.046275 0.00028531 0.031016 0.042195 0.18224 0.078351 0.025696 -0.1332 -0.035664 -0.015432 -0.00020975 -0.15302 -0.14267 0.094229 -0.069547 0.07164 0.088596 -0.086614 0.051275 -0.078028 -0.1068 -0.10677 0.19693 0.12949 0.079974 -0.16809 -0.10575 0.036818 0.13144 0.0086941 0.0018441 -0.011067 0.06762 0.0683 0.25791 0.043248 -0.020159 0.013711 -0.058398 0.0067175 -0.014311 -0.028946 0.18116 -0.0055401 0.055832 -0.074394 -0.10847 0.0099036 -0.027685 
갑자기|MAG -0.32898 -0.078745 0.082673 -0.061384 -0.13255 -0.16138 -0.16667 0.0055711 -0.04135 0.25028 0.29507 -0.1515 0.34955 -0.28344 0.08994 -0.16445 0.16135 0.32504 0.11222 -0.108 0.11689 -0.41463 0.31967 -0.42714 0.28471 -0.29297 -0.1653 -0.15724 0.24008 0.074918 -0.17516 -0.32213 -0.10269 0.45736 -0.27292 -0.076326 -0.13596 0.14263 -0.11645 0.091473 -0.11983 0.11469 -0.43934 -0.052519 -0.42071 0.004096 -0.19355 0.35568 -0.24081 -0.18329 0.05564 0.16829 0.24941 -0.076608 -0.085373 -0.18485 -0.11347 -0.077546 -0.29245 0.24515 -0.042732 0.27359 -0.3423 -0.22038 0.14458 0.26564 0.39345 -0.14586 0.40541 -0.22468 -0.19021 -0.51343 -0.13381 0.089961 0.18722 -0.24992 -0.24265 -0.31613 -0.14812 -0.26587 -0.4769 -0.29715 -0.11466 -0.43806 -0.11321 -0.25592 -0.41792 0.24486 0.21868 0.50704 0.26952 -0.068803 -0.45376 -0.15563 0.36793 0.32308 0.56987 0.51905 0.088913 0.44773 
것|NNB 0.14559 -0.12965 0.1215 -0.20387 0.16316 -0.0023006 0.021821 -0.090646 -0.37174 -0.16571 0.065656 0.16083 -0.30001 -0.059301 0.21118 0.14153 -0.11712 0.12822 -0.049185 0.18141 0.023557 -0.019539 -0.074154 0.057238 0.1513 0.10854 -0.2175 0.15778 0.10188 -0.014334 0.21929 -0.096095 -0.067344 0.12932 0.05025 0.091869 -0.060536 0.11456 0.15049 0.0019172 -0.048403 -0.090161 0.091698 -0.11427 0.047363 -0.23902 0.1843 0.097817 0.23046 -0.11603 0.20393 -0.11987 0.09808 0.028762 0.19892 0.35245 0.053104 0.037691 -0.23787 -0.094164 0.17542 -0.044575 -0.31507 -0.28295 0.14274 -0.018807 0.13214 -0.012343 -0.17442 0.09831 -0.15603 -0.15382 -0.13705 0.30845 0.18599 0.1144 -0.33307 -0.22126 -0.059753 0.22268 -0.026761 -0.073996 0.0060192 0.10943 0.085225 0.28407 0.016021 0.065822 0.014679 0.0016188 0.0075903 -0.016125 -0.12422 0.33196 0.011083 0.24015 -0.029776 -0.26869 0.080911 -0.069541 
