628 100
</s> -0.66515 -0.25041 -0.65255 0.087245 -0.0088656 -0.50981 1.0026 0.035185 -0.3107 0.025669 0.50228 -0.22834 0.40257 0.068901 0.25372 -0.23659 -0.062283 0.29432 -0.13833 0.053111 -0.036031 -0.29871 -0.34214 -0.53026 0.35362 0.34817 0.16487 0.4568 0.15788 0.19501 0.020337 0.21097 -0.38281 -0.35589 0.50995 -0.18727 0.13569 -0.16283 0.56052 -0.57523 0.39173 0.17672 -0.15892 0.071676 -0.7262 0.3248 -0.014932 0.10903 -0.34132 -0.024591 -0.15539 0.55626 -0.043703 0.21466 -0.11753 0.039165 0.014444 -0.18237 -0.20719 -0.37565 -0.39228 0.245 -0.51059 -0.2091 -0.067424 -0.36369 0.075543 0.24946 0.18093 0.15791 -0.22506 -0.31706 -0.35334 -0.40819 -0.02158 -0.021114 0.42308 0.51669 0.17118 -0.12203 -0.82612 0.50477 0.03071 0.19063 -0.60185 -0.2476 0.044865 -0.30893 0.46172 -0.4594 0.21569 0.45464 -0.1114 -0.23653 0.10329 -0.07708 0.68727 0.83123 0.077951 0.67896 
예약|NNG 0.28096 1.191 0.27008 -0.69135 0.71256 1.4807 -1.1669 -0.4292 0.79055 0.35242 -0.25185 -0.64253 -0.2507 0.54678 -1.5576 -0.4536 0.87629 0.827 -0.48995 -0.60236 -0.35917 1.5328 0.53975 1.0608 -0.83177 -0.89139 -0.45658 -0.37391 -0.87557 -0.42192 0.23088 -0.79938 0.1139 -1.2243 -1.9157 -0.53079 -0.66378 -0.050461 0.10977 0.1169 -1.2275 1.1328 -0.6122 0.69842 1.2574 0.05225 0.82185 -0.22401 -0.95779 0.30239 -0.085136 -0.55464 0.5393 0.50274 -1.1232 -0.046285 -0.88571 0.7315 1.7953 0.27397 -0.5393 0.30396 0.91857 2.0635 -0.36561 -0.51713 -0.69416 -0.28083 -0.3843 -0.19147 -0.5561 1.552 1.375 -1.0442 -1.242 -1.1484 -0.34005 0.55495 0.75147 0.50529 0.12907 -0.13918 0.25234 -0.25604 0.58892 0.47768 -0.18436 -1.1139 -1.3361 1.0929 0.52207 0.85756 1.348 -1.4995 0.63246 -1.0263 0.19185 -0.18291 -1.3415 -0.88234 
나요|EC 0.16682 -0.2408 -0.17254 -0.62915 0.020727 0.38152 -0.61241 -0.72577 -0.049646 0.60254 -0.23362 -0.96572 0.032557 -0.0017483 -0.22734 0.1313 0.14502 0.18823 -0.64946 0.26223 0.16293 -0.49654 0.16172 0.57218 0.62349 -0.74443 -0.13197 -0.64087 -0.947 0.11863 0.030177 -0.049834 0.21791 -0.27619 -0.64993 -0.19346 -0.71464 0.90633 0.17218 0.68334 -0.84051 -0.54191 0.44487 0.22713 -0.15356 -0.012077 0.41475 0.061176 0.17536 0.77857 0.4799 -0.1761 0.62348 -0.69859 -0.48301 0.97215 0.37302 -0.5812 -0.64341 -0.66094 0.48699 0.28214 -0.38553 0.47052 0.13952 0.30059 0.080324 -0.32516 -0.23667 -0.27826 0.67209 0.055925 -0.4644 -0.74039 -0.64448 0.16382 -0.25638 -0.25057 0.02829 -0.35018 0.51261 0.30623 -1.1585 -0.11849 0.079712 -0.73848 -0.040392 0.28546 0.49097 -0.36817 -0.77841 -0.06006 0.2338 0.31039 -0.10065 0.85464 0.079825 -0.20209 0.3033 1.1144 
하|XSV -0.012019 0.22206 0.032742 -0.046157 0.032013 -0.036005 -0.41765 0.2556 0.055559 -0.29502 0.082185 0.4996 -0.65149 0.26435 -0.28552 -0.53461 -0.14101 -0.29882 0.26105 0.11449 -0.04595 0.41805 0.18232 -0.61609 -0.52363 0.18617 0.66821 -0.41393 0.06952 0.023737 0.51366 0.44092 -0.052783 0.032572 0.31009 0.79254 0.54232 -0.12733 -0.44968 0.086654 0.041177 -0.052071 -0.44699 0.045169 0.75262 -0.42593 -0.064524 -0.069243 -0.36948 0.05361 -0.83731 -0.067146 -0.51775 -0.077436 -0.032109 -0.34104 -0.23789 0.28967 0.38919 0.30801 -0.29085 0.096045 0.42979 0.29485 -0.16638 -0.25755 -0.19237 -0.2719 0.33108 -0.33037 -0.16904 0.67324 0.44792 0.3543 -0.00075798 -0.098377 -0.40324 0.59905 -0.16371 -0.033455 -0.064626 -0.10967 0.2802 0.36436 0.91653 0.45545 -0.020744 0.25954 -0.91149 0.78134 0.12297 -0.15307 0.1363 -0.15167 -0.25364 -0.23205 0.26467 0.31215 -0.42494 -0.66955 
되|VV -0.14689 -0.016121 -0.10103 0.11777 0.67129 0.072271 -0.25761 -0.34696 0.67492 0.13675 0.43958 -0.23016 -0.028306 0.34947 0.63082 0.16706 -0.27669 0.11457 0.10558 0.21232 0.64893 -0.13208 -0.18569 -0.28319 0.0034395 0.23807 0.96819 0.3926 0.45589 0.0021687 0.28755 -0.54458 0.34812 -0.26683 -0.11768 0.58728 -0.32595 -0.30903 0.83565 -0.25251 0.29305 0.68129 -0.058239 -0.086388 0.43114 -0.15101 -0.13736 0.5946 -0.35098 -0.33423 -0.28107 -0.094649 -0.090599 0.31288 0.59472 0.26536 -0.045446 0.58665 -0.068308 0.021487 0.0017511 -0.26429 0.20575 -0.042139 -0.17251 0.3749 0.23357 -0.022935 0.26023 0.13142 0.17845 0.63876 0.071683 0.56407 0.41961 -0.12144 -0.13008 -0.3396 0.28838 -0.2619 -0.4404 0.3918 0.26357 0.24182 -0.16419 0.51196 -0.59599 -0.14502 -0.0085549 0.07226 -0.23528 0.17677 0.24568 -0.38484 -0.53362 0.2394 0.18325 -0.80078 0.36873 -0.72711 
고|EC 0.16534 0.016479 -0.12478 -0.27143 0.2415 0.27786 -0.16679 -0.26172 0.0062181 0.6551 -0.25026 0.18609 -0.04536 0.30562 0.41648 -0.10674 -0.43144 -0.25294 0.14571 -0.12036 0.058556 -0.022653 0.57711 -0.26173 0.3476 -0.18752 0.72922 -0.45766 -0.33287 0.66882 0.11138 0.55391 -0.07363 0.19168 -0.22956 0.65121 -0.063388 0.17783 -0.27213 0.4581 -0.16718 -0.12003 0.17658 -0.0058001 0.3686 -0.50953 -0.014563 -0.2106 -0.030587 0.58911 0.20069 0.37842 -0.17881 -0.81177 -0.030563 0.47615 0.75681 -0.50574 -0.28025 -0.11273 0.07628 0.0033639 0.1544 0.4445 -0.012038 0.63347 -0.023881 -0.042719 0.32 0.3219 0.19237 0.034194 -0.26917 0.092922 -0.21818 0.2015 0.16537 0.22036 -0.073479 -0.45467 0.16367 0.43808 -0.13388 -0.051571 0.23279 -0.38894 -0.13207 0.57708 0.13602 0.06833 0.090146 0.00082815 0.25404 0.34068 -0.14534 0.32106 -0.30098 0.10454 0.038543 0.12674 
는데|EC -0.15299 0.49562 0.67895 -0.14578 -0.66773 0.27829 0.060664 0.49387 -0.33366 -0.06806 -0.36158 0.37853 -0.11497 -0.32214 0.34622 0.078038 -0.17911 -0.072855 0.45356 -0.041796 -0.34187 0.41792 0.10034 0.21525 -0.052463 0.20995 -0.054121 0.21743 0.53648 -0.026821 -0.52843 -1.0223 0.37 0.62468 0.603 0.64741 0.32286 0.43919 -0.42989 0.13355 0.10289 0.27754 -0.22428 -0.73601 0.083105 -0.1672 -0.43777 -0.21407 0.41301 -0.55399 1.0688 0.11454 -0.2064 -0.14363 0.59308 -0.4945 0.20443 -0.21059 0.42553 0.010698 0.33405 -0.1286 0.20454 -0.35938 0.6139 0.42133 0.094992 0.47638 0.37814 0.53233 0.00075535 -0.50034 0.15276 0.99173 0.35157 -0.0095408 -0.044859 -0.6699 -0.30276 0.19704 0.14129 -0.18648 0.35335 -0.16353 0.057894 0.51382 0.046181 0.094605 0.29345 0.88949 0.41705 -0.41321 -0.24995 0.46017 0.29306 0.29401 -0.20582 0.27901 -0.1036 -0.93674 
가입|NNG -0.051328 -0.49909 -1.0454 -0.5669 1.3992 -0.32284 -0.54923 -0.02489 -0.50921 -0.85052 0.44588 -0.58149 -0.40707 1.1667 0.55981 0.24829 -1.0194 -0.12291 0.50934 0.84798 0.51132 -0.59471 -1.1198 -0.20489 -0.90617 -0.21357 -0.0066557 0.66343 0.07477 0.021723 0.3206 0.82456 1.0619 1.0981 -0.64044 1.35 0.31466 0.16541 1.0599 0.80302 0.21924 0.0039105 0.31836 0.53866 0.4915 -0.92891 1.0923 0.71922 0.63486 0.74824 -0.61733 -0.64062 -0.24621 0.41215 0.86632 0.32511 -0.42359 0.66629 -0.53091 -0.37519 -0.19821 -0.61185 0.51263 -1.6287 -0.38273 0.3609 0.28076 -0.52712 -1.0706 -0.68711 0.42964 0.35837 -0.32539 0.27422 0.37548 0.70084 -0.47458 -0.11299 0.47259 -0.68494 0.263 0.14509 0.55264 0.89851 0.5436 0.91155 -0.42907 0.68142 0.22215 -0.59931 0.49588 -0.90121 -0.71783 -0.21011 -1.2391 0.18173 -0.39314 -1.8075 0.87349 -0.58309 
싶|VX 0.022437 -0.51678 -0.33915 0.34898 0.33382 -0.46258 -0.07375 -0.57556 -0.34452 0.12393 0.01172 -0.27995 -0.31166 0.22224 0.30312 -0.095553 -0.59761 -0.35207 -0.17371 0.1545 0.27326 -0.33256 -0.29037 -0.45233 0.40347 -0.0086958 0.35096 -0.81861 -0.3416 0.33258 0.64362 0.51225 -0.11584 0.29959 -0.38798 0.57283 0.029003 -0.08604 -0.025004 0.64017 -0.4226 -0.32015 0.13269 0.42761 0.13829 -0.28389 -0.033278 -0.11507 -0.050541 0.87625 -0.70351 0.20051 -0.23463 -0.31514 0.018283 0.5312 0.53291 -0.04332 -0.50912 -0.014068 -0.058895 0.37888 0.36521 0.62334 0.092222 0.19462 -0.30296 -0.11164 -0.20063 -0.028643 0.21942 0.35973 -0.12072 -0.27641 -0.45736 0.39698 0.24339 0.48603 0.50895 -0.28424 -0.0317 0.51328 -0.24609 0.31319 0.4821 -0.50061 0.081712 0.62239 -0.60788 -0.25923 -0.59812 -0.0012649 0.5005 -0.10018 -0.42567 -0.12242 -0.05214 0.17637 -0.13985 0.66555 
하|VV -0.62083 -0.038271 -0.055253 0.25708 -0.042198 -0.58401 1.0933 0.03378 0.18979 0.037115 -0.052725 -0.2259 0.5444 0.047548 -0.19516 0.63123 -0.63045 -0.32506 0.67502 0.17838 -0.10293 -0.60032 0.44434 -0.73127 0.042922 -0.43196 0.092311 0.17756 0.83677 -0.47316 -0.44021 -0.4408 0.18416 -0.024007 -0.38134 0.26474 -0.38148 -0.15694 -0.71226 0.18997 0.93922 -0.064885 -0.12903 -0.18568 -0.48488 0.18274 -0.77765 -0.050956 -0.0060354 -0.71141 0.3971 0.49901 -0.40974 0.29374 0.021619 0.044759 0.15752 0.38178 -0.50838 0.26048 -0.10264 0.3452 -0.37586 -0.048956 -0.70983 0.10513 -0.50939 0.79456 0.32183 0.40134 0.50454 0.20588 -0.040507 0.16309 0.4144 -0.028506 0.84889 0.34934 -0.32984 -0.41781 0.18698 -0.19856 -0.12647 -0.67024 -0.28517 -0.38983 -0.43052 0.41868 0.25517 0.07328 -0.19211 0.20631 -0.25051 -0.57138 -0.48438 0.32634 -0.39947 0.16651 -0.26418 -0.36218 
가능|NNG 0.225 -0.016232 -0.034979 0.36881 0.027916 -0.15375 0.081836 -0.13374 0.442 -0.062624 0.52747 -0.0048364 -0.5676 -0.29255 -0.34992 0.15286 0.2846 -0.09689 0.31474 0.3969 0.31148 -0.24418 -0.05946 -0.23624 0.16703 0.35448 0.15687 0.027049 0.040704 -0.48973 0.55021 -0.43644 -0.09464 -0.7113 0.13289 -0.23727 -0.24418 0.051618 0.40161 -0.060594 -0.28135 -0.43429 0.050135 -0.012445 0.018824 0.44802 -0.3157 0.12609 0.20627 -0.19746 -0.060753 -0.070788 0.17802 -0.049744 -0.25009 0.07556 -0.14087 0.62697 -0.54249 0.05824 0.093482 0.11917 -0.45644 0.10043 0.047376 0.21564 -0.095568 -0.4746 -0.17304 -0.028529 0.48838 0.73863 0.3473 -0.66256 -0.45812 0.028776 -0.33173 -0.20287 -0.037736 -0.13193 0.28481 -0.17983 -0.89448 0.47765 0.17684 -0.19845 -0.13337 -0.58375 -0.13946 0.22078 -0.85839 0.56258 -0.098525 -0.17838 -0.25209 0.52231 0.22125 -0.31873 0.33648 0.17095 
어떻게|MAG 0.14493 0.075302 0.40059 0.0059191 -0.26736 0.42528 0.58153 -0.073505 -0.10751 0.44883 -0.044705 0.048835 -0.0069081 -0.27248 0.48368 -0.3539 -0.025796 -0.3191 -0.22837 -0.17994 0.15213 0.56517 0.55634 0.087035 0.51909 0.30799 0.38023 -0.22826 -0.49796 0.54003 0.89658 0.60169 -0.54025 -0.12118 0.27286 0.16818 0.0067555 -0.087308 -0.032956 -0.37497 -0.39188 0.063226 -0.31632 0.40922 0.36419 0.25404 -0.23346 -0.27702 -0.28529 0.41959 -0.047788 0.45217 0.046052 -0.47422 -0.22477 0.24724 0.77525 -0.83048 0.23464 -0.177 -0.35259 0.12128 0.26509 0.924 0.082099 0.24267 -0.12794 -0.17948 0.35226 0.4652 0.12468 0.022957 -0.10991 -0.21566 -0.53786 -0.11157 0.16479 0.17886 0.5274 -0.3948 -0.26942 0.65384 -0.066043 0.049061 0.089902 -0.5358 0.24957 -0.089064 0.029517 -0.28577 -0.035773 0.68858 0.67665 0.12031 0.17243 -0.10652 0.030255 0.67679 -0.33495 0.39999 
안|MAG -0.13317 0.17892 -0.33643 0.067923 0.38392 -0.17057 -0.12114 0.33882 0.49451 -0.41129 -0.20822 0.45226 -0.25576 0.48624 -0.38253 0.22647 -0.37445 0.26637 0.83495 0.23781 -0.58996 -0.07752 0.079463 -0.7878 -0.87409 -0.25401 0.016078 0.55216 1.1574 -0.48698 -1.06 -0.52194 0.35276 0.062532 -0.027613 0.45455 0.35734 -0.029495 -0.6663 0.43081 0.64158 0.34338 -0.051234 -0.87532 -0.037363 -0.5627 -0.040841 -0.020859 0.36422 -0.58197 0.64347 -0.34822 -0.5942 0.36917 0.32135 -1.0243 -0.68763 1.075 -0.14343 0.51096 0.27256 0.37426 0.059656 -0.64319 -0.14885 0.26383 -0.43412 0.57939 0.064946 -0.00029059 -0.12677 0.27047 0.53198 0.50083 0.36676 0.013549 0.42834 0.13656 -0.77458 0.4747 0.2541 -0.93567 0.66227 -0.060805 0.31336 1.0615 -0.1054 0.0084197 -0.50855 0.85331 0.63633 -0.68398 -0.54127 -0.66055 -0.071069 -0.33293 -0.3147 -0.62385 -0.15271 -1.6613 
한가요|XSA+EC 0.11714 -0.10452 -0.17423 0.49431 0.1777 -0.51293 0.28918 -0.30878 0.51352 0.03367 0.30767 -0.093262 -0.50936 -0.052318 -0.29683 0.26354 0.032287 -0.033311 0.24406 0.27176 0.24717 -0.29705 -0.26869 -0.6134 0.2482 0.23769 0.42833 -0.26762 0.15962 -0.26099 0.59786 0.037541 -0.085671 -0.46192 -0.17608 -0.066024 -0.096126 -0.17594 0.11031 -0.025304 0.04501 -0.33916 -0.050349 0.22178 -0.24536 0.37054 -0.44436 0.093359 0.018609 -0.033912 -0.73491 -0.039451 -0.048479 0.14284 -0.018869 0.14414 0.018189 0.56394 -0.54633 0.32637 -0.075083 0.15743 -0.30611 0.24275 -0.19463 -0.040088 -0.10552 -0.22468 0.046622 0.078723 0.22824 0.63175 0.17733 -0.26444 -0.34158 0.13554 0.049577 0.21045 -0.075378 -0.25312 -0.14363 -0.061153 -0.55698 0.46874 0.18311 -0.37555 0.053893 -0.091658 -0.33697 -0.18534 -0.92361 0.33975 -0.10284 -0.1867 -0.6622 0.20516 0.22762 -0.18969 0.25436 0.22341 
어|EC 0.46123 -0.45091 -0.35396 -0.048036 0.3619 -0.29679 -0.15073 -0.024606 -0.093373 0.23041 0.019062 0.76209 -0.20123 -0.038294 0.038932 -0.1753 0.065137 -0.14202 0.026593 -0.076235 -0.18841 -0.32835 0.13508 -0.26535 -0.0058825 0.30822 0.035983 -0.30996 -0.2007 0.24476 -0.21221 1.1145 -0.65291 -0.054618 0.2102 -0.44907 0.041723 -0.12237 -0.18382 0.26865 -0.2764 -0.25323 0.34512 -0.33316 -0.22386 -0.43729 0.34645 0.0044481 0.42838 0.54235 -0.21646 0.013954 -0.21623 -0.4601 -0.18449 -0.12571 0.15329 -0.49253 -0.43643 -0.16207 0.15047 0.033623 -0.10151 -0.26574 0.039768 0.08805 0.028346 -0.059507 -0.01379 -0.27284 -0.31783 -0.43309 -0.050802 -0.56496 -0.26011 0.45651 0.2728 0.22555 0.11558 0.40288 0.00086023 -0.11998 0.072831 0.24739 0.31476 -0.13643 0.49251 0.11807 -0.076925 -0.29859 0.21995 -0.13993 -0.15115 0.58909 0.30179 -0.35907 -0.19403 0.18828 0.26661 0.56847 
있|VV 0.24226 -0.2743 -0.12809 -0.31166 0.16989 -0.28399 -0.34487 -0.41282 0.020074 0.15437 -0.21157 -0.33896 0.0195 -0.093189 0.015608 0.31299 0.15213 0.028902 -0.46657 -0.20165 0.029021 -0.66886 -0.32401 0.67834 0.094586 -0.15975 -0.60185 -0.14698 -0.17165 -0.18974 -0.56118 0.03251 0.17963 0.048085 -0.35454 -0.84172 -0.50566 0.12059 0.01297 0.3579 -0.3276 0.036162 0.3062 -0.040133 -0.31347 -0.0068697 0.33093 0.10747 0.34077 0.3005 0.061846 -0.20207 0.15379 0.12824 -0.31256 0.2181 -0.21131 -0.081301 -0.26775 -0.10703 0.37001 0.072249 -0.15223 -0.054962 0.044788 -0.031791 -0.13405 0.13896 -0.54008 -0.14368 0.15596 -0.15835 -0.051835 -0.53896 -0.039987 0.12009 0.38572 -0.43757 0.47123 0.31783 0.20294 0.026645 -0.28718 -0.11563 0.12639 -0.38467 0.24245 0.058794 0.035612 -0.34703 -0.32411 -0.019211 0.46227 0.073656 0.10865 -0.095813 -0.36059 -0.25288 0.23662 0.58272 
결제|NNG 0.2771 0.77061 1.0964 -0.09602 -0.62194 0.68647 -1.0787 -0.22988 0.8397 0.4119 0.20642 1.1445 -0.62767 -0.020157 1.3013 -1.4386 0.057925 -0.25788 -0.30344 -0.72534 0.31425 0.92328 1.2655 0.78544 0.032652 0.93168 1.4241 0.17173 0.18632 0.53497 0.292 -0.25832 -0.18744 -0.058226 0.6152 -0.12524 -0.2864 -0.18164 0.67149 -0.021152 -0.17887 0.08131 0.53158 -0.61356 1.2649 -0.12999 -0.18239 0.50304 -0.060035 -1.1152 1.3815 -0.42278 0.41878 -1.4441 -0.1239 0.16967 0.80355 0.19378 0.305 0.59625 0.78658 -1.1147 0.66399 -0.0080119 0.77078 1.689 0.48532 -0.65877 0.46429 -0.055541 0.090905 0.13857 1.5263 1.1634 0.94441 -0.72394 -0.45429 -0.97828 0.2875 0.2369 -0.58162 0.10989 -0.1781 0.71329 1.0442 0.71249 -0.8806 -0.67979 -0.072621 1.5306 0.57744 0.078068 1.213 1.2356 0.72798 0.42446 -0.076075 -0.29639 0.12293 -0.90948 
어요|EF -0.10774 -0.14334 0.023855 -0.20514 -0.056784 -0.064153 0.021596 0.33537 -0.57227 -0.51766 0.086349 0.01582 -0.24771 0.0020114 -0.031272 -0.25115 -0.36742 -0.15809 0.35786 0.23082 -0.10802 -0.18993 -0.082228 -0.043387 -0.47134 -0.049585 -0.29516 0.23002 0.33484 -0.34296 -0.33061 -0.2492 0.20865 0.32937 0.40227 0.49815 0.36912 0.22832 -0.021715 0.2352 0.10954 0.07971 -0.16518 -0.12302 0.24223 -0.38071 0.34143 0.035088 0.32331 0.032223 0.28503 -0.13359 -0.20872 0.12384 0.049901 -0.43661 -0.45109 0.26719 -0.050846 -0.18733 -0.17329 0.058402 0.27701 -0.53721 0.067626 0.1909 -0.2781 0.10444 -0.27883 -0.29668 0.19865 -0.069 0.26402 0.05777 0.19816 0.066665 0.0054932 -0.089506 -0.032246 0.096148 0.47968 -0.21705 0.27609 -0.11278 0.35648 0.40089 -0.25166 0.073445 -0.028437 0.28421 0.50969 -0.46928 -0.11046 -0.15929 0.14139 -0.13689 -0.11379 -0.1738 -0.14572 -0.67572 
려고|EC 0.35025 0.0046378 0.38234 -0.20287 -0.029061 -0.1456 0.15606 -0.088712 0.22941 0.31784 -0.11986 -0.15576 -0.10679 -0.19833 0.45644 0.30317 -0.36925 0.058315 0.18448 -0.24627 0.0784 -0.48638 0.31244 0.36643 -0.017463 -0.021965 -0.14514 0.10708 0.22684 -0.52731 -0.41839 -0.40717 0.38713 -0.10219 -0.29455 -0.3715 -0.6838 0.047503 -0.12018 0.17985 0.015813 0.35338 -0.1638 -0.30262 -0.030432 0.10129 -0.29796 0.18339 0.23893 -0.14645 0.62184 0.16133 0.19755 0.11886 -0.20605 0.033397 0.31834 0.071165 -0.25328 -0.072113 0.3182 -0.028662 0.055268 0.25738 0.17366 0.58722 -0.29399 0.29313 -0.15948 0.4356 0.5391 0.078251 0.31438 -0.28816 0.15161 0.025469 0.47193 -0.57784 0.36698 0.0093254 0.39291 -0.1792 -0.4474 -0.23121 0.19806 -0.27542 -0.19292 -0.13462 0.088615 0.1321 -0.16276 0.45594 0.65371 0.086659 0.30386 0.16659 -0.71773 -0.37666 0.094882 -0.12165 
는|ETM -0.076053 0.24935 0.069113 -0.397 0.018496 0.80763 0.22233 0.026945 0.31098 0.39917 -0.34104 -0.3517 0.69282 0.069183 0.2585 0.1078 0.29297 0.26745 -0.25351 -0.25696 0.13978 0.03939 0.14856 0.52969 0.15437 -0.3604 0.045536 0.54014 -0.3989 0.42109 0.14571 0.51698 0.55617 0.48143 0.074155 0.048192 -0.078842 0.37366 -0.11818 -0.45544 0.39204 0.16942 -0.15737 0.46765 0.071353 0.082276 0.10338 0.033801 -0.26132 -0.18152 0.062862 0.30649 0.39867 -0.073671 -0.026774 0.36825 0.32559 -0.78518 0.30664 -0.14067 0.05938 -0.51449 -0.5902 -0.27205 -0.44811 -0.31336 0.6524 0.06752 0.25336 0.21142 0.070038 -0.46297 -0.94527 0.15102 0.30278 0.0073266 -0.083756 -0.15208 -0.47624 -0.61616 -0.14736 0.34635 0.14859 -0.21272 -0.71457 -0.13553 -0.044792 0.33841 0.81644 -0.68268 0.14076 0.09497 0.25521 0.20737 -0.37739 0.58952 -0.041169 0.092771 0.57522 0.40985 
수|NNB 0.4921 0.017281 0.011473 -0.10495 0.46563 0.17795 -0.12766 -0.099175 0.42844 -0.022021 -0.21425 -0.20934 -0.19193 0.3367 0.07055 0.26242 -0.38579 0.14318 0.36508 -0.082963 -0.037468 -0.25258 0.19824 0.19052 -0.31566 -0.47157 -0.20172 0.22973 0.1827 -0.31224 -0.42185 -0.050242 0.55464 0.16472 -0.68754 0.13692 -0.21862 0.0095434 -0.090989 0.47554 -0.018247 0.36796 0.049738 0.075218 0.25531 -0.20952 0.097883 0.11322 0.21137 0.1784 0.16663 -0.28452 0.094604 0.21294 -0.0069143 -0.0078864 -0.047675 0.37699 -0.18055 0.16051 0.01686 -0.073743 0.3048 0.0505 -0.28349 0.54208 -0.30286 0.15716 -0.4273 0.23272 0.37337 0.35315 0.25727 -0.10628 -0.066395 0.070346 0.25073 -0.23189 0.17746 -0.17567 0.45466 -0.26168 0.023175 -0.24644 0.38695 0.027772 -0.11112 0.14042 -0.22559 -0.16253 0.17211 0.12168 0.46437 -0.34474 -0.23443 -0.21763 -0.67649 -1.0545 0.088369 -0.57946 
거|NNB -0.015541 0.52754 0.19079 -0.57662 -0.13882 0.76925 -0.43833 0.59497 -0.46615 0.084251 -0.12792 0.26503 0.31343 0.029117 -0.50262 -0.36636 0.36371 0.15708 0.18851 -0.21878 -0.297 0.44969 0.38285 0.36006 -0.40453 -0.30174 -0.094193 -0.11007 -0.49048 0.097544 -0.33591 -0.13487 0.10558 -0.03759 0.16739 0.31392 0.37546 0.28213 -0.36068 -0.19179 -0.0056016 0.36581 -0.36909 -0.045399 0.43932 -0.45226 0.28727 -0.042009 -0.29775 0.096324 -0.086095 0.3597 -0.050655 0.10568 -0.10677 -0.29285 -0.40153 -0.53167 0.99789 -0.28247 -0.46009 -0.14993 0.20785 0.14205 -0.075201 -0.57338 0.25704 0.096528 0.34598 -0.091176 -0.52821 -0.2596 -0.14688 0.092383 0.039617 -0.25434 -0.55967 0.11453 -0.17349 0.12359 0.20702 -0.030716 0.51621 -0.51085 -0.06655 0.37249 0.038478 0.15629 0.1313 0.37633 0.88894 -0.20404 -0.17631 0.25104 0.51674 -0.16926 0.11497 0.68195 -0.32652 -0.40398 
시간|NNG -0.098946 1.0263 0.10658 0.23902 -0.29409 1.5271 -0.16643 0.16272 0.30391 0.36161 -0.57095 -0.89957 0.57273 0.20706 -0.46734 0.66418 0.50578 1.008 -0.016983 0.13175 -0.27638 1.3582 -0.29718 0.39542 0.43892 -0.60693 -0.25744 0.55735 -0.73492 0.67642 0.3458 -1.1614 1.1124 -0.075314 -0.87939 0.81724 0.4945 0.55229 -0.037824 -0.37251 -0.1378 0.23728 -0.20271 0.37701 0.16465 0.43269 -0.54816 -0.55748 -0.57783 -0.077142 0.74851 0.16699 0.76608 0.30961 0.43925 -0.046913 0.40998 -0.0828 1.1325 0.013 0.082851 0.17048 -0.44589 0.70209 0.50429 -0.36462 0.73808 0.08224 0.14183 1.0066 -0.14556 0.28472 -1.1186 0.53506 -0.59085 -0.14626 -0.99442 -0.22878 -0.96025 -0.65973 -0.11585 -0.050717 -0.11011 -0.019428 -1.1555 0.48642 0.25168 -0.1692 0.47419 -0.25267 -0.33692 0.13958 -0.64622 -0.36689 -0.29793 0.58487 0.14054 -0.27259 0.22522 -0.43407 
환불|NNG -0.4604 -0.42722 0.46471 0.31233 -1.2453 0.075175 -0.20873 0.43585 -1.8078 -1.4353 -0.42627 -0.18055 -0.5805 -0.99843 0.26818 -0.32273 -0.49158 -1.169 -0.26804 0.85129 0.13745 -0.22163 -0.90704 0.33016 -0.49425 0.54148 -1.1733 -0.061377 0.14486 -0.55918 0.59939 -0.19061 0.5873 2.505 1.7435 0.88382 1.2064 1.2823 -1.113 1.0508 -0.34338 -1.4636 -0.24352 -0.24635 0.31286 -0.43924 0.16962 -0.4029 1.4246 -0.53969 0.85724 -0.2762 -0.32656 -1.0017 0.04181 -0.63729 -0.03276 -0.35458 -0.54738 -0.32232 1.112 0.27523 -0.26069 -1.6638 0.89786 -0.20615 -0.28039 -0.32222 -0.63615 -1.5365 0.96835 -0.68379 -0.1945 0.18317 0.22471 0.63152 -0.57619 -0.38623 -0.58301 0.50999 1.1801 -0.33946 -0.44992 0.73553 0.57 0.85325 -0.022474 0.90719 -0.42854 1.4727 -0.91204 -1.5557 -0.11913 0.5592 0.30613 1.0434 0.17991 0.70679 0.11196 0.56679 
변경|NNG 0.46467 0.97917 -0.68754 -0.60312 1.1098 1.0051 -1.351 -0.79126 0.82869 1.4376 -0.87641 -0.56865 0.094483 1.4391 -0.36429 0.72177 -0.3555 0.98122 0.15764 -0.28389 -0.5121 0.94213 0.49736 -0.14571 0.21406 -1.1882 0.78274 -0.87476 -0.99449 1.0426 -0.19954 0.113 0.74156 -0.43796 -2.8344 0.78267 -0.42984 0.26891 -0.49596 1.17 -0.52988 0.36107 0.28942 0.095134 0.46163 -0.69016 -0.077591 -0.3481 -0.56576 1.0515 0.29178 0.042615 0.11641 -0.4032 0.23914 0.76327 1.0726 -0.017057 0.73613 0.24836 0.22899 0.35576 0.55399 1.8462 0.20551 0.47799 0.15897 0.032943 0.29799 0.95894 -0.33159 0.94746 -0.30247 0.44968 -1.0142 -0.049543 -0.29608 0.60306 -0.043367 -0.40344 -0.12372 0.0092242 -0.2969 0.0055446 0.25718 0.047836 0.27395 0.75172 -0.4478 0.2511 -0.10538 0.044608 -0.10016 0.011781 -0.44629 0.067652 -0.67231 -0.80682 -0.13691 -0.39394 
이용|NNG 0.02357 -0.73616 0.69757 1.3892 -0.50105 -1.3586 0.48274 -0.44247 0.49304 -0.4815 0.2369 0.3157 -0.33811 -0.52952 0.15168 0.084219 -0.060404 -0.49161 -0.46902 -0.25249 0.61575 -0.10055 -0.41694 -0.77922 0.32576 0.73169 0.60114 -0.57339 0.83868 -0.39002 0.93562 0.24553 -0.79097 -0.11147 0.60061 -0.57186 -0.064484 -1.2055 0.018287 -0.65489 0.56177 -0.44817 -0.094842 0.2798 -0.51554 0.96612 -0.9874 0.10032 -0.50158 -0.90316 -1.4545 -0.5215 -0.16172 0.26848 0.38345 0.175 0.099778 0.57797 -0.46831 0.99029 0.064389 -0.27348 0.20791 0.059255 -0.1949 -0.42517 0.036036 -0.10742 0.25729 -0.19066 -0.15492 -0.08975 0.59868 0.79019 0.84052 -0.093935 0.38796 0.28661 0.036429 0.30695 -0.70999 -0.073486 0.030797 0.19551 -0.10223 -0.38264 -0.24693 -0.028565 -0.74069 -0.49722 -1.3143 0.01767 -0.020729 0.08874 -0.54657 -0.46181 0.53743 0.017177 -0.18773 0.47525 
취소|NNG 0.44684 -0.14541 0.4682 -0.69631 0.18488 0.09396 -0.47092 0.57163 -1.4413 -0.81225 -0.48196 -0.071548 -0.56839 -0.51806 0.3964 -0.46314 -0.53634 0.070542 0.10253 -0.41762 -0.21513 -0.79332 -0.99752 1.4079 -1.364 -0.044803 -1.5459 0.006969 0.14154 -1.1977 -1.2929 -0.48752 1.0909 1.7469 0.63707 0.034959 0.447 0.60206 -0.48734 0.52953 -0.31758 1.3005 -0.86813 -0.092897 0.3479 -1.1027 0.97349 0.31104 0.94332 0.49208 -0.37066 0.022698 -0.10958 0.81898 0.041452 -1.1266 -1.0866 -0.147 0.6815 -0.40937 0.013155 -0.30154 1.0741 -0.86826 0.47673 -0.47979 -0.51123 0.74134 -1.038 -0.49721 -0.20985 -0.92021 0.56122 -0.47798 0.38874 0.3071 0.45971 -0.75722 0.9819 0.95142 0.90933 -0.13554 1.2555 -0.32901 0.75787 0.81707 0.17243 0.53398 -0.79178 0.50504 1.0631 -1.0082 1.3077 0.13206 0.94171 -0.99965 -0.75272 0.13387 -0.34611 -0.4849 
가|VV -0.01023 0.36022 0.23075 -0.20795 0.061897 0.77269 -0.23731 -0.19826 -0.38694 0.062515 -0.3314 -0.63508 -0.0097134 -0.21387 -0.076808 -0.21303 0.23384 0.34107 -0.53623 -0.33267 -0.0028463 0.36821 -0.46009 1.059 -0.12045 -0.19515 -0.6613 -0.00080799 -0.54249 -0.072987 -0.10335 -0.81879 0.46645 0.24714 -0.23457 -0.067591 -0.037385 0.31402 0.20738 -0.040241 -0.76545 0.79507 -0.3864 0.37588 0.37659 -0.04691 0.36678 -0.17648 -0.1629 0.34681 0.16348 0.11155 0.49979 0.21828 -0.36312 -0.0932 -0.28988 -0.082044 0.77677 -0.25746 0.011152 0.10804 0.34187 0.58299 0.37006 -0.34282 -0.17815 0.21899 -0.52794 0.13146 -0.15224 0.032344 0.091565 -0.60332 -0.4733 -0.21577 0.037674 -0.23625 0.53902 0.19302 0.11147 0.51494 0.32852 -0.087297 -0.2142 0.22639 -0.01752 -0.335 -0.2834 0.24841 0.10639 0.18672 1.0133 -0.50208 0.51809 -0.30625 0.085534 0.31764 -0.41463 0.13679 
했|XSV+EP 0.16513 0.47438 0.21265 -0.22733 -0.16471 0.50569 -0.69213 -0.17366 -0.1965 0.16124 -0.33335 -0.23256 -0.24428 0.076985 0.045535 0.082666 -0.061298 0.095151 -0.068016 0.063105 -0.15222 0.34156 0.0043203 0.55819 0.095958 -0.20696 -0.1624 -0.29875 -0.41407 0.12946 -0.0047207 -0.51311 0.48576 0.36416 -0.59228 0.26185 -0.14261 0.58673 -0.070779 0.65872 -0.63674 -0.19429 0.19152 -0.11236 0.31031 -0.17295 0.048016 -0.12539 0.33391 0.16525 0.75687 -0.19342 0.36718 -0.46118 0.060099 0.26854 0.4891 -0.084202 0.18568 -0.14656 0.51982 -0.064736 0.214 0.27802 0.616 0.42749 0.053995 -0.17306 -0.20229 0.043295 0.22181 0.15184 0.11741 0.25472 -0.32301 0.080799 -0.47709 -0.36698 0.0045068 -0.011653 0.29965 -0.083164 -0.48358 0.20086 0.33803 0.17672 0.023854 0.12381 -0.038284 0.67857 -0.20955 -0.19779 0.083934 0.45764 0.1218 0.50273 -0.2562 -0.30901 0.04681 0.0085569 
영수증|NNG 0.57133 0.30123 0.20901 -1.0606 -0.27282 0.012176 -0.09033 0.49317 0.53043 0.40223 0.10014 1.5498 -0.72129 0.53015 0.80427 -1.3152 -0.337 -0.61118 0.55077 -0.53661 -0.14785 -0.31077 1.748 -0.062623 -0.18052 -0.051775 1.458 -0.27015 -0.11581 0.65934 -0.2448 2.0214 -0.30638 0.27437 1.1655 0.23045 0.11636 0.21444 -0.19584 -0.079378 0.43736 -0.37041 0.53106 0.22503 0.65633 -0.67362 0.14336 0.3635 0.15987 0.208 -0.15586 0.43833 -0.21627 -1.3807 -0.31029 0.40671 0.60944 -0.74988 -0.514 0.38006 -0.27522 -1.1957 0.36788 -0.53685 -0.64558 1.0969 0.25825 -0.62734 0.53624 0.21078 0.14748 -0.48208 0.46756 0.63187 0.84067 -0.16104 -0.12274 0.099708 -0.19329 -1.0064 -0.016557 0.18413 -0.047243 0.039376 1.5468 -0.56654 -0.20423 0.81239 0.443 -0.0024901 1.4417 -0.14493 0.57411 1.6183 -0.40453 0.4966 -0.4004 0.02375 0.22285 -0.01538 
요|EC -0.16949 -0.19374 0.19568 0.38861 -0.095625 -0.46033 -0.13625 0.046059 0.34681 -0.36638 0.048344 0.44131 -0.074011 0.069956 0.29659 -0.17636 -0.14296 -0.011124 0.031151 -0.085787 -0.023114 -0.095792 -0.12742 -0.31711 -0.23674 0.25028 0.29923 0.27698 0.84899 -0.15796 -0.41351 -0.31166 0.05172 0.22858 0.53256 0.082815 0.10309 -0.36031 -0.022956 -0.047991 0.50862 0.17101 0.12239 -0.53412 -0.10344 -0.10973 -0.24158 0.25107 0.012115 -0.73528 0.087382 -0.36284 -0.2353 0.14085 0.44299 -0.36179 -0.24969 0.524 -0.14191 0.45298 0.34336 -0.22575 0.11959 -0.63598 0.026196 0.19991 0.14243 0.31045 0.12524 -0.091117 -0.1875 -0.22843 0.43598 0.73874 0.83443 -0.015412 0.25464 -0.23069 -0.26781 0.36057 -0.33288 -0.28633 0.53597 0.098783 0.11917 0.59 -0.24596 -0.043244 -0.21771 0.3021 0.20923 -0.44228 -0.049826 -0.0066675 -0.093945 -0.22016 0.06311 -0.22254 0.048776 -0.68222 
할|XSV+ETM -0.58394 -0.29174 -0.0036212 0.57541 0.040914 -0.40812 0.33914 -0.1747 -0.30719 -0.53316 0.52767 -0.2081 -0.15944 -0.26879 0.46755 -0.64669 -0.24233 -0.37821 -0.29676 0.082604 0.55118 -0.1731 -0.56792 -0.075144 -0.056714 0.63318 0.21338 0.16107 0.29515 -0.18345 0.63678 -0.41087 -0.078571 0.10674 0.48672 0.26179 0.16162 -0.45547 0.64156 -0.28614 0.029268 0.34764 -0.31175 0.33156 0.43638 0.024633 0.12608 0.18897 -0.39042 -0.17297 -0.60978 0.095101 -0.10691 0.35432 -0.16908 -0.15086 -0.36198 0.66106 -0.011708 0.051629 -0.27756 0.13768 0.23085 0.06955 0.0062593 -0.088821 -0.3591 0.057317 -0.2239 -0.4281 0.060154 0.5966 0.45934 -0.28309 0.18519 -0.15138 0.27463 0.14804 0.57435 4.4262e-05 -0.41006 0.54639 0.31962 0.40015 0.12569 0.23205 -0.49743 -0.38859 -0.61568 0.30003 -0.14698 0.24422 0.98679 -0.8551 0.062663 -0.39279 0.39215 0.44281 -0.32977 -0.14446 
회원|NNG 0.076355 0.041347 -0.58033 -0.71352 0.90298 0.16243 0.30956 0.2622 -0.087574 0.024971 0.19403 -0.066793 0.097248 0.67863 0.27213 0.024612 -0.44413 0.10016 0.50892 0.073561 0.028784 -0.20123 0.049954 -0.3195 -0.63646 -0.19966 0.3467 0.43144 0.041298 0.062403 0.0098922 1.0756 0.11528 0.19915 -0.14402 0.35126 0.1565 0.006618 0.20649 -0.24808 0.49105 0.66425 -0.43415 0.42752 0.23749 -0.5498 0.69432 0.3724 0.062354 0.46249 -0.55031 0.32064 -0.40145 0.40043 0.19695 -0.08679 -0.17855 -0.1362 0.16455 -0.26725 -0.7136 -0.29746 0.3684 -0.35332 -0.69654 -0.11555 -0.014408 -0.028013 0.071608 -0.068865 -0.13304 -0.11096 -0.17501 0.037785 0.13801 0.092772 0.25892 0.38147 0.36393 -0.36892 -0.098592 0.1936 0.73225 -0.043492 0.016713 0.2802 -0.14804 0.36107 0.27433 -0.43797 1.0133 -0.11034 -0.066948 -0.098853 -0.28975 -0.35139 -0.27617 -0.38985 0.16676 -0.41895 
방법|NNG 0.32843 0.46324 0.56125 -0.1204 -0.51075 0.22995 0.099234 0.28357 -0.11862 0.24784 -0.20212 0.043038 -0.38214 -0.14965 -0.097035 0.14397 -0.152 -0.068216 0.41295 -0.047573 0.062733 0.65371 0.30034 0.17197 0.038163 -0.038019 -0.008368 -0.33025 -0.51764 0.10889 0.79183 0.30737 0.1658 0.085665 -0.39542 0.28615 0.20924 0.23359 -0.20073 0.0010623 0.013984 -0.58104 0.01967 0.51959 0.090492 0.38215 -0.35115 -0.21581 0.12097 0.088197 0.094739 0.034406 0.29207 -0.20778 0.15273 0.20558 0.54632 -0.25801 0.26718 0.33753 -0.23078 -0.2904 0.19751 0.20444 0.30398 0.18006 0.26267 -0.55338 0.090862 0.38804 0.22694 0.044596 -0.097072 0.3484 -0.12315 -0.11054 -0.59413 -0.15161 -0.1616 -0.58769 0.29993 -0.31619 -0.44628 0.2006 0.19003 -0.3526 0.096302 0.28251 0.23042 -0.42008 -0.22352 -0.12044 -0.56737 0.70718 -0.21992 0.4216 -0.36487 -0.14932 0.0045292 -0.073562 
해야|VV+EC -0.17125 -0.23279 -0.44327 0.11108 0.55564 -0.43452 -0.0052589 -0.17499 -0.022405 -0.13679 0.20498 0.35846 -0.42405 0.432 0.45157 -0.41842 -0.54625 -0.36088 0.135 -0.0082845 0.1685 -0.22346 -0.16724 -0.58674 -0.2548 0.35096 0.62684 -0.14264 0.29455 0.2124 0.29077 0.63008 -0.17657 0.35097 0.26389 0.59877 0.26912 -0.32254 0.037253 0.2782 0.058956 0.21357 -0.054669 0.096664 0.40276 -0.53879 0.16988 0.063633 -0.098663 0.28661 -0.65954 0.1944 -0.59473 -0.10361 0.062209 -0.017951 -0.014566 0.32133 -0.2038 0.24933 -0.17395 0.098204 0.4283 -0.020226 -0.17225 0.13824 -0.3468 0.022845 -0.0080517 -0.12988 -0.12951 0.41801 0.30585 0.021205 0.074187 0.09433 0.37828 0.53188 0.44076 -0.037872 -0.34462 0.37995 0.49225 0.47999 0.64588 0.2421 -0.075642 0.33721 -0.7442 0.30015 0.22178 -0.05392 0.58627 -0.32489 -0.30904 -0.37256 0.047909 0.19388 -0.17904 -0.16412 
못|MAG 0.09502 0.32555 -0.018069 -0.54342 0.51855 0.56991 -0.34209 0.22888 -0.30951 0.068784 -0.30761 -0.031086 0.29815 0.32362 -0.46239 -0.029801 -0.041088 0.22881 0.22448 -0.25858 -0.36387 0.070661 0.19226 0.35035 -0.61061 -0.62211 -0.32855 -0.090975 -0.1499 -0.22421 -0.71953 -0.21554 0.3393 0.17409 -0.48874 0.19789 0.02414 0.107 -0.45306 0.12095 -0.0076239 0.76696 -0.40934 0.0084166 0.36565 -0.63899 0.3582 -0.0050665 -0.029892 0.27629 -0.093199 0.25724 -0.16198 0.34971 -0.081392 -0.32496 -0.50502 -0.098377 0.73034 -0.13751 -0.34367 -0.078525 0.50076 0.16819 -0.34969 -0.43002 -0.20095 0.47849 -0.091742 0.02912 -0.44043 -0.15353 0.12674 -0.11546 0.031097 -0.12316 0.15766 0.19848 0.21528 0.23648 0.34886 -0.02273 0.80166 -0.63733 0.049477 0.38911 -0.053267 0.29401 -0.20756 0.31982 0.87254 -0.2695 0.1645 -0.23842 0.28555 -0.49477 -0.31259 0.13333 -0.49786 -0.53711 
좀|MAG 0.30044 -0.28493 0.93542 0.11422 -0.85708 0.20834 0.40143 0.38992 -0.68263 -0.044758 -0.010049 -0.14172 0.11808 -0.75375 -0.29113 0.19035 0.065009 -0.38092 0.10764 0.26185 0.081013 0.48117 0.58082 0.17446 0.35912 -0.078608 -0.57732 -0.31912 -0.41088 -0.23039 0.6769 -0.25919 -0.55562 -0.42909 0.16275 0.066351 -0.052188 0.055026 -0.16688 -0.22524 -0.3118 -0.7247 -0.11317 0.11406 -0.036944 0.627 -0.31709 -0.38646 0.17013 0.22126 0.57051 -0.085262 0.22545 -0.11725 0.01367 0.036021 0.26842 -0.57842 -0.017543 -0.31123 -0.34194 0.24964 0.19684 0.43031 0.38367 0.22459 -0.13633 -0.37955 0.065835 0.16439 0.46432 -0.24405 -0.15646 -0.16081 -0.34586 -0.075085 -0.39514 -0.34053 0.0055715 -0.11434 0.84403 -0.29063 -0.50107 -0.52975 -0.21815 -0.60407 0.10975 -0.24563 0.44099 -0.51939 -0.28318 0.10158 -0.78261 0.25317 0.45328 0.12982 -0.20304 0.12187 -0.4354 0.025117 
안내|NNG 0.029321 0.08103 0.32398 -0.13382 -0.86916 -0.33965 0.16895 0.16046 -0.12564 0.31214 -0.20587 0.12343 0.028965 -0.36639 -0.16495 0.43622 0.18872 -0.05885 0.080104 0.10621 -0.37698 0.026188 0.24377 -0.039782 0.6481 0.052959 -0.1422 -0.3461 -0.028296 0.12566 -0.28467 -0.21936 -0.16247 -0.21752 0.059391 -0.35049 -0.1107 0.41909 -0.40532 0.19263 -0.09097 -0.61048 0.28547 -0.47185 -0.70988 0.39251 -0.52103 -0.21217 0.38458 -0.12641 0.76243 0.021243 0.03062 -0.28554 0.13652 0.12504 0.59368 -0.60815 -0.1999 -0.17439 0.34388 0.21118 -0.43785 0.037094 0.4529 0.24428 0.19371 0.14878 0.37967 0.31907 0.18994 -0.49541 -0.25276 0.36838 -0.12043 0.19832 -0.096395 -0.3787 -0.32509 0.020487 0.010141 -0.4059 -0.83212 -0.13668 0.045441 -0.53203 0.4864 0.13416 0.65834 -0.052957 -0.42545 -0.06361 -0.7229 0.91783 0.12682 0.4758 -0.11243 0.33427 0.22276 0.36712 
받|VV 0.32394 0.21252 0.32111 -0.61127 -0.34681 0.43137 -0.26667 0.32432 0.034882 0.1179 -0.015767 0.54511 -0.17355 -0.12435 -0.19901 -0.54183 0.40072 -0.33929 0.050449 -0.12636 -0.094063 0.069138 0.83488 0.40293 -0.10975 -0.19703 0.10599 -0.2817 -0.49369 0.086226 0.077461 0.64393 -0.33472 -0.040607 0.54087 -0.21008 -0.074555 0.4148 -0.23018 -0.04192 -0.27423 -0.4172 0.14635 0.12147 0.36624 -0.13771 0.34065 0.0036397 0.17152 0.18398 0.10521 0.099265 0.10007 -0.63887 -0.43597 0.1939 0.014445 -0.6003 -0.014993 -0.099439 -0.1041 -0.38407 0.0022327 -0.035887 -0.2531 0.15502 0.11781 -0.49815 0.19236 -0.24473 0.078166 -0.23687 0.14858 -0.20158 -0.044737 -0.14999 -0.38969 -0.10868 -0.17774 -0.22387 0.44122 -0.039228 -0.22167 -0.19196 0.4907 -0.3249 0.029384 0.079703 0.27133 0.19904 0.55566 0.00058878 0.16169 0.63806 0.17662 0.32167 -0.067723 0.32547 -0.061764 0.24347 
은데|EC 0.25567 0.16934 -0.014677 -0.11883 0.29273 0.045792 -0.20489 0.18119 0.47154 0.18803 -0.051986 0.52035 -0.10747 0.32764 -0.25462 -0.012639 0.014093 0.068609 0.44545 -0.14679 -0.22021 0.15015 0.47645 -0.53853 -0.36371 -0.15026 0.49278 -0.13073 0.2322 0.0015014 -0.18853 0.34065 -0.24056 -0.30828 -0.069443 0.10914 0.067251 -0.1924 -0.44168 -0.047891 0.2973 0.2298 -0.18626 -0.27978 0.1676 -0.27427 -0.017612 0.039709 -0.10459 -0.025299 -0.21299 0.04305 -0.41229 0.074731 0.10141 -0.27258 -0.15013 0.14823 0.17168 0.30805 -0.23117 0.0004518 0.25119 0.22858 -0.33737 0.0091118 -0.034711 0.052392 0.45724 0.10857 -0.30598 0.073315 0.28573 0.26391 0.093638 -0.097302 0.12797 0.25441 -0.24759 0.16428 0.030039 -0.31639 0.40726 -0.21186 0.21348 0.18169 -0.010464 0.10478 -0.2572 0.23911 0.52512 -0.073118 -0.1809 -0.013031 -0.021237 -0.38323 -0.1761 -0.067562 -0.17222 -0.69875 
아이디|NNG 0.17586 -0.46448 -0.76964 0.67658 0.068924 -0.77039 0.43189 0.45591 0.19426 -0.51589 0.33413 0.91035 -0.19035 -0.012147 0.082393 0.42926 0.025143 0.027278 0.55407 0.44513 -0.28846 -0.27566 -0.48321 -0.66182 -0.0019862 0.66731 -0.44611 0.89049 0.55115 0.17996 -0.54151 0.62757 -0.30756 0.081314 0.50239 -0.39444 0.55369 -0.27369 0.35263 0.23855 0.23884 -0.68868 1.0956 -0.67837 -1.0015 0.061228 -0.091139 0.04358 0.7749 -0.34715 0.4431 -0.42666 -0.083531 -0.095706 0.44897 -0.44929 -0.02145 0.21724 -0.93034 0.090868 0.45499 0.004098 -0.81022 -1.6606 0.22702 0.32921 0.37064 -0.0069998 -0.37282 -0.10024 -0.14452 -0.40524 -0.37129 -0.1386 0.026298 0.60234 -0.13952 -0.09593 -0.49235 0.2502 -0.29252 -0.78693 -0.15161 0.75481 -0.19353 0.47698 0.68903 -0.3079 0.41812 -0.65287 -0.0021103 -0.21694 -1.4135 0.42317 -0.091916 -0.034003 -0.078743 -0.71097 1.0086 0.25697 
돈|NNG 0.38949 -0.14496 0.6346 -0.22434 -0.65525 0.1733 -0.63626 0.53869 -0.81242 -0.82147 -0.20885 0.58159 -0.67928 -0.70855 -0.021753 -0.29339 0.13219 -0.54916 0.079339 0.29598 0.0062965 -0.026263 -0.1547 0.61591 -0.50078 0.34862 -0.65652 -0.06434 0.063015 -0.49806 0.011496 -0.0182 0.16553 0.99632 1.0831 0.16747 0.46049 0.6109 -0.3132 0.40698 -0.34854 -0.8902 0.062253 -0.36909 0.38334 -0.27863 0.27941 -0.16481 0.92449 -0.22778 0.40405 -0.6737 0.07568 -0.68026 0.07814 -0.42596 -0.30958 -0.20568 -0.22838 -0.13269 0.66684 -0.52161 0.0029874 -1.2503 0.58068 0.12819 0.15286 -0.56084 -0.42649 -0.81571 0.30665 -0.55644 0.24907 0.26623 0.284 0.2952 -0.80397 -0.64526 -0.53581 0.42576 1.0609 -0.56823 -0.22576 0.28124 0.59504 0.48011 0.022114 0.13196 0.0058744 0.80046 -0.15291 -0.95801 -0.56274 0.87647 0.2853 0.64512 -0.087765 -0.23702 0.26082 -0.038295 
확인|NNG 0.23934 0.349 0.54751 -0.70714 -0.26197 0.75956 -0.50601 0.5378 0.25712 0.20085 0.22108 0.89367 -0.0024647 -0.17558 -0.33128 -0.77274 0.77436 -0.35532 0.1333 -0.26258 -0.040186 0.4718 1.1303 0.36424 -0.42487 0.079763 0.31971 -0.019049 -0.37097 0.0087597 0.15794 0.35494 -0.73069 -0.54921 0.89015 -0.2906 -0.096668 0.20665 -0.12003 -0.39289 -0.23573 0.027622 -0.10412 -0.28555 0.73658 -0.22869 0.57825 0.14284 -0.030873 -0.16034 0.36647 0.1497 -0.17619 -0.43332 -0.49223 -0.12975 -0.46025 -0.55388 0.4856 -0.13217 -0.3339 -0.3383 0.13215 0.085264 -0.35755 0.071511 0.15789 -0.50534 0.57731 -0.42926 -0.21469 -0.14663 0.49382 -0.30713 0.053556 -0.50242 -0.40376 -0.2697 -0.033659 0.26578 0.36537 -0.098687 0.27619 -0.29434 0.32329 0.16039 -0.18892 -0.45415 0.2228 0.6799 1.1429 0.17635 0.2539 0.31405 0.74216 -0.057041 0.097055 0.66142 -0.28235 -0.45971 
객실|NNG 0.28951 -0.43463 0.73317 0.23649 -0.83025 -0.21947 0.50835 0.028036 -1.0371 0.024371 0.33453 -0.1282 -0.37439 -0.31813 -0.40802 -0.54012 -0.57599 -0.31695 0.45222 0.26563 -0.051326 0.60846 0.92648 -0.42792 0.53235 -0.22481 -0.016444 -0.96107 -0.38292 -0.035539 0.93781 0.2047 -1.0359 -0.67029 -0.55658 0.29272 0.31626 -0.030719 0.31033 0.33195 -0.23351 -1.1134 0.22066 0.7389 -0.0077509 0.46716 0.11186 -0.31651 0.37578 0.75741 0.50686 -0.38881 0.17559 -0.5818 -0.099052 0.23442 0.63488 -0.12151 -0.37955 -0.033116 -0.96036 0.18822 0.8641 0.60496 0.42675 1.0891 -0.41724 -0.71498 -0.030597 -0.12155 0.4489 -0.24494 0.68463 0.1551 -0.54849 -0.10728 -0.12929 0.25926 0.16903 -0.32189 0.67859 -0.47651 -0.77922 -0.39954 0.53925 -1.0535 -0.3644 0.01126 0.33353 -0.79752 0.12097 -0.4667 -0.88075 0.68275 0.36395 -0.34172 -0.16905 -0.22979 -0.67362 -0.28566 
알려줘|VV+EC+VX+EC 0.2742 0.2646 -0.011808 -0.60497 -0.042039 0.56327 -0.25336 0.081297 0.31203 0.67728 -0.15409 0.22519 0.20712 -0.095797 -0.15981 -0.059781 0.69237 0.11556 -0.16714 -0.21621 -0.17246 0.023896 0.42524 0.46779 0.24783 -0.10868 0.017778 -0.071272 -0.70881 0.38264 -0.11928 0.4499 -0.13091 -0.26327 0.14105 -0.54157 -0.27468 0.49881 -0.17148 -0.13902 -0.42394 0.064794 0.11942 -0.10708 -0.0045739 -0.11686 0.33202 0.0036921 0.12108 0.34158 0.31423 0.37757 0.18774 -0.32737 -0.40303 0.1882 0.19184 -0.88335 0.17361 -0.38338 0.12077 -0.077037 -0.48388 0.22836 -0.12375 -0.091522 0.35546 -0.076427 0.30581 0.066575 -0.128 -0.31341 -0.43216 -0.57137 -0.37821 0.078706 -0.11426 -0.26987 -0.092 -0.069089 0.0079746 0.1257 -0.23578 -0.069608 -0.090648 -0.32103 0.38051 -0.087222 0.54852 -0.1295 0.32116 0.31099 0.29622 0.50798 0.30682 0.25481 -0.092109 0.50757 0.3412 0.55675 
번호|NNG 0.064048 0.21403 -0.53883 0.29918 0.18023 -0.47569 0.25644 0.30614 0.28363 0.57063 -0.17341 0.76358 -0.013669 0.46824 0.1765 0.38818 -0.37476 0.22481 0.87901 0.0045002 -0.60376 0.15459 0.10871 -1.2209 0.24546 0.11098 0.70948 -0.31211 0.19172 0.67395 -0.29486 0.57124 -0.18444 -0.055333 -0.27993 0.56024 0.42068 -0.11238 -0.67796 0.29453 0.45526 0.029885 0.13564 -0.59171 -0.55823 -0.39769 -0.57211 -0.19328 0.045598 0.30414 -0.12951 0.6152 -0.67498 0.029821 0.73998 -0.28192 0.73536 -0.20317 -0.022612 0.2995 -0.089415 0.36459 -0.017757 0.32238 0.20491 0.19361 0.27071 0.47128 0.8369 0.85552 -0.56749 -0.18434 -0.41471 0.61327 -0.2117 0.46961 0.30002 0.4603 -0.42718 -0.096041 -0.57424 -0.32803 0.29367 0.19559 0.039991 -0.0062936 0.67908 0.59366 -0.052902 -0.14907 0.41574 -0.13739 -0.76566 0.50624 -0.23933 -0.30604 -0.40782 0.41298 0.17092 -0.35694 
숙소|NNG 0.16578 -0.5322 0.94508 0.11395 -1.0476 -0.49152 0.41794 0.50734 -0.93583 -0.54139 -0.08674 0.027463 -0.066679 -1.23 0.15121 0.46467 0.18267 -0.77574 -0.36229 0.27524 0.25953 -0.12753 -0.19751 0.65401 0.18633 0.56739 -1.1098 -0.11143 -0.12773 -0.56253 0.40244 -0.32736 -0.3698 0.026252 1.1332 -0.41053 -0.22152 -0.10972 -0.29159 -0.54376 -0.35669 -0.76507 -0.16746 -0.27967 -0.33488 0.75997 -0.67258 -0.32281 0.26518 -0.15054 0.13613 -0.034974 0.14499 0.20324 0.054701 -0.17133 -0.11057 -0.59843 -0.14882 -0.33697 0.23131 0.22804 -0.11543 -0.15439 0.69844 -0.45265 -0.15253 -0.23114 -0.31974 0.12009 0.47155 -0.34885 -0.35602 -0.34967 0.17002 0.0319 -0.36683 -0.74022 0.36517 0.21084 0.75628 -0.069582 -0.40289 -0.15487 -0.17223 -0.35879 0.5309 -0.28989 0.18258 -0.32778 -0.89602 0.206 -0.66052 0.279 0.42922 0.36397 -0.19148 0.50343 -0.30803 0.6914 
려면|EC -0.10815 0.021891 0.06989 -0.11574 -0.03648 0.078854 -0.27464 -0.028621 -0.42669 -0.4023 0.029317 -0.15907 -0.40022 -0.036611 -0.1939 -0.36716 -0.048194 -0.1861 -0.22712 0.098955 0.065191 0.10497 -0.3012 0.28529 -0.35709 0.065015 -0.3471 -0.1542 -0.19881 -0.22105 0.33782 -0.04329 0.1546 0.36029 0.15274 0.22062 0.17133 0.18882 0.0024751 0.22743 -0.46103 -0.081398 -0.19424 0.26544 0.41864 -0.13402 0.29617 -0.057938 0.064378 0.13298 -0.19349 -0.16266 0.048486 -0.045801 -0.2764 -0.066388 -0.29578 0.14997 0.20961 -0.094123 -0.0030445 0.070694 0.24472 -0.037095 0.13597 -0.26139 -0.27774 -0.23569 -0.4206 -0.46938 0.10885 0.29917 0.29287 -0.33277 -0.182 -0.027344 -0.2586 0.12015 0.26207 0.10697 0.20315 0.10517 0.02435 0.31594 0.48194 0.25938 -0.042323 -0.042135 -0.5229 0.45379 -0.086172 -0.090701 0.39996 -0.24709 0.069381 -0.033733 0.21069 0.17206 -0.28675 0.10257 
개|NNBC -0.22495 -0.34499 -0.61738 0.78008 0.046575 -0.38374 0.38925 -0.2382 0.0080105 -0.57396 0.45789 -0.21241 0.058205 -0.076565 0.023589 0.39092 0.04601 -0.23204 -0.07525 0.43982 0.28992 -0.10423 -0.61979 -0.095438 0.50067 0.37764 -0.37085 0.6842 0.25016 0.19542 0.035317 -0.33548 -0.098673 -0.02697 -0.15636 -0.18701 0.20297 -0.28383 1.0186 0.33167 -0.24955 -0.57045 0.96346 0.079938 -0.42835 0.45708 -0.05452 -0.06898 0.21088 -0.31678 0.33189 -0.51969 0.24538 -0.22806 0.037723 0.38 -0.028621 0.50011 -0.74796 -0.08406 0.252 0.058067 -0.61769 -0.82012 0.010216 0.41035 0.040642 -0.16726 -0.75015 -0.24916 0.35014 0.32289 -0.14094 -0.34285 -0.36123 0.16536 -0.27013 -0.042772 0.13133 -0.1268 -0.21803 0.068508 -0.67011 0.45958 -0.39372 0.0043556 -0.019625 -0.50611 0.37501 -0.31272 -0.75905 0.36771 -0.53335 -0.38094 -0.29273 0.25168 0.36999 -0.79525 0.60959 0.59563 
같|VA 0.070446 0.42253 -0.11886 -0.26097 0.093403 0.59354 -0.51957 0.21235 0.0076933 0.143 -0.24676 -0.17238 0.12333 0.22417 -0.37568 0.19058 0.13069 0.43781 0.17097 0.050505 -0.19456 0.38829 -0.0084482 0.1015 -0.1786 -0.35096 -0.022571 0.058245 -0.29653 0.16327 -0.24637 -0.33016 0.51167 -0.086243 -0.47871 0.42064 0.30807 0.28338 -0.17476 0.12031 0.022158 0.16948 -0.09655 -0.064494 0.21646 -0.2775 0.077132 -0.094185 -0.19321 0.10534 0.09592 -0.048195 0.10205 0.13055 0.13225 -0.16378 -0.11197 -0.030609 0.55169 -0.098924 -0.015943 0.063589 -0.052186 0.149 0.14514 -0.18777 0.26568 0.031673 0.11803 0.084023 -0.17567 0.1692 -0.34568 0.2463 -0.16814 -0.039392 -0.55783 0.0042647 -0.44275 -0.060038 0.16907 -0.24228 0.034221 -0.10677 -0.16688 0.39942 0.071919 0.15375 0.075184 0.16935 0.089837 -0.24541 -0.40548 0.025277 0.047589 0.1128 -0.02695 -0.19335 0.09641 -0.47158 
아직|MAG 0.3008 0.063106 0.45462 -0.20375 -0.46733 0.2344 -0.39973 0.69155 -0.38482 -0.40621 0.0048467 0.78076 -0.40022 -0.43725 -0.25869 -0.35398 0.31492 -0.30292 0.28801 0.055827 -0.078718 0.26909 0.22351 0.073138 -0.43845 0.35001 -0.095088 -0.005414 0.022587 -0.17908 0.020399 0.1247 -0.13621 0.17583 0.95479 0.20213 0.54882 0.17557 -0.27975 -0.15445 -0.00512 -0.39795 -0.15618 -0.33152 0.40431 -0.24003 0.097757 -0.15727 0.21862 -0.18531 0.010548 -0.24689 -0.13938 -0.30016 -0.020636 -0.52191 -0.4174 -0.22938 0.21065 -0.035141 0.058724 -0.33354 -0.044482 -0.62602 0.21261 -0.14787 0.20447 -0.37221 0.11696 -0.42802 -0.10664 -0.27142 0.13228 0.20376 0.22082 0.024695 -0.69014 -0.21093 -0.55885 0.27494 0.57814 -0.45392 0.090578 0.038192 0.30489 0.39241 0.016448 -0.070878 0.02765 0.54329 0.25357 -0.4494 -0.5942 0.53217 0.35849 0.18145 0.087504 0.1533 0.060831 -0.40854 
주|VX 0.13278 0.16636 0.074557 -0.083085 -0.20364 0.34236 -0.053201 -0.094811 0.0938 0.34729 -0.13682 -0.36505 0.14552 0.054939 -0.18987 0.28591 0.053935 0.1372 0.030133 0.21134 -0.17145 0.21218 0.37736 0.053883 0.51991 -0.42804 -0.0054056 -0.26202 -0.38715 0.22485 0.052191 -0.31991 0.066159 -0.35803 -0.5879 0.12831 -0.1977 0.31144 -0.057575 0.18305 -0.3264 -0.24681 0.18327 0.060643 -0.069959 0.16226 -0.22067 -0.17728 0.042202 0.3611 0.47876 0.050888 0.22667 -0.19775 0.037853 0.30909 0.47696 -0.24601 -0.082902 -0.21376 0.017472 0.26578 -0.054697 0.6177 0.15069 0.37368 -0.021191 -0.062349 0.10367 0.37562 0.27516 0.17139 -0.26001 0.033739 -0.52361 0.046511 -0.23236 -0.11313 -0.12298 -0.36141 0.20034 -0.057346 -0.60338 -0.24256 -0.034361 -0.4117 0.18923 0.049721 0.29828 -0.14441 -0.26947 0.15926 -0.23911 0.13303 -0.077104 0.33169 -0.14508 -0.18202 -0.037991 0.10677 
게|NNB+JKS -0.099062 -0.06368 -0.089511 0.086184 0.2031 -0.13934 0.026853 -0.29136 -0.37372 0.034191 0.11253 -0.18106 -0.17184 0.056817 0.68527 -0.29736 -0.46276 -0.25676 -0.21697 -0.090593 0.31157 -0.096394 -0.26468 0.13243 0.10678 0.33867 0.23995 -0.18729 -0.17687 0.19349 0.42803 0.1986 0.057625 0.43405 -0.13278 0.20639 -0.021293 -0.088713 0.33732 0.15822 -0.24654 0.20687 -0.065094 0.30217 0.3183 -0.2211 0.14749 0.11929 -0.029711 0.32163 -0.26466 0.22779 -0.00099781 -0.14455 -0.01559 0.24333 0.40398 -0.017486 -0.041809 -0.11416 -0.019363 -0.062748 0.42383 0.24004 0.21259 0.22251 -0.18262 -0.04467 -0.17746 -0.081467 0.088042 0.17913 0.1553 -0.097407 -0.04944 0.090705 0.2008 0.095577 0.71162 -0.12832 -0.27585 0.54223 0.039045 0.35334 0.25909 -0.03382 -0.18353 0.14014 -0.31412 0.12667 -0.077841 0.12273 0.7664 0.023456 0.055388 -0.14733 -0.094111 0.13434 -0.088274 0.31853 
카드|NNG 0.062524 0.26247 0.15777 -0.26588 -0.27109 0.18291 -0.10669 0.069659 -0.19715 0.20351 0.10637 0.097256 -0.20277 -0.090241 0.5152 -0.27235 -0.21009 -0.22053 0.090129 -0.016364 0.091254 -0.10086 0.39326 0.42347 0.1812 0.1456 0.10894 0.004048 -0.31901 0.09874 0.039273 -0.23377 0.18231 0.032975 0.030536 0.084198 -0.27185 0.345 0.27709 0.23581 -0.40449 -0.14006 0.22309 -0.10366 0.35334 -0.088972 0.0024925 0.015983 0.20281 0.13883 0.79617 0.33837 0.33049 -0.53223 -0.28991 0.29416 0.53351 -0.12922 -0.20944 -0.29992 0.25494 -0.13634 0.023966 0.15461 0.42379 0.72261 -0.10888 -0.20097 -0.13497 0.17515 0.43994 0.22043 0.15388 -0.25707 -0.076483 0.0027494 -0.2292 -0.38912 0.21665 -0.35383 0.29386 0.17045 -0.63833 0.17126 0.32828 -0.18988 -0.24936 -0.16242 0.25357 0.5171 0.12445 0.34082 0.44855 0.37739 0.36689 0.58033 -0.34135 0.015206 0.061208 0.19599 
세요|EP+EF 0.17338 0.16028 0.045064 -0.063243 -0.13661 0.24219 -0.050969 -0.0060884 0.14996 0.35578 -0.094509 -0.12877 0.073564 0.12718 -0.17453 0.24276 -0.00507 0.14005 0.1742 0.1659 -0.20285 0.25443 0.43682 -0.17953 0.43954 -0.33831 0.18916 -0.23799 -0.24383 0.2607 -0.0010991 -0.19282 0.0099055 -0.41828 -0.48291 0.21807 -0.085695 0.17499 -0.090986 0.13225 -0.17749 -0.1886 0.17004 -0.045969 -0.04143 0.084628 -0.28437 -0.17964 0.0086767 0.32607 0.40615 0.065363 0.084497 -0.18862 0.11374 0.18286 0.45594 -0.18374 -0.054263 -0.10958 -0.04835 0.23476 -0.0054177 0.56055 0.12 0.40972 -0.005056 -0.0454 0.21637 0.44274 0.18462 0.16008 -0.21356 0.16431 -0.41527 0.037644 -0.21195 -0.044042 -0.19273 -0.32932 0.1463 -0.12523 -0.46254 -0.2099 0.038524 -0.33288 0.16577 0.071195 0.24342 -0.11308 -0.12214 0.12003 -0.36772 0.15762 -0.096523 0.22305 -0.15848 -0.21942 -0.034261 -0.11771 
재|XPN -0.54746 -0.56676 0.42305 0.88763 -0.16107 -0.74907 -0.81911 -0.57624 -0.11997 -1.1017 0.22208 -0.64777 -0.63489 -0.28889 -0.25396 -0.16473 -0.20872 -0.29644 -0.46394 0.61777 0.53071 -0.39559 -1.0839 0.20685 -0.23659 0.037391 -0.5253 -0.20959 0.61513 -0.92444 0.28022 -1.9799 0.72104 0.27291 -0.10837 0.59484 -0.28984 -0.14147 0.43583 0.71372 -0.41909 -0.40329 0.23654 -0.24118 0.36215 0.13224 -0.16627 0.154 0.096539 -0.46786 0.049882 -1.0967 0.2629 0.43238 0.16137 -0.092986 -0.90947 1.7238 -0.56747 0.37475 0.75263 0.29543 0.22308 -0.33331 0.51922 0.2243 -0.43356 -0.050854 -0.95732 -0.71273 0.63472 1.0346 0.83017 -0.022871 0.36448 0.055629 -0.20251 -0.65765 -0.058781 0.31843 0.51104 -0.18481 -0.1523 0.51756 0.5724 0.5494 -0.70219 -0.43879 -1.0094 0.7987 -1.104 -0.55792 0.35796 -1.1852 -0.43875 0.22024 0.27684 -0.61848 -0.35163 -0.73092 
몇|MM 0.26914 0.031856 0.27331 0.14225 -0.30797 0.65541 -0.15429 0.14688 -0.33438 -0.43275 -0.22132 -0.26612 -0.091756 -0.31776 0.11637 0.13739 0.21594 -0.013506 -0.22514 0.14807 0.18929 0.3928 -0.42346 0.77271 0.0016016 0.061688 -0.75516 0.51403 -0.39861 0.088077 0.4456 -0.12759 0.48037 0.64869 0.26399 0.20584 0.30545 0.35896 0.26818 0.0024798 -0.42169 -0.4394 0.18788 0.30565 0.23856 0.27478 0.073491 -0.27039 0.2696 -0.052844 0.46906 -0.40386 0.6004 -0.25812 0.090622 0.077075 0.060658 -0.18754 0.07503 -0.11906 0.39957 -0.32282 -0.22571 -0.57804 0.43774 0.013481 0.37908 -0.4456 -0.67097 -0.054899 0.33092 -0.17183 -0.44307 -0.10782 -0.14147 0.13408 -0.72126 -0.52553 -0.24106 -0.20144 0.48432 -0.021504 -0.21625 0.33305 -0.3163 0.30332 0.095988 -0.18074 0.30006 -0.24502 -0.39042 -0.11031 -0.27111 0.11294 -0.065443 0.51608 -0.033429 -0.53133 0.43086 0.34286 
어디|NP 0.54737 -0.025137 0.51575 -0.60281 -0.10127 0.24859 0.4218 0.10207 0.62094 0.6764 -0.30066 0.17305 0.12708 -0.33621 0.16231 0.085832 0.067793 -0.16537 0.090669 -0.43674 0.028996 -0.48617 1.1328 0.40522 0.11044 -0.32021 -0.041517 0.023331 -0.12991 -0.26415 -0.28797 0.58534 -0.02908 -0.29818 0.10196 -0.60272 -0.78741 0.11331 -0.60787 -0.23089 0.061491 0.17976 -0.18921 -0.037341 0.096868 0.12627 -0.13896 -0.022826 -0.03182 0.060113 0.28055 0.35987 0.17897 -0.18196 -0.67811 0.19001 0.31644 -0.73293 -0.26835 -0.13239 1.9734e-05 -0.08218 -0.30216 0.47703 -0.55901 0.3421 -0.30764 0.14164 0.28594 0.41018 0.58604 -0.014937 -0.12778 -0.68675 -0.005541 -0.12091 0.50236 -0.24863 0.018143 -0.3597 0.55648 -0.047756 -0.42599 -0.69955 0.19643 -0.919 0.058767 0.024127 0.32803 -0.40212 0.064849 0.77694 0.88962 0.087333 0.1832 0.24519 -0.68483 0.026014 0.016371 0.20976 
완료|NNG 0.2218 0.20622 0.50465 -0.50378 -0.43501 0.73398 -0.49804 0.29593 -0.30614 -0.065511 -0.07545 0.067499 0.040656 -0.51678 -0.50482 -0.28034 0.77072 -0.22414 -0.21433 0.026043 -0.03132 0.21079 0.33975 0.89038 -0.16914 -0.16461 -0.59558 -0.20055 -0.66432 -0.2622 0.17295 -0.16345 -0.24083 -0.059542 0.40305 -0.38413 -0.193 0.6135 -0.15149 0.028247 -0.66316 -0.32165 -0.070306 -0.021904 0.36387 0.036824 0.55069 -0.063738 0.2627 0.0829 0.38825 -0.095225 0.28033 -0.27416 -0.46098 0.065248 -0.33406 -0.57347 0.31744 -0.40309 0.063715 -0.12292 -0.091467 0.057959 0.063802 -0.2252 0.11821 -0.43982 -0.030108 -0.53661 0.060555 -0.23168 0.091475 -0.57352 -0.33905 -0.16214 -0.56825 -0.45511 -0.058735 0.261 0.7132 -0.13217 -0.23201 -0.26337 0.054333 -0.037495 0.085739 -0.2904 0.23157 0.43011 0.26567 0.011234 0.10531 0.28224 0.60841 0.27008 0.049612 0.45822 -0.14198 0.26504 
로그인|NNG 0.093034 -0.10254 -0.75745 -0.18785 0.88202 -0.40721 0.033104 0.31449 0.18106 -0.30321 0.079791 0.3342 -0.28927 0.81519 0.062977 0.30504 -0.63276 0.23267 0.88519 0.35867 -0.32627 -0.36999 -0.2422 -0.90959 -0.79508 -0.15392 0.23217 0.48607 0.66842 -0.11919 -0.58839 0.58615 0.27943 0.22025 -0.13402 0.61225 0.34474 -0.092316 -0.11067 0.29862 0.60045 0.35184 -0.0031453 -0.34697 -0.14511 -0.69893 0.31136 0.30009 0.38922 0.16933 -0.19018 -0.1269 -0.55759 0.48126 0.61188 -0.51684 -0.3371 0.5917 -0.31047 0.10467 -0.15181 0.026662 0.2282 -0.80954 -0.30951 0.164 -0.062367 0.2224 -0.057515 0.014993 -0.17522 0.029011 0.0083109 0.38858 0.30528 0.41293 0.25037 0.28083 -0.25853 -0.026196 -0.0070739 -0.49477 0.73108 0.24289 0.26503 0.79383 0.051986 0.36138 -0.11796 -0.12729 0.79434 -0.56437 -0.76349 -0.16348 -0.47744 -0.36651 -0.39213 -0.86861 0.31045 -0.99324 
발급|NNG 0.35887 0.17377 0.071889 -0.5932 -0.10153 0.051915 -0.078851 0.2392 0.21316 0.25758 -0.010759 0.70726 -0.38175 0.30008 0.26904 -0.63124 -0.15053 -0.27627 0.28463 -0.26867 -0.13984 -0.11919 0.90313 -0.026153 -0.086376 -0.14824 0.66277 -0.2837 -0.22628 0.35042 -0.087707 1.0891 -0.15578 0.094532 0.40135 0.12844 0.039399 0.16198 -0.16837 0.01706 0.10395 -0.20235 0.23405 0.21206 0.34221 -0.35938 0.11219 0.11231 0.055067 0.29115 -0.18507 0.26678 -0.074887 -0.69154 -0.20563 0.26335 0.34246 -0.44615 -0.20052 0.14249 -0.21642 -0.54215 0.22875 -0.080474 -0.33177 0.47316 0.082402 -0.34121 0.24826 0.12498 0.038653 -0.19024 0.19592 0.20206 0.26109 -0.049536 -0.096153 0.1493 -0.054676 -0.53945 0.058635 0.094342 -0.082817 -0.019698 0.82432 -0.38655 -0.037247 0.46517 0.16622 -0.034573 0.71644 -0.028215 0.28552 0.7991 -0.20599 0.20289 -0.24072 0.04388 0.033295 0.095968 
된|XSV+ETM 0.19992 0.036 0.25999 -0.34974 -0.084382 0.17586 -0.15478 0.33728 -0.26882 -0.050512 -0.031623 0.27989 -0.07799 -0.19395 -0.065001 -0.26223 0.1387 -0.092592 0.10315 -0.16726 -0.080992 -0.056294 0.13931 0.31792 -0.35284 0.01894 -0.23995 -0.046459 -0.11433 -0.22099 -0.22594 0.078363 -0.061236 0.13492 0.43895 -0.099598 0.071184 0.1641 -0.208 -0.066948 -0.11002 0.25739 -0.23732 -0.12633 0.18786 -0.24094 0.29689 0.087377 0.17357 0.095706 -0.020021 0.14235 -0.1051 0.080183 -0.11446 -0.25653 -0.32469 -0.29527 0.28743 -0.16402 -0.16967 -0.1306 0.22861 -0.11078 -0.029911 -0.16012 -0.026678 0.031541 0.029224 -0.16301 -0.12647 -0.31773 0.14994 -0.21294 0.085337 -0.043244 -0.010965 -0.19619 0.17124 0.25042 0.29181 -0.058481 0.32724 -0.21731 0.17407 0.11867 0.049383 0.015114 -0.01291 0.17226 0.56061 -0.096136 0.23542 0.18308 0.4229 -0.24784 -0.13315 0.31587 -0.14956 -0.15777 
알려|VV+EC -0.025339 0.33061 0.65637 0.2947 -0.72502 0.42466 0.13379 0.26675 -0.011161 -0.15448 -0.015044 -0.23126 0.083521 -0.66198 -0.16318 0.18801 0.44093 0.0089446 -0.1228 0.20005 0.022461 0.54441 0.063532 0.46889 0.24379 0.19934 -0.44232 0.19128 -0.14637 -0.25799 0.30673 -1.0473 0.14129 -0.34296 0.21225 -0.053754 -0.074723 0.13898 -0.051204 -0.36123 -0.32238 -0.084764 -0.24604 -0.18236 0.08706 0.60891 -0.58331 -0.18302 -0.16253 -0.45715 0.50456 -0.043937 0.38093 0.20678 -0.02054 -0.22501 0.05029 -0.054301 0.4088 -0.13293 0.14993 0.26464 -0.20441 0.45468 0.47089 -0.089611 0.011982 -0.028822 0.093071 0.27232 0.25899 0.3 -0.025425 -0.045679 -0.28681 -0.23612 -0.53815 -0.51278 -0.090908 0.031312 0.16023 -0.15242 -0.43657 -0.085587 -0.24748 0.088956 0.19219 -0.60104 0.052296 0.33435 -0.5476 0.49117 -0.034404 -0.19302 0.32648 0.30126 0.12195 0.22158 -0.19357 -0.17274 
줘|VX+EC -0.33429 0.12312 -0.057787 0.099793 0.092483 0.14118 0.021019 -0.28077 -0.1155 -0.035498 0.10378 -0.33451 0.017252 0.070771 -0.29126 -0.10245 -0.069514 -0.20449 -0.12231 0.15928 0.15633 0.23388 0.068257 -0.021167 0.070149 -0.164 0.10495 -0.2594 -0.15983 -0.00085897 0.35661 -0.33223 -0.11442 -0.12733 -0.39706 0.23401 -0.088912 -0.0090442 0.15271 0.21048 -0.26569 -0.10038 0.039437 0.32148 0.2454 0.046025 0.0096201 -0.067709 -0.18023 0.0087274 -0.026493 0.011043 0.030165 -0.18087 -0.20493 0.29176 -0.0055672 0.24999 0.0427 0.00048988 -0.14845 0.18903 0.16943 0.39144 -0.15416 -0.0057946 -0.27671 -0.09502 -0.10156 -0.19388 0.12644 0.47477 0.25657 -0.19271 -0.31339 -0.22716 -0.052215 0.34817 0.21698 -0.16578 0.011749 0.28439 -0.14529 -0.0014441 0.053828 -0.037805 -0.30826 -0.042595 -0.22437 0.33542 -0.25397 0.11449 0.15767 -0.4321 -0.11081 0.084372 0.27264 0.15652 -0.41138 0.09009 
입금|NNG 0.43913 0.1825 0.50026 -0.24255 -0.35274 0.19924 -0.52626 0.42805 -0.059421 -0.17606 0.099561 0.85847 -0.57615 -0.24622 0.32971 -0.46377 0.014421 -0.20627 0.30771 -0.076551 -0.0019605 0.19847 0.4578 0.24867 -0.3177 0.49588 0.23932 0.15052 0.14617 -0.1309 -0.095439 -0.028728 -0.0063008 0.11879 0.65801 0.069254 0.1173 0.13437 0.12418 0.060237 -0.1178 -0.24492 0.10779 -0.52608 0.53432 -0.2479 0.020849 0.063226 0.40203 -0.29452 0.64379 -0.2685 0.096921 -0.63809 -0.031007 -0.30637 0.066693 0.019178 -0.06692 0.015004 0.40159 -0.58176 0.126 -0.58333 0.47963 0.67224 0.1839 -0.43154 -0.020758 -0.14479 0.12591 -0.14335 0.55636 0.29156 0.35885 0.013268 -0.51715 -0.54724 -0.26489 0.19721 0.45499 -0.4051 -0.20107 0.30805 0.58752 0.40856 -0.24592 -0.31917 0.11711 0.8363 0.34221 -0.20698 -0.15666 0.7727 0.46665 0.38999 -0.21771 -0.32017 0.23313 -0.49533 
해|XSV+EC -0.8397 -0.2085 -0.16449 0.45985 -0.25895 -0.33584 0.89454 -0.018973 -0.62769 -0.28808 0.31788 -0.092826 0.58828 -0.18516 0.054247 -0.16996 -0.22097 -0.4924 -0.053549 0.24332 0.12464 -0.2256 -0.040052 -0.35406 0.36846 0.10901 0.098566 0.034632 0.27279 0.11511 0.11883 -0.23448 -0.39385 0.23294 0.43184 0.25654 0.19246 -0.21805 0.091042 -0.20707 0.38618 -0.2768 0.081833 0.18766 -0.3172 0.16972 -0.3173 -0.035672 -0.0986 -0.38126 -0.079339 0.48306 -0.19702 -0.15699 0.029993 0.18828 0.08162 -0.089779 -0.26264 -0.13068 -0.27493 0.077636 -0.1967 -0.3298 -0.3014 -0.24574 -0.14383 0.32095 0.14329 -0.14237 -0.014247 -0.2747 -0.18408 0.13437 0.25386 -0.048661 0.2929 0.46431 0.054842 -0.24005 -0.33867 0.54608 0.1527 -0.24938 -0.48545 -0.23132 -0.29625 0.19545 0.33384 -0.0097621 -0.068089 -0.013823 -0.24488 -0.16361 -0.15264 0.18706 0.49478 0.81467 -0.30098 0.50008 
없|VA -0.36065 -0.137 -0.30562 0.095798 0.19451 -0.16625 0.38558 -0.074438 -0.30699 -0.069872 0.095761 -0.19015 0.4061 0.41503 -0.07516 0.070272 -0.47274 0.023611 0.28147 0.19707 -0.17013 -0.13712 0.17023 -0.61598 0.09291 -0.41 0.30203 -0.03323 0.38351 0.13012 -0.36377 -0.13984 -0.15267 -0.046945 -0.29808 0.49772 0.14794 -0.15468 0.016901 0.11421 0.45637 0.047172 0.038963 0.011615 -0.2154 -0.18611 -0.053022 0.01918 -0.065024 0.051909 0.080019 0.095017 -0.26196 0.04018 0.3041 0.069206 0.073142 0.19009 -0.18136 -0.075751 -0.35561 0.11482 0.24228 -0.071635 -0.26977 0.1701 -0.15419 0.34396 0.15346 0.081984 -0.077204 -0.21447 -0.030348 0.54129 0.19409 0.031959 0.33134 0.45347 -0.15786 -0.16973 -0.10247 0.10341 0.31485 -0.47051 -0.24237 -0.019514 -0.32226 0.33448 0.26929 -0.13285 0.36066 -0.35108 -0.55702 -0.13438 -0.22416 -0.14427 0.094655 -0.12149 -0.24662 -0.34405 
요|VCP+EC 0.32764 0.62753 0.1444 -0.4453 0.141 0.5064 -0.32309 0.22886 0.37701 0.2064 -0.42212 0.11793 -0.15886 0.28481 -0.64106 0.10482 0.046942 0.45164 0.46034 -0.2886 -0.61356 0.30682 0.55885 0.08393 -0.58959 -0.60318 -0.16124 -0.037554 0.16514 -0.36951 -0.83762 -0.41238 0.26303 -0.33274 -0.51346 -0.041266 -0.049491 0.20609 -0.71943 0.22387 0.018598 0.57615 -0.36438 -0.32115 0.23646 -0.26954 0.031733 -0.16167 -0.043658 -0.077833 0.42269 -0.029292 -0.096134 0.25018 -0.22881 -0.52232 -0.37069 0.29727 0.5977 0.2376 -0.10123 0.22022 0.34255 0.55495 -0.11032 -0.02019 -0.36443 0.34519 0.13517 0.30221 -0.20798 0.2155 0.54323 0.057191 -0.1639 -0.32371 0.13843 0.097292 -0.24558 0.32699 0.41072 -0.56764 0.26805 -0.53988 0.3061 0.35183 0.015671 -0.055864 -0.41004 0.66859 0.62185 -0.031133 0.12277 -0.27351 0.34448 -0.3971 -0.38027 -0.20937 -0.48488 -0.99855 
거기|NP 0.030592 0.044221 0.88644 0.49073 -0.91605 0.77177 -0.017055 0.32159 -0.74838 -0.61624 -0.11889 -0.51127 -0.024275 -0.99884 -0.031754 0.23718 0.51235 -0.13222 -0.579 0.41012 0.30419 0.79384 -0.56121 0.97366 0.29368 0.35153 -1.0576 0.3797 -0.53667 -0.1501 0.86449 -1.1929 0.30553 0.093684 0.82234 0.33585 0.20201 0.19141 0.30079 -0.72976 -0.73319 -0.46008 -0.24826 0.16128 0.376 0.78983 -0.59282 -0.52734 -0.22712 -0.24314 0.46027 -0.22438 0.80541 0.11936 0.15387 -0.19595 -0.093451 -0.16861 0.53734 -0.36576 0.32463 0.11949 -0.16287 0.16125 1.0409 -0.50739 0.25165 -0.4703 -0.53495 0.24274 0.37103 0.12885 -0.58711 -0.12357 -0.22137 -0.12708 -1.2087 -0.7519 -0.16828 -0.098485 0.62449 0.16561 -0.30869 0.16066 -0.70637 0.39408 0.18645 -0.73318 0.093083 -0.060035 -1.0362 0.24775 -0.5068 -0.26573 0.23191 0.66547 0.3229 0.022491 -0.14519 0.29572 
있|VX 0.036672 0.19897 -0.10135 -0.59948 0.25214 0.25079 -0.56169 -0.17193 -0.17134 -0.11972 -0.088725 -0.48138 -0.37354 0.31762 -0.16043 -0.02954 -0.21869 0.3282 -0.080861 0.11583 -0.09436 0.038729 -0.12075 0.29449 -0.43415 -0.304 -0.11104 0.053365 0.017112 -0.32929 -0.33769 -0.40808 0.42582 -0.074248 -0.3087 0.22715 -0.17302 0.38193 0.2356 0.37527 -0.28378 0.23148 -0.122 -0.12677 0.22037 -0.22244 0.30792 0.16881 0.016853 0.032207 0.35526 -0.4278 0.19236 -0.04816 -0.048051 0.03984 -0.32855 0.30272 0.14747 -0.24207 0.20605 0.024034 0.31477 -0.067738 0.24432 0.061499 -0.10844 -0.10276 -0.33453 -0.21797 0.18575 0.23588 0.40287 0.036893 -0.0047676 -0.20382 -0.29396 -0.08503 0.21131 0.16734 0.24537 -0.050995 -0.10526 0.096704 0.36463 0.54277 -0.29973 -0.073955 -0.12323 0.48907 0.019225 -0.26844 -0.062014 -0.079677 0.062214 0.17281 0.11791 -0.55391 -0.10325 -0.33562 
여러|MM 0.077054 -0.21587 -0.39282 0.47966 -0.0025531 -0.21811 0.27489 0.013756 0.066144 -0.40978 0.25017 0.024528 0.029116 -0.13977 -0.12775 0.31009 0.20911 -0.13898 0.020215 0.13615 0.090129 -0.057047 -0.35669 0.12618 0.21385 0.30408 -0.583 0.61529 0.1195 0.027657 -0.12131 -0.036 -0.10704 -0.054489 -0.091436 -0.48135 0.14901 -0.20614 0.57551 0.20445 -0.23132 -0.35853 0.66968 0.016116 -0.32832 0.35151 0.080809 -0.13829 0.22498 -0.20958 0.29777 -0.36852 0.17421 -0.042025 -0.17046 0.1044 -0.16809 0.26198 -0.42293 -0.015796 0.13861 0.03946 -0.50717 -0.58876 -0.044858 0.20883 -0.028375 -0.098966 -0.63398 -0.17435 0.19866 0.18496 -0.067276 -0.5545 -0.35232 0.073103 -0.1268 -0.10159 0.14849 0.077974 -0.0013208 -0.18371 -0.46181 0.24403 -0.20634 -0.048131 0.16773 -0.48876 0.19603 -0.30281 -0.3778 0.4044 -0.264 -0.27378 0.027872 -0.059187 0.047953 -0.54588 0.45992 0.43683 
되|XSV 0.057634 -0.017206 0.26414 -0.25451 -0.30219 0.36111 -0.20785 0.23936 -0.12969 -0.094367 0.080733 0.24195 0.092802 -0.30489 -0.091823 -0.21577 0.42803 -0.33328 -0.037042 0.1719 0.10789 0.038124 0.31305 0.32713 -0.042679 0.023288 -0.095582 -0.00068171 -0.30674 -0.0084141 0.29556 0.21143 -0.27783 0.10974 0.54579 -0.098053 -0.014327 0.36091 -0.031723 -0.031252 -0.1738 -0.4709 0.11498 -0.037374 0.20684 -0.022587 0.35139 0.052 0.29095 -0.067272 0.27237 -0.067196 0.041445 -0.37201 -0.10822 0.11668 -0.10227 -0.42102 -0.083982 -0.198 0.070132 -0.22943 -0.19131 -0.35394 -0.062471 0.045649 0.25162 -0.42672 0.13766 -0.45867 0.13225 -0.28278 -0.071796 -0.11966 0.0017384 -0.0072473 -0.40374 -0.31527 -0.21372 0.0063753 0.38893 -0.07692 -0.14545 -0.035471 -0.007525 -0.017643 -0.034876 -0.051846 0.37861 0.17106 0.20057 -0.17139 -0.17012 0.36479 0.19035 0.38283 0.049102 0.22425 0.14823 0.1664 
었|EP 0.16827 0.037598 -0.0048849 -0.22209 0.014165 -0.02395 -0.16954 0.31423 -0.1002 -0.11381 0.060246 0.57106 -0.34607 -0.083782 -0.22507 -0.31768 0.22207 0.078577 0.11146 -0.061324 -0.29066 0.12454 0.0054641 0.087696 -0.41929 0.24151 -0.27972 0.026081 -0.06124 -0.14336 -0.21359 0.26703 -0.26711 -0.091242 0.44503 -0.2225 0.13344 0.071956 -0.08194 0.023823 -0.29914 0.10477 0.011229 -0.29443 -0.01458 -0.22052 0.29376 0.040883 0.21732 0.086655 0.026988 -0.069095 -0.050177 0.029661 -0.12897 -0.40124 -0.31683 -0.13137 0.21075 -0.090209 0.0071162 0.015225 0.099147 -0.26761 0.18244 -0.1794 -0.030107 -0.044414 -0.064054 -0.18935 -0.35079 -0.16274 0.27562 -0.3745 -0.13031 0.038604 -0.12007 0.0090605 0.080667 0.41615 0.010406 -0.2706 0.29226 0.26218 0.35949 0.37717 0.37001 -0.26693 -0.24728 0.20073 0.52038 -0.056329 -0.061545 0.19239 0.41482 -0.33511 0.050954 0.27698 -0.0789 -0.0681 
갈|VV+ETM 0.035818 0.11479 -0.17296 -0.32756 0.20577 0.13488 -0.071614 -0.12191 -0.012139 0.32152 -0.32827 -0.41227 0.23958 0.048997 -0.016451 0.2583 -0.050704 0.39052 -0.11554 -0.22526 -0.15242 -0.31341 -0.18469 0.33779 -0.0061792 -0.31431 -0.28323 0.012816 -0.14727 -0.049471 -0.63897 -0.18408 0.51636 0.083145 -0.48665 -0.19035 -0.1425 0.21519 -0.23501 0.14584 0.043394 0.48617 -0.15659 -0.0020743 -0.1779 -0.19081 0.10759 0.0096081 -0.078712 0.2244 0.0010394 0.19023 0.13771 0.30038 -0.15563 -0.046776 -0.040153 -0.16556 0.21723 -0.17805 0.091303 0.16563 -0.15141 0.20239 0.015126 -0.22603 -0.05055 0.46427 -0.094366 0.18467 -0.046611 -0.074818 -0.31457 -0.21815 -0.079788 0.058149 0.2851 -0.058036 0.046163 0.050829 0.03729 0.045573 0.0055895 -0.28874 -0.17838 -0.092296 0.15995 0.24136 0.046491 -0.18212 -0.049195 0.0089659 0.37656 -0.088691 0.12563 -0.082135 -0.24744 0.0098601 0.1012 0.099328 
도착|NNG -0.46693 0.4439 0.1953 -0.00073983 -0.95051 0.60846 -0.36697 0.98971 -1.0408 -0.67955 0.1409 0.048101 0.17797 -0.74291 -0.49042 -0.45501 0.63092 0.21605 0.07911 0.28943 -0.14335 0.3685 -0.56105 0.48002 -0.27757 0.37074 -0.52883 0.44146 -0.26463 -0.11016 -0.37985 -1.1592 0.54236 0.052333 1.1244 0.55924 1.1727 0.56142 0.021644 -0.39527 0.085007 0.079936 -0.40453 -0.30831 0.26607 -0.21286 0.12351 -0.040282 -0.3894 -0.45674 -0.022761 0.081609 0.22986 0.47829 -0.0032913 -0.83519 -0.87017 -0.16933 1.0662 -0.56259 -0.15564 0.16307 -0.50642 -0.54357 0.70426 -0.92708 0.59105 0.15117 0.1797 -0.57701 -0.37683 -0.12572 -0.48269 0.21381 0.16253 -0.13021 -1.3077 -0.31527 -0.78647 0.30689 0.16231 -0.30886 0.094658 -0.095899 -0.41753 0.97423 0.083512 -0.24051 0.23702 0.62074 0.15036 -0.42275 -0.52714 0.1641 0.76234 0.16837 0.70237 0.89165 0.15064 -0.53066 
비번|NNG 0.11482 0.26858 -0.18101 0.32548 -0.030793 -0.28892 0.1135 0.34457 0.28159 0.18977 -0.065067 0.53701 -0.29048 0.24302 -0.12581 0.36072 -0.22019 0.24684 0.80089 0.21901 -0.45362 0.35386 0.028618 -0.89009 0.03813 0.11809 0.36963 -0.099409 0.27496 0.22394 -0.10523 -0.0043005 -0.026747 -0.18647 -0.23514 0.44528 0.41373 0.0084516 -0.38028 0.21557 0.27246 -0.095808 0.14615 -0.46426 -0.39802 -0.10893 -0.48186 -0.11803 0.24035 -0.0043185 0.20495 0.12657 -0.33282 0.12032 0.64004 -0.4172 0.3877 0.21274 -0.0075304 0.33767 -0.0011842 0.27449 0.02378 0.033164 0.34021 0.27371 0.17507 0.18527 0.47338 0.55328 -0.2973 0.0071102 -0.065516 0.57199 -0.17436 0.27706 -0.061197 0.10408 -0.48643 -0.032321 -0.25212 -0.6237 0.076233 0.30694 0.11667 0.28925 0.44309 0.18307 -0.072852 0.014061 0.17612 -0.2759 -0.92197 0.35161 -0.18068 -0.12551 -0.25659 -0.083095 0.12833 -0.66797 
돼|VV+EC 0.029533 -0.34802 0.012489 0.4398 0.10976 -0.49102 0.44557 -0.27469 0.37978 -0.059401 0.064072 -0.1495 0.0092313 -0.25227 -0.18718 0.381 -0.0084313 -0.21695 -0.088633 0.024952 0.1202 -0.40552 0.059741 -0.24661 0.19417 0.026116 -0.16922 -0.048635 0.40209 -0.4357 -0.082267 -0.30697 -0.3323 -0.56663 -0.1706 -0.46953 -0.47583 -0.46456 -0.1242 -0.054817 -0.09074 0.047078 -0.057812 -0.11423 -0.22218 0.3869 -0.35774 -0.14955 -0.16902 -0.11012 -0.16681 -0.060241 -0.08547 0.32432 -0.34634 -0.0076763 -0.17382 0.41668 -0.45597 0.13984 0.039835 0.51691 -0.17721 0.51833 -0.27435 0.0064543 -0.62757 0.27515 -0.1337 0.13685 0.26406 0.55307 0.24348 -0.56882 -0.2258 -0.070748 0.57956 0.1353 0.2299 0.14689 0.12097 -0.053262 -0.27647 -0.28166 -0.041458 -0.43723 0.039533 -0.37729 -0.40373 -0.047329 -0.6317 0.64597 0.34906 -0.80892 -0.006796 -0.27094 -0.087291 -0.073708 -0.29977 0.12388 
신청|NNG -0.061004 -0.24102 0.34324 0.46969 -0.30165 -0.33419 0.20736 -0.054627 0.042528 -0.46361 0.33477 0.28497 -0.31114 -0.49707 -0.081155 -0.43485 0.24997 -0.39032 -0.24224 -0.0084218 0.24749 0.02308 -0.018299 -0.02679 -0.049529 0.50721 -0.014534 -0.026821 0.31294 -0.3827 0.44911 -0.05335 -0.54693 -0.20671 0.60397 -0.44255 -0.027647 -0.39797 0.23286 -0.30936 -0.085266 -0.26538 -0.086171 0.078017 0.14945 0.37625 -0.052885 0.0069067 -0.084048 -0.42305 -0.31345 -0.32636 0.027656 -0.074758 -0.34118 -0.15313 -0.32318 0.40624 -0.20199 0.24944 -0.0034066 -0.077218 -0.0015742 -0.071778 -0.066816 -0.077233 -0.23831 -0.26735 -0.11941 -0.48059 0.059889 0.2068 0.64509 -0.23695 0.10339 -0.20983 0.054966 0.058829 0.099802 0.28733 -0.031647 -0.035578 -0.093454 0.17136 0.20499 -0.038561 -0.24085 -0.56133 -0.39873 0.2932 -0.30734 0.18938 0.30087 -0.2511 0.16548 -0.17949 0.35335 0.18071 -0.24863 0.084256 
맞|VV 0.18331 0.13417 0.35615 -0.35996 -0.32329 0.42698 -0.13068 0.43937 0.047103 0.16926 0.16814 0.55374 0.12904 -0.3024 -0.5129 -0.35592 0.69161 -0.32166 0.087133 -0.068184 -0.05409 0.31161 0.7787 0.11534 -0.108 -0.0094808 0.064675 -0.18841 -0.43491 0.0036113 0.29313 0.35113 -0.732 -0.56879 0.61144 -0.32928 -0.095159 0.14209 -0.21916 -0.37794 -0.22677 -0.24445 -0.11179 -0.10846 0.27423 0.062596 0.29082 -0.043321 -0.060113 0.024851 0.097135 0.23324 -0.12532 -0.25226 -0.40554 -0.015071 -0.26688 -0.58146 0.26063 -0.1921 -0.35254 -0.036707 -0.10151 0.2496 -0.3128 -0.22001 0.11318 -0.40014 0.48178 -0.29579 -0.1565 -0.14963 0.099729 -0.45316 -0.19151 -0.25234 -0.33139 -0.034258 -0.12495 0.1294 0.33732 -0.09696 -0.019175 -0.32094 0.0064553 -0.19879 0.036067 -0.32544 0.27122 0.22044 0.56325 0.27597 -0.11045 0.22074 0.50264 -0.015433 0.14598 0.71354 -0.25226 0.037117 
사용|NNG -0.075436 -0.040353 0.71452 0.090691 -0.82324 -0.94856 0.96571 0.9665 -0.7221 -0.42849 0.29841 0.58291 -0.47126 -0.61156 -0.20684 0.071629 -0.48202 -0.58572 1.1561 0.14096 0.062134 -0.0094711 0.095673 -0.50107 -0.45566 0.48296 -0.27506 -0.18088 0.44311 -0.77457 0.59586 0.26988 -0.2911 0.2084 0.60805 0.21294 0.53644 -0.08334 -0.46822 -0.18433 0.87997 -0.72641 -0.31432 0.13706 -0.49795 0.44515 -0.46088 0.020527 0.57881 -0.47772 -0.3023 0.23786 -0.47691 0.46222 0.4213 -0.46231 -0.19381 0.026266 -0.090519 0.4859 -0.74965 -0.20688 0.20496 -0.77615 0.041121 -0.1078 -0.063774 -0.23567 0.30294 0.041114 0.19332 -0.37943 0.33777 0.3398 0.52457 -0.074011 -0.046817 -0.089087 -0.053436 -0.15618 0.45382 -0.79527 0.016868 0.050916 0.31814 -0.3515 0.0075847 0.35187 0.20652 -0.3891 0.21046 -0.46283 -1.1724 0.66044 -0.06398 0.013378 -0.34818 0.50826 -0.21944 -0.55052 
아요|EC 0.024614 0.34143 -0.19133 -0.076138 0.014978 0.32245 -0.40631 0.14257 0.080414 0.035898 -0.14178 0.018201 -0.076026 0.28108 -0.14798 0.082369 -0.046378 0.32326 0.21207 0.10733 -0.13095 0.36363 -0.015875 -0.16256 -0.060133 -0.12854 0.28792 0.091869 -0.079839 0.29234 -0.15097 -0.13361 0.45726 -0.039565 -0.31065 0.53978 0.41216 0.12108 -0.03134 0.10944 0.16926 -0.094276 0.095086 -0.051266 0.18801 -0.2124 -0.14622 -0.088787 -0.22831 -0.034976 0.030872 -0.16046 0.086859 -0.081594 0.235 -0.11566 0.067482 0.16288 0.27438 0.0939 0.1036 -0.071452 -0.11118 -0.10581 0.21775 0.027379 0.31868 -0.077084 0.11124 0.10577 -0.093504 0.2309 -0.25273 0.55267 0.040691 0.0057492 -0.59602 0.10653 -0.57342 -0.2071 -0.015187 -0.23001 -0.11449 0.13857 0.013128 0.39353 -0.0056037 0.19781 0.057336 0.1484 -0.10474 -0.30869 -0.57795 0.19261 -0.20908 0.29869 0.063403 -0.38218 0.24582 -0.44447 
면|EC 0.10152 -0.036556 0.63903 0.25595 -0.58087 -0.028377 0.18333 0.036288 0.20601 -0.070565 0.34098 0.42318 -0.13463 -0.61937 -0.31639 -0.49383 0.596 -0.498 -0.21018 -0.1194 0.25271 0.30142 0.5867 0.12234 0.10551 0.38661 0.085623 -0.25884 -0.13418 -0.24948 0.75267 0.19027 -0.93655 -0.59172 0.56485 -0.70974 -0.23248 -0.23879 0.089466 -0.42073 -0.19769 -0.51237 0.00059401 0.13737 0.16326 0.60493 -0.043599 0.0055171 -0.1038 -0.40969 -0.080851 -0.13253 0.1074 -0.32276 -0.53176 0.09986 -0.10677 -0.077989 -0.046317 0.20383 -0.1862 -0.12496 -0.049262 0.28938 -0.16459 -0.015789 -0.065212 -0.54053 0.25903 -0.43177 0.067858 0.08974 0.63251 -0.3949 -0.074999 -0.39771 -0.13431 -0.039586 0.10066 0.20019 0.062208 -0.08872 -0.33554 -0.0098518 0.14655 -0.39593 -0.17343 -0.61429 -0.071953 0.17707 -0.15583 0.42542 0.23102 0.12401 0.38065 -0.050757 0.31104 0.52467 -0.32419 0.25688 
서비스|NNG 0.11187 -0.29027 0.18792 0.77702 -0.0245 -0.37742 0.080588 -0.60728 0.56429 -0.0062362 0.12743 -0.1202 -0.10837 -0.20039 -0.094307 0.018717 0.25582 -0.036545 -0.60297 -0.17647 0.33613 0.0439 -0.18225 -0.22435 0.40936 0.27812 0.33616 -0.36385 0.12847 -0.073019 0.57515 0.013828 -0.46411 -0.46127 -0.084461 -0.55841 -0.29235 -0.64013 0.18966 -0.35226 -0.14556 -0.10732 -0.039102 0.25752 -0.12545 0.60818 -0.44362 -0.0014743 -0.4853 -0.24193 -0.76468 -0.30824 0.17127 0.022749 -0.17689 0.26873 0.1192 0.35411 -0.19601 0.39241 0.13344 0.071651 -0.029357 0.61287 -0.13348 -0.24181 -0.092811 -0.11967 0.026649 -0.075136 -0.070893 0.32781 0.32624 -0.068375 -0.063663 -0.12357 0.19877 0.26938 0.15807 0.18288 -0.48269 0.19275 -0.24215 0.15328 -0.13578 -0.33267 -0.052971 -0.34007 -0.54272 -0.1993 -0.9803 0.46638 0.44231 -0.28682 -0.21564 -0.25411 0.4572 -0.035077 -0.12267 0.55651 
게|EC 0.014621 0.17724 -0.01312 -0.23893 -0.1624 0.21432 0.22894 0.25772 -0.0064949 0.24711 -0.15666 -0.040083 0.23091 -0.17009 0.0119 0.18853 0.15942 0.17155 0.21122 0.0022195 -0.20636 -0.18326 0.043269 0.12747 0.14325 -0.074842 -0.14745 0.18104 -0.083926 0.043425 -0.33171 -0.019571 0.25908 0.15341 0.10944 -0.097707 0.08296 0.43449 -0.29099 -0.043611 0.11751 0.18349 -0.16119 -0.12754 -0.23894 -0.081559 0.030843 0.00016047 0.20964 0.027997 0.25747 0.34782 0.021109 0.11684 -0.015847 -0.13983 0.15675 -0.46809 0.088108 -0.27574 0.033785 0.049991 -0.41483 -0.11429 -0.030711 -0.064624 0.16511 0.31434 0.26168 0.16649 0.045093 -0.32826 -0.4403 -0.061086 -0.11214 0.19071 0.084865 -0.23291 -0.27571 -0.10847 0.037811 -0.1043 -0.11329 -0.21476 -0.222 -0.14137 0.23925 0.16383 0.45392 -0.12385 0.16707 0.036928 0.050375 0.27548 0.11224 0.18871 -0.18181 0.26307 0.34062 0.053863 
아|EC -0.043174 -0.35505 0.1391 0.34291 -0.032621 -0.43881 0.2913 -0.098163 -0.00017569 -0.18178 0.26824 0.24884 -0.10737 -0.23185 0.23633 -0.27925 -0.043981 -0.33617 -0.13208 -0.086476 0.26741 -0.30494 -0.064291 -0.16442 0.056516 0.3714 0.21333 -0.078082 0.28014 -0.16599 0.20593 0.13796 -0.39585 -0.033248 0.54204 -0.20012 -0.031397 -0.38414 0.14687 -0.25614 0.081435 0.054587 -0.077133 0.052509 -0.01203 0.10107 -0.074899 0.12472 -0.056846 -0.11885 -0.4798 0.072254 -0.1629 0.055415 -0.088128 -0.018231 -0.14039 0.1274 -0.25944 0.13327 -0.11721 -0.059571 0.097318 -0.061704 -0.15527 -0.036467 -0.17423 0.038388 0.018671 -0.15639 -0.027163 -0.027692 0.27829 -0.12687 0.2368 -0.028452 0.34498 0.052803 0.29703 0.11681 -0.19388 0.22637 0.18582 0.037669 0.08403 -0.15902 -0.12258 -0.11284 -0.24735 -0.049091 -0.086787 0.15784 0.42614 -0.11287 0.019568 -0.25955 0.16784 0.28373 -0.12717 0.18612 
절차|NNG -0.0061124 -0.34022 -0.23122 -0.19706 0.3349 -0.091146 -0.035189 -0.18736 -0.3551 -0.049363 0.37876 -0.1221 -0.11613 0.13904 0.61415 -0.33222 -0.21982 -0.31958 -0.27692 0.16258 0.54045 -0.15831 -0.26366 0.14535 0.11347 0.3001 0.33515 -0.082115 -0.48528 0.34796 0.85857 0.92885 -0.071453 0.37721 0.097632 0.22128 -0.012288 -0.031911 0.72802 -0.052179 -0.16472 -0.22817 0.14882 0.63498 0.30405 -0.16204 0.44505 0.31758 0.062267 0.51477 -0.63203 0.029626 0.066308 -0.30374 0.081281 0.55026 0.29677 -0.358 -0.25747 -0.2891 -0.2062 -0.4541 0.17777 -0.32828 -0.10926 0.11664 0.28064 -0.57564 -0.24512 -0.36817 0.15419 -0.034191 -0.23991 -0.16415 0.033341 0.21645 -0.24209 0.041594 0.59234 -0.48512 -0.21965 0.61708 -0.038872 0.55828 0.20764 -0.17492 -0.1347 0.22774 0.21404 -0.55279 -0.056004 -0.040453 0.18483 0.36668 -0.37279 0.22012 0.11176 -0.11834 0.34266 0.67728 
수정|NNG 0.23464 0.55128 -0.4781 -0.20503 0.64786 0.4525 -0.5826 -0.40472 0.57492 0.9397 -0.55768 -0.30472 0.20909 0.84932 -0.17091 0.55949 -0.22951 0.69624 0.1845 -0.21435 -0.40107 0.47616 0.23345 -0.29567 0.23479 -0.69625 0.5098 -0.49169 -0.44901 0.65276 -0.25303 0.068025 0.43175 -0.27733 -1.6865 0.44037 -0.18994 0.068694 -0.44038 0.58769 -0.097748 0.39643 0.086681 -0.0096622 0.043128 -0.39287 -0.21084 -0.24392 -0.40881 0.62133 0.047967 0.21552 -0.044277 -0.028338 0.26516 0.32832 0.68101 -0.055406 0.45698 0.22691 0.053559 0.31573 0.24609 1.197 0.070373 0.19018 0.10582 0.28127 0.34161 0.81033 -0.34164 0.44482 -0.33913 0.33234 -0.58945 0.040396 0.063876 0.44276 -0.10957 -0.22994 -0.23642 -0.020944 -0.038105 -0.12234 -0.034323 -0.069695 0.3007 0.52622 -0.2561 -0.029784 -0.016287 0.066845 -0.083679 -0.058831 -0.29076 -0.11629 -0.45196 -0.32978 -0.065468 -0.2711 
죠|EF 0.1866 0.21214 0.19029 -0.40391 -0.024075 0.4043 -0.17174 0.36365 0.069052 0.17558 -0.0031076 0.37052 0.098298 -0.043116 -0.39548 -0.18307 0.38716 -0.078054 0.21582 -0.11699 -0.16656 0.19195 0.56038 0.050027 -0.28313 -0.17937 0.018494 -0.10864 -0.23058 -0.071041 -0.066635 0.16188 -0.32284 -0.33318 0.25025 -0.11814 -0.014804 0.13976 -0.30416 -0.18509 -0.07597 0.14258 -0.21803 -0.13579 0.25783 -0.17246 0.29843 -0.021233 -0.010791 0.10994 0.064105 0.21821 -0.18866 -0.0043325 -0.24752 -0.19057 -0.31087 -0.31382 0.33774 -0.10799 -0.31648 0.00068381 0.072564 0.22589 -0.29239 -0.15442 -0.012309 -0.087411 0.34524 -0.10358 -0.18768 -0.094821 0.11179 -0.2682 -0.1212 -0.19659 -0.10321 0.0017214 -0.093829 0.15704 0.31328 -0.15586 0.23362 -0.36536 0.039513 -0.0012381 0.015901 -0.12219 0.084002 0.25137 0.65884 0.095217 0.0036826 0.014702 0.38524 -0.1799 -0.061394 0.39007 -0.26313 -0.29389 
다시|MAG -0.036753 -0.17377 0.60608 0.31016 -0.64164 0.10346 -1.0696 -0.56406 -0.43098 -0.3791 -0.063079 -0.49801 -0.46588 -0.55328 0.14292 -0.22845 0.18102 -0.37334 -0.83648 0.32778 0.50399 0.058348 -0.5592 1.0804 0.40821 0.17783 -0.5316 -0.48375 -0.585 -0.094226 0.65158 -1.0259 0.52005 0.54799 -0.107 0.1503 -0.33993 0.48837 0.48857 0.78407 -1.0576 -1.0102 0.66045 0.03515 0.39258 0.22393 -0.0091679 -0.01585 0.35427 -0.07056 0.58119 -0.7934 0.80963 -0.68501 -0.07547 0.63646 0.23449 0.20213 -0.36602 -0.12626 1.0318 -0.19161 -0.057441 -0.17224 0.96358 0.4655 0.22345 -0.6472 -0.79072 -0.61905 0.67599 0.34126 0.16483 -0.079525 -0.087646 0.14528 -0.91993 -0.92181 0.062599 0.01711 0.51218 0.12268 -0.9986 0.67021 0.45027 0.017427 -0.22579 -0.17644 -0.16016 0.52997 -1.2505 -0.3335 0.29093 0.35154 -0.027068 0.95863 0.14648 -0.3111 0.22228 0.65082 
얼마|NNG 0.0072849 -0.0065016 0.56976 0.61517 -0.37637 -0.15042 -0.39069 -0.24829 0.46123 -0.45905 0.049182 0.35169 -0.15318 -0.11356 0.0031866 -0.54278 0.37863 -0.011229 -0.67137 -0.40466 0.071587 0.59686 -0.028554 0.046116 -0.10556 0.37651 0.37599 -0.088019 0.44609 -0.063066 0.23591 -0.082027 -0.36478 -0.020605 0.45631 -0.47351 -0.036839 -0.63665 0.12997 -0.42419 0.073181 0.022986 -0.058688 -0.098504 0.18005 0.36812 -0.29854 0.1645 -0.56194 -0.93759 -0.4241 -0.71728 0.16077 -0.14367 0.076069 -0.08177 -0.079893 0.36664 0.36973 0.54336 0.32492 -0.47473 0.33599 0.053569 0.01377 -0.2288 0.27933 -0.11723 0.13768 -0.42059 -0.42169 -0.1578 0.89161 0.73087 0.64472 -0.36419 -0.1232 0.11716 -0.063559 0.58848 -0.67138 -0.082183 0.29565 0.20153 0.13889 0.52231 -0.33116 -0.44844 -0.56522 0.53681 -0.23571 -0.038105 0.33031 0.12187 0.077578 -0.44187 0.60377 -0.028751 -0.25822 -0.051422 
바꾸|VV 0.17693 0.55467 -0.17921 -0.14032 0.36141 0.4038 -0.76319 -0.24063 0.080094 0.69077 -0.4433 0.040896 -0.061758 0.49612 0.13243 0.18175 -0.2772 0.27718 0.16998 -0.22121 -0.29418 0.51814 0.13946 -0.046934 0.1061 -0.22759 0.39739 -0.57869 -0.45988 0.57661 -0.070187 -0.11888 0.29127 0.063166 -1.1079 0.53799 -0.096751 0.15351 -0.39129 0.7073 -0.37028 0.23962 0.071272 -0.28599 0.32412 -0.52832 -0.1224 -0.22369 -0.19123 0.49531 0.26697 0.23389 -0.10097 -0.28271 0.24707 0.21449 0.69709 -0.11468 0.48264 0.089595 0.25123 0.22943 0.45449 0.9818 0.4935 0.30928 0.07877 0.12767 0.29503 0.48456 -0.2987 0.36276 -0.028291 0.32431 -0.44216 0.080823 -0.14455 0.17323 0.11767 0.036587 -0.10907 0.060673 0.0049461 0.14371 0.23461 0.18666 0.19063 0.39298 -0.40211 0.56927 0.077498 -0.027648 0.11429 0.22743 0.12802 -0.057396 -0.43602 0.042431 -0.16423 -0.25992 
해도|XSV+EC -0.28246 -0.067035 0.075502 0.51657 -0.52668 -0.35133 0.71406 0.48309 0.003099 -0.31672 0.39888 0.30577 0.17617 -0.43242 0.07537 -0.0064728 0.12738 -0.096672 0.40283 0.17271 -0.06108 -0.14874 -0.016601 -0.35718 0.16731 0.48382 -0.10899 0.59991 0.55762 -0.25274 -0.15978 -0.60288 -0.13486 -0.25083 0.70938 -0.14226 0.24837 -0.12721 0.131 -0.36748 0.40353 -0.021131 -0.05394 -0.41054 -0.33676 0.34089 -0.3812 0.010021 0.12123 -0.58795 0.48184 0.26641 -0.1327 0.3055 0.012688 -0.48942 -0.13502 0.26626 -0.22294 -0.0089328 -0.076273 0.17539 -0.5206 -0.40751 0.084617 0.13708 -0.024543 0.29704 0.16753 0.15766 0.090524 -0.071593 0.044334 -0.077923 0.14358 0.036056 0.13041 -0.26349 -0.29771 0.07189 -0.1123 -0.31284 -0.15342 -0.035671 -0.3042 0.048544 -0.020974 -0.5169 0.30459 0.16394 0.13347 0.32624 -0.20702 -0.18994 0.30348 -0.0032542 0.071987 0.33558 0.15907 -0.3136 
언제|NP -0.06176 -0.059054 0.17939 -0.054989 -0.13351 0.10522 -0.40537 -0.096875 -0.28458 -0.31371 -0.11164 -0.27538 -0.15819 -0.14206 -0.04191 -0.061427 0.013916 -0.10045 -0.1952 0.21831 0.10551 -0.095076 -0.30429 0.43065 -0.13962 -0.13078 -0.372 -0.11141 -0.12283 -0.24547 0.10498 -0.37018 0.33126 0.42925 0.0051533 0.18496 -0.059346 0.36762 0.0021522 0.389 -0.2976 -0.28423 0.057034 0.023837 0.16879 -0.078469 0.21532 0.038553 0.2742 0.011625 0.16337 -0.34861 0.18929 -0.087412 0.034915 0.07753 -0.15768 0.13161 -0.09669 -0.099432 0.32954 -0.053252 0.060943 -0.25415 0.24278 0.028434 0.024223 -0.16355 -0.33854 -0.39032 0.25518 0.028235 0.079688 0.0090661 0.012661 0.11527 -0.27583 -0.33732 -0.054161 0.067843 0.37115 -0.067392 -0.13229 0.13499 0.2023 0.1764 -0.097346 0.08593 -0.1133 0.30012 -0.23 -0.38223 0.077304 0.022888 -0.05379 0.30012 -0.0044105 -0.14586 0.023572 0.043423 
는지|EC -0.018401 0.026411 0.069585 -0.038323 -0.21962 -0.03405 0.15728 0.43076 -0.11887 -0.097969 0.078442 0.33589 0.040487 -0.25113 -0.26072 -0.095544 0.25677 0.010768 0.23918 0.079165 -0.16187 0.035328 0.04713 -0.041689 -0.23244 0.095407 -0.2617 0.077556 -0.051261 -0.17882 -0.045967 0.11782 -0.2446 -0.13437 0.37415 -0.19411 0.19282 0.10822 -0.17237 -0.15095 0.10372 -0.088253 -0.037292 -0.15253 -0.21473 0.021301 0.16154 0.053271 0.16051 -0.092351 0.01245 0.098033 -0.048653 0.20211 -0.026863 -0.33635 -0.26926 -0.17302 0.11536 -0.056481 -0.17496 0.073683 -0.14785 -0.27463 0.020255 -0.26769 0.096329 -0.0025361 0.16972 -0.19397 -0.21755 -0.26213 -0.043197 -0.22937 -0.011643 0.02208 -0.10465 -0.054428 -0.20489 0.17037 0.066765 -0.35293 0.16658 -0.025863 -0.10317 0.11705 0.23892 -0.11586 0.11476 -0.10551 0.36926 -0.12901 -0.33433 0.14212 0.30876 -0.16572 0.0083537 0.39946 -0.022842 -0.10025 
비밀|NNG -0.079868 0.20576 -0.21622 0.2744 -0.091416 -0.15453 0.30904 0.30922 0.26717 0.1285 -0.016509 0.26855 0.060894 0.047359 -0.1758 0.35942 0.071386 0.2721 0.49122 0.17509 -0.3691 0.15309 -0.077571 -0.56394 0.11006 0.080389 0.083603 0.17794 0.23726 0.11532 -0.23353 -0.16864 0.026445 -0.1933 -0.02398 0.094808 0.27794 0.054074 -0.25149 -0.073044 0.26559 0.049429 0.035503 -0.37698 -0.4828 0.063064 -0.35461 -0.087518 0.11616 -0.15227 0.21704 0.21768 -0.1809 0.27166 0.36072 -0.3863 0.13684 0.070209 0.030531 0.11118 0.0092832 0.27495 -0.32984 -0.061987 0.11806 -0.031998 0.15592 0.3156 0.3675 0.42158 -0.2398 -0.089877 -0.26503 0.23291 -0.14438 0.20133 0.035018 0.039392 -0.47686 0.01217 -0.27905 -0.40622 0.051957 0.10134 -0.23878 0.16217 0.39446 -0.034656 0.14313 -0.071 0.12399 -0.019235 -0.61596 0.058265 -0.080041 -0.052728 -0.065727 0.12767 0.19413 -0.32516 
정보|NNG 0.27719 -0.10529 0.37851 -0.03176 -0.47026 -0.31999 0.18696 0.69546 -0.13733 -0.081112 0.21235 1.0305 -0.31081 -0.53342 -0.26352 -0.26376 0.34754 -0.33392 0.43989 -0.025862 -0.14962 0.077988 0.34693 -0.17226 -0.30465 0.47102 -0.17667 -0.15572 -0.04197 -0.25418 0.14101 0.56502 -0.74344 -0.24243 0.9222 -0.42778 0.21758 -0.02474 -0.31779 -0.24551 0.041513 -0.41093 0.077551 -0.36411 -0.26585 0.0771 0.033431 0.047611 0.42167 -0.13908 -0.040711 0.12039 -0.22613 -0.04405 -0.043382 -0.45039 -0.22029 -0.41279 -0.042313 0.07366 -0.20663 -0.083119 -0.069828 -0.45538 0.085921 -0.14924 0.14529 -0.25194 0.3342 -0.22706 -0.2697 -0.49672 0.19199 -0.31632 0.084692 0.056461 -0.16694 -0.16041 -0.12231 0.34806 0.19263 -0.55634 0.13161 0.11813 0.23841 -0.025499 0.39831 -0.19701 0.091605 -0.11111 0.4924 -0.12527 -0.56203 0.6593 0.51079 -0.22552 -0.085188 0.63176 -0.034036 -0.0089716 
인원|NNG 0.2783 0.4228 0.32134 -0.78572 -0.24053 0.57142 -0.83669 -0.075671 -0.33861 -0.084369 -0.169 -0.10864 -0.77923 0.023225 -0.53363 -0.46817 0.26471 0.26409 -0.38722 -0.11428 -0.23674 0.65427 0.064691 0.84551 -0.3947 -0.025373 -0.49316 -0.20545 -0.59448 -0.1908 0.22499 -0.024306 0.18419 -0.11699 -0.083159 0.018364 -0.11339 0.55111 0.13317 0.42947 -0.9931 -0.27309 -0.074512 0.097846 0.52001 0.040083 0.3527 -0.18064 -0.064983 0.10702 0.39402 -0.65462 0.57244 -0.48066 -0.50873 0.16146 -0.15194 -0.21193 0.63288 -0.26341 0.28501 -0.13633 0.24459 0.14018 0.60497 -0.15259 0.0078489 -0.60275 -0.48023 -0.3442 0.088022 0.30098 0.55309 -0.30138 -0.4205 -0.31048 -0.91302 -0.031495 0.22592 0.27786 0.33569 -0.14547 -0.48703 0.48413 0.85075 0.39787 0.14326 -0.34955 -0.34271 0.63861 -0.16166 0.061815 0.087031 0.35516 0.29551 0.32993 0.36739 -0.096533 -0.19361 0.18336 
았|EP 0.14397 0.13588 0.21063 -0.19158 -0.19081 0.27688 -0.17274 0.41885 -0.017839 -0.026037 0.058283 0.45952 -0.045954 -0.18494 -0.38109 -0.204 0.40905 -0.10684 0.16597 -0.019978 -0.092026 0.2832 0.35345 -0.030417 -0.23168 0.086986 0.026352 -0.022596 -0.13787 -0.043189 0.049285 0.10117 -0.30685 -0.29339 0.42853 -0.051958 0.19243 0.052088 -0.18656 -0.2614 -0.036498 -0.067943 -0.16292 -0.17262 0.23707 -0.066952 0.12454 -0.084464 -0.057744 -0.052222 -0.032712 0.026087 -0.11595 -0.059024 -0.16511 -0.28672 -0.33493 -0.19952 0.3002 -0.058543 -0.1964 -0.058978 -0.073075 -0.018028 -0.087291 -0.21914 0.099587 -0.18704 0.26782 -0.18164 -0.21022 -0.060192 0.056844 -0.12724 -0.045826 -0.13914 -0.34082 0.017785 -0.28619 0.17028 0.25641 -0.22605 0.12432 -0.1475 0.024818 0.13446 0.040933 -0.20781 0.055858 0.25949 0.34692 0.0060973 -0.26945 0.10819 0.32865 -0.053548 0.12097 0.31655 -0.12557 -0.257 
시|NNG -0.15746 -0.1443 0.42116 0.38394 -0.44587 -0.31089 0.058081 0.10859 0.12488 -0.4041 0.072117 0.39508 0.070852 -0.19752 0.18813 -0.32885 0.14754 -0.12287 -0.2585 -0.24117 0.003565 0.20587 -0.0058978 -0.11119 -0.074809 0.34731 0.19066 0.15245 0.5657 -0.08119 -0.035667 0.0029122 -0.27022 0.19463 0.72511 -0.25177 0.12211 -0.38321 -0.036165 -0.39466 0.42096 -0.031233 -0.042393 -0.24326 -0.12073 0.2126 -0.2419 0.15075 -0.21018 -0.82081 -0.11335 -0.33539 -0.075846 -0.028669 0.24011 -0.20954 -0.082072 0.085984 0.11455 0.3238 0.18182 -0.38089 0.076266 -0.42188 -0.029177 -0.12333 0.26867 0.096132 0.24659 -0.2522 -0.26602 -0.48188 0.41884 0.68341 0.76045 -0.15849 0.064017 -0.037372 -0.20504 0.37982 -0.42378 -0.143 0.36433 0.0011256 -0.057919 0.35358 -0.23055 -0.1543 -0.052146 0.23293 0.088896 -0.23107 -0.036779 0.24517 0.091935 -0.22796 0.33329 0.15449 -0.07035 -0.13522 
가요|NNG 0.18833 0.16845 0.16771 -0.20662 -0.030021 0.26878 -0.44506 -0.15759 -0.044029 -0.074508 0.11649 0.090669 -0.51047 0.025912 -0.00014458 -0.42072 0.12218 -0.05114 -0.25615 -0.060044 0.10258 0.39718 0.045633 0.4188 -0.12169 0.255 0.015752 -0.071837 -0.31113 0.071086 0.44372 0.16412 -0.047538 -0.04738 0.011151 0.0026561 -0.054575 0.070689 0.37994 0.14972 -0.56671 -0.15319 0.096666 0.17376 0.5085 0.031681 0.20004 0.018744 -0.053327 0.04474 0.053969 -0.37955 0.29805 -0.39008 -0.26286 0.20776 0.049932 0.011745 0.2358 -0.032834 0.11866 -0.23186 0.23959 0.079191 0.28109 0.15379 0.050761 -0.52444 -0.30388 -0.2449 0.077903 0.31685 0.43792 -0.13736 -0.21102 -0.16165 -0.48975 -0.058044 0.31722 0.054979 -0.0064372 0.11316 -0.25 0.48482 0.53959 0.21102 -0.039033 -0.31329 -0.26397 0.33312 -0.12027 0.19156 0.28839 0.19916 0.070904 0.12286 0.21489 -0.18852 -0.012478 0.11714 
만들|VV+ETM 0.098813 -0.19817 -0.34258 0.28753 0.039445 -0.15404 -0.033189 -0.012223 -0.042052 -0.39571 0.17627 -0.032676 -0.092969 0.051727 0.10129 0.32439 -0.042962 -0.11012 0.077821 0.28512 0.15393 -0.06609 -0.39534 0.055772 0.15399 0.2181 -0.31814 0.49283 0.081022 0.14191 -0.0066741 0.037092 0.16896 0.23444 -0.062771 0.017141 0.20312 -0.014554 0.53747 0.34056 -0.098633 -0.49396 0.66207 -0.016939 -0.17965 0.14374 0.022548 -0.017621 0.33516 -0.15116 0.3123 -0.44756 0.15655 -0.20234 0.18888 0.21853 0.047147 0.18719 -0.45585 -0.048541 0.27708 -0.17565 -0.36115 -0.81789 0.12896 0.33355 0.23418 -0.26202 -0.55275 -0.14611 0.28666 0.065353 -0.22061 -0.011347 -0.057191 0.22034 -0.40459 -0.22013 -0.03437 -0.11024 0.073923 -0.15 -0.44242 0.38582 -0.082645 0.15029 0.05694 -0.11694 0.3349 -0.28361 -0.39512 -0.0051992 -0.58087 0.11744 -0.28819 0.31167 -0.0090961 -0.80876 0.63071 0.27724 
왜|MAG 0.16236 -0.15065 0.27736 0.0070526 -0.18436 -0.14644 -0.42003 0.18153 -0.26374 -0.42776 -0.0036103 0.32982 -0.47013 -0.18094 -0.0015701 -0.17879 -0.066646 -0.25708 0.070928 0.1456 0.088057 -0.031568 -0.14895 0.063864 -0.28391 0.21605 -0.089929 -0.078714 0.17194 -0.21607 0.043795 -0.10074 0.14783 0.34725 0.42048 0.27136 0.23298 0.064486 -0.044779 0.19174 -0.072594 -0.34218 0.05052 -0.20462 0.26683 -0.17397 0.019968 -0.022155 0.28169 -0.10954 -0.013971 -0.39745 -0.050465 -0.2014 0.12604 -0.21885 -0.24499 0.18976 -0.14579 0.068802 0.27199 -0.24411 0.12288 -0.56263 0.2532 0.11459 0.045291 -0.26371 -0.23274 -0.32893 0.13237 -0.028916 0.247 0.23034 0.26622 0.13128 -0.37606 -0.2505 -0.21979 0.15455 0.40181 -0.24906 0.00067824 0.23387 0.43618 0.30384 -0.1157 0.043407 -0.18197 0.37839 -0.11684 -0.45184 -0.28181 0.24374 -0.027321 0.18917 -0.0081461 -0.25447 0.071711 -0.2758 
것|NNB 0.17187 -0.045904 0.16758 -0.27893 0.057957 0.023584 -0.089703 0.26535 -0.38602 -0.14069 -0.085066 0.14321 -0.13727 -0.12461 0.12565 -0.19417 -0.11831 -0.0094322 0.10369 -0.18799 -0.089266 -0.21194 -0.1403 0.32551 -0.41029 0.01118 -0.33598 -0.0089886 0.036638 -0.30632 -0.40162 -0.024543 0.17316 0.39233 0.30517 -0.0085221 0.13326 0.12147 -0.16592 0.053132 -0.052377 0.46007 -0.27979 -0.088789 0.12001 -0.36784 0.29303 0.13398 0.25385 0.15971 -0.12418 0.12006 -0.13063 0.24043 -0.00022492 -0.36936 -0.33724 -0.14317 0.24295 -0.13842 -0.11627 -0.097664 0.35143 -0.2158 0.065573 -0.14111 -0.12398 0.23537 -0.16672 -0.094413 -0.14349 -0.33456 0.17633 -0.15811 0.13918 0.048885 0.17791 -0.20483 0.3361 0.29428 0.24107 -0.027845 0.46909 -0.16362 0.22827 0.21074 0.059442 0.14099 -0.17349 0.11614 0.52552 -0.21972 0.37908 0.09286 0.34851 -0.38501 -0.24285 0.17154 -0.14673 -0.20202 
방문|NNG 0.26679 0.058699 0.24621 -0.67984 0.032093 0.33285 0.082237 0.13041 -0.069095 0.4072 -0.40939 -0.17609 0.31804 -0.30615 -0.076883 0.16078 0.18493 0.11062 -0.13953 -0.38411 -0.20501 -0.37967 0.33511 0.75415 -0.15013 -0.3731 -0.6853 0.016535 -0.28534 -0.33068 -0.69585 -0.021322 0.20216 -0.01002 -0.099016 -0.61522 -0.51274 0.29007 -0.52738 -0.044161 -0.19652 0.56626 -0.3467 -0.14629 -0.071078 -0.12932 0.24153 -0.050677 0.090068 0.2714 0.28383 0.35522 0.13077 0.26164 -0.52409 -0.13609 -0.15927 -0.64364 0.26927 -0.39026 -0.0040303 0.14751 -0.10547 0.3543 -0.17749 -0.2168 -0.28327 0.44911 -0.057105 0.18543 0.10101 -0.29873 -0.19776 -0.78922 -0.15552 -0.064546 0.47097 -0.28389 0.31727 0.202 0.46478 0.028823 0.062674 -0.68089 -0.079802 -0.3827 0.25743 0.010112 0.16224 -0.14045 0.31128 0.35748 0.7303 -0.12217 0.57747 -0.18948 -0.51909 0.34871 -0.17525 0.21202 
나|EC 0.1056 -0.1387 -0.14857 0.21877 -0.03632 -0.31015 -0.20595 -0.4064 0.119 0.10207 -0.010168 -0.042076 -0.11847 -0.0070861 -0.051252 0.1458 0.15079 -0.069279 -0.38194 -0.021619 0.083687 -0.1052 -0.21039 -0.023381 0.37803 0.13857 0.10563 -0.36998 -0.16704 0.21768 0.14117 0.18052 -0.23857 -0.16182 -0.20707 -0.40902 -0.13176 -0.10065 0.11398 0.16087 -0.29125 -0.38778 0.34394 0.03886 -0.25324 0.21714 -0.11584 -0.067335 0.017414 0.1147 -0.20854 -0.1817 0.10541 -0.25218 -0.10999 0.3539 0.2307 8.0707e-06 -0.29297 0.095888 0.29004 0.059853 -0.16291 0.16473 0.14267 -0.040326 0.054713 -0.16805 -0.13003 -0.084491 -0.03333 0.041016 -0.01808 -0.063382 -0.17088 0.10389 -0.026208 0.058011 0.098432 0.095486 -0.23493 0.10496 -0.43993 0.2511 0.046914 -0.28725 0.18352 0.012656 -0.081509 -0.11136 -0.62343 0.066308 -0.047084 0.25623 -0.12178 0.097395 0.16216 -0.034207 0.1643 0.68975 
다음|NNG 0.073913 0.2552 -0.15322 -0.18599 0.38075 0.28134 -0.23792 -0.18699 0.17664 0.26575 -0.244 -0.34543 0.078432 0.31751 -0.14163 0.20941 -0.098661 0.3876 0.0041009 -0.14448 -0.14052 0.10887 -0.057145 0.11699 -0.10314 -0.40891 -0.034882 -0.083009 -0.14305 0.015937 -0.27919 -0.23473 0.38887 -0.042537 -0.77491 0.097124 -0.14296 0.04375 -0.10666 0.18626 -0.091427 0.4759 -0.13999 0.10869 0.089843 -0.19165 0.075913 -0.031422 -0.1582 0.25252 -0.021558 0.037335 0.063718 0.25456 -0.0070174 -0.0034054 -0.010373 0.13492 0.33626 0.044904 -0.034024 0.15043 0.21948 0.47458 -0.05621 -0.05074 -0.13124 0.24176 -0.072243 0.2655 -0.11641 0.24428 -0.01853 -0.051658 -0.2278 -0.06691 0.13614 0.11947 0.13294 -0.0099466 -0.0156 0.014555 0.14965 -0.1618 -0.01685 0.085149 0.027381 0.11251 -0.23485 0.021578 0.076337 0.016321 0.25691 -0.31769 -0.044844 -0.21687 -0.20773 -0.23787 -0.1467 -0.24604 
하나|NR 0.20836 0.13548 0.24913 -0.29038 -0.031647 0.2253 -0.22515 0.12457 -0.082704 -0.033306 -0.0005938 0.18827 -0.2367 -0.11719 -0.027006 -0.37889 0.11437 -0.036155 -0.018062 -0.19315 -0.04804 0.059847 0.18563 0.40405 -0.29636 0.026102 -0.11688 -0.06351 -0.14665 -0.17769 -0.083302 0.04264 -0.0059968 0.029047 0.19586 -0.16224 -0.01487 0.1173 -0.02677 -0.020079 -0.22765 0.22233 -0.15173 0.024109 0.31071 -0.14861 0.25516 0.098553 0.074005 0.078378 -0.001521 -0.0076838 0.073501 -0.064461 -0.25258 -0.16958 -0.20455 -0.088554 0.25481 -0.046592 -0.095669 -0.16779 0.26792 0.042999 0.026266 0.0040892 -0.10026 -0.097847 -0.084066 -0.14953 -0.051444 -0.054952 0.37292 -0.24022 -0.0088899 -0.15082 -0.06776 -0.1524 0.24738 0.16392 0.17011 -0.019178 0.14242 -0.043518 0.34712 0.090597 -0.03061 -0.13597 -0.16963 0.25572 0.38493 0.019759 0.45262 0.12532 0.3264 -0.19238 -0.071782 0.11261 -0.16764 -0.14418 
할|VV+ETM -0.032365 0.16857 -0.33015 -0.24548 0.37946 -0.12857 0.26153 0.25095 0.29556 0.030619 -0.062577 0.075727 0.055091 0.48535 -0.020058 0.11239 -0.31766 0.27965 0.53831 -0.10067 -0.30939 -0.20169 0.15486 -0.49204 -0.45731 -0.34098 0.18949 0.27323 0.5039 -0.13021 -0.60884 0.14061 0.199 -0.018137 -0.16693 0.21091 0.12727 -0.087405 -0.30437 -0.06222 0.60499 0.58591 -0.30359 -0.12576 -0.097562 -0.29964 0.11156 0.080492 -0.06081 0.025704 -0.14847 0.21602 -0.41248 0.49832 0.14255 -0.39063 -0.30176 0.33535 0.077712 0.18524 -0.37059 0.11701 0.17026 -0.025698 -0.43241 -0.0073425 -0.24088 0.38183 0.2359 0.29423 -0.1712 0.045679 0.080375 0.25701 0.20119 -0.057041 0.48122 0.28458 -0.18233 -0.047327 -0.0563 -0.22514 0.54638 -0.32467 0.023421 0.13969 -0.04959 0.20444 -0.086149 0.0084028 0.76901 -0.077831 -0.0049869 -0.39665 -0.1357 -0.42883 -0.26895 -0.20498 -0.14462 -0.83051 
격리|NNG -0.34387 -0.34716 0.24384 0.40483 -0.27591 0.11947 -0.48901 -0.08225 -1.0711 -1.0245 0.26461 -0.65257 -0.35579 -0.8695 -0.382 0.22315 0.26055 -0.16175 -0.52539 0.72627 0.27193 -0.14285 -1.1972 0.97133 -0.18499 0.26218 -1.6008 0.36006 0.086736 -0.90359 -0.029533 -1.7423 0.42945 0.17321 0.75601 0.075238 -0.17853 0.24234 0.70934 -0.20607 -0.75186 -0.35297 0.11037 -0.087387 0.3168 0.27852 0.022971 -0.20124 0.16152 -0.41432 0.41168 -0.62192 0.57539 0.39748 0.06854 -0.36244 -0.99819 0.858 0.17804 -0.51436 0.51708 0.23139 -0.0081341 -0.51161 1.0398 -0.67957 -0.21153 -0.3778 -1.1506 -0.61358 0.44778 0.37719 -0.011491 -0.37081 0.090064 -0.095514 -1.05 -0.66023 0.084488 0.53165 0.98116 0.0061002 -0.21882 0.15872 -0.4058 0.81407 -0.3451 -0.75721 -0.36043 0.35885 -1.1938 -0.38178 -0.5331 -0.69006 0.075085 0.61476 0.45728 -0.62353 -0.1747 0.11701 
던|ETM 0.12417 0.02827 0.16119 -0.15937 0.029331 -0.052998 -0.25113 0.03223 -0.37478 -0.18945 -0.08476 0.063902 -0.39359 -0.016525 0.28699 -0.28198 -0.30162 -0.0081573 -0.033121 -0.16809 -0.03505 -0.089834 -0.26055 0.36793 -0.33217 0.14396 -0.20012 -0.063539 0.057582 -0.18201 -0.22477 -0.10528 0.29835 0.48787 0.14058 0.15777 0.12392 0.092809 0.039977 0.24905 -0.21066 0.31979 -0.13949 -0.027853 0.24598 -0.31378 0.18429 0.10477 0.18295 0.1273 -0.066361 -0.07543 0.02196 0.036383 0.034651 -0.18601 -0.093092 0.053196 0.2122 -0.049953 0.088113 -0.16511 0.46336 -0.16736 0.33425 0.081533 -0.128 0.093754 -0.33091 -0.069656 -0.044181 -0.10004 0.35023 0.046861 0.14783 0.051383 0.01487 -0.17268 0.4134 0.22589 0.063788 0.066771 0.26114 0.16626 0.46962 0.29844 -0.016071 0.10238 -0.35969 0.29312 0.21823 -0.21256 0.46678 0.18459 0.20156 -0.23013 -0.15234 -0.056442 -0.1046 -0.15022 
명|NNBC 0.16927 -0.041647 0.51271 0.040328 -0.65239 -0.0050828 -0.16549 0.019146 -0.25264 -0.31498 -0.0011749 0.21855 -0.49916 -0.4231 0.1026 -0.20109 0.18957 -0.29284 -0.3771 0.050954 0.079353 0.37589 -0.020428 0.45491 0.12903 0.51646 -0.29522 0.007829 -0.12964 -0.019137 0.45672 0.028958 -0.15392 0.085161 0.58194 -0.070915 0.025387 0.068342 0.16566 0.043586 -0.55001 -0.64913 0.16959 -0.10038 0.16913 0.41268 -0.29122 -0.19719 0.078915 -0.28891 0.30461 -0.51117 0.37124 -0.50617 -0.11668 0.14392 0.22085 -0.24582 0.0077593 -0.066543 0.42259 -0.18137 -0.053935 -0.2313 0.59743 0.099248 0.12465 -0.49358 -0.2935 -0.12975 0.27644 0.033325 0.20419 0.082652 -0.012299 -0.04126 -0.62992 -0.29669 0.094679 0.12621 0.082592 -0.032442 -0.54489 0.49809 0.43144 0.083596 0.23208 -0.34561 -0.061345 0.24159 -0.62452 0.18016 -0.14832 0.48586 0.090781 0.43335 0.27352 -0.030267 0.078721 0.42149 
해|VV+EC -0.12414 0.068209 0.24388 -0.22073 -0.21856 0.27395 0.11319 0.39676 -0.53541 -0.028451 0.031635 0.42642 0.38373 -0.14974 -0.22061 -0.35585 0.17771 -0.38614 0.11387 -0.078687 -0.14454 0.08331 0.51091 0.13929 -0.090634 -0.099782 -0.03525 -0.17179 -0.23632 0.073079 -0.057434 0.2355 -0.3938 0.11676 0.52827 0.11662 0.11112 0.075002 -0.31512 -0.19139 0.053772 -0.12902 -0.087754 -0.023311 0.16131 -0.20153 0.054409 -0.027763 0.0064701 -0.045325 0.0087239 0.4095 -0.15435 -0.25647 -0.095577 -0.001622 -0.080757 -0.61007 0.29152 -0.21487 -0.32194 -0.22844 0.10896 -0.14467 -0.26615 -0.30235 0.10297 0.056142 0.27553 -0.14109 -0.24646 -0.51029 -0.066335 0.0041187 0.21949 -0.083428 -0.1238 0.13473 0.0029216 0.0075636 0.19428 0.15992 0.37997 -0.45578 -0.062654 -0.033315 -0.050462 0.22703 0.29948 0.13719 0.62512 -0.13203 -0.22428 0.39373 0.26152 0.015162 0.053728 0.77936 -0.32674 0.16531 
지|EC 0.061835 0.044194 0.1647 -0.020039 -0.2157 0.014956 -0.077221 0.36796 -0.015406 -0.11454 0.10785 0.53676 -0.14076 -0.12642 0.019229 -0.22924 0.11826 -0.12842 0.21017 -0.024164 -0.020118 0.17691 0.20723 -0.18684 -0.14889 0.3012 0.25367 0.1222 0.17125 0.055114 -0.023968 0.11132 -0.16617 -0.079327 0.57465 0.14229 0.31543 -0.091798 -0.040807 -0.24388 0.20439 -0.099777 -0.025647 -0.24907 0.16574 -0.091795 -0.08056 -0.025007 -0.029857 -0.22616 0.017164 -0.029389 -0.15931 -0.13872 0.064937 -0.28508 -0.14738 -0.060805 0.09241 0.064151 -0.033967 -0.17989 -0.045001 -0.3151 0.055198 0.013625 0.17641 -0.116 0.25256 -0.060055 -0.14581 -0.11311 0.075939 0.27531 0.27152 -0.062617 -0.26034 -0.043285 -0.31157 0.083716 0.028365 -0.18185 0.14868 0.065404 0.097315 0.24759 -0.045152 -0.097461 0.08468 0.21673 0.24414 -0.14309 -0.31888 0.26864 0.14004 0.033904 0.11394 0.12663 0.059389 -0.36203 
주소|NNG 0.58614 -0.070138 0.36181 -0.54481 -0.038529 0.25921 -0.018314 -0.18434 0.52342 0.68973 -0.37547 -0.069239 -0.00099681 -0.39168 0.023126 0.33088 0.23107 -0.05812 -0.16481 -0.30647 0.047647 -0.42135 0.67462 0.62116 0.21746 -0.21526 -0.32644 -0.077964 -0.34054 -0.2207 -0.25476 0.32792 0.05534 -0.31437 -0.22087 -0.78432 -0.85203 0.27897 -0.4446 0.13525 -0.36729 -0.023284 0.032896 -0.1699 -0.015042 0.14706 -0.0062933 -0.090567 0.15542 0.16011 0.5202 0.055047 0.33371 -0.27814 -0.68802 0.2904 0.31162 -0.64013 -0.3065 -0.24111 0.40406 0.098155 -0.45374 0.4561 -0.15122 0.31211 -0.21153 0.036447 -0.0072615 0.20702 0.5934 0.078733 -0.18021 -0.88394 -0.30817 0.027071 0.31081 -0.44109 0.09428 -0.053091 0.59644 -0.11641 -0.73862 -0.36478 0.1346 -0.73763 0.21289 -0.11081 0.26471 -0.27698 -0.4172 0.64532 0.71707 0.13773 0.28898 0.35175 -0.6256 -0.15154 0.23789 0.48989 
