14 100
</s> -0.0082994 0.0078322 -0.0062062 -0.0020398 0.0048702 0.0012078 0.0061913 0.00023425 0.0099017 0.0093322 -0.001479 0.00306 0.0092307 0.0071597 -0.0041195 -0.0017071 0.00029786 0.0057957 0.00088546 -0.0081274 -0.0013548 0.0068985 0.0054569 -0.0061628 0.0056073 -0.0063731 0.0015828 -0.0037174 -0.0017603 0.0098461 -0.0067216 -0.003303 -0.0084756 -0.0065095 -0.009254 -0.0006517 0.0034823 -0.0086659 -0.0022043 -0.006692 0.0098161 0.0074128 0.0034531 0.0017541 -0.0048997 0.0018609 -0.0045656 -0.0045904 -0.0080814 0.0026511 -0.0069745 0.0089772 -0.0091479 0.0047018 -0.00069006 -0.0055492 0.0014297 0.0020914 0.00396 0.0032937 -0.006527 0.0050299 0.0064983 0.0050619 -0.003619 0.00065102 -0.0070489 0.0058526 0.0082506 0.0058876 -0.0098118 0.00020106 -0.0040881 0.0011984 8.345e-05 -0.0037997 0.0096516 0.0092891 -0.0010287 -0.0039297 -0.0088758 0.0060384 0.0096762 -0.0089787 -0.0052039 -0.007906 0.00069594 0.00042814 -0.0034004 -0.0036472 0.0095572 0.0047017 0.0090723 -0.0090106 0.0014508 -0.0087831 0.0062326 0.0095837 -0.0054835 -0.0018726 
주문|NNG 0.0023809 0.0050911 0.0083198 -0.0092702 0.0066115 0.0080729 -0.0064802 0.0013357 -0.0034364 -0.0021086 -0.00070896 -0.0063346 -0.00485 0.002211 -0.0060699 -0.0071741 0.0033869 0.0060367 -0.0068821 -0.00057144 -0.0048854 0.0098796 0.0039752 0.006947 -0.0086124 -0.0061643 -0.0098371 -0.0012069 -0.0022077 -0.0072869 -0.0050154 -0.00077216 0.0039678 -0.0058629 -0.0063548 -0.0021121 -0.0071508 0.004313 -0.00053761 -0.0027656 -0.0082994 0.0078322 -0.0062062 -0.0020398 0.0048702 0.0012078 0.0061913 0.00023425 0.0099017 0.0093322 -0.001479 0.00306 0.0092307 0.0071597 -0.0041195 -0.0017071 0.00029786 0.0057957 0.00088546 -0.0081274 -0.0013548 0.0068985 0.0054569 -0.0061628 0.0056073 -0.0063731 0.0015828 -0.0037174 -0.0017603 0.0098461 -0.0067216 -0.003303 -0.0084756 -0.0065095 -0.009254 -0.0006517 0.0034823 -0.0086659 -0.0022043 -0.006692 0.0098161 0.0074128 0.0034531 0.0017541 -0.0048997 0.0018609 -0.0045656 -0.0045904 -0.0080814 0.0026511 -0.0069745 0.0089772 -0.0091479 0.0047018 -0.00069006 -0.0055492 0.0014297 0.0020914 0.00396 0.0032937 
할게요|XSV+EC -0.006527 0.0050299 0.0064983 0.0050619 -0.003619 0.00065102 -0.0070489 0.0058526 0.0082506 0.0058876 -0.0098118 0.00020106 -0.0040881 0.0011984 8.345e-05 -0.0037997 0.0096516 0.0092891 -0.0010287 -0.0039297 -0.0088758 0.0060384 0.0096762 -0.0089787 -0.0052039 -0.007906 0.00069594 0.00042814 -0.0034004 -0.0036472 0.0095572 0.0047017 0.0090723 -0.0090106 0.0014508 -0.0087831 0.0062326 0.0095837 -0.0054835 -0.0018726 0.0023809 0.0050911 0.0083198 -0.0092702 0.0066115 0.0080729 -0.0064802 0.0013357 -0.0034364 -0.0021086 -0.00070896 -0.0063346 -0.00485 0.002211 -0.0060699 -0.0071741 0.0033869 0.0060367 -0.0068821 -0.00057144 -0.0048854 0.0098796 0.0039752 0.006947 -0.0086124 -0.0061643 -0.0098371 -0.0012069 -0.0022077 -0.0072869 -0.0050154 -0.00077216 0.0039678 -0.0058629 -0.0063548 -0.0021121 -0.0071508 0.004313 -0.00053761 -0.0027656 -0.0065987 0.0056645 -0.0024124 0.0059203 -0.0002595 -0.0075844 0.0023827 -0.0095315 0.0098034 0.0086645 0.007042 -0.0038801 0.0084613 0.0043195 0.001761 0.0065858 -0.0094043 0.0015914 -0.0082291 -0.0062548 
메뉴|NNG 0.0072904 0.0037971 0.00091386 -0.0023256 0.0012147 -0.0027463 -0.0068343 0.0025653 0.0064794 0.0096922 -0.0034431 0.0033939 -0.0069513 -0.003019 -0.008508 0.0086966 -0.0030355 -0.0073319 0.0055913 -0.0033841 0.0096322 0.0048256 -0.0030939 -0.0064918 0.00020058 -0.0062782 0.0008688 0.00081925 -0.0061628 -0.0046977 -0.0039491 0.0079545 -0.0082958 -0.00059644 0.0086199 -0.0010984 -0.0071406 -0.0058172 -0.0020799 -0.0034126 -0.0030539 5.9782e-05 0.0029967 0.00012384 0.002762 -0.008698 -0.0040978 0.0017051 0.0065012 0.0017752 -0.0096237 -0.0095979 0.0018237 -0.0076032 -0.0098331 0.0024006 0.0093032 0.0085782 0.0079425 0.0021406 -0.0077517 0.0020768 0.0093525 -0.0079575 -0.00040786 -0.005812 -0.0086081 -0.0091437 0.0031992 0.0027055 0.0091143 -0.00059654 0.0081447 -0.0080213 -0.0070985 -0.0075662 0.0024651 0.0091675 -0.00096699 0.0062548 -0.0052381 0.00018225 0.0066395 -0.0085403 0.003223 0.0061457 -0.0029603 -0.0073287 0.0031273 0.0057828 0.0085821 -0.0026693 0.00029999 -0.005578 -0.0021398 -0.0043483 -0.0032262 0.0020733 -0.0037642 0.0088571 
어떻게|MAG 0.00022913 0.0097591 -0.0020495 0.003894 -0.0072247 -0.0023286 -0.0096741 0.0075861 0.0055845 -0.0045737 -3.0753e-05 0.0084557 -0.0020644 -0.0017257 -0.0027095 0.0057757 -0.0043015 -0.0013739 0.0089248 0.0044688 -0.0048981 0.0034967 0.0013814 -0.0061195 -0.0053893 0.0036234 -0.001426 0.00070275 0.0097051 0.0079967 -0.004437 0.0091799 0.007692 0.0014792 0.0076416 -0.0051213 0.00089357 -0.0026129 0.0026564 -0.0043822 -0.0040644 0.00069565 -0.0036292 0.0015115 -0.003178 0.00088059 0.0047485 0.0088479 -0.0052809 0.0095383 -0.00016466 -0.0099091 -0.0054269 0.00047143 -0.007762 -0.0019551 -0.0095532 -0.0059978 -0.0066131 -7.6081e-05 0.0094483 0.0022383 -0.0096408 0.0052624 0.0053009 0.0055827 0.0063032 0.0062289 -0.0042442 0.0079534 -0.00092363 0.0069317 -0.0074437 -0.0058947 -0.0020702 0.0033524 0.0042891 0.0062742 -0.0081199 0.0098811 0.00041913 -0.0049103 -0.00050499 -0.0048142 0.009143 0.0019531 -0.0011468 -0.0024423 0.0047519 -0.0023371 -0.0094355 0.00060317 0.0077356 0.0035951 0.00025035 0.008601 0.0089547 0.0078673 -0.0030862 0.0082108 
되|VV -0.0066275 -0.0018849 0.0090288 -0.0069362 0.0043882 -0.003718 0.0020878 0.0012844 0.0097988 0.0090583 0.0086715 -0.0058948 0.007217 -0.0070319 0.0043523 -0.0063493 -0.0013023 0.0087512 0.0035495 -0.0056178 0.0071428 -0.0047266 0.0049593 -0.0078105 -0.00016544 0.0042186 0.00055953 0.004007 0.0096909 -0.0063258 -0.0021269 0.0009961 0.00545 0.006633 0.0017902 -0.0015224 -0.0098394 -0.00189 -0.00064625 -0.0017143 0.0053437 0.0096387 -0.0080743 0.00084106 -0.0058371 0.0015072 -0.0095112 -0.0036208 -0.0066232 -0.0018606 0.0049539 -0.0023165 -0.0080967 0.0024114 0.00093571 -0.0063364 -0.0014523 -0.0070609 -0.0016128 -0.0082968 -0.0031974 0.0013289 0.0051752 0.0018407 0.009481 -0.0051688 -0.0052347 -0.009063 0.0096068 0.0073289 0.0040841 0.0022399 0.0069226 -0.001361 -0.0064779 0.0031716 -0.0088086 -0.0068172 -0.0064582 -0.0025096 0.0045808 -0.0024058 -0.0081723 0.0053487 -0.0075707 0.0045075 -0.0036687 -0.0048695 0.0029588 0.0093844 0.0031138 -0.0032121 -0.0039025 0.0039619 -0.007016 0.0073932 0.003929 -0.0046637 0.0011826 0.0032319 
나요|EC 0.0092643 -0.00034887 0.0038122 -0.0029835 -0.0095988 -0.0025564 -0.0082624 -0.0083615 -0.0023256 0.0006045 0.0021018 0.005909 -0.0065917 0.0088071 0.0072398 0.0078032 -0.0042813 -0.0016344 0.0058401 0.0031749 0.0038922 -0.0098804 -0.0040066 -0.0097523 -0.0044761 -0.0073959 0.0018043 -0.0065897 0.0030025 -0.0064495 -0.0092473 -0.0091958 -0.0063525 -0.0052065 -0.0096662 -0.0051987 0.0086063 0.0071564 0.0058851 -0.0057189 -0.0055033 -0.0058465 0.008705 -0.005915 0.0091843 -0.001624 -0.0072163 -0.0082874 -0.0036016 -0.004589 0.0082287 0.0088069 0.0062893 -0.0060425 -0.004197 -0.0051324 -0.0050697 0.0083349 0.008066 0.0025096 -0.0004763 -0.0096355 0.0032791 -0.0070806 -0.0035539 0.0022914 0.0040794 -0.0046574 -0.0037455 0.0015655 0.0071642 0.0046615 -0.0094 -0.0011561 0.0057203 0.0013034 0.0035475 -0.0058533 0.0024717 0.0077142 -0.0095417 0.0095182 0.0059009 -0.0022119 -0.0044495 0.0053429 -0.0093483 0.0051722 0.0011691 0.00085256 0.0099385 0.0069113 0.0058711 0.0065485 0.0045809 0.0015514 0.001397 0.0072521 0.0078496 -0.0010624 
아이스|NNP -0.0014968 -0.00083887 0.008969 0.0098008 0.0043512 0.006039 -0.0090433 0.0011713 0.0095085 0.0066611 -0.0073949 -0.0047001 0.0061533 -0.0042013 -0.00059739 -0.0085355 0.0014893 0.0089785 0.0044273 -0.00063701 -0.006774 -0.0055073 0.0072846 0.0091859 0.0080367 0.0081343 0.0079142 0.0014131 -0.0088015 0.0092305 0.0063922 0.0034848 -0.0023782 0.0074524 -0.00627 -0.0032585 -0.0025887 -0.0033297 0.0089782 0.0065399 0.0090804 -0.0029361 -0.0027347 0.0087706 -0.0044986 0.0093045 -0.002828 -0.0029519 -0.00040698 -0.0067444 0.0051273 0.0048862 -0.0057396 0.0035089 -0.0034503 -0.007746 0.0071484 -0.0095431 -0.00019982 -0.0035314 0.0073652 0.0051495 -0.0075083 0.0053096 0.0019049 0.0032551 0.0047554 0.0092628 0.0012531 0.0094381 -0.0090592 0.0010053 -0.00044063 0.0059919 0.00041725 0.0010016 0.0082579 0.0064455 -0.0051436 0.00035139 -0.0043792 -0.0098081 0.0083813 -0.0048937 -0.0060197 0.00046995 0.0034797 0.0021407 0.0029979 0.0017638 0.0077858 0.0035087 0.0053617 -0.0050532 0.0072538 -0.0039155 -0.0088372 0.0079186 -0.0074175 -0.0093631 
아메리카노|NNP -0.0080954 0.0054556 0.0015988 -0.0063508 -0.0069424 0.00036428 0.0075992 0.0066783 0.0028182 0.0094569 -0.0035448 0.0083268 -0.00425 -0.0089451 0.0096504 0.0041293 -0.0030656 -0.0098167 0.0055896 -0.0028572 -0.0044272 0.0093978 -0.00012386 -0.0052649 -0.0030619 0.0091786 -0.0091853 -0.0060347 0.0089613 0.0035657 -0.0050769 -0.0038608 -0.00016109 -0.0093143 0.0082262 0.0094393 0.0042462 0.0015652 -0.002688 0.006172 0.00020389 -0.0030066 -0.0072372 -0.002239 -0.00077851 -0.0027532 0.007148 -0.0085945 0.0094101 0.0059934 0.0011261 0.0083598 0.005384 -0.0070415 0.0052831 -0.00024265 -0.0082129 0.0047741 -0.0046873 0.0012356 0.0018711 -0.0086087 0.0027416 -0.0069769 0.003644 -0.0082388 -0.00050302 0.0076958 -0.00056185 0.0090767 0.0096707 -0.0098182 -0.00085382 -0.0090571 -0.005524 0.0060898 -0.0091065 -0.0019956 -0.0032261 0.0098478 0.0088965 -0.0055233 -0.0092817 0.00052471 0.00060173 0.0011655 0.0026064 0.0024577 0.0015116 0.0059068 0.0081527 0.0038635 -0.0048875 -0.0017893 0.0058596 -0.0032953 -0.0014219 0.0025483 -0.0062398 0.0097623 
요|VCP+EC -0.0091617 0.00017935 0.00899 0.00037151 0.0082859 -0.0060939 0.0077065 0.0051154 -0.00049628 0.0053257 -0.008871 -0.0087937 0.0054712 -0.0028097 -0.0094993 0.0072019 0.0079095 0.0057346 0.0038276 0.0064217 -0.003255 0.0062303 0.0080575 -0.0038725 -0.0012236 0.0025639 -0.0058244 -0.0074312 0.0095975 0.0081166 0.007343 -0.0017896 0.004434 -0.0040638 -0.0012954 -0.0026986 0.0073954 0.0075024 -0.002901 -0.0012357 0.0042856 0.00054676 -8.1416e-05 -0.0056209 0.0096691 -0.0015629 -0.0088809 -0.0019861 0.0093818 -0.0026517 0.0057462 -0.0080078 0.00089996 0.0032659 -0.0064195 0.0069551 -0.0096787 0.00622 0.0087075 0.0065714 0.00068739 0.0092773 -0.0061486 -0.0083179 -0.0016742 -0.0069857 -0.0090224 0.0027584 -0.0032464 0.0062788 -9.2259e-05 0.005367 -0.0061933 -0.0051772 -0.0081286 -0.0026729 0.0070955 -0.0041218 0.0067743 -0.0065936 0.0019045 -0.0051744 -0.0034434 0.0057212 -0.0059083 0.0084546 0.0033393 0.0016398 0.0093118 0.0053256 0.0096471 0.0014198 0.0046146 -0.0098818 -0.0088363 0.0080502 0.002085 0.00056983 0.0061982 0.0031082 
커피|NNG -0.0094837 0.0082898 -0.0018015 -0.0031397 -0.00074865 -0.004612 -0.0089202 -0.0060216 0.0076778 0.0089228 -0.0070509 -0.0031213 0.00067055 -0.0055667 -0.004778 -0.0045619 0.0043758 -0.00066154 0.0045695 -0.0068442 0.0087126 -0.0081105 0.0041714 -0.0077212 0.005702 -0.0069736 0.0080408 0.0078674 0.0034302 -0.0014421 -0.0088218 0.0028407 -0.0040354 -0.0070875 -0.0048304 0.0011555 -0.0099922 -0.0053603 0.0077202 0.003056 -0.0056887 -0.0047908 0.0054884 -0.0045666 -0.0053331 0.0045572 -0.0093424 0.00096794 -0.0022457 0.0012134 -0.0086828 0.0014074 -0.0086169 0.0083887 0.00058415 -0.0065977 0.007561 0.0050237 -0.0072011 -0.0075081 -0.0021308 0.0022687 0.0077338 -0.0028512 0.0035725 0.0046579 0.0048716 0.002997 -0.0038029 -0.0055307 0.0069002 -0.0070879 0.0035063 -0.0030745 -0.0098447 -0.0014816 0.003628 0.0070861 0.0016156 0.0068917 -0.0033335 -0.0043621 -0.0017617 -0.0048911 0.0062806 -0.00349 -0.0053611 0.0093496 -0.0040545 0.0052397 -0.0049627 -0.0043424 0.00605 -0.0045231 -0.0024895 0.009781 0.0037082 0.0022567 -0.0081746 -0.0040001 
테이크아웃|NNP 0.005802 0.0091569 0.0078266 0.0086291 -0.00028662 -0.0031499 -0.0088595 -0.0084486 0.0045458 0.008992 0.0048924 -0.0054051 0.0077745 -0.0010401 -0.0044834 0.005215 0.0099447 -0.0098088 -0.0037633 0.00064079 0.0036052 -0.0073422 0.00035036 -0.0063187 0.008962 -0.00033761 -0.00046934 -0.008126 0.0092135 0.0046578 -0.0018319 -0.0055202 0.0038453 0.007278 -0.0029558 -0.0036569 -0.0076171 -0.0036345 -0.0029164 0.0049808 -0.00083848 0.0051884 -0.0063446 0.00069743 -0.0051413 -0.00098509 0.0026626 0.00026103 -0.0040825 0.0087689 -0.0037724 0.0035757 0.0021949 -0.0020762 -0.004032 0.0047864 -0.002142 0.00067252 -0.0076348 -0.0035362 0.0085287 0.0093023 -0.0023756 0.0040329 -0.0091977 0.0048873 -0.0065248 -0.006723 0.0053488 -0.008791 -0.0057964 0.001818 -0.0031833 0.0076143 0.0044795 0.0056063 0.0014375 0.0067311 0.0016803 -0.0036503 -0.0022156 -0.0097609 0.0019867 -0.0095047 0.0010479 -0.0047918 -0.0063913 -0.0031795 -0.003995 -0.002899 -0.0084947 -0.0083915 -0.002705 -0.00041297 -0.0093324 -0.0003974 0.0072126 0.0043128 0.0017702 -0.0014378 
하|VV -0.0010067 -0.0016929 0.00741 -0.00183 0.0083686 0.0067519 -0.0044325 -0.0065749 0.0027967 0.00082209 0.0064573 0.0076138 0.0025787 -0.0020851 0.0016061 -0.00026473 -0.00013944 0.0066698 0.0061321 -0.0049809 0.0090474 -0.009271 -0.0034419 -0.0041612 0.0028922 -0.0054171 -0.0018412 0.00068525 0.0025091 -0.0068689 0.0043283 -0.00067706 -0.0088 0.0076879 0.0014406 -0.0073932 -0.0029049 -0.0017066 -0.0050567 0.0054285 -0.0090835 0.0090364 0.0018018 0.0055762 0.001101 0.00068578 -0.0086965 0.00034449 -0.0076619 -0.0082949 0.009877 0.0038227 0.0017423 0.0030971 -0.00083812 -0.0068972 -0.007206 0.0045042 0.0056991 0.0078752 0.0053058 -0.00951 0.0041442 0.0016415 0.0038322 -0.0091298 -0.004278 0.0021083 0.0091152 0.00399 0.0066891 0.0075398 0.003076 0.0044377 0.0029247 0.004636 0.0026807 -0.0078388 0.0079691 0.0068534 0.0078067 0.0020869 0.0091124 0.0045346 -0.009534 0.0026418 -0.0057545 0.0065437 0.0041572 0.008615 -0.00049397 -0.0097273 0.0037193 0.0014143 -0.003286 -0.0058653 -0.0086597 0.0020066 0.00016085 -0.00022824 
려구요|EC 0.0083448 0.006715 -0.0089225 -0.0042129 -0.0040974 -0.0032518 -0.0010904 -0.0013134 0.0072674 0.0038601 -0.0027709 0.00079525 -0.0023312 0.002316 -0.0062105 -0.0099429 -0.0071328 -0.0011775 -0.0043597 0.0096434 0.0012574 0.005269 -0.001515 0.0055573 0.0074289 0.0058592 -0.0034403 -0.0073269 -0.0057444 -0.0070114 -0.0083065 0.0018095 0.0032069 -0.0092146 0.00075105 0.0058029 0.0068642 0.003602 -0.0092586 0.0046325 0.00011751 -0.0056546 0.0070863 -0.00080874 -0.0068354 0.0088459 0.0062634 0.0038533 0.0093963 0.0071749 0.0060145 0.0023156 0.001651 -0.0010957 -0.0069432 0.00095217 -0.0039069 0.0062536 -0.0093514 0.0031465 0.0014283 0.0058201 -0.0051221 -0.0034314 -0.00049632 -0.0073443 0.0016786 -0.0079791 0.0090727 0.0010225 -0.0063806 0.0029883 -0.0036501 -0.00010115 0.0053707 -0.0045673 -0.0095181 -0.00567 -0.0019387 -0.005143 -0.0039689 0.008916 -0.0042229 0.0025232 0.0024886 0.0045215 -0.0085336 0.0091375 0.00013037 -0.0055817 -0.0051384 -0.0069495 -0.00429 0.0072342 0.0028071 0.0009907 -0.0043568 -0.0011827 -0.0048385 -0.0048904 
