65 100
</s> -0.069194 -0.16213 -0.24742 -0.033578 0.25719 -0.25237 0.076864 0.013086 0.14443 -0.0066911 0.050905 -0.16833 0.28749 0.034717 -0.24478 -0.06497 0.03796 0.088333 -0.099767 0.015247 -0.11282 -0.16291 -0.00022978 0.016945 0.18971 -0.013897 -0.16217 -0.031694 -0.017532 0.030087 0.041056 -0.064464 0.017262 -0.065468 -0.013441 -0.13461 0.030338 0.018969 0.017227 -0.036642 0.021704 0.12209 0.097891 -0.06845 -0.18869 0.15493 -0.36884 -0.15614 -0.13744 -0.064335 -0.034061 0.1131 -0.010244 0.34976 -0.15938 0.1424 -0.054053 0.088773 0.062131 -0.021001 0.16259 0.017625 -0.12005 -0.01585 0.10967 -0.10459 -0.011904 0.39323 0.16622 0.026792 -0.29538 -0.36384 -0.12783 0.080067 -0.10458 -0.028139 0.22116 -0.0076018 -0.056167 -0.12869 -0.183 0.23652 0.14919 -0.43251 0.0054622 0.18204 0.14161 -0.1631 0.048829 0.012942 0.25828 0.3753 0.058773 -0.13464 0.02825 -0.16832 0.25499 0.1353 -0.027157 -0.33437 
요|EC -0.2759 0.36442 -0.31162 -0.20857 0.12546 -0.035548 -0.17603 0.16856 0.20631 0.26659 0.056902 -0.056367 0.25355 0.089934 -0.58013 0.15628 -0.088842 0.047283 0.25561 -0.15409 -0.41222 0.3438 0.19188 0.18749 -0.11293 -0.56114 -0.067543 -0.11686 -0.35587 -0.066693 0.15592 0.25169 -0.055347 -0.10921 -0.26856 -0.39911 0.33586 -0.29816 -0.11148 -0.25614 0.19244 0.36442 0.16782 -0.63029 -0.070153 0.29237 -0.13321 -0.21033 -0.26965 0.46105 -0.48903 0.22175 -0.34619 0.2441 0.027398 -0.21353 -0.033608 0.14268 0.46652 -0.042454 -0.48895 0.21038 0.39424 0.2489 -0.2055 0.12915 -0.16 0.19805 0.2636 0.15594 -0.027968 0.071579 0.23491 0.07423 -0.087914 0.16303 0.33489 0.33333 0.11958 -0.11025 -0.044921 0.061746 0.69373 -0.27475 -0.025355 -0.064931 -0.064895 -0.22176 -0.23951 -0.27294 0.26006 0.23053 0.19569 -0.39176 -0.092677 -0.68224 -0.1889 0.5272 -0.35571 -0.18117 
이|VCP -0.097316 0.33405 -0.16048 -0.17846 0.029861 0.079473 -0.2124 0.096946 0.16317 0.24987 -0.035154 0.058716 0.04763 0.059955 -0.37223 0.10244 -0.075056 -0.031992 0.19515 -0.10504 -0.16473 0.33082 0.15339 0.18215 -0.17214 -0.36646 0.022864 -0.11131 -0.36386 -0.06019 0.11429 0.27655 -0.064123 -0.007439 -0.18203 -0.18682 0.1844 -0.20514 -0.033044 -0.12797 0.073598 0.24994 0.040048 -0.51786 0.026769 0.10269 0.16914 -0.091918 -0.080679 0.37064 -0.4056 0.047854 -0.1783 -0.03839 0.018123 -0.1468 -0.031634 0.051679 0.2803 -0.087961 -0.36484 0.20093 0.39392 0.12615 -0.22214 0.06819 -0.14917 0.041395 0.12805 -0.005385 0.14987 0.14941 0.29617 -0.0057861 -0.066737 0.20517 0.21385 0.4071 0.16518 -0.084794 0.039186 -0.064861 0.46392 -0.078719 0.064236 -0.12834 -0.1146 -0.042079 -0.18751 -0.25657 0.079831 0.020479 0.023881 -0.21893 -0.10486 -0.35057 -0.25307 0.26669 -0.18874 0.018896 
주문|NNG 0.48834 0.47848 0.28882 -0.22094 -0.25184 0.60976 -0.46958 -0.047782 0.11354 0.33849 -0.3579 0.50645 -0.64708 0.054376 0.025187 -0.10752 -0.08743 -0.3047 0.13717 -0.023435 0.51436 0.60979 0.2063 0.32626 -0.53733 0.016553 0.26465 -0.14522 -0.67205 -0.11284 0.029846 0.5353 -0.093112 0.32345 -0.017598 0.42604 -0.1949 -0.074763 0.17785 0.15959 -0.27734 0.13335 -0.39745 -0.59505 0.3661 -0.44592 1.3025 0.13134 0.42531 0.40046 -0.54896 -0.50946 0.22548 -0.93235 -0.035787 -0.049966 -0.11558 -0.16307 -0.013633 -0.34882 -0.27513 0.32979 0.71115 -0.20528 -0.42215 -0.12626 -0.25928 -0.39915 -0.22605 -0.53722 0.81228 0.47419 0.67923 -0.25546 -0.056599 0.4644 -0.013526 1.005 0.43379 -0.085447 0.26577 -0.50263 0.15487 0.45852 0.46609 -0.35027 -0.33032 0.42748 -0.25774 -0.40568 -0.32258 -0.5327 -0.54165 0.11902 -0.20626 0.3924 -0.64861 -0.26728 0.10026 0.52089 
안녕|IC -0.42462 -0.01079 0.47763 0.43076 0.15303 0.30928 0.05616 -0.19784 -0.064108 0.1636 -0.18871 -0.051691 0.18138 -0.17128 0.50753 0.5662 -0.065959 -0.11271 -0.13497 0.25079 -0.34876 -0.4464 -0.24669 -0.39158 0.37575 -0.36949 0.0736 -0.37246 0.13909 -0.21265 0.24909 0.27416 -0.22574 -0.20652 0.12003 -0.29922 0.02131 0.18187 -0.38732 0.26496 0.03685 -0.56331 0.12328 0.40077 -0.1376 0.21191 -0.82016 0.090467 -0.4903 -0.20377 0.39031 0.76423 0.002185 0.25131 0.47467 0.2147 -0.017247 0.22935 -0.54893 0.41585 0.22158 0.086811 -0.31742 -0.086507 0.057759 0.6011 0.042741 -0.57941 -0.50659 0.27606 0.12305 0.29291 -0.1793 0.047198 0.37472 -0.31409 -0.89112 -1.1215 -0.2612 0.37822 0.23999 -0.066816 -1.1317 1.0566 -0.28513 0.021868 0.41897 0.47173 0.22688 0.82258 -0.58913 -0.46021 0.12107 0.5599 0.37967 1.3124 -0.034682 -1.2207 -0.045845 0.28184 
하|XSV -0.29029 0.18486 0.13195 0.12661 0.14506 0.20327 -0.09448 -0.052441 0.095142 0.26993 -0.12308 -0.0012868 0.17363 -0.047783 0.0039973 0.34715 -0.094412 -0.081361 0.045355 0.056091 -0.31279 -0.032902 -0.0090965 -0.1018 0.13199 -0.43154 0.019506 -0.3004 -0.17226 -0.14739 0.19389 0.32331 -0.17029 -0.11886 -0.058161 -0.28022 0.1217 -0.049005 -0.24408 0.056241 0.067959 -0.12067 0.096632 -0.1206 -0.092244 0.20888 -0.41277 -0.072545 -0.37624 0.20196 -0.15327 0.46485 -0.17728 0.19834 0.24193 0.0002275 -0.042059 0.18959 -0.013406 0.13852 -0.18743 0.20829 0.14138 0.067365 -0.10993 0.37405 -0.10874 -0.23172 -0.17132 0.16375 0.12022 0.21103 0.066157 -0.005293 0.12073 -0.054409 -0.28795 -0.34336 -0.027229 0.086637 0.098581 -0.012524 -0.13903 0.3821 -0.090574 -0.049227 0.16059 0.17198 -0.050703 0.23439 -0.16065 -0.1183 0.10979 0.060115 0.12378 0.3334 -0.19012 -0.32098 -0.21747 0.059827 
커피|NNG 0.27246 0.20428 0.19281 -0.10135 -0.15472 0.3086 -0.21286 -0.034536 0.021574 0.1303 -0.17849 0.2597 -0.36038 0.0063012 0.06747 -0.047438 -0.028435 -0.15112 0.045289 0.0065376 0.29559 0.27144 0.07992 0.13945 -0.25807 0.059972 0.1336 -0.053651 -0.29202 -0.044477 -0.0078516 0.22937 -0.041394 0.16197 0.023279 0.24263 -0.11844 -0.0013266 0.096368 0.09997 -0.15788 0.04041 -0.20295 -0.24301 0.20318 -0.25138 0.67891 0.08532 0.24295 0.15285 -0.22906 -0.26782 0.13685 -0.48847 -0.013962 -0.0068651 -0.047871 -0.098138 -0.03793 -0.16262 -0.094162 0.14084 0.32258 -0.10613 -0.18707 -0.079879 -0.10705 -0.20813 -0.13393 -0.28561 0.40224 0.24016 0.32717 -0.13488 -0.010806 0.20587 -0.032069 0.4709 0.1997 -0.01787 0.1379 -0.26468 0.01732 0.24117 0.21748 -0.17026 -0.16231 0.20724 -0.11316 -0.19921 -0.16846 -0.27094 -0.28751 0.082656 -0.10381 0.22957 -0.32003 -0.16784 0.066796 0.27674 
나요|EC -0.0662 0.20004 0.073127 -0.089167 -0.25166 0.010549 -0.13205 0.25985 -0.25387 -0.20998 -0.027987 0.087847 -0.20127 -0.0090029 0.077214 0.28137 0.1282 0.020917 0.11943 0.037731 -0.054988 -0.076109 -0.11166 0.13451 -0.24778 -0.14746 0.15214 0.15865 -0.11969 -0.16581 0.12222 0.12524 0.1826 -0.035713 0.075905 -0.2434 0.22921 -0.015358 -0.018333 -0.023818 0.16408 0.023894 0.087527 -0.47365 0.077193 0.18171 0.15049 0.060513 0.079475 0.24856 -0.24598 0.079358 -0.056686 -0.065059 0.10158 -0.10524 -0.0097082 0.11413 0.30839 -0.13372 -0.33265 0.047511 0.1264 0.1799 -0.13053 0.071958 0.050975 0.12311 0.16337 0.10309 0.1175 0.080405 0.28683 0.19022 0.026765 0.22622 0.21617 0.39232 0.042446 -0.067451 0.23199 -0.1399 0.4577 -0.015166 -0.033664 -0.037394 -0.080014 -0.22868 -0.17189 -0.3566 0.023364 0.062181 -0.20544 -0.21236 -0.13619 -0.31035 -0.3099 0.26043 -0.16129 0.048381 
메뉴|NNG 0.23134 -0.13788 0.19546 0.14607 -0.34958 0.13897 0.24941 -0.25004 -0.27739 -0.20414 0.24561 0.093911 -0.33793 -0.037772 0.4684 -0.35825 -0.10712 0.0083832 0.094602 -0.18731 0.31497 0.27013 0.051653 -0.24225 -0.14937 0.50367 0.13846 0.31594 0.65518 0.25393 -0.43165 -0.50774 0.011584 0.1275 0.008368 0.58217 -0.25611 -0.020285 0.085747 -0.057046 -0.12554 -0.22058 -0.23328 0.99511 0.5286 -0.79214 1.0234 0.48696 0.74111 -0.67017 1.0551 -0.98382 0.25018 -0.90917 0.075492 -0.35788 0.34 -0.6963 -0.61643 0.22193 0.3595 -0.67892 -0.45472 -0.18169 0.20184 -0.3425 0.3102 -0.70463 -0.19997 -0.12385 0.11184 0.47156 -0.15904 -0.048397 0.26862 -0.21393 -0.11493 -0.03439 -0.089684 0.42152 0.03928 -0.20801 -0.44952 0.28075 -0.17464 -0.25303 -0.45427 0.044364 0.13837 -0.030804 -0.22262 -0.55806 0.19866 0.29905 -0.09365 -0.27833 0.1695 0.10252 0.37452 0.47609 
알려|VV+EC -0.23678 0.15383 0.026441 -0.067674 -0.27795 -0.096891 -0.025535 0.29328 -0.35785 -0.32979 0.12688 -0.016337 -0.076852 -0.022112 0.07803 0.37172 0.13452 0.10631 0.17548 -0.013038 -0.22813 -0.15505 -0.14721 0.034699 -0.19952 -0.2062 0.12918 0.23496 0.097333 -0.15845 0.12848 -0.019737 0.21251 -0.13745 0.061017 -0.39118 0.34877 -0.036457 -0.090894 -0.1175 0.27647 0.014751 0.2143 -0.36915 0.07015 0.293 -0.043886 0.079198 0.03671 0.22563 -0.10179 0.16564 -0.18512 0.090951 0.1745 -0.22104 0.061202 0.11357 0.37033 -0.036401 -0.3789 -0.058161 -0.0036992 0.28895 -0.050006 0.13117 0.13888 0.14776 0.27941 0.29893 -0.018955 0.097385 0.17013 0.29721 0.085712 0.13985 0.32899 0.27393 -0.050286 -0.022567 0.2455 -0.074269 0.48558 -0.043074 -0.18054 -0.0036039 -0.071206 -0.38137 -0.19282 -0.3798 0.13427 0.1509 -0.03073 -0.32963 -0.14675 -0.64465 -0.26223 0.48938 -0.26032 -0.031432 
못|MAG -0.22461 0.00362 0.087434 0.12725 0.14302 0.057284 0.010211 -0.052951 0.06139 0.12137 -0.07227 -0.060877 0.18196 -0.054011 0.045429 0.21863 -0.041823 -0.029982 -0.0472 0.077657 -0.21173 -0.1524 -0.0599 -0.11923 0.18513 -0.22501 -0.023588 -0.18055 -0.0069721 -0.086679 0.13004 0.14229 -0.098693 -0.09888 0.0066905 -0.19603 0.050434 0.035752 -0.17416 0.055846 0.046726 -0.15958 0.093648 0.059623 -0.14467 0.18546 -0.50225 -0.048562 -0.32201 -0.022872 0.060116 0.42609 -0.060276 0.25606 0.17853 0.11913 -0.027045 0.1471 -0.13943 0.17274 0.052979 0.090311 -0.088543 -0.0063493 0.014881 0.27256 -0.024025 -0.13566 -0.15968 0.15273 -0.0041186 0.046578 -0.088623 0.011544 0.11647 -0.12185 -0.31893 -0.47833 -0.099115 0.12477 0.054402 0.023165 -0.40235 0.34414 -0.11849 0.046324 0.20428 0.17418 0.096816 0.36327 -0.19245 -0.1106 0.098613 0.19387 0.1786 0.49474 0.01314 -0.4462 -0.063734 0.034852 
세요|EP+EF -0.055359 -0.042224 0.42913 0.18257 -0.27831 0.12906 0.0055091 0.098458 -0.42423 -0.32515 -0.091791 0.082715 -0.28294 -0.12732 0.59491 0.3774 0.17189 -0.041162 -0.079355 0.19895 0.059525 -0.42968 -0.31403 -0.10851 -0.049089 0.092027 0.2031 0.11054 0.19802 -0.19213 0.08897 0.020387 0.14555 -0.040386 0.28588 -0.093495 0.040736 0.23641 -0.087312 0.21286 0.056943 -0.41305 0.028829 0.12827 0.091345 0.07596 -0.035513 0.22261 0.096441 -0.094362 0.21352 0.17989 0.12733 -0.11965 0.2425 0.046029 0.020284 0.082636 -0.14551 0.049478 0.02594 -0.078345 -0.2371 0.026975 0.037813 0.20383 0.18379 -0.2366 -0.16901 0.1077 0.16888 0.15244 0.043475 0.14596 0.22587 -0.0040654 -0.28611 -0.23793 -0.13773 0.13374 0.34052 -0.18565 -0.32077 0.48272 -0.1235 0.022432 0.085454 0.021028 0.028712 0.061197 -0.2953 -0.21549 -0.25273 0.17918 0.033612 0.43766 -0.21795 -0.38335 0.016657 0.23548 
안녕|NNG -0.18333 -0.078641 0.33644 0.29611 0.055327 0.20402 0.05469 -0.14431 -0.072182 0.050669 -0.14394 -0.0064089 0.05261 -0.11958 0.41418 0.29505 -0.023745 -0.087972 -0.12855 0.17652 -0.10079 -0.29922 -0.16153 -0.25675 0.22333 -0.090663 0.069695 -0.20456 0.12505 -0.11915 0.10902 0.12568 -0.11263 -0.07725 0.13245 -0.079427 -0.069414 0.16605 -0.20334 0.21613 -0.028768 -0.40147 0.014859 0.35352 -0.052908 0.048119 -0.40107 0.094594 -0.21804 -0.14457 0.25083 0.36856 0.053058 0.067684 0.24515 0.13141 -0.003278 0.10101 -0.33597 0.21062 0.15472 0.038089 -0.20478 -0.076655 0.051641 0.3223 0.042635 -0.38016 -0.35089 0.10802 0.11644 0.17815 -0.13672 -0.014245 0.21975 -0.19782 -0.55048 -0.65594 -0.14475 0.20738 0.13227 -0.052632 -0.63232 0.57313 -0.12855 0.022345 0.23693 0.27888 0.12526 0.43323 -0.33027 -0.24257 0.032531 0.30786 0.20693 0.74357 -0.024471 -0.66415 -0.0028784 0.15963 
아메리카노|NNP 0.45308 0.44701 0.30195 -0.19649 -0.28863 0.56276 -0.42425 -0.036141 0.040773 0.2578 -0.30957 0.47188 -0.6464 0.035659 0.094204 -0.076168 -0.062817 -0.27315 0.1186 -0.02572 0.51001 0.54004 0.16018 0.28607 -0.5195 0.05251 0.26804 -0.087993 -0.5544 -0.097096 0.0025767 0.45559 -0.071638 0.29448 0.0095393 0.42372 -0.1905 -0.049231 0.17507 0.15622 -0.25605 0.084025 -0.38534 -0.5014 0.3918 -0.46453 1.2999 0.17917 0.46558 0.32713 -0.44156 -0.52559 0.22545 -0.94157 -0.0087487 -0.071915 -0.084584 -0.19212 -0.03926 -0.31526 -0.2509 0.25111 0.61881 -0.1721 -0.36882 -0.13881 -0.20476 -0.40571 -0.21148 -0.49314 0.75052 0.46535 0.65334 -0.22458 -0.034509 0.43522 0.0068405 0.96491 0.40132 -0.046779 0.26732 -0.49304 0.19444 0.406 0.40488 -0.34314 -0.3466 0.3375 -0.2437 -0.43161 -0.29182 -0.51033 -0.50601 0.084978 -0.22606 0.27834 -0.62442 -0.2082 0.098488 0.51626 
지|EC -0.03471 -0.062717 0.15574 0.13097 -0.027401 0.097238 0.080645 -0.12225 -0.070065 -0.0048063 0.018903 0.0030235 -0.031546 -0.054846 0.24234 0.01767 -0.042935 -0.022326 -0.033578 0.025641 0.021507 -0.040305 -0.045896 -0.15216 0.059363 0.070897 0.033035 -0.0038928 0.20215 0.018599 -0.063226 -0.065702 -0.054816 -0.010334 0.033114 0.10319 -0.086284 0.048357 -0.049744 0.06258 -0.045992 -0.17851 -0.039041 0.35616 0.093367 -0.15768 0.057758 0.13332 0.063732 -0.21389 0.3426 -0.060145 0.062739 -0.15446 0.10228 -0.024783 0.062473 -0.11959 -0.2715 0.14455 0.16567 -0.13154 -0.17795 -0.073635 0.064262 0.046387 0.068663 -0.28913 -0.16748 0.014526 0.042916 0.16642 -0.091504 -0.021302 0.14505 -0.13045 -0.22409 -0.26966 -0.071586 0.16777 0.031762 -0.049523 -0.37303 0.27737 -0.089024 -0.046353 0.011221 0.11567 0.088574 0.19093 -0.17957 -0.22444 0.065219 0.19367 0.078104 0.25086 0.058482 -0.26576 0.081488 0.15402 
응|IC 0.30117 -0.3468 0.046664 0.055225 0.10126 -0.10134 0.1023 -0.1354 0.078906 -0.074574 -0.085233 -0.0098971 -0.03549 -0.00070441 0.11402 -0.29172 0.06344 -0.015322 -0.26255 0.11778 0.31748 -0.20862 -0.053091 -0.019973 0.14823 0.4342 -0.080222 0.011671 0.065967 0.081351 -0.09731 -0.13931 0.027383 0.11209 0.1363 0.29164 -0.30442 0.21976 0.17576 0.17732 -0.19444 -0.070096 -0.10922 0.27414 -0.11862 -0.088253 -0.11097 -0.043194 0.040222 -0.21111 0.0577 -0.061409 0.2348 0.088113 -0.22072 0.30601 -0.10017 0.0043431 -0.16825 -0.086364 0.38419 0.0073703 -0.14987 -0.19065 0.15001 -0.17798 -0.016744 0.16815 -0.1102 -0.20134 -0.11079 -0.3515 -0.24752 -0.14817 -0.15339 -0.084841 -0.098509 -0.16516 -0.018088 -0.13652 -0.14951 0.10935 -0.29005 -0.16833 0.18603 0.15165 0.11978 0.13977 0.16207 0.20276 0.018619 0.13788 -0.15947 0.15527 0.086395 0.44182 0.25597 -0.19289 0.23696 -0.1303 
할게요|XSV+EC 0.084551 0.2182 0.01887 -0.10597 -0.049681 0.17344 -0.17898 0.028516 0.08527 0.1584 -0.096426 0.14463 -0.14089 0.031422 -0.11441 -0.00095445 -0.046071 -0.086077 0.08934 -0.039432 0.084183 0.25011 0.10712 0.13122 -0.18052 -0.10785 0.063214 -0.066379 -0.28737 -0.043328 0.04515 0.21525 -0.03304 0.08231 -0.0508 0.05501 -0.0012611 -0.075744 0.042836 -0.0012394 -0.05149 0.12905 -0.081488 -0.32487 0.090427 -0.062868 0.35048 -0.0057304 0.060123 0.22223 -0.29293 -0.095232 -0.012145 -0.21679 -0.005731 -0.047985 -0.037672 -0.014754 0.099414 -0.13052 -0.18955 0.15003 0.30345 -0.015183 -0.17408 -0.019797 -0.12585 -0.059269 -0.0020514 -0.13377 0.23869 0.13357 0.24239 -0.068631 -0.03225 0.17986 0.063779 0.37943 0.16046 -0.058598 0.058564 -0.13969 0.18756 0.073952 0.14809 -0.12482 -0.097503 0.090566 -0.12829 -0.18171 -0.04838 -0.10699 -0.13623 -0.049137 -0.082531 -0.0060534 -0.24083 0.020918 -0.031837 0.11078 
보여줘|VV+EC+VX+EC 0.21281 -0.14152 0.1925 0.12905 -0.25379 0.12628 0.19352 -0.21561 -0.24674 -0.19505 0.15646 0.081921 -0.31137 -0.057855 0.48234 -0.28468 -0.060539 -0.0045902 0.0087485 -0.082432 0.32109 0.11735 -0.010226 -0.22399 -0.088694 0.44557 0.12497 0.23003 0.50807 0.18442 -0.32458 -0.38657 0.0056437 0.11493 0.050193 0.4879 -0.25254 0.055491 0.076551 0.0032083 -0.12623 -0.21792 -0.19791 0.80199 0.37664 -0.61497 0.74169 0.37964 0.5603 -0.54429 0.82108 -0.70198 0.24091 -0.68394 0.066202 -0.18756 0.23994 -0.49435 -0.55196 0.17314 0.35866 -0.49854 -0.3913 -0.18023 0.17636 -0.2501 0.23717 -0.54492 -0.19751 -0.11946 0.098139 0.34329 -0.13764 -0.050868 0.21137 -0.18023 -0.1897 -0.12037 -0.08209 0.33762 0.042883 -0.17622 -0.53895 0.31648 -0.11122 -0.15698 -0.28377 0.1075 0.16087 0.078431 -0.25287 -0.49648 0.089013 0.35016 -0.033552 0.052491 0.16934 -0.17424 0.34453 0.39192 
버스|NNG 0.070432 -0.058895 0.30626 0.065642 -0.3425 0.013734 1.6545e-06 0.1708 -0.44521 -0.41622 -0.043255 0.083063 -0.34464 -0.077192 0.47932 0.23116 0.20597 0.00031165 -0.044902 0.13452 0.15657 -0.35319 -0.26028 -0.010626 -0.15559 0.20789 0.19917 0.24308 0.16982 -0.13995 0.030449 -0.073286 0.22397 0.011098 0.26631 -0.025518 0.03592 0.19212 0.019276 0.14619 0.050768 -0.25029 0.0023967 0.0063114 0.12779 0.030983 0.16489 0.19862 0.24297 -0.073579 0.14081 -0.036305 0.13647 -0.16794 0.10478 0.011164 0.027138 0.034623 -0.019309 -0.057033 -0.0065737 -0.12372 -0.1893 0.04254 0.046788 0.017042 0.18148 -0.037448 -0.014644 0.0566 0.11392 0.038017 0.097314 0.15978 0.13258 0.086482 -0.030856 0.068896 -0.081715 0.050976 0.28349 -0.16433 -0.037188 0.20102 -0.058577 0.036084 -0.018976 -0.13433 -0.011244 -0.13666 -0.12684 -0.074265 -0.29885 0.034762 -0.07812 0.097354 -0.17811 -0.065593 0.050576 0.13853 
는|ETM 0.070519 -0.020379 0.22698 0.011642 -0.30384 -0.0070477 -0.01242 0.17659 -0.37799 -0.37935 -0.023596 0.078981 -0.31005 -0.067214 0.35801 0.19191 0.19211 0.020417 -0.025679 0.099671 0.14304 -0.25143 -0.21343 0.025758 -0.17209 0.17381 0.16229 0.24571 0.11719 -0.10568 0.023637 -0.075988 0.20903 0.0058014 0.21814 -0.024739 0.054719 0.14027 0.048172 0.085222 0.057451 -0.18401 -0.0011694 -0.051034 0.12141 0.028233 0.19674 0.16771 0.23727 -0.035868 0.074609 -0.045022 0.11637 -0.16733 0.078042 -0.005377 0.026542 0.024452 0.04103 -0.072387 -0.037455 -0.092069 -0.12544 0.04594 0.02621 -7.0903e-05 0.16307 -0.0043957 0.025973 0.036591 0.10364 0.038645 0.10264 0.15058 0.088985 0.1011 0.036295 0.15185 -0.052384 0.025237 0.2544 -0.16961 0.0096809 0.15108 -0.04726 0.015304 -0.038831 -0.12561 -0.027541 -0.17519 -0.095493 -0.066558 -0.28152 0.018266 -0.074991 0.05434 -0.16623 -0.023452 0.037183 0.13165 
방법|NNG 0.065001 -0.022217 0.21222 0.01239 -0.3083 -0.0014341 -0.006724 0.17615 -0.37789 -0.36051 -0.014355 0.072123 -0.30087 -0.06316 0.36748 0.18704 0.18441 0.012495 -0.01205 0.097363 0.12837 -0.25945 -0.19933 0.028605 -0.16578 0.18148 0.17243 0.24506 0.12317 -0.10598 0.020195 -0.067914 0.2203 0.0052251 0.22478 -0.03053 0.057799 0.14448 0.048225 0.10223 0.064204 -0.19312 0.0055331 -0.058153 0.1205 0.024135 0.18632 0.18173 0.23126 -0.039348 0.08665 -0.053245 0.11995 -0.16902 0.083265 -0.0047818 0.028528 0.027756 0.041016 -0.08671 -0.035145 -0.10025 -0.12768 0.051094 0.020358 0.003528 0.15234 -0.0036728 0.02267 0.039259 0.11305 0.047588 0.098196 0.14991 0.086326 0.10172 0.022035 0.13938 -0.053726 0.013839 0.25952 -0.16202 0.0070112 0.15302 -0.038562 0.010923 -0.03073 -0.12668 -0.022541 -0.18341 -0.11492 -0.06047 -0.26733 0.02226 -0.07388 0.054533 -0.1683 -0.019789 0.04967 0.11422 
주|VX 0.062911 -0.034607 0.22676 0.012955 -0.31339 -0.014224 -0.019921 0.17196 -0.36348 -0.37771 -0.015236 0.067579 -0.30331 -0.054725 0.35196 0.19437 0.18427 0.019169 -0.014087 0.10263 0.1425 -0.26489 -0.20965 0.023016 -0.1732 0.16529 0.17175 0.24588 0.12562 -0.11722 0.028285 -0.06348 0.21931 0.020535 0.21473 -0.03599 0.049675 0.13362 0.044198 0.095001 0.064185 -0.17977 0.0058782 -0.045747 0.12414 0.037412 0.18572 0.18024 0.22724 -0.03518 0.081408 -0.052711 0.11224 -0.15166 0.084292 -0.010981 0.022153 0.015521 0.040338 -0.072862 -0.042897 -0.10848 -0.13879 0.046519 0.0099384 -0.0008706 0.16969 -0.010375 0.020343 0.0506 0.10886 0.03834 0.10706 0.15709 0.090978 0.096094 0.026786 0.13474 -0.05218 0.02218 0.26364 -0.15846 0.021709 0.15966 -0.045216 0.0158 -0.031725 -0.11287 -0.014737 -0.17001 -0.10809 -0.074861 -0.27756 0.012897 -0.088991 0.042573 -0.16809 -0.026668 0.039733 0.12571 
수정|NNG -0.17688 0.062704 -0.18276 -0.0466 0.088628 -0.11024 0.0081505 0.064137 0.080445 0.067043 0.080942 -0.091256 0.20241 0.029869 -0.23604 0.074502 -0.022801 0.053947 0.065357 -0.060417 -0.22237 0.030737 0.036588 0.016913 0.038415 -0.20201 -0.065136 -0.021357 -0.039496 -0.0032884 0.063317 0.011351 -0.013904 -0.077317 -0.10779 -0.20716 0.14654 -0.096835 -0.062259 -0.10938 0.114 0.12234 0.12113 -0.17035 -0.087565 0.17678 -0.26733 -0.11477 -0.175 0.11923 -0.11726 0.17241 -0.16167 0.25126 0.0095065 -0.060307 0.0029254 0.084691 0.18167 0.030302 -0.13377 0.048336 0.050099 0.10924 -0.022327 0.065782 -0.028608 0.14942 0.142 0.13933 -0.1327 -0.058954 -0.016507 0.064351 -0.03568 -0.0078011 0.13418 -0.027365 -0.022493 -0.0328 -0.065894 0.10092 0.23202 -0.17575 -0.075984 0.032714 0.035836 -0.12895 -0.047388 -0.042595 0.15147 0.16376 0.15658 -0.15662 -0.0078076 -0.28486 0.039331 0.21892 -0.13948 -0.14354 
선택|NNG -0.14314 0.028155 -0.1176 -0.021481 0.063157 -0.088771 0.019205 0.05351 0.036624 0.027645 0.05879 -0.073643 0.16281 0.010059 -0.14922 0.05805 -0.012237 0.054125 0.041629 -0.02792 -0.16052 0.010955 0.020814 -0.0066508 0.049553 -0.13339 -0.059042 -0.0050446 2.3035e-05 -0.00034308 0.039368 -0.00015384 -0.0017994 -0.072243 -0.056968 -0.15114 0.10539 -0.063271 -0.057352 -0.090315 0.089758 0.076226 0.098203 -0.069818 -0.072344 0.13997 -0.21534 -0.080048 -0.13409 0.065045 -0.043552 0.12134 -0.1169 0.19488 0.017924 -0.036434 0.0015496 0.051605 0.11293 0.030659 -0.084482 0.016459 0.010449 0.093224 0.010446 0.049797 0.0026082 0.10311 0.10141 0.11676 -0.11599 -0.062388 -0.028286 0.04462 -0.007895 -0.028093 0.093683 -0.059849 -0.025081 -0.017695 -0.05366 0.07915 0.14264 -0.1348 -0.063803 0.03083 0.022909 -0.09769 -0.023879 -0.0092215 0.11452 0.1175 0.12478 -0.10013 -0.0033236 -0.22297 0.04202 0.16468 -0.10121 -0.11999 
메뉴판|NNG 0.13211 -0.10757 0.16567 0.11294 -0.13775 0.092898 0.11223 -0.13714 -0.16855 -0.1174 0.055285 0.058199 -0.19272 -0.053446 0.35443 -0.13169 -0.0098202 -0.030912 -0.034063 -0.01529 0.21327 -0.012497 -0.049412 -0.14824 -0.013581 0.27856 0.077061 0.099788 0.27779 0.074139 -0.16901 -0.18755 0.0054461 0.050388 0.072169 0.27397 -0.15681 0.068529 0.039817 0.057227 -0.092774 -0.17486 -0.11622 0.47097 0.19534 -0.32345 0.349 0.20357 0.28678 -0.32138 0.47321 -0.3403 0.15987 -0.3487 0.039806 -0.064193 0.11395 -0.25322 -0.35134 0.1053 0.24191 -0.26244 -0.24032 -0.13191 0.10844 -0.11948 0.13341 -0.32523 -0.15645 -0.074296 0.069465 0.18193 -0.090995 -0.048609 0.13833 -0.1206 -0.18671 -0.14443 -0.066546 0.19541 0.04529 -0.099667 -0.39833 0.24847 -0.073043 -0.070602 -0.11002 0.11106 0.11413 0.11502 -0.1922 -0.29776 0.014926 0.25996 0.019497 0.17462 0.086334 -0.23647 0.21773 0.23547 
도와줘요|VV+EC -0.33941 0.16358 -0.34361 -0.10778 0.1613 -0.18478 -0.022793 0.14563 0.15342 0.12731 0.1201 -0.15938 0.37595 0.068818 -0.47344 0.1637 -0.060879 0.10854 0.16666 -0.10716 -0.45508 0.10752 0.10716 0.056333 0.039657 -0.47324 -0.11446 -0.071161 -0.13567 -0.01196 0.12959 0.08373 -0.018216 -0.14906 -0.21386 -0.43531 0.31506 -0.22332 -0.13809 -0.23101 0.23175 0.26274 0.2372 -0.38873 -0.16919 0.3727 -0.47364 -0.22029 -0.3437 0.2836 -0.28537 0.3283 -0.34056 0.44997 0.038845 -0.16433 -0.0074843 0.1704 0.40774 0.043062 -0.34228 0.11255 0.15561 0.24667 -0.074357 0.1518 -0.077355 0.27613 0.28695 0.25972 -0.22079 -0.070523 0.033401 0.12843 -0.062311 0.026903 0.28217 0.017543 -0.0040562 -0.069808 -0.099306 0.16804 0.511 -0.3239 -0.14391 0.029287 0.032724 -0.2753 -0.11407 -0.10405 0.27699 0.29916 0.2787 -0.32221 -0.0171 -0.59728 0.022892 0.45197 -0.28977 -0.25378 
못해|VX+EC -0.064639 -0.050506 0.14631 0.12758 0.042069 0.069738 0.025849 -0.076427 -0.018122 0.02435 -0.051373 -0.004286 0.029183 -0.049434 0.17354 0.10862 -0.013736 -0.041134 -0.072903 0.071259 -0.019925 -0.13955 -0.079832 -0.10104 0.097106 -0.0071495 0.016515 -0.084804 0.066913 -0.030857 0.036922 0.032781 -0.052648 -0.027294 0.052659 -0.0070079 -0.038663 0.072336 -0.072175 0.097482 -0.014156 -0.17356 0.0053856 0.16845 -0.035788 0.0075747 -0.17804 0.028411 -0.089505 -0.081605 0.12096 0.15171 0.031614 0.038755 0.1022 0.083879 -0.012095 0.039343 -0.16271 0.092805 0.099117 0.0032246 -0.10021 -0.060996 0.026637 0.11167 0.018043 -0.15797 -0.14875 0.02329 0.031277 0.047068 -0.075695 -0.014692 0.076929 -0.097772 -0.21867 -0.27374 -0.057006 0.067779 0.0405 -0.015739 -0.28629 0.23216 -0.03532 0.015771 0.10328 0.12134 0.063807 0.20024 -0.1339 -0.094054 0.01005 0.14383 0.088997 0.35256 0.0033504 -0.3044 0.02498 0.064527 
원|NNG -0.22625 0.1117 -0.25838 -0.10199 0.12499 -0.13702 -0.016844 0.097475 0.1185 0.10261 0.099829 -0.11077 0.25309 0.048717 -0.35029 0.081254 -0.040312 0.072257 0.12031 -0.080033 -0.31683 0.10851 0.093203 0.056426 0.024587 -0.31821 -0.10573 -0.044241 -0.11003 -0.0019484 0.094764 0.062755 -0.012949 -0.09748 -0.15823 -0.2925 0.22375 -0.16287 -0.073774 -0.18085 0.15095 0.2268 0.17321 -0.29774 -0.11807 0.25143 -0.30681 -0.17183 -0.24223 0.21909 -0.22568 0.21397 -0.24581 0.32717 -0.0047106 -0.10799 -0.015109 0.11164 0.30953 0.015895 -0.24024 0.089686 0.12695 0.1799 -0.050239 0.079986 -0.063889 0.23819 0.22825 0.1823 -0.17462 -0.081762 0.020695 0.080309 -0.068757 0.034484 0.23277 0.06813 0.0087843 -0.086447 -0.10278 0.14149 0.42266 -0.28671 -0.067674 0.026173 0.015613 -0.21293 -0.11016 -0.11169 0.23203 0.24647 0.20336 -0.27145 -0.021121 -0.4928 0.014345 0.38169 -0.21739 -0.20737 
시|EP -0.22657 0.11908 -0.25532 -0.098851 0.1197 -0.13862 -0.025343 0.094495 0.13093 0.10774 0.082826 -0.11507 0.26495 0.055951 -0.35751 0.088723 -0.043842 0.076653 0.11721 -0.084912 -0.30908 0.10285 0.091687 0.05933 0.037455 -0.31905 -0.10606 -0.057098 -0.11463 -0.0041594 0.086925 0.05417 -0.026685 -0.10195 -0.16711 -0.29266 0.22242 -0.16446 -0.076701 -0.17631 0.16005 0.22761 0.17291 -0.29022 -0.11822 0.26215 -0.30653 -0.16767 -0.24215 0.21442 -0.22804 0.2197 -0.25356 0.32496 -0.0072663 -0.11022 -0.0091083 0.11571 0.30773 0.0088329 -0.24064 0.089639 0.13134 0.17493 -0.053697 0.086835 -0.057732 0.23037 0.22737 0.16944 -0.17204 -0.067925 0.031143 0.070482 -0.075517 0.037669 0.24368 0.061077 0.019118 -0.080377 -0.090055 0.13471 0.42384 -0.27841 -0.075314 0.02426 0.014404 -0.19547 -0.1051 -0.11527 0.23528 0.25429 0.20075 -0.27107 -0.025221 -0.48728 0.0083487 0.37302 -0.22659 -0.20348 
아니|VCN -0.18488 0.02326 -0.15621 -0.027414 0.083204 -0.13064 0.041873 0.069796 0.049967 0.022729 0.077525 -0.10731 0.21254 0.029036 -0.21392 0.074375 -0.011574 0.070586 0.060943 -0.043314 -0.23064 0.0021947 0.037324 -0.0027257 0.067813 -0.1806 -0.073369 -0.013299 -0.0064711 -0.0071901 0.046165 -0.02456 0.0078181 -0.08822 -0.086262 -0.21488 0.14926 -0.094495 -0.065778 -0.10951 0.12033 0.11839 0.13248 -0.11323 -0.095351 0.18526 -0.30368 -0.10233 -0.17118 0.090906 -0.092002 0.18228 -0.16965 0.27548 0.011481 -0.05405 0.018536 0.083161 0.17887 0.036764 -0.11767 0.014998 0.0039859 0.11856 0.0078996 0.067507 -0.01638 0.16841 0.14802 0.14877 -0.16335 -0.076564 -0.059053 0.07919 -0.019783 -0.024284 0.14344 -0.05567 -0.038715 -0.041728 -0.078652 0.12698 0.22901 -0.20935 -0.079846 0.037033 0.048771 -0.15365 -0.052551 -0.039536 0.16426 0.20927 0.16512 -0.17687 0.0086298 -0.34232 0.045514 0.27193 -0.15546 -0.18041 
돼|VV+EC 0.026086 -0.015651 0.014941 0.026941 -0.056154 0.030527 0.073915 -0.07073 -0.059446 -0.022702 0.076969 0.00097805 -0.062726 -0.0058169 0.090872 -0.0924 -0.036797 0.010102 0.038599 -0.048652 0.050196 0.076821 0.015519 -0.070589 -0.024017 0.10006 0.030098 0.070045 0.15587 0.063836 -0.11119 -0.12454 -0.010616 0.024728 -0.024738 0.12063 -0.056704 -0.011617 0.003459 -0.036121 -0.026059 -0.039277 -0.045795 0.24492 0.12623 -0.19073 0.22701 0.11102 0.15946 -0.16222 0.26743 -0.2313 0.050491 -0.20627 0.029756 -0.095098 0.09652 -0.17555 -0.15591 0.071464 0.087177 -0.1648 -0.1171 -0.032744 0.046637 -0.085669 0.059521 -0.16906 -0.027021 -0.009082 0.00262 0.12405 -0.039878 -0.01146 0.05648 -0.064837 -0.020312 -0.027304 -0.015006 0.10901 -0.0058775 -0.040496 -0.10964 0.062231 -0.046305 -0.063475 -0.10647 -0.0057657 0.02327 0.00079309 -0.05187 -0.13787 0.082592 0.073227 -0.019417 -0.09033 0.061397 0.022526 0.085209 0.11383 
어떻|VA 0.069108 -0.068838 0.29855 0.056656 -0.35234 0.020862 0.0041541 0.16523 -0.44225 -0.41744 -0.043143 0.090849 -0.33511 -0.080208 0.48643 0.23908 0.21294 0.0037261 -0.050167 0.14138 0.16231 -0.34937 -0.26747 -0.016587 -0.15052 0.20075 0.19907 0.24983 0.17323 -0.13314 0.036644 -0.079669 0.21461 0.0088402 0.27413 -0.032999 0.041518 0.20199 0.0226 0.14408 0.058256 -0.25104 -0.0063293 0.012792 0.12339 0.02479 0.15898 0.19884 0.25257 -0.077378 0.1493 -0.033191 0.13685 -0.1751 0.11329 0.016285 0.030987 0.033677 -0.018328 -0.06179 -0.0035721 -0.13131 -0.19227 0.035111 0.056515 0.022352 0.18203 -0.030194 -0.0050821 0.051921 0.10965 0.031242 0.096705 0.16005 0.12608 0.081762 -0.024801 0.073431 -0.073958 0.044148 0.27397 -0.17389 -0.032017 0.20094 -0.065373 0.033369 -0.017624 -0.13157 -0.008786 -0.13735 -0.12915 -0.077614 -0.29526 0.038977 -0.07729 0.097676 -0.17532 -0.06682 0.058676 0.14307 
게|EC 0.060945 -0.051412 0.3086 0.061343 -0.34786 0.022083 0.013036 0.1698 -0.44459 -0.43291 -0.04101 0.079172 -0.35354 -0.09191 0.49156 0.23688 0.21211 0.0078558 -0.05739 0.1476 0.16128 -0.33976 -0.26582 -0.02317 -0.15277 0.19689 0.19691 0.25337 0.16827 -0.12975 0.037884 -0.086821 0.22885 0.00063643 0.27398 -0.03389 0.048339 0.1964 0.035444 0.13241 0.047118 -0.26309 -0.0078484 3.798e-06 0.12271 0.032675 0.16905 0.20784 0.25249 -0.074056 0.14083 -0.030259 0.15505 -0.16099 0.11062 0.022082 0.024245 0.02674 -0.00078233 -0.055614 -0.0069701 -0.13084 -0.19018 0.035768 0.046463 0.013197 0.19242 -0.025724 -0.0097796 0.050641 0.1014 0.029285 0.095207 0.1787 0.13712 0.089336 -0.018998 0.075774 -0.088274 0.057035 0.2894 -0.16129 -0.034737 0.19856 -0.068052 0.025541 -0.012916 -0.13042 0.0052766 -0.13942 -0.12546 -0.083851 -0.29518 0.049318 -0.073449 0.11634 -0.17373 -0.077318 0.052069 0.13724 
가|VX 0.066883 -0.054066 0.29823 0.068136 -0.3461 0.0088595 0.012998 0.15683 -0.43836 -0.42853 -0.026002 0.090426 -0.35167 -0.078866 0.48412 0.23649 0.21375 0.01616 -0.048383 0.1471 0.15176 -0.346 -0.26352 -0.0086734 -0.15024 0.20603 0.19754 0.25278 0.17127 -0.13641 0.029875 -0.086711 0.23171 -0.0015376 0.26246 -0.027567 0.043801 0.19439 0.02895 0.14007 0.061067 -0.25602 0.0064842 0.0047774 0.12944 0.023262 0.15197 0.21631 0.23595 -0.089142 0.13423 -0.023964 0.14768 -0.17714 0.099326 0.016407 0.040888 0.032247 -0.0074726 -0.052819 -0.00312 -0.11781 -0.20059 0.031025 0.056711 0.025862 0.18787 -0.044519 -0.0086173 0.048421 0.10375 0.04419 0.087799 0.16425 0.12602 0.090381 -0.036097 0.068326 -0.070511 0.05137 0.27793 -0.16864 -0.03252 0.1818 -0.053556 0.038239 -0.0060809 -0.12553 -0.0063897 -0.13979 -0.14451 -0.073704 -0.29819 0.035975 -0.06493 0.11666 -0.17052 -0.071213 0.052881 0.14153 
앙|NNG 0.59965 -0.47926 -0.12598 -0.10755 0.012728 -0.26754 0.10672 -0.069584 0.093346 -0.22098 -0.023817 0.014087 -0.17548 0.066942 0.025318 -0.63849 0.14974 0.013983 -0.32349 0.046892 0.68349 -0.12245 0.0025186 0.12921 0.034038 0.85996 -0.1062 0.22167 0.081647 0.22028 -0.2614 -0.37445 0.15034 0.23766 0.18873 0.58706 -0.42272 0.23114 0.41539 0.13729 -0.2915 0.10585 -0.23458 0.24175 -0.042803 -0.27966 0.33768 -0.051986 0.36188 -0.15684 -0.12192 -0.50295 0.29843 -0.063869 -0.50957 0.2505 -0.11867 -0.10963 0.070264 -0.32153 0.3939 -0.038152 -0.087446 -0.22405 0.18007 -0.51341 -0.015007 0.49095 0.1037 -0.38854 -0.19207 -0.5609 -0.22164 -0.20922 -0.3726 0.029678 0.33153 0.37185 0.10255 -0.38 -0.2941 0.14873 0.16914 -0.71644 0.37947 0.18727 -0.042632 -0.047433 0.09561 -0.2052 0.327 0.41256 -0.29227 -0.068263 -0.087022 -0.046879 0.35211 0.28763 0.32183 -0.31126 
확인|NNG -0.25918 0.13482 -0.26343 -0.11102 0.10306 -0.14985 -0.0099317 0.12406 0.10119 0.07326 0.12046 -0.11925 0.25759 0.04205 -0.34736 0.098633 -0.043788 0.098824 0.13882 -0.098583 -0.33814 0.092842 0.07989 0.04638 0.0088504 -0.34071 -0.085781 -0.026562 -0.085366 -0.0086293 0.087362 0.0505 0.0040919 -0.12003 -0.15419 -0.31526 0.25548 -0.17043 -0.097425 -0.19424 0.19774 0.23814 0.18379 -0.32729 -0.11574 0.26784 -0.28765 -0.16182 -0.22537 0.25659 -0.25627 0.21641 -0.26685 0.328 0.013065 -0.15105 -0.0068674 0.11869 0.35316 -0.0035691 -0.30819 0.084906 0.15703 0.22331 -0.056959 0.083694 -0.049968 0.25128 0.25866 0.20156 -0.18406 -0.061933 0.030618 0.11239 -0.064851 0.043969 0.31196 0.13404 0.016441 -0.10947 -0.10093 0.1515 0.54735 -0.35372 -0.092817 0.016564 -0.015291 -0.26556 -0.17099 -0.20871 0.29505 0.31284 0.22822 -0.36888 -0.067 -0.69538 -0.038865 0.5295 -0.28528 -0.25814 
해줘요|XSV+EC+VX+EC -0.25859 0.12729 -0.2632 -0.096377 0.10205 -0.15609 -0.020728 0.11925 0.096588 0.077684 0.11085 -0.1285 0.25921 0.04703 -0.35038 0.094655 -0.03246 0.083249 0.1318 -0.094688 -0.33095 0.088229 0.085569 0.055544 0.013688 -0.33505 -0.086068 -0.020907 -0.097377 -0.0077182 0.089251 0.03884 -0.00044159 -0.10778 -0.15558 -0.32083 0.24102 -0.18024 -0.096291 -0.20033 0.19508 0.25091 0.19409 -0.33604 -0.1027 0.2745 -0.29512 -0.16632 -0.22681 0.24403 -0.25936 0.21483 -0.27504 0.33272 0.016091 -0.14468 0.0055588 0.11362 0.36981 0.0053753 -0.30909 0.076633 0.14947 0.21505 -0.059817 0.095744 -0.061994 0.2589 0.25076 0.21129 -0.18472 -0.059801 0.029616 0.099404 -0.074615 0.039137 0.31904 0.12397 0.019277 -0.10994 -0.087002 0.1407 0.55074 -0.36511 -0.078458 0.01246 -0.011483 -0.25891 -0.15334 -0.2063 0.30555 0.3226 0.22584 -0.36803 -0.059341 -0.70318 -0.03964 0.53941 -0.29774 -0.24626 
한다니까|VV+EC -0.13173 0.0052711 0.078362 0.096224 0.086785 0.04735 0.0041876 -0.036245 0.012057 0.07029 -0.0488 -0.023995 0.091639 -0.040576 0.065823 0.14487 -0.027276 -0.023867 -0.046399 0.060567 -0.12428 -0.11759 -0.046219 -0.096727 0.11495 -0.13042 -0.0038539 -0.12555 0.011957 -0.044143 0.077192 0.091932 -0.063901 -0.067017 0.0077312 -0.10483 0.011731 0.039212 -0.10771 0.052179 0.025833 -0.10499 0.053188 0.056546 -0.084177 0.096778 -0.29027 -0.024131 -0.17286 -0.031555 0.075405 0.25051 -0.023163 0.13149 0.1116 0.080528 -0.018313 0.092072 -0.12708 0.11382 0.06012 0.047688 -0.076316 -0.030447 0.018901 0.15989 -0.0028459 -0.096551 -0.11017 0.086142 0.0040507 0.043084 -0.063667 0.016566 0.067627 -0.089865 -0.20505 -0.28664 -0.066258 0.079238 0.041758 0.0039874 -0.28027 0.22861 -0.065965 0.013757 0.13535 0.11225 0.061298 0.23729 -0.12341 -0.085706 0.039703 0.13024 0.10798 0.35474 0.015036 -0.3303 -0.027897 0.039312 
줘|VV+EC 0.15836 -0.10176 0.15212 0.088724 -0.21221 0.088618 0.15029 -0.14254 -0.18722 -0.13624 0.10895 0.069355 -0.2332 -0.036437 0.3179 -0.19235 -0.035785 0.0027877 0.025823 -0.071757 0.22988 0.092272 0.0030374 -0.13086 -0.07922 0.33471 0.091892 0.18054 0.36898 0.12176 -0.22614 -0.26653 0.014804 0.089891 0.03904 0.33741 -0.17093 0.042646 0.061591 0.0091513 -0.10051 -0.1778 -0.15034 0.55796 0.29195 -0.45116 0.5792 0.28225 0.43224 -0.37302 0.57052 -0.54407 0.18153 -0.5255 0.038788 -0.15901 0.18337 -0.37739 -0.3633 0.10096 0.22636 -0.36309 -0.26947 -0.11674 0.11728 -0.19245 0.17466 -0.39205 -0.14095 -0.092579 0.08444 0.25681 -0.0795 -0.037717 0.15929 -0.10441 -0.10614 -0.025825 -0.04419 0.22385 0.0531 -0.1487 -0.2596 0.18449 -0.069038 -0.13331 -0.23245 0.03532 0.076977 -0.016508 -0.13761 -0.32216 0.057271 0.17854 -0.056771 -0.08118 0.07463 0.016782 0.21844 0.27427 
데이터|NNG -0.19751 0.1198 -0.32141 -0.16006 0.071187 -0.20325 -0.010194 0.15291 0.085409 0.028472 0.15034 -0.10868 0.23531 0.063354 -0.39231 0.044622 -0.027169 0.12085 0.15323 -0.12272 -0.28556 0.11916 0.10168 0.090242 -0.034587 -0.27716 -0.095851 0.052227 -0.084403 0.020755 0.065262 -0.018042 0.042415 -0.10886 -0.16536 -0.28394 0.23879 -0.18668 -0.043178 -0.21219 0.19652 0.30458 0.17456 -0.38362 -0.083441 0.26066 -0.18985 -0.16265 -0.15701 0.29274 -0.29812 0.1181 -0.28381 0.30368 -0.04344 -0.18688 0.0061376 0.089748 0.44921 -0.052934 -0.36054 0.057778 0.19968 0.24274 -0.051283 -0.0014012 -0.039987 0.34636 0.33596 0.18336 -0.21152 -0.11347 0.051458 0.11036 -0.12142 0.080879 0.43681 0.27751 0.048075 -0.15074 -0.10456 0.14358 0.64308 -0.44995 -0.046755 0.017829 -0.070929 -0.32478 -0.17037 -0.29617 0.37296 0.3641 0.19691 -0.42882 -0.11488 -0.83384 -0.024184 0.69068 -0.26794 -0.27295 
요|VCP+EC -0.19342 0.12335 -0.31425 -0.16344 0.081635 -0.20206 -0.026223 0.15952 0.08538 0.019827 0.15496 -0.12505 0.23082 0.073661 -0.40401 0.05182 -0.028635 0.12229 0.16663 -0.11738 -0.28674 0.13705 0.092792 0.088901 -0.039905 -0.27591 -0.10437 0.04729 -0.087087 0.017957 0.055499 -0.0028568 0.037075 -0.10498 -0.16797 -0.2927 0.25499 -0.18881 -0.033178 -0.22863 0.17766 0.31676 0.18295 -0.37563 -0.081219 0.26104 -0.19399 -0.15532 -0.15204 0.27788 -0.3023 0.11332 -0.27472 0.30481 -0.053619 -0.19246 -0.0002568 0.08136 0.45803 -0.067331 -0.3423 0.048688 0.19479 0.23961 -0.062314 0.013274 -0.040265 0.33971 0.33188 0.1739 -0.20327 -0.10434 0.050815 0.11918 -0.11626 0.068503 0.43544 0.27915 0.052969 -0.15322 -0.10838 0.13245 0.64111 -0.43933 -0.046858 0.0069072 -0.067176 -0.32649 -0.17843 -0.31062 0.37292 0.37082 0.1976 -0.42401 -0.1076 -0.82729 -0.025386 0.6877 -0.25598 -0.26461 
하이|NNG -0.2916 -0.0054512 0.57264 0.4257 0.047116 0.37735 0.013198 -0.19412 -0.14113 0.10198 -0.25746 0.034752 -0.0052927 -0.19637 0.62344 0.52006 -0.01551 -0.16797 -0.16174 0.2864 -0.18528 -0.45049 -0.27976 -0.33747 0.29288 -0.23255 0.14284 -0.33218 0.11639 -0.22574 0.21614 0.27759 -0.17787 -0.12057 0.19042 -0.15853 -0.050673 0.23964 -0.32076 0.31892 -0.018208 -0.6128 0.035303 0.4197 -0.09169 0.096906 -0.59696 0.1379 -0.34896 -0.2693 0.42251 0.64983 0.13273 0.05952 0.44659 0.28553 -0.024659 0.19527 -0.65089 0.37393 0.31661 0.083063 -0.33236 -0.16401 0.03418 0.54345 0.046934 -0.63931 -0.57302 0.16191 0.23433 0.30949 -0.11599 0.011304 0.37862 -0.24042 -0.88101 -0.95331 -0.21139 0.37044 0.31741 -0.1827 -1.1871 1.1332 -0.20249 0.0030453 0.36768 0.54709 0.24861 0.78809 -0.68618 -0.55724 -0.040595 0.62729 0.35845 1.4434 -0.090148 -1.3035 0.04131 0.36348 
해|VV+EC -0.10938 0.02258 0.014329 0.057403 0.059653 0.019728 -0.0062949 -0.0088513 0.039269 0.069131 -0.019339 -0.026236 0.092854 -0.01897 -0.0042136 0.091487 -0.010803 -0.0043965 -0.0090706 0.034035 -0.10769 -0.045935 -0.0076881 -0.04073 0.076539 -0.11972 -0.017519 -0.084521 -0.026671 -0.033597 0.069274 0.067957 -0.036898 -0.044555 -0.014846 -0.09998 0.041137 0.0030884 -0.071284 0.0083388 0.03069 -0.037195 0.051048 0.006368 -0.057772 0.094412 -0.22086 -0.030073 -0.14119 0.025692 -0.011161 0.17041 -0.047792 0.13017 0.061542 0.025432 -0.0046383 0.077029 -0.023986 0.055695 -0.0055198 0.052734 -0.0050408 0.013629 0.003427 0.11576 -0.022298 -0.040294 -0.045187 0.070001 -0.01019 0.021597 -0.035141 0.0035616 0.047845 -0.043251 -0.12484 -0.18291 -0.03186 0.049736 0.0090029 0.031016 -0.11914 0.1136 -0.046372 0.0069334 0.084765 0.042559 0.022537 0.12696 -0.059585 -0.030336 0.045087 0.059259 0.058418 0.16061 -0.0035865 -0.13798 -0.044372 0.0029686 
ㅇㅇ|UNKNOWN 0.39527 -0.41985 -0.085614 0.0018972 0.17607 -0.18381 0.099847 -0.13644 0.18274 -0.056291 -0.069998 -0.041095 0.013683 0.038531 -0.0049299 -0.45217 0.086958 -0.016485 -0.32518 0.094371 0.43393 -0.18538 -0.0019766 0.041892 0.19119 0.56295 -0.13987 0.011395 0.019789 0.14642 -0.14553 -0.21468 0.024967 0.15546 0.13379 0.40153 -0.37649 0.21976 0.2677 0.16032 -0.26014 -0.024403 -0.17713 0.30922 -0.17048 -0.1515 -0.094945 -0.1075 0.061805 -0.26957 0.021149 -0.14037 0.28841 0.10328 -0.34014 0.38989 -0.13491 0.0021467 -0.20324 -0.11903 0.50394 0.035012 -0.17527 -0.27178 0.16745 -0.27865 -0.045229 0.30053 -0.07835 -0.29709 -0.1677 -0.47766 -0.27095 -0.21164 -0.24455 -0.0811 -0.052489 -0.15062 -0.0066068 -0.2202 -0.26565 0.1967 -0.32006 -0.34061 0.24859 0.21593 0.19124 0.16818 0.2381 0.25546 0.074447 0.21538 -0.16623 0.19429 0.1177 0.54759 0.41116 -0.2848 0.30287 -0.23961 
줘야|VX+EC 0.037998 -0.010893 0.014825 0.016812 -0.062745 0.0075706 0.054979 -0.054272 -0.046591 -0.021268 0.056115 0.005577 -0.055538 -0.00024237 0.055789 -0.089651 -0.043849 0.010161 0.030835 -0.066397 0.053028 0.088549 0.036226 -0.057544 -0.032893 0.093461 0.032212 0.058687 0.13284 0.053843 -0.088418 -0.1193 -0.0020761 0.025873 -0.030377 0.11937 -0.032595 -0.027649 0.01466 -0.032466 -0.020122 -0.006435 -0.036496 0.19799 0.10875 -0.17025 0.21364 0.083971 0.14756 -0.1301 0.21122 -0.21296 0.020964 -0.17565 0.010959 -0.092537 0.081106 -0.14479 -0.11753 0.04553 0.059756 -0.13444 -0.082017 -0.020426 0.033246 -0.069614 0.048265 -0.14547 -0.015514 -0.01787 0.0064765 0.11972 -0.015597 -0.016346 0.043732 -0.046976 0.0091741 0.019051 -0.018331 0.10248 -0.0037811 -0.036671 -0.067882 0.053459 -0.034462 -0.059109 -0.1112 -0.00597 0.018024 -0.010546 -0.030124 -0.11661 0.067207 0.052857 -0.031261 -0.11049 0.039714 0.058452 0.062521 0.09993 
어떻게|MAG 0.027019 -0.019137 0.025934 0.030874 -0.056635 0.016665 0.061629 -0.062852 -0.05566 -0.036613 0.062081 0.015694 -0.062794 -0.01319 0.08482 -0.085149 -0.038402 0.0055077 0.025185 -0.054661 0.042785 0.084651 0.024377 -0.061476 -0.02409 0.097598 0.019533 0.07093 0.14931 0.071559 -0.11235 -0.12901 -0.015683 0.022877 -0.025336 0.12877 -0.053372 -0.027682 0.019592 -0.032907 -0.015331 -0.029791 -0.044606 0.23761 0.11323 -0.18757 0.22783 0.11011 0.16587 -0.16636 0.25992 -0.22763 0.039616 -0.19187 0.016082 -0.085841 0.090497 -0.16413 -0.13854 0.069925 0.094941 -0.16046 -0.10486 -0.047885 0.038715 -0.069093 0.069906 -0.16322 -0.028151 -0.01261 -0.00032654 0.1261 -0.042081 -0.01247 0.065595 -0.062622 -0.031764 -0.024323 -0.015532 0.11775 -0.011642 -0.041415 -0.10199 0.053054 -0.058352 -0.065978 -0.10219 0.0014021 0.035949 -0.0059084 -0.035579 -0.13904 0.080659 0.057824 -0.013044 -0.097901 0.061233 0.035608 0.084087 0.1064 
그래요|VA+EC -0.41424 0.31963 -0.22831 -0.13275 -0.013331 -0.072253 -0.067401 0.18882 -0.011824 0.057568 0.17488 -0.096138 0.23658 0.040368 -0.34256 0.30691 -0.080871 0.11914 0.30043 -0.15491 -0.50609 0.18246 0.066959 0.041705 -0.10305 -0.56783 -0.0063174 0.01783 -0.077641 -0.085085 0.1435 0.11075 0.022935 -0.20946 -0.21641 -0.50089 0.43607 -0.26686 -0.2011 -0.29017 0.32156 0.25777 0.2762 -0.48767 -0.012917 0.33293 -0.1825 -0.073202 -0.20626 0.34561 -0.20367 0.23924 -0.38276 0.22638 0.186 -0.33558 0.067194 0.098715 0.39622 0.068371 -0.48342 0.021063 0.19937 0.30892 -0.13121 0.18889 -0.00066439 0.15169 0.33444 0.34434 -0.10246 0.17425 0.18028 0.22907 0.038461 0.083013 0.38276 0.25323 0.02638 0.011276 0.071531 0.0087736 0.53297 -0.087459 -0.2056 -0.090849 -0.094905 -0.31003 -0.22657 -0.28147 0.20189 0.14312 0.27736 -0.35642 -0.10393 -0.8135 -0.20572 0.57102 -0.37975 -0.074168 
어요|EF 0.23533 -0.21643 -0.091784 -0.045093 0.09483 -0.12875 0.032195 -0.037905 0.11399 -0.034916 -0.042214 -0.016793 -0.0017883 0.027901 -0.065024 -0.2822 0.048654 0.0021213 -0.17483 0.044444 0.24379 -0.083284 0.01516 0.077431 0.081047 0.32174 -0.09918 0.025749 -0.023057 0.08737 -0.077041 -0.11432 0.029725 0.099648 0.063376 0.22662 -0.19248 0.097485 0.17935 0.068193 -0.14478 0.040568 -0.097962 0.080423 -0.10218 -0.057471 -0.046954 -0.097535 0.026982 -0.062932 -0.11153 -0.088803 0.1313 0.091232 -0.2363 0.21687 -0.092202 0.017863 0.010334 -0.12081 0.19594 0.056249 -0.021404 -0.11849 0.079105 -0.19242 -0.050901 0.24794 0.011221 -0.17897 -0.098471 -0.32338 -0.13636 -0.11902 -0.18553 -0.017486 0.037547 0.0035177 0.02582 -0.18632 -0.16074 0.12227 -0.012492 -0.29612 0.17838 0.13583 0.080873 0.042616 0.089433 0.039537 0.11399 0.18303 -0.13749 0.025816 0.027457 0.1664 0.2016 -0.063349 0.16242 -0.17907 
면|EC 0.11124 0.12632 0.037979 -0.06359 -0.047032 0.13241 -0.12506 -0.0055585 0.047593 0.097177 -0.071259 0.11161 -0.1188 0.026326 -0.048576 -0.02677 -0.029173 -0.064473 0.052264 -0.021367 0.089086 0.17694 0.072634 0.080805 -0.12934 -0.024675 0.050416 -0.054605 -0.18047 -0.016885 0.013062 0.14234 -0.040805 0.076829 -0.020864 0.076082 -0.028421 -0.03279 0.045576 0.014212 -0.062309 0.057583 -0.076808 -0.17766 0.079169 -0.097791 0.29518 0.0066312 0.077727 0.11788 -0.15725 -0.10147 0.029297 -0.20394 -0.0070061 -0.022576 -0.0314 -0.034127 0.022034 -0.07914 -0.093754 0.096739 0.20293 -0.048838 -0.11575 -0.02572 -0.085251 -0.069957 -0.040286 -0.11962 0.18201 0.10735 0.16526 -0.055178 -0.034171 0.10987 0.011569 0.25675 0.10633 -0.023725 0.055035 -0.11194 0.060024 0.086755 0.1179 -0.090944 -0.081064 0.089546 -0.058734 -0.087279 -0.067508 -0.11571 -0.11866 0.0051701 -0.053464 0.081815 -0.16292 -0.052327 0.0021625 0.11554 
되|VV 0.096065 0.12777 0.030299 -0.071094 -0.032445 0.13968 -0.12018 -0.0082824 0.045154 0.11137 -0.076721 0.11067 -0.12454 0.021297 -0.052799 -0.032338 -0.025314 -0.066278 0.034438 -0.027914 0.09915 0.17048 0.072584 0.097636 -0.12657 -0.028749 0.042014 -0.042687 -0.17728 -0.01561 0.019706 0.14202 -0.035152 0.069983 -0.018807 0.084284 -0.04067 -0.046514 0.035164 0.017687 -0.050027 0.059464 -0.078386 -0.17391 0.073433 -0.096472 0.29272 0.00033218 0.079706 0.11229 -0.14958 -0.11167 0.03384 -0.20933 -0.0067697 -0.013661 -0.038003 -0.037221 0.017332 -0.074618 -0.087007 0.10116 0.20035 -0.040392 -0.11175 -0.020849 -0.078088 -0.071289 -0.035351 -0.118 0.18107 0.10633 0.17585 -0.069354 -0.023841 0.1231 0.02148 0.25865 0.1023 -0.020392 0.046532 -0.11107 0.068765 0.09481 0.118 -0.076688 -0.079732 0.10285 -0.066031 -0.091909 -0.0688 -0.11005 -0.11799 0.018366 -0.054741 0.062887 -0.16001 -0.042453 0.016714 0.10817 
겠|EP 0.24633 -0.22667 -0.097842 -0.036999 0.10429 -0.1423 0.043531 -0.047386 0.10604 -0.03333 -0.040342 -0.029009 0.0075787 0.024489 -0.065922 -0.27963 0.066297 -0.0028088 -0.17418 0.053386 0.24391 -0.085253 0.02273 0.077523 0.083022 0.30999 -0.099882 0.017222 -0.036375 0.0906 -0.075206 -0.11996 0.036234 0.10393 0.065144 0.22026 -0.20074 0.10529 0.18086 0.069498 -0.14574 0.048518 -0.092425 0.083828 -0.11116 -0.06009 -0.045656 -0.096102 0.030218 -0.074901 -0.097269 -0.097152 0.14072 0.10418 -0.24277 0.21311 -0.087434 0.024227 0.0029894 -0.11929 0.20605 0.060379 -0.024878 -0.10719 0.074115 -0.17753 -0.05401 0.24994 -0.0036036 -0.18741 -0.11773 -0.32425 -0.12671 -0.11859 -0.18503 -0.0028587 0.041621 0.0030702 0.02627 -0.18761 -0.17023 0.12036 -0.013977 -0.30515 0.18578 0.12971 0.082845 0.044769 0.089951 0.04357 0.10421 0.18788 -0.12146 0.028746 0.015691 0.17248 0.20386 -0.066253 0.16332 -0.17374 
알|VV 0.24207 -0.22279 -0.09699 -0.034359 0.108 -0.13547 0.03312 -0.04607 0.11608 -0.034493 -0.040632 -0.027957 -0.0019591 0.026783 -0.062775 -0.27863 0.050246 -0.0056947 -0.17103 0.037899 0.25793 -0.072391 0.022396 0.059691 0.075028 0.32292 -0.090619 0.031349 -0.031082 0.083881 -0.083779 -0.11706 0.029059 0.1098 0.07614 0.21186 -0.20367 0.11615 0.17115 0.084817 -0.15305 0.05143 -0.093018 0.082636 -0.10459 -0.052508 -0.042733 -0.098772 0.0331 -0.066977 -0.11155 -0.096657 0.13832 0.097379 -0.24492 0.21525 -0.10189 0.03223 0.0088879 -0.12137 0.20978 0.054943 -0.037127 -0.12267 0.083095 -0.18638 -0.040475 0.25217 0.0087565 -0.18654 -0.11454 -0.31244 -0.13881 -0.11011 -0.18896 -0.0096171 0.042838 0.0042696 0.027586 -0.17666 -0.16806 0.10285 -0.024064 -0.30451 0.18552 0.12815 0.064781 0.044975 0.08743 0.048144 0.09972 0.19679 -0.13412 0.031367 0.014497 0.17128 0.21149 -0.050514 0.15816 -0.17293 
으응|IC 0.41355 -0.38478 -0.049017 -0.011545 0.1054 -0.16195 0.087621 -0.10714 0.11002 -0.096991 -0.072901 -0.014275 -0.074384 0.026832 0.042264 -0.43647 0.089024 -0.022656 -0.2884 0.091957 0.43765 -0.14903 -0.0078633 0.068492 0.11746 0.5626 -0.11292 0.055867 0.032329 0.1497 -0.1594 -0.21223 0.047267 0.18115 0.14492 0.42257 -0.36859 0.20893 0.26716 0.16174 -0.25199 -0.031023 -0.18965 0.29948 -0.11393 -0.17727 0.0061178 -0.076605 0.13093 -0.25908 0.025367 -0.20605 0.29949 0.022831 -0.31844 0.35679 -0.1023 -0.030702 -0.16245 -0.14033 0.39589 -0.0040998 -0.14293 -0.23348 0.15649 -0.2907 -0.034055 0.21743 -0.10189 -0.31076 -0.11921 -0.42031 -0.24646 -0.19738 -0.22714 -0.058222 -0.062679 -0.10875 0.0014598 -0.20893 -0.20934 0.12706 -0.18933 -0.31797 0.24647 0.18343 0.096086 0.11216 0.19387 0.16769 0.06107 0.17848 -0.20343 0.13399 0.054933 0.38511 0.32945 -0.21728 0.31591 -0.18776 
응응|MAG 0.35944 -0.31331 -0.059174 -0.020455 0.12712 -0.12864 0.05607 -0.095132 0.13034 -0.046474 -0.075544 -0.0073592 -0.057117 0.031457 -0.0043087 -0.37827 0.061353 -0.027709 -0.24845 0.082881 0.3417 -0.0936 0.023361 0.081036 0.10173 0.44201 -0.11635 0.0183 -0.025264 0.1101 -0.10872 -0.1393 0.025508 0.16107 0.10695 0.33292 -0.31292 0.16497 0.23188 0.14232 -0.23319 -0.0022048 -0.15734 0.1981 -0.10643 -0.13163 -0.011883 -0.085555 0.075512 -0.18287 -0.037568 -0.15713 0.2567 0.047169 -0.2849 0.31672 -0.11638 -0.0065959 -0.11935 -0.14195 0.34904 0.044735 -0.084715 -0.21517 0.11943 -0.23821 -0.065338 0.22524 -0.073404 -0.27003 -0.096488 -0.38666 -0.18417 -0.18317 -0.21152 -0.020005 -0.043834 -0.066568 0.021767 -0.19711 -0.20324 0.12225 -0.16114 -0.29403 0.24381 0.15895 0.095188 0.11307 0.1458 0.15125 0.05581 0.17221 -0.19421 0.11683 0.062124 0.38001 0.27588 -0.18417 0.25174 -0.18052 
보여|VV+EC 0.040371 -0.0055794 0.010635 0.015889 -0.070914 0.0075697 0.053681 -0.052831 -0.038096 -0.024218 0.056101 0.0029291 -0.059188 0.00096104 0.071456 -0.075881 -0.044747 0.017004 0.045369 -0.061315 0.052211 0.08479 0.026583 -0.058275 -0.031251 0.08389 0.013166 0.063085 0.13574 0.070696 -0.1028 -0.1035 -0.009736 0.016797 -0.022435 0.10459 -0.04925 -0.02595 0.014533 -0.039184 -0.0043213 -0.0070162 -0.032116 0.19827 0.11208 -0.15482 0.21656 0.084659 0.14757 -0.11998 0.21301 -0.20541 0.02322 -0.17949 0.0078845 -0.10421 0.084471 -0.14827 -0.11397 0.046165 0.068732 -0.14365 -0.078866 -0.025087 0.033487 -0.080403 0.062166 -0.14494 -0.012063 -0.015089 0.016943 0.10817 -0.026437 -0.015458 0.050589 -0.046676 0.0015384 0.014508 -0.0093056 0.10035 -0.0058752 -0.028083 -0.079587 0.052652 -0.051126 -0.065932 -0.11377 0.001801 0.022817 -0.017404 -0.03363 -0.11102 0.071376 0.055306 -0.02731 -0.10195 0.034262 0.044155 0.065231 0.096874 
찾아가|VV 0.058576 -0.025031 0.22066 0.021011 -0.30973 -0.010818 -0.0087632 0.17652 -0.37126 -0.36862 -0.018496 0.078523 -0.30827 -0.0536 0.35105 0.19025 0.18136 0.022811 -0.024588 0.093973 0.13508 -0.26138 -0.19938 0.026044 -0.1726 0.1811 0.15617 0.22862 0.12242 -0.12382 0.029751 -0.073558 0.21655 0.0099268 0.21511 -0.034089 0.063005 0.14113 0.034404 0.097219 0.06278 -0.18047 -0.0031652 -0.055353 0.11945 0.025148 0.19594 0.17329 0.23419 -0.031286 0.073707 -0.045673 0.11677 -0.16509 0.078279 -0.0012891 0.035608 0.015746 0.036475 -0.084943 -0.028423 -0.11001 -0.13829 0.047479 0.013164 0.013827 0.15786 0.0055943 0.022225 0.037951 0.10688 0.028695 0.10069 0.15143 0.10126 0.097413 0.039618 0.14711 -0.044024 0.024542 0.25292 -0.16444 0.0096624 0.14314 -0.032766 0.0073772 -0.028932 -0.12925 -0.024947 -0.1758 -0.10562 -0.066822 -0.27444 0.0081021 -0.078979 0.046912 -0.17956 -0.024858 0.032126 0.13217 
고르|VV 0.027671 -0.0014711 -0.00012763 0.016049 -0.057862 0.020342 0.058653 -0.053025 -0.052321 -0.023526 0.072624 0.0044713 -0.062117 -0.009653 0.064609 -0.086972 -0.042217 0.0019826 0.040199 -0.055141 0.041988 0.093171 0.0219 -0.0534 -0.044283 0.085373 0.026545 0.067777 0.14131 0.069024 -0.10379 -0.11096 0.0026951 0.01819 -0.026153 0.11797 -0.042002 -0.022688 0.010898 -0.040235 -0.012528 -0.023815 -0.049609 0.19368 0.11951 -0.17149 0.22447 0.093451 0.14328 -0.12326 0.22458 -0.21999 0.034663 -0.19154 0.020951 -0.089505 0.088282 -0.16152 -0.1166 0.053531 0.054517 -0.13751 -0.08837 -0.02762 0.042234 -0.082596 0.050016 -0.13778 -0.009543 -0.010562 0.0061911 0.11253 -0.032967 -0.0014122 0.043509 -0.046468 -0.003928 0.0074407 -0.0051938 0.083327 0.0022102 -0.032401 -0.077369 0.04094 -0.039539 -0.05508 -0.11507 -0.0099057 0.014431 -0.0087481 -0.038361 -0.12043 0.068625 0.055577 -0.015091 -0.11026 0.04774 0.051704 0.067327 0.098274 
좀|MAG 0.088534 -0.047754 0.028579 0.018102 -0.12593 0.025258 0.093389 -0.066728 -0.085692 -0.063396 0.091322 0.029612 -0.10427 -0.0054137 0.12061 -0.1468 -0.042175 0.01801 0.056355 -0.085175 0.10186 0.1283 0.037183 -0.060257 -0.0757 0.1782 0.048388 0.12063 0.2229 0.09626 -0.16506 -0.18101 0.00085579 0.049331 -0.014649 0.20091 -0.087613 -0.015563 0.044894 -0.041537 -0.039203 -0.038853 -0.084698 0.31642 0.18131 -0.27339 0.38941 0.15303 0.27671 -0.22998 0.36013 -0.36471 0.072312 -0.31799 0.016798 -0.14678 0.12793 -0.24338 -0.20323 0.058545 0.12298 -0.23831 -0.14974 -0.060191 0.072946 -0.14822 0.09558 -0.21791 -0.029367 -0.051903 0.018513 0.16188 -0.035072 -0.024059 0.084557 -0.070814 -0.0051881 0.041819 -0.018502 0.14003 -0.0055575 -0.078263 -0.13548 0.077473 -0.052257 -0.092429 -0.17499 0.001195 0.040613 -0.027457 -0.059872 -0.19478 0.077332 0.097944 -0.050994 -0.14543 0.066206 0.065276 0.13633 0.17094 
한잔|NNG 0.094448 0.074397 0.053011 -0.025448 -0.04218 0.10225 -0.068421 -0.013572 0.0068665 0.041939 -0.067447 0.083911 -0.12176 0.00072096 0.03001 -0.023106 -0.013226 -0.06047 0.0088839 0.011585 0.084934 0.092382 0.033682 0.041516 -0.081748 0.014566 0.054627 -0.015621 -0.10539 -0.014139 -0.0021968 0.072961 -0.010764 0.062943 0.01067 0.079973 -0.037081 -0.0039482 0.03991 0.034477 -0.053202 0.0056154 -0.078672 -0.084431 0.056531 -0.082225 0.22393 0.038227 0.086091 0.051811 -0.067034 -0.09852 0.052678 -0.16353 0.0032386 -0.010779 -0.021025 -0.027899 -0.0097903 -0.050653 -0.025717 0.053753 0.10547 -0.038275 -0.062316 -0.014932 -0.035083 -0.087397 -0.042598 -0.08347 0.14693 0.084009 0.11409 -0.039711 -0.013029 0.074081 -0.026074 0.15349 0.067251 0.00082872 0.046123 -0.095889 0.0052552 0.089937 0.07263 -0.060369 -0.058123 0.080848 -0.032443 -0.051062 -0.059997 -0.091899 -0.10817 0.032299 -0.031116 0.096651 -0.10369 -0.071402 0.03597 0.096165 
목록|NNG 0.081057 -0.037187 0.027095 0.026361 -0.12277 0.016801 0.079647 -0.075618 -0.091882 -0.058876 0.10213 0.033737 -0.11388 0.0022078 0.12961 -0.14264 -0.043525 0.007025 0.041672 -0.089637 0.10056 0.12482 0.039172 -0.075629 -0.065211 0.18257 0.045671 0.12726 0.21 0.10365 -0.15972 -0.19113 0.015368 0.047554 -0.022784 0.20968 -0.073743 -0.021202 0.050996 -0.035927 -0.033137 -0.043527 -0.078143 0.3194 0.18196 -0.27766 0.37917 0.16838 0.25895 -0.22164 0.35761 -0.36135 0.075639 -0.32281 0.012251 -0.14461 0.12422 -0.25757 -0.18808 0.068597 0.11459 -0.23497 -0.15153 -0.060574 0.069408 -0.14403 0.093862 -0.2226 -0.039555 -0.048332 0.021596 0.16789 -0.046859 -0.012612 0.083052 -0.057412 -0.0079439 0.042817 -0.0194 0.13176 -0.0026099 -0.076979 -0.13046 0.075056 -0.052269 -0.090576 -0.17475 -0.0010238 0.035943 -0.03957 -0.07059 -0.18641 0.066613 0.098855 -0.045078 -0.1394 0.057723 0.06986 0.13866 0.15433 
오래|MAG -0.39851 0.28521 -0.16671 -0.069524 0.01691 -0.040008 -0.058799 0.14061 0.018972 0.10067 0.12828 -0.096072 0.231 0.016549 -0.28469 0.29707 -0.082491 0.076333 0.25493 -0.11798 -0.45553 0.15066 0.043735 0.0046215 -0.047396 -0.51114 0.0017278 -0.03088 -0.067068 -0.085692 0.13676 0.12576 -0.018712 -0.18098 -0.1855 -0.43281 0.36593 -0.23097 -0.19869 -0.2218 0.26693 0.17149 0.22652 -0.36131 -0.019147 0.26686 -0.20445 -0.056869 -0.20329 0.26345 -0.1336 0.2454 -0.3381 0.20018 0.1786 -0.28538 0.068571 0.082215 0.2924 0.098871 -0.39494 0.022794 0.15051 0.25975 -0.11552 0.19472 -0.00091785 0.048013 0.21504 0.29884 -0.066375 0.17927 0.1357 0.18177 0.070299 0.048006 0.23181 0.10543 0.0032098 0.058974 0.056971 0.030274 0.39261 -0.03 -0.20107 -0.079218 -0.053949 -0.23069 -0.16497 -0.17913 0.13191 0.091001 0.27044 -0.26679 -0.068687 -0.6029 -0.1569 0.40593 -0.31981 -0.043863 
가|VV -0.22428 0.14146 -0.14255 -0.046872 0.045631 -0.071974 -0.025545 0.089606 0.04971 0.075217 0.094087 -0.083274 0.18416 0.022073 -0.2266 0.14399 -0.038353 0.058208 0.13356 -0.079168 -0.2699 0.082759 0.036691 0.010629 0.002806 -0.28782 -0.040242 -0.025662 -0.052664 -0.017308 0.07291 0.053324 -0.022525 -0.11481 -0.12667 -0.2581 0.21047 -0.14141 -0.10383 -0.14184 0.15561 0.13489 0.14171 -0.22871 -0.045198 0.18605 -0.18783 -0.073078 -0.16318 0.15526 -0.10953 0.1614 -0.20358 0.19478 0.068574 -0.14847 0.032894 0.063327 0.19184 0.049297 -0.21624 0.028652 0.085095 0.15044 -0.047808 0.10256 -0.017744 0.08583 0.16378 0.17689 -0.095328 0.038227 0.049149 0.0898 0.0056059 0.024251 0.15174 0.055805 -0.00431 0.00030179 -0.016128 0.067481 0.26168 -0.10742 -0.10365 -0.029617 -0.014139 -0.14843 -0.084031 -0.098801 0.1248 0.10805 0.1805 -0.18306 -0.041374 -0.38728 -0.039001 0.27876 -0.18581 -0.085533 
래요|EC -0.23522 0.1519 -0.15813 -0.05652 0.055814 -0.071202 -0.024978 0.088961 0.049432 0.07918 0.092778 -0.075912 0.19107 0.027037 -0.23203 0.13683 -0.041962 0.050173 0.14493 -0.076157 -0.27696 0.094457 0.050914 0.015124 0.0035136 -0.30163 -0.036759 -0.027482 -0.054284 -0.035668 0.084309 0.064336 -0.026685 -0.10075 -0.12117 -0.25613 0.22044 -0.13905 -0.10578 -0.1488 0.14283 0.14588 0.14825 -0.21245 -0.049717 0.18203 -0.18528 -0.081177 -0.15778 0.15665 -0.1111 0.16256 -0.20631 0.17928 0.066021 -0.13701 0.027262 0.062205 0.2058 0.049396 -0.22185 0.025761 0.087482 0.15558 -0.056953 0.10025 -0.011391 0.095547 0.16155 0.1704 -0.096524 0.034063 0.051345 0.094431 0.016031 0.015552 0.16448 0.049686 0.0047953 0.0074452 -0.0070602 0.060036 0.27577 -0.099926 -0.097807 -0.017002 -0.015284 -0.14846 -0.096271 -0.090468 0.13171 0.10961 0.18421 -0.17753 -0.031587 -0.39733 -0.052395 0.2686 -0.18425 -0.092161 
줘요|VX+EC -0.30744 0.19096 -0.19943 -0.077307 0.04295 -0.094371 -0.022822 0.13717 0.012964 0.047748 0.13865 -0.10594 0.21707 0.038935 -0.26854 0.19181 -0.046653 0.094222 0.19726 -0.1064 -0.37036 0.093037 0.049839 0.022186 -0.029097 -0.38021 -0.044923 -0.0061215 -0.037003 -0.038521 0.10259 0.046347 0.015046 -0.15386 -0.16339 -0.36462 0.29807 -0.17927 -0.13659 -0.19987 0.21769 0.20943 0.21034 -0.32013 -0.04831 0.27267 -0.23341 -0.098269 -0.19414 0.25651 -0.17758 0.21015 -0.29868 0.25513 0.09596 -0.22795 0.047888 0.085166 0.33625 0.042024 -0.34116 0.029189 0.12952 0.24657 -0.071932 0.12739 -0.015124 0.16268 0.25463 0.2558 -0.1392 0.04805 0.061767 0.13993 0.0034139 0.032724 0.28914 0.1336 0.011393 -0.032668 -0.017802 0.081401 0.46896 -0.19231 -0.14392 -0.032368 -0.048898 -0.26332 -0.16519 -0.20843 0.24075 0.21672 0.24582 -0.32669 -0.075414 -0.69686 -0.10361 0.51129 -0.31309 -0.16878 
수식|NNG -0.16847 0.049236 -0.15241 -0.027952 0.075717 -0.1053 0.017635 0.055574 0.051235 0.031201 0.083839 -0.092376 0.18317 0.022589 -0.17393 0.079085 -0.026215 0.064172 0.057204 -0.038439 -0.20824 0.0085417 0.027961 -0.0089691 0.046974 -0.18029 -0.053057 -0.023 0.0075246 0.0067096 0.053943 0.00043372 -0.0052524 -0.079434 -0.081559 -0.183 0.13781 -0.091654 -0.065683 -0.09911 0.12062 0.093111 0.12434 -0.10347 -0.079907 0.16239 -0.24957 -0.087268 -0.14572 0.067508 -0.053389 0.14912 -0.15153 0.22688 0.027631 -0.070073 0.013002 0.07482 0.15001 0.05357 -0.10821 0.0052192 0.0031179 0.10596 -0.0058174 0.058917 0.0010207 0.12289 0.12642 0.14423 -0.13109 -0.047443 -0.036729 0.066554 -0.013698 -0.01301 0.11717 -0.059562 -0.027108 -0.01159 -0.051884 0.088774 0.1869 -0.15005 -0.092101 0.023278 0.031291 -0.13903 -0.032765 -0.014129 0.12881 0.14104 0.16097 -0.13943 0.0052831 -0.27043 0.046507 0.19072 -0.12496 -0.11923 
